
\data\
ngram 1=3514
ngram 2=17933

\1-grams:
-1.887901	</s>
-99	<s>	0.2741506
-0.5525886	<unk>	-0.1036598
-4.063268	abandon|team|it	-0.0001375644
-4.188206	abandon||run	0.1423952
-3.966358	accept|NUMBER|	0.06599256
-3.887177	accept|ORDINAL|	0.2378666
-4.188206	accept|holding|	0.1423952
-4.188206	accept|start|	-0.0003443063
-4.063268	accept||	-0.0001312644
-4.188206	accompany|start|	-6.099066e-05
-4.188206	accomplish|everything|	-0.0003426648
-4.188206	accomplish||	0.002472036
-3.762238	accord||	0.238532
-4.188206	account||	0.1423368
-4.188206	accumulate|they|penalty	0.06630857
-4.188206	acknowledge|PERSON|	-0.0003912474
-4.188206	act|I|	-0.0003426648
-4.188206	adapt|he|	0.1424411
-4.188206	addict|I|	0.1423952
-4.188206	add|PERSON|MISC	0.0662396
-4.188206	add|PERSON|NUMBER	-0.0004381835
-4.188206	add|PERSON|other	0.1426368
-3.966358	add|PERSON|pair	0.141979
-4.188206	add|PERSON|run	-0.0004100225
-4.188206	add|he|	0.06625055
-4.188206	add|he|catch	3.294129e-05
-4.188206	add|it|	0.1501526
-4.188206	add|we|	0.1423952
-3.623935	add||	0.2407341
-4.188206	add||insurance	0.1426629
-4.063268	admit|I|	0.06841782
-4.188206	admit|he|	0.1423368
-3.762238	admit||	0.1644049
-4.188206	afford|we|	-0.0003332786
-4.188206	afford|we|it	0.002302868
-4.188206	agaisnt|he|they	-0.0003426648
-4.188206	agree|I|	0.1423952
-3.966358	agree|PERSON|	0.01356503
-4.188206	agree|you|	0.06622866
-4.188206	aim|Gerrard|corner	-0.0003426648
-4.188206	aim|ORGANIZATION|	-0.0003349175
-4.188206	aim||	0.01269323
-4.188206	allow|IP|	0.1423107
-4.188206	allow|LOCATION|NUMBER	-0.0004100225
-4.188206	allow|ORGANIZATION|point	0.1423237
-3.762238	allow|PERSON|	0.2380235
-3.887177	allow|PERSON|NUMBER	0.2389649
-3.887177	allow|PERSON|hit	0.0682426
-4.188206	allow|PERSON|homer	0.06621771
-3.343108	allow|PERSON|run	0.2783925
-4.063268	allow|defense|ORGANIZATION	-0.0004568157
-4.063268	allow|defense|PERSON	0.06925506
-4.188206	allow|defense|point	0.06627244
-4.063268	allow|error|run	0.001393998
-3.5192	allow|he|	0.2373883
-4.063268	allow|he|NUMBER	0.06674818
-3.665328	allow|he|hit	0.1423229
-4.188206	allow|he|ren	-7.038284e-05
-3.3036	allow|he|run	0.2480186
-4.188206	allow|pitcher|run	-0.0004100225
-4.188206	allow|that|PERSON	-0.0004381835
-4.188206	allow|that|he	-0.0003818596
-4.188206	allow|that|point	0.1423107
-4.063268	allow|that|yard	0.1421871
-3.887177	allow|they|	0.06662659
-3.887177	allow|they|NUMBER	0.1424689
-4.188206	allow|they|ORGANIZATION	0.06621771
-4.063268	allow|they|play	-0.0001375644
-3.82023	allow|they|point	0.2372516
-4.063268	allow|they|run	0.1424287
-3.966358	allow|they|sack	0.008739268
-3.762238	allow|they|yard	0.2497006
-4.188206	allow|who|run	0.142415
-3.5192	allow||	0.2474139
-4.063268	allow||DURATION	0.1421871
-3.887177	allow||NUMBER	0.07037348
-4.188206	allow||ORGANIZATION	0.08154368
-3.586146	allow||PERSON	0.2440661
-3.188206	allow||hit	0.1429222
-3.097126	allow||run	0.2580966
-4.188206	allow||runner	0.1451495
-4.188206	allow||she	0.08154368
-4.188206	amass|Titans|yard	-0.0003426648
-4.188206	amass|they|yard	0.0663819
-4.188206	anchor||staff	0.06630857
-4.188206	answer|LOCATION|	0.1423368
-4.188206	answer||NUMBER	0.1423237
-4.063268	anticipate||	0.1459667
-4.063268	apologize|I|	0.1423958
-4.188206	appear|DATE|	6.112471e-05
-3.711085	appear|PERSON|	0.2375354
-3.82023	appear|he|	0.1610358
-3.762238	appear|it|	0.2374246
-4.188206	appear|team|	0.06930387
-4.063268	appear||	0.1425916
-4.188206	arent|they|	0.0005579484
-4.188206	argue||	-1.557649e-05
-4.188206	argue||call	-0.0003332786
-4.188206	arrive||	0.143329
-3.887177	ask|I|	0.1435293
-4.063268	ask|he|	0.1422717
-4.188206	ask|we|	0.1438521
-3.887177	ask|you|I	0.06641816
-3.762238	ask||	0.2374047
-4.188206	ask||question	0.1456091
-4.063268	assist||	0.2378244
-3.887177	assume|I|	0.2381857
-4.188206	assume|he|	0.06627244
-4.188206	assume||	0.1423952
-3.966358	assure||	0.1603574
-3.364298	attack||	0.2418493
-4.188206	attempt|PERSON|	0.237948
-4.063268	attempt|he|	0.1500249
-3.82023	attempt||	0.238173
-4.063268	average|ORGANIZATION|	0.1431139
-4.188206	average|he|yard	-0.000353695
-4.188206	average|they|	0.01267388
-3.966358	average||	0.2377235
-4.188206	average||NUMBER	0.06629433
-4.188206	average||yard	0.0662396
-4.188206	avoid|sweep|	-0.0003426648
-3.711085	avoid||	0.2373337
-4.188206	award|PERSON|	-0.0003426648
-4.188206	back|NUMBER|	0.1427934
-4.188206	back||	0.07278971
-4.188206	bail|the|PERSON	0.06859904
-4.188206	base|LOCATION|point	0.237948
-3.82023	base||	0.1449466
-4.188206	batter|ORGANIZATION|	-4.376294e-05
-4.188206	battle|team|	0.0007932186
-4.063268	battle||	0.01254274
-4.188206	bat|I|	0.1423952
-4.188206	bat|PERSON|NUMBER	0.1443103
-3.966358	bat||	0.1499412
-4.063268	bear||	0.1421871
-4.188206	beat|LOCATION|	0.06630857
-4.188206	beat|LOCATION|ORGANIZATION	0.0004356582
-3.887177	beat|ORGANIZATION|	0.1460647
-4.188206	beat|ORGANIZATION|Nationals	-0.0002973601
-3.966358	beat|ORGANIZATION|ORGANIZATION	0.1429782
-4.188206	beat|PERSON|they	0.237948
-4.063268	beat|he|	0.1499585
-4.188206	beat|team|PERSON	0.1606342
-3.887177	beat|they|	0.238241
-4.188206	beat|they|MISC	-0.0003426648
-3.82023	beat|they|ORGANIZATION	0.2379026
-4.188206	beat|we|they	0.1423107
-4.063268	beat|who|PERSON	0.1426376
-3.665328	beat||	0.236839
-3.82023	beat||LOCATION	0.1439563
-4.188206	beat||NUMBER	0.1442317
-3.665328	beat||ORGANIZATION	0.2499498
-3.665328	beat||PERSON	0.237009
-3.887177	beat||record	0.1602599
-4.063268	beat||they	0.008372675
-3.887177	become|I|	0.2604638
-3.711085	become|PERSON|	0.1417922
-3.586146	become|he|	0.2787877
-4.188206	become|penalty|	0.005287787
-4.188206	become|you|	0.07278971
-3.285116	become||	0.2677625
-4.188206	begin|City|	0.06621771
-4.063268	begin|ORGANIZATION|	0.1604958
-4.188206	begin|ORGANIZATION|series	0.06630857
-3.82023	begin|PERSON|	0.1452381
-4.188206	begin|he|	0.06622866
-3.966358	begin|leg|	0.1421482
-4.188206	begin|season|	0.1501526
-4.188206	begin|they|	0.06621771
-4.188206	begin|thing|	0.1606342
-4.188206	begin|we|	0.06629433
-4.063268	begin|which|	0.001205404
-3.887177	begin||	0.1604121
-3.623935	believe|I|	0.2379959
-4.188206	believe|I|what	0.1501526
-4.188206	believe|you|	0.142402
-3.665328	believe||	0.2743609
-4.063268	believe||it	0.2378244
-4.188206	belong|I|	0.0744149
-4.063268	belong|he|	0.2377495
-4.188206	bench||	0.005221164
-4.188206	bend||	0.1426107
-4.188206	benefit|they|	0.1606342
-3.82023	bet|I|	0.2373041
-3.665328	bet||	0.151711
-4.063268	be|CAUSE_OF_DEATH|	0.1421678
-3.665328	be|DATE|	0.246791
-4.188206	be|Eagles|	0.005287787
-2.887177	be|I|	0.2864939
-3.434879	be|LOCATION|	0.1773507
-3.665328	be|MISC|	0.1617022
-3.250354	be|NUMBER|	0.2647856
-3.188206	be|ORGANIZATION|	0.2712646
-2.582542	be|PERSON|	0.2779797
-4.063268	be|Problem|	0.06601425
-3.887177	be|all|	0.2608679
-4.188206	be|anyone|	-0.0002863446
-4.188206	be|argument|	0.06632717
-4.188206	be|be|	-0.0001564911
-4.188206	be|bit|	0.237948
-4.188206	be|body|	-0.0003426648
-4.188206	be|boy|	0.1446642
-4.063268	be|chance|	0.01280195
-3.887177	be|concern|	0.1434638
-4.188206	be|conclusion|	-3.281335e-05
-3.762238	be|defense|	0.2397053
-4.063268	be|difference|	0.1421025
-4.188206	be|doubt|	-0.0004287967
-4.188206	be|effort|	0.237948
-4.188206	be|encroachment|	-0.0003426648
-4.188206	be|era|	-0.0003332786
-4.188206	be|event|	0.237948
-4.188206	be|excitement|	0.1423107
-4.063268	be|expectation|	0.2384326
-4.188206	be|fan|	0.0662396
-4.188206	be|field|	0.08154368
-4.188206	be|flick|	0.06630857
-4.188206	be|focus|	0.237948
-3.322905	be|game|	0.2522615
-4.063268	be|goal|	0.1421808
-3.82023	be|guy|	0.006710785
-4.063268	be|half|	0.06613795
-4.188206	be|head|	0.0744149
-4.063268	be|here|	0.1423958
-2.773233	be|he|	0.2841379
-4.188206	be|hope|	0.237948
-4.188206	be|improvement|	0.1430154
-4.063268	be|injury|	0.06622552
-4.188206	be|inning|	-0.0004287967
-2.612249	be|it|	0.2869782
-4.188206	be|it|what	-0.0003255285
-3.711085	be|key|	0.2370736
-4.188206	be|k|	0.237948
-4.188206	be|lead|	0.1424281
-3.887177	be|line|	0.1422407
-4.188206	be|look|	0.06630857
-3.665328	be|lot|	0.2391573
-4.063268	be|match|	0.2378244
-4.188206	be|medal|	0.1423498
-3.966358	be|moment|	0.2378373
-4.188206	be|more|	0.237948
-4.188206	be|need|	-0.0004287967
-3.966358	be|news|	0.2377009
-4.188206	be|no|	-0.0001095247
-4.063268	be|number|	0.1605107
-4.188206	be|obp|	-0.0002863446
-4.063268	be|offense|	0.1422591
-4.188206	be|out|	0.002216965
-3.966358	be|o|	-0.0006664486
-3.665328	be|part|	0.2370767
-4.063268	be|penalty|	-0.0001782553
-4.063268	be|performance|	0.0004236121
-3.966358	be|player|	0.1604948
-3.966358	be|play|	0.06687385
-4.188206	be|possibility|	0.1423107
-4.188206	be|presence|	0.06742321
-4.063268	be|problem|	0.1519719
-3.887177	be|race|	0.2605629
-3.5192	be|reason|	0.239963
-4.188206	be|record|	0.1437343
-4.188206	be|rest|	0.237948
-3.966358	be|room|	0.06899679
-4.188206	be|run|	0.1424933
-3.887177	be|season|	0.007274143
-3.82023	be|she|	0.2422325
-4.188206	be|side|	0.1423952
-4.188206	be|sign|	0.1423498
-3.887177	be|something|	0.0668412
-4.063268	be|spot|	0.001412862
-4.188206	be|strategy|	0.237948
-4.188206	be|struggle|	0.06629433
-3.762238	be|surprise|	0.1514611
-4.188206	be|talent|	0.237948
-3.711085	be|team|	0.2600098
-2.826478	be|that|	0.2976989
-3.012115	be|they|	0.256486
-4.188206	be|they|what	0.1423368
-3.364298	be|thing|	0.1447317
-3.386574	be|this|	0.2403813
-3.711085	be|time|	0.2529328
-4.188206	be|timing|	0.1423107
-4.188206	be|trouble|	0.1432375
-4.063268	be|truth|	0.1422069
-4.188206	be|turnover|	0.006678261
-3.762238	be|way|	0.1477854
-3.21817	be|we|	0.2653266
-3.887177	be|what|	0.1601918
-3.489236	be|which|	0.2565892
-3.322905	be|who|	0.2632139
-3.551384	be|you|	0.2406848
-0.8467059	be||	0.05593389
-4.188206	be||it	-7.977468e-05
-4.188206	blast|PERSON|homerun	-0.0003145057
-4.188206	blast|PERSON|run	0.1437343
-4.063268	blister||	0.1421417
-4.188206	blitz|ORGANIZATION|	0.06630857
-4.188206	blitz|teamusa|wr	0.1423952
-4.188206	block|sack|pass	0.001698908
-4.188206	block|sprint|	-0.0003238922
-4.188206	block|which|	-0.0003426648
-3.250354	block||	0.2534069
-4.063268	blogg|post|	0.00516425
-3.887177	blow|PERSON|	0.06614405
-4.188206	blow|many|assignment	-0.0003426648
-3.410055	blow||	0.2373564
-3.966358	blow||lead	0.2382766
-4.063268	bobble|PERSON|ball	0.2377657
-4.188206	bob||	0.0664257
-4.188206	bomb|point|career	-0.0003332786
-4.188206	book|Skrtel|	-0.0002957318
-4.188206	book|who|	-0.0002863446
-4.188206	boost||confidence	-0.0003238922
-4.188206	boot|PERSON|goal	-8.134238e-05
-4.188206	boo||	0.06621771
-4.188206	bother|it|I	0.1426368
-4.188206	bounce|ball|	0.1423952
-4.063268	bounce|it|	0.06674818
-4.188206	bounce|kid|	0.01276853
-4.188206	bounce||	0.1425976
-4.188206	break|ORGANIZATION|	-0.0003426648
-3.665328	break|PERSON|	0.2373109
-4.063268	break|PERSON|record	0.1437226
-4.188206	break|ball|	0.237948
-3.887177	break|he|	0.2603914
-3.887177	break|he|record	0.2393826
-4.188206	break|record|	0.1423952
-4.188206	break|they|	0.1423759
-4.063268	break|who|plane	0.012645
-3.489236	break||	0.2381586
-3.711085	break||record	0.2480161
-4.188206	break||tie	-0.0004194097
-4.188206	breed|performance|confidence	0.1424541
-4.188206	bridge|reliever|gap	-1.55764e-05
-3.887177	bring|PERSON|	0.1522348
-4.188206	bring|PERSON|PERSON	0.1423952
-4.188206	bring|PERSON|it	0.06630857
-3.966358	bring|he|	0.06620502
-4.188206	bring|inside|PERSON	-0.0003426648
-3.966358	bring|they|	0.2377009
-4.063268	bring|which|question	-0.0004098816
-3.82023	bring||	0.2375091
-3.966358	bring||PERSON	0.2380064
-4.188206	bring||ball	-0.0003426648
-3.966358	bring||home	0.06598926
-3.762238	build||	0.2394203
-4.063268	build||lead	0.1422717
-3.82023	burn|PERSON|	0.2377822
-4.188206	burn||	0.1423952
-4.188206	burst|chance|	-0.0003426648
-4.188206	burst|he|	-0.0003238922
-4.188206	burst|o|	-0.0003426648
-4.188206	buy|I|ticket	0.0004544696
-3.966358	call|I|	0.1554724
-3.887177	call|LOCATION|	0.2398984
-4.188206	call|ORGANIZATION|PERSON	0.1423498
-3.5192	call|PERSON|	0.1704601
-4.188206	call|PERSON|run	0.1606342
-4.063268	call|he|	0.1458351
-4.063268	call|it|	0.1421871
-4.063268	call|play|	0.08138713
-4.188206	call|that|	0.1426107
-4.188206	call|they|	0.1606342
-3.434879	call||	0.2625692
-4.063268	call||it	0.2378244
-4.063268	call||play	-0.0004772319
-3.887177	call||race	0.08124429
-3.887177	cant|I|	0.2374275
-4.188206	cant|I|wait	2.200849e-05
-4.188206	cant|he|	0.1423107
-4.188206	cant|we|	0.1423368
-3.665328	cant|you|	0.2384129
-4.063268	capitalize||	0.06617845
-4.188206	capture|PERSON|gold	0.1423952
-4.188206	cap|drive|	0.06701735
-4.063268	cap|pass|	0.1422262
-4.188206	cap|that|	-0.0003426648
-4.188206	cap||	0.0127416
-4.188206	care|I|	0.06930387
-3.711085	carry|NUMBER|	0.2599927
-3.762238	carry|PERSON|	0.2495901
-4.188206	carry|PERSON|NUMBER	-0.0003349175
-3.887177	carry|PERSON|ball	0.06931461
-4.188206	carry|PERSON|yard	0.1424933
-3.887177	carry|per|	0.2374925
-3.410055	carry|yard|	0.2603239
-2.99323	carry||	0.2576942
-4.188206	carry||Moors	-0.0002018506
-4.063268	carry||ball	0.2378244
-4.188206	catch|I|myself	2.200861e-05
-4.063268	catch|ORGANIZATION|	0.1421871
-3.586146	catch|PERSON|	0.1438196
-4.063268	catch|PERSON|ball	0.1422784
-3.586146	catch|PERSON|pass	0.07023504
-3.966358	catch|PERSON|share	0.1420897
-3.887177	catch|he|	0.1422083
-3.966358	catch|he|pass	0.1432529
-4.188206	catch|it|	0.0662396
-4.063268	catch|who|	0.1422717
-3.5192	catch||	0.2493199
-3.887177	catch||ball	0.2375314
-4.063268	catch||he	0.1426898
-3.82023	catch||pass	0.08145919
-4.188206	cause|PERSON|	0.0001629812
-4.188206	cause|offense|loss	-0.0002394055
-3.966358	cause||problem	0.08140077
-4.188206	celebrate|PERSON|	0.1423952
-3.966358	celebrate||	0.2381138
-3.82023	center||	0.1430987
-4.188206	change|nothing|	0.1456091
-4.188206	change|that|	0.06630857
-3.887177	change||	0.14226
-4.188206	change||thing	0.005259206
-3.966358	charge|PERSON|	0.001637476
-4.188206	charge|he|	0.1423498
-3.82023	charge||	0.237538
-4.188206	chase||PERSON	0.06630857
-3.966358	check||	0.1499056
-4.063268	check||Miles	0.00516425
-4.063268	cheer|I|	-0.0003082055
-4.063268	cheer|PERSON|he	0.1441082
-3.82023	cheer||	0.2410262
-4.188206	chip|PERSON|	0.237948
-4.188206	chip|he|	0.0003134026
-4.188206	choose|I|	-0.0003912474
-4.188206	choose|they|	0.06630857
-4.188206	choose|who|	0.1423952
-3.966358	chop|PERSON|	0.06597067
-4.188206	chop||	0.1427804
-4.188206	claim|he|penalty	-9.855788e-05
-4.063268	claim||	0.1604958
-4.188206	clatter|it|outside	-0.0003426648
-4.188206	clatter||	-0.0003426648
-4.188206	claw|we|way	0.1423952
-4.188206	clean|PERSON|	0.1423628
-3.966358	clear|PERSON|	-0.0006664486
-4.188206	clear|ball|	-0.0003426648
-4.188206	clear|first-touch|	0.06630857
-4.188206	clear|flick|	-0.0003426648
-4.188206	clear|free-kick|	-0.0002675696
-3.966358	clear|it|	0.2377235
-4.188206	clear|long|	-0.0003426648
-4.188206	clear|o|	-9.855788e-05
-3.966358	clear||	0.06666853
-4.188206	clear||ball	0.1423107
-3.762238	click||	0.1497262
-4.188206	clinch||spot	0.1427804
-4.063268	close|PERSON|	0.1423634
-4.188206	close|PERSON|it	0.000595583
-4.188206	close|pmichigan|gap	-0.000400635
-4.188206	close|they|	0.002207521
-4.188206	close||it	0.1459903
-4.188206	coach|ORGANIZATION|	0.1423368
-4.188206	coach|PERSON|	0.0006910347
-4.188206	coach|call|PERSON	0.237948
-3.551384	coach||	0.1423779
-3.762238	coach||PERSON	0.2390841
-4.188206	collapse||	0.1423498
-4.188206	collect|PERSON|hit	0.1428326
-4.188206	collect|wasnt|ball	0.1423628
-4.063268	collect||	0.1422717
-4.188206	combine|LOCATION|	0.1423952
-4.063268	combine|NUMBER|	0.06659789
-3.364298	combine|PERSON|	0.1449271
-4.063268	combine|he|	0.2377657
-3.5192	combine||	0.2612852
-3.887177	come|DATE|	0.2387039
-4.188206	come|DURATION|	0.1423952
-4.063268	come|Dame|	0.01253306
-3.711085	come|I|	0.1524697
-3.489236	come|LOCATION|	0.2368019
-4.188206	come|LOCATION|season	-0.0003051188
-4.188206	come|Lions|	0.1423498
-4.063268	come|MISC|	-0.0003943479
-4.188206	come|NATIONALITY|	0.0151187
-3.461208	come|NUMBER|	0.2405442
-4.188206	come|ORDINAL|	-0.0003818596
-3.285116	come|ORGANIZATION|	0.259149
-4.188206	come|ORGANIZATION|season	0.01540093
-2.61611	come|PERSON|	0.2835589
-3.966358	come|PERSON|big	0.002054933
-4.063268	come|PERSON|start	0.06607992
-4.188206	come|Phils|	-0.0003426648
-4.188206	come|Rams|	-0.0003426648
-4.188206	come|SUB|	0.06630857
-4.188206	come|anybody|	-0.0003426648
-4.188206	come|chance|	0.06621771
-3.966358	come|defense|	0.2399961
-4.188206	come|didnt|	0.0003604199
-4.188206	come|drive|	0.1423107
-4.188206	come|flag|DURATION	0.00016448
-4.188206	come|game|	-0.0003724716
-3.762238	come|goal|	0.1452834
-3.233964	come|he|	0.2633008
-3.233964	come|it|	0.2554547
-4.188206	come|most|	0.1423952
-4.063268	come|offense|	0.0813758
-3.966358	come|o|	0.0004238234
-4.063268	come|point|	0.06689382
-4.188206	come|run|	0.1423237
-4.188206	come|season|	0.06621771
-4.188206	come|she|	-0.0002316269
-4.188206	come|team|	0.1423952
-3.762238	come|that|	0.2500755
-4.188206	come|that|time	3.294129e-05
-3.322905	come|they|	0.2552102
-4.188206	come|the|	0.1424411
-4.188206	come|time|	0.1423952
-3.623935	come|we|	0.1712274
-4.063268	come|which|	0.2380746
-3.665328	come|who|	0.2601171
-4.063268	come|you|	0.1542957
-2.60463	come||	0.295787
-4.063268	come||ORGANIZATION	0.06618503
-4.063268	come||PERSON	-0.0004568157
-4.188206	come||TIME	-0.0003426648
-4.188206	come||a	0.1423952
-4.188206	come||home	0.1423889
-4.188206	comment|PERSON|	0.08154368
-4.063268	comment||	0.14405
-4.063268	commit|ORGANIZATION|penalty	0.1425002
-3.966358	commit|PERSON|error	0.1433314
-4.188206	commit||	0.237948
-3.410055	compare||	0.2639291
-4.063268	compete|PERSON|	0.1426177
-4.063268	compete|they|	0.2378244
-4.188206	compete|we|	-0.0003818596
-4.188206	compete|who|	0.06632717
-3.551384	compete||	0.2637742
-3.762238	complain||	0.2372095
-3.82023	complete|PERSON|NUMBER	0.2471186
-3.762238	complete|PERSON|pass	0.1417791
-4.063268	complete|he|PERCENT	0.1423697
-3.966358	complete|he|pass	0.0001104925
-3.82023	complete||	3.29935e-05
-3.711085	complete||NUMBER	0.1426606
-3.665328	complete||PERCENT	0.2379433
-3.711085	complete||pass	0.1423547
-4.063268	complete||sweep	0.1454801
-4.188206	compose||	0.237948
-3.887177	concern||	0.2410841
-4.188206	confirm|om|	-0.0003426648
-4.063268	confuse||	0.142938
-4.188206	congratulate||he	0.1423952
-3.5192	connect|PERSON|	0.2403719
-4.188206	connect|he|	-0.0003067498
-3.966358	connect||	0.2377009
-4.063268	consider|you|	0.06617079
-3.410055	consider||	0.2544952
-4.188206	consider||fact	-0.0003145057
-4.063268	consider||it	0.1500291
-3.966358	contend||	0.142723
-4.188206	contest||	0.06628338
-4.188206	continue|LOCATION|	0.06630857
-4.188206	continue|ORGANIZATION|	-0.0003912474
-3.250354	continue|PERSON|	0.2563944
-4.188206	continue|defense|	0.06625055
-4.188206	continue|defense|play	0.06622866
-4.063268	continue|game|	0.2378244
-3.762238	continue|he|	0.2413772
-4.188206	continue|he|it	-0.0003426648
-4.188206	continue|it|	0.06639285
-4.063268	continue|offense|	0.1449679
-4.188206	continue|we|	0.142402
-3.82023	continue||	0.2386457
-4.188206	contribute|I|	0.237948
-3.966358	contribute|PERSON|	-0.0006758356
-4.188206	control|PERSON|middle	0.237948
-4.188206	control|he|strikezone	-0.0002300171
-4.063268	control||game	0.1422717
-4.188206	control||position	0.1423952
-4.188206	control||they	-0.0001549024
-4.063268	convert||	0.1421808
-4.188206	convert||NUMBER	0.06714894
-4.188206	convert||conversion	-0.0003349175
-4.188206	convince|I|	-0.0002034525
-4.063268	cool|PERSON|	0.0674504
-4.063268	cope|PERSON|	0.1422002
-4.188206	correct||	0.06630857
-4.188206	cost|it|he	0.1423107
-4.188206	cost|it|run	0.06898435
-4.188206	couldnt|we|	0.1423368
-4.063268	counter|MISC|	0.145026
-4.188206	counter|PERSON|homerun	-0.0003145057
-4.188206	count|we|	0.1423237
-4.063268	count||	0.06658693
-3.966358	couple||	0.237551
-4.188206	cover|PERSON|	0.1423952
-4.188206	cover|they|PERSON	0.1423107
-4.188206	cover|they|spread	0.006583202
-3.887177	cover||	0.08428114
-4.188206	cover||NUMBER	0.1423628
-4.188206	cover||PERSON	0.1424281
-4.063268	cover||spread	0.1421938
-4.188206	crack|I|	0.1428587
-4.188206	crack||	0.237948
-4.188206	crack||half	-0.0003426648
-4.188206	crash||	0.006602282
-4.188206	crawl||	0.06622866
-4.063268	create|ORGANIZATION|chance	0.06738452
-4.188206	create|he|	0.06625055
-4.188206	create|opening|	-0.0003145057
-4.188206	create|we|chance	0.06621771
-4.188206	create||	-6.180548e-06
-4.063268	create||chance	0.1423436
-4.063268	cross|PERSON|	0.1431009
-4.188206	cross|he|	-0.0003426648
-3.82023	cross||	0.1420651
-4.188206	cross||plate	0.142402
-4.188206	crown|PERSON|pitcher	0.06621771
-4.188206	crown|PERSON|player	0.06621771
-4.188206	crush|Titans|MISC	-0.0003426648
-4.063268	crush||	0.06681396
-4.188206	cry||	0.237948
-3.966358	culminate||	5.696085e-05
-4.188206	curl|it|	0.06630857
-4.188206	curl||shot	-0.0003051188
-3.887177	cut|PERSON|	0.142058
-3.887177	cut|he|	0.06575633
-4.063268	cut|that|	0.1605107
-4.188206	cut|that|lead	-0.0001940607
-4.063268	cut|who|	0.2378244
-3.623935	cut||	0.259847
-3.711085	cut||lead	0.2372552
-4.188206	dare||	0.237948
-3.762238	deal||	0.2384341
-3.762238	decide|I|	0.1444892
-4.063268	decide|ORGANIZATION|	0.1605107
-3.623935	decide|PERSON|	0.273317
-4.188206	decide|he|	0.237948
-4.063268	decide|she|	0.142729
-4.188206	decide|they|	-0.0002504089
-4.188206	decide|touchdown|	0.1423107
-3.966358	decide|we|	0.2383417
-4.063268	decide||	0.007415278
-4.188206	defeat|ORGANIZATION|ORGANIZATION	0.01281902
-3.966358	defeat||ORGANIZATION	0.152629
-3.434879	defend||	0.2605224
-4.188206	defend||champ	0.06637096
-4.188206	defend||he	-0.0003426648
-4.188206	defend||title	0.1427543
-4.188206	define||	0.1423107
-4.188206	deliver|PERSON|cross	0.237948
-4.188206	deliver|he|ball	0.237948
-4.063268	deliver||	0.2378244
-4.188206	demolish|Cardinals|	0.237948
-4.188206	deny|shot|	0.1520954
-3.82023	depend||	0.2603403
-4.063268	deserve|he|	0.2377495
-4.188206	deserve|he|goal	0.0004356583
-3.966358	deserve||	0.01341711
-4.188206	designate|PERSON|	0.1424411
-3.887177	desire||	0.1516412
-4.188206	destroy|PERSON|	0.1423952
-3.887177	determine||	0.141784
-3.711085	didnt|I|	0.2371837
-4.188206	didnt|ORGANIZATION|	0.1423759
-3.82023	didnt|he|	0.2496466
-4.063268	didnt|it|	0.2377495
-3.762238	didnt|they|	0.2376163
-3.82023	didnt|we|	0.2608131
-4.188206	didnt|who|	0.001452653
-4.188206	die|MISC|	-0.0003426648
-3.966358	die||	0.141979
-4.188206	dig|he|BUT	-0.0003426648
-4.188206	dig|he|cross	-0.0003426648
-4.188206	disappoint|I|	0.06621771
-4.188206	disappoint||	0.237948
-4.188206	discuss|I|	0.1423952
-3.966358	dismantle||	0.1421419
-4.188206	display|PERSON|	0.237948
-3.966358	dive|PERSON|	0.08126464
-4.188206	dive|he|	0.237948
-4.188206	dodge||bullet	-0.0002222357
-4.188206	dominate|ORGANIZATION|	0.1423107
-4.188206	dominate|PERSON|	0.1423237
-4.188206	dominate|Phillies|	0.06630857
-3.966358	dominate|they|	0.2499671
-4.188206	dominate|they|ORGANIZATION	0.1446642
-3.711085	dominate||	0.08314171
-4.188206	dominate||MISC	0.142402
-4.188206	dominate||ORGANIZATION	0.1423952
-3.364298	dont|I|	0.2394068
-4.188206	dont|ORGANIZATION|	0.1423952
-4.188206	dont|they|	0.1423368
-3.966358	dont|we|	0.1423313
-4.188206	dont|you|	0.1423237
-3.434879	double|NUMBER|	0.2489607
-3.5192	double|PERSON|	0.2401986
-4.188206	double|PERSON|run	3.215624e-06
-3.285116	double||	0.2678107
-3.887177	doubt|I|	0.2398236
-4.188206	down|punt|	0.1423952
-4.188206	down||	0.1606342
-3.267388	do|I|	0.2502643
-3.887177	do|I|it	0.1721137
-4.188206	do|I|what	0.237948
-4.063268	do|LOCATION|	0.01262984
-4.188206	do|LOCATION|job	0.1423237
-4.063268	do|MISC|	0.1519719
-4.188206	do|NUMBER|	0.06859904
-3.410055	do|ORGANIZATION|	0.2676977
-4.188206	do|ORGANIZATION|battle	-0.000126731
-4.063268	do|ORGANIZATION|it	0.06658693
-4.188206	do|ORGANIZATION|job	0.237948
-4.188206	do|ORGANIZATION|what	0.003986644
-3.074263	do|PERSON|	0.2561167
-3.966358	do|PERSON|it	0.0658798
-3.586146	do|PERSON|job	0.2612414
-4.188206	do|PERSON|number	0.0003228057
-3.966358	do|PERSON|part	0.06637259
-4.188206	do|PERSON|something	0.1423759
-3.711085	do|PERSON|what	0.2497411
-4.188206	do|all|	0.1423889
-4.188206	do|and|NUMBER	0.06637096
-3.887177	do|defense|	0.1424297
-3.711085	do|defense|job	0.2728563
-4.188206	do|guy|what	0.06652425
-3.012115	do|he|	0.2789928
-4.063268	do|he|all	-0.0004192689
-4.188206	do|he|everything	0.06621771
-3.762238	do|he|it	0.2499817
-3.966358	do|he|job	0.1440386
-4.188206	do|he|something	0.06691869
-4.063268	do|he|thing	0.239541
-4.188206	do|he|time	4.759495e-06
-3.665328	do|he|what	0.2374511
-3.21817	do|it|	0.2411723
-3.966358	do|line|job	0.06606919
-4.188206	do|offense|	0.1423952
-4.188206	do|offense|job	0.1423107
-4.188206	do|o|	0.06630857
-4.188206	do|player|it	0.06632717
-4.063268	do|she|	0.0825794
-3.762238	do|team|	0.1424449
-4.188206	do|tf1|interview	0.06630857
-4.063268	do|that|	0.2378244
-3.12126	do|they|	0.2766174
-4.188206	do|they|anything	0.237948
-3.966358	do|they|job	0.1420182
-3.711085	do|they|what	0.2467813
-3.3036	do|we|	0.2658005
-4.063268	do|we|job	0.1421871
-3.966358	do|we|thing	0.1422336
-3.82023	do|we|what	0.1417974
-3.711085	do|what|	0.2376005
-3.82023	do|who|	0.2374504
-4.188206	do|who|anything	-0.0002863446
-1.793171	do||	0.2901307
-4.063268	do||PERSON	0.2377657
-4.188206	do||anything	0.1423759
-4.188206	do||damage	0.1423237
-3.3036	do||it	0.2611016
-4.063268	do||job	0.0684755
-4.063268	do||much	0.1421156
-4.188206	do||same	0.06621771
-3.586146	do||that	0.2466776
-3.887177	do||thing	0.1457091
-4.063268	do||this	0.06732162
-4.188206	draw|I|	0.01540093
-3.966358	draw|PERSON|walk	0.1421423
-4.188206	draw|offense|	0.001952608
-4.188206	draw||	0.1423107
-4.188206	dribble|I|it	0.1423759
-4.188206	dribble||	-0.0002973601
-4.188206	drift|ball|	0.0007098521
-4.188206	drill|ORGANIZATION|	0.0009344417
-4.188206	drive|NUMBER|	0.1423368
-4.188206	drive|ORGANIZATION|field	0.1456091
-4.188206	drive|ORGANIZATION|yard	0.237948
-3.188206	drive|PERSON|	0.2467466
-4.188206	drive|PERSON|PERSON	-0.0003426648
-3.966358	drive|he|	0.1421095
-4.188206	drive|offense|	-0.0001940607
-3.434879	drive||	0.2645759
-4.063268	drive||ORGANIZATION	0.0001978143
-4.188206	drop|NUMBER|pass	0.237948
-3.711085	drop|PERSON|	0.1498247
-3.966358	drop|PERSON|pass	0.1420443
-4.188206	drop|he|	0.002944783
-4.188206	drop|it|	0.142415
-4.188206	drop|lot|	7.991475e-05
-4.063268	drop|we|	0.2378244
-4.188206	drop|who|	-0.0004100225
-3.762238	drop||	0.2602989
-4.188206	drop||NUMBER	0.1423889
-4.188206	drop||era	0.06631622
-4.063268	drop||game	-0.0003943479
-4.188206	drop||pass	0.237948
-3.887177	earn|NUMBER|	0.1419864
-3.887177	earn|PERSON|	0.2384528
-4.188206	earn|PERSON|himself	0.06622866
-4.188206	earn|PERSON|medal	0.237948
-3.063268	earn||	0.2653085
-4.188206	earn||ORDINAL	0.1423952
-4.188206	earn||respect	0.06630857
-2.802005	earn||run	0.2749031
-4.188206	earn||spot	0.1423952
-4.188206	eclipse|PERSON|he	0.237948
-4.188206	eclipse||performance	0.1423952
-4.063268	eject|PERSON|	-6.394001e-05
-4.188206	elect|PERSON|	0.0009721091
-4.188206	eliminate||	0.142402
-4.188206	emerge||	0.0662396
-4.188206	end|LOCATION|	0.1423628
-4.188206	end|MISC|	0.1423368
-3.711085	end|ORGANIZATION|	0.2373012
-4.188206	end|ORGANIZATION|season	-0.0004100225
-3.665328	end|PERSON|	0.2417376
-4.188206	end|PERSON|game	0.01276853
-3.966358	end|drive|	0.237691
-4.063268	end|game|	0.1454856
-4.188206	end|game|NUMBER	-0.0004194097
-3.966358	end|half|	0.2376747
-3.586146	end|he|	0.1630322
-4.188206	end|he|season	0.06630527
-3.711085	end|it|	0.06907226
-4.063268	end|season|	0.06609087
-3.966358	end|streak|	0.2463027
-3.551384	end|that|	0.2408403
-4.188206	end|that|game	0.1423952
-4.188206	end|they|	0.0001817812
-4.188206	end|we|	0.0663819
-3.966358	end|which|	0.1518047
-3.5192	end||	0.2380055
-4.188206	end||ORDINAL	0.1459903
-4.188206	end||frame	0.1423952
-3.665328	end||game	0.1627021
-4.063268	end||half	0.2377657
-4.188206	end||injury	0.1423107
-4.188206	end||inning	-0.000353695
-4.188206	end||play	0.01273193
-3.966358	end||season	0.238065
-4.188206	enjoy|I|game	0.06631622
-4.063268	enjoy||	0.1500291
-4.188206	enjoy||volleyball	0.1423237
-3.434879	ensue||	0.239661
-4.063268	ensure||	0.1521951
-4.188206	enter|PERSON|	0.1442317
-3.966358	enter|PERSON|game	0.1419596
-4.188206	enter||bottom	-0.0004100225
-3.966358	envy|I|PERSON	0.2376585
-4.188206	equalize|PERSON|	0.1423759
-4.188206	escape||	0.1606342
-4.188206	escape||sack	0.06742321
-4.188206	establish||	0.1423952
-4.063268	even||	0.06605802
-4.188206	excel|who|	0.1520954
-4.188206	exchange|people|ticket	0.1424672
-3.966358	excite|I|	0.07240634
-3.82023	excite||	0.2471352
-4.188206	execute|they|	0.237948
-4.188206	execute|we|	-0.0001940607
-3.762238	execute||	0.1535172
-4.188206	execute||it	0.06660092
-4.188206	expand|roster|	0.0001253841
-3.551384	expect|I|	0.2420589
-4.188206	expect|PERSON|	0.1438783
-4.188206	expect|it|	0.0744149
-4.188206	expect|that|	0.06628338
-3.887177	expect|we|	0.2380619
-4.063268	expect|what|	0.1450729
-3.966358	expect|you|	0.2385274
-3.233964	expect||	0.2565418
-4.063268	expect||NUMBER	0.1425002
-4.188206	expect||PERSON	0.06758785
-3.966358	expect||reception	0.08799731
-4.188206	expect||touchdown	0.237948
-3.966358	expire|time|	0.08118524
-3.887177	explain|PERSON|	0.142894
-4.188206	explore|journalist|MISC	0.1423889
-4.188206	expose|he|	0.237948
-4.188206	extend|it|streak	0.1426629
-4.188206	extend||lead	0.1424541
-4.063268	extend||streak	0.0664413
-4.188206	face|LOCATION|group	0.1423628
-3.966358	face|PERSON|	0.2424387
-4.063268	face|PERSON|ORGANIZATION	0.01862356
-4.063268	face|PERSON|PERSON	-0.0003098029
-4.188206	face|PERSON|lefty	0.01276853
-3.623935	face|he|	0.1421481
-3.966358	face|he|ORGANIZATION	0.1424357
-4.063268	face|he|they	0.08154591
-3.966358	face|they|	0.2411674
-3.966358	face|they|ORGANIZATION	0.1422728
-4.188206	face|they|team	0.08154368
-4.188206	face|who|ORGANIZATION	-0.0003426648
-4.188206	face||	0.06621771
-4.063268	face||NUMBER	0.2378244
-4.188206	face||ORDINAL	0.1423498
-4.188206	face||ORGANIZATION	0.002472035
-3.887177	face||PERSON	0.1420773
-4.063268	face||team	0.1605107
-4.188206	fade|PERSON|	0.1423952
-3.966358	fail|LOCATION|	0.2376485
-3.887177	fail|ORGANIZATION|	0.06617694
-3.5192	fail|PERSON|	0.2528341
-3.711085	fail|he|	0.2390777
-4.063268	fail|she|	0.2378244
-4.063268	fail|they|	0.1422982
-3.711085	fail||	0.2545439
-4.063268	fake|PERSON|handoff	0.1423243
-4.188206	fall|I|	0.1433159
-3.82023	fall|ORGANIZATION|	0.2409205
-3.966358	fall|PERSON|	0.142168
-3.966358	fall|he|	0.1603872
-3.966358	fall|it|	0.1422921
-4.188206	fall|swimmer|	-0.0003724716
-4.063268	fall|they|	0.1421871
-3.551384	fall||	0.2598428
-4.063268	favor|ORGANIZATION|	0.2378795
-4.188206	fear|rest|division	-0.0003332786
-4.188206	fear||	-0.0003912474
-3.188206	feel|I|	0.2468206
-4.188206	feel|he|	0.0005015027
-3.551384	feel|it|	0.1571312
-4.188206	feel|that|	-0.0001752764
-4.188206	feel|they|pressure	0.001350126
-4.188206	feel|we|	0.237948
-3.887177	feel|you|	0.2477911
-3.711085	feel||	0.2381707
-4.188206	feel||it	0.0744149
-4.188206	field||team	0.01267388
-4.188206	fight|I|	0.1423952
-4.063268	fight|they|	0.2378244
-4.188206	fight|the|	-0.0002581818
-4.188206	fight|we|	0.1423889
-3.623935	fight||	0.141591
-4.188206	fight||way	0.1433682
-3.82023	figure|I|	0.2391611
-4.063268	figure|PERSON|	0.1500291
-4.188206	figure||	0.06626149
-4.063268	fill|PERSON|	0.1424741
-4.063268	fill|goggles|	0.2378244
-4.188206	fill|seat|	0.06621771
-4.188206	fill|they|sack	0.1423952
-4.063268	fill||	0.1424089
-4.188206	fill||spot	0.0003604199
-3.966358	find|I|	0.2383091
-4.063268	find|I|myself	0.1421938
-4.188206	find|ORGANIZATION|	0.0002772596
-4.188206	find|ORGANIZATION|themselves	-0.0002034525
-3.762238	find|PERSON|	0.2426192
-3.623935	find|PERSON|PERSON	0.1423505
-3.966358	find|PERSON|himself	0.06594215
-4.188206	find|PERSON|space	0.1459903
-4.063268	find|he|way	-0.0002236677
-4.188206	find|they|	0.06621771
-4.063268	find|they|way	0.1615856
-4.188206	find|we|ourselves	0.1442317
-4.063268	find|we|way	0.2378244
-4.188206	find|you|	0.1423759
-3.665328	find||	0.2539636
-4.063268	find||game	-0.0004380427
-4.188206	find||guy	0.1423952
-4.188206	find||play	0.1606342
-4.188206	find||receiver	-0.0001752764
-4.063268	find||room	-0.0004568157
-3.966358	find||way	0.1429451
-4.188206	find||zone	0.0001629811
-3.966358	finish|ORGANIZATION|	0.2421101
-4.063268	finish|ORGANIZATION|series	0.06617079
-3.410055	finish|PERSON|	0.2502724
-4.188206	finish|PERSON|ORDINAL	0.06662282
-3.887177	finish|PERSON|game	0.1501284
-4.188206	finish|era|	0.1423368
-3.623935	finish|he|	0.2418542
-4.188206	finish|it|	0.06630857
-4.063268	finish|they|	-0.0005821672
-4.188206	finish|we|	0.005411402
-3.887177	finish|who|	0.1451752
-3.386574	finish||	0.2878734
-4.188206	finish||NUMBER	0.237948
-3.966358	finish||game	0.1423115
-4.188206	finish||it	0.0002945972
-4.188206	fire|PERSON|	0.06627244
-4.188206	fire|crowd|	0.0004558867
-4.188206	fire|o|shot	-5.159838e-05
-4.188206	fire|who|	0.1423107
-4.188206	fire||	0.1423952
-3.887177	fix||	0.2375151
-4.188206	fizzle|drive|	-0.0001377051
-4.188206	flick|Ball|	-0.0003426648
-4.188206	flick|Kuyt|ball	-0.0003426648
-4.188206	flick|be|	-0.0003426648
-4.188206	flick|clear|	-0.0003426648
-4.188206	flick|free|	-0.0003426648
-4.188206	flick|he|WIDE	0.06630857
-3.966358	flick|it|	-0.0006758356
-4.188206	flick|o|WIDE	0.01276853
-4.188206	flip|I|	0.006640444
-3.623935	fly|PERSON|	0.2617822
-4.188206	fly|which|	-0.0003426648
-3.82023	fly||	0.260508
-4.188206	fly||all	0.06630857
-4.063268	focus|we|	0.2378244
-4.188206	focus|we|what	-0.0003426648
-3.887177	focus||	0.2497098
-4.063268	follow|ORGANIZATION|	0.00515469
-3.3036	follow|PERSON|	0.2381118
-4.188206	follow|Ponder|	-0.0001924614
-4.188206	follow|reception|	-0.0003426648
-4.188206	follow|that|	0.01271258
-4.188206	follow|that|game	-0.0002957318
-3.097126	follow||	0.2690947
-4.188206	follow||Coke	0.06630857
-3.586146	follow||PERSON	0.06545749
-4.188206	force|Moors|	-0.0002487937
-3.762238	force|ORGANIZATION|	0.2382386
-3.762238	force|PERSON|	0.1451201
-4.188206	force|PERSON|fumble	0.1423368
-4.063268	force|PERSON|goal	-0.0004568157
-4.063268	force|defense|	0.1423175
-4.188206	force|defense|fumble	0.1423107
-4.188206	force|defense|punt	0.237948
-4.188206	force|defense|three-and-out	0.1606342
-4.188206	force|he|	0.1423107
-4.188206	force|that|	0.001000362
-4.063268	force|they|	-0.000394348
-3.82023	force||	0.238046
-4.063268	force||ORGANIZATION	0.1422915
-4.188206	force||PERSON	0.06636001
-3.966358	force||fumble	0.1421423
-4.063268	force||he	-0.0005429466
-4.188206	force||they	-0.0003724716
-3.966358	force||turnover	0.2376747
-4.063268	forget|I|	0.1425984
-4.188206	forget|LOCATION|	0.237948
-4.188206	forget|he|game	0.0008873623
-4.063268	forget|you|	0.1500291
-3.586146	forget||	0.2704755
-4.188206	form||	0.06630857
-4.188206	foul|PERSON|PERSON	0.06630857
-4.188206	foul|PERSON|ball	-0.0004287967
-4.188206	foul|he|	0.1423952
-4.188206	free|PERSON|PERSON	0.0003618634
-4.188206	free|flick|PERSON	-0.0003426648
-4.188206	frustrate||	0.142689
-4.188206	fry||fish	0.005287787
-4.188206	fuck|it|	0.0664695
-3.762238	fumble|PERSON|	0.2373694
-4.188206	fumble|PERSON|return	0.06621771
-4.188206	fumble|he|ball	0.1423889
-4.063268	fumble|they|ball	0.1426245
-3.762238	fumble||	0.2378932
-4.188206	fumble||ball	0.1423952
-4.188206	fumble||exchange	0.1424933
-4.188206	gain|NUMBER|yard	0.1423952
-4.188206	gain|ORGANIZATION|yard	0.06671046
-4.188206	gain|PERSON|	0.1423237
-4.188206	gain|PERSON|yard	0.1423759
-4.188206	gain|he|	0.06720378
-3.623935	gain||	0.2419106
-3.887177	gain||yard	0.1522917
-4.188206	gamble|PERSON|	0.1423952
-4.188206	gang-tackle||	0.0005217155
-4.188206	gather|family|	0.06630857
-4.063268	generate||pressure	0.1437357
-3.343108	get|I|	0.2589993
-4.188206	get|I|it	0.1423237
-4.188206	get|I|opportunity	0.1423952
-3.665328	get|LOCATION|	0.2386741
-3.665328	get|LOCATION|ball	0.2491727
-4.188206	get|LOCATION|run	0.1423107
-4.188206	get|NUMBER|	0.0002663902
-3.322905	get|ORGANIZATION|	0.2397721
-4.063268	get|ORGANIZATION|ball	0.1421286
-4.063268	get|ORGANIZATION|better	-0.0002033117
-4.063268	get|ORGANIZATION|it	0.06618503
-4.063268	get|ORGANIZATION|run	0.0001319784
-2.802005	get|PERSON|	0.2769481
-4.188206	get|PERSON|LOCATION	0.1424672
-4.188206	get|PERSON|MISC	0.1423368
-4.188206	get|PERSON|NUMBER	-0.0004194097
-3.966358	get|PERSON|PERSON	0.1428014
-3.887177	get|PERSON|ball	0.2375802
-4.188206	get|PERSON|final	3.294129e-05
-4.188206	get|PERSON|hand	0.1423952
-4.063268	get|PERSON|hit	4.734745e-05
-4.188206	get|PERSON|inning	0.1424541
-4.188206	get|PERSON|nod	0.1423952
-4.188206	get|PERSON|run	0.1423237
-3.623935	get|PERSON|start	0.2380122
-4.188206	get|PERSON|time	0.142402
-4.063268	get|PERSON|victory	0.007252729
-4.188206	get|chance|	0.1423107
-4.063268	get|couldnt|	0.1424548
-4.188206	get|defense|field	0.06626149
-4.188206	get|didnt|	-0.0003349175
-3.887177	get|game|	0.2403634
-3.109025	get|he|	0.2684921
-4.063268	get|he|NUMBER	0.142233
-4.188206	get|he|ORGANIZATION	-0.0003426648
-4.188206	get|he|ball	0.1423237
-4.063268	get|he|hit	0.1427351
-4.188206	get|he|offense	7.991475e-05
-4.063268	get|he|reputation	0.002179331
-4.063268	get|he|start	0.06620035
-4.188206	get|he|the	0.0003148591
-4.188206	get|he|vote	-0.0004381835
-4.063268	get|it|	0.1422262
-3.887177	get|offense|	0.06577489
-4.188206	get|o|	7.051966e-05
-4.063268	get|play|	-0.000176695
-4.188206	get|team|	0.1423889
-4.188206	get|that|crowd	-0.0003426648
-3.250354	get|they|	0.2648436
-3.966358	get|they|job	0.1423115
-4.188206	get|they|offense	0.1423498
-4.188206	get|they|point	0.237948
-4.188206	get|they|pressure	0.1438521
-4.188206	get|they|run	-0.0003426648
-4.063268	get|they|victory	0.1422002
-4.063268	get|thing|	0.1422591
-4.063268	get|thing|tense	0.0003793688
-4.188206	get|weve|	0.1442317
-3.250354	get|we|	0.2612296
-3.966358	get|we|lot	0.2384068
-4.063268	get|we|point	-0.0001406631
-4.188206	get|who|	0.06630857
-3.711085	get|you|	0.2415988
-4.188206	get|you|feeling	0.1425846
-4.188206	get|you|point	0.06626149
-2.212009	get||	0.3022417
-4.188206	get||LOCATION	0.005335297
-4.188206	get||MISC	0.143146
-4.188206	get||NUMBER	0.1423952
-4.063268	get||ORGANIZATION	0.06613465
-3.623935	get||PERSON	0.251938
-4.188206	get||Phils	-0.0003630834
-3.82023	get||anything	0.1432083
-3.623935	get||ball	0.1627434
-4.188206	get||beat	-0.0002597996
-4.063268	get||better	0.06937637
-4.188206	get||call	0.0664914
-3.82023	get||chance	0.2403617
-4.188206	get||comment	-0.0003426648
-4.188206	get||confidence	0.1424281
-4.063268	get||down	-0.0006197213
-4.188206	get||field	0.237948
-3.887177	get||goal	0.1434816
-4.188206	get||gold	0.237948
-4.063268	get||hand	0.1421808
-3.966358	get||he	0.237626
-4.063268	get||hit	0.1430294
-4.188206	get||hurt	-0.0003426648
-3.887177	get||it	0.1600557
-4.188206	get||medal	0.005211655
-4.063268	get||offense	0.1501311
-3.887177	get||pressure	0.06623495
-4.188206	get||question	-0.0003426648
-4.188206	get||run	4.080223e-05
-4.188206	get||runner	-0.0003443063
-4.188206	get||sack	0.0002569886
-3.966358	get||start	0.1424556
-4.188206	get||team	0.1423952
-4.188206	get||thing	-0.0003630834
-4.063268	get||time	0.1422132
-4.188206	get||yard	0.0662396
-4.188206	give|Cheyrou|	-0.0003238922
-4.188206	give|Hall|NUMBER	-0.0002863446
-4.188206	give|Hall|run	-0.0003426648
-3.966358	give|I|	0.1609021
-4.188206	give|I|you	0.237948
-4.063268	give|ORGANIZATION|	0.1422717
-4.188206	give|ORGANIZATION|NUMBER	0.01268355
-3.623935	give|PERSON|	0.2384624
-3.322905	give|PERSON|NUMBER	0.2377616
-3.82023	give|PERSON|ORGANIZATION	0.1538686
-4.063268	give|PERSON|corner	0.1422717
-4.188206	give|PERSON|game	-9.073663e-05
-4.188206	give|PERSON|he	0.06630857
-3.586146	give|PERSON|hit	0.2392682
-4.188206	give|PERSON|homer	0.1423759
-4.188206	give|PERSON|lead	0.1424541
-3.031859	give|PERSON|run	0.2779115
-3.966358	give|PERSON|single	0.2380064
-4.188206	give|PERSON|something	0.006879033
-4.188206	give|PERSON|walk	-0.0003426648
-4.188206	give|bullpen|	0.0664257
-4.188206	give|defense|LOCATION	0.06930387
-4.188206	give|defense|point	0.237948
-4.188206	give|defense|they	0.1423952
-4.188206	give|defense|what	-0.000400635
-4.188206	give|goal-kick|	-0.0003238922
-3.762238	give|he|	0.1606533
-3.021875	give|he|NUMBER	0.2570472
-4.188206	give|he|ball	0.1423952
-4.063268	give|he|double	0.0660033
-3.665328	give|he|hit	0.2382237
-4.188206	give|he|homer	0.01381696
-4.188206	give|he|inning	0.1427543
-4.063268	give|he|lead	0.06944256
-3.12126	give|he|run	0.2760161
-4.188206	give|he|single	0.06658997
-4.188206	give|he|walk	0.1423498
-4.063268	give|he|we	0.001875284
-4.188206	give|it|	-0.0002410181
-4.063268	give|it|ORGANIZATION	0.1421871
-4.063268	give|it|lead	0.06609417
-4.188206	give|it|we	0.142415
-4.188206	give|o|free-kick	0.06630857
-4.188206	give|team|	0.06630857
-4.188206	give|that|	0.0662396
-3.887177	give|that|ORGANIZATION	0.06909149
-4.188206	give|that|PERSON	-0.0002128443
-4.063268	give|that|ball	0.1421871
-4.188206	give|that|down	-0.0003161393
-3.966358	give|that|lead	0.1421031
-4.063268	give|that|they	0.2383024
-4.188206	give|they|we	0.1423368
-4.188206	give|turnover|ball	0.1423889
-4.063268	give|we|	0.2379445
-4.188206	give|we|it	0.1426107
-4.188206	give|which|time	0.1459903
-4.188206	give|who|ORGANIZATION	0.1427934
-3.085544	give||	0.2438616
-3.966358	give||I	0.1457433
-3.762238	give||LOCATION	0.1453701
-4.188206	give||Moors	0.06630857
-3.133849	give||NUMBER	0.2453299
-3.267388	give||ORGANIZATION	0.2406978
-3.665328	give||PERSON	0.2375813
-4.188206	give||advantage	0.1423498
-3.489236	give||ball	0.2414915
-3.887177	give||chance	0.2422495
-4.188206	give||credit	0.1426368
-4.188206	give||edge	0.1423952
-4.063268	give||goal	0.1432909
-3.489236	give||he	0.2441937
-3.085544	give||hit	0.2446937
-4.188206	give||kind	0.1423107
-3.434879	give||lead	0.2410294
-4.188206	give||momentum	-0.0003426648
-4.063268	give||more	0.2378244
-4.188206	give||offense	0.06621771
-4.063268	give||position	0.1422717
-4.188206	give||record	0.07278971
-3.188206	give||run	0.2516373
-3.966358	give||they	0.1597877
-3.966358	give||time	0.1424686
-3.887177	give||victory	-0.0005865617
-4.188206	give||walk	0.0003792282
-4.188206	give||we	0.1606342
-4.063268	give||yard	0.1421156
-4.188206	glare||	0.1423952
-3.966358	gon|I|	0.1420636
-4.063268	go|DATE|	0.1421938
-3.887177	go|DURATION|	0.143365
-3.012115	go|I|	0.2537085
-3.461208	go|LOCATION|	0.249137
-4.188206	go|LOCATION|NUMBER	0.237948
-4.063268	go|MISC|	0.2378145
-3.711085	go|NUMBER|	0.2386736
-3.386574	go|ORGANIZATION|	0.2754594
-4.063268	go|ORGANIZATION|NUMBER	0.2377982
-4.188206	go|ORGANIZATION|end	0.06630857
-2.720845	go|PERSON|	0.2666565
-2.472203	go|PERSON|NUMBER	0.2916762
-3.489236	go|PERSON|inning	0.2412513
-4.063268	go|PERSON|yard	0.2378244
-4.188206	go|Phils|1-2-3	-7.194767e-05
-4.188206	go|Ransom|NUMBER	0.1423952
-3.711085	go|ball|	0.2493529
-4.188206	go|campaign|	0.0007555668
-4.188206	go|credit|	-0.0002597996
-4.188206	go|crowd|	0.237948
-4.188206	go|crowd|nut	-0.0003818597
-4.063268	go|defense|	0.1422717
-3.966358	go|everything|	0.1420312
-3.711085	go|game|	0.2384027
-4.188206	go|guy|	0.06630857
-2.984087	go|he|	0.2625299
-3.410055	go|he|NUMBER	0.264533
-3.82023	go|he|inning	0.1421434
-4.188206	go|himself|time	0.06630857
-3.966358	go|im|	0.2648553
-4.188206	go|its|	-0.0004100225
-3.133849	go|it|	0.2919848
-4.188206	go|lead|	0.01281902
-4.063268	go|lineup|	-0.0003755616
-4.188206	go|man|	-0.0003443063
-4.188206	go|match|	0.0007838053
-3.665328	go|offense|	0.1731158
-3.966358	go|o|	0.002139956
-3.966358	go|player|	0.151721
-3.82023	go|rbi|NUMBER	0.00692057
-4.188206	go|run|	0.1423952
-4.063268	go|season|	0.06636462
-4.188206	go|she|	0.237948
-4.063268	go|shot|	0.1430225
-4.188206	go|smattering|nut	-0.0003426648
-4.188206	go|star|	-0.0004194097
-3.711085	go|team|	0.2420506
-3.188206	go|that|	0.2688555
-4.188206	go|that|NUMBER	0.1438521
-3.20293	go|they|	0.2799911
-4.188206	go|they|NUMBER	-0.0003067498
-3.82023	go|they|at	0.23907
-3.82023	go|thing|	0.2373429
-3.966358	go|this|	0.2439868
-4.188206	go|turnover|	0.003635922
-3.074263	go|we|	0.2638832
-4.063268	go|we|NUMBER	0.01249435
-3.82023	go|what|	0.01922834
-4.063268	go|which|	0.1421808
-3.623935	go|who|	0.2372789
-3.267388	go|who|NUMBER	0.2516054
-3.82023	go|you|	0.2385738
-2.258787	go||	0.3010505
-3.887177	go||3-for-5	0.2374763
-4.188206	go||4-for-5	0.1437474
-4.188206	go||DURATION	0.1423107
-4.188206	go||IDEOLOGY	0.1423237
-2.99323	go||NUMBER	0.2811031
-3.887177	go||at	0.2375512
-4.188206	go||close	0.1428326
-4.188206	go||home	0.1427151
-3.887177	go||inning	0.2377591
-3.966358	go||way	0.1459748
-4.188206	grab|PERSON|interception	0.1428456
-4.188206	grab||pass	0.1423952
-4.063268	grant||	0.1426699
-4.188206	greet|they|other	-0.0003426648
-4.188206	grind||	0.1437343
-3.461208	ground|PERSON|	0.2620407
-4.188206	ground|he|	0.1423759
-4.188206	ground||	-0.0002487937
-4.188206	grow|I|	0.1423952
-4.188206	grow|PERSON|	0.0006910347
-4.188206	grow|legend|	0.237948
-3.887177	grow||	0.06626464
-4.188206	grumble||	0.237948
-3.551384	guess|I|	0.172484
-4.188206	handle|ORGANIZATION|PERSON	-5.315815e-05
-4.188206	handle|they|bullpen	0.001698908
-4.188206	handle|we|success	-0.0003426648
-4.188206	handle||he	-0.0001549024
-3.966358	hand||	0.2379738
-4.188206	hand||it	-0.0004287967
-3.966358	hang|ORGANIZATION|	0.0129831
-4.063268	hang|we|	0.2378145
-3.586146	hang||	0.2366775
-4.063268	happen|drive|	-0.0004568157
-4.188206	happen|hasnt|	0.237948
-3.461208	happen|it|	0.250445
-3.82023	happen|that|	0.07505791
-4.188206	happen|that|may	-7.977468e-05
-3.966358	happen|thing|	0.1437169
-4.188206	happen|this|	0.002207521
-3.322905	happen|what|	0.2747388
-3.386574	happen||	0.2654576
-4.063268	hasnt|he|	0.1706402
-4.063268	hate|I|	0.07445771
-4.188206	havent|I|	0.237948
-4.188206	havent|we|	0.1423107
-4.188206	have|Hearts|best	0.06630857
-2.984087	have|I|	0.2560277
-4.188206	have|I|DATE	0.06698446
-3.966358	have|I|block	-0.0002626154
-4.063268	have|I|chance	0.0662113
-4.063268	have|I|doubt	0.06610512
-4.063268	have|I|feeling	0.1421808
-4.188206	have|I|lot	0.1423952
-4.188206	have|I|medal	-0.0003426648
-3.887177	have|I|problem	0.2375774
-4.188206	have|I|time	0.1423498
-4.188206	have|I|trouble	0.06671046
-3.551384	have|LOCATION|	0.238416
-4.063268	have|LOCATION|NUMBER	0.2378244
-4.063268	have|LOCATION|PERSON	0.1422591
-4.188206	have|LOCATION|ball	-0.0001283118
-4.188206	have|LOCATION|better	0.06701735
-4.188206	have|LOCATION|defense	0.1423498
-3.887177	have|LOCATION|game	-0.000641317
-4.188206	have|LOCATION|it	-0.0003255285
-4.188206	have|LOCATION|shot	0.1606342
-3.966358	have|MISC|	0.237925
-4.188206	have|MISC|hit	-0.0004381835
-4.188206	have|NUMBER|	0.1423107
-4.188206	have|NUMBER|era	0.002302868
-3.042078	have|ORGANIZATION|	0.2615488
-3.665328	have|ORGANIZATION|NUMBER	0.1601489
-4.188206	have|ORGANIZATION|ORGANIZATION	0.001254718
-3.665328	have|ORGANIZATION|chance	0.2690587
-4.188206	have|ORGANIZATION|couple	0.237948
-4.188206	have|ORGANIZATION|drive	-0.0001095246
-3.665328	have|ORGANIZATION|game	0.2501511
-3.966358	have|ORGANIZATION|hit	0.1427299
-4.188206	have|ORGANIZATION|offense	0.06654616
-4.188206	have|ORGANIZATION|point	0.01281902
-4.188206	have|ORGANIZATION|pop	0.06630857
-4.188206	have|ORGANIZATION|record	-0.0003067497
-4.188206	have|ORGANIZATION|shot	0.143329
-4.063268	have|ORGANIZATION|trouble	0.06610512
-4.188206	have|ORGANIZATION|way	0.237948
-4.063268	have|ORGANIZATION|yard	0.1427743
-3.133849	have|PERSON|	0.2644794
-4.063268	have|PERSON|DATE	0.06659471
-3.762238	have|PERSON|DURATION	0.1427397
-3.434879	have|PERSON|MISC	0.2618057
-3.188206	have|PERSON|NUMBER	0.2418971
-3.762238	have|PERSON|PERSON	0.2379616
-4.063268	have|PERSON|TIME	0.001621472
-4.063268	have|PERSON|ability	0.001412862
-4.188206	have|PERSON|ball	-6.180548e-06
-4.188206	have|PERSON|career	-0.0003067498
-3.665328	have|PERSON|catch	0.2382727
-3.461208	have|PERSON|chance	0.2632955
-4.188206	have|PERSON|couple	0.1425846
-3.82023	have|PERSON|era	0.06673062
-2.741048	have|PERSON|game	0.2873263
-4.188206	have|PERSON|gold	0.1423952
-4.063268	have|PERSON|good	0.1426376
-2.975132	have|PERSON|hit	0.2488736
-4.188206	have|PERSON|homer	0.000181781
-4.188206	have|PERSON|idea	0.1423952
-4.188206	have|PERSON|inning	0.0744149
-3.966358	have|PERSON|interception	0.2376585
-4.188206	have|PERSON|moment	0.06652425
-3.887177	have|PERSON|multus	0.1509671
-4.188206	have|PERSON|nothing	-0.0003426648
-4.063268	have|PERSON|number	0.06626605
-4.063268	have|PERSON|other	0.1421938
-3.82023	have|PERSON|outing	0.24842
-4.188206	have|PERSON|plenty	0.001000362
-4.188206	have|PERSON|pop	-0.0003426648
-4.188206	have|PERSON|read	0.0005217155
-4.063268	have|PERSON|reception	0.1421871
-3.762238	have|PERSON|record	0.2372294
-3.966358	have|PERSON|return	0.1420964
-3.461208	have|PERSON|run	0.06689466
-3.966358	have|PERSON|sack	0.1527627
-4.188206	have|PERSON|sb	-0.0001564911
-4.188206	have|PERSON|season	0.1424281
-3.966358	have|PERSON|shot	0.1425203
-4.063268	have|PERSON|single	0.1427943
-3.887177	have|PERSON|start	0.2389908
-3.887177	have|PERSON|strikeout	0.06653882
-4.063268	have|PERSON|talent	0.06625836
-3.762238	have|PERSON|time	0.2601789
-4.063268	have|PERSON|touchdown	0.1422717
-4.188206	have|PERSON|word	0.06622866
-3.665328	have|PERSON|yard	0.2491661
-4.188206	have|Ponder|	0.006726321
-4.188206	have|Rams|lead	0.0003430612
-4.188206	have|Weve|	0.1423107
-4.188206	have|bullpen|MISC	0.0665352
-4.188206	have|defense|	0.0007179182
-4.188206	have|god|mercy	0.06630857
-4.188206	have|guy|	0.1438521
-2.984087	have|he|	0.2883361
-3.551384	have|he|MISC	0.273549
-3.711085	have|he|NUMBER	0.2381024
-4.188206	have|he|ability	-0.0003161392
-4.188206	have|he|butterfly	1.261191e-05
-3.966358	have|he|catch	0.06653382
-3.887177	have|he|chance	0.1433519
-3.322905	have|he|era	0.2620558
-4.188206	have|he|error	0.1423952
-3.665328	have|he|game	0.2377345
-3.887177	have|he|hit	3.407395e-05
-4.063268	have|he|inning	0.06656501
-4.188206	have|he|lead	-0.0003443063
-4.188206	have|he|lot	0.1423237
-3.966358	have|he|medal	0.2377009
-4.188206	have|he|opportunity	0.1423889
-4.188206	have|he|pace	0.237948
-4.188206	have|he|play	0.1423107
-4.188206	have|he|player	-0.000353695
-4.188206	have|he|pre-season	0.0665133
-4.188206	have|he|race	0.1423368
-3.82023	have|he|record	0.0810992
-4.188206	have|he|relay	0.000247587
-4.188206	have|he|return	0.1423952
-4.063268	have|he|run	0.237912
-3.887177	have|he|shot	0.2379544
-3.966358	have|he|skill	0.1424028
-4.188206	have|he|something	0.1426368
-4.063268	have|he|speed	0.06658693
-4.063268	have|he|start	0.1427482
-4.063268	have|he|streak	0.161381
-3.82023	have|he|strikeout	0.2380525
-4.188206	have|he|stuff	0.0664695
-4.188206	have|he|success	0.06671046
-4.188206	have|he|surgery	0.1423952
-4.188206	have|he|time	0.1423952
-4.188206	have|he|whip	0.1425585
-3.711085	have|it|	0.161704
-4.188206	have|man|it	-0.0003426648
-4.188206	have|ne|MISC	0.01269323
-4.188206	have|ne|homer	0.1437474
-4.188206	have|number|stats	0.0003618634
-4.063268	have|offense|	0.2412909
-3.5192	have|offense|hit	0.237372
-4.188206	have|offense|success	-0.0003912474
-4.188206	have|offense|walk	0.1429109
-4.188206	have|other|hit	0.1423952
-4.188206	have|player|	0.1423952
-4.188206	have|player|game	0.143146
-4.188206	have|player|hit	0.0003416124
-4.188206	have|play|PERSON	0.1423952
-4.188206	have|season|	0.01991229
-3.966358	have|she|	0.2605872
-4.188206	have|someone|	0.1451495
-3.887177	have|team|	0.2375774
-4.063268	have|team|game	0.06617079
-3.711085	have|that|	0.06675553
-3.133849	have|they|	0.2852546
-4.063268	have|they|DURATION	0.002735375
-3.5192	have|they|PERSON	0.06678279
-4.188206	have|they|attitude	-0.0003332786
-3.887177	have|they|chance	0.1418231
-4.188206	have|they|game	0.1423759
-4.188206	have|they|hand	0.143146
-4.188206	have|they|kind	0.01276853
-4.188206	have|they|lead	-0.0002128443
-4.188206	have|they|lot	0.0665133
-4.188206	have|they|man	-0.0003426648
-4.188206	have|they|opportunity	0.1423237
-3.82023	have|they|player	0.2505844
-4.188206	have|they|quarterback	-0.0004100225
-4.063268	have|they|runner	0.1423697
-4.063268	have|they|season	0.1421871
-4.188206	have|they|talent	0.237948
-3.966358	have|they|time	0.1419988
-3.012115	have|we|	0.2675869
-4.188206	have|we|DURATION	-0.0003238922
-3.82023	have|we|PERSON	0.2381176
-3.762238	have|we|chance	0.2376978
-4.188206	have|we|crowd	0.06630857
-3.887177	have|we|game	0.1546335
-4.188206	have|we|going	-0.0003332786
-4.188206	have|we|guy	0.06630857
-4.063268	have|we|lot	0.1444562
-4.188206	have|we|point	0.01275128
-3.887177	have|we|shot	0.1418686
-4.188206	have|we|team	0.1424802
-4.188206	have|we|time	-0.0003332786
-4.188206	have|we|what	-0.0004194097
-3.82023	have|who|	0.1521683
-4.188206	have|who|DATE	-6.099066e-05
-4.063268	have|who|LOCATION	-0.0002314862
-3.966358	have|who|MISC	0.2605872
-4.188206	have|who|NUMBER	0.237948
-4.188206	have|who|beating	0.1432244
-4.188206	have|who|era	0.1423952
-4.188206	have|who|hit	0.1423952
-4.188206	have|who|whip	0.0666776
-3.343108	have|you|	0.2477849
-4.188206	have|you|PERSON	0.1423107
-4.188206	have|you|people	0.000482689
-1.525763	have||	0.2559657
-4.063268	have||DATE	0.06602519
-4.063268	have||MISC	-0.0004021172
-3.665328	have||NUMBER	0.2380606
-4.188206	have||PERSON	0.06634906
-4.188206	have||chance	0.06625055
-4.188206	have||degree	0.0008214591
-4.188206	have||era	0.0004074423
-3.586146	have||game	0.151996
-4.063268	have||lead	0.06657597
-4.188206	have||number	0.06657901
-4.063268	have||pass	0.1421156
-4.188206	have||player	0.237948
-4.188206	have||record	0.1423368
-3.966358	have||season	0.2398654
-4.188206	have||shot	0.1423107
-4.063268	have||sort	0.004384706
-4.188206	have||start	0.142402
-4.063268	have||success	0.06615984
-4.188206	have||time	0.001038035
-4.188206	head|Ball|	-0.0003238922
-4.063268	head|I|	0.1519015
-3.711085	head|PERSON|	0.1491692
-3.887177	head|he|	0.0810958
-4.188206	head|he|it	0.1427151
-4.188206	head|team|	0.000953275
-3.887177	head|we|	0.1528901
-3.966358	head|who|	0.01308746
-3.21817	head||	0.2393372
-4.188206	head||it	0.142937
-3.762238	hear|I|	0.260865
-4.188206	hear|we|	-0.000126731
-4.188206	hear|who|	0.06630857
-3.762238	hear||	0.238555
-4.063268	hed||	0.1423175
-4.188206	help|PERSON|	0.01267388
-4.188206	help|PERSON|cause	0.1429109
-3.966358	help|he|	0.2382342
-3.887177	help|that|	0.1532147
-4.188206	help|touchdown|	-0.0003426648
-4.188206	help|who|	-0.0001564912
-3.489236	help||	0.263585
-4.188206	help||defence	0.1428979
-4.188206	he||guy	0.237948
-4.188206	highlight|homer|	-0.0003051188
-4.188206	highlight|that|	-0.0002769572
-4.188206	highlight|the|	-0.0004381835
-4.063268	highlight||	0.08160263
-4.188206	hinder||game	0.06630857
-4.188206	hit|NUMBER|	0.1423952
-4.188206	hit|NUMBER|NUMBER	0.1423952
-3.966358	hit|ORGANIZATION|	0.06659961
-3.042078	hit|PERSON|	0.2718142
-3.3036	hit|PERSON|NUMBER	0.2659405
-3.434879	hit|PERSON|PERSON	0.2432104
-3.762238	hit|PERSON|ball	0.1420921
-3.887177	hit|PERSON|goal	0.1423645
-4.063268	hit|PERSON|guess	-0.0004286559
-3.586146	hit|PERSON|homer	0.1598964
-4.188206	hit|PERSON|pitch	0.142402
-4.188206	hit|PERSON|post	0.1423237
-3.5192	hit|PERSON|run	0.07639344
-3.966358	hit|PERSON|singles	0.1426123
-3.966358	hit|PERSON|slam	0.1425793
-4.188206	hit|both|NUMBER	0.1426629
-3.82023	hit|he|	0.1431047
-3.410055	hit|he|NUMBER	0.2672438
-4.188206	hit|he|ball	-0.0001752763
-4.188206	hit|he|homer	0.0662396
-4.188206	hit|he|pitch	0.237948
-3.966358	hit|pitch|	0.142547
-4.188206	hit|shit|fan	0.237948
-3.966358	hit|that|	0.06589074
-4.063268	hit|they|	0.1423436
-3.82023	hit|they|NUMBER	0.1515007
-4.188206	hit|we|	0.1423107
-3.82023	hit|who|NUMBER	0.2374766
-2.802005	hit||	0.2349749
-3.364298	hit||NUMBER	0.2607366
-3.887177	hit||PERSON	0.1419923
-3.966358	hit||ball	0.2416832
-4.188206	hit||becuase	-0.0002769572
-3.82023	hit||game	0.00547974
-4.188206	hit||he	-1.557649e-05
-4.063268	hit||homer	0.2377495
-4.188206	hit||pitch	0.06630857
-4.188206	hit||run	0.001377239
-4.188206	hit||streak	0.1423368
-4.188206	hold|DATE|	0.1423107
-4.188206	hold|I|	0.1426237
-4.188206	hold|LOCATION|	0.0004074421
-4.063268	hold|MISC|	0.1422393
-3.762238	hold|ORGANIZATION|	0.2374083
-4.188206	hold|ORGANIZATION|lead	0.1423952
-3.82023	hold|PERSON|	0.2374441
-4.188206	hold|PERSON|LOCATION	0.1434205
-4.063268	hold|PERSON|PERSON	0.1422852
-4.188206	hold|PERSON|record	0.1423952
-3.887177	hold|defense|LOCATION	-0.0005035654
-3.966358	hold|defense|ORGANIZATION	0.2381138
-3.966358	hold|he|	0.2388697
-4.188206	hold|no|	-0.0003051188
-3.966358	hold|they|	0.2379738
-3.887177	hold|they|ORGANIZATION	0.237535
-4.188206	hold|they|own	0.1425455
-4.063268	hold|we|	0.1423112
-4.188206	hold|we|head	-0.0003238922
-4.188206	hold|you|opponent	0.0744149
-3.097126	hold||	0.2742784
-3.966358	hold||LOCATION	0.237626
-3.966358	hold||ORGANIZATION	0.2423565
-4.063268	hold||PERSON	0.2378307
-4.188206	hold||offense	0.1423952
-3.623935	homer|PERSON|	0.1430317
-4.188206	homer|he|	0.1437736
-4.188206	honor||	0.0002945968
-4.188206	hook|PERSON|	0.1451495
-3.285116	hope|I|	0.2710614
-4.188206	hope|emotion|	-0.0003332786
-4.188206	hope|fan|	0.06744516
-4.188206	hope|playoff|	0.1426368
-4.188206	hope|they|	0.08154368
-3.82023	hope|we|	0.06572378
-3.762238	hope||	0.2372457
-4.188206	hop||	0.0664695
-4.188206	hug||NUMBER	0.0002584608
-3.966358	hurt|PERSON|	0.2380487
-4.188206	hurt|bb|he	0.06630857
-4.188206	hurt|he|	0.06630857
-4.188206	hurt|it|	0.06637096
-4.188206	hurt|one|	-0.000126731
-4.063268	hurt|they|themselves	0.0002007227
-3.887177	hurt||	0.2375576
-3.887177	imagine|I|	0.1435293
-4.188206	imagine||crowd	0.0664257
-4.188206	implode|I|	0.1423952
-4.188206	impose||himself	0.000962692
-3.665328	impress|I|	0.2379954
-4.063268	impress|PERSON|	0.06831878
-3.762238	impress||	0.2383725
-4.188206	improve|Eagles|	-1.402732e-05
-4.063268	improve|ORGANIZATION|record	0.006554725
-4.188206	improve|defense|	0.06630857
-4.063268	improve|they|	0.2378244
-3.410055	improve||	0.2485358
-4.188206	inch|he|	0.0744149
-4.188206	incite||lot	5.172999e-05
-4.188206	include|I|you	0.005287787
-4.188206	include|which|	0.06621771
-2.796096	include||	0.2924299
-4.188206	include||hometown	-0.0003426648
-4.188206	include||name	-0.0003426648
-4.188206	increase||lead	0.1428848
-4.188206	indicate|NUMBER|	0.0004732821
-4.188206	influence|he|	0.1428587
-4.188206	inherit||	0.1423952
-4.188206	initiate|Moors|rally	-0.0002206285
-4.188206	initiate|it|drive	-0.0003426648
-3.887177	injure|PERSON|	0.1433769
-3.82023	injure|he|	0.06608187
-4.063268	injure|who|	0.1422591
-3.762238	injure||	0.2407971
-4.188206	insert|PERSON|	0.06753296
-4.188206	inspire||	0.1423952
-4.188206	instruct|you|I	0.005287787
-4.188206	intercept|GOAL|	0.06630857
-3.966358	intercept|PERSON|	0.0004520564
-4.063268	intercept|PERSON|ball	0.2378244
-4.188206	intercept|PERSON|pass	0.1424541
-4.188206	intercept|pass|	-0.0004287967
-4.188206	intercept|that|	0.1520954
-4.188206	intercept||pass	0.06645855
-3.82023	involve|he|	0.1518477
-3.887177	involve||	0.2647319
-4.188206	isnt|PERSON|	0.01272225
-4.063268	isnt|it|	0.2380096
-4.188206	jack|PERSON|	-0.0002973601
-4.188206	join|PERSON|	0.1423107
-3.887177	join|PERSON|PERSON	0.1422668
-4.188206	join||	0.06621771
-4.188206	join||ORGANIZATION	0.1606342
-4.188206	join||we	0.1423107
-4.188206	joke|PERSON|	-0.0002487937
-3.966358	judge||	0.1622394
-3.966358	jump|ORGANIZATION|	0.144091
-3.966358	jump|PERSON|	0.1428214
-4.188206	jump|we|	0.1423237
-3.711085	jump||	0.2406319
-4.188206	keep|DATE|	0.1423952
-3.711085	keep|I|	0.1427783
-4.188206	keep|I|eye	0.1423952
-4.063268	keep|ORGANIZATION|	0.1426245
-3.665328	keep|PERSON|	0.1416171
-4.188206	keep|PERSON|streak	0.1424933
-3.966358	keep|he|	0.01245034
-4.188206	keep|kind|	-0.0003255285
-4.188206	keep|that|keep	0.1423952
-3.762238	keep|they|	0.2407208
-3.887177	keep|we|	0.06616598
-3.966358	keep|who|	0.06593452
-3.063268	keep||	0.2823787
-4.188206	keep||LOCATION	0.1423952
-4.063268	keep||ORGANIZATION	0.001573239
-3.966358	keep||PERSON	0.2605872
-4.063268	keep||close	0.1605107
-4.188206	keep||drive	0.01272225
-4.188206	keep||he	0.001311262
-3.887177	keep||head	0.005212218
-4.188206	keep||it	0.1426237
-4.063268	keep||offense	0.1422132
-4.188206	keep||ratio	7.991475e-05
-4.188206	keep||running	-0.0001752763
-4.063268	keep||spot	0.2378244
-4.188206	keep||win	-0.0002300171
-4.188206	kick|MISC|	-0.0001940606
-4.188206	kick|ORGANIZATION|	0.1423237
-4.188206	kick|ORGANIZATION|goal	0.06630857
-4.188206	kick|PERSON|	0.1423368
-4.188206	kick|PERSON|goal	0.1606342
-4.188206	kick|ball|	0.06621771
-4.188206	kick|he|	0.237948
-4.188206	kick|he|NUMBER	0.06630857
-4.188206	kick|he|goal	-0.0001079491
-3.5192	kick||	0.2368215
-3.887177	kick||goal	0.1517673
-3.665328	knock|PERSON|	0.2374738
-4.188206	knock|penalty|	-0.0002300171
-4.063268	knock|team|LOCATION	0.1499585
-3.887177	knock||	0.1475344
-4.063268	knock||he	0.08142014
-2.762238	know|I|	0.2788774
-4.188206	know|ORGANIZATION|	-4.376305e-05
-3.966358	know|PERSON|	0.1420051
-4.063268	know|anyone|	0.01259112
-4.063268	know|fan|	0.142696
-3.711085	know|he|	0.2391706
-4.188206	know|it|	0.0001159851
-4.188206	know|nobody|	0.237948
-4.188206	know|she|	0.1423107
-4.063268	know|they|	0.2381722
-3.21817	know|we|	0.2768381
-3.711085	know|who|	0.1609245
-3.188206	know|you|	0.2382919
-4.188206	know|you|I	0.1426629
-3.233964	know||	0.2616125
-4.188206	lack||	0.1423952
-4.063268	last|PERSON|	0.2377982
-4.188206	last|PERSON|NUMBER	0.0004732822
-4.188206	last|PERSON|inning	-0.0001283118
-3.966358	last|he|inning	4.609558e-05
-4.188206	last||	0.1423628
-3.966358	last||inning	0.06635842
-4.188206	latch|PERSON|	0.1423952
-4.188206	latch||	0.1423107
-4.188206	laugh|PERSON|	0.01409835
-3.966358	laugh|PERSON|it	-0.0006852224
-4.188206	lay|PERSON|	0.237948
-4.188206	lay|PERSON|bunt	-0.0004381835
-4.188206	lay||	0.001631816
-4.188206	lead|Eagles|	-0.0002863446
-4.188206	lead|LOCATION|	-0.0002973601
-4.188206	lead|MISC|	0.1423952
-4.188206	lead|NUMBER|	-0.0002394055
-3.762238	lead|ORGANIZATION|	0.06792436
-3.711085	lead|ORGANIZATION|NUMBER	0.1424532
-3.887177	lead|ORGANIZATION|ORGANIZATION	0.1431888
-4.063268	lead|ORGANIZATION|major	0.06610512
-3.20293	lead|PERSON|	0.2598541
-3.82023	lead|PERSON|ORDINAL	0.2373791
-3.623935	lead|PERSON|ORGANIZATION	0.06652202
-4.188206	lead|PERSON|frame	0.1423952
-4.063268	lead|PERSON|inning	-0.0001030675
-4.188206	lead|PERSON|major	0.237948
-4.063268	lead|PERSON|offense	0.1430164
-4.063268	lead|PERSON|team	0.237912
-3.887177	lead|PERSON|way	0.001598998
-4.063268	lead|division|	-4.514493e-05
-3.762238	lead|he|	0.2393223
-3.966358	lead|he|ORGANIZATION	0.2609607
-4.188206	lead|he|team	0.1423368
-4.063268	lead|it|	0.2378244
-3.82023	lead|that|	0.1599745
-4.188206	lead|they|NUMBER	0.142415
-3.887177	lead|which|	0.1419402
-3.586146	lead||	0.2376347
-4.188206	lead||MISC	0.1432244
-3.966358	lead||NUMBER	0.1421482
-3.711085	lead||ORGANIZATION	0.1441238
-3.762238	lead||offense	0.2385157
-3.966358	lead||team	0.2416832
-4.188206	lead||they	0.0666776
-4.188206	lead||way	-2.497219e-05
-4.188206	leap|he|	0.006583202
-4.188206	leap||	0.1428456
-4.188206	learn|PERSON|	0.1424281
-3.711085	learn||	0.2371286
-4.188206	leave|DURATION|	0.237948
-4.063268	leave|I|	0.1422523
-4.188206	leave|NUMBER|NUMBER	0.001603522
-4.063268	leave|ORGANIZATION|	0.06607992
-3.586146	leave|PERSON|	0.2391116
-3.711085	leave|PERSON|game	0.2418696
-4.063268	leave|TIME|	0.1452699
-4.063268	leave|defense|lot	-0.0004380427
-4.188206	leave|game|	0.1424281
-3.711085	leave|he|	0.2623143
-4.188206	leave|he|game	0.06631622
-4.188206	leave|they|NUMBER	0.0003510161
-2.784514	leave||	0.2809263
-4.063268	leave||NUMBER	0.002423277
-4.188206	leave||PERSON	0.1423107
-4.188206	leave||fielder	0.06626149
-4.063268	leave||game	0.152422
-4.188206	leave||stadium	0.1424281
-4.188206	let|Dont|	0.1423889
-3.966358	let|I|	0.2500173
-3.82023	let|PERSON|	0.06823194
-4.063268	let|defense|	0.0005553823
-4.188206	let|that|	0.0006144017
-4.188206	let|touch|he	0.06630857
-3.966358	let|we|	0.1421617
-4.188206	let|we|go	0.1434858
-4.188206	let|who|bounce	0.1425194
-2.957757	let||	0.2898893
-4.188206	let||I	0.001962046
-3.489236	let||Mets	0.1501373
-4.188206	let||PERSON	0.0664476
-4.188206	lift|who|ball	-0.0003051188
-3.267388	like|I|	0.2543934
-4.188206	like|I|LOCATION	0.1427281
-4.063268	like|I|look	0.1422262
-4.063268	like|I|way	-0.0004319183
-4.063268	like|he|	0.0006589438
-4.063268	like|you|	0.2377495
-4.188206	limit|PERSON|	0.237948
-4.188206	limit|he|time	6.112471e-05
-4.063268	limit||ORGANIZATION	0.2377495
-4.063268	line|PERSON|	0.1438201
-4.188206	line||	0.01298357
-4.188206	link|ORGANIZATION|	0.08154368
-4.188206	link|PERSON|	-0.000353695
-4.063268	listen|you|PERSON	-0.0003285921
-4.188206	live|PERSON|	0.1423237
-4.188206	live|we|	0.1501526
-3.762238	live||	0.06804557
-4.063268	load|PERSON|basis	0.1436108
-3.966358	load||	0.1432529
-4.063268	load||basis	0.1421678
-4.188206	lock|PERSON|arm	-0.0003332786
-4.188206	lock||	0.06630857
-4.188206	loft|who|it	-0.0003238922
-4.063268	look|DATE|	0.001092286
-3.551384	look|I|	0.2720456
-4.188206	look|I|it	0.237948
-3.665328	look|LOCATION|	0.2370541
-4.188206	look|LOCATION|monstrous	0.006583202
-3.966358	look|NUMBER|	0.2388793
-3.3036	look|ORGANIZATION|	0.2543737
-2.756843	look|PERSON|	0.2538119
-4.188206	look|PERSON|need	0.01269323
-4.188206	look|PERSON|way	-0.0001642925
-4.188206	look|backfield|	0.1423952
-3.5192	look|defense|	0.2399047
-4.188206	look|drive|	0.1433159
-3.021875	look|he|	0.2804866
-4.188206	look|he|player	0.002207521
-3.109025	look|it|	0.2842323
-3.82023	look|line|	0.2376519
-4.188206	look|number|	-0.0001564911
-3.623935	look|offense|	0.1452608
-4.188206	look|player|	0.1428848
-4.188206	look|play|	0.1432244
-4.063268	look|she|	0.06601425
-3.887177	look|team|	0.2604086
-3.762238	look|that|	0.1611454
-3.586146	look|they|	0.2395793
-4.188206	look|unit|	-0.0003238922
-3.586146	look|we|	0.2493818
-3.887177	look|what|	0.1424758
-3.887177	look|which|	0.06707466
-3.966358	look|who|	0.237691
-3.665328	look|you|	0.1604317
-2.696845	look||	0.2483393
-4.188206	loom|series|	0.06630857
-3.762238	lose|LOCATION|	0.1622787
-3.966358	lose|LOCATION|NUMBER	0.1440051
-3.20293	lose|ORGANIZATION|	0.2624416
-3.711085	lose|ORGANIZATION|NUMBER	0.1470655
-3.966358	lose|ORGANIZATION|PERSON	0.2377009
-4.188206	lose|ORGANIZATION|ballgame	0.06630857
-3.551384	lose|ORGANIZATION|game	0.2648621
-4.188206	lose|ORGANIZATION|yard	0.0009438584
-3.82023	lose|PERSON|	0.1509807
-4.188206	lose|Thunder|	0.06630857
-4.188206	lose|a|	0.06753296
-4.063268	lose|guy|	0.2378244
-3.887177	lose|he|	0.06599063
-4.188206	lose|team|	0.1425455
-3.623935	lose|they|	0.2367907
-3.623935	lose|they|NUMBER	0.2384895
-4.188206	lose|they|PERSON	0.237948
-4.188206	lose|they|likes	0.1423237
-3.887177	lose|we|	0.2375675
-4.188206	lose|we|NUMBER	0.237948
-4.188206	lose|we|game	0.1423498
-4.188206	lose|who|	0.06626149
-3.173966	lose||	0.2543695
-3.762238	lose||NUMBER	0.06657732
-4.188206	lose||PERSON	0.009272163
-3.887177	lose||game	0.1450119
-4.188206	lose||streak	0.1432636
-3.551384	love|I|	0.2382852
-4.188206	love|I|MISC	0.06622866
-4.188206	love|I|basketball	0.1423952
-4.063268	love|I|it	-0.0003567743
-4.063268	love|I|they	0.2378244
-4.188206	love|I|what	0.1423107
-4.063268	love|they|	0.1421871
-4.188206	love|you|	-0.0003818596
-4.063268	love||	0.005592493
-4.188206	lower||	6.112471e-05
-4.188206	lunge||	0.237948
-4.063268	lurk||	0.1500291
-4.063268	make|DATE|	0.1425394
-3.665328	make|I|	0.2709868
-4.188206	make|I|fun	0.06630857
-4.188206	make|I|it	0.1434858
-4.188206	make|I|team	0.06632717
-4.188206	make|LOCATION|game	0.237948
-4.063268	make|ORGANIZATION|	0.06615655
-3.233964	make|PERSON|	0.2602598
-4.188206	make|PERSON|attempt	0.01299325
-3.82023	make|PERSON|catch	0.2395695
-3.966358	make|PERSON|completion	0.0006685703
-3.762238	make|PERSON|debut	0.2371995
-4.188206	make|PERSON|ear	-0.0003426648
-4.188206	make|PERSON|goal	0.0006708623
-3.887177	make|PERSON|it	0.1601808
-4.188206	make|PERSON|name	-2.497222e-05
-4.188206	make|PERSON|play	0.237948
-4.188206	make|PERSON|return	0.06636001
-4.188206	make|PERSON|run	0.1423952
-3.966358	make|PERSON|start	0.0009298717
-4.188206	make|Ponder|read	0.1423952
-4.063268	make|game|	0.1422069
-4.188206	make|goal|	0.06632717
-3.410055	make|he|	0.2487939
-4.188206	make|he|ORDINAL	0.01269323
-4.063268	make|he|it	0.2377657
-4.063268	make|he|mistake	0.2378307
-4.188206	make|he|most	0.001895979
-3.966358	make|he|play	0.2376585
-4.188206	make|he|run	0.1423952
-4.063268	make|he|start	0.01252338
-4.188206	make|he|team	0.1423952
-4.063268	make|homer|it	0.2377495
-4.188206	make|inside|ear	-0.0003426648
-3.551384	make|it|	0.239145
-4.063268	make|it|difference	0.237782
-4.188206	make|it|sense	0.1423759
-4.063268	make|pair|Giants	-0.0004568157
-4.063268	make|pair|NUMBER	-0.0004568157
-3.623935	make|that|	0.08430343
-3.887177	make|that|NUMBER	-0.0005097953
-4.188206	make|that|difference	0.1423759
-3.762238	make|that|it	0.01547174
-3.887177	make|they|	0.1425081
-4.188206	make|they|work	-0.0003426648
-4.188206	make|this|	0.1423952
-4.188206	make|we|	0.1423368
-4.188206	make|we|decision	0.06621771
-4.063268	make|we|mistake	0.06617845
-3.82023	make|what|	0.1426729
-3.966358	make|which|	0.2376747
-2.839253	make||	0.2896204
-4.188206	make||MISC	0.0006332208
-3.386574	make||NUMBER	0.2380604
-3.887177	make||catch	0.2611597
-4.188206	make||change	7.839216e-05
-4.188206	make||contact	0.1423952
-4.063268	make||debut	0.1427812
-4.188206	make||difference	3.14053e-05
-4.063268	make||drive	0.1422132
-3.966358	make||goal	0.06627399
-4.063268	make||history	0.07260913
-3.21817	make||it	0.240131
-3.82023	make||mistake	0.06745601
-4.188206	make||noise	0.1423237
-4.188206	make||pass	0.1423498
-3.489236	make||play	0.2367111
-3.887177	make||run	0.2652341
-4.188206	make||sack	0.1423759
-4.188206	make||sense	-0.0003443063
-4.063268	make||statement	0.1422717
-4.063268	make||team	0.06694864
-4.188206	make||way	0.1423952
-3.887177	manage|I|	0.1517976
-3.82023	manage|LOCATION|	0.2380752
-3.711085	manage|ORGANIZATION|	0.07658277
-3.623935	manage|PERSON|	0.2496589
-3.966358	manage|he|	0.06752173
-4.063268	manage|offense|hit	0.00020722
-4.063268	manage|offense|run	0.06720889
-4.188206	manage|she|	0.06622866
-4.188206	manage|team|	0.06630857
-3.665328	manage|they|	0.2759967
-3.887177	manage|they|yard	0.1419208
-4.188206	manage|we|	0.06645855
-4.063268	manage|who|	0.1422262
-3.711085	manage||	0.142237
-4.188206	man||	0.006964957
-4.063268	march|he|ORGANIZATION	-0.0004568157
-4.063268	mark||	0.2378244
-4.188206	marshal|PERSON|	4.080229e-05
-4.188206	match|PERSON|	0.06630527
-4.188206	match|SET|	0.06648045
-3.966358	match||	0.08316299
-4.188206	match||play	0.237948
-3.887177	matter|it|	0.2424381
-4.188206	matter|that|	0.1437474
-4.188206	matter|what|	0.0744149
-4.188206	maul|PERSON|	0.1520954
-3.386574	mean|I|	0.2724559
-4.063268	mean|he|what	0.001516628
-4.063268	mean|it|	-0.0001218658
-4.188206	mean|it|lot	0.1501526
-4.188206	mean|it|something	0.005192636
-3.887177	mean|that|	0.2388114
-4.188206	mean|that|what	0.0003228057
-3.623935	mean|which|	0.1460656
-3.711085	mean||	0.1434415
-4.188206	meet|I|	0.06630857
-4.063268	meet|I|PERSON	0.2377657
-4.188206	meet|coach|	0.06630857
-4.063268	meet|team|	0.01828023
-4.188206	meet|they|	-0.0003426648
-3.966358	meet||	0.237626
-3.711085	mention|I|	0.143494
-2.975132	mention||	0.2366248
-4.188206	metre|NUMBER|NUMBER	-0.0003426648
-4.188206	metre|NUMBER|butterfly	0.1423107
-4.188206	metre|NUMBER|medley	-0.0003426648
-4.188206	metre|NUMBER|relay	-0.0002504089
-4.188206	mind|I|	-0.0001095246
-4.063268	mind||	0.1421871
-4.188206	minute|pace|	0.237948
-4.063268	miss|PERSON|	0.1458668
-4.188206	miss|defence|DIVES	0.01276853
-4.188206	miss|defence|it	-0.0003426648
-3.966358	miss|he|	0.06592358
-4.188206	miss|he|sitter	0.06630857
-4.188206	miss|many|assignment	0.06630857
-4.063268	miss|they|PERSON	0.2378244
-3.250354	miss||	0.2597892
-3.966358	miss||ball	0.1603872
-4.063268	mix||	0.1432124
-4.188206	motion|he|	0.1423107
-4.188206	move|I|	0.06621771
-3.887177	move|LOCATION|	0.0001832747
-4.063268	move|LOCATION|ball	0.1421286
-4.063268	move|NUMBER|	0.1422262
-4.063268	move|ORGANIZATION|	0.2378632
-4.188206	move|ORGANIZATION|ball	0.1425324
-3.82023	move|PERSON|	0.2394224
-4.188206	move|PERSON|PERSON	0.1423628
-4.063268	move|offense|ball	0.06629891
-4.188206	move|outfielder|	-0.0003332786
-4.188206	move|penalty|ball	0.06630857
-4.188206	move|team|	0.06641475
-3.160178	move||	0.2437385
-3.966358	move||PERSON	0.1608067
-3.461208	move||ball	0.2370051
-4.188206	nail|PERSON|goal	0.002973166
-4.188206	name|Made|	0.1438783
-3.762238	name|PERSON|pitcher	0.1417522
-3.711085	name|PERSON|player	0.1450386
-3.665328	need|I|	0.152246
-4.188206	need|I|ticket	0.1426368
-4.063268	need|LOCATION|	0.06667144
-4.188206	need|LOCATION|play	-0.0003630834
-4.188206	need|Moors|	5.172999e-05
-3.586146	need|ORGANIZATION|	0.1439716
-4.063268	need|ORGANIZATION|PERSON	0.06621458
-3.586146	need|PERSON|	0.2369016
-4.188206	need|Utes|	0.1423498
-4.188206	need|defense|work	0.142937
-3.173966	need|he|	0.2682943
-4.063268	need|he|pitch	0.006374112
-3.966358	need|it|	0.2413715
-4.188206	need|man|	0.06630857
-4.188206	need|offense|	0.06629433
-4.188206	need|player|	0.1423952
-4.188206	need|someone|	0.237948
-4.063268	need|team|	0.06618503
-3.82023	need|that|	0.1417843
-3.233964	need|they|	0.2616874
-3.188206	need|we|	0.2647945
-4.188206	need|we|he	0.1606342
-4.188206	need|we|it	-0.0001752763
-3.82023	need|who|	0.1419148
-3.82023	need|you|	0.2388185
-3.489236	need||	0.2656944
-4.188206	negate|that|play	-0.0003332786
-4.063268	net|which|	0.0002947379
-4.063268	net||	0.1431471
-4.188206	nod|PERSON|	0.0007663091
-4.188206	nod|it|	0.0007663091
-4.188206	notch||victory	0.0001723811
-4.188206	note|he|which	-0.0002112397
-3.762238	note||	0.2603466
-4.188206	notice|I|	0.1423952
-4.188206	nullify|penalty|	0.1424281
-4.188206	occur||	-0.0003426648
-4.188206	open|ORGANIZATION|game	0.1426629
-4.188206	open|ORGANIZATION|series	0.1423759
-3.82023	open|PERSON|	0.2602851
-4.188206	open|game|more	0.06626149
-3.966358	open|line|hole	0.1440648
-4.188206	open|that|door	0.237948
-4.188206	open|that|thing	0.1427673
-3.343108	open||	0.2696643
-4.188206	open||DATE	0.1423107
-4.188206	open||hole	0.1423237
-4.188206	operate||	-0.0003255285
-4.063268	oppose||	0.1421871
-4.188206	outdo|he|himself	0.06630857
-3.887177	overcome||	0.1417971
-4.063268	overcome||deficit	0.1422132
-4.063268	overmatch|ORGANIZATION|	0.06634272
-4.063268	own||	0.0730761
-3.887177	pack|the|	0.2374275
-4.188206	pack||	0.1606342
-4.063268	panic||	0.01255034
-3.173966	pass|NUMBER|	0.2349732
-3.21817	pass|ORDINAL|	0.2470826
-4.063268	pass|ORGANIZATION|	0.2382048
-3.623935	pass|PERSON|	0.2394826
-4.188206	pass|PERSON|test	0.1423237
-3.966358	pass|State|	0.06646025
-3.82023	pass|he|	0.2392238
-4.188206	pass|they|it	0.142402
-3.146814	pass||	0.265898
-3.966358	pass||PERSON	0.2376585
-3.887177	pass||ball	0.1447866
-3.887177	pass||grade	0.1421232
-4.063268	pass||yard	0.07520606
-3.887177	pave|PERSON|way	0.06604099
-4.188206	paydirt||	-0.0003426648
-4.188206	pay|PERSON|price	-0.0003426648
-4.063268	perform|PERSON|	0.1422393
-4.063268	perform|he|	0.161531
-4.063268	perform|team|	0.1421286
-3.410055	pick|PERSON|	0.2457928
-3.586146	pick|PERSON|ORDINAL	0.2403571
-4.188206	pick|PERSON|back	-0.0003912474
-4.063268	pick|PERSON|ball	0.1422784
-4.188206	pick|PERSON|hit	0.000990944
-4.188206	pick|PERSON|linebacker	-0.000400635
-4.188206	pick|PERSON|pass	0.1423498
-4.188206	pick|PERSON|the	0.1423237
-4.188206	pick|it|	0.1427412
-4.188206	pick|they|down	0.237948
-3.762238	pick||	0.2384148
-3.5192	pick||ORDINAL	0.1499078
-3.966358	pick||down	-0.0005288675
-4.188206	pick||it	0.0001441822
-4.188206	pick||pass	0.1423952
-4.188206	pick||yard	0.06622866
-4.188206	pile||	-0.0001001307
-4.188206	ping|he|it	-0.0003332786
-4.188206	piss||	0.1442317
-4.188206	pitch|NUMBER|	-0.0003426648
-3.146814	pitch|PERSON|	0.2472528
-3.82023	pitch|PERSON|NUMBER	0.2424628
-3.82023	pitch|PERSON|ORDINAL	0.2386524
-2.872936	pitch|PERSON|inning	0.2814313
-3.250354	pitch|he|	0.279209
-3.623935	pitch|he|game	0.08074205
-4.188206	pitch|he|gem	-0.0003067498
-2.91714	pitch|he|inning	0.2666511
-3.966358	pitch|inning|	0.08129765
-4.188206	pitch|season|game	0.06630857
-4.188206	pitch|they|shutout	0.1426368
-3.966358	pitch|who|	0.142266
-3.00257	pitch||	0.2639836
-3.5192	pitch||inning	0.1422843
-4.188206	pit|DATE|PERSON	0.06630857
-4.188206	pit|matchup|PERSON	-0.0001642925
-4.188206	plan|I|	0.1423107
-4.188206	playmake||	0.1423628
-4.188206	play|BB|role	0.01276853
-4.188206	play|Babel|	-0.000126731
-4.188206	play|Babel|it	0.06630857
-4.188206	play|Castillo-Castillo|	0.06782945
-3.489236	play|I|	0.2609996
-4.188206	play|I|defense	0.06859904
-4.188206	play|I|game	-0.0003067498
-3.586146	play|LOCATION|	0.2596266
-4.188206	play|MISC|	0.237948
-3.711085	play|NUMBER|	0.2372036
-3.410055	play|NUMBER|yard	0.161373
-3.665328	play|ORGANIZATION|	0.1427084
-3.82023	play|ORGANIZATION|NUMBER	0.0657938
-3.762238	play|ORGANIZATION|ORGANIZATION	0.1514003
-4.063268	play|ORGANIZATION|baseball	0.0742792
-3.665328	play|ORGANIZATION|game	0.2367839
-3.063268	play|PERSON|	0.2810269
-4.188206	play|PERSON|IDEOLOGY	0.06629433
-4.188206	play|PERSON|ORDINAL	0.1423628
-3.966358	play|PERSON|PERSON	0.006184109
-3.966358	play|PERSON|ball	0.01244619
-3.82023	play|PERSON|game	0.2390537
-4.188206	play|PERSON|it	0.01276853
-4.188206	play|PERSON|time	0.237948
-4.188206	play|Phils|ORGANIZATION	0.005344809
-4.188206	play|Ponder|	0.1423952
-3.82023	play|defense|	0.1593884
-4.188206	play|flick|	-0.0001830719
-4.063268	play|game|	0.2378244
-3.173966	play|he|	0.2637145
-4.063268	play|he|game	0.2378244
-3.966358	play|it|	0.1425464
-4.063268	play|offense|	0.2397859
-4.188206	play|o|through-ball	-0.0003426648
-4.188206	play|qb|	0.06630857
-4.188206	play|rest|LOCATION	0.06630857
-4.063268	play|she|	0.1424872
-3.665328	play|team|	0.242627
-4.188206	play|team|game	0.142402
-3.82023	play|that|	0.1606677
-3.21817	play|they|	0.2563246
-4.188206	play|they|NUMBER	0.06621771
-4.188206	play|they|football	0.1423952
-3.82023	play|they|game	0.2381404
-3.410055	play|we|	0.2605236
-4.188206	play|we|NUMBER	-0.0004006351
-3.887177	play|who|	0.1417971
-4.063268	play|you|	0.1465196
-2.489236	play||	0.2880072
-4.188206	play||DURATION	0.1606342
-4.188206	play||LOCATION	0.1606342
-4.063268	play||NUMBER	0.1428135
-4.188206	play||ORGANIZATION	0.1423952
-4.063268	play||PERSON	0.1425524
-4.063268	play||ball	0.2378244
-4.063268	play||defense	0.006421818
-4.188206	play||division	3.215624e-06
-3.665328	play||football	0.2608345
-3.82023	play||game	0.1419543
-4.188206	play||half	-0.0003630834
-4.188206	play||position	0.1423952
-4.188206	play||safety	0.06630857
-4.188206	play||school	0.06622866
-4.188206	play||season	0.1423237
-3.966358	play||spoiler	0.160876
-4.063268	play||team	0.0825794
-3.82023	play||time	0.2433522
-4.188206	play||volleyball	-0.0004100225
-4.188206	play||yard	0.006592742
-3.461208	please||	0.2476739
-4.188206	point||	-3.436775e-05
-4.188206	poise|PERSON|	0.1423952
-4.188206	poise||	-0.0003912474
-3.762238	pop|PERSON|	0.08097682
-4.188206	post|he|era	0.237948
-3.762238	post||	0.2475609
-4.188206	pound|ORGANIZATION|hit	0.0007743922
-4.188206	pound|they|	-2.497219e-05
-4.188206	pound||	0.06782945
-4.188206	pound||ball	0.142402
-4.188206	pound||hit	0.06631622
-4.188206	pound||run	0.1433682
-4.063268	power|PERSON|	0.1424219
-4.188206	practice|we|	0.237948
-4.188206	practice|we|what	0.1423952
-4.188206	praise|PERSON|	-0.0003426648
-4.188206	pray|I|	0.1423952
-4.063268	predict|I|	0.1605107
-4.188206	prepare|PERSON|	0.237948
-3.966358	prepare|they|	0.005012167
-4.188206	prepare|we|	-0.0004100225
-3.665328	prepare||	0.27171
-4.188206	present|that|	-0.0003145057
-4.188206	present|they|	0.0662396
-4.188206	pressure|PERSON|	0.1423889
-4.188206	pressure|PERSON|PERSON	0.1423952
-4.188206	press||	0.1423952
-4.188206	prevent||PERSON	-0.0001940607
-4.188206	produce|he|	-8.13423e-05
-4.063268	promote||	0.1426506
-4.188206	protect||PERSON	0.1423889
-4.188206	prove|ORGANIZATION|	-0.0001173402
-3.665328	prove|PERSON|	0.2373307
-3.82023	prove||	0.2498742
-4.188206	provide|PERSON|highlight-reel	0.06630857
-4.063268	provide||	0.1422717
-3.762238	ptich||	0.1421836
-4.188206	pull|I|	0.1428979
-3.966358	pull|ORGANIZATION|	0.06592358
-3.887177	pull|PERSON|	0.2376551
-4.188206	pull|PERSON|rookie	0.0664257
-4.188206	pull|he|	0.1423107
-3.586146	pull||	0.2380751
-4.188206	pull||it	-0.000400635
-4.188206	pull||upset	0.06741223
-4.188206	pump||	0.237948
-4.188206	punch|corner|	-0.0003426648
-4.188206	punch||	0.1428848
-4.188206	punch||ball	0.06626149
-4.063268	punt|PERSON|ball	0.142448
-3.364298	punt||	0.2395334
-4.063268	punt||ball	0.2378244
-4.188206	push|PERSON|he	0.1428979
-4.063268	push|he|	0.06646322
-4.188206	push|they|	0.1423952
-3.711085	push||	0.2439474
-4.188206	push||all	-2.342043e-05
-4.063268	push||it	0.1421156
-3.887177	put|I|	0.1421426
-3.966358	put|ORGANIZATION|	0.1604267
-4.063268	put|ORGANIZATION|drive	0.1425263
-4.188206	put|ORGANIZATION|point	0.06630857
-4.188206	put|ORGANIZATION|pressure	-0.0003426648
-3.665328	put|PERSON|	0.2599246
-4.188206	put|PERSON|NUMBER	0.0663819
-4.188206	put|PERSON|hand	0.237948
-4.188206	put|PERSON|host	-0.0003426648
-4.188206	put|PERSON|number	0.06630857
-4.188206	put|PERSON|shot	0.001622384
-4.188206	put|defense|effort	-6.099066e-05
-3.966358	put|he|	0.1425141
-4.188206	put|he|ORGANIZATION	0.06628338
-4.188206	put|he|it	-0.0003332786
-4.188206	put|p|	0.0002569886
-4.188206	put|that|	0.06625055
-3.966358	put|that|LOCATION	0.2642499
-4.063268	put|that|ORGANIZATION	0.1435132
-4.188206	put|that|he	0.1501526
-3.966358	put|that|they	0.1438872
-4.188206	put|they|	0.005192636
-4.188206	put|they|a	0.001414944
-4.188206	put|they|drive	-0.0003630834
-4.188206	put|we|game	0.06630857
-4.188206	put|who|they	-0.0003426648
-3.3036	put||	0.2726737
-3.82023	put||LOCATION	0.2374179
-3.966358	put||NUMBER	0.1424948
-3.665328	put||ORGANIZATION	0.144008
-4.188206	put||Phils	0.1423759
-3.711085	put||ball	0.06579579
-4.063268	put||drive	0.1432909
-4.188206	put||everyone	-0.0003426648
-3.887177	put||game	0.2398563
-3.966358	put||it	0.1421486
-3.887177	put||man	0.1426326
-3.887177	put||number	0.1450963
-4.188206	put||performance	0.1606342
-4.188206	put||player	0.06622866
-3.966358	put||point	0.1502069
-4.188206	put||pressure	-0.000400635
-4.063268	put||run	0.0001992687
-4.188206	put||team	0.237948
-4.188206	qualify|PERSON|	0.06621771
-4.188206	qualify|she|	0.0006896839
-3.82023	qualify||	0.2495696
-4.188206	queue|they|	-0.0003051188
-3.887177	quit|I|	0.2497433
-3.966358	quit||	0.1420964
-4.188206	race||	0.1423952
-4.188206	raise||	0.06626149
-3.966358	rally|ORGANIZATION|	0.08371016
-4.188206	rank|ORGANIZATION|	0.1423107
-4.063268	rank|they|	0.2378244
-4.188206	rank||	6.899436e-05
-4.188206	re-take||it	-0.0003426648
-3.887177	reach|PERSON|	0.1497513
-4.188206	reach||inning	0.06630857
-4.188206	react|he|	0.1424541
-4.188206	read|GOAL|it	-0.0003426648
-4.188206	read|PERSON|it	-0.0002581818
-4.188206	read|he|	0.1423628
-3.762238	read||	0.1507869
-4.063268	read||more	0.00516425
-3.762238	realize|I|	0.1455043
-4.188206	realize|ok|I	0.06645855
-4.188206	realize||	-0.0001752763
-4.188206	rebound|it|	-0.0003426648
-3.966358	recall|PERSON|	0.1540216
-4.063268	recall||	0.2377495
-4.188206	receive|PERSON|chant	-0.0003238922
-4.188206	receive|PERSON|ovation	-0.0001173402
-3.887177	receive||	0.1423844
-4.188206	receive||medal	0.1423952
-4.188206	record|PERSON|out	0.0002663903
-4.188206	record|PERSON|sack	0.1423759
-4.188206	record||	0.000670862
-4.188206	recover|NUMBER|	0.001603522
-4.188206	recover|NUMBER|team	0.06630857
-4.063268	recover|ORGANIZATION|	0.1422591
-3.887177	recover|PERSON|	0.1516545
-4.188206	recover|sack|fumble	-0.0002018506
-4.063268	recover|that|	0.2378244
-3.586146	recover||	0.2370254
-4.188206	recover||punt	-0.0003238922
-4.188206	recruit||	0.1501526
-4.188206	refer|I|	0.237948
-4.188206	refer|it|	0.000642631
-3.966358	reflect|it|	-0.0006852224
-4.063268	regard||	0.06701138
-4.188206	regret|I|	0.1424802
-4.063268	reign||	0.1422717
-4.188206	relax|they|	-0.0003238922
-3.966358	relax||	0.2474653
-4.188206	release||shot	-0.0003426648
-4.063268	relish||chance	0.06618503
-4.188206	rely|PERSON|	0.1423952
-3.966358	remain|ORGANIZATION|	0.1428475
-3.173966	remain||	0.2671092
-3.5192	remember|I|	0.2409726
-4.063268	remember|PERSON|	0.2378244
-4.188206	remember|he|	0.06621771
-4.063268	remember|we|	0.1424089
-3.623935	remember||	0.2496218
-4.063268	remember||Bowl	-0.0004568157
-3.82023	replace|PERSON|	0.1618414
-3.665328	replace|PERSON|PERSON	0.2419351
-4.063268	replace|PERSON|he	0.01251371
-4.063268	replace|he|	0.1437285
-3.343108	replace||	0.1414196
-3.3036	replace||PERSON	0.2368224
-4.188206	report|PERSON|	0.06622866
-4.188206	research|I|	0.1423628
-4.188206	research||	0.1423237
-4.188206	resign||	0.000595583
-4.188206	respond|LOCATION|	0.06621771
-3.711085	respond|ORGANIZATION|	0.2414838
-4.188206	respond|bat|	-0.0001924614
-4.188206	respond||	0.237948
-4.188206	restore|PERSON|	-3.436767e-05
-4.188206	rest|best|NUMBER	0.1423368
-3.762238	rest||	0.1420853
-4.188206	result|NUMBER|	0.1423952
-3.966358	result|it|	0.2379511
-3.82023	result|that|	0.002362758
-3.82023	result|which|	0.1420061
-3.665328	result||	0.1526444
-4.188206	resurface||	-0.0003426648
-4.188206	retire|PERSON|	0.00222641
-4.188206	retire||batter	0.06629433
-4.188206	retreat||	0.1423759
-4.188206	return|NUMBER|	0.001603522
-3.887177	return|ORGANIZATION|	0.2379578
-4.188206	return|ORGANIZATION|punt	0.06621771
-3.434879	return|PERSON|	0.2503299
-4.188206	return|PERSON|ball	-0.0004194097
-3.966358	return|PERSON|it	0.2379837
-3.966358	return|PERSON|kickoff	0.2377397
-3.762238	return|he|	0.237711
-4.188206	return|he|yard	-0.0003332786
-3.966358	return|kickoff|	0.2377009
-4.188206	return|man|	0.237948
-4.188206	return|that|	0.237948
-4.188206	return|who|	0.06631622
-3.586146	return||	0.2382845
-4.063268	return||starter	0.01975358
-4.188206	reverberate|chant|	0.01276853
-4.188206	ride||	0.06630857
-4.188206	ride||half	-0.0003238922
-4.188206	rip|PERSON|triple	0.1426368
-4.188206	risk|PERSON|	-0.000126731
-4.188206	risk||injury	0.1423237
-4.188206	rob|PERSON|	0.1428195
-4.188206	rock|PERSON|	0.1423237
-4.063268	roll|ORGANIZATION|	-0.0003661681
-4.188206	roll|PERSON|	0.1423759
-4.063268	roll|they|	0.1462036
-3.887177	roll||	0.2472993
-4.188206	root|we|	-4.376308e-05
-4.188206	rotate|jet|PERSON	0.142415
-4.063268	rotate||	0.1424872
-4.188206	ruin|LOCATION|plan	0.06630857
-4.063268	rule||	0.2390191
-3.762238	run|I|	0.2371807
-4.188206	run|I|ball	0.06630857
-4.188206	run|NATIONALITY|	0.06657901
-4.063268	run|NUMBER|	-0.0004584544
-3.887177	run|ORGANIZATION|	0.1428487
-3.966358	run|ORGANIZATION|ball	0.1522682
-4.188206	run|ORGANIZATION|each	0.06630857
-3.085544	run|PERSON|	0.2790183
-4.188206	run|PERSON|run	-0.0003426648
-4.063268	run|PERSON|time	0.1421156
-4.188206	run|PERSON|yard	-0.000353695
-4.188206	run|Zephyr|	0.237948
-3.489236	run|he|	0.2386415
-4.188206	run|he|yard	-0.0003426648
-3.762238	run|they|	0.2382386
-4.188206	run|they|play	0.1423107
-4.063268	run|we|	0.1431923
-3.762238	run|who|	0.06745364
-2.558118	run||	0.2820809
-3.551384	run||PERSON	0.2600144
-3.887177	run||back	0.2398306
-3.623935	run||ball	0.2597023
-3.82023	run||clock	0.2419705
-4.063268	run||game	0.1427613
-4.063268	run||offense	0.1465855
-4.188206	run||play	0.1459903
-4.188206	run||room	0.1423107
-4.188206	run||streak	-0.0004287967
-4.063268	rush|Giant|CAUSE_OF_DEATH	-0.0003723308
-4.188206	rush|I|	0.1423952
-4.063268	rush|NUMBER|	-0.0004568157
-4.063268	rush|ORGANIZATION|	0.0008473006
-3.711085	rush|PERSON|	0.2377894
-4.188206	rush|PERSON|touchdown	0.1423368
-3.887177	rush|he|	0.1419402
-4.188206	rush|offense|time	0.1426107
-3.966358	rush|they|	0.2377009
-2.984087	rush||	0.2581645
-4.188206	rush||CAUSE_OF_DEATH	0.1423952
-4.188206	rush||NUMBER	0.1434205
-4.188206	rush||attempt	0.237948
-3.966358	rush||game	0.1424295
-4.188206	rush||play	0.1606342
-4.063268	rush||time	0.1422002
-4.188206	rush||touchdown	0.1423107
-3.250354	rush||yard	0.2445578
-3.887177	sack|NUMBER|	-0.0004847622
-4.063268	sack|ORDINAL|	0.1426114
-3.623935	sack|PERSON|	0.0002590464
-4.188206	sack|PERSON|PERSON	0.1423498
-4.188206	sack|PERSON|time	0.002029095
-3.711085	sack|he|	0.2411539
-3.966358	sack||	-0.0007056693
-4.188206	save|I|shot	0.1501526
-4.188206	save|NUMBER|	0.1423952
-3.887177	save|ORDINAL|	0.2386158
-3.665328	save|PERSON|	0.2373568
-4.188206	save|WONDERFUL|	-0.0003426648
-3.966358	save|a|	0.01487444
-3.966358	save|inning|	0.0004130535
-4.188206	save|several|	0.237948
-4.188206	save|that|	-2.497208e-05
-3.586146	save|the|	0.2445885
-4.188206	save|which|	0.0664257
-3.031859	save||	0.2793788
-4.188206	save||job	0.07278971
-3.012115	say|I|	0.2623549
-4.063268	say|I|it	0.06615984
-4.188206	say|I|what	-0.0001283119
-4.188206	say|LOCATION|	0.01991229
-4.063268	say|ORGANIZATION|	0.2378244
-4.188206	say|ORGANIZATION|it	-0.0003426648
-2.687604	say|PERSON|	0.2679199
-4.188206	say|PERSON|captain	-4.634028e-06
-4.188206	say|all|	0.06629433
-3.82023	say|coach|	0.1641711
-2.984087	say|he|	0.271944
-4.188206	say|i|	0.1459903
-4.188206	say|junior|	-0.0003426648
-4.063268	say|people|	0.1431662
-4.188206	say|ref|	7.991475e-05
-4.063268	say|senior|	0.1421871
-3.82023	say|she|	0.2735098
-3.966358	say|that|	0.2377009
-3.887177	say|they|	0.1420121
-3.966358	say|we|	0.002016245
-3.966358	say|who|	0.06591263
-3.966358	say|you|	0.2377009
-2.909453	say||	0.2701268
-3.966358	say||PERSON	0.06616446
-4.063268	say||anything	0.07429136
-4.188206	say||it	0.237948
-4.063268	say||least	0.2377657
-4.188206	say||something	0.06622866
-4.063268	say||that	0.1421871
-4.063268	scamper|PERSON|yard	0.1422132
-4.063268	scamper||	0.2390191
-4.188206	scatter||hit	0.1423107
-3.887177	schedule|PERSON|	0.2605457
-4.063268	schedule||	0.144181
-4.188206	school||	0.237948
-4.063268	score|I|	0.1422262
-4.188206	score|I|NUMBER	0.1426107
-4.188206	score|I|goal	0.1423952
-3.711085	score|LOCATION|	0.1597522
-4.063268	score|LOCATION|NUMBER	0.001035739
-4.188206	score|LOCATION|point	-0.0002222357
-3.966358	score|LOCATION|run	0.00817335
-3.82023	score|MISC|	0.2374278
-3.665328	score|NUMBER|	0.1465423
-3.5192	score|ORGANIZATION|	0.1423213
-4.063268	score|ORGANIZATION|NUMBER	4.734751e-05
-4.188206	score|ORGANIZATION|point	0.06631622
-3.665328	score|ORGANIZATION|run	0.2401863
-3.82023	score|ORGANIZATION|touchdown	0.160654
-3.021875	score|PERSON|	0.2511983
-4.188206	score|PERSON|MISC	0.1434205
-3.762238	score|PERSON|goal	0.1627716
-3.887177	score|PERSON|run	0.1429725
-3.887177	score|PERSON|touchdown	0.1423912
-4.063268	score|goal|	0.06619269
-4.188206	score|hadnt|touchdown	0.1423952
-3.5192	score|he|	0.237323
-4.188206	score|he|NUMBER	-0.0003255284
-4.063268	score|he|goal	0.1421938
-4.188206	score|it|	0.06629433
-4.188206	score|national|	0.002122534
-3.711085	score|run|	0.2399072
-4.188206	score|striker|goal	-0.0004381835
-4.063268	score|team|	0.08179554
-3.966358	score|that|	0.1453621
-3.887177	score|that|PERSON	0.1422929
-4.188206	score|that|run	0.1423237
-3.82023	score|they|	0.2376555
-4.063268	score|they|NUMBER	0.02559775
-4.188206	score|they|lot	0.01267388
-3.762238	score|they|point	0.2373433
-3.887177	score|they|run	-8.02991e-05
-4.188206	score|they|td	0.1423952
-3.966358	score|we|	0.1609032
-4.063268	score|we|goal	0.1424678
-4.188206	score|who|	0.002254744
-2.322905	score||	0.2946982
-3.82023	score||PERSON	0.2376357
-3.82023	score||goal	0.2385672
-3.665328	score||point	0.2382497
-3.82023	score||run	-1.547998e-05
-3.623935	score||touchdown	0.1518447
-4.063268	scramble||	0.1519015
-4.188206	scranton/wilkes|recap|	0.002736711
-3.887177	scranton/wilkes|recap|ORGANIZATION	0.002412726
-3.762238	scranton/wilkes||	0.06598812
-4.188206	scratch|PERSON|	0.1501526
-4.188206	scream|break|	-0.0003426648
-4.063268	scream||	0.1499585
-4.188206	scrimmage||	0.1423952
-4.188206	seal|PERSON|victory	0.06701735
-4.188206	seal||	0.1438783
-4.188206	seal||PERSON	0.06626149
-4.063268	secure||	0.06806855
-4.188206	seek|they|	0.0662396
-4.188206	seem|LOCATION|	-0.0004381835
-4.063268	seem|Manning|	-0.0004568157
-3.887177	seem|ORGANIZATION|	0.2374013
-3.434879	seem|PERSON|	0.2775119
-4.188206	seem|game|	4.080223e-05
-3.386574	seem|he|	0.2620724
-3.12126	seem|it|	0.2637521
-4.188206	seem|line|	0.06656806
-4.188206	seem|offense|	0.1423628
-4.188206	seem|player|	0.1456091
-3.82023	seem|team|	0.262295
-3.887177	seem|that|	0.2496596
-3.82023	seem|they|	0.14198
-4.063268	seem|we|	0.1424219
-3.82023	seem|which|	0.07801133
-3.966358	seem|who|	0.01491617
-3.82023	seem||	0.1422217
-3.267388	see|I|	0.26292
-4.063268	see|I|PERSON	0.237912
-4.063268	see|I|it	0.2499802
-4.188206	see|I|much	0.06630857
-4.188206	see|I|play	0.005211655
-4.063268	see|I|reason	0.2377495
-4.188206	see|MONEY|	0.005287787
-3.887177	see|PERSON|	0.2376163
-4.188206	see|PERSON|time	0.06930387
-4.188206	see|game|	0.001528081
-3.82023	see|he|	0.2375218
-4.188206	see|he|field	0.06627244
-3.489236	see|that|	0.2738701
-4.188206	see|that|PERSON	0.06630857
-3.887177	see|they|	0.2375774
-4.188206	see|they|pitch	-0.0001173402
-3.5192	see|we|	0.236581
-4.063268	see|who|	0.1421871
-3.711085	see|you|	0.0671514
-3.966358	see|you|it	0.151841
-2.612249	see||	0.2665148
-3.966358	see||PERSON	0.2624042
-4.188206	see||event	0.1423237
-3.887177	see||he	0.2413956
-4.063268	see||it	0.06618503
-4.063268	see||play	0.06614561
-4.188206	see||star	0.06630857
-4.188206	see||team	0.1424281
-4.188206	sell||he	0.1423952
-4.188206	send|Gerrard|ball	-0.0003426648
-4.188206	send|Gerrard|it	-0.0003426648
-3.887177	send|ORGANIZATION|PERSON	0.08102775
-3.762238	send|PERSON|	0.2372195
-4.188206	send|PERSON|cross	0.1423107
-3.966358	send|corner|	0.06597067
-3.887177	send|he|	0.2376226
-4.063268	send|he|ball	0.1425002
-4.188206	send|it|who	0.06630857
-4.188206	send|that|crowd	-0.0003426648
-4.188206	send|touch|who	-0.0003426648
-3.82023	send||	0.2374603
-4.188206	send||PERSON	0.237948
-4.188206	send||ball	0.1520954
-4.188206	send||it	-0.0003426648
-4.188206	send||way	0.1520954
-4.188206	serve|I|	0.06632717
-4.188206	serve|server|	0.1423952
-4.063268	serve|the|	0.1422262
-3.762238	serve||	0.2407954
-4.063268	settle|PERSON|	0.0002166263
-3.887177	settle|they|	0.1422992
-3.410055	settle||	0.2727561
-4.188206	set|ORGANIZATION|	-0.0004194097
-3.762238	set|PERSON|	0.2378412
-4.063268	set|PERSON|touchdown	-0.0004568157
-4.188206	set|cap|	0.1423107
-4.063268	set|he|record	0.1421808
-4.188206	set|record|	0.1423952
-4.188206	set|that|NUMBER	-0.0003238922
-4.188206	set|which|	-0.0003912474
-3.3036	set||	0.2453466
-3.711085	set||PERSON	0.2416646
-3.887177	set||game	0.2375774
-4.188206	set||goal	0.1423889
-3.966358	set||record	0.2377072
-4.188206	set||tone	-6.255307e-05
-4.188206	seven|PERSON|	0.1427934
-4.188206	shake|PERSON|defender	-7.194767e-05
-4.063268	shake||hand	0.2378244
-4.188206	share||	0.1426629
-4.063268	shatter||record	0.1427743
-4.188206	shine|PERSON|	-4.376296e-05
-4.188206	shine|he|	0.1423952
-3.82023	shine||	0.261741
-4.188206	shock|I|	0.1426629
-3.966358	shoot|he|	0.06633651
-4.063268	shoot|who|	0.001139416
-3.711085	shoot||	0.1423616
-3.82023	short||	0.06592199
-4.188206	shout|PERSON|	0.1501526
-4.188206	shout||	0.237948
-4.188206	show|ORGANIZATION|flash	0.06630857
-3.623935	show|PERSON|	0.2405222
-4.188206	show|PERSON|awareness	0.237948
-4.188206	show|defense|	0.1423237
-3.887177	show|he|	0.2375025
-4.188206	show|he|sign	0.06629433
-3.82023	show|it|	0.2407057
-4.188206	show|neither|sign	0.237948
-4.188206	show|people|	0.006640444
-4.188206	show|play|	0.237948
-4.063268	show|replay|	0.2378244
-3.966358	show|they|	0.2388793
-4.188206	show|they|drive	0.01276853
-4.188206	show|this|	0.1426237
-4.063268	show|which|	0.07429035
-4.188206	show|who|	0.1423952
-4.188206	show|you|DURATION	0.1423952
-3.343108	show||	0.2629397
-4.188206	show||team	0.237948
-3.966358	shut|PERSON|	0.1421027
-4.188206	shut|PERSON|offense	-0.0003332786
-4.188206	shut||	0.1423952
-4.188206	shut||ORGANIZATION	0.0665133
-4.188206	shut||door	0.0003148591
-4.188206	sidefoot|he|ball	0.1423759
-4.188206	sign|PERSON|	0.0001911814
-3.966358	sign||	0.1425532
-4.188206	sign||PERSON	0.1423952
-3.386574	single|PERSON|	0.2388661
-4.188206	single|PERSON|Church	0.01276853
-4.063268	single|PERSON|PERSON	0.2377982
-4.188206	single|PERSON|home	0.1423368
-4.188206	single|PERSON|run	-9.073666e-05
-4.188206	single|he|	0.000219383
-3.82023	single||	0.145633
-4.063268	sink||	0.1426114
-4.188206	sit|I|	-0.0002034525
-4.188206	sit|ORGANIZATION|	0.1456091
-3.966358	sit|PERSON|	0.1435408
-3.966358	sit|he|	0.006613703
-4.188206	sit|they|	0.1423952
-3.966358	sit|they|PERSON	0.1526558
-3.461208	sit||	0.2394871
-4.188206	sizzle||	-0.0002973602
-4.188206	skip|ball|	0.237948
-4.188206	slam|defense|	-0.0003426648
-4.188206	slam|they|	-0.0003426648
-3.887177	sleep||	0.2375901
-4.188206	slide|he|	0.237948
-4.188206	slide|record|	0.000953275
-4.063268	slide||	0.1422132
-4.063268	slip|PERSON|	0.08142014
-3.966358	slip|he|	0.1456537
-3.966358	slip||	0.1456985
-4.188206	slow|he|	0.06666665
-4.188206	slug||	0.06622866
-4.188206	smash|PERSON|it	-0.0003426648
-4.188206	smash|he|it	0.006678261
-4.063268	smash||	0.1519549
-4.188206	smash||record	0.1423952
-3.966358	snap||	0.08121927
-4.188206	snap||streak	0.0002757925
-4.063268	snatch|PERSON|victory	0.06618503
-4.188206	sort||	0.237948
-4.063268	spark|PERSON|	-0.0004568157
-4.188206	spark||	0.1423368
-4.188206	speak|I|	-0.0004006351
-4.063268	speak|PERSON|	0.1422852
-3.586146	speak||	0.246946
-4.188206	spearhead|PERSON|	0.237948
-4.188206	spend|PERSON|much	0.1424802
-4.188206	spend||	0.1424672
-4.188206	spike||	0.1423952
-4.188206	split|he|defender	-0.0002222357
-4.188206	spoon|he|header	0.001698908
-4.063268	sport||	0.2384326
-4.188206	spread|ORGANIZATION|ball	0.1426498
-4.188206	spread|it|	-0.0002675696
-4.188206	spread||	0.06637096
-3.887177	sprint||	0.2374925
-3.887177	sputter|offense|	0.148805
-4.188206	stack|ORGANIZATION|line	0.06629433
-4.063268	stall|drive|	0.1423828
-3.966358	stall||	0.1605084
-4.188206	stall||drive	0.06622866
-4.063268	stand|I|	0.1421871
-4.188206	stand|I|chance	0.1425194
-3.887177	stand|PERSON|	0.1437055
-4.188206	stand|he|	0.0002193833
-4.188206	stand|he|it	-0.0003426648
-3.966358	stand|that|	0.2375997
-4.188206	stand|who|	0.237948
-3.665328	stand||	0.2491761
-4.063268	stare||	0.06610512
-4.188206	start|A|	0.0744149
-4.188206	start|DATE|	0.01847845
-3.5192	start|I|	0.2595935
-4.188206	start|LOCATION|	0.237948
-4.063268	start|MISC|	0.07257579
-3.82023	start|ORGANIZATION|	0.2481698
-3.966358	start|ORGANIZATION|DATE	-0.0006570615
-4.188206	start|ORGANIZATION|PERSON	0.1459903
-4.188206	start|ORGANIZATION|play	0.1423952
-3.146814	start|PERSON|	0.2409151
-4.188206	start|PERSON|DATE	0.06636001
-3.82023	start|PERSON|ORDINAL	0.1420264
-4.188206	start|PERSON|drive	0.1423498
-4.063268	start|PERSON|game	0.1422523
-3.887177	start|PERSON|inning	0.0004281652
-4.188206	start|PERSON|season	-0.0002034525
-4.188206	start|Phils|ORDINAL	0.142689
-4.188206	start|drive|	0.1423952
-3.551384	start|game|	0.2375148
-4.188206	start|ghost|	0.06630857
-3.887177	start|half|	0.1432341
-3.586146	start|he|	0.2852764
-4.063268	start|he|game	0.2499802
-3.586146	start|it|	0.1452983
-4.063268	start|offense|	0.06902356
-4.188206	start|play|	0.06622866
-4.188206	start|rookie|	0.1606342
-3.887177	start|that|	0.2652341
-3.762238	start|they|	0.2601446
-4.063268	start|thing|	0.1422717
-3.250354	start|we|	0.2684838
-4.188206	start|which|	-0.0001846686
-3.887177	start|who|	0.2377138
-3.887177	start|you|	0.2375901
-2.575423	start||	0.2837129
-3.887177	start||DATE	0.1421426
-4.063268	start||ORDINAL	0.1431601
-4.188206	start||PERSON	0.1426759
-4.188206	start||appearence	0.01276853
-3.966358	start||game	0.2377135
-3.085544	start||inning	0.249173
-4.188206	start||race	0.06630857
-4.188206	start||rally	-0.0003426648
-3.966358	start||season	0.1425793
-4.063268	state|I|	0.1426438
-3.887177	stay|I|	0.08108544
-4.188206	stay|LOCATION|	0.1434858
