
\data\
ngram 1=1062
ngram 2=15555

\1-grams:
-3.76814	!!	-0.1416035
-1.909354	</s>
-99	<s>	-0.1790549
-1.814103	<unk>	-0.01399517
-3.368855	abandon	-0.1763229
-3.662143	accelerate	-0.1962532
-3.1644	accept	-0.1574153
-3.76814	accommodate	-0.1413734
-3.76814	accompany	-0.1519046
-3.439595	accomplish	-0.1264072
-3.368855	accord	-0.139778
-3.76814	account	-0.1358385
-3.629226	accumulate	-0.1252633
-3.524141	achieve	-0.120148
-3.629226	acknowledge	-0.1474122
-3.629226	acquire	-0.1325181
-3.629226	act	-0.151742
-3.778155	adapt	-0.1450023
-2.54202	add	-0.08491191
-3.76814	addict	-0.1265648
-3.76814	address	-0.1680463
-3.76814	adjust	-0.1293543
-3.76814	admire	-0.1711434
-3.1644	admit	-0.1242206
-3.524141	advance	-0.1436691
-3.662143	advertise	-0.2012268
-3.76814	affect	-0.3693327
-3.439595	afford	-0.1461364
-3.662143	agaisnt	-0.2008075
-3.778155	aggravate	-0.1309384
-3.308041	agree	-0.1200142
-3.524141	aid	-0.1469394
-3.20721	aim	-0.1209124
-3.368855	air	-0.1386807
-2.19338	allow	-0.2362139
-3.524141	amass	-0.1277838
-3.778155	amuse	-0.1339342
-3.76814	anchor	-0.2014061
-3.524141	announce	-0.1488693
-3.76814	annoy	-0.1208411
-3.025945	answer	-0.1040827
-3.439595	anticipate	-0.1251347
-3.778155	apologize	-0.1461706
-2.750129	appear	-0.104343
-3.778155	apply	-0.1540103
-3.76814	appreciate	-0.163931
-3.76814	approach	-0.1302411
-3.439595	arent	-0.09887999
-3.368855	argue	-0.1800813
-3.308041	arrive	-0.1189994
-2.766125	ask	-0.126969
-3.629226	assist	-0.137563
-3.20721	assume	-0.1151359
-3.368855	assure	-0.1157553
-2.836745	attack	-0.2251531
-2.945053	attempt	-0.08389939
-3.76814	attend	-0.1226577
-3.778155	attribute	-0.1404993
-2.970379	average	-0.2244558
-3.056643	avoid	-0.1271626
-3.76814	await	-0.1347924
-3.439595	award	-0.1620317
-3.1644	back	-0.1537123
-3.778155	backfire	-0.1490635
-3.76814	backup	-0.1574014
-3.778155	baffle	-0.1539264
-3.76814	bail	-0.1501232
-3.439595	bang	-0.1486315
-3.308041	base	-0.09928264
-3.778155	bash	-0.1497696
-3.778155	bask	-0.1333778
-3.308041	bat	-0.1347983
-3.629226	batter	-0.1336325
-3.254706	battle	-0.1046172
-1.355133	be	0.04366374
-3.308041	bear	-0.09986252
-2.388052	beat	-0.08555093
-2.582778	become	-0.1253475
-3.524141	beg	-0.1101123
-2.561921	begin	-0.2262969
-3.76814	beij	-0.1784933
-3.76814	belie	-0.12894
-2.766125	believe	-0.1909441
-3.20721	belong	-0.2601979
-3.524141	belt	-0.1470263
-3.76814	bench	-0.1298273
-3.778155	bend	-0.1444983
-3.524141	benefit	-0.1245358
-3.778155	berth	-0.1490635
-3.025945	bet	-0.1466708
-3.524141	bind	-0.2920386
-3.778155	bite	-0.1238472
-3.125434	blame	-0.153351
-3.368855	blast	-0.1257733
-3.778155	blister	-0.168353
-3.125434	blitz	-0.09885734
-2.691456	block	-0.1371341
-3.76814	blogg	-0.2304934
-2.664847	blow	-0.1745576
-3.778155	bob	-0.1339635
-3.76814	bobble	-0.125641
-3.778155	bode	-0.1459144
-3.662143	bolster	-0.181917
-3.76814	bomb	-0.1728259
-3.439595	boo	-0.1780237
-3.629226	book	-0.1770024
-3.662143	boost	-0.1942705
-3.76814	boot	-0.1494689
-3.778155	botch	-0.152975
-3.308041	bother	-0.1675791
-3.778155	bottle	-0.1483279
-2.876888	bounce	-0.1055136
-3.778155	brace	-0.1467109
-2.454256	break	-0.1636091
-3.76814	breathe	-0.1586202
-3.778155	breed	-0.1531711
-3.778155	bridge	-0.1521899
-2.446382	bring	-0.1747619
-3.778155	broaden	-0.1461136
-3.76814	buckle	-0.1298273
-2.997274	build	-0.1361364
-3.524141	bump	-0.1249152
-3.778155	buoy	-0.181917
-3.1644	burn	-0.1313154
-3.629226	burst	-0.1867698
-3.778155	bust	-0.1346654
-2.997274	buy	-0.08947849
-3.778155	buzz	-0.132292
-3.662143	calculate	-0.1993228
-2.34274	call	-0.1926436
-3.778155	calm	-0.1355119
-3.76814	cancel	-0.1221664
-2.970379	cant	-0.1202918
-3.1644	cap	-0.1927837
-3.308041	capitalize	-0.134681
-3.778155	capture	-0.1422849
-3.524141	care	-0.2045809
-2.431048	carry	-0.2374688
-2.446382	catch	-0.153556
-2.856353	cause	-0.1484374
-3.254706	celebrate	-0.1804499
-3.76814	cement	-0.1287919
-3.308041	center	-0.1374909
-3.125434	challenge	-0.1090802
-2.705398	change	-0.1231964
-3.125434	charge	-0.1081007
-3.308041	chase	-0.2869942
-3.089678	check	-0.2051919
-3.125434	cheer	-0.2658643
-3.778155	chew	-0.1509251
-3.439595	chip	-0.1321859
-3.308041	choose	-0.1739585
-3.76814	chop	-0.1640184
-3.089678	claim	-0.1162473
-3.76814	clatter	-0.1781647
-3.76814	claw	-0.1510475
-3.439595	clean	-0.1110912
-2.817985	clear	-0.1393947
-3.308041	click	-0.1222823
-3.778155	climb	-0.1312625
-3.439595	clinch	-0.1177669
-2.817985	close	-0.2053482
-3.778155	club	-0.1419384
-2.997274	coach	-0.1148881
-3.76814	collapse	-0.1506816
-3.025945	collect	-0.1748118
-3.76814	collide	-0.1408264
-2.856353	combine	-0.161326
-1.935025	come	-0.1182964
-3.524141	comment	-0.1522011
-2.921122	commit	-0.1333087
-3.056643	compare	-0.1590765
-3.056643	compete	-0.211986
-3.524141	complain	-0.160353
-2.604687	complete	-0.1436277
-3.368855	concede	-0.1117783
-3.1644	concern	-0.1357737
-3.629226	conclude	-0.1364453
-3.76814	confirm	-0.224431
-3.778155	confront	-0.151853
-3.524141	confuse	-0.1435458
-3.629226	congratulate	-0.1456643
-2.817985	connect	-0.188973
-2.705398	consider	-0.170916
-3.76814	consist	-0.1424941
-3.439595	contain	-0.1285128
-3.524141	contend	-0.1301668
-3.76814	contest	-0.1279024
-2.470447	continue	-0.2121659
-3.524141	contribute	-0.1732179
-2.970379	control	-0.09460756
-2.876888	convert	-0.211446
-3.76814	convince	-0.1265156
-3.778155	cook	-0.1412871
-3.76814	cool	-0.1331241
-3.629226	cope	-0.1423704
-3.524141	correct	-0.1797106
-3.1644	cost	-0.1484889
-3.76814	cough	-0.1330068
-3.439595	couldnt	-0.1045638
-2.997274	count	-0.2269016
-3.629226	counter	-0.1529337
-3.629226	couple	-0.1317245
-2.856353	cover	-0.1698064
-3.308041	crack	-0.1143867
-3.778155	crank	-0.1473357
-3.76814	crash	-0.1450978
-3.778155	crawl	-0.1331432
-2.705398	create	-0.0858476
-3.76814	creep	-0.1525083
-3.662143	criticize	-0.1446026
-2.921122	cross	-0.1376655
-3.662143	crowd	-0.2001358
-3.778155	crown	-0.1329379
-3.439595	cruise	-0.1231993
-3.254706	crush	-0.1564333
-3.439595	cry	-0.145781
-3.778155	culminate	-0.2237081
-3.524141	curl	-0.2118658
-2.51378	cut	-0.1572469
-3.778155	dare	-0.1324977
-3.778155	dash	-0.146853
-3.254706	deal	-0.1324091
-3.778155	debut	-0.1421396
-3.778155	deceive	-0.1539823
-2.582778	decide	-0.2156404
-3.778155	declare	-0.1295214
-3.778155	dedicate	-0.1422831
-3.089678	defeat	-0.09161279
-2.817985	defend	-0.1437019
-3.629226	defer	-0.1434302
-3.778155	define	-0.1427136
-3.629226	deflect	-0.1578802
-3.778155	delay	-0.1443455
-2.970379	deliver	-0.2387763
-3.778155	demand	-0.1364442
-3.439595	demolish	-0.1253139
-3.76814	demonstrate	-0.1162633
-3.629226	demote	-0.1447653
-3.308041	deny	-0.111526
-3.254706	depend	-0.1960609
-3.778155	deplete	-0.1505872
-3.368855	describe	-0.1163958
-2.921122	deserve	-0.1031461
-3.778155	design	-0.1456296
-3.76814	designate	-0.1363379
-3.76814	desire	-0.1997034
-3.524141	destroy	-0.1850493
-3.778155	deteriorate	-0.1451164
-3.125434	determine	-0.1375013
-3.368855	develop	-0.1307447
-3.778155	diagnose	-0.181917
-3.76814	dictate	-0.1574014
-2.719802	didnt	-0.1502613
-3.20721	die	-0.1278663
-3.629226	dig	-0.1519763
-3.778155	diminish	-0.1411043
-3.629226	dip	-0.1552077
-3.76814	direct	-0.1323023
-3.778155	disallow	-0.1489504
-3.125434	disappoint	-0.2187883
-3.524141	discuss	-0.1401102
-3.778155	dish	-0.1490934
-3.778155	dislocate	-0.1490352
-3.629226	dismantle	-0.1464179
-3.778155	dispatch	-0.1460852
-3.524141	display	-0.1219091
-3.76814	dispute	-0.1470333
-3.778155	disqualify	-0.1459713
-3.629226	disrupt	-0.1297194
-3.308041	dive	-0.1521763
-1.745251	do	-0.1167356
-3.76814	dodge	-0.1281102
-3.76814	doesnt	-0.1580558
-2.639775	dominate	-0.1979176
-2.750129	dont	-0.144962
-3.76814	doom	-0.1277837
-2.691456	double	-0.161892
-3.439595	doubt	-0.1375931
-3.524141	down	-0.1296409
-3.308041	draft	-0.1739236
-3.778155	drag	-0.1312625
-3.778155	drain	-0.1524985
-2.817985	draw	-0.1401408
-3.778155	dream	-0.1368223
-3.778155	dress	-0.134753
-3.368855	dribble	-0.1459611
-3.76814	drift	-0.170251
-3.629226	drill	-0.1696129
-3.76814	drink	-0.1143678
-2.522991	drive	-0.136518
-2.504761	drop	-0.1492228
-3.778155	drum	-0.1346654
-3.778155	dub	-0.1334071
-2.504761	earn	-0.2949454
-3.778155	ease	-0.1419384
-3.524141	eat	-0.1204093
-3.629226	eclipse	-0.1103193
-3.629226	edge	-0.1280314
-3.778155	eject	-0.1468126
-3.524141	elect	-0.1411443
-3.368855	eliminate	-0.1364789
-3.778155	elude	-0.130791
-3.778155	email	-0.181917
-3.778155	embarass	-0.1506534
-3.778155	embark	-0.1403263
-3.439595	embarrass	-0.1121589
-3.629226	emerge	-0.1515661
-3.662143	encompass	-0.1506718
-3.662143	encounter	-0.2011989
-3.778155	encourage	-0.1265842
-2.301712	end	-0.1273629
-3.76814	endure	-0.124446
-2.945053	enjoy	-0.2408303
-3.056643	ensue	-0.1490929
-3.778155	ensure	-0.1342561
-3.025945	enter	-0.08506899
-3.76814	equal	-0.1286438
-3.76814	equalise	-0.1324491
-3.76814	equalize	-0.1419502
-3.76814	erase	-0.1287429
-3.629226	erupt	-0.1254126
-3.089678	escape	-0.2205995
-3.76814	eschew	-0.1431536
-3.76814	establish	-0.1377529
-3.76814	evaluate	-0.1268029
-3.439595	even	-0.1572136
-3.778155	evidence	-0.1265842
-3.439595	exceed	-0.1387636
-3.76814	excel	-0.1247749
-3.76814	exchange	-0.1382069
-3.308041	excite	-0.2330428
-3.778155	excuse	-0.1894458
-3.089678	execute	-0.113194
-3.778155	exist	-0.1415935
-3.76814	expand	-0.1253425
-2.438648	expect	-0.1586664
-3.439595	experience	-0.1459784
-3.629226	expire	-0.1210325
-3.254706	explain	-0.1433175
-3.368855	explode	-0.1339035
-3.524141	exploit	-0.1085635
-3.524141	expose	-0.1244739
-3.1644	extend	-0.1508199
-3.778155	extrapolate	-0.1484978
-3.778155	eye	-0.1334071
-2.416238	face	-0.1779739
-3.778155	factor	-0.181917
-3.308041	fade	-0.1247698
-2.677948	fail	-0.1655618
-3.308041	fake	-0.1395923
-2.551857	fall	-0.1090582
-3.778155	falter	-0.15039
-3.524141	fare	-0.1457211
-3.524141	favor	-0.1557219
-3.368855	fear	-0.1304095
-3.254706	feature	-0.1410783
-3.524141	feed	-0.1114398
-2.495925	feel	-0.207678
-3.254706	field	-0.1186161
-2.898442	fight	-0.2086655
-2.921122	figure	-0.2266116
-3.778155	file	-0.1304474
-3.089678	fill	-0.1762881
-2.296155	find	-0.1004498
-2.355211	finish	-0.1211716
-3.056643	fire	-0.1669623
-3.308041	fit	-0.1260207
-3.439595	fix	-0.1097007
-3.778155	fizzle	-0.1331828
-3.629226	flag	-0.1343934
-3.778155	flail	-0.1471938
-3.76814	flash	-0.1304871
-3.778155	flex	-0.1306436
-3.524141	flick	-0.2406498
-3.368855	flip	-0.1638503
-3.524141	float	-0.1264068
-3.778155	flush	-0.1446312
-3.778155	fluster	-0.197664
-2.856353	fly	-0.1768908
-3.20721	focus	-0.3007892
-2.394928	follow	-0.1703096
-3.629226	fool	-0.1305756
-3.778155	foot	-0.1347548
-2.401916	force	-0.1221332
-2.766125	forget	-0.201989
-3.76814	forgive	-0.1325079
-3.778155	form	-0.1202374
-3.308041	foul	-0.1601621
-3.778155	fracture	-0.142771
-3.778155	freak	-0.1404128
-3.778155	free	-0.1783798
-3.524141	frustrate	-0.13757
-3.778155	fry	-0.1748196
-3.629226	fuck	-0.1476505
-2.750129	fumble	-0.1086629
-2.705398	gain	-0.09641176
-3.662143	gang-tackle	-0.1983677
-3.778155	garner	-0.1513752
-3.76814	gather	-0.2322357
-3.308041	generate	-0.1098662
-1.817758	get	-0.07882607
-1.942298	give	-0.132816
-3.778155	glance	-0.1492896
-3.76814	glue	-0.1232777
-1.780835	go	-0.1646444
-3.524141	gon	-0.1313022
-3.025945	grab	-0.1098908
-3.368855	grant	-0.1187444
-3.778155	greet	-0.1845199
-3.629226	grind	-0.1233481
-3.056643	ground	-0.1172228
-3.089678	grow	-0.1427353
-3.778155	grumble	-0.1345485
-3.524141	guarantee	-0.1507447
-3.056643	guess	-0.1038274
-3.76814	guide	-0.1391811
-3.778155	gun	-0.1341976
-3.778155	hadnt	-0.1393446
-3.778155	hail	-0.1527228
-3.778155	hammer	-0.1478746
-3.778155	hamper	-0.1435733
-3.056643	hand	-0.1676408
-2.921122	handle	-0.1427759
-2.898442	hang	-0.2083884
-2.42358	happen	-0.1917917
-3.76814	harass	-0.1790884
-3.524141	hasnt	-0.1261983
-3.20721	hate	-0.2180433
-3.524141	haunt	-0.1258406
-1.561795	have	-0.03060353
-3.629226	havent	-0.1289799
-3.125434	he	-0.1132474
-2.627761	head	-0.072705
-3.629226	heal	-0.1232881
-2.836745	hear	-0.1739366
-3.778155	heat	-0.1540679
-3.629226	hed	-0.1254424
-2.51378	help	-0.1454588
-3.778155	here	-0.1458574
-3.778155	hesitate	-0.1497414
-3.778155	hide	-0.1452875
-3.125434	highlight	-0.1162768
-3.662143	hinder	-0.181917
-2.053085	hit	-0.1947138
-3.778155	hoist	-0.1291961
-2.296155	hold	-0.118836
-3.778155	homecome	-0.1230976
-3.1644	homer	-0.1123153
-3.629226	honor	-0.1445654
-3.368855	hook	-0.1223929
-3.778155	hop	-0.133905
-2.705398	hope	-0.1930885
-3.629226	host	-0.1409057
-3.76814	house	-0.1759906
-3.778155	hug	-0.1764009
-3.629226	hurl	-0.1314891
-2.921122	hurt	-0.2638658
-3.778155	hype	-0.1347238
-3.778155	ignite	-0.1808971
-3.76814	illustrate	-0.1284363
-3.254706	imagine	-0.1976865
-3.778155	impose	-0.146455
-2.945053	impress	-0.1052296
-2.856353	improve	-0.13179
-3.778155	inch	-0.1265842
-3.662143	incite	-0.1942705
-2.470447	include	-0.1081549
-3.368855	increase	-0.1472329
-3.778155	incur	-0.1421683
-3.629226	indicate	-0.1266942
-3.778155	influence	-0.1263564
-3.778155	inform	-0.1331139
-3.629226	inherit	-0.1356881
-3.778155	initiate	-0.2004256
-3.778155	inject	-0.1306436
-2.898442	injure	-0.1592411
-3.76814	insert	-0.1323316
-3.778155	insist	-0.1523302
-3.629226	inspire	-0.1137563
-3.778155	install	-0.181917
-3.76814	instruct	-0.2185296
-3.524141	intend	-0.1288716
-3.056643	intercept	-0.2269821
-3.778155	interfere	-0.1490352
-3.76814	interview	-0.1995081
-2.997274	involve	-0.1039343
-3.308041	isnt	-0.1115629
-3.629226	issue	-0.1146539
-3.778155	jack	-0.1454685
-3.778155	jettison	-0.1344023
-3.778155	jog	-0.1471654
-3.056643	join	-0.2172322
-3.778155	joke	-0.1535021
-3.254706	judge	-0.1359054
-3.778155	juke	-0.144831
-2.766125	jump	-0.1085694
-3.778155	justify	-0.1486127
-2.254086	keep	-0.1136406
-2.551857	kick	-0.08007355
-3.662143	kickoff	-0.1996314
-3.308041	kill	-0.1311468
-3.778155	kiss	-0.1465403
-2.800001	knock	-0.1769593
-3.778155	knot	-0.1454016
-2.163897	know	-0.1619484
-3.629226	lace	-0.1543548
-3.056643	lack	-0.1881811
-3.629226	land	-0.1554427
-3.1644	last	-0.1360368
-3.76814	latch	-0.1540217
-3.629226	laugh	-0.1517144
-3.439595	launch	-0.1436546
-3.089678	lay	-0.07704826
-2.244177	lead	-0.1259385
-3.778155	lean	-0.1369386
-3.308041	leap	-0.129583
-2.997274	learn	-0.1532247
-2.244177	leave	-0.0933907
-2.388052	let	-0.1320981
-3.524141	lie	-0.2562157
-3.439595	lift	-0.1338104
-3.439595	light	-0.1279333
-2.551857	like	-0.09278984
-3.1644	limit	-0.1153978
-3.778155	limp	-0.1278031
-3.125434	line	-0.2121124
-3.629226	link	-0.1585151
-3.629226	list	-0.1613329
-3.368855	listen	-0.2185628
-3.089678	live	-0.2057437
-3.089678	load	-0.1225028
-3.524141	lock	-0.169466
-3.524141	loft	-0.1427317
-1.962309	look	-0.1402215
-3.778155	loom	-0.1603386
-2.172118	lose	-0.1621444
-2.705398	love	-0.1964701
-3.368855	lower	-0.1320805
-3.778155	lunge	-0.181917
-3.76814	lurk	-0.2901484
-3.439595	maintain	-0.1239909
-1.918515	make	-0.1327953
-3.778155	man	-0.143201
-2.431048	manage	-0.200503
-3.662143	manhandle	-0.1344608
-3.308041	march	-0.1427087
-3.629226	mark	-0.1487266
-3.778155	marshal	-0.1442598
-3.778155	marvel	-0.1421108
-2.997274	match	-0.2114774
-3.1644	matter	-0.1114333
-3.524141	mature	-0.1129477
-2.561921	mean	-0.1017361
-3.76814	measure	-0.1251634
-3.056643	meet	-0.353343
-2.782733	mention	-0.4830804
-3.778155	mess	-0.1272387
-3.308041	mind	-0.1134799
-3.778155	misfire	-0.1489787
-3.778155	mishandle	-0.147988
-3.778155	misjudge	-0.1525826
-3.778155	misread	-0.1342561
-2.446382	miss	-0.1707987
-3.368855	mix	-0.1009157
-3.778155	mount	-0.16646
-2.355211	move	-0.1036918
-3.778155	muff	-0.1441168
-3.76814	muster	-0.1481395
-3.778155	mystify	-0.1331726
-3.368855	nail	-0.1223828
-3.125434	name	-0.1705861
-3.778155	navigate	-0.1617556
-3.778155	near	-0.1306731
-2.229724	need	-0.1411018
-3.629226	negate	-0.1728905
-3.439595	net	-0.2401079
-3.662143	nip	-0.1490069
-3.76814	nod	-0.332083
-3.524141	notch	-0.142264
-3.1644	note	-0.1134706
-3.368855	notice	-0.1490668
-3.778155	nullify	-0.1518628
-3.778155	obliterate	-0.1338757
-3.662143	obsess	-0.1519389
-3.778155	obstruct	-0.1438022
-3.439595	occur	-0.1270728
-3.76814	offer	-0.1318716
-2.504761	open	-0.06974353
-3.524141	operate	-0.1498603
-3.629226	oppose	-0.1719222
-3.439595	opt	-0.1085028
-3.778155	organize	-0.1469666
-3.76814	out-touch	-0.1510475
-3.76814	outclass	-0.1483375
-3.778155	outdo	-0.1580558
-3.778155	outgain	-0.1345192
-3.76814	outmuscle	-0.1397591
-3.76814	outnumber	-0.1460481
-3.778155	outpitch	-0.1410179
-3.629226	outplay	-0.1543943
-3.778155	outrun	-0.1604273
-3.524141	outscore	-0.1293766
-3.778155	outshoot	-0.148809
-3.089678	overcome	-0.102358
-3.662143	overlap	-0.1341976
-3.778155	overtake	-0.1465972
-3.629226	overthrow	-0.1389274
-3.76814	overturn	-0.1382025
-3.662143	overwhelm	-0.153339
-3.089678	own	-0.08289813
-3.778155	pace	-0.1291961
-3.439595	pack	-0.12736
-3.778155	paddle	-0.1470234
-3.778155	pancake	-0.1298466
-3.778155	panic	-0.1614209
-3.76814	parry	-0.1345586
-3.778155	participate	-0.1530031
-3.778155	partner	-0.1273382
-2.290668	pass	-0.2584904
-3.662143	pave	-0.181917
-2.945053	pay	-0.08118837
-3.662143	paydirt	-0.197664
-3.125434	perform	-0.1247851
-3.778155	permit	-0.122186
-2.361583	pick	-0.1094612
-3.524141	pile	-0.1258108
-3.524141	pin	-0.1259404
-3.778155	ping	-0.1836801
-3.778155	pinpoint	-0.1443169
-3.778155	piss	-0.1455726
-3.778155	pit	-0.1806694
-2.318823	pitch	-0.4028117
-3.308041	place	-0.1457273
-3.76814	plague	-0.1477144
-3.368855	plan	-0.141094
-3.778155	plant	-0.1372292
-3.778155	plaster	-0.1435733
-3.308041	plate	-0.1540626
-1.89817	play	-0.1397422
-3.778155	playmake	-0.1486958
-3.056643	please	-0.1003451
-3.778155	plow	-0.1372292
-3.308041	point	-0.1186458
-3.524141	poise	-0.1980354
-3.76814	ponder	-0.1471469
-3.20721	pop	-0.09528093
-3.439595	pose	-0.1308614
-3.778155	possess	-0.1224774
-3.089678	post	-0.1832397
-3.778155	postpone	-0.1404805
-3.76814	pounce	-0.1426375
-3.056643	pound	-0.1217208
-3.778155	pout	-0.1322039
-3.368855	power	-0.139969
-3.308041	practice	-0.1119956
-3.76814	praise	-0.170464
-3.76814	pray	-0.1371521
-3.778155	precede	-0.153339
-3.056643	predict	-0.1251966
-3.778155	prefer	-0.1342853
-3.025945	prepare	-0.1781933
-3.439595	present	-0.1420855
-3.778155	preserve	-0.1403551
-3.368855	press	-0.1098459
-3.439595	pressure	-0.1404582
-3.778155	pretend	-0.1342561
-3.125434	prevent	-0.1241916
-3.778155	pride	-0.1398068
-3.778155	proceed	-0.1466825
-3.025945	produce	-0.09404785
-3.629226	progress	-0.1600285
-3.76814	project	-0.1189668
-3.439595	promote	-0.131205
-3.778155	prompt	-0.1342561
-3.629226	propel	-0.1278534
-3.439595	protect	-0.1232567
-2.836745	prove	-0.1436296
-3.089678	provide	-0.0979224
-3.76814	ptich	-0.1526258
-3.662143	publicize	-0.2012827
-3.778155	publish	-0.1500517
-2.639775	pull	-0.1708735
-3.778155	pummel	-0.1297284
-3.254706	pump	-0.1186737
-3.20721	punch	-0.1452409
-3.629226	punish	-0.1269025
-2.817985	punt	-0.1257026
-3.778155	pursue	-0.1502209
-2.782733	push	-0.08798422
-2.106747	put	-0.05886012
-3.125434	qualify	-0.212297
-3.778155	question	-0.1596283
-3.662143	queue	-0.1936454
-3.20721	quit	-0.1068281
-3.368855	race	-0.1106282
-3.439595	rack	-0.1384109
-3.76814	rain	-0.129088
-3.254706	raise	-0.1924758
-3.20721	rally	-0.1527059
-3.056643	rank	-0.1350994
-3.439595	rattle	-0.1384008
-3.778155	re-evaluate	-0.1437164
-3.662143	re-open	-0.197664
-3.662143	re-take	-0.1962532
-2.836745	reach	-0.1707366
-3.439595	react	-0.125384
-2.766125	read	-0.1484902
-3.662143	realise	-0.1508407
-3.056643	realize	-0.08772865
-3.629226	rebound	-0.1525109
-3.254706	recall	-0.1427672
-3.778155	recapture	-0.1487241
-2.876888	receive	-0.1223461
-3.778155	reckon	-0.1525546
-2.945053	record	-0.1151477
-2.65213	recover	-0.1467911
-3.76814	recruit	-0.1391811
-3.629226	redeem	-0.1209249
-3.778155	reduce	-0.1538426
-3.778155	reel	-0.1334071
-3.368855	refer	-0.1100101
-3.524141	reflect	-0.188043
-3.778155	refocus	-0.146853
-3.368855	regain	-0.1268442
-3.524141	regard	-0.1452779
-3.778155	register	-0.1278624
-3.629226	regret	-0.1566156
-3.778155	reign	-0.1436691
-3.778155	rejoin	-0.130791
-3.662143	rekindle	-0.181917
-3.439595	relax	-0.1793212
-3.76814	relay	-0.141546
-3.524141	release	-0.1465055
-3.439595	relieve	-0.1389108
-3.662143	relish	-0.2759253
-3.368855	rely	-0.1609999
-2.604687	remain	-0.1071997
-2.766125	remember	-0.2314946
-3.056643	remind	-0.1817701
-3.76814	remove	-0.1580824
-3.778155	render	-0.1346361
-3.778155	renew	-0.1490635
-3.778155	repay	-0.1479313
-3.629226	repeat	-0.1054711
-2.750129	replace	-0.3691685
-3.778155	replay	-0.1288112
-3.76814	reply	-0.1305359
-3.524141	report	-0.2016765
-3.76814	represent	-0.1212134
-3.439595	require	-0.1263594
-3.629226	research	-0.1497045
-3.778155	resemble	-0.1487241
-3.76814	resign	-0.1402021
-3.778155	respect	-0.1366769
-3.089678	respond	-0.1699829
-3.125434	rest	-0.09145193
-3.76814	restart	-0.1333293
-3.778155	restore	-0.1431437
-2.750129	result	-0.1203558
-3.524141	resume	-0.1170227
-3.662143	resurface	-0.2005278
-3.254706	retire	-0.103064
-3.778155	retreat	-0.1501927
-3.778155	retun	-0.1511221
-2.454256	return	-0.1301075
-3.778155	reverberate	-0.1894458
-3.76814	reverse	-0.1517223
-3.254706	review	-0.1298965
-3.439595	reward	-0.1201781
-3.629226	ride	-0.1542851
-3.662143	ring	-0.1453445
-3.056643	rip	-0.10251
-3.368855	rise	-0.1229911
-3.524141	risk	-0.142286
-3.629226	roar	-0.1454214
-3.76814	rob	-0.1458389
-3.76814	rock	-0.119905
-2.836745	roll	-0.1232483
-3.76814	root	-0.2330602
-3.76814	rotate	-0.151385
-3.629226	rough	-0.1308871
-3.524141	round	-0.1256526
-3.778155	ruin	-0.1530031
-3.308041	rule	-0.1209059
-2.053085	run	-0.07773772
-2.495925	rush	-0.1899194
-2.876888	sack	-0.1391117
-3.778155	sail	-0.2759253
-3.778155	sandwich	-0.1535909
-3.76814	satisfy	-0.173129
-2.361583	save	-0.1892242
-2.140127	say	-0.1912048
-3.308041	scamper	-0.1714091
-3.778155	scare	-0.145772
-3.76814	scatter	-0.1347632
-3.20721	schedule	-0.1300067
-3.778155	school	-0.1278031
-3.778155	scoop	-0.1293144
-1.991422	score	-0.1377792
-3.254706	scramble	-0.1470107
-3.76814	scranton/wilkes	-0.3331787
-3.76814	scratch	-0.1509349
-3.524141	scream	-0.1503553
-3.308041	seal	-0.1484183
-3.368855	secure	-0.1710344
-2.037589	see	-0.1452508
-3.524141	seek	-0.1036328
-2.32468	seem	-0.1050715
-3.778155	seize	-0.1335536
-3.76814	select	-0.131979
-3.368855	sell	-0.1187887
-2.582778	send	-0.170158
-3.629226	sense	-0.129808
-3.778155	separate	-0.1330948
-2.876888	serve	-0.1069376
-2.409018	set	-0.09823312
-3.778155	set-up	-0.1377808
-2.677948	settle	-0.09893975
-3.778155	sextuple	-0.1421108
-3.20721	shake	-0.2418263
-3.662143	shape	-0.1524424
-3.439595	share	-0.126599
-3.629226	shatter	-0.1624205
-3.524141	shave	-0.2783571
-3.524141	she	-0.1666949
-3.778155	shed	-0.1344315
-3.76814	shift	-0.1596283
-3.089678	shine	-0.0965324
-3.778155	ship	-0.1492613
-3.368855	shock	-0.1096388
-2.970379	shoot	-0.1825739
-3.524141	short	-0.134205
-3.76814	shorten	-0.1230076
-3.778155	shot	-0.1404993
-3.524141	shout	-0.122638
-3.629226	shove	-0.1331343
-2.239305	show	-0.142674
-3.76814	shred	-0.1293839
-2.945053	shut	-0.1435969
-3.662143	sideline	-0.1477329
-3.025945	sign	-0.1281949
-3.76814	signal	-0.1329188
-3.778155	silence	-0.1999117
-3.778155	sing	-0.1347238
-2.898442	single	-0.1328756
-3.368855	sink	-0.1051488
-2.734701	sit	-0.1198744
-3.308041	skip	-0.1107939
-3.524141	slam	-0.1932595
-3.439595	sleep	-0.1470288
-3.629226	slice	-0.1486121
-3.089678	slide	-0.1116902
-3.056643	slip	-0.1418152
-3.629226	slot	-0.1457633
-3.089678	slow	-0.1492505
-3.524141	slug	-0.1381189
-3.778155	slump	-0.153003
-3.629226	smack	-0.1331737
-3.778155	smart	-0.1366769
-3.125434	smash	-0.135532
-3.629226	smell	-0.2330013
-3.778155	smile	-0.1309384
-3.089678	snap	-0.08620163
-3.629226	snatch	-0.2588405
-3.629226	sneak	-0.1427909
-3.778155	snuff	-0.1475343
-3.778155	soften	-0.1337
-3.778155	solve	-0.1391711
-3.629226	sort	-0.1236479
-3.368855	sound	-0.08766618
-3.368855	spark	-0.1839664
-3.089678	speak	-0.1214006
-3.778155	spearhead	-0.1653071
-3.778155	specialise	-0.1329673
-3.778155	speed	-0.1419672
-3.056643	spend	-0.09391624
-3.524141	spike	-0.1349587
-3.76814	spin	-0.1505391
-3.254706	split	-0.130771
-3.629226	spoil	-0.228536
-3.662143	spoon	-0.197072
-3.439595	sport	-0.1741045
-3.778155	spot	-0.1460852
-3.76814	sprain	-0.1412295
-3.20721	spread	-0.1262586
-3.308041	sprint	-0.1773915
-3.524141	sputter	-0.1336684
-3.778155	squander	-0.1414784
-3.524141	square	-0.1409903
-3.308041	stack	-0.1428721
-2.945053	stall	-0.09319699
-3.778155	stamp	-0.1298466
-2.705398	stand	-0.1593344
-3.662143	stare	-0.1981145
-2.040644	start	-0.2005776
-3.089678	state	-0.1126097
-2.677948	stay	-0.1680839
-2.766125	steal	-0.09213841
-2.876888	step	-0.1887375
-3.20721	stick	-0.1991533
-3.76814	stiffen	-0.1285845
-3.778155	stifle	-0.1475343
-2.446382	stop	-0.1037411
-3.76814	storm	-0.1609886
-3.778155	straighten	-0.1332898
-3.662143	strain	-0.1473357
-2.997274	strand	-0.1342518
-3.778155	streak	-0.1517504
-3.76814	strengthen	-0.1414597
-3.308041	stretch	-0.1104536
-2.487265	strike	-0.2097685
-3.778155	string	-0.130791
-3.368855	strip	-0.124021
-3.778155	stroll	-0.1524441
-2.561921	struggle	-0.1662697
-3.308041	stuff	-0.1382181
-3.629226	stumble	-0.1373075
-3.662143	stutter	-0.199435
-3.778155	stymie	-0.1461706
-3.629226	sub	-0.1362988
-3.778155	subdue	-0.1342561
-3.524141	substitute	-0.1403734
-3.439595	succeed	-0.1241574
-3.125434	suck	-0.1094329
-3.025945	suffer	-0.1211953
-3.524141	suggest	-0.1151139
-3.76814	suit	-0.1493277
-3.662143	sulk	-0.1942705
-3.629226	sum	-0.1140415
-3.439595	support	-0.1558169
-3.125434	suppose	-0.07146632
-3.76814	surge	-0.1511341
-3.439595	surpass	-0.1456275
-2.970379	surprise	-0.1428188
-3.125434	surrender	-0.1094537
-3.524141	survive	-0.1375616
-3.368855	suspend	-0.1779936
-3.524141	sustain	-0.135589
-3.778155	swallow	-0.2904593
-3.662143	swarm	-0.1894458
-3.778155	swear	-0.1466256
-3.089678	sweep	-0.1178765
-2.677948	swim	-0.1429054
-3.20721	swing	-0.1421087
-3.439595	switch	-0.136687
-3.439595	tack	-0.1247608
-2.401916	tackle	-0.1962433
-3.524141	tag	-0.2010151
-1.952188	take	-0.1220602
-2.856353	talk	-0.1474662
-3.778155	tally	-0.1461421
-3.439595	tap	-0.1230989
-3.254706	teach	-0.09823439
-3.778155	team	-0.1813199
-3.089678	tear	-0.1231543
-3.76814	tee	-0.1468629
-2.431048	tell	-0.1377992
-3.778155	tempt	-0.1477045
-3.439595	tend	-0.1611822
-3.368855	test	-0.1113881
-3.778155	text	-0.1464266
-3.1644	thank	-0.1301032
-2.782733	that	-0.06119759
-3.308041	there	-0.1262567
-3.662143	theyll	-0.1948663
-2.069153	think	-0.1641511
-3.439595	threaten	-0.1307833
-2.121267	throw	-0.1441979
-3.629226	thump	-0.1463895
-2.381282	tie	-0.01978683
-3.778155	tighten	-0.1305949
-3.629226	time	-0.1390194
-3.254706	tip	-0.1121602
-3.368855	tire	-0.1245471
-3.778155	tolerate	-0.1513752
-3.368855	top	-0.1356525
-2.997274	toss	-0.09078205
-3.524141	total	-0.1376231
-2.898442	touch	-0.1510026
-3.778155	tout	-0.1320378
-3.524141	track	-0.1287532
-3.254706	trade	-0.1403446
-2.876888	trail	-0.1695016
-3.524141	train	-0.1509502
-3.76814	trample	-0.1221062
-3.662143	translate	-0.181917
-3.1644	travel	-0.1935393
-3.76814	treat	-0.1468807
-3.662143	trickle	-0.1422544
-3.629226	trip	-0.1620774
-3.778155	triple	-0.1520496
-3.76814	trouble	-0.1300046
-3.778155	trounce	-0.1801632
-3.629226	trust	-0.1188468
-2.34274	try	-0.1199692
-3.662143	tumble	-0.1948663
-3.439595	tune	-0.1404089
-2.381282	turn	-0.1234229
-3.662143	tweak	-0.1527525
-3.778155	undergo	-0.1332898
-2.898442	understand	-0.19092
-3.662143	understimate	-0.1474492
-3.778155	unpick	-0.1397202
-3.778155	unravel	-0.1466256
-3.76814	untouch	-0.1255813
-3.778155	upcome	-0.1506436
-3.254706	update	-0.1489022
-3.524141	upset	-0.1284272
-2.551857	use	-0.07811728
-3.76814	utilize	-0.1467875
-3.76814	vanish	-0.1424941
-3.76814	victimize	-0.1243263
-3.254706	visit	-0.1963136
-3.778155	voice	-0.1436878
-3.76814	volley	-0.1609886
-3.629226	vote	-0.1265156
-2.719802	wait	-0.1405298
-3.778155	waive	-0.1346361
-2.627761	wake	-0.09913635
-3.662143	walekd	-0.1894458
-2.313044	walk	-0.2175896
-3.76814	waltz	-0.146152
-3.778155	wan	-0.2952351
-2.381282	want	-0.2248747
-3.778155	warm	-0.1494873
-3.76814	warrant	-0.1680318
-3.76814	wash	-0.2102437
-2.677948	wasnt	-0.1271362
-3.025945	waste	-0.1674926
-2.438648	watch	-0.1794366
-3.439595	wave	-0.134681
-3.1644	wear	-0.1547679
-3.76814	weave	-0.1498868
-3.439595	wed	-0.1711008
-3.778155	weigh	-0.1475627
-3.368855	welcome	-0.1395813
-3.308041	werent	-0.1585312
-3.76814	weve	-0.1418622
-3.778155	whack	-0.1604273
-3.778155	whiff	-0.1343438
-3.778155	whip	-0.1459144
-3.056643	whistle	-0.1698496
-3.778155	wilt	-0.1404128
-1.880852	win	-0.1315394
-3.439595	wind	-0.118483
-3.089678	wish	-0.1516349
-3.76814	witness	-0.140567
-2.997274	wonder	-0.1278436
-3.368855	wont	-0.239163
-2.381282	work	-0.1315309
-3.1644	worry	-0.2436005
-3.629226	wouldnt	-0.1497892
-3.76814	wouldve	-0.1271301
-3.778155	wrangle	-0.146455
-3.439595	wrap	-0.1695687
-3.778155	wreck	-0.1542914
-2.898442	write	-0.1294553
-3.524141	yell	-0.1338432
-3.629226	yield	-0.1149292
-3.778155	youre	-0.1477062
-3.76814	zip	-0.1314494

\2-grams:
-1.001085	!! </s>
-1.001085	!! make
-1.001085	!! seem
-2.03785	<s> <unk>
-2.906001	<s> admit
-3.300665	<s> aim
-2.606178	<s> allow
-3.300665	<s> apologize
-3.300665	<s> appear
-3.300665	<s> attribute
-0.7494295	<s> be
-3.300665	<s> bear
-2.235011	<s> beat
-2.606178	<s> become
-2.382093	<s> begin
-3.300665	<s> beij
-3.300665	<s> believe
-3.300665	<s> bet
-2.906001	<s> break
-3.300665	<s> bring
-3.300665	<s> care
-3.300665	<s> carry
-3.300665	<s> celebrate
-3.300665	<s> change
-3.300665	<s> check
-3.300665	<s> coach
-3.300665	<s> combine
-1.756303	<s> come
-3.300665	<s> comment
-3.300665	<s> complain
-3.300665	<s> complete
-2.906001	<s> continue
-3.300665	<s> control
-3.300665	<s> crawl
-3.300665	<s> create
-2.906001	<s> cruise
-3.300665	<s> cut
-3.300665	<s> dedicate
-3.300665	<s> defeat
-3.300665	<s> deplete
-2.906001	<s> didnt
-1.84826	<s> do
-2.906001	<s> dominate
-2.906001	<s> dont
-3.300665	<s> double
-2.906001	<s> drive
-3.300665	<s> drop
-2.906001	<s> earn
-2.906001	<s> end
-3.300665	<s> enjoy
-3.300665	<s> enter
-3.300665	<s> erupt
-3.300665	<s> even
-3.300665	<s> expect
-3.300665	<s> experience
-3.300665	<s> explode
-3.300665	<s> face
-2.382093	<s> fall
-3.300665	<s> feature
-2.906001	<s> feel
-3.300665	<s> field
-2.906001	<s> fight
-2.906001	<s> file
-3.300665	<s> find
-2.606178	<s> finish
-3.300665	<s> fire
-3.300665	<s> forget
-3.300665	<s> gain
-1.84826	<s> get
-2.606178	<s> give
-1.465352	<s> go
-3.300665	<s> grow
-3.300665	<s> guide
-3.300665	<s> hang
-2.906001	<s> happen
-1.065055	<s> have
-3.300665	<s> head
-3.300665	<s> help
-3.300665	<s> hit
-3.300665	<s> homecome
-3.300665	<s> hope
-2.906001	<s> host
-2.382093	<s> improve
-3.300665	<s> injure
-3.300665	<s> keep
-2.906001	<s> kick
-2.382093	<s> know
-3.300665	<s> lead
-2.382093	<s> leave
-3.300665	<s> let
-3.300665	<s> lift
-3.300665	<s> like
-3.300665	<s> lock
-1.902748	<s> look
-1.902748	<s> lose
-3.300665	<s> love
-1.902748	<s> make
-3.300665	<s> mean
-3.300665	<s> mention
-2.906001	<s> miss
-2.906001	<s> move
-2.906001	<s> need
-3.300665	<s> note
-2.382093	<s> open
-3.300665	<s> outgain
-3.300665	<s> pass
-2.906001	<s> pick
-2.906001	<s> pitch
-1.756303	<s> play
-3.300665	<s> please
-2.606178	<s> post
-3.300665	<s> prepare
-3.300665	<s> prompt
-3.300665	<s> propel
-3.300665	<s> provide
-3.300665	<s> publish
-2.606178	<s> put
-3.300665	<s> quit
-3.300665	<s> rank
-2.906001	<s> react
-3.300665	<s> read
-3.300665	<s> realize
-3.300665	<s> refer
-3.300665	<s> remember
-3.300665	<s> resign
-2.906001	<s> return
-2.906001	<s> rip
-2.03785	<s> run
-3.300665	<s> rush
-2.235011	<s> say
-1.84826	<s> score
-2.235011	<s> see
-2.906001	<s> set
-3.300665	<s> shatter
-2.606178	<s> show
-3.300665	<s> shut
-3.300665	<s> sit
-3.300665	<s> sleep
-3.300665	<s> snap
-3.300665	<s> spark
-3.300665	<s> sprain
-1.487092	<s> start
-3.300665	<s> stay
-2.906001	<s> struggle
-3.300665	<s> suppose
-3.300665	<s> surpass
-3.300665	<s> surprise
-3.300665	<s> survive
-3.300665	<s> sweep
-1.680456	<s> take
-3.300665	<s> tally
-3.300665	<s> team
-3.300665	<s> tell
-3.300665	<s> thank
-3.300665	<s> that
-2.235011	<s> think
-2.235011	<s> throw
-3.300665	<s> tie
-2.906001	<s> travel
-2.235011	<s> try
-2.906001	<s> turn
-3.300665	<s> upset
-3.300665	<s> wake
-2.235011	<s> want
-3.300665	<s> wasnt
-2.606178	<s> watch
-3.300665	<s> welcome
-3.300665	<s> weve
-2.906001	<s> whistle
-1.214636	<s> win
-3.300665	<s> wont
-2.906001	<s> wrap
-3.300665	<s> yell
-3.300665	<s> yield
-1.929494	<unk> </s>
-1.668139	<unk> <unk>
-3.381899	<unk> act
-2.987235	<unk> add
-3.381899	<unk> aim
-2.206571	<unk> allow
-3.381899	<unk> announce
-2.687412	<unk> appear
-3.381899	<unk> appreciate
-3.381899	<unk> arent
-3.381899	<unk> arrive
-2.987235	<unk> ask
-3.381899	<unk> assume
-2.987235	<unk> attempt
-2.987235	<unk> attend
-3.381899	<unk> await
-3.381899	<unk> base
-0.7134206	<unk> be
-2.987235	<unk> beat
-3.381899	<unk> become
-2.987235	<unk> begin
-3.381899	<unk> believe
-2.987235	<unk> bite
-3.381899	<unk> blame
-3.381899	<unk> block
-3.381899	<unk> boo
-3.381899	<unk> bounce
-2.987235	<unk> break
-2.987235	<unk> bring
-2.987235	<unk> build
-2.316245	<unk> call
-3.381899	<unk> carry
-3.381899	<unk> catch
-3.381899	<unk> celebrate
-3.381899	<unk> challenge
-3.381899	<unk> charge
-2.987235	<unk> choose
-3.381899	<unk> clean
-3.381899	<unk> clear
-2.987235	<unk> close
-2.687412	<unk> coach
-2.987235	<unk> collect
-1.881086	<unk> come
-3.381899	<unk> commit
-3.381899	<unk> compare
-3.381899	<unk> compete
-3.381899	<unk> complete
-3.381899	<unk> concern
-2.987235	<unk> consider
-3.381899	<unk> continue
-3.381899	<unk> convert
-3.381899	<unk> cover
-3.381899	<unk> create
-2.987235	<unk> cross
-2.987235	<unk> cut
-3.381899	<unk> decide
-3.381899	<unk> defeat
-2.987235	<unk> defend
-3.381899	<unk> delay
-3.381899	<unk> deny
-3.381899	<unk> deserve
-3.381899	<unk> develop
-3.381899	<unk> didnt
-3.381899	<unk> dig
-3.381899	<unk> dispatch
-1.76169	<unk> do
-3.381899	<unk> dominate
-3.381899	<unk> dont
-3.381899	<unk> drive
-3.381899	<unk> drop
-3.381899	<unk> earn
-2.987235	<unk> emerge
-2.987235	<unk> end
-3.381899	<unk> endure
-3.381899	<unk> enter
-2.987235	<unk> expect
-3.381899	<unk> explode
-3.381899	<unk> face
-2.987235	<unk> fall
-2.687412	<unk> feel
-3.381899	<unk> fill
-2.206571	<unk> find
-2.206571	<unk> finish
-3.381899	<unk> fit
-3.381899	<unk> follow
-2.316245	<unk> force
-2.987235	<unk> forget
-3.381899	<unk> foul
-3.381899	<unk> gain
-1.487221	<unk> get
-2.0463	<unk> give
-3.381899	<unk> glance
-3.381899	<unk> glue
-1.546586	<unk> go
-3.381899	<unk> hang
-3.381899	<unk> happen
-1.219637	<unk> have
-3.381899	<unk> heal
-2.987235	<unk> hear
-3.381899	<unk> help
-2.206571	<unk> hit
-2.687412	<unk> hold
-2.987235	<unk> hope
-3.381899	<unk> improve
-3.381899	<unk> include
-3.381899	<unk> increase
-3.381899	<unk> inject
-3.381899	<unk> intercept
-3.381899	<unk> jump
-2.463327	<unk> keep
-3.381899	<unk> kick
-3.381899	<unk> kill
-3.381899	<unk> knock
-2.316245	<unk> know
-3.381899	<unk> lay
-3.381899	<unk> lead
-2.316245	<unk> leave
-2.687412	<unk> let
-2.987235	<unk> like
-3.381899	<unk> live
-2.316245	<unk> look
-2.987235	<unk> lose
-3.381899	<unk> lurk
-1.76169	<unk> make
-2.463327	<unk> manage
-3.381899	<unk> mark
-3.381899	<unk> matter
-3.381899	<unk> mean
-3.381899	<unk> meet
-2.687412	<unk> miss
-2.463327	<unk> move
-2.687412	<unk> need
-3.381899	<unk> net
-3.381899	<unk> opt
-3.381899	<unk> own
-2.463327	<unk> pass
-2.687412	<unk> pay
-2.987235	<unk> pick
-3.381899	<unk> plague
-1.881086	<unk> play
-3.381899	<unk> please
-3.381899	<unk> power
-3.381899	<unk> produce
-3.381899	<unk> protect
-2.987235	<unk> pull
-3.381899	<unk> punch
-2.119084	<unk> put
-3.381899	<unk> raise
-2.987235	<unk> read
-3.381899	<unk> realize
-3.381899	<unk> receive
-3.381899	<unk> recover
-3.381899	<unk> recruit
-3.381899	<unk> release
-2.987235	<unk> remember
-3.381899	<unk> return
-2.687412	<unk> run
-3.381899	<unk> rush
-2.206571	<unk> save
-2.687412	<unk> say
-2.463327	<unk> score
-3.381899	<unk> secure
-2.206571	<unk> see
-2.463327	<unk> seem
-3.381899	<unk> send
-2.987235	<unk> serve
-2.987235	<unk> set
-3.381899	<unk> settle
-3.381899	<unk> shock
-2.987235	<unk> show
-3.381899	<unk> slide
-3.381899	<unk> smash
-3.381899	<unk> spoil
-3.381899	<unk> sputter
-3.381899	<unk> stall
-2.987235	<unk> stand
-2.687412	<unk> start
-3.381899	<unk> steal
-2.987235	<unk> stick
-3.381899	<unk> stiffen
-2.687412	<unk> stop
-3.381899	<unk> strand
-3.381899	<unk> strip
-3.381899	<unk> struggle
-3.381899	<unk> stuff
-3.381899	<unk> suck
-2.987235	<unk> suppose
-3.381899	<unk> surpass
-3.381899	<unk> sweep
-3.381899	<unk> swim
-3.381899	<unk> tackle
-1.929494	<unk> take
-3.381899	<unk> talk
-3.381899	<unk> teach
-3.381899	<unk> tell
-3.381899	<unk> test
-3.381899	<unk> that
-1.881086	<unk> think
-2.463327	<unk> throw
-3.381899	<unk> tie
-3.381899	<unk> tip
-3.381899	<unk> tolerate
-3.381899	<unk> trail
-2.206571	<unk> try
-2.463327	<unk> turn
-3.381899	<unk> upset
-2.987235	<unk> use
-2.987235	<unk> wait
-3.381899	<unk> wake
-3.381899	<unk> walk
-2.206571	<unk> want
-2.316245	<unk> wasnt
-2.987235	<unk> waste
-2.987235	<unk> watch
-3.381899	<unk> wed
-1.79796	<unk> win
-3.381899	<unk> witness
-3.381899	<unk> wonder
-3.381899	<unk> wont
-2.687412	<unk> work
-3.381899	<unk> worry
-2.987235	<unk> write
-1.523964	abandon consider
-1.1293	abandon do
-1.523964	abandon get
-1.523964	abandon lay
-1.523964	abandon look
-1.523964	abandon read
-0.8294766	abandon run
-0.4303295	accelerate make
-1.084749	accept be
-1.779236	accept commit
-1.779236	accept fail
-1.779236	accept forgive
-1.779236	accept need
-1.779236	accept pass
-1.084749	accept play
-1.779236	accept quit
-1.779236	accept return
-1.779236	accept suck
-1.779236	accept tell
-1.779236	accept that
-1.779236	accept update
-1.779236	accept want
-1.001085	accommodate gain
-1.001085	accommodate have
-1.001085	accommodate outplay
-0.7313595	accompany be
-1.126024	accompany look
-1.126024	accompany sit
-1.478206	accomplish </s>
-1.478206	accomplish celebrate
-1.083542	accomplish have
-1.478206	accomplish know
-1.478206	accomplish put
-1.478206	accomplish say
-1.478206	accomplish think
-1.478206	accomplish win
-1.427054	accord <unk>
-1.03239	accord be
-1.03239	accord catch
-1.427054	accord get
-1.427054	accord mean
-1.427054	accord sit
-1.222934	account be
-0.8282695	account have
-1.222934	account hit
-1.222934	account lack
-1.126024	accumulate allow
-1.126024	accumulate be
-1.126024	accumulate come
-1.126024	accumulate kick
-1.302115	achieve </s>
-1.302115	achieve be
-1.302115	achieve like
-1.302115	achieve travel
-1.302115	achieve use
-1.302115	achieve win
-1.126024	acknowledge deflect
-1.126024	acknowledge hit
-1.126024	acknowledge walk
-1.126024	acknowledge wasnt
-1.126024	acquire acquire
-1.126024	acquire be
-1.126024	acquire call
-1.126024	acquire report
-1.222934	act come
-0.8282695	act make
-1.222934	act score
-1.222934	act win
-0.8249936	adapt play
-0.8249936	adapt run
-1.974398	add </s>
-1.974398	add <unk>
-2.369062	add allow
-2.369062	add attempt
-1.106247	add be
-2.369062	add cancel
-2.369062	add change
-2.369062	add cost
-2.369062	add cut
-1.674575	add do
-2.369062	add double
-2.369062	add find
-1.674575	add get
-2.369062	add give
-1.974398	add go
-1.45049	add have
-2.369062	add head
-2.369062	add hurt
-2.369062	add ignite
-1.974398	add include
-2.369062	add last
-1.45049	add lead
-1.974398	add look
-2.369062	add love
-1.974398	add make
-2.369062	add overtake
-2.369062	add play
-2.369062	add push
-2.369062	add read
-2.369062	add receive
-2.369062	add render
-2.369062	add result
-2.369062	add rotate
-2.369062	add rush
-2.369062	add scare
-1.974398	add score
-2.369062	add send
-2.369062	add sort
-2.369062	add stop
-2.369062	add surprise
-1.974398	add tackle
-1.974398	add throw
-2.369062	add try
-2.369062	add walk
-2.369062	add win
-1.001085	addict be
-1.001085	addict hit
-1.001085	addict see
-1.001085	address give
-0.6064208	address have
-1.001085	adjust be
-1.001085	adjust dont
-1.001085	adjust score
-1.001085	admire call
-0.6064208	admire have
-1.33342	admit be
-1.728084	admit become
-1.728084	admit come
-1.728084	admit expect
-1.728084	admit have
-1.728084	admit jump
-1.728084	admit know
-1.728084	admit lack
-1.728084	admit lose
-1.728084	admit pitch
-1.728084	admit put
-1.728084	admit sign
-1.033597	admit think
-1.222934	advance <unk>
-0.8282695	advance be
-1.222934	advance drive
-1.222934	advance fail
-0.4303295	advertise burn
-0.3034075	affect be
-0.9743976	affect have
-1.523964	afford afford
-1.1293	afford be
-1.1293	afford come
-1.1293	afford get
-1.523964	afford have
-1.1293	afford sweep
-0.4303295	agaisnt push
-0.8249936	aggravate be
-0.8249936	aggravate think
-1.637907	agree <unk>
-1.637907	agree abandon
-1.637907	agree agree
-0.9434199	agree be
-1.637907	agree come
-1.637907	agree comment
-1.637907	agree go
-1.637907	agree have
-1.637907	agree join
-1.637907	agree look
-1.637907	agree say
-1.222934	aid burn
-1.222934	aid force
-1.222934	aid pick
-1.222934	aid tackle
-1.222934	aid work
-1.603145	aim breathe
-1.603145	aim do
-1.603145	aim expect
-1.603145	aim have
-1.603145	aim help
-1.208481	aim let
-1.603145	aim pass
-1.603145	aim play
-1.603145	aim prepare
-1.603145	aim put
-1.603145	aim say
-1.03239	air be
-1.427054	air draw
-1.427054	air fade
-1.03239	air have
-1.427054	air remain
-1.427054	air start
-1.976823	allow </s>
-2.647814	allow <unk>
-1.388795	allow allow
-3.042478	allow average
-3.042478	allow back
-3.042478	allow base
-0.7985128	allow be
-3.042478	allow benefit
-3.042478	allow blow
-3.042478	allow call
-1.706879	allow carry
-2.647814	allow catch
-1.706879	allow come
-2.647814	allow complete
-3.042478	allow connect
-2.647814	allow control
-3.042478	allow cross
-3.042478	allow cut
-3.042478	allow dispute
-1.976823	allow do
-3.042478	allow double
-2.647814	allow draw
-1.976823	allow earn
-2.647814	allow end
-3.042478	allow enter
-3.042478	allow escape
-3.042478	allow exceed
-2.347991	allow face
-3.042478	allow feel
-3.042478	allow fight
-3.042478	allow find
-3.042478	allow finish
-3.042478	allow fix
-3.042478	allow focus
-3.042478	allow follow
-1.590072	allow get
-2.647814	allow give
-1.706879	allow go
-1.27595	allow have
-3.042478	allow help
-2.347991	allow hit
-2.123906	allow hold
-3.042478	allow hurt
-3.042478	allow impress
-3.042478	allow improve
-3.042478	allow include
-3.042478	allow intend
-2.647814	allow keep
-2.647814	allow lead
-2.347991	allow leave
-3.042478	allow let
-3.042478	allow load
-2.347991	allow lose
-3.042478	allow lower
-2.347991	allow make
-3.042478	allow meet
-3.042478	allow notch
-3.042478	allow open
-3.042478	allow pack
-3.042478	allow pass
-3.042478	allow pay
-3.042478	allow perform
-1.779663	allow pick
-1.867149	allow pitch
-3.042478	allow play
-2.647814	allow pound
-2.647814	allow put
-3.042478	allow read
-2.647814	allow record
-2.347991	allow recover
-3.042478	allow remove
-3.042478	allow represent
-2.647814	allow retire
-3.042478	allow return
-1.706879	allow run
-3.042478	allow rush
-2.647814	allow save
-2.647814	allow scamper
-1.867149	allow score
-3.042478	allow seem
-3.042478	allow shake
-3.042478	allow show
-3.042478	allow spend
-3.042478	allow steal
-3.042478	allow stop
-3.042478	allow strand
-1.186462	allow strike
-3.042478	allow struggle
-3.042478	allow stymie
-3.042478	allow surrender
-3.042478	allow switch
-2.647814	allow take
-2.647814	allow think
-2.347991	allow throw
-2.647814	allow tie
-2.647814	allow turn
-1.590072	allow walk
-1.458538	allow win
-2.647814	allow work
-3.042478	allow worry
-1.302115	amass be
-1.302115	amass consider
-1.302115	amass do
-1.302115	amass have
-0.9074508	amass swarm
-0.8249936	amuse be
-0.8249936	amuse hope
-0.5284466	anchor be
-1.222934	anchor do
-1.222934	anchor start
-0.9074508	announce be
-1.302115	announce club
-1.302115	announce disqualify
-1.302115	announce escape
-1.302115	announce understand
-1.001085	annoy </s>
-1.001085	annoy be
-1.001085	annoy do
-1.408053	answer be
-1.802717	answer blast
-1.802717	answer end
-1.802717	answer follow
-1.802717	answer go
-1.802717	answer have
-1.802717	answer hook
-1.408053	answer move
-1.802717	answer provide
-1.802717	answer push
-1.802717	answer put
-1.802717	answer say
-1.408053	answer show
-1.802717	answer silence
-1.802717	answer step
-1.802717	answer take
-1.302115	anticipate arrive
-1.302115	anticipate be
-1.302115	anticipate get
-1.302115	anticipate open
-1.302115	anticipate rain
-1.302115	anticipate wasnt
-0.8249936	apologize get
-0.8249936	apologize watch
-2.080266	appear <unk>
-1.014612	appear be
-2.080266	appear beat
-1.685602	appear catch
-2.080266	appear claim
-2.080266	appear come
-2.080266	appear continue
-1.685602	appear do
-2.080266	appear find
-1.685602	appear gain
-2.080266	appear get
-2.080266	appear grow
-1.685602	appear have
-1.685602	appear head
-2.080266	appear know
-2.080266	appear look
-2.080266	appear read
-2.080266	appear sack
-2.080266	appear slow
-2.080266	appear stack
-2.080266	appear suffer
-2.080266	appear suit
-2.080266	appear take
-2.080266	appear tell
-2.080266	appear throw
-2.080266	appear want
-2.080266	appear whistle
-0.8249936	apply outclass
-0.8249936	apply overcome
-1.001085	appreciate be
-0.6064208	appreciate happen
-0.8282695	approach be
-1.222934	approach have
-1.222934	approach hit
-1.222934	approach play
-1.478206	arent <unk>
-1.478206	arent backup
-1.478206	arent be
-1.478206	arent belong
-1.478206	arent give
-1.478206	arent have
-1.478206	arent keep
-1.478206	arent play
-1.478206	arent struggle
-1.427054	argue be
-0.7325666	argue eject
-1.427054	argue foul
-1.03239	argue have
-1.427054	argue try
-1.083542	arrive <unk>
-1.478206	arrive be
-1.478206	arrive break
-1.478206	arrive fall
-1.478206	arrive look
-1.478206	arrive run
-1.478206	arrive seem
-1.478206	arrive start
-2.157432	ask allow
-0.8218337	ask be
-2.157432	ask buy
-2.157432	ask call
-2.157432	ask come
-2.157432	ask email
-2.157432	ask forget
-1.462945	ask go
-2.157432	ask have
-2.157432	ask hold
-2.157432	ask include
-2.157432	ask involve
-2.157432	ask know
-2.157432	ask let
-2.157432	ask make
-2.157432	ask manage
-2.157432	ask play
-1.762768	ask prepare
-2.157432	ask reply
-2.157432	ask respond
-2.157432	ask say
-1.762768	ask show
-1.762768	ask start
-2.157432	ask stick
-2.157432	ask strike
-1.762768	ask take
-2.157432	ask think
-2.157432	ask understand
-2.157432	ask win
-2.157432	ask yell
-1.302115	assist allow
-0.9074508	assist be
-1.302115	assist move
-1.302115	assist need
-1.302115	assist score
-1.603145	assume <unk>
-1.603145	assume be
-1.208481	assume confirm
-1.603145	assume correct
-1.603145	assume do
-1.603145	assume head
-1.603145	assume know
-1.603145	assume seem
-1.603145	assume spend
-1.603145	assume think
-1.603145	assume whistle
-1.369062	assure finish
-1.369062	assure get
-1.369062	assure have
-1.369062	assure know
-1.369062	assure look
-1.369062	assure say
-1.369062	assure win
-1.986362	attack <unk>
-0.8110335	attack be
-1.986362	attack continue
-1.986362	attack count
-1.591698	attack give
-1.986362	attack go
-0.8110335	attack have
-1.986362	attack hit
-1.986362	attack keep
-1.986362	attack lay
-1.591698	attack play
-1.591698	attack show
-1.986362	attack substitute
-1.986362	attack understand
-1.986362	attack use
-1.986362	attack wait
-1.938937	attempt </s>
-1.938937	attempt <unk>
-1.24445	attempt be
-1.938937	attempt block
-1.938937	attempt break
-1.938937	attempt cut
-1.938937	attempt depend
-1.938937	attempt do
-1.544273	attempt get
-1.938937	attempt have
-1.544273	attempt move
-1.938937	attempt pass
-1.938937	attempt play
-1.938937	attempt qualify
-1.938937	attempt rush
-1.938937	attempt set
-1.938937	attempt stop
-1.938937	attempt sum
-1.938937	attempt tie
-1.938937	attempt try
-1.544273	attempt win
-1.126024	attend be
-1.126024	attend do
-1.126024	attend hate
-1.126024	attend put
-0.8249936	attribute have
-0.8249936	attribute want
-0.5863052	average be
-1.921904	average carry
-1.921904	average catch
-1.921904	average gain
-1.921904	average get
-1.227417	average have
-1.52724	average hold
-1.52724	average include
-1.921904	average leave
-1.921904	average look
-1.921904	average make
-1.921904	average manage
-1.921904	average throw
-1.921904	average win
-1.885691	avoid <unk>
-0.96712	avoid be
-1.885691	avoid blow
-1.885691	avoid develop
-1.885691	avoid dominate
-1.491027	avoid face
-1.885691	avoid find
-1.885691	avoid get
-1.885691	avoid go
-1.885691	avoid grant
-1.885691	avoid have
-1.885691	avoid live
-1.885691	avoid pass
-1.885691	avoid sack
-1.491027	avoid see
-1.491027	avoid tackle
-1.885691	avoid throw
-1.001085	await go
-1.001085	await have
-1.001085	await thump
-1.03239	award argue
-1.427054	award find
-1.03239	award have
-1.427054	award obstruct
-1.427054	award overcome
-1.427054	award qualify
-1.384572	back </s>
-0.8606647	back be
-1.779236	back beat
-1.779236	back do
-1.084749	back go
-1.779236	back have
-1.779236	back keep
-1.779236	back let
-1.779236	back lose
-1.779236	back make
-1.779236	back smash
-1.779236	back start
-0.8249936	backfire give
-0.8249936	backfire spend
-0.6064208	backup be
-1.001085	backup do
-0.8249936	baffle reward
-0.8249936	baffle sweep
-1.302115	bail commit
-0.9074508	bail give
-1.302115	bail put
-1.302115	bail score
-1.302115	bail win
-0.9074508	bang <unk>
-1.302115	bang carry
-1.302115	bang know
-1.302115	bang play
-1.302115	bang think
-1.565356	base appear
-1.565356	base be
-1.565356	base expect
-1.565356	base face
-1.565356	base give
-1.565356	base go
-1.565356	base lose
-1.565356	base report
-1.565356	base see
-1.565356	base think
-1.565356	base win
-0.8249936	bash keep
-0.8249936	bash pass
-0.8249936	bask be
-0.8249936	bask rush
-1.478206	bat acquire
-1.083542	bat come
-1.478206	bat do
-1.478206	bat foul
-1.478206	bat go
-1.478206	bat lead
-1.478206	bat upset
-1.478206	bat win
-1.126024	batter allow
-1.126024	batter come
-1.126024	batter have
-1.126024	batter trail
-1.523964	battle </s>
-1.523964	battle be
-1.523964	battle break
-1.523964	battle create
-1.523964	battle go
-1.1293	battle have
-1.523964	battle mean
-1.523964	battle run
-1.523964	battle see
-4.426239	be !!
-1.960362	be </s>
-1.828627	be <unk>
-4.426239	be abandon
-3.360584	be accept
-3.507667	be accomplish
-4.031574	be accord
-4.426239	be account
-4.426239	be accumulate
-4.426239	be achieve
-2.925426	be add
-4.426239	be address
-4.426239	be adjust
-3.360584	be admit
-3.507667	be affect
-4.031574	be afford
-4.426239	be aggravate
-3.731751	be agree
-4.426239	be aid
-4.426239	be aim
-4.426239	be air
-2.225756	be allow
-4.426239	be anchor
-3.507667	be answer
-3.507667	be appear
-4.426239	be appreciate
-3.731751	be approach
-3.731751	be arent
-4.426239	be argue
-4.031574	be arrive
-3.250911	be ask
-3.731751	be assist
-4.031574	be assume
-4.426239	be assure
-3.360584	be attack
-3.250911	be attempt
-3.507667	be average
-3.360584	be avoid
-3.507667	be back
-4.426239	be backup
-4.426239	be baffle
-3.507667	be bail
-4.426239	be bang
-3.507667	be base
-4.426239	be bask
-4.031574	be bat
-4.031574	be battle
-0.6796935	be be
-4.031574	be bear
-2.463244	be beat
-2.842299	be become
-2.925426	be begin
-4.426239	be belie
-3.028322	be believe
-4.426239	be belong
-4.426239	be belt
-4.031574	be bend
-4.031574	be benefit
-3.09064	be bet
-3.360584	be blame
-3.731751	be blister
-4.031574	be blitz
-3.250911	be block
-4.031574	be blogg
-2.925426	be blow
-4.426239	be bobble
-4.426239	be bode
-4.426239	be bomb
-4.031574	be bother
-3.250911	be bounce
-4.426239	be brace
-2.772556	be break
-4.426239	be breathe
-2.806029	be bring
-3.360584	be build
-3.731751	be burn
-3.731751	be burst
-4.426239	be buy
-4.426239	be buzz
-2.612666	be call
-4.426239	be calm
-3.163424	be cant
-4.031574	be cap
-4.426239	be capitalize
-4.426239	be care
-2.659711	be carry
-2.590926	be catch
-3.250911	be cause
-3.731751	be celebrate
-4.426239	be challenge
-2.973833	be change
-4.426239	be charge
-3.360584	be chase
-3.507667	be check
-3.360584	be cheer
-4.426239	be chip
-4.426239	be choose
-4.031574	be chop
-3.360584	be claim
-4.426239	be clatter
-3.360584	be clear
-3.507667	be click
-3.028322	be close
-2.973833	be coach
-4.426239	be collapse
-3.507667	be collect
-3.028322	be combine
-1.760885	be come
-3.250911	be commit
-3.731751	be compare
-3.163424	be compete
-3.731751	be complain
-2.842299	be complete
-3.731751	be concede
-4.426239	be concern
-4.031574	be conclude
-3.028322	be confirm
-4.426239	be confront
-4.031574	be congratulate
-4.031574	be connect
-3.163424	be consider
-4.426239	be contain
-4.426239	be contend
-4.426239	be contest
-2.806029	be continue
-3.163424	be control
-3.731751	be convert
-4.031574	be convince
-4.031574	be cook
-4.031574	be cope
-4.426239	be correct
-4.426239	be cost
-4.426239	be couldnt
-4.031574	be count
-3.028322	be cover
-4.031574	be crack
-4.426239	be crank
-4.426239	be crash
-3.09064	be create
-4.031574	be criticize
-3.360584	be cross
-4.031574	be crowd
-3.250911	be crush
-4.031574	be cry
-3.507667	be culminate
-2.973833	be cut
-4.426239	be debut
-3.250911	be decide
-4.426239	be declare
-3.163424	be defend
-4.426239	be defer
-4.426239	be deflect
-4.426239	be deliver
-4.426239	be demand
-3.507667	be demonstrate
-4.426239	be demote
-3.731751	be deny
-4.426239	be describe
-2.973833	be deserve
-4.426239	be desire
-3.731751	be destroy
-3.731751	be determine
-4.031574	be develop
-4.426239	be dictate
-3.360584	be didnt
-4.426239	be die
-4.426239	be direct
-4.031574	be disappoint
-4.031574	be discuss
-4.426239	be dish
-4.426239	be dispatch
-3.731751	be display
-3.731751	be dive
-1.420144	be do
-4.426239	be dodge
-4.426239	be doesnt
-2.925426	be dominate
-2.973833	be dont
-4.426239	be doom
-2.842299	be double
-4.426239	be doubt
-4.426239	be draft
-4.426239	be drag
-4.031574	be draw
-4.426239	be dream
-4.426239	be dress
-4.426239	be dribble
-4.426239	be drink
-2.772556	be drive
-2.74148	be drop
-2.199148	be earn
-4.426239	be eclipse
-4.426239	be edge
-4.426239	be elect
-4.031574	be eliminate
-4.426239	be email
-4.031574	be embarass
-4.426239	be embark
-4.426239	be embarrass
-4.426239	be emerge
-2.390647	be end
-4.031574	be enjoy
-3.731751	be ensue
-3.731751	be enter
-4.426239	be equalise
-4.426239	be equalize
-4.031574	be erase
-3.731751	be escape
-3.731751	be establish
-4.426239	be exceed
-4.426239	be excel
-4.426239	be exchange
-4.426239	be excuse
-3.360584	be execute
-4.426239	be expand
-2.53156	be expect
-3.731751	be experience
-4.426239	be expire
-4.426239	be explode
-4.031574	be expose
-4.426239	be extend
-4.426239	be eye
-2.685294	be face
-4.031574	be fade
-3.507667	be fail
-2.74148	be fall
-4.426239	be falter
-4.031574	be fare
-4.426239	be favor
-4.426239	be fear
-3.731751	be feature
-4.426239	be feed
-2.772556	be feel
-4.031574	be field
-3.163424	be fight
-4.426239	be figure
-3.360584	be fill
-2.612666	be find
-2.685294	be finish
-4.426239	be fire
-4.426239	be fit
-4.031574	be fizzle
-4.031574	be flash
-4.031574	be flick
-4.031574	be flip
-4.426239	be float
-3.731751	be fly
-4.426239	be focus
-2.806029	be follow
-2.635552	be force
-3.507667	be forget
-3.731751	be foul
-4.031574	be free
-3.731751	be frustrate
-3.360584	be fumble
-2.973833	be gain
-4.031574	be gather
-4.426239	be generate
-1.581131	be get
-1.824976	be give
-4.426239	be glue
-1.638684	be go
-4.031574	be gon
-4.426239	be grab
-4.426239	be grant
-3.731751	be ground
-3.507667	be grow
-4.426239	be guarantee
-4.031574	be guess
-4.426239	be gun
-4.426239	be hail
-3.360584	be hand
-4.031574	be handle
-3.250911	be hang
-2.659711	be happen
-4.426239	be harass
-4.426239	be hasnt
-3.507667	be hate
-4.426239	be haunt
-1.076537	be have
-4.426239	be havent
-4.426239	be he
-2.513448	be head
-2.973833	be hear
-4.426239	be hed
-2.712479	be help
-4.426239	be hesitate
-4.426239	be hide
-4.031574	be hinder
-2.099632	be hit
-2.53156	be hold
-4.031574	be homer
-4.426239	be honor
-2.881877	be hope
-4.426239	be host
-3.731751	be hug
-3.09064	be hurt
-4.426239	be illustrate
-4.426239	be imagine
-3.360584	be impress
-2.881877	be improve
-2.806029	be include
-4.426239	be incur
-4.031574	be influence
-3.507667	be injure
-4.426239	be insist
-3.731751	be inspire
-4.426239	be intend
-3.360584	be intercept
-4.031574	be interview
-3.731751	be involve
-4.426239	be issue
-4.426239	be jog
-3.09064	be join
-3.731751	be joke
-4.031574	be judge
-4.031574	be jump
-4.426239	be justify
-2.263977	be keep
-2.806029	be kick
-4.031574	be kickoff
-3.731751	be kill
-4.426239	be kiss
-3.09064	be knock
-2.225756	be know
-4.426239	be lace
-3.360584	be lack
-4.426239	be land
-3.507667	be last
-4.426239	be launch
-3.163424	be lay
-2.31703	be lead
-4.426239	be lean
-3.360584	be learn
-2.550461	be leave
-2.404228	be let
-3.731751	be lie
-4.426239	be light
-2.842299	be like
-4.031574	be link
-3.731751	be live
-4.031574	be load
-4.426239	be lock
-1.913355	be look
-4.426239	be loom
-2.199148	be lose
-2.973833	be love
-3.507667	be lower
-4.426239	be lurk
-3.731751	be maintain
-1.80025	be make
-4.426239	be man
-2.712479	be manage
-4.031574	be manhandle
-4.426239	be march
-3.507667	be mark
-4.426239	be marshal
-4.426239	be match
-4.426239	be mature
-2.772556	be mean
-4.426239	be measure
-3.250911	be meet
-2.973833	be mention
-3.731751	be mind
-4.426239	be misread
-2.635552	be miss
-4.426239	be mix
-3.731751	be mount
-2.550461	be move
-3.163424	be name
-2.254102	be need
-4.426239	be negate
-4.426239	be net
-4.426239	be notch
-4.426239	be note
-4.426239	be notice
-4.426239	be obliterate
-4.031574	be occur
-4.031574	be offer
-3.028322	be open
-4.426239	be oppose
-4.031574	be outnumber
-4.426239	be outpitch
-4.426239	be outplay
-4.426239	be outrun
-4.426239	be outscore
-4.426239	be outshoot
-3.360584	be overcome
-4.426239	be overthrow
-4.031574	be overwhelm
-3.731751	be own
-4.031574	be pack
-4.426239	be paddle
-4.031574	be panic
-4.031574	be participate
-4.031574	be partner
-2.712479	be pass
-4.031574	be pave
-3.360584	be pay
-3.731751	be perform
-4.426239	be permit
-2.685294	be pick
-4.426239	be pin
-4.426239	be pinpoint
-2.364697	be pitch
-3.731751	be plan
-4.426239	be plant
-1.810675	be play
-3.250911	be please
-4.426239	be point
-4.031574	be pop
-3.731751	be possess
-3.360584	be post
-3.250911	be pound
-4.031574	be power
-4.426239	be practice
-4.031574	be predict
-3.507667	be prepare
-4.426239	be present
-4.426239	be preserve
-3.731751	be press
-4.031574	be pressure
-4.426239	be pretend
-3.731751	be prevent
-3.731751	be produce
-4.426239	be progress
-4.426239	be propel
-3.731751	be protect
-2.925426	be prove
-4.426239	be provide
-2.973833	be pull
-3.507667	be punch
-4.426239	be punish
-2.925426	be punt
-3.360584	be push
-2.113535	be put
-3.09064	be qualify
-4.426239	be question
-4.031574	be queue
-3.360584	be quit
-4.031574	be rack
-3.731751	be raise
-4.426239	be rally
-3.507667	be rank
-4.426239	be rattle
-4.426239	be re-evaluate
-4.031574	be re-take
-3.507667	be reach
-4.426239	be react
-3.507667	be read
-3.507667	be realize
-3.731751	be recall
-3.09064	be receive
-4.426239	be reckon
-3.731751	be record
-3.360584	be recover
-3.731751	be redeem
-4.426239	be reel
-4.426239	be refer
-4.426239	be reflect
-4.426239	be refocus
-4.031574	be relax
-4.031574	be release
-4.426239	be relieve
-3.731751	be rely
-3.250911	be remain
-2.806029	be remember
-3.731751	be remind
-4.426239	be renew
-3.09064	be replace
-4.426239	be report
-4.426239	be represent
-4.031574	be require
-4.031574	be resign
-4.426239	be respect
-3.028322	be respond
-4.426239	be rest
-4.426239	be restart
-4.426239	be restore
-3.09064	be result
-3.731751	be resume
-4.031574	be resurface
-3.731751	be retire
-2.635552	be return
-4.031574	be review
-4.031574	be ring
-4.426239	be rise
-4.426239	be rob
-3.731751	be roll
-4.031574	be root
-4.426239	be rough
-4.031574	be round
-4.426239	be ruin
-4.031574	be rule
-2.054204	be run
-2.432734	be rush
-3.250911	be sack
-4.426239	be sail
-2.806029	be save
-1.960362	be say
-4.426239	be scare
-4.426239	be scatter
-4.426239	be schedule
-1.913355	be score
-4.031574	be scramble
-4.426239	be scratch
-4.031574	be scream
-4.031574	be seal
-4.426239	be secure
-1.922358	be see
-2.479342	be seem
-3.507667	be sell
-2.842299	be send
-4.426239	be sense
-4.031574	be separate
-3.507667	be serve
-2.550461	be set
-2.973833	be settle
-4.031574	be shape
-4.031574	be share
-4.426239	be shed
-4.426239	be shine
-3.250911	be shoot
-4.031574	be short
-4.426239	be shot
-4.426239	be shout
-2.404228	be show
-3.250911	be shut
-3.731751	be sign
-4.426239	be signal
-4.031574	be single
-3.731751	be sink
-3.028322	be sit
-4.426239	be skip
-4.426239	be slam
-4.426239	be sleep
-4.031574	be slice
-4.031574	be slide
-4.031574	be slip
-4.426239	be slow
-3.731751	be slug
-4.031574	be smack
-4.426239	be smart
-4.031574	be smash
-4.426239	be smile
-3.731751	be snap
-4.426239	be sort
-3.360584	be sound
-3.09064	be speak
-4.426239	be speed
-3.507667	be spend
-3.731751	be spin
-3.507667	be split
-4.031574	be sport
-4.426239	be sprain
-4.031574	be spread
-4.031574	be sprint
-4.031574	be stall
-3.250911	be stand
-1.945718	be start
-3.507667	be state
-3.250911	be stay
-3.028322	be steal
-2.881877	be step
-3.360584	be stick
-2.712479	be stop
-4.426239	be storm
-4.031574	be strain
-4.426239	be strengthen
-4.426239	be stretch
-2.74148	be strike
-4.426239	be strip
-2.612666	be struggle
-4.426239	be stumble
-3.731751	be sub
-4.426239	be substitute
-4.426239	be succeed
-3.507667	be suck
-3.507667	be suffer
-3.731751	be suggest
-4.031574	be sulk
-4.426239	be sum
-3.250911	be support
-3.731751	be suppose
-4.031574	be surge
-4.031574	be surpass
-3.360584	be surprise
-4.426239	be surrender
-4.031574	be survive
-4.426239	be suspend
-3.731751	be sustain
-3.731751	be sweep
-2.806029	be swim
-3.731751	be swing
-3.731751	be switch
-2.53156	be tackle
-1.870944	be take
-2.973833	be talk
-4.426239	be tap
-4.031574	be teach
-4.031574	be team
-4.426239	be tear
-4.426239	be tee
-2.659711	be tell
-4.031574	be tend
-4.426239	be text
-4.426239	be thank
-3.360584	be that
-4.031574	be there
-2.08616	be think
-4.031574	be threaten
-2.216704	be throw
-3.028322	be tie
-4.426239	be tighten
-4.031574	be tire
-3.163424	be top
-4.426239	be toss
-4.426239	be touch
-4.426239	be track
-3.250911	be trade
-3.09064	be trail
-4.426239	be train
-3.507667	be travel
-3.731751	be treat
-4.031574	be trickle
-4.426239	be trip
-3.731751	be trust
-2.612666	be try
-4.426239	be tune
-2.49606	be turn
-4.031574	be tweak
-4.426239	be undergo
-3.09064	be understand
-4.031574	be understimate
-4.426239	be unravel
-4.426239	be update
-2.842299	be use
-4.031574	be utilize
-4.426239	be vanish
-4.426239	be visit
-4.426239	be vote
-2.842299	be wait
-3.250911	be wake
-4.031574	be walekd
-2.432734	be walk
-2.53156	be want
-4.031574	be wash
-3.163424	be wasnt
-4.426239	be waste
-2.31703	be watch
-4.031574	be wave
-3.507667	be wear
-4.031574	be welcome
-4.031574	be werent
-4.031574	be whack
-4.426239	be whip
-3.360584	be whistle
-1.663023	be win
-3.360584	be wish
-3.163424	be wonder
-3.731751	be wont
-2.772556	be work
-3.507667	be worry
-4.426239	be wouldnt
-4.426239	be wouldve
-4.031574	be wrap
-4.426239	be write
-3.731751	be yell
-4.426239	be yield
-4.426239	be youre
-4.426239	be zip
-1.478206	bear </s>
-1.478206	bear back
-1.478206	bear be
-1.478206	bear do
-1.478206	bear escape
-1.478206	bear have
-1.478206	bear hold
-1.478206	bear know
-1.478206	bear use
-1.922898	beat </s>
-1.698814	beat <unk>
-1.922898	beat allow
-2.617385	beat ask
-0.7820728	beat be
-2.617385	beat beat
-2.617385	beat beij
-2.617385	beat believe
-2.617385	beat berth
-2.617385	beat block
-2.617385	beat blow
-2.617385	beat breed
-2.617385	beat come
-2.617385	beat compare
-2.617385	beat cruise
-2.617385	beat decide
-2.617385	beat do
-2.617385	beat end
-2.617385	beat enjoy
-2.617385	beat expect
-2.222721	beat fade
-2.617385	beat fall
-2.617385	beat feel
-2.617385	beat find
-1.698814	beat get
-2.617385	beat give
-2.222721	beat go
-1.551731	beat have
-2.617385	beat head
-2.617385	beat hit
-2.617385	beat imagine
-2.222721	beat improve
-2.222721	beat keep
-1.922898	beat know
-2.617385	beat lead
-2.617385	beat leave
-2.617385	beat manage
-2.617385	beat mean
-2.617385	beat move
-2.617385	beat pick
-2.222721	beat play
-2.617385	beat pull
-2.617385	beat put
-2.617385	beat reach
-2.617385	beat recover
-1.922898	beat run
-2.617385	beat sack
-2.617385	beat save
-2.617385	beat say
-1.922898	beat score
-2.222721	beat see
-2.617385	beat serve
-2.617385	beat start
-2.617385	beat stay
-2.617385	beat steal
-2.617385	beat strike
-2.617385	beat strip
-2.617385	beat stumble
-2.617385	beat surprise
-1.698814	beat take
-2.617385	beat throw
-1.922898	beat tie
-2.222721	beat turn
-2.617385	beat walk
-2.617385	beat waltz
-2.617385	beat want
-1.551731	beat win
-1.661986	become </s>
-2.356472	become <unk>
-2.356472	become abandon
-2.356472	become adapt
-2.356472	become add
-1.020874	become be
-2.356472	become become
-2.356472	become begin
-2.356472	become bring
-2.356472	become cant
-2.356472	become come
-2.356472	become compete
-2.356472	become connect
-2.356472	become decide
-2.356472	become diminish
-1.661986	become do
-2.356472	become dominate
-2.356472	become end
-2.356472	become field
-2.356472	become get
-2.356472	become give
-1.961808	become go
-1.181144	become have
-2.356472	become heat
-1.961808	become hold
-2.356472	become improve
-2.356472	become look
-2.356472	become love
-2.356472	become need
-2.356472	become open
-1.290818	become play
-2.356472	become pout
-2.356472	become pull
-2.356472	become receive
-2.356472	become record
-2.356472	become risk
-1.661986	become see
-2.356472	become seem
-2.356472	become take
-1.661986	become win
-2.356472	become wish
-2.356472	become work
-1.222934	beg be
-1.222934	beg feel
-1.222934	beg go
-1.222934	beg have
-1.222934	beg lead
-2.336877	begin </s>
-1.942213	begin <unk>
-0.6831947	begin be
-2.336877	begin bomb
-2.336877	begin bust
-2.336877	begin cancel
-2.336877	begin cap
-2.336877	begin claim
-2.336877	begin come
-2.336877	begin consider
-2.336877	begin contest
-2.336877	begin face
-1.64239	begin find
-2.336877	begin force
-2.336877	begin fumble
-1.418306	begin get
-1.942213	begin go
-0.93896	begin have
-1.942213	begin hit
-2.336877	begin include
-2.336877	begin lose
-2.336877	begin organize
-2.336877	begin perform
-2.336877	begin pick
-2.336877	begin put
-2.336877	begin reach
-2.336877	begin save
-2.336877	begin seem
-2.336877	begin set
-1.942213	begin sit
-2.336877	begin stay
-2.336877	begin take
-2.336877	begin turn
-2.336877	begin win
-0.6064208	beij </s>
-1.001085	beij drop
-1.001085	belie </s>
-1.001085	belie be
-1.001085	belie recall
-2.147213	believe </s>
-2.147213	believe <unk>
-0.6948078	believe be
-2.147213	believe bet
-2.147213	believe cant
-2.147213	believe come
-2.147213	believe compare
-2.147213	believe die
-2.147213	believe dive
-1.752549	believe do
-2.147213	believe finish
-2.147213	believe give
-1.228641	believe have
-2.147213	believe jack
-2.147213	believe let
-2.147213	believe muster
-1.752549	believe play
-2.147213	believe receive
-2.147213	believe say
-2.147213	believe sub
-2.147213	believe take
-2.147213	believe tell
-2.147213	believe tune
-2.147213	believe voice
-1.452726	believe want
-2.147213	believe wear
-0.4997021	belong be
-1.565356	belong belong
-1.170692	belong do
-1.565356	belong kick
-1.565356	belong know
-1.565356	belong want
-1.222934	belt beat
-1.222934	belt cap
-1.222934	belt drop
-1.222934	belt hit
-1.222934	belt triple
-1.001085	bench </s>
-1.001085	bench <unk>
-1.001085	bench have
-1.001085	bend control
-1.001085	bend do
-1.001085	bend miss
-0.9074508	benefit be
-1.302115	benefit have
-1.302115	benefit lose
-1.302115	benefit play
-1.302115	benefit throw
-0.8249936	berth give
-0.8249936	berth slip
-1.866386	bet </s>
-1.866386	bet <unk>
-1.866386	bet back
-0.8007321	bet be
-1.866386	bet choose
-1.866386	bet count
-1.866386	bet do
-1.866386	bet issue
-1.866386	bet like
-1.866386	bet open
-1.866386	bet play
-1.866386	bet proceed
-1.866386	bet regain
-1.866386	bet score
-1.866386	bet see
-1.866386	bet suck
-1.866386	bet think
-1.866386	bet work
-0.3835434	bind be
-1.302115	bind grow
-1.302115	bind prove
-1.001085	bite <unk>
-1.001085	bite be
-1.001085	bite think
-1.10823	blame be
-1.802717	blame come
-1.802717	blame count
-1.408053	blame do
-1.802717	blame expose
-1.802717	blame find
-1.802717	blame get
-0.8841457	blame happen
-1.802717	blame have
-1.802717	blame manage
-1.802717	blame mean
-1.802717	blame play
-1.802717	blame throw
-1.427054	blast be
-1.427054	blast come
-1.427054	blast get
-1.427054	blast lose
-1.427054	blast pop
-1.03239	blast seem
-1.427054	blast walk
-1.126024	blister get
-1.126024	blister hold
-0.7313595	blister re-open
-1.670092	blitz <unk>
-1.275428	blitz be
-1.670092	blitz blitz
-1.670092	blitz claim
-1.670092	blitz come
-1.670092	blitz do
-1.670092	blitz go
-1.670092	blitz happen
-1.670092	blitz miss
-1.670092	blitz pass
-1.670092	blitz run
-1.670092	blitz wave
-1.670092	blitz work
-2.205205	block <unk>
-1.810541	block aim
-0.8072879	block be
-2.205205	block block
-2.205205	block break
-1.810541	block bring
-2.205205	block continue
-1.810541	block curl
-2.205205	block do
-2.205205	block end
-2.205205	block get
-1.810541	block give
-2.205205	block know
-1.810541	block make
-1.810541	block need
-2.205205	block pick
-1.810541	block play
-2.205205	block pounce
-2.205205	block protect
-2.205205	block punt
-2.205205	block recover
-2.205205	block return
-2.205205	block save
-2.205205	block shake
-2.205205	block shine
-2.205205	block show
-2.205205	block start
-2.205205	block stop
-2.205205	block strike
-1.510718	block think
-2.205205	block win
-0.4315366	blogg </s>
-1.126024	blogg be
-2.231534	blow </s>
-2.231534	blow allow
-0.7791286	blow be
-2.231534	blow believe
-2.231534	blow continue
-2.231534	blow create
-2.231534	blow deny
-2.231534	blow expect
-2.231534	blow fire
-1.83687	blow get
-1.16588	blow give
-2.231534	blow go
-2.231534	blow hear
-2.231534	blow include
-2.231534	blow juke
-2.231534	blow look
-2.231534	blow lose
-2.231534	blow mention
-2.231534	blow notch
-2.231534	blow pick
-2.231534	blow pitch
-2.231534	blow respond
-2.231534	blow run
-2.231534	blow score
-1.83687	blow see
-2.231534	blow slow
-1.83687	blow tackle
-1.312962	blow take
-2.231534	blow think
-2.231534	blow throw
-1.83687	blow win
-0.8249936	bob be
-0.8249936	bob wait
-1.001085	bobble be
-1.001085	bobble hit
-1.001085	bobble take
-0.8249936	bode look
-0.8249936	bode think
-0.4303295	bolster be
-1.126024	bomb allow
-0.7313595	bomb cut
-1.126024	bomb intercept
-1.369062	boo </s>
-0.6745746	boo be
-1.369062	boo mention
-1.369062	boo take
-1.369062	boo tire
-0.9074508	book be
-0.9074508	book find
-0.9074508	book lead
-0.4303295	boost go
-1.001085	boot double
-1.001085	boot expect
-1.001085	boot leave
-0.8249936	botch decide
-0.8249936	botch disappoint
-1.478206	bother </s>
-0.7837191	bother <unk>
-1.478206	bother believe
-1.478206	bother get
-1.478206	bother go
-1.478206	bother grow
-1.478206	bother send
-0.8249936	bottle allow
-0.8249936	bottle throw
-1.986362	bounce </s>
-1.591698	bounce <unk>
-1.291875	bounce be
-1.986362	bounce convert
-1.986362	bounce cover
-1.986362	bounce dip
-1.986362	bounce do
-1.986362	bounce enjoy
-1.591698	bounce find
-1.291875	bounce get
-1.986362	bounce go
-1.986362	bounce happen
-1.291875	bounce have
-1.986362	bounce like
-1.986362	bounce put
-1.986362	bounce return
-1.591698	bounce score
-1.986362	bounce send
-1.986362	bounce sink
-1.986362	bounce win
-0.8249936	brace <unk>
-0.8249936	brace dominate
-2.150489	break </s>
-1.850666	break <unk>
-1.850666	break allow
-0.8313933	break be
-2.150489	break bind
-2.150489	break bring
-2.545153	break combine
-2.545153	break come
-2.545153	break cover
-2.545153	break cross
-2.545153	break dislocate
-1.209555	break do
-2.545153	break face
-2.150489	break fight
-2.545153	break find
-2.150489	break finish
-2.545153	break gain
-1.850666	break get
-2.545153	break go
-2.545153	break happen
-1.092748	break have
-2.545153	break hed
-2.545153	break highlight
-2.545153	break hold
-1.850666	break keep
-2.545153	break look
-2.545153	break make
-2.545153	break own
-2.545153	break publish
-2.545153	break punch
-2.545153	break put
-2.545153	break recall
-2.545153	break remember
-2.545153	break remind
-2.545153	break return
-2.545153	break root
-2.150489	break rough
-2.545153	break run
-2.545153	break say
-2.545153	break secure
-2.545153	break send
-2.150489	break shoot
-2.545153	break spot
-2.545153	break start
-2.150489	break stay
-2.545153	break swim
-2.545153	break tackle
-1.626581	break take
-2.545153	break think
-2.545153	break turn
-2.545153	break unpick
-2.545153	break use
-2.150489	break win
-1.001085	breathe <unk>
-0.6064208	breathe be
-0.8249936	breed cement
-0.8249936	breed mean
-0.8249936	bridge post
-0.8249936	bridge save
-2.51519	bring </s>
-0.7245032	bring be
-2.51519	bring bring
-2.51519	bring cheer
-2.51519	bring clear
-2.51519	bring come
-2.120526	bring compete
-2.120526	bring concern
-2.51519	bring count
-1.820703	bring decide
-2.51519	bring describe
-1.339862	bring do
-2.51519	bring face
-2.51519	bring find
-2.51519	bring fly
-2.51519	bring follow
-1.449535	bring get
-2.51519	bring give
-2.120526	bring go
-2.51519	bring ground
-1.179591	bring have
-2.51519	bring injure
-2.120526	bring kick
-2.51519	bring look
-2.51519	bring lose
-2.51519	bring lunge
-2.120526	bring make
-2.51519	bring need
-2.51519	bring put
-2.51519	bring remain
-2.120526	bring run
-2.51519	bring rush
-2.51519	bring share
-2.51519	bring shine
-2.51519	bring slow
-2.51519	bring speak
-2.120526	bring start
-2.51519	bring succeed
-2.51519	bring suspend
-2.120526	bring take
-2.120526	bring think
-2.120526	bring throw
-2.51519	bring tie
-2.51519	bring try
-2.51519	bring turn
-2.120526	bring walk
-2.51519	bring wan
-2.51519	bring want
-2.120526	bring work
-0.8249936	broaden get
-0.8249936	broaden happen
-1.001085	buckle be
-1.001085	buckle open
-1.001085	buckle put
-1.451519	build </s>
-1.451519	build be
-1.846183	build build
-1.846183	build end
-1.846183	build frustrate
-1.846183	build get
-1.846183	build go
-0.9276114	build have
-1.846183	build increase
-1.846183	build lead
-1.451519	build look
-1.846183	build lose
-1.846183	build need
-1.846183	build predict
-1.846183	build recall
-1.222934	bump be
-1.222934	bump fall
-1.222934	bump get
-1.222934	bump name
-1.222934	bump use
-0.4303295	buoy be
-1.700055	burn be
-1.700055	burn bet
-1.700055	burn convert
-1.700055	burn didnt
-1.700055	burn glue
-1.700055	burn go
-1.005568	burn have
-1.700055	burn lead
-1.700055	burn make
-1.700055	burn need
-1.700055	burn pay
-1.305391	burn wan
-0.9743976	burst clatter
-0.9743976	burst put
-1.369062	burst regain
-0.9743976	burst see
-0.8249936	bust be
-0.8249936	bust wind
-1.384572	buy be
-1.779236	buy coach
-1.779236	buy do
-1.779236	buy factor
-1.779236	buy get
-1.779236	buy give
-1.779236	buy go
-1.779236	buy guarantee
-1.384572	buy have
-1.384572	buy know
-1.779236	buy open
-1.779236	buy score
-1.779236	buy show
-1.779236	buy tell
-1.779236	buy try
-0.8249936	buzz be
-0.8249936	buzz keep
-0.4303295	calculate find
-2.269179	call </s>
-2.663843	call <unk>
-2.663843	call anticipate
-2.663843	call argue
-2.663843	call battle
-0.7169465	call be
-2.663843	call block
-2.663843	call bust
-1.598189	call come
-2.663843	call continue
-2.663843	call create
-2.663843	call cross
-2.663843	call decide
-1.598189	call do
-2.663843	call drop
-2.663843	call face
-2.269179	call fake
-2.663843	call feel
-2.663843	call field
-2.663843	call find
-2.663843	call fool
-2.663843	call force
-2.663843	call frustrate
-1.401028	call get
-2.269179	call give
-1.969356	call go
-1.01016	call have
-2.269179	call hold
-2.663843	call include
-2.663843	call latch
-2.269179	call line
-2.663843	call look
-1.745271	call make
-2.663843	call mention
-2.663843	call miss
-1.969356	call move
-2.663843	call pick
-2.663843	call play
-2.663843	call push
-2.663843	call put
-2.663843	call recover
-2.663843	call remind
-2.269179	call run
-2.663843	call satisfy
-2.663843	call save
-1.969356	call see
-2.663843	call settle
-2.663843	call shred
-2.663843	call spread
-1.969356	call start
-2.663843	call suck
-2.663843	call surrender
-2.663843	call tack
-1.969356	call take
-2.269179	call talk
-2.663843	call tell
-2.663843	call think
-2.269179	call throw
-2.663843	call turn
-2.663843	call wake
-2.663843	call want
-2.663843	call wonder
-0.8249936	calm get
-0.8249936	calm have
-1.001085	cancel be
-1.001085	cancel go
-1.001085	cancel look
-1.904175	cant <unk>
-1.904175	cant admit
-1.209688	cant be
-1.904175	cant become
-1.904175	cant catch
-1.904175	cant dont
-1.904175	cant feel
-1.904175	cant get
-1.209688	cant have
-1.904175	cant havent
-1.904175	cant he
-1.509511	cant help
-1.904175	cant like
-1.904175	cant look
-1.904175	cant pass
-1.904175	cant stop
-1.904175	cant that
-1.904175	cant try
-1.904175	cant wonder
-1.700055	cap <unk>
-0.6344007	cap be
-1.700055	cap bet
-1.700055	cap change
-1.700055	cap come
-1.700055	cap cut
-1.700055	cap have
-1.700055	cap homer
-1.700055	cap kick
-1.700055	cap open
-1.700055	cap use
-1.427054	capitalize answer
-1.427054	capitalize be
-1.03239	capitalize come
-1.427054	capitalize ensue
-1.427054	capitalize redeem
-1.427054	capitalize say
-1.427054	capitalize tackle
-0.8249936	capture capture
-0.8249936	capture have
-0.5284466	care be
-1.222934	care find
-1.222934	care get
-2.014168	carry <unk>
-2.313991	carry allow
-2.014168	carry average
-0.7784768	carry be
-2.708655	carry boot
-1.023896	carry carry
-2.708655	carry come
-2.708655	carry connect
-2.708655	carry consider
-2.708655	carry continue
-2.313991	carry contribute
-2.313991	carry cut
-2.708655	carry dismantle
-1.373057	carry do
-2.708655	carry earn
-2.708655	carry end
-2.708655	carry establish
-2.708655	carry flash
-2.708655	carry force
-2.708655	carry gain
-1.533327	carry get
-2.014168	carry give
-1.533327	carry go
-2.708655	carry handle
-2.708655	carry happen
-1.207842	carry have
-2.708655	carry hit
-2.708655	carry include
-2.313991	carry keep
-2.313991	carry knock
-2.708655	carry let
-2.708655	carry look
-2.708655	carry manage
-2.708655	carry miss
-2.708655	carry move
-2.708655	carry own
-2.708655	carry pick
-2.014168	carry play
-2.708655	carry put
-2.708655	carry rank
-2.708655	carry receive
-2.708655	carry record
-2.708655	carry rely
-2.313991	carry return
-2.014168	carry run
-2.014168	carry rush
-2.708655	carry score
-2.014168	carry see
-2.708655	carry seem
-2.708655	carry serve
-2.708655	carry set
-2.708655	carry settle
-2.708655	carry shot
-2.708655	carry show
-2.708655	carry sign
-2.708655	carry slow
-2.708655	carry stack
-2.313991	carry stand
-1.790084	carry throw
-2.708655	carry wait
-2.708655	carry waste
-2.189997	catch </s>
-1.519007	catch <unk>
-2.584661	catch add
-0.7939749	catch be
-2.584661	catch beat
-2.584661	catch bottle
-2.584661	catch burn
-1.890174	catch catch
-1.890174	catch come
-2.584661	catch complete
-2.584661	catch continue
-2.584661	catch cost
-2.189997	catch counter
-2.584661	catch cut
-1.519007	catch do
-2.584661	catch face
-2.189997	catch fall
-2.584661	catch get
-1.409333	catch go
-1.249063	catch have
-1.66609	catch hit
-2.584661	catch jump
-2.584661	catch knock
-2.584661	catch know
-2.189997	catch look
-2.584661	catch lose
-2.189997	catch make
-2.584661	catch manage
-2.584661	catch move
-2.584661	catch net
-2.584661	catch overcome
-2.584661	catch pitch
-2.189997	catch play
-2.584661	catch post
-2.584661	catch pull
-2.584661	catch rank
-2.584661	catch relax
-2.189997	catch release
-2.584661	catch remain
-2.189997	catch run
-2.584661	catch score
-2.584661	catch scream
-2.584661	catch seal
-2.584661	catch see
-2.584661	catch show
-1.890174	catch start
-2.584661	catch tackle
-2.584661	catch take
-1.890174	catch throw
-2.189997	catch tie
-2.584661	catch touch
-2.189997	catch turn
-2.584661	catch understand
-2.584661	catch watch
-2.584661	catch yell
-2.068032	cause </s>
-1.673368	cause <unk>
-2.068032	cause admit
-2.068032	cause allow
-2.068032	cause average
-1.14946	cause be
-2.068032	cause begin
-2.068032	cause combine
-2.068032	cause come
-2.068032	cause do
-1.373545	cause get
-1.14946	cause have
-2.068032	cause hold
-1.673368	cause jump
-2.068032	cause kick
-2.068032	cause look
-2.068032	cause race
-2.068032	cause run
-1.14946	cause see
-2.068032	cause toss
-1.673368	cause win
-1.208481	celebrate <unk>
-0.6845734	celebrate be
-1.603145	celebrate begin
-1.603145	celebrate get
-1.603145	celebrate have
-1.603145	celebrate save
-1.603145	celebrate start
-1.603145	celebrate thump
-1.001085	cement </s>
-1.001085	cement be
-1.001085	cement hand
-1.427054	center continue
-1.427054	center go
-1.427054	center have
-1.427054	center pass
-1.427054	center pop
-1.03239	center run
-1.427054	center strand
-1.208481	challenge <unk>
-1.603145	challenge be
-1.603145	challenge begin
-1.603145	challenge dribble
-1.603145	challenge get
-1.603145	challenge go
-1.208481	challenge have
-1.603145	challenge pass
-1.603145	challenge remain
-1.603145	challenge review
-1.819496	change </s>
-2.21416	change <unk>
-1.819496	change air
-0.8162427	change be
-2.21416	change beat
-2.21416	change bet
-2.21416	change blame
-2.21416	change claim
-2.21416	change complete
-2.21416	change continue
-2.21416	change feel
-2.21416	change follow
-1.519673	change get
-1.519673	change go
-2.21416	change have
-2.21416	change house
-2.21416	change inform
-2.21416	change keep
-2.21416	change look
-2.21416	change lose
-2.21416	change manage
-2.21416	change mind
-2.21416	change miss
-2.21416	change move
-2.21416	change pass
-1.819496	change play
-2.21416	change see
-2.21416	change struggle
-2.21416	change take
-1.819496	change think
-2.21416	change turn
-2.21416	change wake
-2.21416	change watch
-1.243243	charge allow
-1.637907	charge be
-1.637907	charge do
-1.637907	charge end
-1.637907	charge go
-1.637907	charge make
-1.637907	charge move
-1.637907	charge pay
-1.637907	charge score
-1.637907	charge throw
-1.243243	charge tie
-1.603145	chase </s>
-0.4278168	chase be
-1.208481	chase have
-1.603145	chase score
-1.603145	chase seem
-1.603145	chase snap
-0.8358411	check </s>
-0.8358411	check be
-1.754413	check check
-1.754413	check drive
-1.754413	check fall
-1.754413	check go
-1.754413	check have
-1.754413	check lead
-1.754413	check rank
-1.754413	check there
-1.754413	check work
-1.824994	cheer </s>
-1.824994	cheer arrive
-0.4893952	cheer be
-1.824994	cheer do
-1.824994	cheer feel
-1.43033	cheer fight
-1.824994	cheer lead
-1.43033	cheer play
-1.824994	cheer set
-1.824994	cheer show
-1.824994	cheer stop
-0.8249936	chew set
-0.8249936	chew want
-1.302115	chip allow
-1.302115	chip come
-1.302115	chip go
-1.302115	chip look
-1.302115	chip round
-1.302115	chip tie
-0.7837191	choose be
-1.083542	choose get
-1.083542	choose have
-1.478206	choose send
-1.478206	choose start
-0.8282695	chop book
-1.222934	chop confuse
-1.222934	chop do
-1.222934	chop handle
-1.802717	claim <unk>
-1.802717	claim add
-1.802717	claim aim
-1.802717	claim be
-1.802717	claim deal
-1.802717	claim do
-1.802717	claim execute
-1.10823	claim have
-1.802717	claim head
-1.408053	claim lead
-1.802717	claim prevent
-1.802717	claim save
-1.802717	claim show
-1.802717	claim surpass
-1.802717	claim turn
-1.802717	claim wonder
-0.8282695	clatter clear
-0.8282695	clatter do
-1.222934	clatter take
-1.001085	claw guide
-1.001085	claw present
-1.001085	claw say
-1.369062	clean </s>
-1.369062	clean <unk>
-1.369062	clean be
-1.369062	clean give
-1.369062	clean hold
-1.369062	clean lay
-1.369062	clean need
-0.904938	clear be
-2.080266	clear continue
-2.080266	clear control
-2.080266	clear do
-1.685602	clear drift
-2.080266	clear drop
-2.080266	clear follow
-2.080266	clear give
-2.080266	clear glance
-2.080266	clear go
-1.685602	clear have
-2.080266	clear hit
-2.080266	clear include
-2.080266	clear let
-2.080266	clear lose
-2.080266	clear make
-2.080266	clear miss
-1.385779	clear put
-1.685602	clear send
-1.685602	clear step
-1.685602	clear swing
-1.685602	clear throw
-2.080266	clear turn
-1.565356	click </s>
-1.565356	click be
-1.170692	click have
-1.565356	click know
-1.565356	click pass
-1.565356	click rattle
-1.565356	click shut
-1.565356	click stifle
-1.170692	click think
-0.8249936	climb be
-0.8249936	climb put
-1.369062	clinch be
-1.369062	clinch list
-1.369062	clinch lose
-1.369062	clinch play
-1.369062	clinch set
-1.369062	clinch slump
-1.369062	clinch win
-2.080266	close <unk>
-0.627861	close be
-2.080266	close come
-2.080266	close end
-2.080266	close fill
-1.385779	close get
-2.080266	close give
-1.161695	close have
-2.080266	close he
-2.080266	close let
-2.080266	close make
-2.080266	close preserve
-2.080266	close put
-2.080266	close show
-2.080266	close start
-1.685602	close take
-2.080266	close tie
-2.080266	close touch
-2.080266	close try
-2.080266	close walk
-2.080266	close win
-0.8249936	club get
-0.8249936	club win
-2.068032	coach </s>
-2.068032	coach ask
-1.002378	coach be
-2.068032	coach develop
-2.068032	coach do
-2.068032	coach drum
-2.068032	coach give
-1.673368	coach go
-1.373545	coach have
-2.068032	coach look
-2.068032	coach match
-2.068032	coach play
-2.068032	coach prepare
-2.068032	coach pride
-2.068032	coach prove
-2.068032	coach pull
-2.068032	coach rally
-2.068032	coach run
-2.068032	coach say
-1.373545	coach see
-1.673368	coach stop
-2.068032	coach take
-2.068032	coach think
-2.068032	coach work
-2.068032	coach wrangle
-1.001085	collapse catch
-1.001085	collapse concern
-1.001085	collapse pick
-1.491027	collect <unk>
-1.885691	collect allow
-1.491027	collect be
-1.885691	collect collect
-1.885691	collect diagnose
-1.885691	collect extend
-1.885691	collect give
-1.885691	collect go
-1.885691	collect harass
-0.7103633	collect have
-1.885691	collect hit
-1.885691	collect involve
-1.885691	collect resume
-1.885691	collect save
-1.885691	collect say
-1.885691	collect slug
-1.001085	collide get
-1.001085	collide make
-1.001085	collide miss
-1.40926	combine allow
-0.9284191	combine be
-2.103747	combine beat
-2.103747	combine blow
-2.103747	combine continue
-2.103747	combine cut
-2.103747	combine do
-2.103747	combine dominate
-2.103747	combine earn
-1.709083	combine end
-2.103747	combine face
-2.103747	combine go
-1.038093	combine have
-1.709083	combine hit
-2.103747	combine look
-1.709083	combine overlap
-2.103747	combine pitch
-2.103747	combine provide
-2.103747	combine remain
-2.103747	combine retire
-2.103747	combine say
-2.103747	combine throw
-2.103747	combine walk
-2.103747	combine win
-2.162883	come </s>
-1.940294	come <unk>
-3.338211	come accumulate
-2.943547	come add
-2.075396	come allow
-3.338211	come appear
-3.338211	come arent
-3.338211	come ask
-3.338211	come attack
-3.338211	come award
-0.7593248	come be
-3.338211	come bear
-3.338211	come beat
-2.943547	come become
-3.338211	come begin
-3.338211	come believe
-3.338211	come bench
-2.943547	come blitz
-3.338211	come block
-3.338211	come blow
-2.943547	come bounce
-2.643724	come break
-2.41964	come call
-2.943547	come carry
-3.338211	come cause
-3.338211	come challenge
-3.338211	come check
-2.943547	come cheer
-2.943547	come chop
-3.338211	come clean
-3.338211	come clear
-3.338211	come coach
-1.718002	come come
-3.338211	come complete
-3.338211	come concern
-2.943547	come continue
-3.338211	come cross
-3.338211	come decide
-3.338211	come demolish
-2.943547	come didnt
-1.547525	come do
-2.41964	come dominate
-2.643724	come double
-3.338211	come draw
-3.338211	come drill
-2.643724	come drive
-2.943547	come end
-3.338211	come enjoy
-3.338211	come execute
-2.943547	come expect
-3.338211	come fade
-2.643724	come fail
-2.943547	come fall
-3.338211	come fare
-3.338211	come favor
-2.643724	come feel
-2.943547	come find
-2.943547	come finish
-3.338211	come fire
-3.338211	come fix
-3.338211	come flash
-3.338211	come float
-2.41964	come force
-3.338211	come forget
-3.338211	come fumble
-1.597267	come get
-1.754272	come give
-1.391315	come go
-2.943547	come grab
-3.338211	come guess
-2.943547	come hand
-3.338211	come handle
-2.272557	come happen
-1.276669	come have
-3.338211	come head
-1.940294	come hit
-2.162883	come hold
-3.338211	come hope
-3.338211	come hurl
-2.643724	come hurt
-3.338211	come impress
-2.643724	come include
-2.943547	come initiate
-3.338211	come isnt
-3.338211	come issue
-3.338211	come jump
-3.338211	come keep
-3.338211	come kick
-3.338211	come knock
-2.643724	come know
-2.272557	come lead
-2.162883	come leave
-2.643724	come let
-2.643724	come lift
-3.338211	come like
-2.643724	come line
-3.338211	come load
-1.885806	come look
-2.643724	come lose
-3.338211	come love
-1.837398	come make
-2.643724	come manage
-3.338211	come match
-3.338211	come mean
-3.338211	come miss
-2.943547	come move
-2.943547	come need
-2.943547	come nod
-3.338211	come outdo
-2.943547	come overthrow
-3.338211	come pass
-3.338211	come perform
-2.943547	come pick
-2.943547	come ping
-2.643724	come pitch
-1.885806	come play
-3.338211	come plow
-3.338211	come point
-3.338211	come prepare
-3.338211	come pressure
-3.338211	come progress
-3.338211	come prompt
-2.943547	come provide
-3.338211	come punch
-2.643724	come punt
-2.002613	come put
-3.338211	come rally
-3.338211	come rank
-3.338211	come read
-3.338211	come realize
-3.338211	come record
-3.338211	come recover
-3.338211	come refocus
-3.338211	come regain
-3.338211	come relieve
-3.338211	come remain
-2.643724	come remember
-2.943547	come risk
-1.885806	come run
-2.41964	come rush
-3.338211	come save
-2.075396	come say
-1.684529	come score
-2.272557	come see
-3.338211	come seem
-3.338211	come settle
-3.338211	come shake
-3.338211	come show
-3.338211	come sit
-3.338211	come slam
-2.943547	come smash
-3.338211	come speak
-2.162883	come start
-2.943547	come steal
-2.943547	come stop
-2.643724	come strike
-3.338211	come sum
-3.338211	come swim
-3.338211	come tackle
-1.754272	come take
-3.338211	come tear
-3.338211	come that
-2.162883	come think
-2.162883	come throw
-3.338211	come tie
-3.338211	come tip
-3.338211	come touch
-3.338211	come track
-2.943547	come trail
-2.41964	come try
-2.643724	come turn
-2.643724	come walk
-2.41964	come want
-3.338211	come wasnt
-3.338211	come watch
-1.885806	come win
-2.643724	come work
-2.943547	come write
-1.222934	comment <unk>
-0.8282695	comment be
-0.8282695	comment have
-1.938937	commit arent
-1.020365	commit be
-1.938937	commit catch
-1.544273	commit change
-1.938937	commit drop
-1.938937	commit expect
-1.938937	commit flag
-1.938937	commit follow
-1.938937	commit forget
-1.24445	commit get
-1.938937	commit have
-1.938937	commit hold
-1.938937	commit look
-1.938937	commit put
-1.938937	commit recover
-1.938937	commit result
-1.938937	commit rip
-1.938937	commit score
-1.938937	commit seem
-1.938937	commit stop
-1.824994	compare </s>
-1.824994	compare allow
-0.9064221	compare be
-1.824994	compare beat
-1.824994	compare benefit
-1.824994	compare click
-1.130507	compare do
-1.824994	compare expect
-1.824994	compare give
-1.43033	compare go
-1.824994	compare look
-1.824994	compare strike
-1.43033	compare win
-1.904175	compete </s>
-1.904175	compete appear
-1.904175	compete attempt
-0.7288468	compete be
-1.904175	compete come
-1.904175	compete fail
-1.904175	compete get
-1.904175	compete go
-1.209688	compete have
-1.904175	compete make
-1.904175	compete seek
-1.904175	compete sound
-1.904175	compete start
-0.9856034	compete win
-0.7325666	complain be
-1.427054	complain give
-1.427054	complain play
-1.427054	complain scatter
-1.427054	complain score
-1.427054	complain win
-2.427054	complete </s>
-2.427054	complete <unk>
-2.427054	complete accomplish
-2.03239	complete allow
-2.427054	complete battle
-0.9746485	complete be
-2.427054	complete begin
-2.427054	complete blow
-2.427054	complete bring
-2.427054	complete call
-2.03239	complete carry
-1.361399	complete come
-2.427054	complete connect
-2.427054	complete design
-1.508482	complete do
-2.427054	complete earn
-2.427054	complete end
-2.427054	complete force
-1.732567	complete get
-2.427054	complete give
-2.427054	complete go
-1.029137	complete have
-2.427054	complete lead
-2.427054	complete leave
-2.427054	complete look
-1.508482	complete make
-2.427054	complete matter
-2.03239	complete mean
-2.427054	complete open
-2.427054	complete pass
-2.427054	complete play
-2.427054	complete playmake
-2.427054	complete pose
-2.427054	complete punt
-2.427054	complete put
-2.427054	complete read
-1.732567	complete score
-2.427054	complete spark
-2.427054	complete stall
-2.03239	complete start
-2.427054	complete talk
-2.427054	complete that
-2.427054	complete use
-2.427054	complete wait
-2.427054	complete want
-1.478206	concede <unk>
-1.083542	concede be
-1.478206	concede fool
-1.478206	concede have
-1.478206	concede hit
-1.478206	concede lead
-1.478206	concede put
-1.478206	concede seem
-0.9086578	concern be
-1.603145	concern bind
-1.208481	concern do
-1.603145	concern have
-1.603145	concern jettison
-1.603145	concern need
-1.603145	concern play
-1.603145	concern put
-1.603145	concern think
-1.222934	conclude </s>
-1.222934	conclude choose
-1.222934	conclude come
-1.222934	conclude drive
-1.222934	conclude win
-0.6845734	confirm be
-1.208481	confirm clear
-1.208481	confirm follow
-1.208481	confirm hear
-1.603145	confirm make
-1.603145	confirm that
-0.8249936	confront avoid
-0.8249936	confront find
-1.222934	confuse correct
-1.222934	confuse go
-1.222934	confuse set
-1.222934	confuse survive
-1.222934	confuse tell
-0.8282695	congratulate be
-1.222934	congratulate say
-1.222934	congratulate share
-1.222934	congratulate think
-1.986362	connect answer
-0.7235467	connect be
-1.986362	connect carry
-1.986362	connect complete
-1.986362	connect count
-1.986362	connect enjoy
-1.591698	connect explain
-1.591698	connect have
-1.591698	connect initiate
-1.986362	connect keep
-1.986362	connect leave
-1.986362	connect play
-1.986362	connect push
-1.986362	connect roll
-1.986362	connect run
-1.591698	connect score
-1.986362	connect shine
-1.591698	connect throw
-1.819496	consider </s>
-2.21416	consider <unk>
-0.5939505	consider be
-2.21416	consider cheer
-2.21416	consider consider
-2.21416	consider cut
-2.21416	consider do
-2.21416	consider field
-1.819496	consider get
-2.21416	consider give
-2.21416	consider go
-2.21416	consider grab
-2.21416	consider have
-2.21416	consider hear
-2.21416	consider hit
-1.519673	consider include
-2.21416	consider inject
-2.21416	consider kick
-2.21416	consider know
-1.519673	consider leave
-2.21416	consider make
-2.21416	consider overcome
-2.21416	consider play
-2.21416	consider say
-2.21416	consider show
-2.21416	consider suspend
-2.21416	consider tag
-1.819496	consider take
-2.21416	consider win
-1.001085	consist <unk>
-1.001085	consist cry
-1.001085	consist give
-0.9074508	contain be
-1.302115	contain have
-1.302115	contain look
-1.302115	contain throw
-1.302115	contain waltz
-1.302115	contend be
-1.302115	contend give
-1.302115	contend have
-0.9074508	contend negate
-1.302115	contend return
-1.001085	contest be
-1.001085	contest break
-1.001085	contest come
-2.557387	continue allow
-2.557387	continue appear
-2.557387	continue bang
-0.6104912	continue be
-2.557387	continue beat
-2.557387	continue come
-2.557387	continue commit
-2.557387	continue connect
-1.8629	continue do
-2.557387	continue fail
-2.557387	continue fall
-2.557387	continue find
-1.638816	continue force
-1.8629	continue get
-2.557387	continue give
-1.382059	continue go
-2.557387	continue hate
-1.104982	continue have
-2.557387	continue hit
-2.557387	continue hope
-2.557387	continue include
-2.557387	continue lead
-2.557387	continue leave
-2.557387	continue let
-2.162723	continue look
-1.8629	continue lose
-2.557387	continue maintain
-2.557387	continue make
-2.557387	continue move
-1.638816	continue pass
-2.162723	continue pitch
-2.557387	continue prove
-2.557387	continue rush
-2.557387	continue save
-2.557387	continue score
-2.557387	continue scramble
-2.557387	continue shine
-2.162723	continue show
-2.557387	continue start
-2.557387	continue stop
-2.557387	continue strand
-2.557387	continue struggle
-2.557387	continue take
-2.162723	continue think
-1.8629	continue throw
-2.557387	continue use
-2.557387	continue walk
-2.162723	continue win
-0.9743976	contribute block
-1.369062	contribute drive
-1.369062	contribute lose
-0.9743976	contribute scamper
-1.369062	contribute walk
-2.001085	control accommodate
-2.001085	control attack
-1.606421	control be
-2.001085	control blitz
-2.001085	control bring
-2.001085	control change
-2.001085	control come
-1.082513	control do
-2.001085	control dominate
-2.001085	control dont
-2.001085	control edge
-2.001085	control get
-2.001085	control have
-2.001085	control help
-1.606421	control let
-2.001085	control love
-2.001085	control make
-2.001085	control need
-2.001085	control play
-2.001085	control put
-2.001085	control recover
-2.001085	control see
-2.001085	control seem
-2.001085	control string
-2.001085	control talk
-1.938937	convert <unk>
-0.7636089	convert be
-1.938937	convert come
-1.938937	convert convert
-1.938937	convert cost
-1.938937	convert fake
-1.544273	convert give
-1.544273	convert go
-0.8732828	convert have
-1.938937	convert keep
-1.938937	convert make
-1.938937	convert remain
-1.938937	convert see
-1.938937	convert throw
-1.938937	convert tie
-1.126024	convince be
-1.126024	convince creep
-1.126024	convince go
-1.126024	convince improve
-1.001085	cook bet
-1.001085	cook do
-1.001085	cook look
-1.001085	cool come
-1.001085	cool have
-1.001085	cool hit
-1.222934	cope cant
-1.222934	cope put
-1.222934	cope save
-1.222934	cope score
-1.222934	cope tackle
-1.302115	correct <unk>
-0.6076279	correct be
-1.302115	correct chop
-1.302115	correct have
-0.9434199	cost be
-1.637907	cost blast
-1.637907	cost go
-1.637907	cost happen
-1.637907	cost hit
-1.637907	cost play
-1.243243	cost praise
-1.637907	cost score
-1.243243	cost take
-1.001085	cough be
-1.001085	cough catch
-1.001085	cough hook
-1.369062	couldnt be
-1.369062	couldnt do
-1.369062	couldnt go
-1.369062	couldnt have
-1.369062	couldnt involve
-1.369062	couldnt remind
-1.369062	couldnt werent
-0.5621787	count be
-1.824994	count beat
-1.824994	count do
-1.824994	count fall
-1.43033	count have
-1.824994	count hit
-1.824994	count lead
-1.43033	count leave
-1.824994	count predict
-1.824994	count seem
-1.824994	count tackle
-1.824994	count wait
-1.302115	counter average
-0.9074508	counter be
-1.302115	counter do
-0.9074508	counter think
-1.126024	couple be
-1.126024	couple draw
-1.126024	couple feature
-1.126024	couple seem
-1.697501	cover <unk>
-0.7565669	cover be
-2.092165	cover believe
-1.697501	cover catch
-2.092165	cover demolish
-1.697501	cover do
-2.092165	cover hang
-1.397678	cover have
-2.092165	cover impress
-2.092165	cover look
-1.697501	cover mean
-1.697501	cover pound
-2.092165	cover put
-2.092165	cover recover
-2.092165	cover run
-1.697501	cover say
-2.092165	cover start
-2.092165	cover struggle
-2.092165	cover suppose
-2.092165	cover take
-2.092165	cover throw
-2.092165	cover utilize
-1.478206	crack <unk>
-1.478206	crack arrive
-1.478206	crack be
-1.083542	crack clear
-1.478206	crack fail
-1.478206	crack go
-1.478206	crack have
-1.478206	crack step
-0.8249936	crank make
-0.8249936	crank tie
-1.001085	crash block
-1.001085	crash do
-1.001085	crash understand
-0.8249936	crawl be
-0.8249936	crawl tell
-2.167416	create <unk>
-2.167416	create allow
-0.9920882	create be
-2.167416	create build
-2.167416	create continue
-2.167416	create create
-2.167416	create cross
-1.772752	create do
-2.167416	create expose
-2.167416	create fail
-2.167416	create fix
-1.772752	create get
-2.167416	create give
-2.167416	create happen
-1.772752	create have
-1.772752	create head
-2.167416	create judge
-2.167416	create keep
-2.167416	create kick
-2.167416	create move
-1.772752	create play
-2.167416	create produce
-2.167416	create provide
-2.167416	create put
-2.167416	create rebound
-2.167416	create result
-2.167416	create run
-1.772752	create score
-2.167416	create start
-2.167416	create steal
-2.167416	create try
-2.167416	create walk
