
\data\
ngram 1=2790
ngram 2=20963

\1-grams:
-3.940381	!!|	-0.110324
-1.974309	</s>
-99	<s>	-0.235156
-1.237806	<unk>	-0.009763479
-3.958168	abandon|game	-0.08916774
-3.834663	abandon|it	-0.2575336
-3.958168	abandon|run	-0.1322037
-3.264367	accept|	-0.1841878
-3.834663	accept|it	-0.09226146
-3.958168	accommodate|	-0.118493
-3.834663	accompany|	-0.1768954
-3.940381	accompany|PERSON	-0.08855955
-3.588677	accomplish|	-0.08049879
-3.451942	accord|	-0.08449629
-3.588677	account|	-0.03877031
-3.958168	accumulate|penalty	-0.1503287
-3.958168	accuse|he	-0.09175472
-3.958168	achieve|dream	-0.1139295
-3.958168	acknowledge|	-0.1171435
-3.958168	acquire|	-0.08865737
-3.958168	acquire|PERSON	-0.1185779
-3.588677	act|	-0.1308705
-3.958168	adapt|	-0.09265763
-3.940381	addict|	-0.06160338
-3.958168	address|poor	-0.1072165
-3.227865	add|	-0.08115608
-3.677531	add|MISC	-0.08647123
-3.958168	add|NUMBER	-0.117343
-3.834663	add|catch	-0.1784563
-3.958168	add|insurance	-0.09204121
-3.958168	add|other	-0.1180575
-3.789366	add|pair	-0.1221583
-3.958168	add|run	-0.1172598
-3.958168	add|touchdown	-0.08923427
-3.958168	add|walk	-0.1166878
-3.834663	add|what	-0.17829
-3.958168	add|yard	-0.08582149
-3.348105	admit|	-0.04679237
-3.958168	adopt|PERSON	-0.08830198
-3.940381	advance|	-0.08736506
-3.834663	advertise|	-0.1794731
-3.958168	affect|team	-0.1180463
-3.588677	afford|	-0.07371108
-3.834663	afford|it	-0.1746587
-3.958168	aggravate|	-0.08623049
-3.396928	agree|	-0.028584
-3.958168	aid|	-0.1183686
-3.940381	ail|	-0.101314
-3.51495	aim|	-0.09538953
-3.834663	aim|corner	-0.1796044
-3.958168	air|	-0.08867957
-2.772392	allow|	-0.1844578
-3.958168	allow|DURATION	-0.09252562
-3.958168	allow|I	-0.0783902
-3.677531	allow|LOCATION	-0.1156811
-3.033545	allow|NUMBER	-0.1488815
-3.677531	allow|ORGANIZATION	-0.1513023
-3.227865	allow|PERSON	-0.06267694
-3.958168	allow|chance	-0.1186421
-3.958168	allow|game	-0.1127548
-3.789366	allow|he	-0.1166482
-3.958168	allow|himself	-0.09259163
-2.748527	allow|hit	-0.1711462
-3.940381	allow|it	-0.1216354
-3.958168	allow|play	-0.2172422
-3.304221	allow|point	-0.07841771
-3.834663	allow|ren	-0.1788716
-2.602083	allow|run	-0.1470727
-3.789366	allow|runner	-0.1431718
-3.789366	allow|sack	-0.09515365
-3.958168	allow|she	-0.0783902
-3.588677	allow|they	-0.07493731
-3.958168	allow|total	-0.08934726
-3.958168	allow|uer	-0.1166026
-3.789366	allow|walk	-0.08278265
-3.396928	allow|yard	-0.1375949
-3.834663	alta|	-0.1113578
-3.940381	amass|yard	-0.1184084
-3.958168	amuse|	-0.09228349
-3.789366	anchor|	-0.0914281
-3.834663	anchor|staff	-0.1503287
-3.940381	announce|	-0.101314
-3.940381	annoy|	-0.08420726
-3.588677	answer|	-0.1555777
-3.834663	answer|NUMBER	-0.1181405
-3.958168	answer|question	-0.1569867
-3.958168	answer|run	-0.09276762
-3.940381	anticipate|	-0.08398288
-3.940381	apologize|	-0.09214455
-2.868062	appear|	-0.1568198
-3.958168	approach|	-0.08865737
-3.940381	arent|	-0.09162661
-3.588677	argue|	-0.07660139
-3.834663	argue|call	-0.1796181
-3.940381	arrive|	-0.077303
-3.133798	ask|	-0.09596518
-3.677531	ask|I	-0.08631714
-3.958168	ask|PERSON	-0.09281372
-3.940381	ask|question	-0.08582149
-3.958168	ask|she	-0.1186174
-3.588677	assist|	-0.1967546
-3.451942	assume|	-0.1340007
-3.789366	assure|	-0.07311098
-3.194194	attack|	-0.1864003
-3.958168	attack|we	-0.1142854
-3.304221	attempt|	-0.04788478
-3.958168	attempt|pass	-0.1106493
-3.451942	average|	-0.08160306
-3.958168	average|NUMBER	-0.08827976
-3.51495	average|yard	-0.1759556
-3.396928	avoid|	-0.1350665
-3.958168	avoid|penalty	-0.1172267
-3.834663	award|	-0.1796044
-3.958168	backfire|	-0.1537947
-3.396928	back|	-0.07173771
-3.940381	bail|PERSON	-0.08534977
-3.958168	bail|they	-0.09281372
-3.588677	base|	-0.09922843
-3.958168	base|point	-0.08934726
-3.958168	bask|	-0.08836864
-3.789366	batter|	-0.1067735
-3.51495	battle|	-0.0900223
-3.451942	bat|	-0.08635872
-3.51495	bear|	-0.07747933
-2.990943	beat|	-0.1329482
-3.789366	beat|LOCATION	-0.1108071
-3.958168	beat|MISC	-0.1567164
-3.940381	beat|NUMBER	-0.08813739
-3.958168	beat|Nationals	-0.1169355
-3.194194	beat|ORGANIZATION	-0.09123377
-3.304221	beat|PERSON	-0.1566021
-3.940381	beat|defender	-0.05414113
-3.958168	beat|player	-0.0783902
-3.789366	beat|record	-0.07197919
-3.958168	beat|school	-0.06165793
-3.789366	beat|team	-0.07904412
-3.677531	beat|they	-0.04396925
-2.760295	become|	-0.1566535
-2.737068	begin|	-0.2004636
-3.958168	begin|ORDINAL	-0.1163943
-3.958168	begin|season	-0.1160401
-3.958168	begin|series	-0.08403686
-3.080785	believe|	-0.1941752
-3.588677	believe|it	-0.088315
-3.958168	believe|what	-0.1140572
-3.51495	belong|	-0.1510245
-3.958168	belt|run	-0.1183893
-3.940381	bench|	-0.1272019
-3.940381	bend|	-0.09167964
-3.940381	benefit|	-0.08173274
-3.940381	berth|	-0.08709134
-3.348105	bet|	-0.07505246
-1.184922	be|	-0.0006284118
-3.958168	be|it	-0.1570283
-3.304221	be|what	-0.07564797
-3.789366	be|who	-0.1143941
-3.789366	bind|	-0.1181568
-3.789366	blame|	-0.08285016
-3.958168	blame|PERSON	-0.1569659
-3.958168	blame|coach	-0.1125868
-3.834663	blame|line	-0.1785394
-3.789366	blast|	-0.1117614
-3.834663	blast|homerun	-0.1780198
-3.958168	bleep|	-0.08830198
-3.958168	blister|	-0.1581146
-3.940381	blitz|	-0.08374131
-3.958168	blitz|NUMBER	-0.1146202
-3.958168	blitz|wr	-0.0858731
-3.011722	block|	-0.1462444
-3.834663	block|pass	-0.1767077
-3.958168	block|punt	-0.1177253
-3.958168	block|shot	-0.1174138
-3.834663	blogg|	-0.1750357
-2.990943	blow|	-0.2392109
-3.958168	blow|game	-0.0858731
-3.958168	blow|he	-0.09164448
-3.958168	blow|hype	-0.1156647
-3.958168	blow|it	-0.09207635
-3.677531	blow|lead	-0.1070407
-3.958168	blow|opportunity	-0.0844406
-3.958168	bob|	-0.08887935
-3.958168	bode|	-0.1117454
-3.834663	bolster|claim	-0.1503287
-3.834663	bomb|career	-0.1791413
-3.958168	bonehead|move	-0.1054257
-3.958168	book|	-0.1788217
-3.958168	boost|confidence	-0.1514225
-3.958168	boot|goal	-0.1172267
-3.588677	boo|	-0.1257524
-3.789366	bother|	-0.1670889
-3.958168	bother|I	-0.09171063
-3.194194	bounce|	-0.09009746
-3.958168	bounce|PERSON	-0.1140551
-3.958168	bounce|way	-0.08194488
-3.958168	brace|	-0.1537947
-2.737068	break|	-0.1753193
-3.940381	break|NUMBER	-0.08867057
-3.958168	break|defender	-0.09267963
-3.958168	break|mark	-0.08830198
-3.958168	break|news	-0.0928116
-3.834663	break|plane	-0.2499005
-3.958168	break|play	-0.08747
-3.194194	break|record	-0.1133163
-3.834663	break|tackler	-0.1788716
-3.940381	break|tie	-0.08902567
-3.940381	breathe|	-0.101314
-3.789366	breed|confidence	-0.08859712
-3.958168	bridge|gap	-0.1172475
-2.990943	bring|	-0.1637917
-3.940381	bring|MISC	-0.1165108
-3.834663	bring|NUMBER	-0.09863523
-3.958168	bring|ORDINAL	-0.08887935
-3.958168	bring|ORGANIZATION	-0.09221742
-3.396928	bring|PERSON	-0.08825473
-3.958168	bring|average	-0.118182
-3.958168	bring|ball	-0.1272019
-3.958168	bring|he	-0.0899211
-3.940381	bring|home	-0.1103498
-3.940381	bring|lot	-0.08909221
-3.834663	bring|question	-0.2596129
-3.834663	bring|team	-0.1175177
-3.789366	bring|they	-0.07984008
-3.789366	bring|we	-0.06097898
-3.958168	bruise|	-0.08930078
-3.789366	buckle|	-0.09095129
-3.677531	build|	-0.1887374
-3.834663	build|confidence	-0.1137619
-3.677531	build|lead	-0.09216865
-3.958168	build|play	-0.1096773
-3.958168	build|program	-0.1080241
-3.834663	bump|	-0.09276762
-3.940381	buoy|	-0.1288903
-3.348105	burn|	-0.1503658
-3.958168	burn|rest	-0.1121032
-3.789366	burst|	-0.1443122
-3.940381	bust|	-0.08121355
-3.958168	buy|	-0.08925644
-3.940381	buy|amp	-0.08123614
-3.958168	buy|it	-0.08403686
-3.958168	buy|ticket	-0.1164776
-3.834663	calculate|	-0.1795767
-2.797645	call|	-0.1146222
-3.789366	call|I	-0.0583658
-3.958168	call|MISC	-0.08925644
-3.789366	call|PERSON	-0.114262
-3.958168	call|ball	-0.08623049
-3.834663	call|bootleg	-0.1793901
-3.834663	call|call	-0.1693874
-3.958168	call|fluke	-0.08876838
-3.940381	call|game	-0.08864837
-3.588677	call|it	-0.1265353
-3.588677	call|play	-0.09803361
-3.677531	call|race	-0.06886041
-3.834663	call|run	-0.08194488
-3.834663	call|something	-0.1792243
-3.958168	call|team	-0.1176215
-3.958168	call|timeout	-0.1179122
-3.958168	cancel|	-0.111577
-3.194194	cant|	-0.09040411
-3.958168	cant|wait	-0.1170603
-3.51495	capitalize|	-0.09927355
-3.789366	capture|gold	-0.07823535
-3.588677	cap|	-0.07728644
-3.958168	cap|performance	-0.118184
-3.396928	care|	-0.1675827
-2.547632	carry|	-0.2461833
-3.396928	carry|ball	-0.1213979
-3.958168	carry|defender	-0.1180575
-3.958168	carry|offense	-0.1290033
-3.588677	carry|yard	-0.08627099
-3.958168	cash|he	-0.1148711
-2.916538	catch|	-0.08560792
-3.51495	catch|ball	-0.07977251
-3.834663	catch|break	-0.1007221
-3.940381	catch|he	-0.1083148
-3.958168	catch|it	-0.1088005
-3.133798	catch|pass	-0.1328154
-3.940381	catch|share	-0.09099855
-3.958168	catch|they	-0.1537947
-3.958168	catch|we	-0.1186174
-3.677531	cause|	-0.1159731
-3.940381	cause|PERSON	-0.1073993
-3.677531	cause|fumble	-0.04481509
-3.958168	cause|he	-0.09274562
-3.834663	cause|loss	-0.1756007
-3.677531	cause|problem	-0.0462175
-3.588677	celebrate|	-0.146069
-3.958168	cement|place	-0.0844406
-3.451942	center|	-0.1204517
-3.940381	challenge|	-0.1076691
-3.162947	change|	-0.2076147
-3.958168	change|place	-0.08723405
-3.958168	change|thing	-0.1139085
-3.264367	charge|	-0.03628928
-3.940381	chase|	-0.08789495
-3.958168	chase|PERSON	-0.127758
-3.958168	chase|ball	-0.08763483
-3.958168	chat|	-0.1182649
-3.958168	cheat|	-0.0844406
-3.451942	check|	-0.04708929
-3.958168	check|Miles	-0.1750357
-3.958168	check|NUMBER	-0.111998
-3.451942	cheer|	-0.1779766
-3.789366	cheer|he	-0.08365947
-3.588677	chip|	-0.07476909
-3.958168	chip|beautiful	-0.1160421
-3.51495	choose|	-0.09477882
-3.958168	choose|PERSON	-0.08934512
-3.789366	chop|	-0.09263437
-3.789366	claim|	-0.1003901
-3.958168	claim|gold	-0.09259163
-3.834663	claim|penalty	-0.1786225
-3.958168	claim|waiver	-0.1071526
-3.958168	clash|	-0.08925644
-3.958168	clatter|	-0.1566332
-3.834663	clatter|outside	-0.1721154
-3.958168	claw|way	-0.09274562
-3.958168	clean|	-0.09011133
-3.194194	clear|	-0.1733285
-3.789366	clear|ball	-0.08881912
-3.958168	clear|it	-0.1175177
-3.51495	click|	-0.08372578
-3.958168	clinch|division	-0.09168858
-3.940381	clinch|spot	-0.1110858
-3.51495	close|	-0.1070725
-3.958168	close|distance	-0.09272363
-3.958168	close|game	-0.1503287
-3.958168	close|gap	-0.08861297
-3.958168	close|half	-0.06165793
-3.789366	close|it	-0.08841729
-3.396928	coach|	-0.1368623
-3.396928	coach|PERSON	-0.1534284
-3.588677	collect|	-0.09083261
-3.958168	collect|ORDINAL	-0.118016
-3.940381	collect|ball	-0.08105542
-3.789366	collect|hit	-0.08963741
-3.958168	collect|medal	-0.1121052
-3.940381	collide|	-0.1115474
-2.853036	combine|	-0.1250045
-1.982191	come|	-0.1191703
-3.940381	come|DATE	-0.0776301
-3.958168	come|DURATION	-0.1117665
-3.958168	come|NUMBER	-0.09190901
-3.789366	come|ORGANIZATION	-0.339285
-3.789366	come|PERSON	-0.1226716
-3.834663	come|TIME	-0.1796181
-3.958168	come|a	-0.1181632
-3.958168	come|big	-0.2146685
-3.940381	come|field	-0.08073897
-3.677531	come|home	-0.246248
-3.834663	come|loss	-0.1180575
-3.958168	come|performance	-0.1163318
-3.958168	come|run	-0.08896811
-3.588677	come|season	-0.1681053
-3.958168	come|start	-0.08706906
-3.958168	come|throwing	-0.09276762
-3.940381	come|time	-0.1163551
-3.789366	come|way	-0.108838
-3.834663	come|what	-0.08925644
-3.677531	comment|	-0.07422782
-3.940381	commit|	-0.08922742
-3.588677	commit|error	-0.07219393
-3.51495	commit|penalty	-0.09100826
-3.958168	commit|turnover	-0.0923055
-3.264367	compare|	-0.06223805
-3.133798	compete|	-0.1414212
-3.51495	complain|	-0.08724023
-3.451942	complete|	-0.07043304
-3.264367	complete|NUMBER	-0.1292257
-3.227865	complete|PERCENT	-0.08566792
-3.162947	complete|pass	-0.05036519
-3.789366	complete|sweep	-0.1108594
-3.940381	concede|	-0.06160338
-3.940381	concede|goal	-0.07658122
-3.588677	concern|	-0.1051076
-3.940381	conclude|	-0.109258
-3.958168	confirm|	-0.08912495
-3.677531	confuse|	-0.09848721
-3.958168	congratulate|he	-0.09040788
-3.056523	connect|	-0.1609825
-3.958168	connect|time	-0.1083001
-3.162947	consider|	-0.1044
-3.958168	consider|NUMBER	-0.06165793
-3.834663	consider|fact	-0.1503287
-3.940381	consider|it	-0.1276024
-3.958168	consist|	-0.09274562
-3.958168	contain|PERSON	-0.114662
-3.789366	contend|	-0.06064527
-3.940381	contest|	-0.08904999
-2.585817	continue|	-0.153254
-3.834663	continue|it	-0.1503287
-3.940381	continue|play	-0.08795952
-3.940381	continue|streak	-0.0875813
-3.588677	contribute|	-0.1335178
-3.958168	control|	-0.1182234
-3.789366	control|ball	-0.06140473
-3.958168	control|game	-0.09239356
-3.958168	control|middle	-0.06165793
-3.958168	control|most	-0.1181425
-3.958168	control|position	-0.1186381
-3.588677	convert|	-0.06273912
-3.940381	convert|NUMBER	-0.1102495
-3.958168	convert|ORDINAL	-0.1177876
-3.940381	convert|conversion	-0.1479774
-3.958168	convince|	-0.08177786
-3.958168	cook|food	-0.1181425
-3.958168	cook|that	-0.1172495
-3.940381	cope|	-0.1140382
-3.940381	correct|	-0.06157747
-3.940381	cost|ORGANIZATION	-0.09042103
-3.958168	cost|game	-0.1480482
-3.958168	cost|he	-0.1795566
-3.834663	cost|health	-0.1796181
-3.940381	cost|run	-0.08155222
-3.940381	cost|they	-0.08184552
-3.958168	cough|	-0.1139923
-3.588677	couldnt|	-0.06047668
-3.834663	counter|homerun	-0.1792658
-3.348105	count|	-0.1229174
-3.789366	couple|	-0.06078734
-3.958168	court|	-0.1796201
-3.451942	cover|	-0.108885
-3.958168	cover|NUMBER	-0.09261364
-3.940381	cover|PERSON	-0.1185281
-3.958168	cover|distance	-0.1161651
-3.677531	cover|spread	-0.1095669
-3.834663	cover|whom	-0.1503287
-3.940381	cover|yard	-0.1113999
-3.677531	crack|	-0.04145182
-3.834663	crack|half	-0.1793901
-3.958168	crash|	-0.1109236
-3.958168	crawl|	-0.08927861
-3.588677	create|	-0.07045677
-3.304221	create|chance	-0.1090321
-3.940381	create|image	-0.1146954
-3.940381	creep|	-0.1214077
-3.834663	criticize|	-0.08856855
-3.396928	cross|	-0.1103776
-3.789366	cross|ball	-0.07710321
-3.940381	cross|line	-0.1125362
-3.940381	cross|plate	-0.1141723
-3.834663	crowd|NUMBER	-0.1796201
-3.958168	crown|pitcher	-0.08934726
-3.958168	crown|player	-0.08934726
-3.588677	cruise|	-0.07222138
-3.51495	crush|	-0.09235358
-3.958168	crush|MISC	-0.1576118
-3.588677	cry|	-0.1257524
-3.958168	culminate|	-0.1924139
-3.958168	curl|	-0.2308418
-3.834663	curl|shot	-0.1781861
-2.916538	cut|	-0.1671059
-3.958168	cut|PERSON	-0.08916774
-3.958168	cut|deficit	-0.1174138
-3.958168	cut|it	-0.1133216
-3.588677	cut|lead	-0.08555488
-3.958168	dare|	-0.08783509
-3.396928	deal|	-0.09077165
-2.853036	decide|	-0.2305196
-3.940381	declare|	-0.118514
-3.958168	dedicate|	-0.1172683
-3.940381	defeat|	-0.2308418
-3.451942	defeat|ORGANIZATION	-0.0846027
-3.264367	defend|	-0.2724421
-3.834663	defend|he	-0.1756007
-3.958168	defend|run	-0.06165793
-3.834663	defer|	-0.1796181
-3.958168	define|	-0.09267963
-3.789366	deflect|	-0.08022436
-3.789366	deliver|	-0.1375208
-3.789366	deliver|ball	-0.1908587
-3.789366	deliver|cross	-0.08988652
-3.958168	demand|	-0.1079392
-3.940381	demolish|	-0.1290012
-3.958168	demolish|opponent	-0.09281372
-3.940381	demote|	-0.1131452
-3.789366	deny|	-0.04462323
-3.451942	depend|	-0.1340692
-3.789366	describe|	-0.1145405
-3.451942	deserve|	-0.03821871
-3.940381	deserve|goal	-0.1127673
-3.958168	deserve|place	-0.1106071
-3.834663	deserve|space	-0.1503287
-3.958168	deserve|that	-0.1133425
-3.940381	designate|	-0.0894248
-3.958168	design|	-0.1106282
-3.958168	desire|	-0.1903244
-3.958168	destroy|	-0.1290033
-3.958168	deteriorate|	-0.09278961
-3.451942	determine|	-0.06772026
-3.958168	develop|	-0.1170311
-3.958168	diagnose|	-0.1503287
-2.952149	didnt|	-0.1441077
-3.958168	didnt|look	-0.1163735
-3.396928	die|	-0.05187291
-3.958168	dig|	-0.09226146
-3.834663	dig|BUT	-0.1796201
-3.834663	dig|cross	-0.1796201
-3.958168	dip|	-0.1503287
-3.51495	disappoint|	-0.2019392
-3.677531	discuss|	-0.08423865
-3.789366	dismantle|	-0.1151596
-3.958168	display|	-0.06098628
-3.834663	disqualify|	-0.115769
-3.396928	dive|	-0.09713436
-3.958168	divide|	-0.1260875
-3.958168	dodge|bullet	-0.1171435
-3.958168	doesnt|	-0.08235056
-3.162947	dominate|	-0.1850282
-3.958168	dominate|MISC	-0.1182462
-3.588677	dominate|ORGANIZATION	-0.1017872
-3.834663	dominate|game	-0.08504552
-3.834663	dominate|line	-0.179556
-3.958168	dominate|performance	-0.1178707
-3.033545	dont|	-0.1701932
-3.834663	dont|football	-0.1776661
-2.772392	double|	-0.1107476
-3.958168	double|DURATION	-0.108385
-3.940381	double|MISC	-0.1155936
-3.789366	double|run	-0.08661412
-3.396928	doubt|	-0.09377424
-3.789366	down|	-0.1051952
-1.76346	do|	-0.1641037
-3.789366	do|NUMBER	-0.1178682
-3.789366	do|PERSON	-0.08802363
-3.834663	do|all	-0.2600484
-3.227865	do|anything	-0.1362775
-3.834663	do|battle	-0.1783316
-3.958168	do|best	-0.08910121
-3.940381	do|better	-0.1293779
-3.940381	do|blitz	-0.1283357
-3.940381	do|damage	-0.1286464
-3.940381	do|drill	-0.1324457
-3.958168	do|enough	-0.0875458
-3.789366	do|everything	-0.05297827
-3.958168	do|good	-0.1134055
-3.958168	do|interview	-0.1503287
-2.899771	do|it	-0.1468127
-2.784835	do|job	-0.1439394
-3.789366	do|much	-0.06125101
-3.958168	do|nothing	-0.085739
-3.834663	do|number	-0.1172703
-3.677531	do|part	-0.0603537
-3.940381	do|rest	-0.09053157
-3.940381	do|same	-0.05631588
-3.958168	do|season	-0.08504552
-3.677531	do|something	-0.08589065
-3.940381	do|stuff	-0.1070376
-3.227865	do|that	-0.1266467
-3.940381	do|they	-0.08501405
-3.162947	do|thing	-0.09299073
-3.677531	do|this	-0.07962234
-3.834663	do|time	-0.1786432
-2.883627	do|what	-0.238248
-3.789366	draft|	-0.08538546
-3.940381	draft|PERSON	-0.1479192
-3.133798	draw|	-0.04164965
-3.958168	draw|LOCATION	-0.09206325
-3.958168	draw|NUMBER	-0.06165793
-3.789366	draw|penalty	-0.08881698
-3.789366	draw|walk	-0.1145635
-3.958168	dream|	-0.0879463
-3.789366	dribble|	-0.09149428
-3.958168	dribble|it	-0.08803525
-3.834663	drift|	-0.1751195
-3.588677	drill|	-0.1044163
-2.683916	drive|	-0.1466158
-3.940381	drive|ORGANIZATION	-0.08543925
-3.940381	drive|PERSON	-0.113829
-3.789366	drive|yard	-0.0858642
-3.011722	drop|	-0.09120221
-3.677531	drop|NUMBER	-0.1357724
-3.958168	drop|ORGANIZATION	-0.1166858
-3.940381	drop|average	-0.05937416
-3.789366	drop|ball	-0.1154626
-3.958168	drop|era	-0.08896811
-3.789366	drop|game	-0.08966381
-3.588677	drop|pass	-0.07649288
-3.958168	dub|	-0.1111344
-2.810844	earn|	-0.08925657
-3.940381	earn|ORDINAL	-0.09167964
-3.958168	earn|gold	-0.1076417
-3.958168	earn|job	-0.1182047
-3.940381	earn|medal	-0.08471598
-3.958168	earn|point	-0.08932295
-3.958168	earn|respect	-0.1503287
-2.952149	earn|run	-0.2946422
-3.940381	earn|silver	-0.08791504
-3.958168	earn|spot	-0.1186421
-3.958168	ease|	-0.1537947
-3.940381	eat|	-0.04958818
-3.940381	eclipse|he	-0.101314
-3.958168	eclipse|record	-0.09221742
-3.958168	edge|	-0.06165793
-3.940381	eject|	-0.1102269
-3.789366	elect|	-0.1148353
-3.677531	eliminate|	-0.08951775
-3.834663	eliminate|team	-0.1796044
-3.958168	embarass|	-0.1179537
-3.940381	embark|	-0.1319616
-3.940381	embarrass|	-0.1320937
-3.677531	emerge|	-0.08412029
-3.958168	encompass|inning	-0.09164448
-3.940381	encourage|	-0.08715349
-3.789366	endure|	-0.04711775
-2.533251	end|	-0.1468685
-3.789366	end|NUMBER	-0.110402
-3.958168	end|ORDINAL	-0.1136361
-3.958168	end|chance	-0.09250361
-3.958168	end|frame	-0.09272363
-3.304221	end|game	-0.09900835
-3.677531	end|half	-0.1603638
-3.958168	end|injury	-0.09272363
-3.789366	end|inning	-0.1169187
-3.51495	end|season	-0.06549951
-3.677531	enjoy|	-0.2060627
-3.940381	enjoy|game	-0.08780383
-3.958168	enjoy|volleyball	-0.1184308
-3.194194	ensue|	-0.07402305
-3.958168	ensure|	-0.1085885
-3.958168	enter|	-0.08923427
-3.958168	enter|bottom	-0.1182442
-3.789366	enter|game	-0.1040304
-3.958168	enter|season	-0.1068546
-3.958168	envy|PERSON	-0.09100084
-3.958168	equalise|	-0.08879057
-3.940381	equalize|	-0.08443151
-3.958168	equal|	-0.08504552
-3.789366	erupt|	-0.08336739
-3.588677	escape|	-0.09905483
-3.834663	establish|	-0.09274562
-3.958168	even|	-0.08879057
-3.958168	evidence|	-0.08131304
-3.940381	exceed|expectation	-0.05908904
-3.940381	excel|	-0.0530339
-3.304221	excite|	-0.1849801
-3.958168	excuse|it	-0.08921209
-3.51495	execute|	-0.08292
-3.940381	execute|it	-0.06058381
-3.958168	expand|	-0.1172683
-2.725905	expect|	-0.1608731
-3.940381	expect|NUMBER	-0.1535017
-3.958168	expect|ORGANIZATION	-0.1126918
-3.940381	expect|PERSON	-0.1262213
-3.958168	expect|he	-0.1169563
-3.958168	expect|inconsistency	-0.08511268
-3.958168	expect|it	-0.1007221
-3.958168	expect|reception	-0.07214339
-3.834663	expect|team	-0.08830198
-3.958168	expect|they	-0.1139923
-3.958168	expect|thing	-0.08932295
-3.958168	expect|touchdown	-0.06165793
-3.940381	expect|what	-0.08775932
-3.789366	expire|	-0.07784856
-3.51495	explain|	-0.1098007
-3.677531	explode|	-0.1365143
-3.958168	exploit|it	-0.0783902
-3.958168	exploit|team	-0.08874618
-3.958168	explore|MISC	-0.117885
-3.789366	expose|	-0.1158644
-3.958168	extend|	-0.08504552
-3.958168	extend|lead	-0.1159567
-3.588677	extend|streak	-0.08465088
-3.958168	extrapolate|number	-0.1145156
-3.958168	eye|	-0.08887935
-3.011722	face|	-0.1771299
-3.834663	face|LOCATION	-0.1131117
-3.677531	face|NUMBER	-0.1106172
-3.958168	face|Nationals	-0.1172267
-3.958168	face|ORDINAL	-0.1182442
-3.304221	face|ORGANIZATION	-0.05179616
-3.51495	face|PERSON	-0.08656472
-3.958168	face|batter	-0.09252562
-3.958168	face|group	-0.1185779
-3.958168	face|lefty	-0.1693874
-3.958168	face|schedule	-0.08854635
-3.958168	face|season	-0.1319175
-3.789366	face|team	-0.07665406
-3.940381	face|they	-0.07806258
-3.588677	fade|	-0.07300919
-2.883627	fail|	-0.1665258
-3.958168	fake|	-0.1044848
-3.51495	fake|handoff	-0.1315417
-2.725905	fall|	-0.0769451
-3.940381	fall|NUMBER	-0.08853734
-3.958168	fall|game	-0.0928116
-3.958168	fall|way	-0.1166234
-3.677531	fare|	-0.1113533
-3.588677	favor|	-0.1097039
-3.789366	fear|	-0.08868593
-3.834663	fear|division	-0.1796181
-3.958168	feature|NUMBER	-0.1184515
-3.834663	feature|coach	-0.1796201
-3.834663	feature|manager	-0.1796181
-3.789366	feed|	-0.07680022
-2.772392	feel|	-0.2118267
-3.958168	feel|it	-0.08131304
-3.958168	feel|pressure	-0.1756007
-3.958168	feel|way	-0.1054257
-3.834663	field|	-0.1503287
-3.958168	field|team	-0.1084082
-3.056523	fight|	-0.1224643
-3.789366	fight|way	-0.09023513
-3.304221	figure|	-0.129232
-3.958168	file|	-0.1186194
-3.51495	fill|	-0.125124
-3.958168	fill|spot	-0.1169355
-2.971113	find|	-0.1534071
-3.133798	find|PERSON	-0.05852067
-3.958168	find|answer	-0.1537947
-3.834663	find|game	-0.2593017
-3.958168	find|goal	-0.09274562
-3.940381	find|guy	-0.09203228
-3.958168	find|he	-0.0875458
-3.789366	find|himself	-0.08723828
-3.958168	find|hole	-0.1176838
-3.958168	find|it	-0.115915
-3.940381	find|myself	-0.08855955
-3.958168	find|play	-0.1480643
-3.940381	find|player	-0.09271471
-3.958168	find|room	-0.1903041
-3.958168	find|space	-0.113397
-3.958168	find|target	-0.1133006
-3.789366	find|themselves	-0.08439095
-3.304221	find|way	-0.06675372
-3.677531	find|zone	-0.1059584
-2.737068	finish|	-0.1499711
-3.958168	finish|DURATION	-0.09223945
-3.677531	finish|NUMBER	-0.1404318
-3.789366	finish|ORDINAL	-0.09028907
-3.194194	finish|game	-0.0263668
-3.940381	finish|it	-0.1165525
-3.958168	finish|season	-0.1133845
-3.958168	finish|series	-0.085739
-3.958168	finish|yard	-0.1180575
-3.396928	fire|	-0.1067245
-3.958168	fire|inning	-0.1178707
-3.958168	fire|shot	-0.1255292
-3.677531	fit|	-0.08652915
-3.789366	fix|	-0.06881095
-3.958168	flag|	-0.08854635
-3.958168	flail|	-0.1134474
-3.958168	flash|	-0.0879463
-3.677531	flick|	-0.3039292
-3.958168	flick|WIDE	-0.1393204
-3.958168	flick|ball	-0.1480482
-3.51495	flip|	-0.04802541
-3.789366	float|	-0.1131048
-3.958168	flourish|	-0.09157832
-3.958168	flush|pass	-0.1186421
-3.958168	flush|pocket	-0.1182047
-3.011722	fly|	-0.08390541
-3.789366	fly|all	-0.1084372
-3.348105	focus|	-0.206928
-3.834663	focus|what	-0.1796181
-2.61045	follow|	-0.1261131
-3.396928	follow|PERSON	-0.8676639
-3.940381	follow|game	-0.1552373
-3.958168	follow|it	-0.1153934
-3.958168	follow|suit	-0.08905684
-3.958168	fool|	-0.1169563
-2.853036	force|	-0.1508511
-3.940381	force|LOCATION	-0.1127043
-3.677531	force|ORGANIZATION	-0.08471178
-3.789366	force|PERSON	-0.1172013
-3.51495	force|fumble	-0.07486948
-3.834663	force|goal	-0.2597789
-3.940381	force|he	-0.1373493
-3.940381	force|interception	-0.1126202
-3.834663	force|issue	-0.06165793
-3.789366	force|punt	-0.04059465
-3.940381	force|they	-0.1162733
-3.958168	force|three-and-out	-0.08186808
-3.588677	force|turnover	-0.06615668
-3.958168	forfeit|	-0.08885716
-3.011722	forget|	-0.1478634
-3.958168	forget|PERSON	-0.08194488
-3.940381	forget|game	-0.1128513
-3.834663	forgive|	-0.08932295
-3.958168	form|	-0.1503287
-3.940381	foul|	-0.08886137
-3.834663	foul|PERSON	-0.1503287
-3.958168	foul|ball	-0.118493
-3.940381	foul|pitch	-0.05901774
-3.958168	freak|	-0.108385
-3.834663	free|PERSON	-0.3557805
-3.588677	frustrate|	-0.09004022
-3.958168	frustrate|I	-0.1186194
-3.958168	fuck|	-0.1290033
-3.106483	fumble|	-0.1106295
-3.348105	fumble|ball	-0.05212585
-3.940381	fumble|exchange	-0.08599809
-3.834663	fumble|return	-0.08899029
-3.304221	gain|	-0.07428352
-3.396928	gain|yard	-0.07415277
-3.789366	gamble|	-0.08341451
-3.834663	gang-tackle|	-0.1773538
-3.958168	gather|	-0.2308418
-3.940381	generate|	-0.07983357
-3.940381	generate|pressure	-0.1156374
-1.94051	get|	-0.1235495
-3.958168	get|DATE	-0.08796854
-3.834663	get|DURATION	-0.114118
-3.940381	get|I	-0.1138392
-3.789366	get|LOCATION	-0.08457936
-3.940381	get|MISC	-0.08450305
-3.106483	get|NUMBER	-0.05015964
-3.588677	get|ORDINAL	-0.08348406
-3.789366	get|ORGANIZATION	-0.08631714
-3.106483	get|PERSON	-0.04729386
-3.958168	get|Phils	-0.1184101
-3.958168	get|all	-0.09111494
-3.958168	get|any	-0.0783902
-3.304221	get|anything	-0.07529109
-3.958168	get|arm	-0.09135772
-2.899771	get|ball	-0.04319565
-3.940381	get|beat	-0.1174053
-3.451942	get|better	-0.1243111
-3.940381	get|bit	-0.06160109
-3.940381	get|both	-0.1181963
-3.958168	get|break	-0.09076156
-3.789366	get|call	-0.08845273
-3.958168	get|card	-0.08854635
-3.51495	get|chance	-0.1058289
-3.834663	get|comment	-0.2601175
-3.958168	get|confidence	-0.08861297
-3.958168	get|couple	-0.08934512
-3.834663	get|crowd	-0.1796044
-3.958168	get|defense	-0.08907902
-3.51495	get|down	-0.07932512
-3.940381	get|feeling	-0.113859
-3.789366	get|field	-0.1260127
-3.958168	get|final	-0.1782485
-3.958168	get|force	-0.08796854
-3.958168	get|gain	-0.09276762
-3.940381	get|game	-0.09150321
-3.396928	get|goal	-0.1429882
-3.940381	get|gold	-0.1323357
-3.958168	get|guy	-0.1136571
-3.51495	get|hand	-0.09731087
-3.677531	get|handoff	-0.05887962
-3.588677	get|he	-0.1080069
-3.958168	get|head	-0.1170603
-3.940381	get|himself	-0.1179058
-3.396928	get|hit	-0.09077831
-3.958168	get|hold	-0.1184121
-3.940381	get|home	-0.08731412
-3.958168	get|homer	-0.1130488
-3.834663	get|hurt	-0.1786225
-3.958168	get|inning	-0.09208527
-3.451942	get|it	-0.08909849
-3.940381	get|job	-0.1578609
-3.940381	get|kind	-0.1179078
-3.834663	get|look	-0.1789546
-3.940381	get|loss	-0.08389311
-3.588677	get|lot	-0.139838
-3.958168	get|match	-0.08830198
-3.940381	get|medal	-0.1109783
-3.789366	get|more	-0.08285016
-3.940381	get|most	-0.190883
-3.588677	get|offense	-0.07482053
-3.677531	get|opportunity	-0.07720152
-3.958168	get|out	-0.116665
-3.958168	get|outburst	-0.1145156
-3.789366	get|pass	-0.08915192
-3.958168	get|penalty	-0.1182027
-3.958168	get|piece	-0.1167275
-3.940381	get|play	-0.09209837
-3.834663	get|player	-0.06100994
-3.396928	get|point	-0.09392489
-3.51495	get|pressure	-0.09903595
-3.958168	get|push	-0.08656526
-3.834663	get|question	-0.2600898
-3.958168	get|rally	-0.06165793
-3.958168	get|real	-0.08235056
-3.834663	get|reputation	-0.2551718
-3.958168	get|respect	-0.1182442
-3.958168	get|respite	-0.08511268
-3.264367	get|run	-0.06044094
-3.940381	get|runner	-0.1158231
-3.940381	get|sack	-0.1071866
-3.958168	get|set	-0.08403686
-3.958168	get|shot	-0.1111365
-3.958168	get|shutout	-0.114683
-3.958168	get|silver	-0.08194488
-3.958168	get|sleep	-0.08934512
-3.958168	get|something	-0.09281372
-3.264367	get|start	-0.1127202
-3.958168	get|stop	-0.06165793
-3.958168	get|team	-0.1172891
-3.834663	get|tense	-0.2561766
-3.958168	get|the	-0.178103
-3.958168	get|they	-0.08905684
-3.789366	get|thing	-0.1115409
-3.958168	get|this	-0.08930078
-3.51495	get|time	-0.06078227
-3.958168	get|touch	-0.1559254
-3.958168	get|touchdown	-0.1155604
-3.940381	get|victory	-0.1342209
-3.958168	get|vote	-0.1077394
-3.958168	get|walk	-0.1106282
-3.958168	get|win	-0.2308418
-3.958168	get|you	-0.1182669
-2.664352	give|	-0.1234692
-3.789366	give|Dame	-0.1080069
-3.958168	give|ECU	-0.1150592
-3.51495	give|I	-0.07076223
-3.080785	give|LOCATION	-0.09246923
-3.958168	give|MISC	-0.09135772
-2.737068	give|NUMBER	-0.2393857
-3.958168	give|ORDINAL	-0.06165793
-2.737068	give|ORGANIZATION	-0.1340607
-3.348105	give|PERSON	-0.0538928
-3.958168	give|Phils	-0.09076156
-3.940381	give|advantage	-0.09203441
-2.952149	give|ball	-0.086899
-3.958168	give|bit	-0.1143482
-3.958168	give|break	-0.08918992
-3.227865	give|chance	-0.0315676
-3.940381	give|confidence	-0.08849506
-3.789366	give|corner	-0.06128423
-3.958168	give|couple	-0.085739
-3.588677	give|credit	-0.1046214
-3.677531	give|double	-0.07224005
-3.51495	give|down	-0.08171877
-3.958168	give|edge	-0.09254763
-3.958168	give|field	-0.1184328
-3.834663	give|free-kick	-0.1503287
-3.940381	give|game	-0.0925167
-3.789366	give|goal	-0.07589094
-3.133798	give|he	-0.08788553
-3.011722	give|hit	-0.1737469
-3.451942	give|homer	-0.06288973
-3.958168	give|inning	-0.09165759
-3.451942	give|it	-0.08673631
-2.797645	give|lead	-0.0950584
-3.958168	give|leadoff	-0.1165193
-3.958168	give|life	-0.08511268
-3.958168	give|little	-0.1503287
-3.958168	give|lot	-0.117933
-3.958168	give|man	-0.09221742
-3.834663	give|momentum	-0.1796044
-3.940381	give|more	-0.08893906
-3.588677	give|offense	-0.08667841
-3.940381	give|opponent	-0.08456602
-3.940381	give|opportunity	-0.08740319
-3.789366	give|pair	-0.05777022
-3.588677	give|point	-0.1313185
-3.940381	give|position	-0.107501
-3.958168	give|possession	-0.08934726
-2.533251	give|run	-0.1112895
-3.958168	give|season	-0.09171063
-3.51495	give|single	-0.1025049
-3.958168	give|singles	-0.08901247
-3.958168	give|team	-0.08843528
-3.194194	give|they	-0.05565312
-3.940381	give|time	-0.08419818
-3.958168	give|ton	-0.06165793
-3.958168	give|total	-0.1129228
-3.958168	give|touchdown	-0.0928116
-3.677531	give|victory	-0.08209784
-3.588677	give|walk	-0.1337264
-3.958168	give|way	-0.1181612
-3.304221	give|we	-0.09499084
-3.958168	give|what	-0.1167066
-3.588677	give|yard	-0.05887683
-3.940381	give|you	-0.08749226
-3.834663	glare|	-0.09199715
-3.940381	glue|	-0.07913058
-3.677531	gon|	-0.08053426
-1.822585	go|	-0.1243203
-3.940381	go|1-2-3	-0.08726957
-3.677531	go|3-for-5	-0.100843
-3.958168	go|4-for-5	-0.1166234
-3.940381	go|DATE	-0.1183395
-3.958168	go|DURATION	-0.08927861
-3.958168	go|IDEOLOGY	-0.08803525
-2.337355	go|NUMBER	-0.3328238
-3.958168	go|ORGANIZATION	-0.08861297
-3.51495	go|at	-0.1033542
-3.940381	go|close	-0.1166774
-3.834663	go|end	-0.1503287
-3.958168	go|game	-0.1169563
-3.789366	go|home	-0.07730192
-2.990943	go|inning	-0.194217
-3.677531	go|nut	-0.1447726
-3.958168	go|rest	-0.1081515
-3.958168	go|season	-0.1139714
-3.958168	go|team	-0.118101
-3.940381	go|time	-0.101314
-3.958168	go|undefeated	-0.0844406
-3.834663	go|versus	-0.173084
-3.451942	go|way	-0.05759643
-3.677531	go|what	-0.07763444
-3.958168	go|wide	-0.1154769
-3.348105	go|yard	-0.04223262
-3.958168	grab|	-0.08643138
-3.958168	grab|goal	-0.08934512
-3.958168	grab|interception	-0.1154977
-3.958168	grab|pass	-0.1181217
-3.958168	graduate|somewhere	-0.1174969
-3.940381	grant|	-0.07812162
-3.958168	grind|	-0.1141409
-3.194194	ground|	-0.08073662
-3.304221	grow|	-0.1562432
-3.958168	grumble|	-0.08918992
-3.958168	guarantee|	-0.1290033
-3.348105	guess|	-0.04840165
-3.958168	gun|	-0.08892373
-3.958168	hack|	-0.08723405
-3.958168	hadnt|	-0.1077267
-3.958168	hail|	-0.1185966
-3.958168	halt|	-0.08803525
-3.958168	hamper|	-0.085739
-3.940381	handcuff|	-0.1184431
-3.677531	handle|	-0.04872432
-3.940381	handle|PERSON	-0.1165317
-3.958168	handle|he	-0.09212933
-3.789366	hand|	-0.1320015
-3.958168	hand|ball	-0.1170395
-3.958168	hand|it	-0.118495
-3.958168	hand|loss	-0.08918992
-3.056523	hang|	-0.1437292
-2.585817	happen|	-0.1467721
-3.834663	happen|may	-0.1785601
-3.958168	harass|	-0.08861297
-3.789366	hasnt|	-0.1000779
-3.677531	hate|	-0.07316338
-3.588677	havent|	-0.08015563
-1.630899	have|	-0.1574612
-3.789366	have|0-fer	-0.1155017
-3.958168	have|CAUSE_OF_DEATH	-0.08930078
-3.348105	have|DATE	-0.1189547
-3.194194	have|DURATION	-0.04778118
-3.958168	have|LOCATION	-0.1828488
-2.868062	have|MISC	-0.1920303
-2.618982	have|NUMBER	-0.1662529
-3.940381	have|ORDINAL	-0.1135647
-3.588677	have|ORGANIZATION	-0.1066711
-3.056523	have|PERSON	-0.2373717
-3.789366	have|TIME	-0.1091224
-3.789366	have|ability	-0.1149961
-3.958168	have|answer	-0.09240665
-3.958168	have|appearance	-0.1143692
-3.958168	have|arm	-0.08923427
-3.958168	have|attempt	-0.1150507
-3.940381	have|average	-0.1132501
-3.958168	have|baby	-0.1071101
-3.940381	have|back	-0.1289347
-3.958168	have|balance	-0.1184743
-3.396928	have|ball	-0.03852275
-3.940381	have|basis	-0.07477398
-3.958168	have|beating	-0.1136361
-3.958168	have|best	-0.101314
-3.940381	have|bit	-0.06135744
-3.958168	have|block	-0.1771787
-3.958168	have|both	-0.1185365
-3.958168	have|bout	-0.118182
-3.958168	have|butterfly	-0.08692208
-3.789366	have|bye	-0.09008025
-3.958168	have|capability	-0.08623049
-3.958168	have|career	-0.1179952
-3.264367	have|catch	-0.09619028
-2.748527	have|chance	-0.1136256
-3.958168	have|change	-0.09248161
-3.940381	have|coach	-0.126645
-3.789366	have|confidence	-0.09213351
-3.958168	have|consistency	-0.1185779
-3.677531	have|control	-0.09688161
-3.958168	have|corner	-0.0499137
-3.451942	have|couple	-0.08265609
-3.834663	have|decision	-0.150664
-3.789366	have|defense	-0.1114967
-3.958168	have|degree	-0.08698896
-3.940381	have|double	-0.1052055
-3.789366	have|doubt	-0.1184453
-3.940381	have|down	-0.1132416
-3.958168	have|downs	-0.118016
-3.677531	have|drive	-0.1004534
-3.834663	have|effect	-0.08671236
-3.940381	have|effort	-0.0878928
-3.162947	have|era	-0.1361861
-3.958168	have|everything	-0.08972181
-3.789366	have|experience	-0.1167938
-3.958168	have|fake	-0.1120611
-3.834663	have|fan	-0.173084
-3.940381	have|feeling	-0.1142182
-3.958168	have|firepower	-0.1537947
-3.958168	have|friend	-0.1111344
-3.789366	have|fun	-0.1631113
-2.486367	have|game	-0.3146229
-3.958168	have|go	-0.1111977
-3.588677	have|goal	-0.05119319
-3.834663	have|going	-0.1773538
-3.958168	have|gold	-0.09267072
-3.789366	have|good	-0.1063408
-3.958168	have|grade	-0.1060875
-3.940381	have|guy	-0.1676447
-3.958168	have|half	-0.0783902
-3.834663	have|hand	-0.1166026
-3.834663	have|have	-0.1174345
-3.958168	have|header	-0.1133006
-3.940381	have|history	-0.0904074
-2.555005	have|hit	-0.2195582
-3.958168	have|hitter	-0.1170747
-3.958168	have|hole	-0.1006485
-3.834663	have|home-run	-0.1503287
-3.588677	have|homer	-0.07508992
-3.588677	have|idea	-0.04673132
-3.789366	have|inning	-0.1092537
-3.396928	have|interception	-0.1501413
-3.958168	have|issue	-0.09135772
-3.51495	have|it	-0.08812862
-3.958168	have|k	-0.0844406
-3.958168	have|kind	-0.08194488
-3.451942	have|lead	-0.07146259
-3.958168	have|leg	-0.1503287
-3.958168	have|linebacker	-0.09265763
-3.227865	have|lot	-0.04924455
-3.958168	have|luck	-0.1321817
-3.958168	have|man	-0.1377314
-3.958168	have|match	-0.1503287
-3.51495	have|medal	-0.1207525
-3.834663	have|mercy	-0.1503287
-3.834663	have|message	-0.1756635
-3.958168	have|midfield	-0.08934726
-3.958168	have|moment	-0.1167066
-3.677531	have|more	-0.1439456
-3.958168	have|most	-0.06074958
-3.958168	have|move	-0.1154769
-3.940381	have|much	-0.1286685
-3.588677	have|multus	-0.09819454
-3.834663	have|nickname	-0.1796044
-3.958168	have|none	-0.1139295
-3.940381	have|nothing	-0.06048905
-3.588677	have|number	-0.2160664
-3.677531	have|offense	-0.1527211
-3.958168	have|offensive	-0.09274562
-3.958168	have|op	-0.08903466
-3.264367	have|opportunity	-0.1069178
-3.940381	have|other	-0.09260471
-3.677531	have|outing	-0.08297606
-3.940381	have|pace	-0.08718047
-3.958168	have|pair	-0.1052548
-3.677531	have|pass	-0.1159542
-3.958168	have|passing	-0.1110712
-3.940381	have|people	-0.1143418
-3.958168	have|performance	-0.117933
-3.958168	have|place	-0.1186194
-3.789366	have|plan	-0.1095255
-3.396928	have|play	-0.06559332
-3.304221	have|player	-0.1050008
-3.940381	have|plenty	-0.07686867
-3.677531	have|point	-0.0918406
-3.958168	have|pop	-0.1498761
-3.958168	have|position	-0.0928116
-3.789366	have|possession	-0.05292773
-3.940381	have|potential	-0.08853734
-3.958168	have|power	-0.08319665
-3.958168	have|pre-season	-0.0872786
-3.451942	have|problem	-0.2049192
-3.958168	have|punt	-0.1110079
-3.958168	have|quality	-0.06165793
-3.940381	have|quarterback	-0.05691115
-3.834663	have|race	-0.09168858
-3.834663	have|read	-0.1773538
-3.940381	have|receiver	-0.07817633
-3.677531	have|reception	-0.07332072
-3.194194	have|record	-0.1334197
-3.940381	have|relay	-0.09128471
-3.451942	have|return	-0.06123027
-3.958168	have|role	-0.1117665
-3.958168	have|room	-0.108491
-2.990943	have|run	-0.1812482
-3.677531	have|runner	-0.04063422
-3.51495	have|sack	-0.09767249
-3.958168	have|sb	-0.1173534
-3.958168	have|score	-0.1179122
-3.348105	have|season	-0.1304078
-3.940381	have|sense	-0.101314
-3.958168	have|series	-0.09139291
-3.264367	have|shot	-0.1603176
-3.940381	have|single	-0.08640002
-3.958168	have|singles	-0.1180367
-3.958168	have|situation	-0.1184101
-3.940381	have|skill	-0.1145053
-3.958168	have|sleep	-0.1098888
-3.940381	have|some	-0.09163554
-3.958168	have|something	-0.09131359
-3.958168	have|sort	-0.1069312
-3.958168	have|space	-0.06165793
-3.588677	have|speed	-0.06914823
-3.451942	have|start	-0.06422152
-3.958168	have|starter	-0.1073441
-3.958168	have|stats	-0.101314
-3.677531	have|streak	-0.0777483
-3.958168	have|strike	-0.0928116
-3.348105	have|strikeout	-0.0840767
-3.958168	have|struggle	-0.1135942
-3.789366	have|stuff	-0.1671557
-3.51495	have|success	-0.1168272
-3.789366	have|surgery	-0.1144757
-3.958168	have|swimmer	-0.08194488
-3.588677	have|talent	-0.1139911
-3.451942	have|team	-0.1259094
-3.789366	have|they	-0.05681559
-3.789366	have|thing	-0.1400326
-3.940381	have|this	-0.1303734
-3.940381	have|ticket	-0.0822513
-3.033545	have|time	-0.1275751
-3.789366	have|ton	-0.1170227
-3.588677	have|touchdown	-0.1981966
-3.958168	have|triple	-0.08861297
-3.451942	have|trouble	-0.06828772
-3.958168	have|turnover	-0.1102692
-3.940381	have|value	-0.08715819
-3.940381	have|walk	-0.1312344
-3.51495	have|way	-0.07646202
-3.834663	have|weapon	-0.1141409
-3.677531	have|what	-0.1121292
-3.51495	have|whip	-0.04690482
-3.940381	have|word	-0.08669006
-2.971113	have|yard	-0.1497405
-2.853036	head|	-0.0731705
-3.958168	head|ball	-0.1185365
-3.958168	head|it	-0.08476768
-3.789366	heal|	-0.05529808
-3.162947	hear|	-0.1196515
-3.958168	hear|I	-0.08623049
-3.940381	heat|	-0.1108517
-3.940381	hed|	-0.08464313
-2.797645	help|	-0.1238416
-3.958168	help|ORGANIZATION	-0.1167066
-3.958168	help|PERSON	-0.08972181
-3.940381	help|cause	-0.08730511
-3.958168	help|confidence	-0.09129152
-3.958168	help|defence	-0.08831733
-3.958168	help|he	-0.1102269
-3.789366	help|team	-0.1904373
-3.940381	hesitate|	-0.08164249
-3.940381	he|	-0.09214243
-3.958168	he|guy	-0.128979
-3.834663	he|kind	-0.1789546
-3.304221	highlight|	-0.07627017
-2.444055	hit|	-0.2247193
-3.958168	hit|I	-0.09259163
-2.797645	hit|NUMBER	-0.1816666
-3.958168	hit|ORDINAL	-0.09175472
-3.033545	hit|PERSON	-0.06239516
-3.958168	hit|SO	-0.08816864
-3.162947	hit|ball	-0.09842223
-3.958168	hit|bar	-0.1166026
-3.940381	hit|batter	-0.1278247
-3.958168	hit|fan	-0.08892373
-3.51495	hit|game	-0.06336229
-3.588677	hit|goal	-0.1248546
-3.677531	hit|ground	-0.05258035
-3.834663	hit|guess	-0.2600276
-3.677531	hit|he	-0.0851974
-3.033545	hit|homer	-0.08564433
-3.940381	hit|it	-0.08693533
-3.588677	hit|pitch	-0.1420273
-3.834663	hit|play	-0.1756007
-3.940381	hit|post	-0.1405581
-3.940381	hit|receiver	-0.09271471
-3.162947	hit|run	-0.08162488
-3.940381	hit|shot	-0.08693959
-3.940381	hit|singles	-0.09131991
-3.789366	hit|slam	-0.09138398
-3.789366	hit|streak	-0.0881284
-3.958168	hit|upright	-0.1168939
-3.940381	hit|wall	-0.06138837
-3.958168	hit|water	-0.1074079
-3.958168	hoist|	-0.085739
-2.593874	hold|	-0.138491
-3.958168	hold|Furman	-0.09241557
-3.304221	hold|LOCATION	-0.08859874
-3.106483	hold|ORGANIZATION	-0.1931868
-3.304221	hold|PERSON	-0.1192967
-3.940381	hold|ball	-0.08519313
-3.958168	hold|end	-0.1185552
-3.834663	hold|he	-0.1182649
-3.834663	hold|head	-0.1773538
-3.958168	hold|it	-0.09005392
-3.958168	hold|lead	-0.1185986
-3.940381	hold|offense	-0.09172374
-3.940381	hold|opponent	-0.1105432
-3.958168	hold|own	-0.0878928
-3.940381	hold|record	-0.116365
-3.958168	hold|they	-0.08479226
-3.958168	hold|we	-0.1119138
-3.194194	homer|	-0.1787767
-3.958168	honor|	-0.1162693
-3.588677	hook|	-0.08073415
-2.899771	hope|	-0.2415353
-3.958168	host|ORGANIZATION	-0.09265763
-3.194194	hurt|	-0.2476041
-3.958168	hurt|ORGANIZATION	-0.1181197
-3.834663	hurt|themselves	-0.259094
-3.834663	hurt|you	-0.1795767
-3.958168	hustle|	-0.08930078
-3.958168	hype|	-0.08903466
-3.451942	imagine|	-0.09327361
-3.958168	imagine|crowd	-0.08887935
-3.958168	implode|	-0.1537947
-3.958168	impose|himself	-0.1142854
-3.162947	impress|	-0.08456492
-3.958168	impress|I	-0.1076417
-2.916538	improve|	-0.06569707
-3.958168	improve|record	-0.2095386
-3.834663	incite|lot	-0.173084
-2.602083	include|	-0.06677224
-3.789366	include|PERSON	-0.1415652
-3.834663	include|hometown	-0.2601175
-3.834663	include|name	-0.2601175
-3.958168	include|run	-0.1166878
-3.834663	include|you	-0.2555489
-3.958168	increase|	-0.09215135
-3.958168	incur|penalty	-0.1181612
-3.789366	indicate|	-0.08455694
-3.958168	influence|	-0.1090548
-3.940381	inherit|	-0.08616774
-3.056523	injure|	-0.1876371
-3.940381	insert|	-0.0863777
-3.940381	inspire|	-0.1117761
-3.834663	instruct|I	-0.2555489
-3.940381	intend|	-0.0922085
-3.51495	intercept|	-0.1207789
-3.958168	intercept|PERSON	-0.1285354
-3.940381	intercept|ball	-0.08828826
-3.677531	intercept|pass	-0.05809421
-3.940381	interfere|	-0.1177397
-3.396928	involve|	-0.05104485
-3.940381	isnt|	-0.07758455
-3.958168	jog|	-0.09228349
-3.677531	join|	-0.1525565
-3.940381	join|ORGANIZATION	-0.1082723
-3.958168	join|team	-0.09228349
-3.958168	join|we	-0.1179745
-3.940381	joke|	-0.05849446
-3.940381	judge|	-0.07387412
-3.011722	jump|	-0.08857775
-3.958168	jump|all	-0.1173514
-2.627685	keep|	-0.2092657
-3.588677	keep|LOCATION	-0.09112762
-3.588677	keep|ORGANIZATION	-0.1002267
-3.677531	keep|PERSON	-0.04562487
-3.677531	keep|ball	-0.08115228
-3.51495	keep|close	-0.2136838
-3.958168	keep|drive	-0.1082364
-3.789366	keep|eye	-0.09131991
-3.940381	keep|game	-0.08595341
-3.958168	keep|guy	-0.1171019
-3.588677	keep|he	-0.09706208
-3.789366	keep|head	-0.1167984
-3.940381	keep|it	-0.1152178
-3.958168	keep|keep	-0.09281372
-3.940381	keep|momentum	-0.1112524
-3.940381	keep|offense	-0.1504748
-3.958168	keep|running	-0.118018
-3.834663	keep|score	-0.1721154
-3.940381	keep|sheet	-0.08751452
-3.834663	keep|spot	-0.1503287
-3.834663	keep|streak	-0.0921073
-3.958168	keep|they	-0.0924596
-3.958168	keep|this	-0.09265763
-3.958168	keep|you	-0.113678
-2.916538	kick|	-0.1444735
-3.958168	kick|NUMBER	-0.1503287
-3.940381	kick|ball	-0.1169291
-3.304221	kick|goal	-0.08172456
-3.958168	kick|it	-0.1166234
-3.834663	kill|	-0.0899211
-3.958168	kill|we	-0.1181217
-3.056523	knock|	-0.04117471
-3.940381	knock|LOCATION	-0.1140068
-3.789366	knock|ball	-0.07780303
-3.789366	knock|he	-0.10141
-3.940381	knock|it	-0.08292677
-2.286405	know|	-0.2345838
-3.958168	know|PERSON	-0.1503287
-3.958168	know|it	-0.08896811
-3.958168	know|nothing	-0.08189281
-3.940381	know|other	-0.1059295
-3.940381	know|this	-0.09035468
-3.958168	know|well	-0.147407
-3.958168	know|which	-0.110079
-3.789366	lack|	-0.1934843
-3.677531	land|	-0.04704445
-3.677531	last|	-0.07798024
-3.958168	last|NUMBER	-0.1169771
-3.348105	last|inning	-0.123904
-3.940381	latch|	-0.09268593
-3.789366	laugh|	-0.09370761
-3.958168	laugh|it	-0.0928116
-3.834663	launch|pass	-0.1794109
-3.958168	launch|run	-0.1182442
-3.677531	lay|	-0.08419131
-3.958168	lay|bunt	-0.09262671
-3.958168	lay|it	-0.09261364
-2.618982	lead|	-0.1363101
-3.940381	lead|I	-0.0612938
-3.958168	lead|MISC	-0.09120324
-3.056523	lead|NUMBER	-0.06294876
-3.588677	lead|ORDINAL	-0.1009426
-3.080785	lead|ORGANIZATION	-0.0503007
-3.958168	lead|frame	-0.09276762
-3.940381	lead|inning	-0.1139629
-3.958168	lead|it	-0.1186194
-3.940381	lead|league	-0.1183809
-3.940381	lead|major	-0.1502754
-3.51495	lead|offense	-0.1598186
-3.396928	lead|team	-0.05528571
-3.958168	lead|they	-0.08131304
-3.51495	lead|way	-0.129445
-3.940381	lean|	-0.07967493
-3.677531	leap|	-0.1071927
-3.958168	leap|catch	-0.1169563
-3.348105	learn|	-0.05296621
-3.834663	learn|lesson	-0.1796201
-3.958168	learn|offense	-0.08890153
-2.480064	leave|	-0.1161142
-3.451942	leave|NUMBER	-0.0912237
-3.958168	leave|ORGANIZATION	-0.1138247
-3.789366	leave|PERSON	-0.08075243
-3.958168	leave|eight-tenth	-0.06165793
-3.940381	leave|field	-0.1450818
-3.958168	leave|fielder	-0.08605182
-3.194194	leave|game	-0.1301086
-3.958168	leave|he	-0.09265763
-3.958168	leave|infield	-0.09274562
-3.958168	leave|lot	-0.385072
-3.958168	leave|man	-0.1063773
-3.958168	leave|pitch	-0.085739
-3.958168	leave|stadium	-0.1152472
-2.627685	let|	-0.1686769
-3.940381	let|I	-0.114613
-3.588677	let|Mets	-0.5049275
-3.958168	let|PERSON	-0.08859076
-3.940381	let|bounce	-0.05893679
-3.958168	let|go	-0.1080878
-3.834663	let|he	-0.1503287
-3.958168	let|we	-0.1503287
-3.940381	lie|	-0.08841519
-3.789366	lift|	-0.0861454
-3.958168	lift|ORGANIZATION	-0.1170603
-3.958168	lift|ball	-0.09281372
-3.940381	light|	-0.1155101
-2.916538	like|	-0.08406671
-3.958168	like|LOCATION	-0.1110079
-3.834663	like|it	-0.08918992
-3.940381	like|look	-0.09209837
-3.789366	like|way	-0.1120182
-3.677531	limit|	-0.09728321
-3.940381	limit|ORGANIZATION	-0.0612938
-3.834663	limit|Orange	-0.09276762
-3.958168	limit|opportunity	-0.08484398
-3.958168	limp|	-0.0783902
-3.304221	line|	-0.2221584
-3.677531	link|	-0.07218018
-3.588677	listen|	-0.1099617
-3.958168	list|	-0.1171851
-3.264367	live|	-0.1547071
-3.789366	load|	-0.08728284
-3.396928	load|basis	-0.0961334
-3.958168	lob|ball	-0.09243758
-3.940381	lock|	-0.1288238
-3.958168	loft|ball	-0.1177876
-3.958168	loft|it	-0.1576305
-2.037238	look|	-0.1646992
-3.940381	look|bit	-0.1209691
-3.958168	look|he	-0.09243758
-3.958168	look|it	-0.08656526
-3.958168	look|monstrous	-0.1111134
-3.958168	look|need	-0.1082789
-3.789366	look|player	-0.08393107
-3.834663	look|way	-0.101314
-3.834663	look|what	-0.1007221
-3.834663	loom|	-0.1503287
-2.593874	lose|	-0.1857987
-3.958168	lose|5-4	-0.08725633
-3.940381	lose|DATE	-0.1588475
-2.883627	lose|NUMBER	-0.1150523
-3.51495	lose|PERSON	-0.1248302
-3.958168	lose|anything	-0.09272363
-3.940381	lose|ball	-0.1669109
-3.958168	lose|confidence	-0.09276762
-3.940381	lose|fumble	-0.08586404
-3.056523	lose|game	-0.1509477
-3.940381	lose|ground	-0.1136276
-3.958168	lose|head	-0.06165793
-3.958168	lose|likes	-0.0928116
-3.834663	lose|opener	-0.1796044
-3.940381	lose|possession	-0.06160338
-3.958168	lose|streak	-0.09133566
-3.958168	lose|voice	-0.08852413
-3.789366	lose|yard	-0.1112649
-3.133798	love|	-0.09401357
-3.958168	love|MISC	-0.08932295
-3.958168	love|basketball	-0.1537947
-3.958168	love|he	-0.1121453
-3.789366	love|it	-0.1082048
-3.958168	love|story	-0.08403686
-3.940381	love|they	-0.101314
-3.958168	love|what	-0.1136801
-3.834663	lower|	-0.1783316
-3.940381	lower|MISC	-0.1099225
-3.940381	lower|era	-0.1184639
-3.940381	lunge|	-0.1290033
-3.958168	lurk|	-0.0879463
-3.958168	maintain|possession	-0.08896811
-2.319699	make|	-0.2070418
-3.958168	make|DATE	-0.1121032
-3.834663	make|Giants	-0.2601332
-3.958168	make|I	-0.1162693
-3.958168	make|MISC	-0.1172079
-3.033545	make|NUMBER	-0.166674
-3.940381	make|ORDINAL	-0.07930292
-3.958168	make|PERSON	-0.1111134
-3.958168	make|adjustment	-0.09274562
-3.958168	make|appearance	-0.08315168
-3.677531	make|attempt	-0.04299373
-3.080785	make|catch	-0.09933719
-3.789366	make|change	-0.05184156
-3.958168	make|choice	-0.06165793
-3.940381	make|comeback	-0.1109271
-3.958168	make|completion	-0.1132377
-3.789366	make|contact	-0.1631937
-3.940381	make|cut	-0.1260875
-3.264367	make|debut	-0.05849124
-3.789366	make|decision	-0.104561
-3.588677	make|difference	-0.06038413
-3.958168	make|distance	-0.09278961
-3.958168	make|drive	-0.09272363
-3.958168	make|ear	-0.1794302
-3.940381	make|error	-0.08184552
-3.958168	make|fun	-0.1241864
-3.940381	make|game	-0.2308418
-3.51495	make|goal	-0.09040029
-3.940381	make|ground	-0.06079692
-3.789366	make|he	-0.1631937
-3.789366	make|history	-0.05626573
-3.958168	make|impact	-0.1560782
-3.940381	make|impression	-0.08955776
-3.940381	make|interception	-0.08751452
-2.824458	make|it	-0.1486801
-3.958168	make|jump	-0.116436
-3.958168	make|kick	-0.1537947
-3.958168	make|line	-0.1109658
-3.958168	make|list	-0.1054257
-3.834663	make|lot	-0.06143565
-3.348105	make|mistake	-0.1088883
-3.940381	make|most	-0.1149044
-3.789366	make|move	-0.09050204
-3.958168	make|much	-0.1537947
-3.958168	make|nice	-0.1185572
-3.940381	make|noise	-0.09214243
-3.958168	make|pass	-0.1182234
-2.899771	make|play	-0.08885414
-3.958168	make|playoff	-0.0844406
-3.958168	make|read	-0.1166149
-3.940381	make|return	-0.08139421
-3.958168	make|roster	-0.1150592
-3.451942	make|run	-0.1460615
-3.958168	make|sack	-0.09254763
-3.677531	make|sense	-0.1069991
-3.958168	make|some	-0.09228349
-3.396928	make|start	-0.1036225
-3.940381	make|statement	-0.09271683
-3.451942	make|team	-0.1989137
-3.940381	make|trip	-0.09276082
-3.958168	make|turn	-0.09133566
-3.958168	make|way	-0.09155627
-3.958168	make|what	-0.1105352
-3.958168	make|work	-0.1134684
-2.694039	manage|	-0.1787074
-3.958168	manage|MISC	-0.1178707
-3.588677	manage|NUMBER	-0.0822036
-3.940381	manage|game	-0.08855955
-3.588677	manage|hit	-0.0868637
-3.958168	manage|interception	-0.0921954
-3.940381	manage|run	-0.08735866
-3.789366	manage|yard	-0.09247688
-3.958168	manhandle|	-0.08932295
-3.958168	manufacture|run	-0.08892373
-3.958168	man|	-0.109783
-3.958168	man|PERSON	-0.1164568
-3.940381	march|	-0.1185695
-3.958168	march|ORGANIZATION	-0.2199735
-3.958168	march|yard	-0.08453028
-3.940381	mark|	-0.08103147
-3.940381	marshal|	-0.09078784
-3.958168	marvel|	-0.1082789
-3.940381	mar|	-0.1151343
-3.348105	match|	-0.150546
-3.958168	match|play	-0.06165793
-3.396928	matter|	-0.07682443
-3.789366	mature|	-0.07893979
-3.958168	maul|	-0.08484398
-2.838512	mean|	-0.07864679
-3.958168	mean|he	-0.09281372
-3.958168	mean|lot	-0.1130278
-3.834663	mean|something	-0.111029
-3.789366	mean|what	-0.1043538
-3.958168	measure|	-0.06165793
-3.958168	medicate|	-0.1177669
-3.264367	meet|	-0.19531
-3.958168	meet|PERSON	-0.06160338
-2.883627	mention|	-0.4802769
-3.958168	mess|	-0.08235056
-3.958168	metre|NUMBER	-0.1796044
-3.834663	metre|butterfly	-0.1141409
-3.958168	metre|medley	-0.1796044
-3.834663	metre|relay	-0.1181217
-3.789366	mind|	-0.1116713
-3.958168	minute|	-0.08763483
-3.958168	misfire|	-0.1151636
-3.940381	misjudge|	-0.08824853
-2.883627	miss|	-0.1967146
-3.834663	miss|DIVES	-0.1693874
-3.677531	miss|PERSON	-0.100893
-3.958168	miss|all	-0.08934512
-3.789366	miss|ball	-0.1070523
-3.940381	miss|chance	-0.1032776
-3.958168	miss|couple	-0.1169563
-3.958168	miss|fg	-0.1537947
-3.940381	miss|game	-0.1143398
-3.789366	miss|it	-0.1175351
-3.958168	miss|opportunity	-0.1179122
-3.834663	miss|sitter	-0.1503287
-3.834663	motion|	-0.1183271
-3.958168	motivate|	-0.118182
-3.834663	mount|drive	-0.1751195
-2.748527	move|	-0.1659984
-3.958168	move|NUMBER	-0.1178499
-3.940381	move|ORGANIZATION	-0.07831278
-3.588677	move|PERSON	-0.0793888
-2.899771	move|ball	-0.1343809
-3.51495	move|chain	-0.104224
-3.958168	move|field	-0.0884575
-3.789366	move|he	-0.1631937
-3.940381	move|runner	-0.1144025
-3.958168	nail|goal	-0.08235056
-3.940381	nail|it	-0.1179038
-3.789366	name|	-0.1045786
-3.677531	name|pitcher	-0.1245099
-3.677531	name|player	-0.1085418
-3.958168	navigate|way	-0.08623049
-2.341883	need|	-0.2128669
-3.588677	need|PERSON	-0.1910387
-3.940381	need|goal	-0.1178643
-3.789366	need|he	-0.1052609
-3.958168	need|help	-0.06165793
-3.940381	need|it	-0.11753
-3.940381	need|lot	-0.2343078
-3.958168	need|more	-0.1184308
-3.958168	need|pace	-0.08954459
-3.940381	need|pitch	-0.1079306
-3.958168	need|play	-0.1083425
-3.958168	need|player	-0.09265763
-3.958168	need|someone	-0.1157064
-3.958168	need|ticket	-0.08823531
-3.940381	need|what	-0.06160338
-3.789366	net|	-0.1443597
-3.789366	nod|	-0.339285
-3.958168	notch|	-0.09241557
-3.940381	notch|victory	-0.08738093
-3.396928	note|	-0.06896812
-3.677531	notice|	-0.04917966
-3.834663	nullify|	-0.1179537
-3.834663	obsess|	-0.09177677
-3.834663	obstruct|	-0.0928116
-3.451942	occur|	-0.05915876
-2.952149	open|	-0.06582741
-3.940381	open|DATE	-0.1184244
-3.958168	open|DURATION	-0.1186194
-3.958168	open|ORDINAL	-0.09171063
-3.940381	open|door	-0.08651374
-3.588677	open|game	-0.08833268
-3.958168	open|half	-0.0783902
-3.588677	open|hole	-0.1020261
-3.834663	open|la	-0.1721154
-3.958168	open|more	-0.08643138
-3.958168	open|opportunity	-0.0783902
-3.834663	open|playbook	-0.1794109
-3.958168	open|series	-0.1173306
-3.958168	open|the	-0.1186194
-3.677531	open|thing	-0.08026819
-3.588677	operate|	-0.1046868
-3.940381	oppose|	-0.1184659
-3.940381	opt|	-0.08461512
-3.958168	out-touch|PERSON	-0.09243758
-3.834663	outdo|himself	-0.1503287
-3.958168	outpitch|PERSON	-0.1075355
-3.789366	outplay|	-0.1236748
-3.834663	outrun|everybody	-0.1503287
-3.958168	outscore|NUMBER	-0.1098888
-3.958168	outscore|opponent	-0.0923055
-3.958168	outshoot|ORGANIZATION	-0.1165401
-3.789366	overcome|	-0.09236682
-3.789366	overcome|deficit	-0.114415
-3.940381	overlook|	-0.07371818
-3.789366	overmatch|	-0.1415379
-3.958168	overthrow|ball	-0.1185345
-3.958168	overturn|it	-0.08918992
-3.677531	own|	-0.1029381
-3.940381	own|record	-0.1056947
-3.958168	own|they	-0.0924596
-3.451942	pack|	-0.08374878
-3.958168	paddle|	-0.1120401
-3.958168	panic|	-0.148041
-3.940381	parry|	-0.07764365
-3.834663	participate|	-0.1693874
-3.958168	partner|	-0.1768954
-2.473851	pass|	-0.2608435
-3.958168	pass|PERSON	-0.06126058
-3.348105	pass|ball	-0.08295745
-3.677531	pass|grade	-0.08452547
-3.789366	pass|it	-0.1180052
-3.834663	pass|penalty	-0.1170395
-3.834663	pass|test	-0.1180367
-3.958168	pass|way	-0.08131304
-3.940381	pass|yard	-0.07694633
-3.958168	pat|I	-0.08934512
-3.789366	pave|way	-0.3067894
-3.834663	paydirt|	-0.1791621
-3.51495	pay|	-0.1039549
-3.940381	pay|attention	-0.117806
-3.940381	pay|dividend	-0.06108092
-3.940381	pay|price	-0.1467632
-3.958168	peg|	-0.1537947
-3.958168	penetrate|defence	-0.1182442
-3.264367	perform|	-0.07074007
-3.958168	perform|routine	-0.09281372
-2.952149	pick|	-0.1454963
-3.834663	pick|DATE	-0.08856855
-2.990943	pick|ORDINAL	-0.04900603
-3.789366	pick|PERSON	-0.105152
-3.958168	pick|a	-0.09073946
-3.958168	pick|back	-0.1182669
-3.451942	pick|ball	-0.04628105
-3.958168	pick|card	-0.1133006
-3.588677	pick|down	-0.1031746
-3.940381	pick|he	-0.0831292
-3.789366	pick|it	-0.06875359
-3.958168	pick|linebacker	-0.1170416
-3.588677	pick|pass	-0.1179221
-3.958168	pick|point	-0.08823531
-3.958168	pick|someone	-0.1147666
-3.940381	pick|the	-0.09127577
-3.677531	pick|victory	-0.1140946
-3.789366	pick|yard	-0.08603373
-3.958168	pick|yardage	-0.08836864
-3.834663	ping|it	-0.1795767
-3.789366	piss|	-0.09878492
-2.512536	pitch|	-0.1356244
-3.51495	pitch|NUMBER	-0.08225746
-3.304221	pitch|ORDINAL	-0.08645447
-3.958168	pitch|ORGANIZATION	-0.1142855
-3.958168	pitch|ball	-0.1185759
-3.958168	pitch|era	-0.1174969
-3.396928	pitch|game	-0.1852209
-3.958168	pitch|gem	-0.1163527
-2.577906	pitch|inning	-0.2972369
-3.940381	pitch|shutout	-0.09026621
-3.958168	pit|PERSON	-0.0884575
-3.958168	plant|	-0.09278961
-3.51495	plan|	-0.1271894
-3.958168	plate|	-0.1117665
-3.940381	plate|NUMBER	-0.09267072
-3.940381	plate|PERSON	-0.110007
-3.940381	plate|run	-0.09192211
-2.105539	play|	-0.1939098
-3.958168	play|DATE	-0.0884575
-3.834663	play|Dame	-0.1130488
-3.588677	play|LOCATION	-0.1185092
-3.677531	play|NUMBER	-0.08290593
-3.958168	play|ORDINAL	-0.09274562
-3.451942	play|ORGANIZATION	-0.06671546
-3.51495	play|PERSON	-0.07713746
-3.451942	play|ball	-0.1048407
-3.958168	play|baseball	-0.07547478
-3.958168	play|basketball	-0.1150383
-3.677531	play|defense	-0.07577659
-3.958168	play|division	-0.08484398
-3.227865	play|football	-0.09446188
-3.106483	play|game	-0.1279566
-3.834663	play|great	-0.1773538
-3.940381	play|half	-0.1182813
-3.958168	play|image	-0.08827976
-3.940381	play|it	-0.1248049
-3.940381	play|match	-0.1170519
-3.834663	play|odds	-0.1503287
-3.958168	play|part	-0.08934512
-3.958168	play|position	-0.08887935
-3.789366	play|role	-0.105499
-3.958168	play|school	-0.08925644
-3.789366	play|some	-0.1136002
-3.789366	play|spoiler	-0.0790079
-3.958168	play|spot	-0.1503287
-3.677531	play|team	-0.04733758
-3.834663	play|through-ball	-0.1793901
-3.677531	play|time	-0.05721497
-3.789366	play|volleyball	-0.1125297
-3.958168	play|way	-0.1170188
-3.958168	play|what	-0.06165793
-3.264367	play|yard	-0.1391153
-3.304221	please|	-0.05168967
-3.588677	point|	-0.06610224
-3.789366	poise|	-0.140719
-3.958168	ponder|	-0.1179537
-3.304221	pop|	-0.05126785
-3.940381	pose|	-0.2343078
-3.958168	pose|threat	-0.08883496
-3.958168	possess|speed	-0.1181197
-3.958168	postpone|	-0.1081217
-3.789366	post|	-0.07227386
-3.958168	post|MISC	-0.08918992
-3.940381	post|era	-0.101314
-3.940381	pounce|	-0.1151781
-3.677531	pound|	-0.05627997
-3.940381	pound|ball	-0.110704
-3.588677	pound|hit	-0.1238094
-3.834663	pound|it	-0.1796044
-3.940381	pound|run	-0.1146117
-3.958168	pound|yard	-0.08881277
-3.789366	power|	-0.09043632
-3.940381	power|ORGANIZATION	-0.0909735
-3.677531	practice|	-0.07952664
-3.958168	practice|blocking	-0.09281372
-3.958168	practice|what	-0.09175472
-3.958168	praise|	-0.0858731
-3.834663	praise|he	-0.1693874
-3.958168	pray|	-0.08194488
-3.940381	precede|	-0.1083127
-3.940381	predict|	-0.09472472
-3.958168	predict|victory	-0.1537947
-3.264367	prepare|	-0.06538779
-3.789366	present|	-0.08233231
-3.958168	preserve|	-0.0858731
-3.958168	pressure|	-0.1580247
-3.958168	pressure|PERSON	-0.1537947
-3.51495	press|	-0.03998364
-3.958168	press|luck	-0.0879463
-3.958168	pretend|	-0.08899029
-3.958168	prevent|LOCATION	-0.08453028
-3.958168	prevent|PERSON	-0.1176838
-3.958168	prevent|he	-0.1185986
-3.940381	proceed|	-0.1136905
-3.588677	produce|	-0.1065157
-3.958168	produce|down	-0.1185157
-3.834663	produce|point	-0.118101
-3.958168	produce|shot	-0.1106493
-3.958168	produce|yard	-0.1796044
-3.789366	progress|	-0.1197859
-3.677531	promote|	-0.1142791
-3.958168	protect|PERSON	-0.1167398
-3.056523	prove|	-0.1440473
-3.789366	provide|	-0.1053932
-3.958168	provide|Arsenal	-0.06165793
-3.789366	ptich|	-0.08635062
-3.834663	publicize|thought	-0.1796201
-2.933979	pull|	-0.1172704
-3.834663	pull|PERSON	-0.06165793
-3.958168	pull|comeback	-0.08131304
-3.958168	pull|hair	-0.1169355
-3.958168	pull|it	-0.1026822
-3.958168	pull|rookie	-0.0884575
-3.958168	pull|upset	-0.08453028
-3.789366	pump|	-0.1017511
-3.958168	pump|team	-0.0928116
-3.789366	punch|	-0.09458926
-3.958168	punch|ball	-0.08876838
-3.940381	punch|it	-0.08808393
-3.133798	punt|	-0.07696827
-3.304221	punt|ball	-0.08704378
-3.958168	punt|time	-0.1185157
-3.264367	push|	-0.1682931
-3.940381	push|NUMBER	-0.07976559
-3.958168	push|PERSON	-0.1185552
-3.958168	push|ball	-0.1176423
-3.940381	push|he	-0.08234143
-3.940381	push|it	-0.09231859
-2.694039	put|	-0.1504359
-3.264367	put|LOCATION	-0.1264141
-3.958168	put|NATIONALITY	-0.1180575
-3.588677	put|NUMBER	-0.05825361
-3.056523	put|ORGANIZATION	-0.1434923
-3.677531	put|PERSON	-0.07754553
-3.789366	put|Phils	-0.1120691
-3.834663	put|a	-0.1756007
-3.51495	put|ball	-0.1996083
-3.958168	put|cross	-0.08623049
-3.396928	put|drive	-0.09027004
-3.834663	put|effort	-0.1768954
-3.834663	put|everyone	-0.1796044
-3.51495	put|game	-0.09683708
-3.834663	put|goal	-0.1120821
-3.789366	put|hand	-0.09069125
-3.396928	put|he	-0.1544105
-3.834663	put|host	-0.1796201
-3.588677	put|it	-0.1100509
-3.677531	put|man	-0.09030573
-3.677531	put|number	-0.08266025
-3.940381	put|performance	-0.08189063
-3.789366	put|player	-0.08500715
-3.51495	put|point	-0.07663551
-3.940381	put|pressure	-0.1181124
-3.789366	put|run	-0.1268128
-3.940381	put|shot	-0.0894248
-3.940381	put|team	-0.06160338
-3.51495	put|they	-0.09680006
-3.958168	put|time	-0.06160109
-3.940381	put|we	-0.08853734
-3.958168	put|yard	-0.1140761
-3.348105	qualify|	-0.1787656
-3.834663	queue|	-0.1721154
-3.396928	quit|	-0.08617841
-3.940381	race|	-0.08921631
-3.958168	rain|	-0.0884575
-3.940381	raise|average	-0.1290012
-3.451942	rally|	-0.09886089
-3.264367	rank|	-0.07129949
-3.940381	rank|ORDINAL	-0.1166358
-3.789366	rattle|	-0.08879478
-3.958168	rave|	-0.08905684
-3.834663	re-open|	-0.1794731
-3.834663	re-take|it	-0.1796201
-3.451942	reach|	-0.09143832
-3.940381	reach|base	-0.1072205
-3.958168	reach|mark	-0.1042921
-3.958168	reach|semifinal	-0.1750357
-3.588677	react|	-0.07212913
-3.304221	read|	-0.1034702
-3.834663	read|NUMBER	-0.1146202
-3.958168	read|defense	-0.06165793
-3.958168	read|it	-0.1791537
-3.940381	read|more	-0.2555489
-3.940381	realise|	-0.06046536
-3.227865	realize|	-0.08675567
-3.958168	realize|I	-0.08883496
-3.940381	rebound|	-0.1463524
-3.451942	recall|	-0.1169229
-3.51495	receive|	-0.08485644
-3.834663	receive|chant	-0.1795767
-3.940381	receive|medal	-0.1319175
-3.834663	receive|ovation	-0.1751195
-3.834663	reckon|	-0.11758
-3.588677	record|	-0.07001361
-3.958168	record|NUMBER	-0.08861297
-3.588677	record|out	-0.1136566
-3.588677	record|sack	-0.07150671
-2.916538	recover|	-0.1233885
-3.958168	recover|NUMBER	-0.08852413
-3.940381	recover|fumble	-0.08715349
-3.789366	recover|it	-0.06152292
-3.834663	recover|punt	-0.179556
-3.834663	recover|team	-0.1503287
-3.958168	recruit|	-0.08552872
-3.789366	redeem|himself	-0.07740664
-3.958168	red|	-0.1183893
-3.958168	reel|	-0.08927861
-3.677531	refer|	-0.07690507
-3.677531	reflect|	-0.08452487
-3.834663	reflect|challenge	-0.1789546
-3.958168	refocus|	-0.1136801
-3.940381	refuse|	-0.08216116
-3.958168	regain|lead	-0.1178914
-3.789366	regard|	-0.1133355
-3.940381	regret|	-0.0612465
-3.834663	reign|	-0.1184723
-3.834663	rekindle|debate	-0.1503287
-3.588677	relax|	-0.1120511
-3.958168	relay|	-0.1121052
-3.789366	release|	-0.1153347
-3.834663	release|shot	-0.1796044
-3.958168	relieve|he	-0.1184101
-3.834663	relish|chance	-0.2308418
-3.588677	rely|	-0.1504037
-2.810844	remain|	-0.1577848
-2.971113	remember|	-0.1964834
-3.834663	remember|Bowl	-0.2601175
-3.958168	remember|he	-0.1007221
-3.677531	remind|I	-0.07199565
-3.958168	remove|	-0.1110501
-3.958168	remove|PERSON	-0.1184723
-3.834663	renew|	-0.09166653
-3.677531	repeat|	-0.06905566
-3.133798	replace|	-0.3030851
-3.133798	replace|PERSON	-0.4546107
-3.677531	replace|he	-0.1078517
-3.958168	replace|player	-0.1179537
-3.958168	reply|	-0.1166442
-3.588677	report|	-0.2183894
-3.958168	represent|	-0.08934512
-3.940381	research|	-0.09206743
-3.940381	resemble|	-0.1089277
-3.940381	resign|	-0.107922
-3.51495	respond|	-0.1018424
-3.940381	restart|	-0.1019425
-3.304221	rest|	-0.04429892
-3.958168	rest|NUMBER	-0.09228349
-2.868062	result|	-0.1022171
-3.588677	resume|	-0.06816742
-3.834663	resurface|	-0.1793694
-3.588677	retire|	-0.1341545
-3.940381	retire|NUMBER	-0.09065525
-3.940381	retire|batter	-0.08849506
-3.958168	retire|side	-0.1141808
-3.958168	retun|	-0.1183271
-2.784835	return|	-0.233059
-3.958168	return|interception	-0.1171247
-3.588677	return|it	-0.1000606
-3.789366	return|kick	-0.09021805
-3.51495	return|kickoff	-0.06893165
-3.51495	return|punt	-0.09474833
-3.677531	return|starter	-0.05555806
-3.958168	return|yard	-0.1177876
-3.958168	reverberate|	-0.1693874
-3.958168	revert|	-0.1144738
-3.958168	review|	-0.1135458
-3.834663	review|play	-0.09204121
-3.677531	reward|	-0.09795479
-3.958168	rewrite|history	-0.1793072
-3.958168	ricochet|	-0.1136801
-3.834663	ride|half	-0.1756635
-3.588677	rip|	-0.07555003
-3.958168	rip|point	-0.1167483
-3.958168	rip|triple	-0.1180387
-3.789366	rise|	-0.08841729
-3.834663	risk|	-0.1503287
-3.958168	risk|injury	-0.1185345
-3.789366	roar|	-0.1145635
-3.958168	rob|	-0.1308593
-3.940381	rock|	-0.08887249
-2.952149	roll|	-0.05622352
-3.958168	roost|	-0.1154769
-3.940381	root|	-0.1897488
-3.789366	rotate|	-0.1215839
-3.958168	rotate|PERSON	-0.09248161
-3.958168	round|keeper	-0.1174138
-3.677531	rule|	-0.06150662
-3.958168	rumor|	-0.08934512
-2.216268	run|	-0.1512823
-3.789366	run|NUMBER	-0.115105
-3.348105	run|PERSON	-0.1562151
-3.940381	run|all	-0.1145071
-3.677531	run|back	-0.050864
-2.933979	run|ball	-0.1216811
-3.789366	run|clock	-0.135181
-3.958168	run|drill	-0.1185759
-3.834663	run|each	-0.1503287
-3.834663	run|fake	-0.1790791
-3.940381	run|field	-0.08474529
-3.677531	run|game	-0.1152801
-3.958168	run|it	-0.08899029
-3.677531	run|offense	-0.07448181
-3.958168	run|option	-0.118182
-3.451942	run|play	-0.04480984
-3.958168	run|reverse	-0.1165817
-3.958168	run|room	-0.1182649
-3.958168	run|route	-0.107833
-3.834663	run|run	-0.1796181
-3.958168	run|screen	-0.08194488
-3.958168	run|sideline	-0.08899029
-3.940381	run|streak	-0.1145281
-3.588677	run|time	-0.1098893
-3.958168	run|way	-0.1174553
-3.677531	run|yard	-0.1306952
-2.654891	rush|	-0.1679482
-3.940381	rush|CAUSE_OF_DEATH	-0.1711627
-3.958168	rush|NUMBER	-0.1517453
-3.940381	rush|attempt	-0.128979
-3.940381	rush|ball	-0.108272
-3.789366	rush|game	-0.07636647
-3.834663	rush|play	-0.1082576
-3.588677	rush|time	-0.08715343
-3.940381	rush|touchdown	-0.09273883
-3.227865	rush|yard	-0.1556788
-2.990943	sack|	-0.1030052
-3.958168	sack|PERSON	-0.1176215
-3.834663	sack|time	-0.173084
-3.834663	sail|yard	-0.1796201
-3.940381	sandwich|	-0.0892031
-3.940381	satisfy|	-0.1486983
-2.486367	save|	-0.184751
-3.958168	save|game	-0.1172267
-3.958168	save|job	-0.0844406
-3.958168	save|opportunity	-0.08453028
-3.789366	save|shot	-0.08675009
-2.27455	say|	-0.2562777
-3.958168	say|NUMBER	-0.0530339
-3.677531	say|PERSON	-0.1115072
-3.940381	say|anything	-0.07407863
-3.834663	say|captain	-0.173084
-3.588677	say|it	-0.1681379
-3.940381	say|least	-0.06091528
-3.789366	say|something	-0.1147472
-3.940381	say|that	-0.1324457
-3.940381	say|this	-0.1285576
-3.588677	say|what	-0.08300282
-3.958168	say|word	-0.1170603
-3.789366	scamper|	-0.1075772
-3.940381	scamper|yard	-0.1219163
-3.789366	scatter|hit	-0.07721074
-3.348105	schedule|	-0.05721033
-3.958168	school|	-0.06165793
-2.144192	score|	-0.2015886
-3.789366	score|MISC	-0.1144787
-3.194194	score|NUMBER	-0.0555721
-3.304221	score|PERSON	-0.08353038
-3.056523	score|goal	-0.1183031
-3.834663	score|keep	-0.1788716
-3.940381	score|lot	-0.08189063
-3.940381	score|more	-0.08400533
-3.958168	score|opener	-0.1151428
-3.056523	score|point	-0.1218302
-2.853036	score|run	-0.05954152
-3.677531	score|td	-0.170457
-3.958168	score|team	-0.1276913
-3.940381	score|time	-0.1559046
-2.990943	score|touchdown	-0.05201873
-3.677531	scramble|	-0.05087844
-3.958168	scramble|time	-0.1184121
-3.958168	scranton/wilkes|	-0.1119101
-3.940381	scranton/wilkes|ORGANIZATION	-0.1413027
-3.958168	scratch|	-0.1139085
-3.588677	scream|	-0.09556362
-3.940381	screech|	-0.08557343
-3.940381	scrimmage|	-0.2343078
-3.958168	seal|	-0.1157481
-3.958168	seal|game	-0.1113452
-3.940381	seal|victory	-0.1275134
-3.958168	secure|	-0.1099945
-3.958168	secure|ball	-0.1075355
-3.958168	seek|	-0.08916774
-2.421607	seem|	-0.2014077
-2.332873	see|	-0.2108108
-3.958168	see|LOCATION	-0.116311
-3.958168	see|MISC	-0.1180782
-3.958168	see|NUMBER	-0.08912338
-3.51495	see|PERSON	-0.1635816
-3.958168	see|ball	-0.0928116
-3.958168	see|end	-0.1185345
-3.958168	see|event	-0.1324237
-3.789366	see|field	-0.08255754
-3.958168	see|goal	-0.08605182
-3.789366	see|he	-0.1027788
-3.396928	see|it	-0.09103194
-3.958168	see|lot	-0.115915
-3.958168	see|mom	-0.09267963
-3.958168	see|most	-0.1169563
-3.940381	see|much	-0.08648545
-3.834663	see|performance	-0.107748
-3.958168	see|pitch	-0.1064286
-3.789366	see|play	-0.08011886
-3.940381	see|player	-0.06037058
-3.940381	see|reason	-0.08869492
-3.958168	see|team	-0.08861297
-3.958168	see|they	-0.08916774
-3.940381	see|thing	-0.0925167
-3.958168	see|this	-0.08823531
-3.940381	see|time	-0.1236929
-3.958168	see|tv	-0.1177461
-3.940381	see|what	-0.08856169
-3.958168	sell|PERSON	-0.1184515
-3.106483	send|	-0.1849716
-3.958168	send|NUMBER	-0.1166858
-3.958168	send|ORGANIZATION	-0.1084082
-3.348105	send|PERSON	-0.1415274
-3.677531	send|ball	-0.08144604
-3.940381	send|cross	-0.1183829
-3.789366	send|game	-0.111485
-3.958168	send|header	-0.1106704
-3.677531	send|it	-0.1824059
-3.958168	send|way	-0.1110712
-3.940381	send|who	-0.1336592
-3.834663	separate|	-0.1184121
-3.162947	serve|	-0.07058744
-3.958168	serve|ball	-0.08735866
-3.958168	serve|suspension	-0.115623
-2.971113	settle|	-0.1846668
-2.883627	set|	-0.122271
-3.834663	set|LOCATION	-0.1111365
-3.958168	set|MISC	-0.08905684
-3.958168	set|NUMBER	-0.1571342
-3.958168	set|ORGANIZATION	-0.1182027
-3.51495	set|PERSON	-0.07073457
-3.940381	set|ball	-0.08055804
-3.940381	set|game	-0.2867478
-3.940381	set|goal	-0.08695762
-3.51495	set|record	-0.08874278
-3.958168	set|score	-0.0783902
-3.940381	set|tone	-0.1165317
-3.940381	set|touchdown	-0.1657299
-3.958168	set|way	-0.118182
-3.958168	seven|	-0.09177677
-3.958168	shag|	-0.09278961
-3.958168	shake|defender	-0.08932295
-3.958168	shake|hand	-0.08934726
-3.958168	shake|head	-0.08716722
-3.789366	share|	-0.08671662
-3.834663	share|credit	-0.1773538
-3.677531	shatter|record	-0.1116798
-3.940381	shave|	-0.1077179
-3.958168	shed|	-0.1503287
-3.304221	shine|	-0.05792588
-3.677531	shock|	-0.05567416
-3.162947	shoot|	-0.1298789
-3.958168	shorten|	-0.0899211
-3.789366	short|	-0.1062929
-3.789366	shout|	-0.0878436
-3.958168	shove|	-0.09204121
-3.958168	shove|player	-0.1180782
-2.627685	show|	-0.1744686
-3.958168	show|DURATION	-0.09281372
-3.958168	show|I	-0.06165793
-3.51495	show|ability	-0.04514131
-3.958168	show|awareness	-0.101314
-3.958168	show|balance	-0.08131304
-3.834663	show|blitz	-0.1795767
-3.958168	show|composure	-0.1079817
-3.958168	show|crack	-0.1177046
-3.834663	show|drive	-0.1693874
-3.958168	show|flash	-0.08934726
-3.958168	show|improvement	-0.1186381
-3.677531	show|it	-0.05856077
-3.958168	show|lot	-0.08306174
-3.958168	show|patience	-0.09281372
-3.958168	show|poise	-0.08910121
-3.958168	show|promise	-0.08916774
-3.789366	show|sign	-0.0731831
-3.940381	show|team	-0.06143565
-3.958168	show|touch	-0.0783902
-3.958168	show|versatility	-0.09217338
-3.958168	show|world	-0.09047422
-3.958168	shred|	-0.08453028
-3.677531	shut|	-0.05206545
-3.958168	shut|ORGANIZATION	-0.08827976
-3.834663	shut|door	-0.178103
-3.834663	shut|offense	-0.1770204
-3.834663	sidefoot|ball	-0.09270163
-3.834663	sideline|	-0.1129438
-3.958168	sidetrack|	-0.1163735
-3.51495	sign|	-0.08239988
-3.958168	sign|PERSON	-0.1322697
-3.958168	sign|he	-0.09263563
-3.958168	silence|crowd	-0.1175384
-2.952149	single|	-0.07121893
-3.834663	single|Church	-0.1693874
-3.789366	single|PERSON	-0.09080947
-3.940381	single|he	-0.1268233
-3.958168	single|home	-0.09259163
-3.958168	single|run	-0.1148711
-3.940381	sink|	-0.0520734
-3.080785	sit|	-0.1114203
-3.677531	skip|	-0.05572437
-3.958168	ski|	-0.09276762
-3.958168	slam|	-0.1664013
-3.958168	slate|	-0.0879463
-3.789366	sleep|	-0.1120425
-3.51495	slide|	-0.05108285
-3.958168	slide|ball	-0.0928116
-3.264367	slip|	-0.1290896
-3.940381	slot|	-0.1170331
-3.677531	slow|	-0.1220193
-3.958168	slow|thing	-0.09250361
-3.958168	slug|	-0.08892373
-3.940381	slug|NUMBER	-0.08164249
-3.940381	smack|	-0.1076756
-3.588677	smash|	-0.0816828
-3.789366	smash|it	-0.1243251
-3.789366	smash|record	-0.1009421
-3.958168	smell|	-0.1503287
-3.940381	smile|	-0.1558837
-3.588677	snap|	-0.04925712
-3.789366	snap|streak	-0.1122564
-3.834663	snatch|victory	-0.2308418
-3.958168	sneak|	-0.09281372
-3.958168	solve|problem	-0.1044848
-3.958168	sort|	-0.06165793
-3.51495	sound|	-0.07305507
-3.958168	spark|	-0.220008
-3.304221	speak|	-0.04411255
-3.958168	speak|volume	-0.08692208
-3.958168	spearhead|	-0.1289865
-3.588677	spend|	-0.08112274
-3.958168	spend|DATE	-0.1082364
-3.940381	spend|most	-0.05708799
-3.958168	spend|much	-0.1182462
-3.940381	spike|	-0.1319616
-3.834663	spin|	-0.08403686
-3.834663	spin|it	-0.08896811
-3.677531	split|	-0.07782312
-3.958168	split|defender	-0.08921209
-3.958168	split|they	-0.08914556
-3.677531	spoil|	-0.06065938
-3.834663	spoon|header	-0.1765407
-3.677531	sport|	-0.09026339
-3.677531	spread|	-0.1228212
-3.940381	spread|ball	-0.1171371
-3.451942	sprint|	-0.07092515
-3.940381	sputter|	-0.1062982
-3.789366	square|	-0.1172235
-3.958168	square|it	-0.118099
-3.958168	squeak|a	-0.08854635
-3.958168	stabilize|	-0.1101213
-3.940381	stack|line	-0.08895911
-3.264367	stall|	-0.04374287
-3.940381	stall|drive	-0.08499166
-2.952149	stand|	-0.1599668
-3.958168	stand|chance	-0.0921954
-3.834663	stand|it	-0.1796181
-3.940381	stare|	-0.07318766
-2.196282	start|	-0.2635322
-3.677531	start|DATE	-0.1052206
-3.940381	start|NUMBER	-0.117343
-3.348105	start|ORDINAL	-0.09578073
-3.677531	start|PERSON	-0.08622569
-3.958168	start|bit	-0.08131304
-3.348105	start|drive	-0.07858232
-3.396928	start|game	-0.2056018
-3.789366	start|half	-0.06142608
-3.958168	start|home	-0.1181217
-3.106483	start|inning	-0.4675438
-3.958168	start|loss	-0.09281372
-3.958168	start|play	-0.09076156
-3.940381	start|position	-0.06143565
-3.940381	start|qb	-0.08977927
-3.940381	start|race	-0.1220066
-3.834663	start|rally	-0.1796044
-3.789366	start|season	-0.0891104
-3.958168	start|thing	-0.1141808
-3.958168	start|trip	-0.08623049
-3.958168	start|what	-0.08504552
-3.304221	state|	-0.08482871
-2.868062	stay|	-0.1286985
-3.958168	stay|way	-0.1185552
-2.990943	steal|	-0.01822328
-3.958168	steal|ORDINAL	-0.1158316
-3.940381	steal|ball	-0.085797
-3.958168	steal|base	-0.09076156
-3.940381	steal|basis	-0.08703776
-3.958168	steal|show	-0.1576513
-3.056523	step|	-0.1318096
-3.958168	step|gear	-0.0928116
-3.789366	step|it	-0.1208786
-3.834663	step|late	-0.1503287
-3.451942	stick|	-0.1649293
-3.958168	stick|it	-0.2188872
-3.958168	stiffen|	-0.08867957
-3.958168	stifle|	-0.1139085
-2.824458	stop|	-0.1152927
-3.940381	stop|LOCATION	-0.1315651
-3.958168	stop|PERSON	-0.08841729
-3.958168	stop|drive	-0.08954459
-3.940381	stop|game	-0.1049682
-3.958168	stop|he	-0.06165793
-3.958168	stop|play	-0.08793728
-3.588677	stop|run	-0.08583261
-3.958168	stop|streak	-0.08235056
-3.834663	stop|that	-0.1751195
-3.789366	stop|they	-0.1762818
-3.51495	strand|	-0.1169517
-3.451942	strand|NUMBER	-0.1018256
-3.958168	streak|sideline	-0.1178084
-3.958168	strengthen|	-0.0858731
-3.677531	stretch|	-0.06429676
-3.958168	stretch|it	-0.1178914
-3.958168	stretch|lead	-0.08934726
-2.899771	strike|	-0.1216591
-2.737068	strike|NUMBER	-0.1109601
-3.958168	strike|ORGANIZATION	-0.08763483
-3.451942	strike|PERSON	-0.0771628
-3.227865	strike|batter	-0.07311607
-3.958168	strike|crossbar	-0.1503287
-3.677531	strike|he	-0.1522938
-3.834663	strike|pen	-0.1756007
-3.958168	strike|post	-0.08934726
-3.958168	strike|side	-0.1091481
-3.940381	strike|time	-0.08738093
-3.940381	strip|	-0.05901774
-3.958168	stroll|	-0.1179142
-2.694039	struggle|	-0.1781241
-3.958168	struggle|DATE	-0.08194488
-3.958168	struggle|bit	-0.1186401
-3.958168	struggle|most	-0.09129152
-3.834663	struggle|time	-0.08484398
-3.940381	stuff|	-0.08479226
-3.940381	stumble|	-0.09042103
-3.940381	stymie|	-0.1108728
-3.958168	subdue|	-0.1007221
-3.677531	substitute|	-0.117967
-3.588677	sub|	-0.09839287
-3.588677	succeed|	-0.09287927
-3.451942	suck|	-0.1036791
-3.51495	suffer|	-0.07875324
-3.789366	suffer|injury	-0.1097292
-3.677531	suffer|loss	-0.1173054
-3.958168	suffice|	-0.0928116
-3.588677	suggest|	-0.08719981
-3.940381	suit|	-0.1173222
-3.834663	sulk|	-0.173084
-3.958168	support|	-0.1140088
-3.958168	support|striker	-0.09267963
-3.162947	suppose|	-0.1621224
-3.834663	suppose|what	-0.09281372
-3.940381	surge|	-0.1478081
-3.940381	surpass|	-0.1095477
-3.227865	surprise|	-0.09607922
-3.940381	surprise|I	-0.1167606
-3.348105	surrender|	-0.06561712
-3.940381	surrender|hit	-0.1177585
-3.677531	surrender|run	-0.1146282
-3.958168	survive|game	-0.0928116
-3.958168	suspect|	-0.08859076
-3.51495	suspend|	-0.1392543
-3.958168	sustain|drive	-0.08819086
-3.958168	swallow|	-0.1751195
-3.834663	swarm|	-0.1792658
-3.958168	swear|	-0.0858731
-3.588677	sweep|	-0.1191298
-3.958168	sweep|MISC	-0.08692208
-3.940381	sweep|ORGANIZATION	-0.1114842
-3.958168	sweep|PERSON	-0.1184723
-2.899771	swim|	-0.2046801
-3.958168	swim|final	-0.109508
-3.677531	swim|leg	-0.08912265
-3.958168	swim|medal	-0.08235056
-3.958168	swim|race	-0.06165793
-3.51495	swing|	-0.1132182
-3.834663	swing|cross	-0.1781861
-3.958168	swing|it	-0.1782193
-3.588677	switch|	-0.09140803
-3.834663	switch|position	-0.1180575
-2.555005	tackle|	-0.1251074
-3.958168	tackle|PERSON	-0.06165793
-3.789366	tackle|he	-0.1182456
-3.834663	tackle|recovery	-0.1786225
-3.834663	tackle|sack	-0.1784563
-3.677531	tack|	-0.0930718
-3.789366	tag|	-0.1186449
-2.467726	take|	-0.1503192
-2.797645	take|0-fer	-0.2581047
-3.940381	take|DURATION	-0.1287573
-3.940381	take|MISC	-0.09083311
-3.451942	take|NUMBER	-0.07011787
-3.958168	take|ORDINAL	-0.08932295
-3.588677	take|ORGANIZATION	-0.08808519
-3.789366	take|PERSON	-0.1273174
-3.348105	take|advantage	-0.07043506
-3.789366	take|ball	-0.09795741
-3.834663	take|bear	-0.1750357
-3.958168	take|blame	-0.08921209
-3.789366	take|bronze	-0.09080947
-3.304221	take|care	-0.0996615
-3.958168	take|chance	-0.08934726
-3.940381	take|control	-0.08726056
-3.940381	take|corner	-0.1186227
-3.940381	take|defender	-0.1430481
-3.958168	take|deflection	-0.1107337
-3.958168	take|dive	-0.08887935
-3.834663	take|drop	-0.1796044
-3.958168	take|field	-0.1216009
-3.677531	take|game	-0.07101398
-3.940381	take|goal	-0.1908587
-3.958168	take|gold	-0.0928116
-3.958168	take|he	-0.1084062
-3.940381	take|hill	-0.1060148
-3.940381	take|hit	-0.1142771
-3.834663	take|hold	-0.179556
-3.958168	take|home	-0.09281372
-3.958168	take|ipod	-0.1172267
-3.227865	take|it	-0.1067909
-3.958168	take|kick	-0.0928116
-3.958168	take|kickoff	-0.1185572
-3.677531	take|knee	-0.07983789
-2.760295	take|lead	-0.03436905
-3.789366	take|look	-0.07221539
-3.133798	take|loss	-0.06919537
-3.834663	take|lot	-0.1149965
-3.940381	take|mound	-0.06143565
-3.958168	take|nap	-0.08827976
-3.834663	take|nothing	-0.1503287
-3.940381	take|opportunity	-0.1169707
-3.958168	take|pass	-0.118182
-3.958168	take|penalty	-0.08879057
-3.958168	take|people	-0.06165793
-3.958168	take|pitch	-0.06165793
-3.677531	take|place	-0.08458365
-3.958168	take|play	-0.1181632
-3.789366	take|player	-0.1631937
-3.940381	take|position	-0.0845436
-3.940381	take|possession	-0.08539452
-3.958168	take|rest	-0.1324531
-3.940381	take|seat	-0.3557805
-3.789366	take|series	-0.118048
-3.940381	take|she	-0.08161993
-3.451942	take|shot	-0.05863074
-3.958168	take|silver	-0.1135523
-3.834663	take|sting	-0.1796044
-3.958168	take|stroke	-0.09281372
-3.958168	take|team	-0.1140572
-3.940381	take|they	-0.09236262
-3.958168	take|this	-0.06165793
-3.451942	take|time	-0.08981362
-3.958168	take|toll	-0.1693874
-3.834663	take|trophy	-0.1079604
-3.958168	take|turn	-0.1319836
-3.958168	take|walk	-0.1176215
-3.958168	take|yard	-0.1168107
-2.990943	talk|	-0.08480761
-3.789366	tap|	-0.087216
-3.958168	tap|foot	-0.08803525
-3.958168	target|	-0.08921209
-3.940381	teach|	-0.1086733
-3.958168	teach|he	-0.0928116
-3.940381	teach|lesson	-0.05927914
-3.940381	team|	-0.09099855
-3.789366	tear|	-0.1117094
-3.958168	tear|acl	-0.08403686
-3.033545	tell|	-0.05577636
-3.194194	tell|I	-0.1595081
-3.789366	tell|PERSON	-0.06040839
-3.958168	tell|all	-0.116438
-3.834663	tell|guy	-0.1503287
-3.958168	tell|he	-0.08819086
-3.958168	tell|myself	-0.07931115
-3.958168	tell|she	-0.08934726
-3.958168	tell|story	-0.08896811
-3.958168	tell|they	-0.1082915
-3.789366	tell|we	-0.06100036
-3.588677	tell|you	-0.06142583
-3.958168	tempt|	-0.0875458
-3.677531	tend|	-0.08943902
-3.51495	test|	-0.07718306
-3.940381	test|PERSON	-0.1174053
-3.958168	thank|goodness	-0.0783902
-3.304221	that|	-0.03814454
-3.958168	that|all	-0.1135103
-3.834663	that|even	-0.1796044
-3.834663	that|it	-0.1183064
-3.958168	that|kind	-0.0858731
-3.834663	that|rating	-0.17829
-3.958168	that|thing	-0.09256963
-3.789366	there|	-0.1141638
-3.834663	theyll|	-0.1796201
-2.167929	think|	-0.1974817
-3.958168	think|PERSON	-0.08235056
-3.958168	think|they	-0.1152701
-3.958168	think|which	-0.08854634
-3.51495	threaten|	-0.1330852
-2.499254	throw|	-0.1397501
-3.958168	throw|INT	-0.08863517
-3.789366	throw|NUMBER	-0.08815277
-3.940381	throw|ORDINAL	-0.09227455
-3.940381	throw|PERSON	-0.1072078
-3.106483	throw|ball	-0.08238012
-3.958168	throw|completion	-0.1182234
-3.789366	throw|downfield	-0.1168007
-3.834663	throw|football	-0.179556
-3.958168	throw|game	-0.1129438
-3.348105	throw|inning	-0.06088596
-3.940381	throw|int	-0.08644465
-3.194194	throw|interception	-0.08789371
-3.789366	throw|it	-0.03936763
-2.952149	throw|pass	-0.1425952
-3.958168	throw|pick	-0.08854635
-3.194194	throw|pitch	-0.06595542
-3.958168	throw|shutout	-0.09201919
-3.834663	throw|way	-0.1537947
-3.958168	thump|NUMBER	-0.1161443
-3.958168	thwart|	-0.08934726
-2.883627	tie|	-0.127589
-3.677531	tie|NUMBER	-0.1075099
-3.789366	tie|PERSON	-0.09028907
-2.772392	tie|game	-0.08022865
-3.940381	tie|he	-0.08840407
-3.588677	tie|it	-0.08914326
-3.588677	tie|record	-0.1101948
-3.958168	tie|run	-0.1176215
-3.958168	tighten|	-0.05717383
-3.958168	time|jump	-0.09199715
-3.51495	tip|	-0.03863565
-3.958168	tip|hat	-0.08932295
-3.304221	tire|	-0.06081235
-3.789366	top|	-0.08007513
-3.940381	top|PERSON	-0.1058868
-3.958168	top|it	-0.08443151
-3.451942	toss|	-0.1146322
-3.958168	toss|ball	-0.08865052
-3.789366	toss|inning	-0.1037818
-3.940381	toss|pass	-0.1175508
-3.958168	total|	-0.08914556
-3.51495	touch|	-0.0634176
-3.677531	touch|ball	-0.1107731
-3.958168	touch|he	-0.1084062
-3.958168	touch|wall	-0.117663
-3.940381	track|	-0.07819907
-3.958168	track|ball	-0.1181425
-3.677531	trade|	-0.08432234
-3.958168	trade|PERSON	-0.1323797
-3.958168	trade|possession	-0.07942552
-3.588677	trail|	-0.08292211
-3.958168	trail|DATE	-0.1503287
-3.958168	trail|LOCATION	-0.1220066
-3.588677	trail|NUMBER	-0.1440532
-3.789366	trail|ORGANIZATION	-0.1649368
-3.940381	train|	-0.08895911
-3.958168	trample|	-0.0783902
-3.958168	translate|	-0.101314
-3.396928	travel|	-0.1083409
-3.834663	treat|	-0.08910121
-3.958168	trickle|	-0.1181528
-3.789366	triple|	-0.09107497
-3.940381	trip|	-0.1177605
-3.958168	trouble|defence	-0.08605182
-3.834663	trounce|ORGANIZATION	-0.1796044
-2.467726	try|	-0.1971111
-3.958168	try|it	-0.08930078
-3.940381	try|pass	-0.08718047
-3.940381	try|shot	-0.1070802
-3.834663	tumble|	-0.1791206
-3.789366	tune|	-0.09073855
-2.853036	turn|	-0.1545068
-3.958168	turn|NUMBER	-0.0615302
-3.348105	turn|ball	-0.2003502
-3.958168	turn|corner	-0.08819086
-3.958168	turn|deficit	-0.09243758
-3.834663	turn|everything	-0.1790998
-3.940381	turn|game	-0.09194415
-3.958168	turn|head	-0.08557343
-3.958168	turn|heat	-0.1171019
-3.227865	turn|it	-0.04828714
-3.958168	turn|performance	-0.1182877
-3.958168	turn|run	-0.1135732
-3.958168	turn|thing	-0.08921209
-3.958168	twist|	-0.09272363
-3.940381	undergo|change	-0.09165759
-3.227865	understand|	-0.1732355
-3.834663	understand|this	-0.06165793
-3.958168	unpick|defence	-0.08484398
-3.958168	unravel|	-0.09281372
-3.940381	untouch|	-0.08132647
-3.958168	upcome|	-0.08972181
-3.51495	update|	-0.1183988
-3.940381	upset|	-0.1317634
-3.958168	upset|ORGANIZATION	-0.1537947
-3.958168	upset|PERSON	-0.09065106
-3.056523	use|	-0.1552241
-3.958168	use|body	-0.09272363
-3.834663	use|flank	-0.1795974
-3.958168	use|inning	-0.1139923
-3.940381	use|it	-0.09385702
-3.958168	use|package	-0.08925644
-3.958168	use|player	-0.08798176
-3.940381	vanish|	-0.08856169
-3.940381	victimize|	-0.08593107
-3.958168	visit|	-0.1179122
-3.958168	visit|LOCATION	-0.1503287
-3.958168	visit|ORGANIZATION	-0.1171643
-3.958168	volleyball|	-0.08235056
-3.940381	volley|	-0.0499137
-3.958168	vote|	-0.08623049
-2.952149	wait|	-0.2223925
-3.011722	wake|	-0.07418846
-3.958168	wake|Forest	-0.0783902
-3.958168	wake|forest	-0.1142017
-3.940381	wake|pass	-0.08724043
-3.789366	wake|penalty	-0.2284268
-3.958168	wake|play	-0.1152701
-2.449853	walk|	-0.1264242
-2.990943	walk|NUMBER	-0.165585
-3.588677	walk|PERSON	-0.08619434
-3.958168	walk|all	-0.1168523
-3.958168	walk|ball	-0.08934512
-3.227865	walk|batter	-0.1158172
-3.958168	walk|man	-0.08861297
-3.834663	walk|means	-0.1796044
-3.789366	walk|strikeout	-0.08576854
-3.958168	waltz|	-0.1166442
-2.602083	want|	-0.2899458
-3.958168	want|LOCATION	-0.1054257
-3.958168	want|NUMBER	-0.08934726
-3.789366	want|PERSON	-0.1385198
-3.677531	want|it	-0.07828519
-3.958168	want|season	-0.08934726
-3.958168	want|team	-0.08896811
-3.789366	want|what	-0.09444558
-3.940381	wan|	-0.1942154
-3.789366	warm|	-0.1096833
-3.834663	wash|dish	-0.08934726
-3.834663	wash|memory	-0.1503287
-3.033545	wasnt|	-0.1018811
-3.958168	wasnt|performance	-0.1161651
-3.789366	waste|	-0.1172903
-3.789366	waste|time	-0.08857277
-2.971113	watch|	-0.1992907
-3.958168	watch|DURATION	-0.08925644
-3.958168	watch|LOCATION	-0.108194
-3.677531	watch|MISC	-0.04938396
-3.958168	watch|ORGANIZATION	-0.1147666
-3.789366	watch|PERSON	-0.1129938
-3.958168	watch|ceremony	-0.09232752
-3.834663	watch|football	-0.1173119
-3.51495	watch|game	-0.2220041
-3.940381	watch|he	-0.08829297
-3.958168	watch|history	-0.1179537
-3.834663	watch|it	-0.1180802
-3.940381	watch|match	-0.09174578
-3.958168	watch|olympics	-0.1111344
-3.958168	watch|race	-0.1537947
-3.958168	watch|some	-0.0858731
-3.958168	watch|they	-0.06165793
-3.958168	wave|	-0.09168858
-3.958168	wave|goodbye	-0.1157293
-3.789366	wear|	-0.07282442
-3.958168	weave|	-0.1560087
-3.51495	wed|	-0.09371272
-3.834663	weigh|	-0.09278961
-3.958168	welcome|	-0.09204121
-3.940381	welcome|PERSON	-0.07009525
-3.588677	werent|	-0.1327221
-3.940381	weve|	-0.08487968
-3.958168	whack|	-0.08852413
-3.958168	whiff|	-0.08934726
-3.227865	whistle|	-0.1180467
-3.677531	wind|	-0.05957095
-2.030518	win|	-0.1517341
-3.958168	win|5-4	-0.09073946
-3.834663	win|AFC	-0.1792865
-3.451942	win|DATE	-0.05383367
-3.958168	win|Games	-0.0858731
-3.789366	win|MISC	-0.1575307
-2.824458	win|NUMBER	-0.08432709
-3.789366	win|ORDINAL	-0.0497582
-3.940381	win|PERSON	-0.08922528
-3.958168	win|anything	-0.1153098
-3.789366	win|bronze	-0.08677024
-3.958168	win|butterfly	-0.1178
-3.958168	win|column	-0.08934726
-3.958168	win|conference	-0.111998
-3.940381	win|corner	-0.1396987
-3.677531	win|division	-0.07238997
-3.789366	win|event	-0.1570073
-3.940381	win|freestyle	-0.1068673
-2.683916	win|game	-0.2746667
-3.834663	win|goal	-0.2601175
-3.080785	win|gold	-0.1358565
-3.958168	win|half	-0.1480482
-3.958168	win|he	-0.1173514
-3.451942	win|it	-0.03708291
-3.789366	win|league	-0.1182678
-3.588677	win|match	-0.06789714
-2.933979	win|medal	-0.1168978
-3.958168	win|medley	-0.06165793
-3.958168	win|more	-0.08453028
-3.958168	win|penalty	-0.08914556
-3.588677	win|race	-0.1107692
-3.940381	win|relay	-0.09227668
-3.958168	win|round	-0.08934726
-3.940381	win|she	-0.08795952
-3.940381	win|silver	-0.07301767
-3.958168	win|start	-0.1177876
-3.958168	win|this	-0.0844406
-3.940381	win|time	-0.1105583
-3.940381	win|title	-0.1108176
-3.958168	win|total	-0.09226146
-3.227865	wish|	-0.1012211
-3.056523	wonder|	-0.09856416
-3.677531	wont|	-0.1076439
-2.618982	work|	-0.209413
-3.940381	work|ORDINAL	-0.1132437
-3.958168	work|butt	-0.09243758
-3.396928	work|inning	-0.09183927
-3.958168	work|more	-0.1182857
-3.834663	work|pair	-0.06165793
-3.834663	work|tit	-0.06165793
-3.940381	work|way	-0.08849292
-3.396928	worry|	-0.07029263
-3.940381	wouldve|	-0.08229855
-3.958168	wrangle|	-0.09135772
-3.834663	wrap|	-0.1182857
-3.958168	wrap|it	-0.1498761
-3.304221	write|	-0.05403424
-3.834663	write|it	-0.2601175
-3.789366	yell|	-0.08017701
-3.958168	yell|PERSON	-0.09274562
-3.958168	yield|	-0.1186194
-3.958168	youre|	-0.1185365

\2-grams:
-1.098334	!!| </s>
-1.098334	!!| make|
-1.098334	!!| seem|
-0.8826507	<s> <unk>
-2.945726	<s> admit|
-3.397914	<s> aim|
-3.397914	<s> allow|hit
-2.645704	<s> allow|run
-3.397914	<s> apologize|
-3.397914	<s> appear|
-3.397914	<s> bear|
-2.945726	<s> beat|MISC
-2.945726	<s> beat|ORGANIZATION
-2.945726	<s> become|
-2.405252	<s> begin|
-0.7540581	<s> be|
-3.397914	<s> break|
-3.397914	<s> care|
-3.397914	<s> change|
-3.397914	<s> combine|
-2.04818	<s> come|
-2.945726	<s> come|loss
-3.397914	<s> come|way
-3.397914	<s> comment|
-3.397914	<s> complain|
-3.397914	<s> complete|sweep
-2.645704	<s> continue|
-3.397914	<s> control|ball
-3.397914	<s> crawl|
-3.397914	<s> create|
-2.945726	<s> cruise|
-3.397914	<s> cut|
-3.397914	<s> dedicate|
-3.397914	<s> defeat|
-3.397914	<s> defeat|ORGANIZATION
-2.945726	<s> didnt|
-3.397914	<s> dominate|MISC
-2.945726	<s> dominate|ORGANIZATION
-3.397914	<s> dont|
-2.945726	<s> dont|football
-3.397914	<s> double|
-3.397914	<s> double|run
-1.854907	<s> do|
-3.397914	<s> do|something
-3.397914	<s> drop|game
-3.397914	<s> earn|
-3.397914	<s> earn|run
-2.645704	<s> end|
-3.397914	<s> enjoy|game
-3.397914	<s> erupt|
-3.397914	<s> explode|
-3.397914	<s> face|
-2.945726	<s> fall|
-3.397914	<s> fall|NUMBER
-2.945726	<s> feel|
-3.397914	<s> field|team
-3.397914	<s> fight|
-3.397914	<s> file|
-3.397914	<s> finish|series
-3.397914	<s> fire|inning
-3.397914	<s> forget|
-1.910292	<s> get|
-3.397914	<s> get|feeling
-3.397914	<s> get|outburst
-3.397914	<s> give|
-1.761674	<s> go|
-2.251389	<s> go|NUMBER
-2.645704	<s> go|inning
-3.397914	<s> grow|
-3.397914	<s> hang|
-2.945726	<s> happen|
-1.339711	<s> have|
-3.397914	<s> have|DATE
-3.397914	<s> have|DURATION
-2.945726	<s> have|chance
-2.405252	<s> have|game
-2.945726	<s> have|gold
-3.397914	<s> have|grade
-3.397914	<s> have|it
-3.397914	<s> have|opportunity
-3.397914	<s> have|outing
-3.397914	<s> have|performance
-3.397914	<s> have|point
-2.945726	<s> have|record
-3.397914	<s> have|team
-3.397914	<s> have|what
-3.397914	<s> head|
-3.397914	<s> help|
-3.397914	<s> hold|
-3.397914	<s> hope|
-3.397914	<s> host|ORGANIZATION
-2.645704	<s> improve|record
-3.397914	<s> injure|
-3.397914	<s> jump|all
-2.945726	<s> keep|
-3.397914	<s> kick|
-2.405252	<s> know|
-3.397914	<s> lead|
-2.945726	<s> leave|
-3.397914	<s> lift|
-3.397914	<s> lift|ORGANIZATION
-3.397914	<s> like|
-1.973786	<s> look|
-2.405252	<s> lose|
-2.645704	<s> lose|game
-3.397914	<s> lose|voice
-3.397914	<s> love|
-2.251389	<s> make|
-3.397914	<s> make|goal
-3.397914	<s> make|jump
-3.397914	<s> mean|
-3.397914	<s> meet|
-3.397914	<s> mention|
-3.397914	<s> need|
-3.397914	<s> need|lot
-3.397914	<s> note|
-2.945726	<s> open|
-3.397914	<s> open|game
-3.397914	<s> open|series
-3.397914	<s> pack|
-3.397914	<s> pass|
-2.945726	<s> pick|DATE
-3.397914	<s> pick|ORDINAL
-2.945726	<s> pitch|
-3.397914	<s> pitch|inning
-2.251389	<s> play|
-3.397914	<s> play|football
-2.945726	<s> play|game
-3.397914	<s> play|some
-3.397914	<s> play|volleyball
-2.645704	<s> post|
-2.945726	<s> provide|
-3.397914	<s> put|ORGANIZATION
-3.397914	<s> put|run
-3.397914	<s> quit|
-2.945726	<s> react|
-3.397914	<s> read|
-3.397914	<s> realize|
-2.945726	<s> remember|
-3.397914	<s> resign|
-2.945726	<s> return|
-3.397914	<s> rip|
-1.973786	<s> run|
-3.397914	<s> run|play
-3.397914	<s> run|streak
-3.397914	<s> rush|
-2.405252	<s> say|
-3.397914	<s> say|least
-2.04818	<s> score|
-2.645704	<s> score|goal
-3.397914	<s> seem|
-2.945726	<s> see|
-3.397914	<s> see|end
-3.397914	<s> see|play
-2.945726	<s> set|
-3.397914	<s> shatter|record
-3.397914	<s> show|flash
-1.684962	<s> start|
-2.645704	<s> start|DATE
-3.397914	<s> start|trip
-2.945726	<s> struggle|
-3.397914	<s> suggest|
-3.397914	<s> suppose|
-3.397914	<s> surprise|
-3.397914	<s> sweep|
-3.397914	<s> swim|
-2.251389	<s> take|
-3.397914	<s> take|0-fer
-3.397914	<s> take|ORGANIZATION
-3.397914	<s> take|control
-2.945726	<s> take|game
-3.397914	<s> take|lead
-2.945726	<s> take|look
-3.397914	<s> take|series
-3.397914	<s> take|time
-3.397914	<s> that|kind
-2.251389	<s> think|
-2.645704	<s> throw|
-3.397914	<s> throw|pass
-3.397914	<s> throw|shutout
-3.397914	<s> tie|record
-3.397914	<s> travel|
-2.251389	<s> try|
-2.945726	<s> turn|
-3.397914	<s> wake|
-2.645704	<s> want|
-3.397914	<s> want|what
-3.397914	<s> wasnt|performance
-3.397914	<s> watch|olympics
-3.397914	<s> weve|
-2.945726	<s> whistle|
-1.447261	<s> win|
-2.945726	<s> win|NUMBER
-2.138006	<s> win|game
-3.397914	<s> win|gold
-2.645704	<s> win|medal
-3.397914	<s> win|start
-3.397914	<s> yield|
-4.376096	<unk> !!|
-1.775553	<unk> </s>
-0.7783718	<unk> <unk>
-3.623886	<unk> accept|
-4.376096	<unk> accommodate|
-4.376096	<unk> accompany|PERSON
-4.376096	<unk> accomplish|
-4.376096	<unk> accord|
-4.376096	<unk> acquire|PERSON
-4.376096	<unk> act|
-4.376096	<unk> adapt|
-4.376096	<unk> addict|
-4.376096	<unk> address|poor
-3.116188	<unk> add|
-4.376096	<unk> add|other
-3.923908	<unk> add|run
-4.376096	<unk> add|touchdown
-3.923908	<unk> add|yard
-4.376096	<unk> admit|
-3.623886	<unk> advance|
-4.376096	<unk> aggravate|
-3.923908	<unk> agree|
-4.376096	<unk> aid|
-3.923908	<unk> aim|
-4.376096	<unk> air|
-3.116188	<unk> allow|
-4.376096	<unk> allow|DURATION
-3.923908	<unk> allow|NUMBER
-4.376096	<unk> allow|ORGANIZATION
-3.623886	<unk> allow|PERSON
-3.383434	<unk> allow|hit
-3.923908	<unk> allow|point
-3.116188	<unk> allow|run
-4.376096	<unk> allow|runner
-4.376096	<unk> allow|total
-3.923908	<unk> allow|yard
-3.623886	<unk> alta|
-4.376096	<unk> amuse|
-4.376096	<unk> announce|
-4.376096	<unk> annoy|
-4.376096	<unk> answer|
-4.376096	<unk> answer|question
-4.376096	<unk> answer|run
-4.376096	<unk> anticipate|
-3.229571	<unk> appear|
-4.376096	<unk> approach|
-3.923908	<unk> arent|
-4.376096	<unk> argue|
-3.623886	<unk> arrive|
-3.116188	<unk> ask|
-4.376096	<unk> assist|
-3.383434	<unk> assume|
-4.376096	<unk> assure|
-3.229571	<unk> attack|
-4.376096	<unk> attack|we
-3.229571	<unk> attempt|
-3.623886	<unk> average|yard
-4.376096	<unk> avoid|
-4.376096	<unk> backfire|
-3.923908	<unk> back|
-4.376096	<unk> bail|PERSON
-4.376096	<unk> bail|they
-3.923908	<unk> base|
-4.376096	<unk> battle|
-3.923908	<unk> beat|
-4.376096	<unk> beat|LOCATION
-3.116188	<unk> beat|ORGANIZATION
-3.623886	<unk> beat|PERSON
-4.376096	<unk> beat|team
-4.376096	<unk> beat|they
-2.739856	<unk> become|
-2.783976	<unk> begin|
-3.923908	<unk> believe|
-3.923908	<unk> belong|
-3.623886	<unk> bet|
-0.7729052	<unk> be|
-3.923908	<unk> blitz|
-4.376096	<unk> blitz|NUMBER
-4.376096	<unk> blitz|wr
-2.783976	<unk> block|
-4.376096	<unk> block|punt
-4.376096	<unk> block|shot
-3.623886	<unk> blow|
-4.376096	<unk> blow|it
-4.376096	<unk> blow|opportunity
-4.376096	<unk> bob|
-4.376096	<unk> boot|goal
-4.376096	<unk> boo|
-3.923908	<unk> bother|
-4.376096	<unk> bounce|
-4.376096	<unk> bounce|PERSON
-4.376096	<unk> brace|
-3.923908	<unk> break|
-4.376096	<unk> break|NUMBER
-3.623886	<unk> break|record
-4.376096	<unk> bridge|gap
-3.229571	<unk> bring|
-3.623886	<unk> bring|NUMBER
-4.376096	<unk> bring|ball
-4.376096	<unk> bring|lot
-4.376096	<unk> bring|they
-4.376096	<unk> bring|we
-3.623886	<unk> build|
-3.923908	<unk> build|confidence
-4.376096	<unk> build|program
-3.923908	<unk> bump|
-4.376096	<unk> burn|
-4.376096	<unk> burn|rest
-4.376096	<unk> burst|
-2.951968	<unk> call|
-3.923908	<unk> call|PERSON
-4.376096	<unk> call|it
-3.923908	<unk> call|play
-4.376096	<unk> cant|wait
-4.376096	<unk> capitalize|
-3.923908	<unk> cap|
-2.699808	<unk> carry|
-3.923908	<unk> carry|yard
-3.623886	<unk> catch|
-3.923908	<unk> catch|ball
-3.923908	<unk> catch|it
-3.026362	<unk> catch|pass
-4.376096	<unk> catch|share
-4.376096	<unk> catch|they
-4.376096	<unk> cause|PERSON
-4.376096	<unk> cause|fumble
-3.923908	<unk> cause|problem
-4.376096	<unk> center|
-3.229571	<unk> change|
-4.376096	<unk> chat|
-4.376096	<unk> cheat|
-4.376096	<unk> check|
-3.923908	<unk> cheer|
-4.376096	<unk> cheer|he
-4.376096	<unk> chip|
-4.376096	<unk> claim|
-3.923908	<unk> clean|
-3.383434	<unk> clear|
-4.376096	<unk> clear|ball
-4.376096	<unk> clinch|spot
-4.376096	<unk> close|
-4.376096	<unk> close|gap
-4.376096	<unk> close|half
-4.376096	<unk> coach|
-3.623886	<unk> coach|PERSON
-3.923908	<unk> collect|
-4.376096	<unk> collect|hit
-4.376096	<unk> collide|
-3.229571	<unk> combine|
-2.01175	<unk> come|
-4.376096	<unk> come|DURATION
-4.376096	<unk> come|a
-4.376096	<unk> come|field
-3.923908	<unk> come|home
-4.376096	<unk> come|run
-4.376096	<unk> come|start
-3.923908	<unk> come|what
-4.376096	<unk> commit|penalty
-3.923908	<unk> compare|
-3.923908	<unk> compete|
-3.923908	<unk> complain|
-3.923908	<unk> complete|
-3.383434	<unk> complete|NUMBER
-4.376096	<unk> complete|PERCENT
-3.923908	<unk> complete|pass
-4.376096	<unk> complete|sweep
-3.623886	<unk> concern|
-3.923908	<unk> confuse|
-3.229571	<unk> connect|
-3.923908	<unk> consider|
-4.376096	<unk> consider|it
-4.376096	<unk> consist|
-2.699808	<unk> continue|
-4.376096	<unk> continue|streak
-4.376096	<unk> control|
-4.376096	<unk> control|ball
-4.376096	<unk> convert|
-3.923908	<unk> convert|NUMBER
-4.376096	<unk> convert|ORDINAL
-4.376096	<unk> convince|
-4.376096	<unk> cope|
-4.376096	<unk> cost|they
-3.923908	<unk> couldnt|
-3.623886	<unk> count|
-4.376096	<unk> couple|
-3.229571	<unk> cover|
-4.376096	<unk> cover|distance
-3.923908	<unk> crack|
-3.623886	<unk> create|
-4.376096	<unk> create|chance
-4.376096	<unk> create|image
-3.923908	<unk> creep|
-4.376096	<unk> cross|
-3.923908	<unk> cross|ball
-4.376096	<unk> cross|line
-4.376096	<unk> crown|pitcher
-3.923908	<unk> cruise|
-4.376096	<unk> crush|MISC
-3.229571	<unk> cut|
-4.376096	<unk> cut|deficit
-3.923908	<unk> cut|lead
-3.923908	<unk> deal|
-3.026362	<unk> decide|
-3.229571	<unk> defend|
-4.376096	<unk> defend|run
-4.376096	<unk> deliver|
-3.923908	<unk> deny|
-3.923908	<unk> depend|
-3.923908	<unk> deserve|
-4.376096	<unk> deserve|goal
-4.376096	<unk> deserve|that
-3.923908	<unk> determine|
-3.923908	<unk> develop|
-3.116188	<unk> didnt|
-4.376096	<unk> didnt|look
-4.376096	<unk> dig|
-3.623886	<unk> disappoint|
-3.923908	<unk> dismantle|
-3.923908	<unk> disqualify|
-4.376096	<unk> divide|
-3.229571	<unk> dominate|
-4.376096	<unk> dominate|ORGANIZATION
-3.116188	<unk> dont|
-3.923908	<unk> double|
-4.376096	<unk> double|run
-4.376096	<unk> doubt|
-1.656752	<unk> do|
-3.623886	<unk> do|PERSON
-3.923908	<unk> do|anything
-4.376096	<unk> do|blitz
-4.376096	<unk> do|drill
-4.376096	<unk> do|everything
-4.376096	<unk> do|good
-3.026362	<unk> do|it
-3.116188	<unk> do|job
-4.376096	<unk> do|much
-3.923908	<unk> do|number
-4.376096	<unk> do|same
-4.376096	<unk> do|something
-4.376096	<unk> do|stuff
-4.376096	<unk> do|that
-4.376096	<unk> do|they
-4.376096	<unk> do|this
-3.623886	<unk> do|what
-3.623886	<unk> draw|
-4.376096	<unk> dribble|
-4.376096	<unk> dribble|it
-3.116188	<unk> drive|
-4.376096	<unk> drive|yard
-3.383434	<unk> drop|
-3.923908	<unk> drop|pass
-3.623886	<unk> earn|
-4.376096	<unk> earn|gold
-4.376096	<unk> earn|job
-3.923908	<unk> earn|medal
-3.383434	<unk> earn|run
-4.376096	<unk> eclipse|record
-4.376096	<unk> embark|
-4.376096	<unk> emerge|
-3.923908	<unk> endure|
-2.739856	<unk> end|
-4.376096	<unk> end|NUMBER
-4.376096	<unk> end|ORDINAL
-4.376096	<unk> end|chance
-3.923908	<unk> end|game
-4.376096	<unk> end|injury
-3.923908	<unk> end|season
-3.923908	<unk> enjoy|
-4.376096	<unk> enjoy|volleyball
-4.376096	<unk> ensue|
-3.923908	<unk> ensure|
-4.376096	<unk> equalise|
-4.376096	<unk> equalize|
-4.376096	<unk> even|
