
\data\
ngram 1=3841
ngram 2=16197

\1-grams:
-3.918881	!!!|PERSON|	-0.04335037
-2.062891	</s>
-99	<s>	-0.2828172
-0.9861634	<unk>	-0.2078192
-3.918881	abandon|he|I	-0.05273441
-3.918881	abandon||	-0.2765843
-3.918881	absolve|I|myself	-0.05273441
-3.992838	accomplish|I|	-0.2266612
-3.356091	accord||	-0.02274522
-3.992838	add|it|mile	-0.27602
-3.918881	add|we|tarp	-0.04847167
-3.593046	add||	-0.1221256
-3.918881	add||MONEY	-0.04901296
-3.992838	add||half	-0.2369769
-3.918881	add||tarp	-0.05273441
-3.992838	add||water	-0.2218705
-3.918881	adjust||	-0.05273441
-3.918881	admit|both|	-0.05246128
-3.992838	admit||	-0.02307495
-3.992838	agree|I|	-0.1844158
-3.992838	agree|PERSON|	-0.1111859
-3.992838	agree|we|	-0.1498771
-3.918881	agree|what|	-0.1848186
-3.992838	allow|alcohol|	-0.2369769
-3.918881	allow|car|	-0.05273441
-3.918881	allow|you|eye	-0.05273441
-3.880205	allow||	-0.1190978
-3.992838	allow||I	-0.005464304
-3.918881	allow||sleep	-0.04335037
-3.880205	allow||we	-0.1177511
-3.992838	alternate||	-0.2768797
-3.918881	amaze|I|	-0.1163409
-3.992838	amount|rain|	-0.01252285
-3.992838	answer|he|phone	-0.2296637
-3.992838	anticipate|we|	-0.229903
-3.918881	anticipate||	-0.1429825
-3.992838	appear|what|	-0.01252285
-3.992838	appear|which|	-0.2367964
-3.918881	appoint||	-0.2676025
-3.918881	approach|CAUSE_OF_DEATH|	-0.05248811
-3.992838	approach|I|	-0.1848186
-3.992838	arise|need|	-0.2771879
-3.992838	arrange|PERSON|trip	-0.02307495
-3.992838	arrange|we|	-0.2251522
-3.299121	arrive|I|	-0.1807818
-3.713311	arrive|PERSON|	-0.1009909
-3.918881	arrive|boat|	-0.2664769
-3.992838	arrive|gain|NUMBER	-0.2702672
-3.918881	arrive|p|	-0.2771074
-3.992838	arrive|they|	-0.2747812
-2.760201	arrive|we|	-0.2432863
-3.162776	arrive||	-0.1179408
-3.498964	ascend||	-0.1059881
-3.248765	ask|I|	-0.04796403
-3.992838	ask|I|PERSON	-0.2767186
-3.992838	ask|I|she	-0.2194308
-3.992838	ask|PERSON|	-0.1840172
-3.713311	ask|he|	-0.2192693
-3.992838	ask|he|I	-0.2295739
-3.880205	ask|she|I	-0.05811535
-3.918881	ask|that|	-0.01252285
-3.918881	ask|they|	-0.2298132
-3.992838	ask|we|	-0.1687049
-3.713311	ask|you|	-0.1206595
-3.918881	ask|you|daddy	-0.05195115
-3.299121	ask||	-0.1431393
-3.918881	ask||I	-0.05273441
-3.992838	ask||favor	-0.2221791
-3.992838	ask||she	-0.2772009
-3.918881	ask||we	-0.2763963
-3.918881	assateague||	-0.05273441
-3.918881	assese|we|space	-0.05144041
-3.880205	assume|we|	-0.236075
-3.918881	assure|you|	-0.01252285
-3.992838	attach||	-0.1848186
-3.918881	attack|bear|we	-0.05273441
-3.992838	attack||	-0.2298132
-3.992838	attempt|I|	-0.0680098
-3.992838	attempt|we|	-0.2251522
-3.918881	attempt||	-0.1177511
-3.992838	attempt||camping	-0.05268204
-3.880205	avoid||	-0.1575103
-3.918881	avoid||crowd	-0.05251494
-3.918881	avoid||people	-0.04335037
-3.918881	await||arrival	-0.01252285
-3.880205	awake|I|	-0.2323276
-3.880205	awake|we|	-0.04184882
-3.918881	awake||	-0.05273441
-3.992838	backpack||	-0.1847639
-3.992838	backtrack|we|	-0.2298537
-3.992838	backtrack||	-0.2291847
-3.918881	back|it|MONEY	-0.05273441
-3.918881	back|it|all	-0.05273441
-3.918881	back|traffic|	-0.05246128
-3.880205	back||	-0.09521037
-3.992838	bail|PERSON|	-0.2772009
-3.918881	balance||it	-0.05254177
-3.992838	bang||	-0.07522427
-3.918881	barbeque|we|	-0.05238077
-3.918881	bark||	-0.2297833
-3.713311	base||	-0.05525201
-3.992838	beam||	-0.1848186
-3.918881	bear|he|	-0.1848186
-3.918881	bear||	-0.1848186
-3.918881	beat|salad|stuff	-0.05270271
-3.992838	beat||	-0.2607211
-3.713311	become|I|	-0.05622865
-3.992838	become|he|	-0.1154491
-3.992838	become|they|	-0.07522427
-3.880205	become|we|	-0.1394889
-3.880205	become||	-0.1152539
-3.918881	bed.||TIME	-0.04580959
-3.421679	begin|I|	-0.1224252
-3.992838	begin|cloud|	-0.2761813
-3.498964	begin|it|	-0.1349726
-3.992838	begin|sun|	-0.05208545
-3.918881	begin|trip|	-0.05273441
-3.248765	begin|we|	-0.1613436
-3.918881	begin|we|descent	-0.1848186
-3.918881	begin|we|down.	-0.01252285
-3.421679	begin||	-0.1896911
-3.918881	begin||ascent	-0.01252285
-3.918881	begin||incline	-0.05211231
-3.918881	behave|child|	-0.01252285
-3.992838	behold||	-0.05233657
-3.918881	behold||wonder	-0.05274261
-3.299121	believe|I|	-0.1268625
-3.713311	believe||	-0.09805695
-3.992838	bend||rule	-0.1151678
-3.992838	bet|I|	-0.2702539
-3.880205	be|!!|	-0.1831306
-3.918881	be|BUT|	-0.05205859
-3.498964	be|CAUSE_OF_DEATH|	-0.04252829
-3.299121	be|DATE|	-0.01255402
-3.498964	be|DURATION|	-0.09039481
-2.574613	be|I|	-0.3125524
-3.356091	be|LOCATION|	-0.1325114
-3.992838	be|MISC|	-0.06817393
-3.880205	be|MONEY|	-0.1407988
-3.918881	be|Might|	-0.01252285
-3.125424	be|NUMBER|	-0.06977022
-3.992838	be|ORGANIZATION|	-0.2771879
-2.975571	be|PERSON|	-0.2927316
-3.918881	be|PERSON|what	-0.05273441
-3.992838	be|Plus|	-0.1145183
-3.593046	be|TIME|	-0.2208098
-3.918881	be|That|	-0.05273441
-3.992838	be|Trust|	-0.2299176
-3.918881	be|access|	-0.05259543
-3.918881	be|adult|	-0.05195115
-3.992838	be|advantage|	-0.103522
-3.918881	be|alcove|	-0.05238077
-3.356091	be|all|	-0.07813828
-3.992838	be|anyone|	-0.2771879
-3.880205	be|anything|	-0.2687215
-3.992838	be|any|	-0.02307495
-3.992838	be|area|	-0.1030604
-3.992838	be|basin|	-0.1848186
-3.356091	be|bathroom|	-0.09092971
-3.992838	be|battle|	-0.2764232
-3.880205	be|bear|	-0.1847478
-3.918881	be|best|	-0.01252285
-3.992838	be|bit|	-0.1151629
-3.992838	be|breakfast|	-0.1119304
-3.713311	be|bridge|	-0.168354
-3.992838	be|brother|	-0.2294542
-3.992838	be|bunch|	-0.236443
-3.918881	be|calculation|	-0.05259543
-3.992838	be|camper|	-0.2266612
-3.918881	be|campfire|	-0.2298731
-3.992838	be|campground|	-0.2347798
-3.713311	be|camping|	-0.06408428
-3.713311	be|campsite|	-0.1846599
-3.713311	be|camp|	-0.07510403
-3.713311	be|car|	-0.0900877
-3.918881	be|chair|	-0.01252285
-3.918881	be|coral|	-0.184615
-3.713311	be|couple|	-0.1255048
-3.918881	be|debate|	-0.0526759
-3.992838	be|deer|	-0.1848186
-3.992838	be|detour|	-0.1848186
-3.918881	be|discussion|	-0.04335037
-3.992838	be|diver|	-0.06687155
-3.498964	be|dive|	-0.093305
-3.992838	be|diving|	-0.2221791
-3.918881	be|doubt|	-0.05273441
-3.918881	be|downside|	-0.01252285
-3.918881	be|else|	-0.05273441
-3.918881	be|entry|	-0.05251494
-3.992838	be|everybody|	-0.2296936
-3.498964	be|everyone|	-0.1728943
-3.992838	be|everything|	-0.07377483
-3.992838	be|experience|	-0.2772009
-3.992838	be|fear|	-0.01252285
-3.918881	be|fishing|	-0.01252285
-3.880205	be|fish|	-0.2341609
-3.992838	be|fly|	-0.01243063
-3.918881	be|folk|	-0.05273441
-3.992838	be|food|	-0.005464304
-3.918881	be|girl|	-0.05273441
-3.918881	be|glacier|	-0.2366682
-3.918881	be|glass/metal|	-0.0525686
-3.992838	be|goal|	-0.07345526
-3.918881	be|grizzly|	-0.05273441
-3.992838	be|ground|	-0.005464304
-3.880205	be|guy|	-0.2193348
-3.918881	be|head|	-0.1821474
-3.299121	be|he|	-0.04890459
-3.299121	be|hike|	-0.08441077
-3.880205	be|home|	-0.1443994
-3.992838	be|hotel|	-0.2698995
-3.713311	be|house|	-0.04419944
-3.992838	be|idea|	-0.2722791
-2.26429	be|it|	-0.2161794
-3.593046	be|it|what	-0.06999245
-3.713311	be|i|	-0.2054639
-3.498964	be|kid|	-0.1166241
-3.992838	be|leg|	-0.2720488
-3.992838	be|life|	-0.1848186
-3.992838	be|line|	-0.2703181
-3.880205	be|load|	-0.2297494
-3.992838	be|look|	-0.2770537
-3.029476	be|lot|	-0.2894326
-3.918881	be|love|	-0.01252285
-3.992838	be|man|	-0.2292146
-3.713311	be|mile|	-0.1095947
-3.880205	be|mine|	-0.1102417
-3.992838	be|moment|	-0.05755085
-3.918881	be|motorcycle|	-0.05274261
-3.992838	be|mountain|	-0.2368743
-3.992838	be|need|	-0.2282957
-3.918881	be|neighber|	-0.01252285
-3.918881	be|news|	-0.2751987
-3.880205	be|nothing|	-0.08001813
-3.880205	be|no|	-0.06594077
-3.918881	be|on|	-0.05041714
-3.992838	be|other|	-0.2299176
-3.880205	be|party|	-0.2218096
-3.421679	be|part|	-0.04925405
-3.992838	be|path|	-0.05768716
-3.162776	be|people|	-0.1169455
-3.992838	be|picture|	-0.2283451
-3.918881	be|pizza|	-0.05273441
-3.498964	be|place|	-0.1694664
-3.918881	be|plane|	-0.05248811
-3.992838	be|planning|	-0.1077739
-3.880205	be|plant|	-0.06817393
-3.498964	be|plan|	-0.2282428
-3.713311	be|plenty|	-0.2352296
-3.880205	be|point|	-0.1426027
-3.918881	be|policy|	-0.05211231
-3.992838	be|pool|	-0.07489516
-3.356091	be|problem|	-0.1828599
-3.992838	be|question|	-0.2702539
-3.992838	be|rattlesnake|	-0.01252285
-3.593046	be|reason|	-0.103671
-3.918881	be|reef|	-0.005464304
-3.918881	be|reply|	-0.01252285
-3.880205	be|restaurant|	-0.2293005
-3.992838	be|river|	-0.1085236
-3.880205	be|road|	-0.01237177
-3.880205	be|rock|	-0.228757
-3.880205	be|room|	-0.1794733
-3.992838	be|rule|	-0.1248096
-3.992838	be|scenery|	-0.2758586
-3.992838	be|school|	-0.01252285
-3.593046	be|section|	-0.09578273
-3.992838	be|shade|	-0.2764232
-3.992838	be|shark|	-0.2298731
-3.299121	be|she|	-0.1874158
-3.880205	be|shower|	-0.1843117
-3.992838	be|side|	-0.1848186
-3.713311	be|sign|	-0.1254749
-3.992838	be|silence|	-0.005464304
-3.498964	be|site|	-0.1697236
-3.918881	be|skepticism|	-0.01252285
-3.918881	be|skiing|	-0.05162865
-3.992838	be|soap|	-0.2367271
-3.713311	be|some|	-0.1021918
-3.992838	be|son|	-0.06817393
-3.992838	be|space|	-0.2743495
-3.713311	be|species|	-0.03413864
-3.593046	be|spot|	-0.1477352
-3.880205	be|star|	-0.2339174
-3.593046	be|stop|	-0.194967
-3.918881	be|structure|	-0.05262225
-3.992838	be|stuff|	-0.0581647
-3.992838	be|table|	-0.06816479
-3.992838	be|talk|	-0.229903
-3.918881	be|temperature|	-0.2296742
-3.356091	be|tent|	-0.1774082
-2.775918	be|that|	-0.3447335
-3.918881	be|then|	-0.05109062
-3.125424	be|they|	-0.3112651
-3.992838	be|they|what	-0.1848186
-3.248765	be|thing|	-0.08623443
-3.918881	be|thing|that	-0.05264907
-3.001688	be|this|	-0.2779288
-3.918881	be|this|what	-0.05272953
-3.918881	be|tide|	-0.05273441
-3.593046	be|time|	-0.05466963
-3.992838	be|toilet|	-0.005464304
-3.992838	be|ton|	-0.2296038
-3.992838	be|town|	-0.005464304
-3.880205	be|track|	-0.1731126
-3.713311	be|traffic|	-0.01945099
-3.992838	be|trail|	-0.2298731
-3.498964	be|tree|	-0.07886886
-3.248765	be|trip|	-0.06663663
-3.992838	be|truth|	-0.06268235
-3.880205	be|view|	-0.2277104
-3.992838	be|walking|	-0.1848186
-3.203646	be|water|	-0.2236195
-3.299121	be|way|	-0.1747616
-3.713311	be|weather|	-0.05814853
-2.327855	be|we|	-0.258732
-3.498964	be|what|	-0.1125988
-3.125424	be|which|	-0.2402414
-3.880205	be|who|	-0.1844188
-3.992838	be|wildflower|	-0.2368743
-3.421679	be|you|	-0.04336684
-1.052845	be||	-0.09931391
-3.918881	bias|m|	-0.05264907
-3.918881	bike|we|	-0.0526759
-3.992838	bird||	-0.235725
-3.918881	bite|fly|	-0.05248811
-3.992838	bite|mosquito|	-0.2366682
-3.992838	bite|they|	-0.005464304
-3.918881	bite|we|	-0.05273441
-3.992838	bite||	-0.1577045
-3.918881	blame||parenting	-0.05274261
-3.713311	blaze||	-0.06911793
-3.713311	blend||	-0.1325752
-3.918881	bless|God|	-0.01252285
-3.992838	blogg||	-0.2769464
-3.918881	blow|I|	-0.229903
-3.992838	blow|it|	-0.2299176
-3.918881	blow|sand|	-0.01252285
-3.880205	blow|they|	-0.05815456
-3.992838	blow|wind|	-0.08457457
-3.880205	blow||	-0.2349492
-3.992838	board|we|boat	-0.2298432
-3.880205	boil||	-0.277077
-3.992838	bonk|I|	-0.113792
-3.918881	book|it|	-0.05273441
-3.880205	book|we|	-0.1076736
-3.992838	book|we|it	-0.2362853
-3.992838	book||	-0.2298731
-3.992838	bore|I|	-0.01252285
-3.918881	bore|they|	-0.05243445
-3.992838	bore||	-0.1761692
-3.992838	borrow|we|	-0.1848186
-3.992838	borrow||	-0.1848186
-3.918881	bother|t|I	-0.2762177
-3.992838	bounce||	-0.01216573
-3.918881	brave|other|	-0.05273441
-3.918881	brave|soul|	-0.05273441
-3.992838	brave||	-0.2761777
-3.918881	brave||NUMBER	-0.05272953
-3.918881	breakfast||MONEY	-0.05273441
-3.918881	break|PERSON|	-0.05273441
-3.918881	break|Tanner|free.	-0.01252285
-3.918881	break|camp|	-0.01252285
-3.992838	break|it|	-0.1848186
-3.992838	break|people|	-0.005464304
-3.992838	break|tent|	-0.2354299
-3.880205	break||	-0.1676203
-3.918881	break||bone	-0.05274261
-3.593046	break||camp	-0.05959716
-3.992838	breathe|DURATION|	-0.2772009
-3.992838	breathe|I|	-0.2369331
-3.880205	breathe|you|	-0.05781659
-3.299121	breathe||	-0.07948197
-3.992838	brew|sun|tea	-0.2284352
-3.992838	bring|I|	-0.1429619
-3.918881	bring|I|camera	-0.01252285
-3.918881	bring|I|veggy	-0.05274261
-3.992838	bring|LOCATION|we	-0.2768122
-3.918881	bring|PERSON|player	-0.05227341
-3.992838	bring|PERSON|rear	-0.06817393
-3.918881	bring|it|	-0.05270271
-3.918881	bring|it|memory	-0.05264907
-3.918881	bring|people|blast	-0.05274261
-3.918881	bring|people|stereo	-0.05273441
-3.992838	bring|that|	-0.1848186
-3.713311	bring|we|	-0.1649378
-3.918881	bring|we|car	-0.04580959
-3.918881	bring|we|some	-0.05273441
-3.992838	bring|we|water	-0.2299176
-3.918881	bring|we|wheeler	-0.04335037
-3.918881	bring|who|all	-0.05270271
-3.421679	bring||	-0.1658279
-3.992838	bring||friend	-0.2298731
-3.918881	bring||in.	-0.05146731
-3.918881	bring||set	-0.01252285
-3.918881	bring||stuff	-0.05273441
-3.992838	bring||we	-0.1848186
-3.918881	build|CAUSE_OF_DEATH|	-0.05274261
-3.918881	build|I|it	-0.01252285
-3.918881	build|that|	-0.01252285
-3.992838	build|we|	-0.114787
-3.880205	build|we|CAUSE_OF_DEATH	-0.2296596
-3.918881	build|we|campfire	-0.05274261
-3.918881	build|which|	-0.2297833
-3.713311	build||	-0.08406283
-3.421679	build||CAUSE_OF_DEATH	-0.1144935
-3.918881	build||DATE	-0.2292146
-3.992838	bundle|we|	-0.06594077
-3.918881	burly||town	-0.05141352
-3.992838	burn|eye|	-0.2702539
-3.880205	burn||	-0.1223958
-3.713311	buy|I|	0.01436285
-3.992838	buy|I|bottle	-0.2369769
-3.918881	buy|I|donut	-0.04335037
-3.918881	buy|I|trucker	-0.05274261
-3.992838	buy|i|pair	-0.005464304
-3.918881	buy|we|	-0.2361674
-3.880205	buy|we|tent	-0.06449559
-3.992838	buy|we|ticket	-0.005464304
-3.992838	buy|wife|tent	-0.2299176
-3.992838	buy|you|	-0.06043553
-3.992838	buy||NUMBER	-0.06815935
-3.918881	buy||food	-0.0499046
-3.992838	buzz||	-0.2694083
-3.918881	call|DATE|	-0.05273441
-3.498964	call|I|	-0.02724973
-3.880205	call|I|PERSON	-0.06815935
-3.918881	call|I|dib	-0.05274261
-3.992838	call|I|hotel	-0.05254177
-3.992838	call|PERSON|	-0.005464304
-3.713311	call|PERSON|I	-0.1020719
-3.992838	call|forecast|	-0.1141468
-3.992838	call|he|I	-0.2286111
-3.918881	call|it|Mushrooms	-0.05273441
-3.992838	call|she|	-0.04985189
-3.880205	call|we|	-0.2343273
-3.992838	call|we|PERSON	-0.2771879
-3.992838	call|we|it	-0.2701449
-3.918881	call|what|	-0.05264907
-3.421679	call||	-0.1509362
-3.713311	call||LOCATION	-0.05568615
-3.992838	call||MISC	-0.2293644
-3.918881	call||hat	-0.05273441
-3.992838	call||hotel	-0.2369769
-3.593046	call||it	-0.02175318
-3.992838	call||they	-0.005464304
-3.992838	call||trip	-0.2299176
-3.918881	call||we	-0.005464304
-3.918881	call||word	-0.01252285
-3.992838	calm|I|	-0.2767991
-3.918881	calm|I|fear	-0.05272953
-3.918881	came||	-0.05238077
-3.880205	camp|I|	-0.04581662
-3.992838	camp|MONEY|	-0.005464304
-3.918881	camp|it|	-0.05262225
-3.918881	camp|they|	-0.2769732
-3.918881	camp|thing|	-0.04901296
-3.125424	camp|we|	-0.3264917
-3.992838	camp|we|ORGANIZATION	-0.2299176
-3.918881	camp|we|camper	-0.05273441
-3.918881	camp|you|	-0.2294841
-2.745032	camp||	-0.2072336
-3.880205	camp||DATE	-0.04706847
-3.992838	camp||better	-0.2722791
-3.918881	camp||time	-0.2293943
-3.713311	camp||trip	-0.2465516
-3.918881	cancel||reservation	-0.01252285
-3.992838	can|I|MONEY	-0.06815935
-3.992838	can|I|wait	-0.2727538
-3.918881	can|that|MONEY	-0.05273441
-3.918881	can|we|MONEY	-0.01252285
-3.918881	can|we|wait	-0.04901296
-3.992838	can|you|MONEY	-0.005464304
-3.918881	can||	-0.229903
-3.992838	capture|PERSON|heart	-0.2734709
-3.918881	care|I|	-0.02307495
-3.992838	care|we|	-0.1848186
-3.880205	care|you|	-0.1000579
-3.992838	carry|I|	-0.08485089
-3.918881	carry|I|grudge	-0.05274261
-3.918881	carry|I|you	-0.05221971
-3.918881	carry|d|PERSON	-0.05240761
-3.918881	carry|we|	-0.05074054
-3.880205	carry||	-0.1660118
-3.992838	carry||everything	-0.2771342
-3.992838	carry||it	-0.113388
-3.918881	catch|Gran|	-0.01252285
-3.880205	catch|I|	-0.2497483
-3.992838	catch|I|NUMBER	-0.05248939
-3.918881	catch|guy|fishing	-0.05273441
-3.918881	catch|he|many	-0.01252285
-3.918881	catch|we|	-0.05187055
-3.248765	catch||	-0.1736779
-3.498964	catch||fish	-0.08056664
-3.918881	catch||frog	-0.05273441
-3.918881	catch||it	-0.05141352
-3.918881	catch||ya	-0.05273441
-3.918881	cause|PERSON|	-0.01252285
-3.918881	cause|she|trouble	-0.01252285
-3.992838	cause||	-0.228191
-3.918881	celebrate||	-0.2355185
-3.918881	certify||	-0.01252285
-3.918881	change|etiquette|	-0.04580959
-3.918881	change|that|	-0.2344248
-3.992838	change|thing|	-0.2297235
-3.992838	change|we|	-0.2702672
-3.918881	change|we|spot	-0.05141352
-3.421679	change||	-0.05586369
-3.992838	change||plan	-0.2758317
-3.992838	charge||	-0.2297833
-3.992838	charter|we|PERSON	-0.06817393
-3.992838	chase|we|PERSON	-0.2771879
-3.713311	chat|we|	-0.1841242
-3.880205	chat||	-0.1847639
-3.421679	check|I|	-0.06713179
-3.992838	check|I|time	-0.2298731
-3.918881	check|camp|	-0.05273441
-3.125424	check|we|	-0.05641039
-3.918881	check|we|PERSON	-0.2738633
-3.918881	check|you|it	-0.0526759
-3.299121	check||	-0.1331437
-3.918881	check||facility	-0.01252285
-3.918881	check||gage	-0.05274261
-3.918881	check||geyser	-0.05211231
-3.880205	check||it	-0.2241189
-3.918881	check||kid	-0.04782124
-3.918881	check||lht	-0.05254177
-3.918881	check||resort	-0.05274261
-3.918881	check||river	-0.05273441
-3.918881	chew|we|	-0.01252285
-3.918881	chillin|you|MONEY	-0.05273441
-3.421679	chill|we|	-0.1039
-3.880205	chill||	-0.2679825
-3.713311	choose|I|	-0.1255647
-3.918881	choose|d|	-0.01252285
-3.992838	choose|we|	-0.2678077
-3.918881	choose|you|	-0.0525686
-3.880205	choose||	-0.1835849
-3.918881	chop||firewood	-0.04335037
-3.918881	chop||put	-0.05273441
-3.918881	claim|I|dib	-0.05273441
-3.918881	clap|that|	-0.05141352
-3.713311	clean|we|	-0.02295554
-3.421679	clean||	-0.176886
-3.918881	clean||house/do	-0.05273441
-3.992838	clean||it	-0.1848186
-3.992838	clear|cloud|	-0.1151678
-3.918881	clear|island|	-0.27602
-3.713311	clear|it|	-0.0806381
-3.992838	clear|rain|	-0.07523327
-3.918881	clear|rest|	-0.05273441
-3.918881	click||	-0.04901296
-3.918881	click||picture	-0.05273441
-3.992838	climb|I|	-0.01252285
-3.918881	climb|PERSON|rock	-0.05230025
-3.918881	climb|sound|tree	-0.01252285
-3.498964	climb|we|	-0.07548118
-3.203646	climb||	-0.2265963
-3.992838	climb||it	-0.2362264
-3.880205	climb||mountain	-0.1831188
-3.918881	cling|I|	-0.2362853
-3.918881	close|NUMBER|	-0.01252285
-3.498964	close|it|	-0.09612457
-3.992838	close|office|	-0.1848186
-3.992838	close|they|	-0.1848186
-3.918881	close|you|eye	-0.05273441
-3.880205	close||	-0.1026713
-3.918881	cloud|it|	-0.05270271
-3.918881	collapse|I|	-0.2369769
-3.918881	collapse||tent	-0.05273441
-3.992838	color||	-0.1126108
-3.992838	come|DATE|	-0.06797989
-3.203646	come|I|	-0.1652194
-3.992838	come|I|home	-0.1152751
-3.593046	come|NUMBER|	-0.06343609
-2.975571	come|PERSON|	-0.2371892
-3.992838	come|TIME|	-0.0124654
-3.880205	come|boat|	-0.02307495
-3.918881	come|child|	-0.05274261
-3.918881	come|everyone|home	-0.05273441
-3.992838	come|family|	-0.1848186
-3.713311	come|friend|	-0.06683351
-3.992838	come|group|	-0.06815935
-3.918881	come|guy|	-0.05273441
-3.498964	come|he|	-0.02188487
-3.713311	come|it|	-0.05095077
-3.992838	come|light|	-0.06809954
-3.992838	come|mom|	-0.02307495
-3.992838	come|parent|	-0.2298731
-3.992838	come|rain|	-0.1098589
-3.593046	come|she|	-0.1253252
-3.918881	come|someone|	-0.06792004
-3.713311	come|sun|	-0.0228259
-3.992838	come|tent|	-0.2283451
-3.992838	come|that|	-0.2235428
-3.918881	come|then|	-0.05141352
-3.498964	come|they|	-0.06679001
-3.918881	come|they|it	-0.0526759
-3.918881	come|thing|	-0.05270271
-3.918881	come|traffic|	-0.05273441
-3.992838	come|trip|	-0.2290948
-3.918881	come|water|	-0.05273441
-2.745032	come|we|	-0.2346664
-3.992838	come|we|home	-0.06768061
-3.992838	come|what|	-0.2266612
-3.918881	come|which|	-0.05264907
-3.593046	come|who|	-0.08897137
-3.593046	come|you|	-0.07670499
-2.62812	come||	-0.3591509
-3.880205	come||home	-0.1793635
-3.992838	come||way	-0.229903
-3.918881	comment|we|	-0.05273441
-3.992838	commune||	-0.27602
-3.713311	compare||	-0.1812555
-3.918881	compensate||	-0.2294841
-3.992838	complain|I|	-0.2221791
-3.880205	complain|we|	-0.06797989
-3.880205	complain||	-0.02415317
-3.918881	complain||ton	-0.05273441
-3.918881	comprise|DATE|	-0.05259543
-3.918881	comprise|share|	-0.05238077
-3.992838	concern||	-0.01252285
-3.992838	confess|I|	-0.005464304
-3.992838	connect|that|	-0.1848186
-3.918881	connect||MONEY	-0.05273441
-3.918881	connect||lifestyle	-0.01252285
-3.918881	consider|I|	-0.2369037
-3.918881	consider|people|	-0.05273441
-3.918881	consider|we|ourselves	-0.05262225
-3.498964	consider||	-0.0022837
-3.992838	consist|PERSON|	-0.2768659
-3.918881	consist|which|	-0.2765575
-3.918881	contemplate||	-0.05273441
-3.593046	continue|I|	-0.1502252
-3.992838	continue|PERSON|	-0.2760738
-3.918881	continue|White|	-0.01252285
-3.918881	continue|he|	-0.05273441
-3.918881	continue|trail|	-0.2299176
-3.299121	continue|we|	-0.1316272
-3.992838	continue|wind|	-0.005464304
-3.299121	continue||	-0.1595436
-3.992838	control||	-0.2293644
-3.992838	convince|I|PERSON	-0.2772009
-3.992838	convince||PERSON	-0.2771074
-3.880205	cook|I|	-0.1032453
-3.918881	cook|I|sun	-0.01252285
-3.992838	cook|PERSON|breakfast	-0.229903
-3.880205	cook|we|	-0.2349637
-3.918881	cook|we|breakfast	-0.2754549
-3.992838	cook|we|dinner	-0.2297833
-3.918881	cook|we|dog	-0.05264907
-3.918881	cook|we|they	-0.05273441
-3.203646	cook||	-0.08753241
-3.992838	cook||breakfast	-0.06816479
-3.593046	cook||dinner	-0.06276506
-3.992838	cook||meal	-0.2298132
-3.992838	cool|it|	-0.2766112
-3.918881	cool|temperature|	-0.05273441
-3.992838	cool||	-0.235843
-3.992838	cooperate|weather|	-0.005464304
-3.918881	cooperate||	-0.0499046
-3.918881	cope|the|course	-0.01252285
-3.918881	cost|DATE|MONEY	-0.01252285
-3.918881	cost|DATE|we	-0.05273441
-3.918881	cost|campsite|buck	-0.05273441
-3.992838	couldnt|we|	-0.2297833
-3.498964	couldn|I|MONEY	-0.3576444
-3.918881	couldn|MONEY|MONEY	-0.05274261
-3.992838	couldn|he|MONEY	-0.2299176
-3.918881	couldn|she|use	-0.04335037
-3.992838	couldn|we|MONEY	-0.1426926
-3.992838	couldn|we|t	-0.06812945
-3.918881	counter||	-0.04782124
-3.918881	count|monkey|they	-0.05273441
-3.992838	count|we|	-0.07521892
-3.421679	cover||	-0.161244
-3.918881	cover||all	-0.05273441
-3.992838	cover||myself	-0.2733495
-3.918881	cozy|breakfast|	-0.05270271
-3.992838	cram||	-0.02307495
-3.992838	crash|I|	-0.1137969
-3.992838	crash||	-0.2759088
-3.918881	crash||wave	-0.2678077
-3.992838	crawl|I|	-0.2273496
-3.992838	crawl|PERSON|	-0.005464304
-3.918881	crawl|meal|	-0.05074054
-3.880205	crawl|we|	-0.09552048
-3.992838	crawl||	-0.2293644
-3.992838	creak||	-0.229544
-3.918881	create|kid|couple	-0.05141352
-3.992838	creep||	-0.1834518
-3.498964	cross|I|	-0.172808
-3.918881	cross|it|creek	-0.05272953
-3.918881	cross|it|river	-0.05273441
-3.992838	cross|we|	-0.2369769
-3.593046	cross||	-0.09845044
-3.992838	cross||LOCATION	-0.2292146
-3.918881	cross||face	-0.05273441
-3.992838	cross||river	-0.005464304
-3.992838	cross||water	-0.2194308
-3.880205	cruise|we|	-0.1101587
-3.918881	crush|I|	-0.01252285
-3.992838	cry|PERSON|	-0.01252285
-3.992838	cry|girl|	-0.2899599
-3.918881	cry|you|little	-0.05274261
-3.713311	cry||	0.00326369
-3.880205	cuddle||	-0.2767818
-3.992838	curl|PERSON|	-0.2299176
-3.918881	curse|we|	-0.01252285
-3.918881	cut|I|	-0.236786
-3.880205	cut||	-0.07830287
-3.918881	cut||meat	-0.05273441
-3.918881	cut||short.	-0.05273441
-3.918881	cut||veggy	-0.05273441
-3.992838	dawn|it|	-0.2677944
-3.880205	deal|I|	-0.1177195
-3.918881	deal|we|	-0.05273441
-3.880205	deal||	-0.09344228
-3.918881	deal||m	-0.05273441
-3.713311	decide|DATE|	-0.2665928
-2.745032	decide|I|	-0.2610174
-3.992838	decide|LOCATION|	-0.2290948
-3.059164	decide|PERSON|	-0.2164423
-3.992838	decide|PERSON|campsite	-0.2299176
-3.918881	decide|guy|	-0.05270271
-3.992838	decide|he|	-0.2285811
-3.992838	decide|i|	-0.272293
-3.918881	decide|people|	-0.2674928
-3.918881	decide|se|	-0.05259543
-3.880205	decide|she|	-0.1487036
-3.593046	decide|they|	-0.0909542
-2.509301	decide|we|	-0.196073
-3.992838	decide|who|	-0.2298731
-3.248765	decide||	-0.08705138
-3.992838	declare|PERSON|	-0.02307495
-3.918881	dehydrate|I|	-0.2194308
-3.918881	dehydrate|grain|it	-0.01252285
-3.918881	dehydrate||	-0.05232709
-3.992838	delay|we|	-0.2299176
-3.918881	deliver||litter	-0.05264907
-3.918881	depart||	-0.04782124
-3.918881	depend|that|	-0.04580959
-3.918881	descend|mosquito|	-0.05238077
-3.713311	descend|we|	-0.1087676
-3.880205	descend||	-0.1245161
-3.918881	describe|I|it	-0.05273441
-3.992838	describe|hike|	-0.2299176
-3.918881	describe|they|part	-0.01252285
-3.918881	describe|you|	-0.05273441
-3.992838	desert||	-0.06816479
-3.992838	deserve||	-0.2284352
-3.880205	designate||	-0.03964508
-3.880205	desire||	-0.0954845
-3.918881	determine|I|	-0.005464304
-3.918881	determine|he|	-0.05268204
-3.918881	determine|we|	-0.2762082
-3.880205	determine||	-0.1154283
-3.992838	develop||bond	-0.005464304
-3.992838	did.|we|	-0.01252285
-3.992838	didnt|we|	-0.229544
-3.203646	didn|I|MONEY	-0.3087304
-3.992838	didn|I|sleep	-0.2766112
-3.992838	didn|PERSON|show	-0.2759255
-3.880205	didn|he|MONEY	-0.2296596
-3.356091	didn|it|MONEY	-0.151094
-3.918881	didn|it|look	-0.265431
-3.992838	didn|it|take	-0.005464304
-3.992838	didn|she|MONEY	-0.2771211
-3.713311	didn|they|MONEY	-0.005250931
-3.918881	didn|they|anything	-0.05273441
-3.001688	didn|we|MONEY	-0.08395229
-3.918881	didn|we|grab	-0.05224656
-3.992838	didn|we|t	-0.2293344
-3.918881	didn|we|whatever	-0.05273441
-3.992838	didn|who|MONEY	-0.005464304
-3.880205	didn|you|MONEY	-0.08891721
-3.992838	didn||MONEY	-0.05251134
-3.992838	die|CAUSE_OF_DEATH|	-0.06780035
-3.992838	die|I|	-0.229903
-3.992838	die|we|	-0.2369769
-3.880205	die||	-0.2391833
-3.918881	die||PERSON	-0.01252285
-3.992838	digress|I|	-0.2272593
-3.918881	dig|they|latrine	-0.05270271
-3.880205	dig||	-0.1499066
-3.918881	dig||pit	-0.01252285
-3.880205	dine||	-0.06803972
-3.992838	dip||	-0.1154174
-3.992838	direct|it|I	-0.2772009
-3.918881	disapoint|it|	-0.01252285
-3.918881	disappoint|we|	-0.06491759
-3.498964	discover|I|	-0.01129626
-3.992838	discover|PERSON|	-0.05269024
-3.918881	discover|PERSON|badmitton	-0.05273441
-3.918881	discover|PERSON|practiced	-0.05273441
-3.248765	discover|we|	-0.09108014
-3.992838	discover||	-0.2257564
-3.992838	discuss||plan	-0.229903
-3.918881	disturb||something	-0.01252285
-3.918881	disway|we|	-0.04335037
-3.992838	dive|NUMBER|	-0.05755085
-3.992838	dive|TIME|	-0.2297235
-3.992838	dive|he|	-0.2299176
-3.356091	dive|we|	-0.1209196
-3.299121	dive||	-0.112252
-3.992838	do.||	-0.2681742
-3.918881	dodge||	-0.05273441
-3.918881	doesn|it|MONEY	-0.2242402
-3.918881	doesn|it|work	-0.05273441
-3.918881	dominate|group|	-0.05273441
-3.918881	dominate|it|	-0.05273441
-3.125424	don|I|MONEY	-0.2040274
-3.918881	don|I|definition	-0.05259543
-3.880205	don|I|t	-0.1032154
-3.880205	don|I|think	-0.2192735
-3.880205	don|we|MONEY	-0.1029706
-3.918881	don|who|MONEY	-0.05262225
-3.713311	don|you|MONEY	-0.1304469
-3.918881	don||	-0.05262225
-3.918881	douse|we|ourselves	-0.05273441
-3.918881	douse||ourselves	-0.05273441
-3.992838	down|PERSON|	-0.1148944
-2.975571	do|I|	-0.2342793
-3.992838	do|I|?!	-0.1059959
-3.992838	do|I|NUMBER	-0.2355775
-3.992838	do|I|anything	-0.2293344
-3.992838	do|I|course	-0.2369769
-3.992838	do|I|dive	-0.2369769
-3.918881	do|I|hike	-0.05273441
-3.356091	do|I|it	-0.1776988
-3.992838	do|I|lot	-0.05287401
-3.992838	do|I|research	-0.2298132
-3.992838	do|I|this	-0.2293644
-3.918881	do|I|ton	-0.05273441
-3.992838	do|I|trip	-0.2257564
-3.713311	do|I|what	-0.09805695
-3.992838	do|I|which	-0.2369769
-3.880205	do|Little|	-0.1427823
-3.918881	do|MONEY|	-0.05273441
-3.992838	do|NUMBER|	-0.1248096
-3.918881	do|ORGANIZATION|time	-0.05273441
-3.498964	do|PERSON|	0.01448609
-3.992838	do|PERSON|lot	-0.1154491
-3.992838	do|PERSON|same	-0.1554927
-3.880205	do|PERSON|what	-0.2257067
-3.992838	do|all|	-0.2365799
-3.918881	do|camper|what	-0.05273441
-3.880205	do|dive|	-0.2353669
-3.880205	do|everyone|	-0.1466925
-3.918881	do|fishing|	-0.0526759
-3.918881	do|forcast|	-0.04335037
-3.880205	do|he|	-0.03847099
-3.299121	do|it|	-0.0870278
-3.992838	do|it|job	-0.2767723
-3.992838	do|i|blog	-0.2294242
-3.918881	do|plenty|	-0.05248811
-3.713311	do|she|	-0.1818298
-3.918881	do|something|	-0.05273441
-3.992838	do|some|	-0.005464304
-3.880205	do|that|	-0.1056315
-3.593046	do|they|	-0.09538382
-3.918881	do|thing|	-0.005464304
-3.992838	do|this|	-0.005464304
-3.918881	do|t|camping	-0.05273441
-3.918881	do|t|that	-0.2497483
-2.792226	do|we|	-0.1085931
-3.992838	do|we|MISC	-0.2290948
-3.918881	do|we|care	-0.01252285
-3.992838	do|we|course	-0.005464304
-3.713311	do|we|dive	0.003230505
-3.713311	do|we|hike	-0.1709167
-3.992838	do|we|hiking	-0.2692171
-3.593046	do|we|it	-0.1584121
-3.992838	do|we|snorkeling	-0.2738903
-3.992838	do|we|stop	-0.2298132
-3.713311	do|we|that	-0.1629579
-3.713311	do|we|thing	-0.04956999
-3.992838	do|we|trip	-0.2298432
-3.992838	do|we|what	-0.2346576
-3.713311	do|what|	-0.2400215
-3.593046	do|you|	-0.08929814
-3.918881	do|you|it	-0.04580959
-3.918881	do|you|loop	-0.05246128
-3.992838	do|you|what	-0.1848186
-1.797589	do||	-0.2390615
-3.992838	do||DURATION	-0.1137382
-3.713311	do||NUMBER	-0.04087596
-3.992838	do||anything	-0.2767723
-3.498964	do||dive	-0.04254531
-3.992838	do||diving	-0.2298132
-3.992838	do||drive	-0.2761006
-3.880205	do||everything	-0.1731126
-3.918881	do||half	-0.05273441
-3.880205	do||hike	-0.05718521
-3.091032	do||it	-0.08837032
-3.880205	do||kind	-0.0820186
-3.992838	do||lot	-0.2298731
-3.918881	do||mile	-0.05272953
-3.918881	do||monkey	-0.01252285
-3.713311	do||more	-0.2218813
-3.880205	do||shopping	-0.2740218
-3.992838	do||something	-0.005464304
-3.880205	do||that	-0.008380678
-3.713311	do||thing	-0.06283112
-3.880205	do||this	-0.005405918
-3.992838	do||trail	-0.005464304
-3.918881	do||travel	-0.05224656
-3.992838	do||trip	-0.005464304
-3.992838	do||water	-0.236786
-3.880205	do||work	-0.2356326
-3.992838	drag||	-0.005464304
-3.918881	drag||tent	-0.05221971
-3.992838	draw||	-0.2763963
-3.918881	dread||work	-0.01252285
-3.918881	dream||	-0.05274261
-3.918881	drench|sky|grounds	-0.05243445
-3.918881	drench||	-0.01252285
-3.992838	dress|I|	-0.225692
-3.593046	dress||	-0.046345
-3.918881	drinkin|Al|smithwick	-0.01252285
-3.992838	drink|I|	-0.07513064
-3.992838	drink|we|beer	-0.02307495
-3.992838	drink|we|wine	-0.1848186
-3.880205	drink||	-0.02844099
-3.918881	drink||Light	-0.05141352
-3.992838	drink||beer	-0.06789012
-3.992838	drip||	-0.110468
-3.125424	drive|I|	-0.1771288
-3.992838	drive|I|home	-0.02307495
-3.992838	drive|I|solo	-0.2299176
-3.992838	drive|PERSON|	-0.05246128
-3.992838	drive|he|	-0.2764094
-3.918881	drive|then|	-0.05248811
-2.500723	drive|we|	-0.1797998
-3.992838	drive|we|DURATION	-0.07523327
-3.992838	drive|we|drive	-0.2299176
-3.992838	drive|we|home	-0.1151946
-3.992838	drive|we|hundred	-0.2299176
-3.992838	drive|we|mile	-0.1848186
-3.992838	drive|wheel|grab	-0.2369769
-3.880205	drive|you|	-0.2766845
-2.56466	drive||	-0.2391802
-3.992838	drive||NUMBER	-0.2737011
-3.918881	drive||Shore	-0.05251494
-3.918881	drive||excavator	-0.01252285
-3.918881	drive||interest	-0.01252285
-3.992838	drive||mile	-0.2733766
-3.992838	drive||road	-0.1125789
-3.880205	drive||way	-0.02307495
-3.918881	drizzle||forecast	-0.05144041
-3.992838	drop|I|	-0.2368154
-3.918881	drop|I|ORGANIZATION	-0.05273441
-3.918881	drop|I|PERSON	-0.05273441
-3.918881	drop|PERSON|	-0.01252285
-3.880205	drop|temperature|	-0.2340616
-3.992838	drop|temp|	-0.1138052
-3.918881	drop|traffic|	-0.05274261
-3.713311	drop|we|	-0.09805695
-3.992838	drop|we|PERSON	-0.2772009
-3.880205	drop||	-0.184615
-3.992838	drop||pack	-0.2298731
-3.992838	drown||	-0.2366388
-3.992838	dry|tent|	-0.1848186
-3.356091	dry||	-0.1676313
-3.918881	dry||everything	-0.05273441
-3.880205	duck||	-0.2297195
-3.918881	dump|we|thing	-0.0494455
-3.918881	earn|pad|moniker	-0.05273441
-3.918881	earn|pad|pad	-0.05273441
-3.593046	eat|I|	-0.1601757
-3.992838	eat|I|dinner	-0.1154491
-3.918881	eat|I|ton	-0.05273441
-3.992838	eat|PERSON|	-0.0526759
-3.918881	eat|fish|	-0.01252285
-3.992838	eat|he|	-0.1848186
-3.992838	eat|hike|	-0.2369769
-3.918881	eat|mosquito|	-0.06491759
-3.992838	eat|she|	-0.1721717
-2.975571	eat|we|	-0.1317588
-3.593046	eat|we|breakfast	-0.09244633
-3.992838	eat|we|chicken	-0.2369331
-3.992838	eat|we|dinner	-0.06806963
-3.992838	eat|we|it	-0.2732683
-3.918881	eat|we|j	-0.0494455
-3.299121	eat|we|lunch	-0.2201135
-3.918881	eat|we|pb	-0.05273441
-3.918881	eat|you|crust	-0.01252285
-2.905501	eat||	-0.1326272
-3.713311	eat||breakfast	-0.05581962
-3.713311	eat||dinner	-0.1847093
-3.992838	eat||food	-0.2296038
-3.992838	eat||lunch	-0.2351641
-3.918881	eat||mores	-0.05264907
-3.918881	eat||non-stop	-0.05272953
-3.918881	eat||package	-0.05273441
-3.992838	eat||pizza	-0.06340855
-3.918881	eat||s'more	-0.05235393
-3.992838	eat||something	-0.2634425
-3.992838	edward||	-0.005464304
-3.918881	elbow|I|PERSON	-0.05273441
-3.918881	elect||driver	-0.05272953
-3.992838	embark|we|	-0.01252285
-3.918881	embark||	-0.05272953
-3.918881	emphasize|I|MONEY	-0.0525686
-3.918881	emphasize|I|normality	-0.05273441
-3.992838	empty||	-0.07510122
-3.992838	endure|NUMBER|moment	-0.2299176
-3.356091	end|I|	-0.2582913
-3.918881	end|Road|	-0.05273441
-3.880205	end|he|	-0.2361261
-3.713311	end|it|	-0.06320332
-3.918881	end|it|next	-0.05211231
-3.992838	end|that|	-0.1847478
-3.918881	end|trip|	-0.05221971
-2.884449	end|we|	-0.05200233
-3.992838	end|which|	-0.005464304
-3.593046	end||	-0.06161297
-3.992838	end||trip	-0.1030604
-3.918881	engeneer|that|	-0.05211231
-3.918881	enjoy|Girly|swimming	-0.05273441
-3.593046	enjoy|I|	-0.173133
-3.992838	enjoy|I|diving	-0.2765843
-3.992838	enjoy|I|it	-0.06594077
-3.992838	enjoy|I|ride	-0.2369037
-3.992838	enjoy|I|trip	-0.01252285
-3.880205	enjoy|PERSON|	-0.1845486
-3.992838	enjoy|PERSON|ourselves	-0.2299176
-3.918881	enjoy|PERSON|trip	-0.05274261
-3.992838	enjoy|citizen|hike	-0.005464304
-3.880205	enjoy|he|	-0.1846482
-3.918881	enjoy|they|	-0.05200487
-3.918881	enjoy|they|it	-0.05246128
-3.713311	enjoy|we|	-0.1326692
-3.918881	enjoy|we|beach	-0.05273441
-3.918881	enjoy|we|campsite	-0.0499046
-3.992838	enjoy|we|dinner	-0.2734306
-3.918881	enjoy|we|eruption	-0.05262225
-3.918881	enjoy|we|feel	-0.01252285
-3.992838	enjoy|we|it	-0.1025361
-3.918881	enjoy|we|lot	-0.01252285
-3.918881	enjoy|we|quiet	-0.05273441
-3.918881	enjoy|we|scenery	-0.05264907
-3.918881	enjoy|you|	-0.05074054
-3.203646	enjoy||	-0.0345152
-3.918881	enjoy||beach	-0.05273441
-3.713311	enjoy||it	-0.09129299
-3.918881	enjoy||pace	-0.04580959
-3.992838	enjoy||trip	-0.236521
-3.356091	enjoy||view	-0.1096063
-3.918881	enjoy||walking	-0.05224656
-3.918881	enjoy||water	-0.05262225
-3.918881	enlarge||	-0.05273441
-3.992838	ensure||	-0.1844158
-3.918881	entertain|you|	-0.05273441
-3.713311	enter|we|	-0.2355695
-3.992838	enter|we|LOCATION	-0.06812945
-3.992838	enter|we|water	-0.229544
-3.880205	equalize||	-0.1091513
-3.918881	equip||	-0.229903
-3.918881	erode||	-0.1848186
-3.992838	escape||	-0.276826
-3.918881	estimate|I|	-0.2750777
-3.918881	etch||	-0.2297833
-3.918881	everyht||	-0.05274261
-3.918881	everyone|MONEY|laundry	-0.05274261
-3.918881	examine||	-0.2751987
-3.918881	exceed||mile	-0.04901296
-3.992838	excite|I|	-0.1641502
-3.918881	excite|we|	-0.2368743
-3.880205	exhaust|I|	-0.05307299
-3.992838	exhaust|it|	-0.02307495
-3.918881	exhaust|time|	-0.2771479
-3.713311	exhaust|we|	-0.06834421
-3.713311	exhaust||	-0.1278962
-3.992838	exict|we|	-0.05268537
-3.992838	exit|we|	-0.224426
-3.992838	exit||water	-0.1848186
-3.918881	expand||	-0.01252285
-3.356091	expect|I|	-0.1353816
-3.992838	expect|we|	-0.2369625
-3.918881	expect|you|	-0.2721845
-3.498964	expect||	-0.1693464
-3.918881	expect||experience	-0.01252285
-3.918881	experience||bush	-0.05273441
-3.918881	experience||wreck	-0.05273441
-3.918881	explain||	-0.1848186
-3.992838	explore|we|area	-0.1848186
-3.299121	explore||	-0.01722957
-3.880205	explore||LOCATION	-0.2364876
-3.918881	face|I|TIME	-0.05074054
-3.992838	face||	-0.1848186
-3.918881	face||beach	-0.1848186
-3.992838	face||lake	-0.2365504
-3.992838	fail|I|	-0.2315744
-3.918881	fail|idea|	-0.05203174
-3.992838	fail||	-0.114953
-3.421679	fall|I|	-0.1391128
-3.992838	fall|NUMBER|	-0.07451221
-3.992838	fall|PERSON|	-0.07510122
-3.918881	fall|cooler|	-0.05274261
-3.992838	fall|he|	-0.1846482
-3.918881	fall|he|time	-0.01252285
-3.992838	fall|it|	-0.2294542
-3.992838	fall|rain|	-0.1846814
-3.992838	fall|that|	-0.2194308
-3.880205	fall|they|	-0.09916091
-3.880205	fall|the|	-0.149671
-3.992838	fall|water|	-0.2299176
-3.713311	fall|we|	-0.04240236
-3.992838	fall|you|	-0.01204794
-3.091032	fall||	-0.2306077
-3.918881	fashion||	-0.04580959
-3.992838	feast|we|	-0.1154573
-3.992838	feast||	-0.06762074
-3.713311	feed||	-0.1840127
-3.918881	feed||wood	-0.01252285
-2.826802	feel|I|	-0.3407369
-3.918881	feel|I|way	-0.05274261
-3.992838	feel|PERSON|	-0.2765575
-3.918881	feel|PERSON|tingling	-0.05273441
-3.918881	feel|he|	-0.05264907
-3.001688	feel|it|	-0.2327922
-3.992838	feel|i|	-0.2299176
-3.918881	feel|ride|	-0.05240761
-3.918881	feel|she|	-0.05273441
-3.918881	feel|tent|	-0.01252285
-3.992838	feel|that|	-0.1848186
-3.992838	feel|they|	-0.114787
-3.992838	feel|this|	-0.2369625
-3.421679	feel|we|	-0.08345198
-3.918881	feel|we|load	-0.01252285
-3.880205	feel|you|	-0.1138742
-3.421679	feel||	-0.1947259
-3.992838	feel||it	-0.2297534
-3.992838	fight|I|way	-0.2772009
-3.880205	fight||	-0.2277405
-3.918881	fight||intruder	-0.01252285
-3.918881	fight||it	-0.05232709
-3.125424	figure|I|	-0.1275433
-3.992838	figure|PERSON|	-0.2771879
-3.992838	figure|i|	-0.2675202
-3.713311	figure|we|	-0.1688268
-3.918881	figure|we|situations	-0.05273441
-3.203646	figure||	-0.1632974
-3.992838	fill|DURATION|	-0.1060557
-3.992838	fill|I|tank	-0.005464304
-3.918881	fill|it|	-0.2771074
-3.992838	fill|site|	-0.01252285
-3.918881	fill|sky|	-0.05272953
-3.992838	fill|we|tank	-0.2299176
-3.498964	fill||	-0.1357177
-3.918881	fill||thing	-0.05273441
-3.029476	find|I|	-0.3075257
-3.992838	find|I|NUMBER	-0.115436
-3.918881	find|I|gallon	-0.01252285
-3.880205	find|I|myself	-0.2738056
-3.992838	find|I|spot	-0.2348981
-3.992838	find|I|way	-0.2299176
-3.992838	find|PERSON|	0.003628895
-3.992838	find|PERSON|PERSON	-0.1650212
-3.918881	find|PERSON|quartz	-0.06817393
-3.992838	find|diamond|tell	-0.2299176
-3.918881	find|food|	-0.05273441
-3.918881	find|rain|it	-0.05273441
-3.918881	find|she|	-0.01252285
-3.880205	find|they|	-0.07523327
-3.992838	find|they|it	-0.2748752
-3.918881	find|they|site	-0.05221971
-3.918881	find|thunderstorm|it	-0.05273441
-3.162776	find|we|	-0.2124964
-3.880205	find|we|NUMBER	-0.06812945
-3.918881	find|we|all	-0.01252285
-3.918881	find|we|bunch	-0.04580959
-3.918881	find|we|campground	-0.05273441
-3.992838	find|we|campsite	-0.1848186
-3.992838	find|we|hotel	-0.2366682
-3.593046	find|we|it	0.003363267
-3.593046	find|we|place	-0.1477579
-3.593046	find|we|site	-0.04746065
-3.880205	find|we|spot	-0.1722205
-3.713311	find|we|way	-0.04186958
-3.992838	find|you|	-0.2746193
-2.927625	find||	-0.1791848
-3.880205	find||DATE	-0.1032399
-3.713311	find||PERSON	-0.08001813
-3.880205	find||campsite	-0.2213219
-3.918881	find||constellation	-0.01252285
-3.992838	find||flight	-0.2362853
-3.880205	find||it	-0.04651338
-3.992838	find||nemo	-0.2298731
-3.593046	find||place	-0.1106975
-3.992838	find||restaurant	-0.1117411
-3.992838	find||site	-0.2344248
-3.356091	find||spot	-0.1283722
-3.992838	find||tent	-0.05267229
-3.918881	find||we	-0.2293344
-3.356091	finish|I|	-0.08931506
-3.918881	finish|I|dish	-0.04335037
-3.992838	finish|they|	-0.1848186
-3.713311	finish|we|	-0.1412027
-3.992838	finish|we|dinner	-0.2315744
-3.918881	finish|we|float	-0.05273441
-3.713311	finish||	-0.1124646
-3.992838	finish||dive	-0.1848186
-3.918881	finish||food	-0.05232709
-3.918881	finish||job	-0.05273441
-3.918881	fire||	-0.2299176
-3.918881	fish.|PERSON|	-0.01252285
-3.918881	fish|they|	-0.05274261
-3.918881	fit|they|	-0.005464304
-3.992838	fit||	-0.1848186
-3.918881	fix|we|situation	-0.05273441
-3.992838	fix||	-0.01252285
-3.992838	flap||	-0.2262392
-3.918881	flare||CAUSE_OF_DEATH	-0.05273441
-3.918881	flip|someone|switch	-0.05273441
-3.880205	float|I|	-0.09805695
-3.880205	float||	-0.02307495
-3.918881	float||MONEY	-0.05232709
-3.918881	flounder||	-0.2694083
-3.992838	flow|that|	-0.1848186
-3.880205	flow||	-0.04100131
-3.880205	fly|DATE|	-0.06491759
-3.918881	fly|be|	-0.05274261
-3.918881	fly|birdie|	-0.05273441
-3.992838	fly|he|	-0.04580959
-3.992838	fly|it|	-0.2296936
-3.992838	fly|time|	-0.2671087
-3.421679	fly|we|	-0.07717025
-3.162776	fly||	-0.1113875
-3.992838	focus||	-0.2369769
-3.992838	follow|I|	-0.2369769
-3.992838	follow|PERSON|track	-0.2299176
-2.80917	follow||	-0.2538602
-3.918881	forage||	-0.2369625
-3.918881	force|I|	-0.2756971
-3.918881	force||myself	-0.05273441
-3.918881	forget|!!|tent	-0.01252285
-3.421679	forget|I|	-0.1178973
-3.992838	forget|I|name	-0.2369331
-3.713311	forget|we|	-0.09533223
-3.992838	forget||	-0.1711906
-3.992838	forget||it	-0.2669165
-3.918881	freak|I|	-0.05273441
-3.713311	freak||	-0.04656443
-3.918881	freeze|I|	-0.06809954
-3.918881	frequent|none|	-0.05273441
-3.992838	fry|country|steak	-0.005464304
-3.992838	fuel|we|	-0.1848186
-3.880205	fuel||	-0.2342432
-3.918881	fussed|you|	-0.05273441
-3.918881	gain||elevation	-0.05235393
-3.918881	gather|one|	-0.05273441
-3.992838	gather||	-0.005464304
-3.992838	gather||gear	-0.005464304
-3.992838	gaze|we|	-0.2296337
-3.918881	gaze||	-0.2361674
-3.918881	gear|girl|	-0.05273441
-3.992838	gear|we|	-0.1848186
-3.880205	get|DATE|	-0.04651338
-3.918881	get|Finaly|	-0.05273441
-3.918881	get|Girly|	-0.04847167
-2.40917	get|I|	-0.2478782
-3.918881	get|I|bike	-0.05273441
-3.880205	get|I|chance	-0.2727773
-3.918881	get|I|heck	-0.05273441
-3.593046	get|I|home	-0.07442047
-3.918881	get|I|it	-0.01252285
-3.992838	get|I|lot	-0.2290948
-3.713311	get|I|picture	-0.1535671
-3.918881	get|I|sleep	-0.05074054
-3.918881	get|I|sunburn	-0.01252285
-3.992838	get|I|tan	-0.1848186
-3.992838	get|I|what	-0.2367271
-3.918881	get|MISC|	-0.05273441
-3.713311	get|NUMBER|	-0.124276
-3.992838	get|ORGANIZATION|work	-0.2299176
-3.299121	get|PERSON|	-0.1026329
-3.992838	get|PERSON|CAUSE_OF_DEATH	-0.1105493
-3.918881	get|PERSON|cut	-0.05273441
-3.992838	get|camp|	-0.1848186
-3.918881	get|camp|firewood	-0.05208545
-3.992838	get|cloud|darker	-0.0526049
-3.992838	get|everyone|	-0.2743225
-3.918881	get|girl|	-0.2276844
-3.593046	get|he|	-0.07594474
-3.918881	get|he|MONEY	-0.05273441
-3.248765	get|it|	-0.1726056
-3.918881	get|it|AND	-0.05246128
-3.992838	get|it|cold	-0.2767454
-3.299121	get|i|	-0.1489921
-3.992838	get|kid|	-0.1153239
-3.918881	get|place|snow	-0.05144041
-3.713311	get|she|	-0.1693624
-3.992838	get|squeeter|	-0.2734709
-3.918881	get|that|MONEY	-0.05273441
-3.593046	get|they|	-0.0637631
-3.880205	get|thing|	-0.1502411
-3.421679	get|t|	-0.09734886
-3.992838	get|t|it	-0.06606098
-3.992838	get|water|	-0.2759255
-2.179507	get|we|	-0.2033776
-3.992838	get|we|:d	-0.2729295
-3.992838	get|we|DATE	-0.1956769
-3.992838	get|we|NUMBER	-0.09909274
-3.880205	get|we|all	-0.142423
-3.992838	get|we|bus	-0.005464304
-3.918881	get|we|donut	-0.01252285
-3.992838	get|we|everything	-0.236521
-3.992838	get|we|gas	-0.2760331
-3.918881	get|we|half	-0.05272953
-3.918881	get|we|holiday	-0.05274261
-3.498964	get|we|home	-0.02348016
-3.918881	get|we|interstate	-0.05273441
-3.880205	get|we|it	-0.1409223
-3.992838	get|we|lunch	-0.277161
-3.918881	get|we|outta	-0.05195115
-3.992838	get|we|pancake	-0.2257564
-3.713311	get|we|picture	-0.1032691
-3.992838	get|we|sleep	-0.05768716
-3.880205	get|we|start	-0.1100499
-3.713311	get|we|tent	-0.1231997
-3.992838	get|we|there	-0.01252285
-3.992838	get|we|thing	-0.1134688
-3.918881	get|we|time	-0.01252285
-3.992838	get|we|what	-0.005464304
-3.918881	get|we|which	-0.2266612
-3.356091	get|you|	-0.1114299
-3.992838	get|you|chance	-0.2771479
-3.918881	get|you|it	-0.05273441
-3.918881	get|you|trip	-0.05273441
-1.9443	get||	-0.2321595
-3.713311	get||CAUSE_OF_DEATH	-0.3826072
-3.880205	get||I	0.00927867
-3.918881	get||Luke-Xavier	-0.05262225
-3.992838	get||NUMBER	-0.2742685
-3.421679	get||PERSON	-0.02191062
-3.992838	get||all	-0.2354299
-3.918881	get||breakfast	-0.01252285
-3.918881	get||cabin	-0.01252285
-3.918881	get||campchair	-0.05274261
-3.992838	get||campsite	-0.2763694
-3.992838	get||car	-0.2278046
-3.992838	get||cream	-0.224426
-3.992838	get||direction	-0.2221791
-3.992838	get||food	-0.005464304
-3.992838	get||foot	-0.2299176
-3.918881	get||gas	-0.2294542
-3.992838	get||gear	-0.2768528
-3.992838	get||get	-0.2299176
-3.918881	get||grill	-0.05273441
-3.593046	get||he	-0.04599934
-3.593046	get||home	-0.0375217
-3.992838	get||home.	-0.2366093
-3.593046	get||it	-0.10133
-3.992838	get||lot	-0.2221791
-3.918881	get||lure	-0.05264907
-3.992838	get||milkshake	-0.2771748
-3.918881	get||pan	-0.05270271
-3.992838	get||part	-0.2221791
-3.421679	get||picture	-0.07703736
-3.992838	get||pizza	-0.2284352
-3.992838	get||rain	-0.2735389
-3.992838	get||ride	-0.01252285
-3.918881	get||setup	-0.05273441
-3.992838	get||shot	-0.07480681
-3.880205	get||site	-0.0885111
-3.918881	get||sleep	-0.05273441
-3.992838	get||some	-0.005464304
-3.992838	get||spot	-0.1848186
-3.992838	get||start	-0.1248096
-3.992838	get||tent	-0.1147601
-3.918881	get||there	-0.05273441
-3.992838	get||they	-0.2719131
-3.713311	get||thing	-0.1085483
-3.992838	get||visa	-0.07054514
-3.421679	get||water	-0.228265
-3.880205	giggle||	-0.2287311
-3.918881	giggle||flashlight	-0.05274261
-3.918881	giggle||kid	-0.05273441
-3.713311	give|I|	-0.2301301
-3.992838	give|I|he	-0.005464304
-3.992838	give|MONEY|chance	-0.2770001
-3.918881	give|bbq|	-0.05273441
-3.918881	give|he|I	-0.005464304
-3.880205	give|it|I	-0.0678602
-3.918881	give|mascot|	-0.01252285
-3.992838	give|master|NUMBER	-0.2729295
-3.918881	give|they|direction	-0.2730247
-3.992838	give|they|we	-0.06816479
-3.880205	give|we|	-0.06817393
-3.918881	give|we|they	-0.005464304
-3.992838	give|which|view	-0.2297534
-3.992838	give|which|we	-0.2299176
-3.421679	give||	-0.09616131
-3.421679	give||I	-0.3554153
-3.992838	give||break	-0.07523327
-3.918881	give||he	-0.2298432
-3.880205	give||it	-0.09805695
-3.918881	give||result	-0.05133281
-3.992838	give||she	-0.005464304
-3.992838	give||something	-0.04580959
-3.880205	give||we	-0.240066
-3.992838	give||you	-0.005464304
-3.992838	glance||	-0.005464304
-3.918881	glare|we|	-0.05262225
-3.992838	glisten||	-0.2298132
-3.918881	gloat||husband	-0.05273441
-3.918881	gon|I|	-0.2251522
-3.918881	gon|that|	-0.005464304
-3.992838	gon||	-0.2250574
-3.918881	go|A|	-0.05273441
-3.713311	go|DATE|	-0.2402924
-3.713311	go|DURATION|	-0.05606724
-3.918881	go|Finaly|	-0.01252285
-2.518051	go|I|	-0.2670945
-3.992838	go|I|camping	-0.1831854
-3.880205	go|I|diving	-0.1758261
-3.918881	go|I|fishing	-0.05274261
-3.918881	go|I|hand	-0.01252285
-3.992838	go|I|home	-0.2293344
-3.713311	go|I|mile	-0.06836946
-3.918881	go|I|s	-0.05273441
-3.992838	go|I|way	-0.2251522
-3.992838	go|LOCATION|	-0.2758317
-3.713311	go|NUMBER|	-0.09252097
-2.927625	go|PERSON|	-0.228462
-3.992838	go|PERSON|diving	-0.2299176
-3.918881	go|PERSON|fishing	-0.005464304
-3.992838	go|TIME|	-0.1018319
-3.918881	go|TIME|time	-0.05273441
-3.918881	go|adventure|	-0.01252285
-3.880205	go|all|	-0.02043717
-3.918881	go|boat|	-0.1848186
-3.992838	go|dad|	-0.2298132
-3.992838	go|daughter|	-0.1848186
-3.918881	go|do|	-0.05273441
-3.992838	go|d|	-0.005464304
-3.992838	go|everyone|	-0.2768928
-3.992838	go|everything|	-0.05256987
-3.992838	go|family|	-0.2762082
-3.918881	go|fam|camping	-0.01252285
-3.992838	go|girl|	-0.005464304
-3.880205	go|group|	-0.1081766
-3.992838	go|guy|	-0.1848186
-3.918881	go|helo|overhead	-0.05262225
-3.299121	go|he|	-0.1306627
-3.918881	go|he|home	-0.01252285
-3.918881	go|house|MONEY	-0.05273441
-3.203646	go|it|	-0.1677886
-3.498964	go|i|	-0.05784746
-3.992838	go|kid|	-0.2738596
-3.918881	go|kid|fishing	-0.05273441
-3.713311	go|light|	-0.1124194
-3.992838	go|ll|	-0.2299176
-3.918881	go|moring|	-0.05211231
-3.918881	go|niece|	-0.05270271
-3.918881	go|parent|	-0.05272953
-3.992838	go|people|	-0.1847146
-3.992838	go|rest|	-0.06806963
-3.356091	go|she|	-0.1584469
-3.992838	go|she|swimming	-0.2369769
-3.918881	go|sign|	-0.05273441
-3.713311	go|sun|	-0.0994053
-3.918881	go|tank|	-0.04901296
-3.880205	go|tent|	-0.1431559
-3.498964	go|that|	-0.05470676
-3.713311	go|then|	-0.0552212
-3.421679	go|they|	-0.0660319
-3.880205	go|thing|	-0.1288438
-3.880205	go|this|	-0.05568615
-3.992838	go|time|	-0.1152434
-3.992838	go|trail|	-0.1093873
-3.992838	go|train|	-0.2221791
-3.880205	go|trip|	-0.1636437
-3.918881	go|weather|	-0.05273441
-2.115543	go|we|	-0.2124672
-3.992838	go|we|DATE	-0.2297235
-3.713311	go|we|MONEY	-0.04076148
-3.992838	go|we|NUMBER	-0.2194308
-3.918881	go|we|bowling	-0.01252285
-3.593046	go|we|camping	-0.08290762
-3.918881	go|we|fishing	-0.01252285
-3.880205	go|we|home	-0.05808216
-3.918881	go|we|mile	-0.05270271
-3.713311	go|we|swimming	-0.2439254
-3.992838	go|we|way	-0.1025515
-3.992838	go|we|what	-0.1354175
-3.918881	go|what|	-0.2298731
-3.992838	go|which|	-0.2298132
-3.918881	go|who|	-0.1033344
-3.498964	go|you|	-0.1234484
-3.918881	go|you|Oooooohhhhhh	-0.05273441
-3.992838	go|you|camping	-0.115297
-2.004951	go||	-0.2671131
-3.992838	go||!!!	-0.1848186
-3.992838	go||I	-0.229903
-3.992838	go||MONEY	-0.1848186
-3.203646	go||camping	-0.04908748
-3.713311	go||diving	-0.1806255
-3.992838	go||figure	-0.2355775
-3.880205	go||fishing	-0.02307495
-3.992838	go||hike	-0.2221791
-3.992838	go||hill	-0.235902
-3.498964	go||home	-0.2944677
-3.918881	go||north	-0.05273441
-3.498964	go||swimming	0.02233075
-3.918881	go||venture	-0.05273441
-3.880205	go||way	-0.149664
-3.992838	grab|I|	-0.1154491
-3.918881	grab|PERSON|guide	-0.0525686
-3.918881	grab|we|	-0.05259543
-3.918881	grab||PERSON	-0.04847167
-3.918881	grab||thing	-0.05273441
-3.918881	grant|God|water	-0.05274261
-3.918881	grant|God|we	-0.05273441
-3.918881	greet|we|	-0.02307495
-3.880205	greet||	-0.2178615
-3.918881	greet||DATE	-0.05232709
-3.992838	grow|I|	-0.1177511
-3.992838	grow|he|	-0.2734709
-3.992838	grow|it|	-0.05791619
-3.918881	grow|space|	-0.05232709
-3.918881	grow|we|	-0.2369037
-3.713311	grow||	-0.06415066
-3.918881	grumble|kid|	-0.05273441
-3.248765	guess|I|	-0.1691301
-3.593046	guess||	-0.04100543
-3.918881	had.|I|	-0.05187055
-3.992838	hadn|I|MONEY	-0.1177511
-3.992838	hadn|we|MONEY	-0.1431559
-3.918881	hadn|we|t	-0.2761675
-3.918881	hammer||	-0.05273441
-3.918881	handle|I|	-0.01252285
-3.918881	handle|car|	-0.05273441
-3.918881	handle|kid|it	-0.01252285
-3.918881	handle||LOCATION	-0.0525686
-3.918881	hand|they|we	-0.2299176
-3.713311	hang|I|	-0.06805605
-3.992838	hang|that|	-0.1848186
-3.992838	hang|the|	-0.2362853
-3.162776	hang|we|	-0.06956813
-3.091032	hang||	-0.1722872
-3.992838	happen|DATE|	-0.2369625
-3.880205	happen|I|	-0.2188749
-3.918881	happen|he|	-0.01252285
-3.593046	happen|it|	-0.05672829
-3.880205	happen|nothing|	-0.2348494
-3.593046	happen|that|	-0.08621009
-3.880205	happen|this|	-0.06815935
-3.880205	happen|we|	-0.07513064
-3.498964	happen|what|	-0.06596478
-3.992838	happen|which|	-0.01252285
-3.992838	happen|who|	-0.07498348
-3.498964	happen||	-0.1410383
-3.593046	hate|I|	-0.08692086
-3.992838	hate|I|it	-0.1150287
-3.918881	hate|girl|it	-0.052404
-3.918881	haul||	-0.1848186
-3.992838	haven|I|MONEY	-0.1177511
-3.918881	have|AND|child	-0.05273441
-3.918881	have|But|fun.	-0.01252285
-3.992838	have|DATE|	-0.2745654
-3.918881	have|DATE|temp	-0.01252285
-3.918881	have|DATE|wind	-0.05273441
-3.918881	have|God|mercy	-0.05273441
-2.475963	have|I|	-0.2024714
-3.918881	have|I|2x	-0.01252285
-3.992838	have|I|DATE	-0.2296936
-3.880205	have|I|MONEY	-0.08667063
-3.918881	have|I|NEVER	-0.05273441
-3.918881	have|I|NUMBER	-0.0581647
-3.992838	have|I|TIME	-0.1123898
-3.992838	have|I|bag	-0.276678
-3.992838	have|I|breakfast	-0.01252285
-3.880205	have|I|dive	-0.22954
-3.992838	have|I|dream	-0.1150287
-3.918881	have|I|drunk	-0.05264907
-3.992838	have|I|energy	-0.1143081
-3.992838	have|I|experience	-0.2278046
-3.918881	have|I|feeling	-0.0525686
-3.992838	have|I|friend	-0.1142763
-3.992838	have|I|headache	-0.1848186
-3.498964	have|I|idea	-0.1457136
-3.880205	have|I|intention	-0.2251024
-3.992838	have|I|it	-0.2366388
-3.880205	have|I|lot	-0.2737881
-3.992838	have|I|luck	-0.2296038
-3.992838	have|I|map	-0.2658717
-3.992838	have|I|moment	-0.229903
-3.992838	have|I|most	-0.2251522
-3.918881	have|I|opportunity	-0.04580959
-3.880205	have|I|picture	-0.226868
-3.880205	have|I|problem	-0.2210778
-3.918881	have|I|route	-0.04335037
-3.918881	have|I|salad	-0.01252285
-3.918881	have|I|show	-0.05254177
-3.880205	have|I|some	-0.2271992
-3.918881	have|I|talk	-0.236786
-3.299121	have|I|time	-0.1054467
-3.880205	have|I|trouble	-0.2295998
-3.992838	have|I|vision	-0.2764631
-3.918881	have|MONEY|rip	-0.0526759
-3.918881	have|MONEY|tent	-0.05273441
-3.918881	have|NATIONALITY|a	-0.05273441
-3.880205	have|NUMBER|	-0.2288956
-3.918881	have|NUMBER|leak	-0.04580959
-3.356091	have|PERSON|	-0.03889785
-3.880205	have|PERSON|NUMBER	-0.1431413
-3.992838	have|PERSON|PERSON	-0.2771879
-3.992838	have|PERSON|escargot	-0.2299176
-3.992838	have|PERSON|fun	-0.1848186
-3.992838	have|PERSON|it	-0.2772009
-3.992838	have|PERSON|lot	-0.2770675
-3.992838	have|PERSON|s'more	-0.2298432
-3.992838	have|PERSON|sparerib	-0.2299176
-3.713311	have|PERSON|tent	-0.02210287
-3.880205	have|PERSON|time	-0.06797989
-3.918881	have|PERSON|trouble	-0.2764232
-3.918881	have|TIME|reservation	-0.05272953
-3.918881	have|TITLE|too.	-0.01252285
-3.918881	have|all|time	-0.05230025
-3.992838	have|boat|	-0.04847167
-3.918881	have|campground|air	-0.05273441
-3.918881	have|child|	-0.05273441
-3.992838	have|everyone|PERSON	-0.2299176
-3.918881	have|friend|terror	-0.04580959
-3.918881	have|grill|leak	-0.05273441
-3.498964	have|he|	-0.1643854
-3.918881	have|he|2x	-0.05273441
-3.918881	have|he|grown.	-0.05273441
-3.992838	have|he|lot	-0.2369331
-3.918881	have|home|meal	-0.05262225
-3.918881	have|husband|NEVER	-0.05200487
-3.713311	have|it|	-0.004861865
-3.992838	have|it|electricity	-0.2294841
-3.992838	have|it|lot	-0.2354299
-3.918881	have|it|nothing	-0.04580959
-3.918881	have|it|traffic	-0.01252285
-3.498964	have|i|	-0.1761684
-3.918881	have|jump|	-0.2251522
-3.992838	have|kid|	-0.2751987
-3.992838	have|kid|fun	-0.01252285
-3.992838	have|kid|time	-0.2297235
-3.918881	have|lightning|stopped	-0.05144041
-3.918881	have|ll|fun	-0.01252285
-3.992838	have|luck|it	-0.2772009
-3.918881	have|man|insurance	-0.04335037
-3.918881	have|man|license	-0.01252285
-3.918881	have|mosquito|chance	-0.01252285
-3.918881	have|pannier|lot	-0.05274261
-3.992838	have|part|size	-0.07523327
-3.918881	have|person|	-0.01252285
-3.918881	have|river|lot	-0.01252285
-3.992838	have|room|table	-0.005464304
-3.918881	have|route|wood	-0.05273441
-3.593046	have|she|	-0.1514395
-3.918881	have|she|jacket	-0.01252285
-3.918881	have|she|qualm	-0.05273441
-3.918881	have|she|tent	-0.05273441
-3.992838	have|that|	-0.01252285
-3.918881	have|that|camping	-0.05232709
-3.918881	have|that|food	-0.05227341
-3.992838	have|that|pool	-0.2267516
-3.992838	have|then|	-0.05170568
-3.713311	have|they|	-0.02980461
-3.918881	have|they|bit	-0.04335037
-3.992838	have|they|couple	-0.2758586
-3.918881	have|they|mindset	-0.04782124
-3.918881	have|they|requirement	-0.01252285
-3.918881	have|they|river	-0.05230025
-3.880205	have|they|room	-0.2354698
-3.992838	have|they|site	-0.2290349
-3.918881	have|tree|sign	-0.01252285
-3.918881	have|trip|feeling	-0.05273441
-3.356091	have|t|	-0.07235341
-3.918881	have|t|equipment.	-0.01252285
-3.992838	have|t|time	-0.2292446
-3.992838	have|ve|	-0.01252285
-3.918881	have|ve|around.	-0.05230025
-3.992838	have|water|	-0.2266612
-3.918881	have|water|MONEY	-0.05273441
-2.518051	have|we|	-0.2017491
-3.713311	have|we|CAUSE_OF_DEATH	-0.2113987
-3.880205	have|we|DURATION	-0.1586341
-3.593046	have|we|NUMBER	-0.1802645
-3.992838	have|we|PERSON	-0.06812945
-3.992838	have|we|TIME	-0.06594077
-3.918881	have|we|age	-0.05274261
-3.918881	have|we|apartment	-0.01252285
-3.992838	have|we|bag	-0.1848186
-3.918881	have|we|bed	-0.04335037
-3.880205	have|we|bit	-0.07966863
-3.918881	have|we|blast	-0.1848186
-3.992838	have|we|bread	-0.05268204
-3.593046	have|we|breakfast	-0.04737007
-3.918881	have|we|burger	-0.1848186
-3.992838	have|we|cake	-0.02307495
-3.918881	have|we|camp	-0.05208545
-3.880205	have|we|campfire	-0.1001028
-3.992838	have|we|campsite	-0.2369331
-3.992838	have|we|car	-0.2743225
-3.918881	have|we|chicken	-0.05274261
-3.992838	have|we|child	-0.005464304
-3.992838	have|we|choice	-0.2369625
-3.992838	have|we|climb	-0.1848186
-3.992838	have|we|coffee	-0.06816479
-3.992838	have|we|conversation	-0.1129027
-3.918881	have|we|corn	-0.05273441
-3.992838	have|we|cream	-0.228945
-3.918881	have|we|cucumber	-0.05273441
-3.421679	have|we|dinner	-0.04960898
-3.992838	have|we|dog	-0.2286452
-3.992838	have|we|downpour	-0.2343617
-3.918881	have|we|drink	-0.05243445
-3.992838	have|we|enough	-0.2726418
-3.992838	have|we|event	-0.2771342
-3.918881	have|we|festival	-0.05246128
-3.918881	have|we|firework	-0.05274261
-3.992838	have|we|food	-0.2296936
-3.880205	have|we|fun	-0.2332651
-3.992838	have|we|gear	-0.2759895
-3.992838	have|we|group	-0.228945
-3.918881	have|we|hell	-0.05273441
-3.880205	have|we|hike	-0.0678602
-3.880205	have|we|idea	-0.1177511
-3.918881	have|we|kid	-0.05273441
-3.713311	have|we|lot	-0.137416
-3.880205	have|we|luck	-0.2331464
-3.299121	have|we|lunch	-0.1939811
-3.918881	have|we|mattress	-0.2299176
-3.880205	have|we|meal	-0.06817393
-3.880205	have|we|mile	-0.2243916
-3.918881	have|we|milk	-0.04335037
-3.918881	have|we|noddle	-0.0494455
-3.918881	have|we|noodle	-0.05273441
-3.992838	have|we|opportunity	-0.2299176
-3.918881	have|we|park	-0.01252285
-3.992838	have|we|people	-0.2369625
-3.880205	have|we|picnic	-0.2258127
-3.992838	have|we|place	-0.1146926
-3.992838	have|we|plan	-0.1494082
-3.880205	have|we|plenty	-0.2722212
-3.992838	have|we|problem	-0.2627776
-3.880205	have|we|reservation	-0.08635993
-3.918881	have|we|rib	-0.05274261
-3.918881	have|we|roast	-0.05274261
-3.880205	have|we|room	-0.04707861
-3.918881	have|we|seclusion	-0.04782124
-3.992838	have|we|shower	-0.005464304
-3.992838	have|we|smore	-0.05182629
-3.918881	have|we|task	-0.05262225
-3.918881	have|we|temp	-0.05273441
-3.713311	have|we|tent	0.03968392
-2.950937	have|we|time	-0.1580066
-3.918881	have|we|toast	-0.05273441
-3.713311	have|we|trip	-0.1921251
-3.992838	have|we|view	-0.1153906
-3.992838	have|we|water	-0.27645
-3.918881	have|we|weather	-0.01252285
-3.125424	have|you|	-0.0900359
-3.918881	have|you|blast	-0.01252285
-3.992838	have|you|kid	-0.2769065
-3.992838	have|you|time	-0.07522427
-3.992838	have|you|view	-0.1848186
-1.667688	have||	-0.3110979
-3.918881	have||CAUSE_OF_DEATH	-0.2297534
-3.880205	have||PERSON	-0.005400479
-3.992838	have||beer	-0.06340855
-3.880205	have||bit	-0.1812497
-3.992838	have||breakfast	-0.1028863
-3.992838	have||cake	-0.005464304
-3.992838	have||chance	-0.2767723
-3.992838	have||coffee	-0.2299176
-3.992838	have||couple	-0.02307495
-3.880205	have||dinner	-0.06669156
-3.992838	have||drink	-0.2328832
-3.918881	have||etc.	-0.05274261
-3.918881	have||experience	-0.05274261
-3.992838	have||family	-0.1848186
-3.992838	have||fun	-0.04939273
-3.918881	have||good	-0.05270271
-3.992838	have||issue	-0.2708494
-3.880205	have||look	-0.2295545
-3.498964	have||lunch	-0.04028668
-3.918881	have||marsh-mellow	-0.05273441
-3.992838	have||moment	-0.2283451
-3.918881	have||opportunity	-0.0494455
-3.918881	have||parade	-0.05274261
-3.992838	have||place	-0.1128218
-3.992838	have||room	-0.1848186
-3.992838	have||sex	-0.2257564
-3.992838	have||spot	-0.2369625
-3.992838	have||time	-0.05811535
-3.992838	have||trip	-0.2296038
-3.880205	have||trouble	-0.1399014
-3.992838	have||water	-0.2678077
-3.992838	head|&|	-0.2257564
-3.918881	head|DATE|	-0.2315108
-3.029476	head|I|	-0.1182184
-3.992838	head|PERSON|	-0.05232837
-3.992838	head|boat|	-0.2361085
-3.918881	head|cabin|	-0.05273441
-3.880205	head|he|	-0.2151165
-3.992838	head|m|	-0.2767186
-3.992838	head|they|	-0.277161
-2.500723	head|we|	-0.2090768
-3.992838	head|we|PERSON	-0.05269024
-3.992838	head|we|direction	-0.2678077
-3.593046	head|we|home	-0.0002627075
-3.992838	head|we|north	-0.1142226
-2.62812	head||	-0.2544447
-3.713311	head||home	-0.07159568
-3.593046	hear|I|	-0.01113947
-3.918881	hear|I|camping	-0.01252285
-3.918881	hear|I|noise	-0.05084829
-3.918881	hear|PERSON|noise	-0.05211231
-3.918881	hear|WI|rustling	-0.05273441
-3.918881	hear|all|raccoon	-0.05273441
-3.918881	hear|t|peep	-0.05274261
-3.498964	hear|we|	-0.06072962
-3.992838	hear|we|noise	-0.2762619
-3.918881	hear|we|siren	-0.05273441
-3.992838	hear|we|sound	-0.0675908
-3.992838	hear|we|thunder	-0.01252285
-3.498964	hear||	-0.1292217
-3.918881	hear||end	-0.05273441
-3.918881	hear||that	-0.05273441
-3.918881	heat||they	-0.05273441
-3.918881	heed||instruction	-0.05264907
-3.918881	help|I|	-0.2764559
-3.918881	help|LOCATION|too.	-0.0499046
-3.992838	help|PERSON|	-0.005464304
-3.918881	help|PERSON|too.	-0.05273441
-3.918881	help|everyone|	-0.05274261
-3.992838	help|he|	-0.2768528
-3.498964	help|it|	-0.1954379
-3.918881	help|jacket|float	-0.05273441
-3.918881	help|low|	-0.05273441
-3.880205	help|that|	-0.1384769
-3.992838	help|they|	-0.2299176
-3.713311	help|we|	-0.1591275
-3.992838	help|which|	-0.2296637
-3.248765	help||	-0.2113159
-3.992838	help||I	-0.2266612
-3.992838	help||you	-0.005464304
-3.918881	here|Well|MONEY	-0.05273441
-3.918881	hesitate|I|	-0.2767991
-3.918881	he|I|MONEY	-0.1848186
-3.992838	he||MONEY	-0.115297
-3.992838	hide|PERSON|	-0.2678077
-3.992838	hide||	-0.2299176
-3.918881	highlight|the|	-0.1848186
-3.918881	highlight||	-0.2369625
-3.992838	hike|DATE|	-0.005464304
-3.498964	hike|I|	-0.1959305
-3.918881	hike|I|trail	-0.1848186
-3.880205	hike|PERSON|	-0.270114
-3.918881	hike|mile|	-0.01252285
-3.918881	hike|that|	-0.05208545
-2.884449	hike|we|	-0.1281731
-3.992838	hike|we|mile	-0.2359315
-3.713311	hike|you|	-0.09204875
-2.639661	hike||	-0.3243423
-3.992838	hike||LOCATION	-0.1848186
-3.992838	hike||it	-0.01252285
-3.356091	hike||mile	-0.04773846
-3.880205	hike||trail	-0.1847146
-3.992838	hike||we	-0.2292146
-3.880205	hit|I|road	-0.2237207
-3.918881	hit|I|stopwatch	-0.05273441
-3.918881	hit|I|town	-0.05254177
-3.918881	hit|PERSON|she	-0.05273441
-3.918881	hit|all|	-0.04335037
-3.992838	hit|they|	-0.005464304
-3.880205	hit|we|	-0.05568615
-3.992838	hit|we|LOCATION	-0.07522427
-3.918881	hit|we|Lucky	-0.05211231
-3.918881	hit|we|border	-0.05273441
-3.498964	hit|we|road	-0.181604
-3.918881	hit|we|sand	-0.05262225
-3.918881	hit||ORGANIZATION	-0.1154092
-3.498964	hit||road	-0.1295302
-3.992838	hit||tent	-0.1131454
-3.992838	hit||trail	-0.005464304
-3.918881	hit||trunk	-0.05273441
-3.918881	hit||waterslide	-0.04580959
-3.992838	hold|I|	-0.2353964
-3.992838	hold|he|	-0.005464304
-3.992838	hold|luck|	-0.2766112
-3.918881	hold|tent|it	-0.01252285
-3.593046	hold||	-0.1464239
-3.918881	hold||it	-0.05272953
-3.992838	hold||tent	-0.115436
-3.918881	hold||they	-0.05273441
-3.918881	holler|you|$	-0.05273441
-3.162776	hope|I|	-0.1843669
-3.918881	hope|tent|	-0.05273441
-3.299121	hope|we|	-0.1106991
-3.593046	hope||	-0.1969024
-3.880205	hop|I|	-0.0675908
-3.593046	hop|we|	-0.19506
-3.992838	hop||	-0.2286452
-3.918881	hover||	-0.005464304
-3.918881	howl||	-0.005464304
-3.918881	hurl|old|cliff	-0.05273441
-3.713311	hurry||	-0.0301392
-3.918881	hurt|ground|back	-0.01252285
-3.918881	hurt|it|	-0.2751586
-3.992838	hurt||	-0.1844158
-3.880205	identify||	-0.03413864
-3.918881	identify||they	-0.05273441
-3.918881	ignore|I|rule	-0.05273441
-3.713311	imagine|I|	-0.1730058
-3.593046	imagine|you|	-0.2297373
-3.880205	imagine||	-0.1822854
-3.918881	imagine||place	-0.05270271
-3.918881	impress|I|	-0.0675908
-3.992838	improvise||	-0.2762888
-3.918881	include|myself|	-0.05246128
-3.880205	include|other|MISC	-0.2298537
-3.992838	include|other|PERSON	-0.2771879
-3.992838	include|price|ride	-0.2299176
-3.918881	include|stats|driving	-0.05160176
-2.905501	include||	-0.2425292
-3.918881	increase|heart|pace	-0.05243445
-3.992838	inform|he|I	-0.2759255
-3.918881	ingrain|it|	-0.05273441
-3.918881	inhabit|camp|	-0.05273441
-3.918881	inhabit|sex|	-0.05187055
-3.918881	insist|girl|	-0.0526759
-3.992838	intend|I|	-0.2756702
-3.992838	intend|we|	-0.06816479
-3.713311	intend||	-0.1428721
-3.992838	internett|PERSON|	-0.2770001
-3.918881	intersperse||	-0.01252285
-3.918881	invite|people|	-0.05274261
-3.992838	invite|we|	-0.04191407
-3.992838	involve||	-0.2766112
-3.918881	isn|it|t	-0.04847167
-3.918881	isolate||	-0.05801579
-3.918881	itch||	-0.05246128
-3.918881	it|I|MONEY	-0.2276202
-3.992838	it|s|MONEY	-0.07523327
-3.918881	it||	-0.05273441
-3.421679	it||MONEY	-0.2421726
-3.498964	it||s	-0.26941
-3.918881	it||star	-0.05273441
-3.918881	i||m	-0.005464304
-3.992838	join|I|they	-0.005464304
-3.918881	join|kid|	-0.05254177
-3.918881	join|rest|	-0.05270271
-3.992838	join|some|	-0.02307495
-3.918881	join|ve|you	-0.04335037
-3.992838	join|we|	-0.05815456
-3.992838	join||	-0.005464304
-3.992838	join||I	-0.2288251
-3.992838	join||group	-0.1248096
-3.992838	join||they	-0.1150555
-3.713311	join||we	-0.1725429
-3.992838	joke|we|	-0.2766649
-3.918881	jump|I|	-0.2766649
-3.992838	jump|kid|	-0.05268204
-3.713311	jump|we|	-0.1032462
-3.203646	jump||	-0.1079595
-3.992838	kayake||	-0.2297833
-3.992838	kayak||	-0.2759662
-3.918881	keep|DURATION|	-0.05272953
-3.713311	keep|I|	-0.1563531
-3.992838	keep|I|eye	-0.2299176
-3.880205	keep|I|fluid	-0.2277405
-3.918881	keep|I|head	-0.2369769
-3.992838	keep|I|journal	-0.1848186
-3.918881	keep|NUMBER|	-0.2770806
-3.880205	keep|PERSON|	-0.09551494
-3.918881	keep|PERSON|stuff	-0.05273441
-3.992838	keep|he|	-0.1680076
-3.918881	keep|he|they	-0.05273441
-3.713311	keep|it|	-0.2753261
-3.918881	keep|it|some	-0.01252285
-3.918881	keep|i|	-0.2299176
-3.918881	keep|thanks|	-0.05273441
-3.992838	keep|that|	-0.005464304
-3.880205	keep|they|	-0.184449
-3.421679	keep|we|	-0.2606518
-2.80917	keep||	-0.18399
-3.918881	keep||cool	-0.2770806
-3.880205	keep||eye	-0.2295246
-3.992838	keep||pace	-0.2702672
-3.992838	keep||thing	-0.2299176
-3.992838	keep||water	-0.2290948
-3.992838	keep||we	-0.005464304
-3.918881	kick|we|	-0.005464304
-3.918881	kick||I	-0.05274261
-3.918881	kid|we|	-0.05273441
-3.992838	kid||	-0.1000032
-3.880205	kill||	-0.1031203
-3.918881	kill||myself	-0.05235393
-3.992838	knit|it|	-0.2734709
-3.918881	knock|I|mile	-0.05273441
-2.716197	know|I|	-0.399905
-3.918881	know|I|guy	-0.05273441
-3.992838	know|I|it	-0.07523327
-3.918881	know|I|merely	-0.01252285
-3.498964	know|PERSON|	-0.02352351
-3.918881	know|any|	-0.01252285
-3.918881	know|cyclist|	-0.05041714
-3.713311	know|he|	-0.1501126
-3.880205	know|it|	-0.04677699
-3.593046	know|she|	-0.1075349
-3.992838	know|that|	-0.2769732
-3.918881	know|that|I	-0.05273441
-3.713311	know|they|	-0.05528554
-3.992838	know|this|	-0.2355185
-3.356091	know|t|	-0.2010749
-3.880205	know|t|it	-0.2251179
-3.059164	know|we|	-0.2140502
-3.918881	know|we|what	-0.01252285
-3.880205	know|who|	-0.15835
-3.918881	know|who|I	-0.2298731
-3.059164	know|you|	-0.297582
-3.918881	know|you|NUMBER	-0.276987
-3.992838	know|you|it	-0.2770675
-3.918881	know|you|s	-0.05273441
-3.918881	know|you|we	-0.05240761
-2.950937	know||	-0.2796732
-3.992838	lack||	-0.2369769
-3.992838	land|DURATION|	-0.2678077
-3.992838	land|I|	-0.2297534
-3.918881	land|we|	-0.229544
-3.918881	land||NUMBER	-0.01252285
-3.918881	lash|nothing|	-0.01252285
-3.880205	last|it|	-0.07643889
-3.918881	last|peace|	-0.0526759
-3.918881	laugh|I|	-0.2299176
-3.992838	laugh|we|	-0.06815935
-3.880205	launch|we|	-0.2767955
-3.992838	launch||	-0.06783028
-3.593046	lay|I|	-0.1303548
-3.992838	lay|we|	-0.02307495
-3.713311	lay||	-0.1788593
-3.918881	lay||TIME	-0.05272953
-3.713311	lead|that|	-0.1684648
-3.880205	lead||	-0.229315
-3.918881	leak|mask|	-0.1848186
-3.918881	leak|tent|	-0.1848186
-3.880205	leak||	-0.08902123
-3.918881	lean|you|MONEY	-0.05195115
-3.918881	lean|you|which	-0.05273441
-3.918881	learn|'d|lesson	-0.05144041
-3.498964	learn|I|	-0.08666338
-3.918881	learn|I|this	-0.05273441
-3.918881	learn|Sander|lesson	-0.04580959
-3.918881	learn|TITLE|	-0.05273441
-3.880205	learn|she|	-0.1728694
-3.918881	learn|son|	-0.05264907
-3.713311	learn|we|	-0.1930555
-3.992838	learn|we|all	-0.229903
-3.421679	learn||	-0.07691482
-3.992838	learn||technique	-0.1848186
-3.299121	leave|I|	-0.2233122
-3.992838	leave|I|LOCATION	-0.2194308
-3.918881	leave|I|chocolate	-0.05273441
-3.992838	leave|I|house	-0.2299176
-3.918881	leave|I|marshmallow	-0.05272953
-3.918881	leave|I|watch	-0.04901296
-3.918881	leave|I|you	-0.05224656
-3.880205	leave|PERSON|	-0.2356621
-3.992838	leave|he|we	-0.2760469
-3.918881	leave|it|	-0.06687155
-3.918881	leave|kid|dinner	-0.05262225
-3.918881	leave|that|DATE	-0.05274261
-3.992838	leave|they|	-0.2369769
-2.716197	leave|we|	-0.1398961
-3.498964	leave|we|LOCATION	-0.1220734
-3.918881	leave|we|MISC	-0.05272953
-3.992838	leave|we|Rock	-0.274916
-3.918881	leave|we|cabin	-0.05246128
-3.992838	leave|we|campground	-0.05141352
-3.992838	leave|we|home	-0.2752394
-3.992838	leave|we|it	-0.2297534
-3.918881	leave|we|little	-0.05141352
-3.992838	leave|we|site	-0.224426
-3.918881	leave|we|you	-0.05074054
-3.918881	leave|what|	-0.1848186
-2.716197	leave||	-0.1657428
-3.992838	leave||DATE	-0.2369625
-3.918881	leave||I	-0.05273441
-3.992838	leave||LOCATION	-0.2251522
-3.918881	leave||PERSON	-0.05273441
-3.918881	leave||comment	-0.0525686
-3.918881	leave||everything	-0.04782124
-3.918881	leave||firework	-0.05272953
-3.992838	leave||it	-0.229903
-3.918881	leave||parent	-0.01252285
-3.992838	leave||park	-0.005464304
-3.918881	leave||we	-0.04847167
-3.992838	leave||work	-0.2728893
-3.918881	lecture|camp|	-0.01252285
-3.356091	let|I|	-0.1488162
-3.918881	let|PERSON|	-0.05274261
-3.918881	let|TIME|	-0.05270271
-3.918881	let|friend|	-0.05195115
-3.880205	let|it|	-0.08540569
-3.918881	let|kid|	-0.05273441
-3.992838	let|rain|	-0.1142495
-3.918881	let|she|cabin	-0.05195115
-3.918881	let|she|space	-0.05273441
-3.992838	let|that|	-0.2286111
-3.918881	let|they|	-0.10321
-3.992838	let|we|	-0.2296742
-2.905501	let||	-0.1526463
-3.992838	let||MONEY	-0.2299176
-3.713311	let||it	-0.1376643
-3.918881	lie|picture|	-0.05074054
-3.918881	lie|what|	-0.1848186
-3.992838	lie|which|	-0.005464304
-3.992838	lie||	-0.2293644
-3.918881	lie||recumbent	-0.05273441
-3.918881	lift||bike	-0.01252285
-3.713311	lighten||	0.003961161
-3.918881	light|CAUSE_OF_DEATH|	-0.05074054
-3.992838	light||	-0.01252285
-3.356091	like|I|	-0.1349195
-3.918881	like|I|camping	-0.05273441
-3.421679	like|I|it	-0.06972294
-3.918881	like|I|park	-0.0526759
-3.918881	like|I|weather	-0.05259543
-3.992838	like|PERSON|	-0.005464304
-3.918881	like|PERSON|Plus	-0.01252285
-3.992838	like|he|	-0.1844822
-3.918881	like|he|Plus	-0.05273441
-3.918881	like|other|town	-0.05273441
-3.918881	like|thing|	-0.05270271
-3.593046	like|we|	-0.1893915
-3.918881	like|who|I	-0.05162865
-3.992838	like|you|	-0.005464304
-3.918881	like|you|camping	-0.05041714
-3.918881	limit|I|number	-0.05274261
-3.918881	limit||yourself	-0.05273441
-3.918881	linger|we|	-0.05273441
-3.880205	listen|I|	-0.1177511
-3.992838	listen|we|	-0.2296637
-3.162776	listen||	-0.1476717
-3.992838	live|I|	-0.2272894
-3.992838	live|PERSON|	-0.2266612
-3.992838	live|child|	-0.2369769
-3.918881	live|family|	-0.05273441
-3.992838	live|he|	-0.1848186
-3.880205	live|that|	-0.005342104
-3.880205	live|they|	-0.02307495
-3.992838	live|we|	-0.1135546
-3.918881	live|who|	-0.277161
-3.880205	live|you|	-0.1032545
-3.203646	live||	-0.07094444
-3.918881	load|mile|	-0.05273441
-3.880205	load|we|	-0.2294947
-3.992838	load|we|car	-0.2296637
-3.918881	load|we|stuff	-0.0494455
-3.880205	load||	-0.02210287
-3.918881	load||all	-0.05273441
-3.992838	load||car	-0.2194308
-3.918881	load||gear	-0.05274261
-3.918881	lodge|park|	-0.05273441
-3.992838	lodge||	-0.1472383
-3.992838	log||	-0.2293644
-3.992838	london||	-0.2369769
-3.918881	long|I|	-0.05162865
-3.992838	look|Husband|	-0.05230152
-3.001688	look|I|	-0.2093006
-3.992838	look|LOCATION|	-0.2292146
-3.880205	look|PERSON|	0.003662109
-3.992838	look|all|	-0.005464304
-2.975571	look|it|	-0.230374
-3.992838	look|it|little	-0.2771074
-3.992838	look|it|lot	-0.2274098
-3.918881	look|myself|	-0.05274261
-3.918881	look|pool|	-0.05197801
-3.918881	look|she|	-0.1848186
-3.593046	look|that|	-0.07125725
-3.880205	look|they|	-0.2254006
-2.927625	look|we|	-0.1164468
-3.918881	look|what|	-0.2362853
-3.880205	look|which|	-0.07523327
-3.713311	look|you|	-0.217098
-2.500723	look||	-0.2367934
-3.918881	look||it	-0.05273441
-3.918881	loop|we|	-0.05211231
-3.593046	lose|I|	-0.1540289
-3.918881	lose|I|weight	-0.05273441
-3.918881	lose|we|coverage	-0.05273441
-3.992838	lose|who|life	-0.2763694
-3.918881	lose|you|it	-0.05240761
-3.498964	lose||	-0.2211398
-3.918881	lose||NUMBER	-0.05200487
-3.918881	lose||communication	-0.05273441
-3.918881	lose||rest	-0.05273441
-3.918881	love|All|area	-0.01252285
-3.248765	love|I|	-0.1879191
-3.918881	love|I|MONEY	-0.05235393
-3.918881	love|I|Park	-0.05273441
-3.992838	love|I|SET	-0.2366093
-3.918881	love|I|camp	-0.01252285
-3.992838	love|I|camping	-0.2767454
-3.992838	love|I|diving	-0.2296337
-3.918881	love|I|game	-0.05195115
-3.713311	love|I|it	-0.1224414
-3.918881	love|I|landscape	-0.2221791
-3.918881	love|I|mushroom	-0.05273441
-3.918881	love|I|park.	-0.01252285
-3.593046	love|PERSON|	-0.1350703
-3.918881	love|camper|d	-0.05273441
-3.918881	love|i|it	-0.2720759
-3.992838	love|kid|	-0.2284352
-3.992838	love|kid|it	-0.2368448
-3.918881	love|kid|they	-0.01252285
-3.713311	love|we|	-0.0985799
-3.918881	love|we|campsite	-0.05238077
-3.713311	love||	-0.08036651
-3.992838	love||it	-0.005464304
-3.918881	lo|I|	-0.05274261
-3.880205	luck|we|	-0.07521892
-3.918881	lure||they	-0.05264907
-3.918881	make|DATE|	-0.05227341
-3.299121	make|I|	-0.09496593
-3.918881	make|I|batch	-0.05195115
-3.992838	make|I|dinner	-0.1146795
-3.091032	make|I|it	-0.3051441
-3.992838	make|I|mistake	-0.2293344
-3.992838	make|I|note	-0.1143888
-3.992838	make|I|pancake	-0.2221791
-3.918881	make|I|rule	-0.05273441
-3.880205	make|I|way	-0.09441751
-3.593046	make|PERSON|	-0.04023246
-3.918881	make|PERSON|bed	-0.05273441
-3.918881	make|PERSON|campfire	-0.05221971
-3.918881	make|PERSON|friend	-0.05274261
-3.918881	make|PERSON|herself	-0.05273441
-3.918881	make|PERSON|suggestion	-0.05262225
-3.992838	make|PERSON|thingy	-0.2369769
-3.918881	make|PERSON|use	-0.05246128
-3.918881	make|camp|it	-0.05273441
-3.918881	make|food|	-0.04901296
-3.880205	make|he|	-0.04707861
-3.421679	make|it|	-0.1065688
-3.918881	make|jd|it	-0.05208545
-3.918881	make|josh|way	-0.05273441
-3.918881	make|kid|it	-0.05243445
-3.918881	make|rain|feel	-0.05272953
-3.593046	make|that|	-0.08859007
-3.918881	make|they|	-0.2299176
-3.918881	make|this|it	-0.2257564
-3.918881	make|tree|lot	-0.04580959
-3.992838	make|t|	-0.01252285
-3.992838	make|t|it	-0.0751895
-3.248765	make|we|	-0.05395157
-3.593046	make|we|CAUSE_OF_DEATH	-0.05140318
-3.918881	make|we|bacon	-0.05274261
-3.918881	make|we|bbq	-0.05273441
-3.992838	make|we|breakfast	-0.05219414
-3.992838	make|we|coffee	-0.2284952
-3.918881	make|we|corn	-0.05273441
-3.880205	make|we|decision	-0.2745348
-3.880205	make|we|dinner	-0.1504371
-3.992838	make|we|egg	-0.07521892
-3.992838	make|we|friend	-0.2194308
-2.80917	make|we|it	-0.1698188
-3.918881	make|we|kabob	-0.05273441
-3.918881	make|we|list	-0.05272953
-3.918881	make|we|marshmallow	-0.05273441
-3.918881	make|we|potato	-0.01252285
-3.992838	make|we|s'more	-0.2194308
-3.498964	make|we|stop	-0.1534262
-3.918881	make|we|talk	-0.05254177
-3.918881	make|we|trek	-0.04335037
-3.713311	make|we|trip	-0.08008458
-3.059164	make|we|way	-0.185057
-3.498964	make|which|	-0.1054549
-3.918881	make|wind|	-0.05273441
-3.992838	make|you|it	-0.07113954
-2.676245	make||	-0.1901637
-3.992838	make||CAUSE_OF_DEATH	-0.06817393
-3.918881	make||arrangement	-0.2770269
-3.918881	make||breakfast	-0.01252285
-3.713311	make||camp	-0.2247353
-3.880205	make||dinner	-0.2287677
-3.918881	make||ground	-0.05074054
-3.162776	make||it	-0.09069587
-3.992838	make||noise	-0.2358136
-3.992838	make||post	-0.229903
-3.992838	make||ride	-0.2298731
-3.992838	make||s'more	-0.2366682
-3.992838	make||sandwich	-0.2765037
-3.992838	make||shelter	-0.005464304
-3.918881	make||stew	-0.05270271
-3.992838	make||stop	-0.2296936
-3.992838	make||story	-0.005464304
-3.992838	make||tea	-0.2251522
-3.918881	make||that	-0.1848186
-3.713311	make||trip	-0.09036624
-3.992838	make||use	-0.1848186
-3.498964	make||way	-0.06205922
-3.248765	manage|I|	-0.2818554
-3.992838	manage|PERSON|success	-0.2299176
-3.992838	manage|he|	-0.005464304
-3.203646	manage|we|	-0.2723126
-3.918881	manage|we|experience	-0.01252285
-3.992838	manage|we|it	-0.2291248
-3.498964	manage||	-0.08664571
-3.918881	mark|DATE|DURATION	-0.04335037
-3.992838	marry|I|	-0.04575638
-3.918881	marry|hubby|	-0.05274261
-3.880205	marry||	-0.2277551
-3.918881	mash||	-0.05273441
-3.918881	meander|we|	-0.0525686
-3.713311	mean|I|	-0.1020353
-3.880205	mean|I|what	-0.1090333
-3.713311	mean|that|	-0.1532822
-3.713311	mean|this|	-0.05658621
-3.713311	mean|which|	-0.1647737
-3.593046	mean||	-0.1750584
-3.918881	measure|you|they	-0.05270271
-3.248765	meet|I|	-0.2791847
-3.992838	meet|I|PERSON	-0.01252285
-3.992838	meet|I|he	-0.1848186
-3.918881	meet|I|person	-0.05273441
-3.992838	meet|PERSON|	-0.2296936
-3.918881	meet|it|	-0.2722387
-3.203646	meet|we|	-0.1616611
-3.992838	meet|we|people	-0.2221791
-3.918881	meet|we|she	-0.05272953
-3.918881	meet|who|they	-0.05273441
-3.498964	meet||	-0.1039858
-3.713311	meet||PERSON	-0.09267423
-3.992838	meet||people	-0.09842793
-3.918881	melt|I|	-0.05274261
-3.992838	melt|ember|chocolate	-0.2771879
-3.880205	melt||	-0.041535
-3.421679	mention|I|	-0.2205507
-3.880205	mention||	-0.1419735
-3.713311	mind||	-0.1698148
-3.918881	misspoke|I|	-0.05272953
-3.713311	miss|I|	-0.07758537
-3.992838	miss|I|PERSON	-0.236786
-3.918881	miss|I|anyone	-0.05273441
-3.918881	miss|I|camping	-0.05251494
-3.918881	miss|I|time	-0.05200487
-3.918881	miss|Mommy|relaxing	-0.05273441
-3.918881	miss|little|relaxing	-0.05230025
-3.992838	miss|we|	-0.2366388
-3.918881	miss|which|fly	-0.01252285
-3.880205	miss||	-0.08740781
-3.918881	miss||CAUSE_OF_DEATH	-0.01252285
-3.992838	mob||	-0.2367565
-3.880205	move|I|	-0.1492689
-3.992838	move|it|	-0.1848186
-3.918881	move|she|	-0.01252285
-3.992838	move|we|	-0.2293644
-3.918881	move|we|bag	-0.05224656
-3.918881	move|we|thing	-0.05273441
-3.125424	move||	-0.3673941
-3.992838	move||tent	-0.06594077
-3.918881	mumble||	-0.05273441
-3.918881	name|you|it	-0.005464304
-3.992838	name||	-0.1591275
-3.992838	name||PERSON	-0.1848186
-3.992838	nap|we|	-0.2194308
-3.880205	nap||	-0.2296896
-3.918881	navigate||	-0.2288251
-3.918881	navigate||road	-0.05262225
-3.918881	near|it|time	-0.07523327
-3.918881	needless||	-0.05211231
-3.992838	needn|we|MONEY	-0.04335037
-3.091032	need|I|	-0.09543178
-3.992838	need|I|lunch	-0.2369625
-3.918881	need|I|towel	-0.05273441
-3.918881	need|I|water	-0.05272953
-3.992838	need|I|what	-0.2698995
-3.918881	need|NUMBER|	-0.005464304
-3.992838	need|PERSON|	-0.1848186
-3.918881	need|fish|	-0.2369037
-3.992838	need|he|	-0.2761544
-3.992838	need|i|	-0.2700359
-3.713311	need|they|	-0.0573182
-3.918881	need|they|mattress	-0.05273441
-2.905501	need|we|	-0.1485068
-3.713311	need|you|	-0.0468301
-3.299121	need||	-0.09699781
-3.918881	need||vacation	-0.04901296
-3.918881	need||wood	-0.04580959
-3.992838	nestle||	-0.1848186
-3.918881	never|I|	-0.05224656
-3.992838	nod|I|	-0.229514
-3.918881	note|I|camping	-0.01252285
-3.918881	note|I|marker	-0.05264907
-3.918881	note|sister|	-0.05273441
-3.880205	note||	-0.02268394
-3.918881	note||snuggle	-0.01252285
-3.498964	notice|I|	-0.1612479
-3.918881	notice|I|boy	-0.05273441
-3.992838	notice|he|	-0.2266612
-3.421679	notice|we|	-0.04868
-3.918881	now.||scenery.	-0.05273441
-3.992838	observe||	-0.2291547
-3.992838	occur|it|	-0.1848186
-3.918881	offer|DATE|I	-0.05273441
-3.918881	offer|DATE|opportunity	-0.05197801
-3.918881	offer||	-0.2333501
-3.880205	open|it|	-0.05804897
-3.880205	open|road|	-0.2270788
-3.992838	open|sky|	-0.1151409
-3.918881	open|station|	-0.05254177
-3.918881	open|we|bag	-0.05273441
-3.918881	open|we|chair	-0.05273441
-3.918881	open|we|pack	-0.05273441
-3.918881	open|we|tarp	-0.05273441
-3.918881	open|we|tent	-0.05074054
-3.880205	open||	-0.02307495
-3.918881	operate|PERSON|bucket	-0.01252285
-3.918881	operate|PERSON|swivel	-0.05273441
-3.880205	opt|we|	-0.2353373
-3.880205	opt||	-0.1841501
-3.992838	order|I|	-0.2221791
-3.880205	order|we|	-0.2354698
-3.880205	organize||	-0.1248096
-3.918881	organize||box	-0.05274261
-3.918881	outta|stuff|car	-0.05251494
-3.992838	overflow||	-0.2699813
-3.918881	overlook||	-0.2765306
-3.918881	overlook||lake	-0.0680098
-3.918881	pace||myself	-0.05041714
-3.918881	pack|Everything|	-0.05109062
-3.880205	pack|I|	-0.1020119
-3.918881	pack|I|all	-0.01252285
-3.918881	pack|I|cheese	-0.05270271
-3.918881	pack|I|stuff	-0.05238077
-3.918881	pack|I|thing	-0.2771748
-3.918881	pack|do|	-0.05273441
-3.992838	pack|horse|	-0.2675751
-3.918881	pack|they|NUMBER	-0.05273441
-3.248765	pack|we|	-0.1995681
-3.918881	pack|we|ORGANIZATION	-0.05141352
-3.992838	pack|we|all	-0.1142226
-3.918881	pack|we|bag	-0.05273441
-3.713311	pack|we|camp	-0.1703352
-3.713311	pack|we|car	-0.1717683
-3.918881	pack|we|food	-0.05273441
-3.992838	pack|we|gear	-0.2644379
-3.992838	pack|we|stuff	-0.1108205
-3.713311	pack|we|tent	-0.1017119
-3.992838	pack|we|thing	-0.277161
-3.918881	pack|you|it	-0.05272953
-3.091032	pack||	-0.1172552
-3.918881	pack||canoe	-0.05273441
-3.880205	pack||car	-0.2191815
-3.713311	pack||everything	-0.2348901
-3.918881	pack||it	-0.01252285
-3.918881	pack||light	-0.05273441
-3.992838	pack||water	-0.1848186
-3.880205	paddle|I|	-0.1847639
-3.992838	paddle|we|	-0.06815935
-3.880205	paddle||	-0.2189056
-3.918881	paddle||half	-0.05273441
-3.918881	paddle||mile	-0.05273441
-3.918881	paint|I|	-0.05273441
-3.880205	panic||	-0.1842498
-3.918881	pant|I|	-0.05246128
-3.918881	pant|kid|	-0.05246128
-3.918881	parallel|I|it	-0.05248811
-3.992838	park|we|	-0.276678
-3.880205	park|we|car	-0.1497528
-3.421679	park||	-0.1319654
-3.918881	partake|kid|	-0.05240761
-3.992838	participate||	-0.005464304
-3.918881	part|everyone|way	-0.05248811
-3.880205	pass|I|	-0.2298537
-3.918881	pass|I|kiosk	-0.05133281
-3.918881	pass|I|office	-0.05273441
-3.992838	pass|PERSON|	-0.2677944
-3.918881	pass|it|	-0.005464304
-3.918881	pass|man|	-0.0525686
-3.992838	pass|that|	-0.1848186
-3.918881	pass|vehicle|I	-0.05041714
-3.421679	pass|we|	-0.2481285
-3.918881	pass|we|it	-0.2266612
-3.203646	pass||	-0.06979173
-3.880205	pass||LOCATION	-0.06815935
-3.992838	pay|I|	-0.2741875
-3.880205	pay|we|	-0.2293903
-3.918881	pay|we|park	-0.05224656
-3.713311	pay||	-0.150122
-3.918881	pedal|I|weight	-0.05274261
-3.918881	peel||	-0.0525686
-3.918881	peer||	-0.05141352
-3.918881	pee|child|all	-0.05274261
-3.498964	pee||	-0.03764398
-3.918881	pick|I|combo	-0.05273441
-3.918881	pick|I|mile	-0.0525686
-3.918881	pick|I|pack	-0.05168242
-3.880205	pick|PERSON|I	-0.06232543
-3.992838	pick|PERSON|PERSON	-0.289955
-3.880205	pick|we|	-0.193155
-3.992838	pick|we|it	-0.2262392
-3.992838	pick|we|spot	-0.2763121
-3.992838	pick|wind|	-0.1060641
-3.880205	pick||	-0.2242205
-3.880205	pick||PERSON	-0.2265969
-3.992838	pick||apple	-0.2333581
-3.992838	pick||car	-0.04335037
-3.992838	pick||spot	-0.2298731
-3.918881	pick||stick	-0.05273441
-3.992838	pick||thing	-0.267767
-3.918881	pile|site|	-0.01252285
-3.880205	pile|we|	-0.02307495
-3.918881	pile|we|work	-0.05246128
-3.918881	pine||tree	-0.05273441
-3.992838	piss|I|	-0.05768716
-3.918881	pitch|rule|tent	-0.05273441
-3.498964	pitch|we|tent	-0.0416351
-3.299121	pitch||tent	-0.06135853
-3.918881	place|I|	-0.05187055
-3.880205	place||	-0.1798961
-3.918881	plague|Plus|beach	-0.05270271
-3.918881	planned|we|MONEY	-0.05273441
-3.593046	plan|I|	-0.01894355
-3.713311	plan|I|trip	-0.08043291
-3.992838	plan|I|what	-0.2702672
-3.992838	plan|PERSON|trip	-0.1154174
-3.918881	plan|trip|camping	-0.01252285
-3.203646	plan|we|	-0.1460223
-3.880205	plan|we|trip	-0.07113954
-3.125424	plan||	-0.1592709
-3.713311	play|I|	-0.1257044
-3.880205	play|PERSON|	-0.048969
-3.992838	play|PERSON|flute	-0.229514
-3.713311	play|kid|	-0.03108382
-3.880205	play|we|	-0.1586495
-3.880205	play|we|card	-0.1032154
-3.880205	play|we|game	-0.01879857
-3.992838	play|we|guitar	-0.2194308
-3.918881	play|you|	-0.05273441
-2.950937	play||	-0.1153424
-3.918881	play||NUMBER	-0.2297235
-3.992838	play||card	-0.06815935
-3.498964	play||game	-0.05462258
-3.880205	play||guitar	-0.2298683
-3.992838	play||music	-0.005464304
-3.992838	play||tag	-0.1146658
-3.992838	please|I|	-0.005464304
-3.162776	please||	-0.05042833
-3.992838	please||pray	-0.005464304
-3.918881	plug|I|ear	-0.05273441
-3.918881	plug|I|shout	-0.01252285
-3.918881	plummet||	-0.005464304
-3.880205	point|PERSON|	-0.2295699
-3.918881	poke|I|	-0.1848186
-3.992838	poke|we|	-0.06669156
-3.918881	pool||water	-0.04335037
-3.918881	poop|you|	-0.0124654
-3.880205	pop||	-0.1823639
-3.992838	pose|PERSON|	-0.2750238
-3.918881	possess|I|camping	-0.05273441
-3.918881	possess|I|skill	-0.05187055
-3.992838	post|I|picture	-0.2367565
-3.918881	post|I|they	-0.2760738
-3.992838	post|we|	-0.2267516
-3.593046	post||	-0.2220451
-3.992838	pound||	-0.1018319
-3.880205	pour|it|	-0.01225405
-3.880205	pour||	-0.1018465
-3.918881	pour||bucket	-0.0499046
-3.880205	pour||rain	-0.2254201
-3.918881	practice||	-0.05272953
-3.992838	practice||skill	-0.1126108
-3.992838	pray|I|	-0.2292146
-3.918881	pray|we|	-0.05270271
-3.498964	pray||	-0.08476617
-3.880205	prefer|I|	-0.02307495
-3.918881	prefer|I|solitude	-0.05133281
-3.992838	prepare|I|	-0.2367271
-3.992838	prepare|PERSON|dinner	-0.2771074
-3.992838	prepare|PERSON|supper	-0.2702672
-3.918881	prepare|she|	-0.1479944
-3.880205	prepare|we|	-0.1842498
-3.356091	prepare||	-0.1021446
-3.992838	prepare||PERSON	-0.2299176
-3.992838	prepare||dinner	-0.2298731
-3.918881	prep||	-0.05273441
-3.918881	press|we|	-0.2293304
-3.992838	press||	-0.2361969
-3.421679	proceed|we|	-0.1002248
-3.918881	procure|I|combo	-0.05074054
-3.918881	procure|I|pad	-0.05273441
-3.992838	promise||	-0.1848186
-3.992838	prop||plane	-0.2678077
-3.992838	prove|it|	-0.01252285
-3.918881	prove|which|	-0.01252285
-3.880205	prove||	-0.0124654
-3.918881	provide|direction|	-0.05273441
-3.992838	provide||	-0.09805695
-3.918881	provoke||wonder	-0.01252285
-3.992838	publish||	-0.06789012
-3.713311	pull|I|	-0.1390311
-3.918881	pull|I|TIME	-0.05074054
-3.992838	pull|I|camera	-0.1150824
-3.918881	pull|I|chest	-0.01252285
-3.918881	pull|I|something	-0.04901296
-3.918881	pull|boat|	-0.2291847
-3.992838	pull|friend|	-0.05265034
-3.992838	pull|truck|	-0.2678077
-3.125424	pull|we|	-0.07632396
-3.918881	pull|we|rainfly	-0.05273441
-3.421679	pull||	-0.1260402
-3.992838	pull||it	-0.2266612
-3.918881	pump||mattress	-0.05273441
-3.918881	punch|I|	-0.0526759
-3.713311	purchase||	-0.1138742
-3.992838	purify||water	-0.2767991
-3.918881	push|we|bike	-0.05273441
-3.918881	push|we|it	-0.0526759
-3.918881	push|wind|I	-0.05273441
-3.880205	push||	-0.2293903
-3.918881	push||calf	-0.05109062
-3.918881	put|Daddy|you	-0.05273441
-3.880205	put|I|	-0.07200209
-3.992838	put|I|he	-0.229903
-3.918881	put|I|tent	-0.05273441
-3.992838	put|NUMBER|	-0.2361674
-3.918881	put|he|they	-0.05273441
-3.918881	put|most|	-0.05273441
-3.918881	put|ranger|pet	-0.05251494
-3.918881	put|spot|	-0.05200487
-3.918881	put|that|we	-0.229544
-3.992838	put|we|	-0.2295739
-3.992838	put|we|food	-0.2718859
-3.918881	put|we|headlight	-0.05262225
-3.992838	put|we|mattress	-0.07523327
-3.918881	put|we|pack-n-play	-0.05274261
-3.713311	put|we|tent	-0.04220307
-3.918881	put|you|bunch	-0.05264907
-3.091032	put||	-0.1174513
-3.918881	put||I	-0.05074054
-3.918881	put||chop	-0.05273441
-3.918881	put||cook	-0.05273441
-3.713311	put||it	-0.04651338
-3.992838	put||stuff	-0.07523327
-3.593046	put||tent	0.01279368
-3.918881	put||the	-0.05273441
-3.918881	quick-cook|it|	-0.01252285
-3.992838	quit|it|	-0.2288251
-3.992838	quiver|he|	-0.229903
-3.918881	race|he|TDF	-0.01252285
-3.918881	race|we|sun	-0.01252285
-3.918881	rain.|it|walk	-0.05273441
-3.029476	rain|it|	-0.2010335
-3.918881	rain|it|most	-0.01252285
-3.918881	rain|we|	-0.1126108
-3.918881	rain|we|time	-0.04335037
-3.162776	rain||	-0.2200703
-3.918881	raise|AND|	-0.05273441
-3.918881	raise|I|	-0.1848186
-3.992838	rave|friend|horn	-0.2369769
-3.918881	re-do||operation	-0.0526759
-3.918881	re-organize||stuff	-0.05274261
-3.992838	reach|I|town	-0.2297833
-3.918881	reach|ground|	-0.05270271
-3.713311	reach|we|	-0.02273416
-3.992838	reach|we|PERSON	-0.2298132
-3.992838	reach|we|top	-0.2765263
-3.918881	reach|we|vista	-0.05270271
-3.880205	reach||	-0.2328342
-3.992838	reach||LOCATION	-0.1848186
-3.992838	reach||PERSON	-0.05268537
-3.918881	reach||path	-0.05251494
-3.918881	reach||summit	-0.05248811
-3.713311	read|I|	-0.2426898
-3.992838	read|I|book	-0.06797989
-3.713311	read|we|	-0.04848357
-3.299121	read||	-0.03130619
-3.498964	read||book	-0.215371
-3.059164	realize|I|	-0.4245243
-3.880205	realize|PERSON|	-0.07486571
-3.992838	realize|he|	-0.2357545
-3.992838	realize|t|	-0.06268235
-3.203646	realize|we|	-0.534585
-3.356091	realize||	-0.3112584
-3.992838	receive|I|	-0.07521892
-3.918881	reckon|I|	-0.01252285
-3.992838	recommend|I|it	-0.2299176
-3.918881	recommend|they|	-0.2766917
-3.992838	recommend||	-0.2769196
-3.918881	reconcile|Daddy|difference	-0.05273441
-3.918881	reconcile|I|difference	-0.01252285
-3.918881	recover|I|	-0.05273441
-3.918881	recover|PERSON|	-0.01252285
-3.593046	recover||	-0.274338
-3.918881	reel||it	-0.05274261
-3.880205	reflect||	-0.22973
-3.918881	refresh||	-0.2257564
-3.992838	refuse|I|	-0.2722791
-3.918881	relaxin|PERSON|MONEY	-0.01252285
-3.918881	relax|PERSON|	-0.2758317
-3.421679	relax|we|	-0.1832227
-3.029476	relax||	-0.3255874
-3.918881	relax||scenery	-0.05251494
-3.918881	release|he|they	-0.05238077
-3.918881	relieve|Daddy|	-0.05273441
-3.918881	relieve|we|	-0.1848186
-3.713311	remain||	-0.0890305
-3.091032	remember|I|	-0.1332188
-3.992838	remember|I|it	-0.1141688
-3.918881	remember|I|said.	-0.05270271
-3.992838	remember|I|trip	-0.2284952
-3.992838	remember|I|what	-0.2366682
-3.918881	remember|then|	-0.05146731
-3.880205	remember|we|	-0.1225976
-3.498964	remember||	-0.2161547
-3.918881	remind|I|	-0.2759662
-3.918881	remind|that|I	-0.0526759
-3.992838	remind||I	-0.2369331
-3.918881	remove|I|stinger	-0.05274261
-3.918881	remove||hook	-0.05259543
-3.992838	remove||they	-0.2361085
-3.918881	rent|she|NUMBER	-0.05246128
-3.918881	rent|she|cabin	-0.05273441
-3.992838	rent|they|	-0.2369037
-3.918881	rent|we|boat	-0.05274261
-3.918881	rent|we|equipment	-0.2709987
-3.992838	rent||	-0.2328832
-3.918881	repair|co-pilot|	-0.01252285
-3.918881	replicate||they	-0.2770537
-3.992838	reply|she|	-0.2328832
-3.918881	report||	-0.06816479
-3.918881	repusle|cross|	-0.05273441
-3.918881	require||equipment	-0.05272953
-3.918881	rescue|myself|equipment	-0.05227341
-3.918881	reserve|she|it	-0.05274261
-3.992838	reserve||site	-0.005464304
-3.992838	resist||urge	-0.277161
-3.992838	rest|we|	-0.01252285
-3.248765	rest||	-0.06494895
-3.918881	rest||Stop	-0.01252285
-3.918881	result|that|	-0.04580959
-3.880205	result||	-0.1847639
-3.992838	retire||	-0.2290648
-3.880205	retreat|we|	-0.2735352
-3.498964	return|I|	-0.1442173
-3.992838	return|PERSON|	-0.2771074
-3.992838	return|he|home	-0.2748752
-3.918881	return|jury|verdict	-0.01252285
-3.918881	return|myself|	-0.05273441
-3.918881	return|none|	-0.01252285
-3.918881	return|she|home	-0.05273441
-3.992838	return|they|	-0.2185373
-3.421679	return|we|	-0.06923206
-3.356091	return||	-0.0257764
-3.992838	return||home	-0.1104951
-3.918881	reward|we|	-0.236786
-3.992838	re|we|	-0.005464304
-3.498964	ride|I|	-0.2185937
-3.918881	ride|I|another	-0.04782124
-3.918881	ride|different|	-0.0525686
-3.421679	ride|we|	-0.07709283
-3.918881	ride|we|bike	-0.01252285
-3.880205	ride|we|mile	-0.2361045
-3.992838	ride|you|	-0.1848186
-3.162776	ride||	-0.1110276
-3.918881	ride||NUMBER	-0.05273441
-3.918881	ride||asphalt	-0.05246128
-3.918881	ride||time	-0.01252285
-3.918881	ride||train	-0.0525686
-3.992838	rinse|we|gear	-0.2299176
-3.992838	rip||	-0.005464304
-3.880205	rise|sun|	-0.05814853
-3.880205	rise||	-0.1846482
-3.992838	roadwalk||	-0.2298132
-3.918881	roar||	-0.04782124
-3.880205	roast||dog	-0.06815935
-3.992838	roll|fog|	-0.2770001
-3.992838	roll|she|	-0.2369769
-3.992838	roll|we|	-0.1843826
-3.421679	roll||	-0.1050425
-3.992838	roll||hill	-0.1848186
-3.918881	roll||tent	-0.05273441
-3.713311	rough||it	-0.2627665
-3.918881	ruin|I|experience	-0.05273441
-3.918881	ruin|that|experience	-0.05264907
-3.498964	run|I|	-0.005438074
-3.918881	run|PERSON|	-0.2299176
-3.918881	run|couple|	-0.2266612
-3.992838	run|everyone|	-0.2367271
-3.880205	run|he|	-0.1103149
-3.992838	run|it|	-0.09805695
-3.713311	run|kid|	-0.06365254
-3.918881	run|man|	-0.05273441
-3.918881	run|rain|	-0.05251494
-3.880205	run|that|	-0.2367232
-3.992838	run|they|	-0.2369625
-3.356091	run|we|	-0.08093212
-2.905501	run||	-0.1998883
-3.918881	run||electricity	-0.01252285
-3.880205	run||water	-0.07204209
-3.992838	rush|I|	-0.224426
-3.918881	rush|we|	-0.01252285
-3.593046	rush||	-0.1015822
-3.992838	s'more||	-0.2367565
-3.593046	sail|we|	-0.09023541
-3.918881	satisfy|I|hobby	-0.05230025
-3.992838	save|I|money	-0.2744035
-3.992838	save||	-0.2290308
-3.918881	save||remainder	-0.05264907
-3.992838	say|&|	-0.1848186
-3.992838	say|Husband|	-0.01246005
-3.918881	say|Husband|nothing	-0.05273441
-2.864371	say|I|	-0.1527445
-3.918881	say|I|try	-0.01252285
-3.992838	say|I|what	-0.2770001
-3.992838	say|LOCATION|	-0.2762619
-3.880205	say|MONEY|	-0.221901
-3.299121	say|PERSON|	-0.1844908
-3.992838	say|book|	-0.2344248
-3.918881	say|father|	-0.0525686
-3.992838	say|girl|	-0.2299176
-3.498964	say|he|	-0.2164763
-3.918881	say|he|bike	-0.01252285
-3.918881	say|husband|	-0.05273441
-3.918881	say|it|	-0.2365504
-3.992838	say|i|	-0.1848186
-3.713311	say|she|	-0.1182235
-3.299121	say|that|	-0.07466976
-3.299121	say|they|	-0.07107899
-3.880205	say|t|	-0.2343025
-3.421679	say|we|	-0.1282896
-3.880205	say|we|goodbye	-0.1489866
-3.918881	say|we|what	-0.01252285
-3.992838	say|who|	-0.005464304
-2.80917	say||	-0.4355356
-3.918881	say||date	-0.01252285
-3.880205	say||goodbye	-0.2758274
-3.992838	say||least	-0.08036651
-3.918881	say||loud	-0.01252285
-3.992838	say||something	-0.2765706
-3.992838	say||yes	-0.1848186
-3.918881	say||you	-0.01252285
-3.918881	scan|I|	-0.01252285
-3.992838	scare|I|	-0.2327901
-3.992838	scare|we|	-0.272103
-3.918881	scare|who|	-0.05273441
-3.992838	scare||	-0.2767991
-3.918881	scatter||	-0.2267516
-3.918881	schedule||	-0.2369769
-3.918881	scout||	-0.05273441
-3.918881	scramble|we|	-0.04782124
-3.880205	scramble||	-0.08058271
-3.992838	scream|I|	-0.06817393
-3.918881	scream|some|	-0.05238077
-3.299121	scream||	-0.1627689
-3.918881	search|I|area	-0.05274261
-3.992838	search|we|	-0.2763963
-3.713311	search||	-0.1140231
-3.918881	seat||	-0.229903
-3.992838	seem|I|	-0.1848186
-3.880205	seem|PERSON|	-0.1032599
-3.918881	seem|diver|	-0.2296637
-3.880205	seem|drive|	-0.1150712
-3.992838	seem|fish|	-0.2297235
-3.992838	seem|he|	-0.1840954
-3.125424	seem|it|	-0.2634729
-3.880205	seem|she|	-0.2311444
-3.918881	seem|site|	-0.05262225
-3.992838	seem|some|	-0.2366977
-3.498964	seem|that|	-0.04706243
-3.992838	seem|they|	-0.229514
-3.992838	seem|this|	-0.1848186
-3.593046	seem|t|	-0.1643017
-3.992838	seem|we|	-0.06268235
-3.880205	seem|what|	-0.1248096
-3.992838	seem|which|	-0.06812945
-3.713311	seem||	-0.194967
-3.162776	see|I|	-0.204408
-3.992838	see|I|LOCATION	-0.277161
-3.713311	see|I|PERSON	-0.1032246
-3.992838	see|I|anything	-0.2765843
-3.918881	see|I|boy	-0.05224656
-3.992838	see|I|fish	-0.1326692
-3.992838	see|I|he	-0.005464304
-3.880205	see|I|it	-0.155826
-3.992838	see|I|lot	-0.2298731
-3.992838	see|I|shaft	-0.2361085
-3.992838	see|I|shark	-0.229544
-3.880205	see|I|sign	-0.1016518
-3.992838	see|I|turtle	-0.005464304
-3.713311	see|I|what	-0.1101677
-3.713311	see|I|which	-0.1250557
-3.992838	see|PERSON|	-0.2298432
-3.918881	see|actually|person	-0.05273441
-3.918881	see|dinner|sight	-0.01252285
-3.992838	see|he|	-0.06816479
-3.992838	see|he|it	-0.2333581
-3.918881	see|i|	-0.2355185
-3.918881	see|most|end	-0.01252285
-3.713311	see|she|	-0.1431114
-3.918881	see|t|tent	-0.04580959
-2.927625	see|we|	-0.4585837
-3.992838	see|we|PERSON	-0.005464304
-3.918881	see|we|approaching	-0.0499046
-3.992838	see|we|bear	-0.2297833
-3.421679	see|we|deer	-0.2492293
-3.880205	see|we|eel	-0.2298092
-3.992838	see|we|family	-0.2293644
-3.713311	see|we|fish	-0.1764962
-3.713311	see|we|group	-0.05788299
-3.992838	see|we|it	-0.2362853
-3.880205	see|we|kind	-0.0751895
-3.992838	see|we|load	-0.2293644
-3.593046	see|we|lot	-0.05743379
-3.918881	see|we|monster	-0.05273441
-3.992838	see|we|moose	-0.1848186
-3.992838	see|we|patch	-0.2296337
-3.918881	see|we|person	-0.05248811
-3.918881	see|we|pile	-0.01252285
-3.992838	see|we|place	-0.2767186
-3.992838	see|we|plenty	-0.277161
-3.918881	see|we|pony	-0.05041714
-3.918881	see|we|set	-0.2298731
-3.992838	see|we|shark	-0.1848186
-3.713311	see|we|sign	-0.1484407
-3.992838	see|we|site	-0.2291547
-3.880205	see|we|they	-0.06491759
-3.992838	see|we|thing	-0.2758317
-3.918881	see|we|thousand	-0.05270271
-3.992838	see|we|ton	-0.06762074
-3.713311	see|we|turtle	-0.1828596
-3.992838	see|we|water	-0.2299176
-3.918881	see|we|what	-0.01252285
-3.918881	see|which|	-0.05270271
-3.125424	see|you|	-0.09407451
-3.992838	see|you|all	-0.2297833
-3.918881	see|you|bottom	-0.05273441
-3.918881	see|you|ship	-0.05273441
-3.918881	see|you|snow	-0.01252285
-3.918881	see|you|star	-0.05235393
-3.918881	see|you|what	-0.2297833
-2.60592	see||	-0.4029247
-3.498964	see||LOCATION	-0.1228948
-3.992838	see||NUMBER	-0.1848186
-3.992838	see||ORGANIZATION	-0.1848186
-3.593046	see||PERSON	-0.07478382
-3.918881	see||Whitsett	-0.05270271
-3.992838	see||bear	-0.277161
-3.918881	see||cloud	-0.05273441
-3.992838	see||dog	-0.01252285
-3.992838	see||everything	-0.2770675
-3.918881	see||fan	-0.2367565
-3.498964	see||fish	-0.06413365
-3.992838	see||friend	-0.1138052
-3.356091	see||it	-0.09262355
-3.713311	see||lake	-0.2150655
-3.713311	see||lot	-0.2292212
-3.992838	see||moose	-0.005464304
-3.880205	see||mountain	-0.06606098
-3.992838	see||number	-0.2293644
-3.918881	see||people	-0.2689712
-3.992838	see||photo	-0.1120386
-3.880205	see||picture	-0.2297494
-3.713311	see||she	-0.232994
-3.992838	see||something	-0.2266612
-3.918881	see||stand	-0.05273441
-3.992838	see||star	-0.2251522
-3.498964	see||they	-0.09500013
-3.880205	see||tree	-0.2297494
-3.918881	see||view	-0.005464304
-3.992838	see||we	-0.2677395
-3.992838	see||wildlife	-0.1848186
-3.918881	send|mis-step|	-0.05273441
-3.918881	send|that|	-0.01252285
-3.992838	send||I	-0.2298432
-3.918881	send||MONEY	-0.04335037
-3.918881	send||child	-0.05273441
-3.992838	separate||	-0.1848186
-3.880205	serve||	-0.05808216
-3.992838	settle|I|	-0.2369769
-3.992838	settle|PERSON|	-0.2298683
-3.880205	settle|they|	-0.2292406
-3.498964	settle|we|	-0.02910539
-3.918881	settle|you|	-0.05273441
-3.421679	settle||	-0.2414587
-3.918881	set|I|	-0.005464304
-3.918881	set|I|CAUSE_OF_DEATH	-0.05272953
-3.918881	set|I|we	-0.01252285
-3.992838	set|NUMBER|	-0.1848186
-3.918881	set|PERSON|	-0.05074054
-3.918881	set|camp|	-0.2700904
-3.918881	set|few|	-0.05272953
-3.918881	set|panic|	-0.05251494
-3.992838	set|room|	-0.1848186
-3.918881	set|spot|tent	-0.05273441
-3.880205	set|tent|	-0.1842947
-3.992838	set|they|tent	-0.10671
-3.918881	set|they|they	-0.04335037
