
\data\
ngram 1=1147
ngram 2=13639

\1-grams:
-3.586729	!!	-0.1403948
-3.586729	!!!	-0.1346896
-2.019065	</s>
-99	<s>	-0.3381016
-1.779652	<unk>	-0.06818202
-3.769564	=d	-0.1723659
-3.478467	abandon	-0.1621662
-3.769564	absolve	-0.1710505
-3.586729	accept	-0.1607373
-3.661852	access	-0.1445593
-3.769564	accomodate	-0.1741579
-3.731273	accompany	-0.1709747
-3.586729	accomplish	-0.1262525
-3.319719	accord	-0.2057956
-3.731273	account	-0.158502
-3.731273	ache	-0.1399922
-3.769564	achieve	-0.1623827
-3.769564	acquire	-0.1714993
-3.769564	act	-0.1453225
-2.84403	add	-0.2315417
-3.731273	adjust	-0.1475286
-3.391879	admire	-0.1293171
-3.257857	admit	-0.3514843
-3.769564	adore	-0.1726864
-3.586729	advise	-0.1391813
-3.769564	affect	-0.1508453
-3.769564	afford	-0.1410238
-3.036753	agree	-0.2529069
-3.661852	ahhh	-0.148397
-3.731273	aim	-0.1430686
-3.769564	all.	-0.1734867
-3.661852	allocate	-0.16231
-2.84403	allow	-0.147226
-3.769564	along.	-0.148397
-3.661852	alter	-0.1722228
-3.769564	alternate	-0.146916
-3.769564	am.	-0.1502311
-3.478467	amaze	-0.277346
-3.769564	amount	-0.148397
-3.731273	amuse	-0.1553122
-3.586729	anchor	-0.1620437
-3.586729	announce	-0.1363437
-3.478467	answer	-0.1285186
-3.731273	anticipate	-0.1258217
-3.769564	appeal	-0.148397
-3.003412	appear	-0.2988986
-3.769564	appoint	-0.1603695
-3.478467	appreciate	-0.1312451
-3.155586	approach	-0.1177238
-3.731273	aren	-0.1364134
-3.731273	arise	-0.1527366
-3.257857	arrange	-0.1335651
-2.292596	arrive	-0.2363336
-3.769564	arrived	-0.1695679
-3.257857	ascend	-0.1629289
-2.422703	ask	-0.1425809
-3.661852	assateague	-0.1727825
-3.661852	assese	-0.1693432
-3.731273	associate	-0.1449197
-3.257857	assume	-0.4055531
-3.391879	assure	-0.3985232
-3.478467	attach	-0.1537147
-3.391879	attack	-0.1436138
-3.112261	attempt	-0.1326554
-3.769564	attend	-0.149522
-3.586729	attract	-0.1693392
-3.478467	average	-0.1445549
-3.112261	avoid	-0.1451367
-3.731273	await	-0.2180643
-3.319719	awake	-0.1861526
-3.003412	back	-0.1018748
-3.478467	backpack	-0.1335103
-3.391879	backtrack	-0.1414328
-3.769564	balance	-0.1423945
-3.661852	balk	-0.1708494
-3.769564	bandage	-0.1482019
-3.478467	bang	-0.2103781
-3.661852	barbeque	-0.1722228
-3.731273	bark	-0.1618154
-3.769564	barrel	-0.148947
-3.391879	base	-0.1206254
-3.769564	bath	-0.1740301
-1.261153	be	0.1313775
-3.769564	beach	-0.1691797
-3.731273	beam	-0.1486243
-3.586729	bear	-0.1802218
-3.319719	beat	-0.1078188
-2.694941	become	-0.1775264
-3.769564	befriend	-0.1737106
-3.478467	beg	-0.2256234
-2.548958	begin	-0.08182541
-3.586729	behave	-0.1336659
-3.731273	behold	-0.1647261
-2.781978	believe	-0.3383016
-3.478467	belong	-0.1947879
-3.731273	bend	-0.1510381
-3.731273	bet	-0.138274
-3.661852	bike	-0.1668643
-3.769564	bind	-0.157127
-3.769564	bird	-0.1473196
-3.003412	bite	-0.1962582
-3.661852	blag	-0.1491162
-3.661852	blame	-0.148397
-3.661852	blare	-0.148397
-3.586729	blast	-0.1668132
-3.731273	blaze	-0.1259033
-3.769564	bleed	-0.1718204
-3.586729	blend	-0.1397334
-3.586729	bless	-0.1407566
-3.586729	block	-0.1263553
-3.731273	blogg	-0.1694532
-3.769564	bloom	-0.148397
-2.822345	blow	-0.223162
-3.319719	board	-0.1871535
-3.769564	boast	-0.148397
-3.769564	boat	-0.1639478
-3.769564	bob	-0.143224
-3.391879	boil	-0.1705692
-3.155586	book	-0.1742007
-3.586729	border	-0.1653056
-3.586729	bore	-0.1610854
-3.586729	borrow	-0.1835644
-3.319719	bother	-0.1420139
-3.478467	bounce	-0.1428541
-3.731273	bowl	-0.1473694
-3.478467	brave	-0.1883112
-2.781978	break	-0.2632539
-3.661852	breakfast	-0.1599323
-3.003412	breathe	-0.1251208
-3.586729	brew	-0.1627307
-2.398129	bring	-0.1345379
-3.586729	brush	-0.152316
-3.769564	buck	-0.1592473
-2.763119	build	-0.2763019
-3.769564	bump	-0.1746685
-3.731273	bundle	-0.1696527
-3.769564	bunk	-0.1623428
-3.661852	burly	-0.1694716
-3.072868	burn	-0.1778956
-3.586729	bury	-0.1348943
-3.769564	bushwack	-0.1712888
-2.516397	buy	-0.161925
-3.731273	buzz	-0.1393379
-3.769564	bypass	-0.1663929
-2.367387	call	-0.1799462
-3.391879	calm	-0.1278903
-3.661852	came	-0.1695037
-2.467028	camp	-0.2728331
-3.769564	campground	-0.1608462
-3.112261	can	-0.1033578
-3.478467	cancel	-0.1693913
-3.478467	canoe	-0.1607782
-3.731273	cant	-0.1572969
-3.586729	capture	-0.1349829
-3.257857	care	-0.2272368
-2.781978	carry	-0.2337921
-3.769564	cart	-0.1467417
-3.769564	cast	-0.1714029
-2.516397	catch	-0.1980186
-2.972449	cause	-0.3602077
-3.731273	cease	-0.1490848
-3.319719	celebrate	-0.2233311
-3.769564	certify	-0.153139
-3.769564	challenge	-0.1497923
-2.711008	change	-0.1261247
-3.769564	char	-0.1740301
-3.586729	charge	-0.1447055
-3.478467	chase	-0.1584315
-3.112261	chat	-0.1124446
-2.476463	check	-0.1867798
-3.769564	cherish	-0.1598088
-3.586729	chew	-0.1344349
-3.155586	chill	-0.1364828
-3.661852	chillin	-0.1727825
-3.072868	choose	-0.13079
-3.731273	chop	-0.1451183
-3.769564	chuckle	-0.1647643
-3.769564	circle	-0.1690828
-3.478467	claim	-0.1329208
-3.731273	clamber	-0.1328809
-3.661852	clap	-0.1694716
-3.003412	clean	-0.1818988
-3.769564	cleanse	-0.1473875
-2.943548	clear	-0.1280861
-3.391879	click	-0.1993984
-2.596558	climb	-0.1810174
-3.731273	cling	-0.1454632
-3.769564	clock	-0.1491162
-3.072868	close	-0.2554918
-3.731273	cloud	-0.1487139
-3.661852	coat	-0.1375798
-3.769564	coax	-0.1699865
-3.769564	collapse	-0.1361561
-3.478467	collect	-0.2081122
-3.769564	collide	-0.1726544
-2.029162	come	-0.1438614
-3.769564	comment	-0.2560804
-3.769564	commit	-0.1660351
-3.769564	commune	-0.1462107
-3.769564	communicate	-0.1374359
-3.319719	compare	-0.1277696
-3.769564	compel	-0.1735827
-3.769564	compensate	-0.1503323
-3.155586	complain	-0.1513025
-3.036753	complete	-0.2274921
-3.661852	comprise	-0.1683651
-3.586729	concentrate	-0.1518404
-3.586729	concern	-0.1355411
-3.769564	conclude	-0.1496233
-3.769564	confess	-0.1607649
-3.769564	confirm	-0.2209455
-3.731273	confuse	-0.1688938
-3.319719	connect	-0.2216994
-3.112261	consider	-0.1250681
-3.391879	consist	-0.1494817
-3.661852	construct	-0.1423476
-3.731273	consult	-0.1456676
-3.769564	consume	-0.1654216
-3.257857	contain	-0.2002496
-3.769564	contemplate	-0.1736735
-3.661852	contend	-0.1674319
-2.495971	continue	-0.1177879
-3.769564	convert	-0.16231
-3.478467	convince	-0.1354808
-2.679446	cook	-0.1922103
-3.319719	cool	-0.1471781
-3.731273	cooperate	-0.1980621
-3.586729	cost	-0.1310446
-3.769564	could	-0.137216
-2.745045	couldn	-0.1612681
-3.731273	couldnt	-0.1651058
-3.155586	count	-0.265135
-3.661852	counter	-0.163526
-2.866854	cover	-0.1282333
-3.769564	crack	-0.1707918
-3.769564	crackle	-0.1676265
-3.769564	cram	-0.1397445
-3.769564	cramp	-0.137216
-3.769564	crap	-0.1534584
-3.112261	crash	-0.1401892
-3.155586	crawl	-0.1164059
-3.731273	creak	-0.1568103
-3.072868	create	-0.1865788
-3.769564	creep	-0.1449853
-3.731273	crest	-0.1544442
-3.769564	cringe	-0.170341
-2.537831	cross	-0.2204563
-3.769564	crowd	-0.2091283
-3.478467	cruise	-0.1369997
-3.731273	crush	-0.1398666
-3.003412	cry	-0.2031202
-3.731273	cuddle	-0.1480821
-3.769564	curl	-0.1598088
-2.91645	cut	-0.1627147
-3.586729	dance	-0.1618483
-3.769564	dangle	-0.1607649
-3.769564	dare	-0.1490824
-3.731273	dart	-0.1652106
-3.769564	date	-0.1502311
-3.769564	dawn	-0.1601057
-3.203718	deal	-0.104724
-3.769564	debate	-0.1701155
-2.091294	decide	-0.2629151
-3.478467	declare	-0.3421728
-3.769564	deepen	-0.1692443
-3.478467	dehydrate	-0.1303074
-3.731273	deliver	-0.164525
-3.478467	depart	-0.1458096
-3.769564	depend	-0.1629659
-3.661852	depress	-0.17121
-3.112261	descend	-0.1007643
-3.391879	describe	-0.2499181
-3.586729	desert	-0.1358188
-3.586729	deserve	-0.1522429
-3.769564	design	-0.166863
-3.478467	designate	-0.2044715
-3.769564	desire	-0.1714489
-3.731273	destroy	-0.1425698
-3.478467	determine	-0.1159852
-3.478467	develop	-0.130996
-3.769564	devise	-0.1738065
-3.731273	did.	-0.1487813
-2.305271	didn	-0.2934329
-3.731273	didnt	-0.1321428
-3.112261	die	-0.2059129
-3.257857	dig	-0.1783714
-3.586729	digress	-0.2269546
-3.731273	dine	-0.1579389
-3.586729	dip	-0.1459312
-3.257857	direct	-0.1443475
-3.661852	disapoint	-0.148397
-3.319719	disappear	-0.134927
-3.731273	disappoint	-0.1619283
-2.866854	discover	-0.1905268
-3.319719	discuss	-0.1161669
-3.661852	distract	-0.1665554
-3.769564	disturb	-0.148309
-2.822345	dive	-0.3123487
-3.769564	divide	-0.1618175
-1.700961	do	-0.2047822
-3.586729	do.	-0.1603031
-3.731273	dock	-0.1399922
-3.661852	dodge	-0.1727825
-3.072868	doesn	-0.162365
-3.661852	dominate	-0.1710093
-2.572106	don	-0.2727828
-3.769564	dont	-0.1613573
-3.661852	dot	-0.1347917
-3.661852	douse	-0.166832
-3.391879	down	-0.1440611
-3.769564	download	-0.1725972
-3.731273	doze	-0.1601541
-3.391879	drag	-0.139566
-3.586729	drain	-0.1470261
-3.478467	draw	-0.1934458
-3.731273	dread	-0.3810191
-3.731273	dream	-0.1486516
-3.769564	drench	-0.1454926
-3.257857	dress	-0.1338726
-3.586729	drift	-0.1382596
-2.866854	drink	-0.1470861
-3.661852	drinkin	-0.148397
-3.661852	drip	-0.170295
-2.107301	drive	-0.2120543
-3.661852	drizzle	-0.1693432
-2.711008	drop	-0.1939794
-3.478467	drown	-0.2848112
-3.769564	drum	-0.150737
-2.866854	dry	-0.09050989
-3.478467	duck	-0.1460819
-3.586729	dump	-0.1373587
-3.769564	earn	-0.167106
-3.661852	ease	-0.1410238
-2.325006	eat	-0.1684302
-3.769564	echo	-0.1751535
-3.769564	edge	-0.1663604
-3.769564	edit	-0.1711135
-3.769564	educate	-0.165977
-3.769564	edward	-0.1631297
-3.769564	elect	-0.1490848
-3.769564	embark	-0.1323012
-3.478467	emerge	-0.1636339
-3.661852	emphasize	-0.1697282
-3.478467	empty	-0.1424032
-3.319719	encounter	-0.1301928
-3.769564	encourage	-0.172013
-2.28028	end	-0.1913421
-3.731273	endure	-0.1642899
-3.661852	engage	-0.1716409
-2.274251	enjoy	-0.1833527
-3.769564	ensue	-0.1683391
-3.731273	ensure	-0.1459405
-2.943548	enter	-0.343949
-3.586729	entertain	-0.1466444
-3.586729	equalize	-0.1379364
-3.731273	equate	-0.1393379
-3.769564	erode	-0.150737
-3.391879	escape	-0.1664136
-3.586729	estimate	-0.4011875
-3.769564	etc	-0.161456
-3.769564	etch	-0.1498598
-3.661852	everyht	-0.1646957
-3.769564	everyone	-0.1676876
-3.769564	exaggerate	-0.1748917
-3.731273	examine	-0.1452204
-3.769564	excite	-0.1151558
-3.769564	exclude	-0.1502311
-3.731273	excuse	-0.160352
-3.769564	exercise	-0.1680153
-3.769564	exert	-0.137216
-3.155586	exhaust	-0.1885327
-3.769564	exist	-0.137216
-3.478467	exit	-0.1268505
-3.769564	expand	-0.1487778
-2.84403	expect	-0.2622673
-3.586729	experience	-0.3213954
-3.391879	explain	-0.1586572
-3.769564	explode	-0.1751148
-2.745045	explore	-0.1233661
-3.661852	expose	-0.1467417
-3.769564	express	-0.161127
-3.003412	face	-0.1455348
-3.661852	fade	-0.1335662
-3.203718	fail	-0.1288762
-2.422703	fall	-0.3619108
-3.661852	family	-0.163526
-3.769564	fascinate	-0.1445593
-3.769564	fashion	-0.1639304
-3.478467	feast	-0.1244894
-3.769564	feature	-0.1452507
-2.890944	feed	-0.2618942
-2.228813	feel	-0.2215776
-3.661852	fiddle	-0.1725735
-3.319719	fight	-0.1102634
-2.679446	figure	-0.205198
-2.694941	fill	-0.0887319
-3.661852	film	-0.1330959
-3.731273	filter	-0.1630902
-2.111397	find	-0.227666
-3.769564	fine	-0.1500624
-2.763119	finish	-0.2515669
-3.478467	fire	-0.1321405
-3.661852	fish	-0.1718081
-3.661852	fish.	-0.148397
-3.112261	fit	-0.1013833
-3.203718	fix	-0.1593046
-3.661852	flare	-0.172159
-3.391879	flip	-0.1582173
-3.112261	float	-0.2448868
-3.391879	flood	-0.1672423
-3.769564	flounder	-0.1617846
-3.478467	flow	-0.1551349
-3.769564	flush	-0.1719809
-2.679446	fly	-0.1719364
-3.769564	focus	-0.1519643
-3.769564	fold	-0.1715314
-2.495971	follow	-0.1126274
-3.731273	forage	-0.1349578
-3.769564	forbid	-0.1709678
-3.586729	force	-0.1244893
-2.727693	forget	-0.216186
-3.586729	form	-0.2036818
-3.155586	freak	-0.1851046
-3.769564	freeze	-0.1449197
-3.661852	frequent	-0.1727825
-3.769564	frustrate	-0.159049
-3.586729	fry	-0.1469776
-3.586729	fuck	-0.1299767
-3.391879	fuel	-0.1555142
-3.661852	fussed	-0.1728033
-3.319719	gain	-0.13694
-3.769564	gas	-0.1473196
-3.155586	gather	-0.1035833
-3.391879	gaze	-0.1372463
-3.319719	gear	-0.1412682
-1.671588	get	-0.1239489
-3.586729	giggle	-0.1444327
-2.286395	give	-0.1516056
-3.769564	glance	-0.1680477
-3.769564	glare	-0.1395209
-3.769564	glaze	-0.1620146
-3.769564	glide	-0.1719168
-3.769564	glisten	-0.1669452
-1.72904	go	-0.2111126
-3.661852	go?	-0.1713929
-3.586729	gobble	-0.1393987
-3.661852	gon	-0.1186152
-3.769564	goto	-0.1416782
-2.781978	grab	-0.1123987
-3.769564	graze	-0.1499611
-3.257857	greet	-0.127368
-2.91645	grow	-0.1342811
-3.769564	grumble	-0.1751148
-2.801693	guess	-0.3061899
-3.769564	guide	-0.1465035
-3.661852	had.	-0.166832
-3.112261	hadn	-0.1236365
-3.769564	haha	-0.1654165
-3.769564	hail	-0.148397
-3.769564	hammer	-0.1687196
-3.112261	hand	-0.1729139
-3.072868	handle	-0.2534187
-2.516397	hang	-0.2357988
-2.506064	happen	-0.2627293
-3.769564	hasn	-0.1732628
-2.91645	hate	-0.1507636
-3.112261	haul	-0.1394581
-1.532145	have	-0.08336776
-3.731273	haven	-0.1482516
-3.769564	havent	-0.1719489
-3.586729	he	-0.1425059
-2.091294	head	-0.2033898
-2.448752	hear	-0.1531763
-3.769564	heat	-0.1708082
-3.769564	heed	-0.1747961
-2.516397	help	-0.1455831
-3.731273	herd	-0.1415381
-3.391879	here	-0.1113707
-3.478467	hesitate	-0.1411107
-3.319719	hide	-0.1074165
-3.478467	highlight	-0.2300985
-2.212928	hike	-0.198668
-3.769564	hire	-0.1500286
-3.769564	hiss	-0.1713707
-2.367387	hit	-0.1591056
-3.769564	hoist	-0.1705343
-2.822345	hold	-0.1742999
-3.661852	holler	-0.1727825
-3.731273	hoof	-0.1473015
-3.478467	hook	-0.1550689
-3.203718	hop	-0.1774663
-2.609319	hope	-0.2338329
-3.661852	hospital	-0.148397
-3.769564	host	-0.1610612
-3.478467	hover	-0.1353135
-3.731273	howl	-0.1739492
-3.731273	huddle	-0.1689687
-3.731273	hug	-0.1460025
-3.769564	huh	-0.148397
-3.586729	hurry	-0.1741926
-2.890944	hurt	-0.1498004
-3.769564	hypermile	-0.1654165
-3.478467	i	-0.1249759
-3.257857	identify	-0.110856
-3.391879	ignore	-0.1313832
-2.890944	imagine	-0.2414204
-3.769564	imply	-0.148397
-3.769564	impose	-0.148397
-3.769564	impress	-0.1497383
-3.478467	improve	-0.1309106
-2.526982	include	-0.2017959
-3.731273	incorporate	-0.1601871
-3.586729	increase	-0.2086264
-3.769564	indicate	-0.1704699
-3.586729	inflate	-0.1450013
-3.478467	inform	-0.1624998
-3.661852	ingrain	-0.1692469
-3.661852	inhabit	-0.167075
-3.769564	inhale	-0.148397
-3.769564	injure	-0.1471316
-3.769564	inquire	-0.1636862
-3.478467	insist	-0.1347622
-3.731273	inspire	-0.1383863
-3.769564	install	-0.1736786
-3.731273	insulate	-0.1464246
-3.319719	intend	-0.1168491
-3.731273	introduce	-0.1489819
-3.319719	invite	-0.1826724
-3.203718	involve	-0.1307738
-3.478467	isn	-0.1459161
-3.586729	isolate	-0.2074336
-2.572106	it	-0.2185378
-3.731273	jet	-0.1708713
-3.731273	jog	-0.172445
-2.727693	join	-0.1480839
-3.586729	joke	-0.138325
-3.586729	judge	-0.1545601
-3.661852	jumble	-0.1467417
-2.727693	jump	-0.07866834
-3.769564	kayak	-0.1698575
-3.586729	kayake	-0.1494257
-2.28028	keep	-0.1453353
-3.036753	kick	-0.1093804
-3.769564	kid	-0.129023
-3.319719	kill	-0.1417775
-3.731273	kinda	-0.160945
-3.586729	kit	-0.1647296
-3.586729	knit	-0.1664499
-3.478467	knock	-0.1630446
-2.163821	know	-0.3712699
-3.769564	lace	-0.1722697
-3.769564	lack	-0.1488455
-3.203718	land	-0.1780978
-3.661852	lash	-0.1508453
-3.257857	last	-0.1327671
-3.112261	laugh	-0.1538073
-3.478467	launch	-0.1631806
-2.972449	lay	-0.1214319
-3.003412	lead	-0.1730704
-3.478467	leak	-0.1310675
-3.731273	lean	-0.1657278
-2.679446	learn	-0.2800425
-2.119707	leave	-0.1672717
-3.731273	lend	-0.1382213
-2.382486	let	-0.1514898
-3.769564	level	-0.1661978
-3.203718	lie	-0.1539756
-3.769564	lift	-0.148397
-3.391879	light	-0.2652613
-3.155586	lighten	-0.2195444
-2.609319	like	-0.2250946
-3.731273	limit	-0.1304691
-3.478467	line	-0.1672948
-3.769564	linger	-0.1728146
-2.822345	listen	-0.2244337
-2.727693	live	-0.2409575
-3.661852	lo	-0.1727965
-2.781978	load	-0.1508077
-3.769564	loan	-0.1735256
-3.731273	locate	-0.1709103
-3.769564	lock	-0.1653513
-3.257857	lodge	-0.1422272
-3.731273	log	-0.1371627
-3.769564	london	-0.1445593
-2.079663	look	-0.1607645
-3.661852	loom	-0.1393379
-3.661852	loop	-0.166832
-2.890944	lose	-0.2086042
-2.398129	love	-0.2641506
-3.769564	lower	-0.1488793
-3.769564	luck	-0.1505347
-3.661852	lure	-0.166832
-3.731273	maintain	-0.1472675
-1.859397	make	-0.1392365
-2.526982	manage	-0.1590178
-3.769564	march	-0.1699865
-3.319719	mark	-0.2344258
-3.586729	marry	-0.1517897
-3.661852	mash	-0.166412
-3.769564	match	-0.1499611
-3.769564	me	-0.171692
-2.636027	mean	-0.2574737
-3.769564	meander	-0.1709876
-3.661852	measure	-0.1717688
-2.506064	meet	-0.2046989
-3.769564	mellow	-0.1416782
-3.203718	melt	-0.1184269
-2.890944	mention	-0.27669
-3.257857	mind	-0.2742953
-2.622468	miss	-0.3418777
-3.661852	misspoke	-0.1718719
-3.769564	mix	-0.1712888
-3.661852	mob	-0.1501974
-3.769564	motor	-0.1469617
-3.731273	mount	-0.139832
-2.537831	move	-0.2902904
-3.661852	mow	-0.1704699
-3.769564	muffle	-0.1644706
-3.769564	mumble	-0.1491374
-3.769564	murder	-0.1711526
-3.257857	name	-0.1227549
-3.319719	nap	-0.1202324
-3.769564	narrow	-0.1658399
-3.586729	navigate	-0.1261135
-3.391879	near	-0.2312992
-2.331788	need	-0.1341939
-3.769564	needless	-0.1694395
-3.769564	needn	-0.1599323
-3.769564	neglect	-0.1657422
-3.731273	negotiate	-0.1646164
-3.769564	nestle	-0.1382903
-3.769564	never	-0.1453958
-3.112261	note	-0.197968
-2.711008	notice	-0.3069787
-3.661852	now.	-0.1725416
-3.478467	observe	-0.1385421
-3.769564	obsess	-0.1508453
-3.769564	obstruct	-0.1416782
-3.769564	occupy	-0.1445593
-3.731273	occur	-0.2015528
-3.003412	offer	-0.1714908
-2.91645	open	-0.1183244
-3.731273	operate	-0.1280397
-3.319719	opt	-0.134294
-3.072868	order	-0.1369961
-3.769564	organise	-0.137216
-3.257857	organize	-0.1726052
-3.769564	originate	-0.148397
-3.769564	outfit	-0.1646011
-3.661852	outta	-0.1719676
-3.661852	overcome	-0.1487778
-3.769564	overhear	-0.170051
-3.112261	overlook	-0.1242525
-3.769564	overtake	-0.1652861
-3.257857	own	-0.152396
-3.661852	pace	-0.148397
-2.331788	pack	-0.2424047
-3.036753	paddle	-0.1619078
-3.586729	paint	-0.1319387
-3.731273	panic	-0.1475053
-3.731273	pant	-0.1688869
-3.586729	parallel	-0.1374705
-3.003412	park	-0.1417528
-3.731273	part	-0.1670245
-3.731273	participate	-0.1472335
-2.526982	pass	-0.1882861
-3.769564	paste	-0.1645359
-3.769564	pat	-0.1686303
-3.769564	pause	-0.1735827
-3.661852	pave	-0.155785
-2.84403	pay	-0.1960888
-3.391879	pee	-0.1541827
-3.769564	peel	-0.1704944
-3.731273	peer	-0.1470029
-3.731273	peg	-0.1384979
-3.769564	pelt	-0.1722376
-3.769564	perceive	-0.1583872
-3.769564	perch	-0.1731988
-3.769564	perfect	-0.1730388
-3.769564	perk	-0.1649601
-3.769564	permit	-0.1491594
-3.731273	persist	-0.1610766
-2.486108	pick	-0.1953226
-3.391879	pile	-0.2842447
-3.769564	pill	-0.1500286
-3.478467	pine	-0.1816034
-3.731273	piss	-0.1462768
-2.943548	pitch	-0.2464624
-3.391879	place	-0.1204507
-3.769564	plague	-0.1723659
-2.711008	plan	-0.1350282
-3.661852	planned	-0.1727009
-3.586729	plant	-0.1667877
-2.398129	play	-0.1679199
-2.890944	please	-0.09562804
-3.769564	plod	-0.1730067
-3.731273	plow	-0.1623582
-3.731273	plug	-0.1480143
-3.769564	plummet	-0.1507033
-3.478467	plunge	-0.1394148
-3.112261	point	-0.2967079
-3.478467	poke	-0.1304674
-3.769564	poop	-0.1451216
-3.203718	pop	-0.1341084
-3.731273	pose	-0.2560804
-2.972449	post	-0.2471322
-3.731273	pound	-0.1469849
-2.972449	pour	-0.1756265
-3.478467	practice	-0.1605983
-3.731273	practise	-0.1660503
-3.203718	pray	-0.09876435
-3.769564	predict	-0.1668802
-3.391879	prefer	-0.1353537
-3.661852	prep	-0.1668643
-2.972449	prepare	-0.1447181
-3.661852	present	-0.1725097
-3.319719	press	-0.143647
-3.257857	pretend	-0.3065905
-3.769564	prevent	-0.1623827
-3.155586	proceed	-0.1140657
-3.731273	process	-0.1639784
-3.661852	procure	-0.1695358
-3.769564	produce	-0.1481002
-3.769564	progress	-0.1615875
-3.203718	promise	-0.2854015
-3.769564	promote	-0.1410238
-3.769564	prompt	-0.1694855
-3.769564	prop	-0.1590159
-3.769564	propose	-0.1450558
-3.478467	protect	-0.1430451
-3.112261	prove	-0.4673373
-2.943548	provide	-0.3079008
-3.661852	provoke	-0.148397
-3.769564	psych	-0.1607649
-3.769564	publish	-0.1734548
-2.382486	pull	-0.1285326
-3.586729	pump	-0.1372975
-3.661852	punch	-0.1708174
-3.769564	punctuate	-0.1658073
-3.319719	purchase	-0.211219
-3.769564	purify	-0.1473875
-3.769564	pursue	-0.1598088
-2.91645	push	-0.1156242
-2.352796	put	-0.1165704
-3.769564	qualify	-0.1723407
-3.731273	question	-0.1631931
-3.586729	quiet	-0.1600047
-3.731273	quit	-0.1696062
-3.769564	quiver	-0.1728466
-3.586729	race	-0.2197737
-3.731273	rack	-0.1408676
-3.731273	raft	-0.1484103
-3.731273	rage	-0.1684513
-2.679446	rain	-0.2499262
-3.769564	rain.	-0.1586177
-3.586729	raise	-0.1497733
-3.661852	ramble	-0.1621787
-3.661852	rate	-0.160821
-3.661852	re-do	-0.163526
-2.486108	reach	-0.1342367
-2.609319	read	-0.1940705
-3.731273	realise	-0.1476411
-2.526982	realize	-0.6297503
-3.769564	recall	-0.1501637
-3.769564	receive	-0.1489836
-3.769564	recharge	-0.1695672
-3.661852	reckon	-0.148397
-3.731273	recognize	-0.2252994
-3.036753	recommend	-0.1233909
-3.661852	reconcile	-0.148397
-3.769564	record	-0.1737106
-3.203718	recover	-0.2955768
-3.769564	reel	-0.1719607
-3.391879	reflect	-0.1470674
-3.586729	refresh	-0.1600707
-3.319719	refuse	-0.134066
-3.391879	register	-0.2674523
-2.822345	relax	-0.2602786
-3.661852	relaxin	-0.148397
-3.586729	release	-0.1452885
-3.661852	relieve	-0.1935274
-3.112261	remain	-0.1254852
-2.609319	remember	-0.2963467
-3.036753	remind	-0.39506
-3.203718	remove	-0.1184362
-3.769564	rename	-0.1663604
-3.661852	render	-0.1694395
-3.003412	rent	-0.1433885
-3.769564	repair	-0.2560804
-3.478467	replace	-0.12383
-3.769564	replicate	-0.1674319
-3.478467	reply	-0.1427368
-3.661852	report	-0.166832
-3.769564	represent	-0.159049
-3.661852	repusle	-0.1718081
-3.257857	require	-0.1231598
-3.478467	research	-0.1444612
-3.203718	reserve	-0.1137114
-3.391879	resist	-0.1426019
-3.731273	respond	-0.158204
-2.866854	rest	-0.3100994
-3.586729	result	-0.1402849
-3.731273	resume	-0.1612411
-3.769564	retch	-0.165977
-3.731273	retire	-0.1328973
-3.731273	retreat	-0.1606664
-3.586729	retrieve	-0.1507996
-2.636027	return	-0.2087583
-3.769564	reveal	-0.1508453
-3.661852	reward	-0.1481064
-2.495971	ride	-0.1359739
-3.586729	rinse	-0.1623187
-3.391879	rip	-0.1607586
-3.203718	rise	-0.1484341
-3.731273	risk	-0.1436171
-3.769564	roadwalk	-0.1502649
-3.731273	roam	-0.165334
-3.769564	roar	-0.1620146
-3.478467	roast	-0.163353
-3.769564	rob	-0.1648948
-3.319719	rock	-0.1726717
-2.745045	roll	-0.1446277
-3.478467	rough	-0.1143779
-3.203718	round	-0.1569026
-3.586729	rub	-0.140682
-3.661852	ruff	-0.166412
-3.478467	ruin	-0.1329656
-3.731273	rumble	-0.1704919
-2.34568	run	-0.2201951
-3.155586	rush	-0.1367069
-3.769564	s'more	-0.2560804
-3.769564	saddle	-0.1494544
-3.478467	sail	-0.2068351
-3.769564	salute	-0.1599323
-3.769564	salvage	-0.1680153
-3.731273	satisfy	-0.1335066
-3.072868	save	-0.09407675
-3.731273	saw	-0.1660898
-2.103244	say	-0.3079218
-3.478467	scan	-0.1269384
-3.155586	scare	-0.1623616
-3.769564	scarf	-0.143224
-3.731273	scatter	-0.1970894
-3.586729	schedule	-0.1251444
-3.769564	scoop	-0.1692766
-3.769564	scop	-0.148397
-3.769564	scorch	-0.1502649
-3.586729	score	-0.1453768
-3.203718	scramble	-0.1451917
-3.731273	scratch	-0.1482752
-2.943548	scream	-0.199408
-3.731273	scurry	-0.1351412
-3.072868	search	-0.3672877
-3.769564	seat	-0.1624566
-3.769564	secure	-0.1508381
-1.861706	see	-0.2179091
-3.731273	seek	-0.1275887
-2.331788	seem	-0.251954
-3.731273	seep	-0.1673892
-3.391879	sell	-0.143346
-2.84403	send	-0.1833063
-3.586729	separate	-0.1359068
-3.155586	serve	-0.1160951
-2.234239	set	-0.1396877
-2.943548	settle	-0.1324649
-3.478467	shake	-0.3237268
-2.943548	share	-0.1131513
-3.769564	shed	-0.1746685
-3.478467	shift	-0.1313307
-3.478467	shine	-0.1286105
-3.661852	shock	-0.1474034
-3.391879	shoot	-0.1344156
-3.661852	shoulder	-0.1540274
-3.731273	shout	-0.1502132
-2.694941	show	-0.1574998
-3.155586	shower	-0.1320127
-3.769564	shroud	-0.1502649
-3.731273	shrug	-0.1673969
-3.586729	shut	-0.129107
-3.769564	side	-0.1742856
-3.478467	sift	-0.1652993
-3.203718	sign	-0.1571831
-3.769564	signal	-0.171692
-3.478467	sing	-0.176611
-3.731273	sink	-0.1355301
-2.422703	sit	-0.1409035
-3.661852	site	-0.148397
-3.478467	size	-0.1248301
-3.072868	skip	-0.2652879
-3.661852	slant	-0.1680426
-2.115532	sleep	-0.2670844
-3.257857	slide	-0.1263395
-3.478467	slip	-0.1342997
-3.731273	slither	-0.1374597
-3.731273	slog	-0.1380659
-3.257857	slow	-0.1078559
-3.661852	smash	-0.1727965
-3.112261	smell	-0.1468557
-3.731273	smile	-0.1313307
-3.586729	smoke	-0.1473514
-3.769564	smooth	-0.1674968
-3.391879	snap	-0.1511977
-3.769564	snatch	-0.1488793
-3.769564	snore	-0.1606968
-3.319719	snorkel	-0.2383603
-3.155586	snorkele	-0.2349983
-3.731273	snorkle	-0.1561451
-3.769564	snow	-0.1462812
-3.769564	snuck	-0.1653891
-3.769564	snuff	-0.1701799
-3.731273	snuggle	-0.1438227
-3.155586	soak	-0.2600165
-3.586729	soar	-0.1700167
-3.586729	sort	-0.122681
-2.866854	sound	-0.1858512
-3.769564	source	-0.1410238
-3.731273	space	-0.1544442
-3.769564	spare	-0.1656993
-3.112261	speak	-0.1181313
-3.731273	speed	-0.1393379
-3.731273	spell	-0.1447462
-2.352796	spend	-0.07232547
-3.769564	spin	-0.1751785
-3.478467	splash	-0.1643043
-3.769564	splatter	-0.1657096
-3.319719	split	-0.1007461
-3.586729	spoil	-0.1589551
-3.769564	spook	-0.1458666
-3.036753	spot	-0.1538768
-3.586729	spray	-0.1435837
-3.586729	spread	-0.1694965
-3.391879	sprinkle	-0.131348
-3.769564	squash	-0.1572638
-3.769564	squat	-0.1467417
-3.586729	squeeze	-0.1621438
-3.769564	squirm	-0.1751854
-3.731273	stack	-0.1493529
-3.661852	staff	-0.1416782
-3.769564	stake	-0.1680103
-3.586729	stall	-0.1320184
-2.84403	stand	-0.1330976
-3.769564	star	-0.148397
-3.257857	stare	-0.1231856
-2.043002	start	-0.109575
-3.769564	startle	-0.148397
-3.586729	state	-0.1395025
-2.286395	stay	-0.2040734
-3.731273	steal	-0.1669037
-3.731273	stealth	-0.1653666
-3.661852	steer	-0.1507033
-3.257857	step	-0.1259103
-3.661852	stew	-0.1599323
-2.866854	stick	-0.2207102
-3.391879	sting	-0.1567301
-3.731273	stink	-0.2837528
-3.478467	stir	-0.2086544
-3.769564	stock	-0.1589828
-3.769564	stone	-0.1486423
-2.192614	stop	-0.09149674
-3.661852	stopped	-0.1700809
-3.769564	strangle	-0.143224
-3.319719	strap	-0.1508562
-3.769564	stress	-0.1812295
-3.391879	stretch	-0.1966656
-3.769564	strew	-0.148397
-3.203718	strike	-0.1325538
-3.731273	string	-0.1357696
-3.769564	strip	-0.1490147
-3.478467	stroll	-0.1357923
-3.257857	struggle	-0.2155574
-3.769564	stub	-0.1709849
-3.769564	study	-0.1666529
-3.319719	stuff	-0.1608222
-3.661852	stuff/cleaned	-0.148397
-3.112261	stumble	-0.1731604
-3.661852	submerge	-0.1488952
-3.769564	submit	-0.1644379
-3.769564	subside	-0.1594456
-3.319719	suck	-0.1145585
-3.769564	suffer	-0.1695884
-3.036753	suggest	-0.1493577
-3.391879	suit	-0.1672545
-3.769564	sunbathe	-0.1739343
-3.731273	supply	-0.1420726
-3.586729	support	-0.1455633
-3.391879	suppose	-0.3283036
-3.661852	sure?	-0.1689257
-3.319719	surface	-0.1414737
-3.661852	surge	-0.1746366
-3.769564	surprise	-0.112174
-3.586729	surround	-0.2347545
-3.155586	survive	-0.1030308
-3.769564	suspend	-0.1744133
-3.731273	swallow	-0.1736045
-3.769564	swamp	-0.1708082
-3.731273	swap	-0.1469188
-3.769564	swarm	-0.137216
-3.769564	swat	-0.1622444
-3.319719	swear	-0.1590348
-3.478467	sweep	-0.2093988
-3.769564	swerve	-0.137216
-2.609319	swim	-0.2329108
-3.769564	swing	-0.1506588
-3.769564	swirl	-0.1717241
-3.478467	switch	-0.1420704
-3.769564	t-bone	-0.1589143
-3.319719	tackle	-0.1340143
-3.769564	tail	-0.148397
-1.830438	take	-0.09603208
-2.609319	talk	-0.2826805
-3.769564	tan	-0.143224
-3.769564	tangle	-0.1495558
-3.769564	tape	-0.1743563
-3.257857	taste	-0.1329548
-3.319719	teach	-0.1570703
-3.257857	tear	-0.1325945
-3.478467	tease	-0.1390416
-3.769564	teem	-0.1499611
-2.141204	tell	-0.290387
-3.319719	tend	-0.1373414
-3.769564	tent	-0.1471837
-3.769564	terrify	-0.1629708
-3.391879	test	-0.1857205
-3.661852	test-drive	-0.1728033
-3.003412	thank	-0.2143638
-2.91645	that	-0.1126057
-3.478467	there	-0.1401324
-3.319719	they	-0.1355505
-2.079663	think	-0.3361167
-3.257857	threaten	-0.1282562
-3.661852	thrill	-0.1954538
-2.711008	throw	-0.2035879
-3.661852	thunder	-0.148397
-3.661852	tick	-0.1630642
-3.319719	tie	-0.2299231
-3.769564	tighten	-0.1625069
-3.586729	tip	-0.1960501
-3.769564	tire	-0.1826092
-3.769564	toast	-0.1579389
-3.769564	tolerate	-0.1694919
-3.319719	top	-0.1217191
-3.769564	torment	-0.1440804
-3.319719	toss	-0.16646
-3.731273	total	-0.1396026
-3.112261	touch	-0.1432355
-3.731273	tour	-0.1415381
-3.731273	tow	-0.1473229
-3.769564	track	-0.1751467
-3.661852	trade	-0.1507033
-2.822345	trail	-0.2272546
-3.769564	train	-0.1596746
-3.661852	trap	-0.1508453
-3.769564	trash	-0.1711778
-2.84403	travel	-0.176253
-3.769564	traverse	-0.1604684
-3.586729	tread	-0.1605322
-3.257857	treat	-0.2371926
-3.478467	trek	-0.1558677
-3.769564	trickle	-0.1562627
-3.769564	trigger	-0.1496233
-3.731273	trip	-0.1400393
-3.586729	trust	-0.1254953
-2.202653	try	-0.1403257
-3.661852	tube	-0.1714249
-3.731273	tuck	-0.1357696
-3.731273	tumble	-0.130611
-3.731273	tune	-0.1731566
-3.661852	tuned	-0.1687007
-2.2453	turn	-0.2860772
-3.731273	twist	-0.1629966
-3.203718	understand	-0.2476638
-3.769564	undertake	-0.174828
-3.731273	undo	-0.1708393
-3.769564	unhook	-0.1654816
-3.586729	unload	-0.1433738
-3.478467	unpack	-0.1910857
-3.661852	unplug	-0.1607554
-3.769564	unzip	-0.2560804
-3.203718	update	-0.2321219
-3.478467	upload	-0.1316107
-3.661852	upset	-0.1670426
-2.36003	use	-0.202191
-3.661852	utilize	-0.1727825
-3.769564	vacate	-0.1474215
-3.769564	vacation	-0.148397
-3.769564	vanish	-0.1410238
-3.769564	vary	-0.1495896
-3.203718	venture	-0.1287541
-3.661852	verb	-0.1599323
-3.391879	view	-0.1478461
-2.694941	visit	-0.1229608
-3.769564	volunteer	-0.1640132
-3.769564	vomit	-0.1749236
-3.391879	wade	-0.1260474
-2.406167	wait	-0.2214611
-2.390237	wake	-0.2031669
-3.769564	waken	-0.1473626
-2.318327	walk	-0.1448043
-3.036753	wander	-0.2382874
-2.182803	want	-0.1434369
-3.112261	warm	-0.1649795
-3.391879	warn	-0.1547737
-3.731273	was	-0.1536237
-3.769564	was.	-0.1615546
-2.890944	wash	-0.1552286
-2.650023	wasn	-0.3381783
-3.769564	waste	-0.1525017
-2.36003	watch	-0.1222106
-3.478467	water	-0.1449357
-3.586729	wave	-0.1450696
-2.763119	we	-0.1684958
-2.84403	wear	-0.2379198
-3.586729	wedge	-0.1658704
-3.661852	week	-0.1697282
-3.391879	welcome	-0.1243598
-3.112261	weren	-0.1854476
-3.661852	werent	-0.1704055
-3.586729	whine	-0.1288025
-3.769564	whip	-0.1661652
-3.769564	whisper	-0.1623428
-3.586729	whistle	-0.1411923
-3.769564	whittle	-0.164837
-3.586729	who	-0.1400629
-3.769564	wiggle	-0.1724621
-3.112261	win	-0.1120265
-3.661852	win.	-0.166412
-3.072868	wind	-0.1530997
-3.391879	wipe	-0.1321049
-2.890944	wish	-0.3473777
-3.731273	witness	-0.1350275
-3.586729	won	-0.1434618
-2.91645	wonder	-0.3245159
-2.406167	work	-0.1752229
-3.155586	worry	-0.2443527
-3.769564	would	-0.147536
-3.155586	wouldn	-0.1342118
-3.155586	wrap	-0.1110674
-3.586729	wreck	-0.1363211
-3.731273	wrestle	-0.1490156
-2.822345	write	-0.2201105
-3.769564	yeah	-0.1416782
-3.072868	yell	-0.1177943
-3.769564	yep	-0.1501974
-3.769564	yet?	-0.1462786
-3.586729	you	-0.131473
-3.478467	zip	-0.1458361
-3.769564	zoom	-0.1487439

\2-grams:
-0.7846518	!! be
-1.08056	!! go
-1.08056	!! wish
-0.7846518	!!! be
-0.7846518	!!! have
-2.415934	<s> <unk>
-3.049043	<s> accomplish
-2.185364	<s> arrive
-0.5818609	<s> be
-3.049043	<s> become
-3.049043	<s> begin
-2.753135	<s> believe
-3.049043	<s> bet
-2.753135	<s> bring
-2.415934	<s> buy
-2.753135	<s> camp
-3.049043	<s> canoe
-3.049043	<s> clear
-2.185364	<s> come
-3.049043	<s> cross
-3.049043	<s> cruise
-2.185364	<s> decide
-3.049043	<s> depart
-3.049043	<s> describe
-3.049043	<s> destroy
-3.049043	<s> disappoint
-2.753135	<s> dive
-1.411349	<s> do
-3.049043	<s> don
-2.753135	<s> drive
-3.049043	<s> eat
-3.049043	<s> face
-3.049043	<s> feel
-3.049043	<s> follow
-3.049043	<s> gaze
-1.200815	<s> get
-2.753135	<s> give
-1.182662	<s> go
-2.753135	<s> grab
-3.049043	<s> grow
-3.049043	<s> hang
-0.932777	<s> have
-2.753135	<s> hear
-3.049043	<s> here
-2.415934	<s> hike
-3.049043	<s> imagine
-3.049043	<s> intend
-3.049043	<s> invite
-2.415934	<s> it
-2.035552	<s> know
-2.185364	<s> leave
-3.049043	<s> let
-3.049043	<s> live
-3.049043	<s> load
-2.035552	<s> love
-2.753135	<s> make
-3.049043	<s> meet
-3.049043	<s> melt
-2.753135	<s> mention
-2.415934	<s> need
-3.049043	<s> organize
-3.049043	<s> own
-2.415934	<s> pack
-3.049043	<s> pick
-2.753135	<s> play
-3.049043	<s> publish
-3.049043	<s> purchase
-3.049043	<s> remember
-2.753135	<s> rest
-2.185364	<s> return
-3.049043	<s> say
-2.415934	<s> see
-2.753135	<s> seem
-3.049043	<s> sign
-2.753135	<s> sleep
-2.185364	<s> spend
-1.835934	<s> start
-3.049043	<s> state
-3.049043	<s> suggest
-2.185364	<s> survive
-3.049043	<s> swim
-1.924374	<s> take
-3.049043	<s> tell
-3.049043	<s> there
-2.753135	<s> think
-3.049043	<s> turn
-2.753135	<s> update
-2.753135	<s> upload
-3.049043	<s> use
-2.185364	<s> wake
-3.049043	<s> walk
-2.753135	<s> want
-2.753135	<s> we
-3.049043	<s> work
-3.049043	<s> write
-2.12188	<unk> </s>
-1.432618	<unk> <unk>
-3.112521	<unk> ahhh
-3.408429	<unk> allow
-3.112521	<unk> appear
-3.408429	<unk> arrive
-2.544751	<unk> ask
-3.408429	<unk> assume
-3.408429	<unk> attend
-3.408429	<unk> balance
-0.6411716	<unk> be
-3.112521	<unk> begin
-3.408429	<unk> bless
-3.408429	<unk> bloom
-3.408429	<unk> blow
-3.408429	<unk> board
-3.408429	<unk> borrow
-3.408429	<unk> break
-3.112521	<unk> bring
-3.408429	<unk> build
-3.112521	<unk> buy
-2.544751	<unk> call
-3.408429	<unk> cancel
-3.408429	<unk> carry
-3.408429	<unk> catch
-3.408429	<unk> change
-3.112521	<unk> check
-3.408429	<unk> chill
-3.408429	<unk> chop
-2.775321	<unk> clean
-3.408429	<unk> climb
-2.195321	<unk> come
-3.408429	<unk> compensate
-3.408429	<unk> complain
-3.408429	<unk> complete
-3.408429	<unk> confuse
-3.112521	<unk> continue
-3.112521	<unk> cook
-3.408429	<unk> couldnt
-3.408429	<unk> count
-3.408429	<unk> crawl
-3.112521	<unk> create
-3.112521	<unk> cross
-3.408429	<unk> cry
-3.408429	<unk> cut
-3.408429	<unk> dance
-2.544751	<unk> decide
-3.408429	<unk> descend
-3.408429	<unk> devise
-2.28376	<unk> didn
-3.408429	<unk> die
-3.408429	<unk> direct
-3.408429	<unk> discover
-3.408429	<unk> discuss
-1.432618	<unk> do
-3.408429	<unk> do.
-3.112521	<unk> don
-3.408429	<unk> dont
-3.408429	<unk> drink
-2.059081	<unk> drive
-3.408429	<unk> drop
-3.408429	<unk> eat
-3.408429	<unk> encounter
-2.544751	<unk> end
-3.408429	<unk> endure
-2.544751	<unk> enjoy
-2.775321	<unk> enter
-3.408429	<unk> exhaust
-3.408429	<unk> expect
-3.408429	<unk> explain
-3.408429	<unk> explode
-3.408429	<unk> explore
-3.112521	<unk> fall
-2.059081	<unk> feel
-3.408429	<unk> figure
-3.408429	<unk> fill
-2.28376	<unk> find
-3.408429	<unk> finish
-3.408429	<unk> fire
-3.408429	<unk> fold
-2.775321	<unk> follow
-3.408429	<unk> force
-3.112521	<unk> forget
-3.408429	<unk> form
-3.408429	<unk> gaze
-1.405824	<unk> get
-2.775321	<unk> give
-1.579147	<unk> go
-3.408429	<unk> grab
-3.408429	<unk> greet
-3.112521	<unk> guess
-3.408429	<unk> hate
-1.19411	<unk> have
-2.12188	<unk> head
-3.408429	<unk> hear
-2.544751	<unk> help
-3.408429	<unk> highlight
-3.408429	<unk> hike
-3.112521	<unk> hit
-3.408429	<unk> hoof
-2.775321	<unk> hope
-3.408429	<unk> hurt
-3.408429	<unk> i
-3.408429	<unk> identify
-3.408429	<unk> ignore
-3.408429	<unk> imagine
-3.408429	<unk> include
-3.112521	<unk> isn
-3.408429	<unk> isolate
-3.408429	<unk> it
-3.408429	<unk> jog
-3.408429	<unk> join
-2.28376	<unk> keep
-3.408429	<unk> knock
-2.775321	<unk> know
-3.112521	<unk> land
-3.408429	<unk> laugh
-3.408429	<unk> lay
-3.408429	<unk> lead
-2.775321	<unk> learn
-2.544751	<unk> leave
-2.544751	<unk> let
-3.408429	<unk> like
-3.112521	<unk> live
-2.004225	<unk> look
-3.112521	<unk> lose
-3.112521	<unk> love
-1.801931	<unk> make
-3.408429	<unk> manage
-3.408429	<unk> mean
-3.408429	<unk> meet
-3.408429	<unk> miss
-2.544751	<unk> move
-2.775321	<unk> need
-3.408429	<unk> note
-3.408429	<unk> offer
-3.408429	<unk> organise
-3.408429	<unk> organize
-3.112521	<unk> pack
-3.408429	<unk> parallel
-2.775321	<unk> pass
-3.408429	<unk> paste
-3.408429	<unk> pay
-3.408429	<unk> perceive
-3.112521	<unk> pick
-3.408429	<unk> pitch
-3.408429	<unk> plan
-3.112521	<unk> play
-3.408429	<unk> plummet
-3.408429	<unk> pop
-3.408429	<unk> post
-3.408429	<unk> press
-3.408429	<unk> proceed
-3.408429	<unk> provide
-2.544751	<unk> pull
-3.408429	<unk> purchase
-2.544751	<unk> put
-3.112521	<unk> raft
-3.408429	<unk> read
-3.112521	<unk> realize
-3.408429	<unk> reflect
-3.408429	<unk> refresh
-3.408429	<unk> refuse
-3.408429	<unk> remain
-3.408429	<unk> reply
-3.408429	<unk> reserve
-3.408429	<unk> resist
-2.544751	<unk> return
-3.408429	<unk> ride
-3.408429	<unk> rise
-3.408429	<unk> roadwalk
-3.408429	<unk> rock
-3.112521	<unk> roll
-2.775321	<unk> run
-2.059081	<unk> say
-3.408429	<unk> scramble
-2.004225	<unk> see
-3.408429	<unk> seek
-3.408429	<unk> seem
-3.408429	<unk> send
-3.408429	<unk> serve
-2.28376	<unk> set
-2.775321	<unk> show
-3.408429	<unk> sign
-3.112521	<unk> sit
-3.408429	<unk> skip
-2.195321	<unk> sleep
-3.408429	<unk> slow
-3.408429	<unk> smell
-3.408429	<unk> smooth
-3.408429	<unk> soar
-2.544751	<unk> sound
-3.408429	<unk> spell
-2.775321	<unk> spend
-3.408429	<unk> splash
-3.408429	<unk> spot
-3.408429	<unk> spray
-3.408429	<unk> sprinkle
-2.544751	<unk> start
-2.775321	<unk> stay
-3.408429	<unk> stick
-3.408429	<unk> stink
-3.408429	<unk> stir
-2.394938	<unk> stop
-3.408429	<unk> strike
-3.408429	<unk> stumble
-3.408429	<unk> suggest
-3.408429	<unk> suit
-3.408429	<unk> swallow
-3.408429	<unk> swim
-3.408429	<unk> tackle
-1.955528	<unk> take
-2.775321	<unk> tell
-3.408429	<unk> test
-2.28376	<unk> think
-3.112521	<unk> throw
-3.408429	<unk> tie
-3.408429	<unk> tip
-3.408429	<unk> treat
-2.394938	<unk> try
-3.408429	<unk> tumble
-2.12188	<unk> turn
-3.408429	<unk> upload
-2.775321	<unk> use
-3.408429	<unk> vary
-3.408429	<unk> view
-3.408429	<unk> visit
-3.408429	<unk> wait
-2.775321	<unk> wake
-2.544751	<unk> want
-3.408429	<unk> wash
-3.408429	<unk> wasn
-3.112521	<unk> wear
-3.408429	<unk> wedge
-3.408429	<unk> whine
-3.408429	<unk> whistle
-3.408429	<unk> win
-3.408429	<unk> won
-3.112521	<unk> wonder
-3.408429	<unk> work
-3.408429	<unk> wrap
-0.7795299	=d play
-0.7795299	=d realize
-1.17747	abandon grumble
-1.17747	abandon head
-1.17747	abandon hope
-1.17747	abandon run
-1.17747	abandon take
-0.9556212	absolve feel
-0.659713	absolve utilize
-1.17747	accept begin
-0.8815618	accept didn
-1.17747	accept forget
-1.17747	accept get
-0.7795299	access be
-0.7795299	access see
-0.7795299	accomodate aim
-0.7795299	accomodate don
-0.9556212	accompany pelt
-0.9556212	accompany spot
-0.9556212	accompany start
-0.8815618	accomplish be
-1.17747	accomplish go
-0.8815618	accomplish have
-0.5690639	accord be
-1.432742	accord have
-1.432742	accord hike
-1.432742	accord make
-1.432742	accord see
-1.432742	accord turn
-0.9556212	account figure
-0.9556212	account get
-0.9556212	account take
-0.659713	ache be
-0.9556212	ache do
-0.7795299	achieve cherish
-0.7795299	achieve have
-0.7795299	acquire choose
-0.7795299	acquire decide
-0.7846518	act be
-1.08056	act include
-1.08056	act stop
-1.701106	add </s>
-1.997014	add average
-1.997014	add avoid
-0.5003293	add be
-1.997014	add deserve
-1.997014	add do
-1.997014	add get
-1.997014	add give
-1.701106	add go
-1.997014	add have
-1.997014	add it
-1.997014	add manage
-1.997014	add pat
-1.997014	add put
-1.997014	add recommend
-1.997014	add sleep
-1.997014	add stop
-1.997014	add stuff
-1.997014	add tell
-1.997014	add wrap
-1.08056	adjust ask
-1.08056	adjust be
-0.7846518	adjust doesn
-1.256651	admire be
-1.256651	admire call
-1.256651	admire get
-1.256651	admire let
-1.256651	admire make
-1.256651	admire return
-1.557681	admit appear
-0.3445728	admit be
-1.557681	admit do
-1.557681	admit miss
-1.557681	admit scream
-1.557681	admit send
-0.7795299	adore begin
-0.7795299	adore camp
-0.8815618	advise be
-1.17747	advise go
-1.17747	advise reserve
-1.17747	advise sit
-0.7795299	affect be
-0.7795299	affect lace
-0.7795299	afford be
-0.7795299	afford get
-0.4707042	agree be
-1.461345	agree do
-1.757254	agree doesn
-1.757254	agree feel
-1.757254	agree go
-1.757254	agree hang
-1.461345	agree have
-1.757254	agree set
-1.757254	agree stay
-1.757254	agree take
-0.4836218	ahhh be
-0.9556212	aim <unk>
-0.9556212	aim attach
-0.9556212	aim be
-0.7795299	all. burn
-0.7795299	all. hear
-0.7795299	allocate have
-0.7795299	allocate protect
-2.022568	allow <unk>
-1.72666	allow adjust
-2.022568	allow avoid
-0.8094596	allow be
-2.022568	allow chop
-2.022568	allow die
-2.022568	allow drive
-2.022568	allow educate
-2.022568	allow explore
-2.022568	allow get
-2.022568	allow go
-1.389459	allow have
-2.022568	allow order
-1.72666	allow pack
-2.022568	allow pass
-2.022568	allow plan
-1.72666	allow see
-2.022568	allow set
-2.022568	allow shine
-1.72666	allow stay
-2.022568	allow submit
-2.022568	allow take
-2.022568	allow water
-0.4836218	along. be
-0.4836218	alter dive
-1.17747	alternate be
-0.8815618	alternate cry
-1.17747	alternate lay
-1.17747	alternate spend
-0.7795299	am. be
-0.7795299	am. listen
-0.4414828	amaze be
-1.654591	amaze determine
-1.654591	amaze do
-1.654591	amaze enjoy
-1.358683	amaze have
-1.654591	amaze leave
-1.654591	amaze light
-1.654591	amaze look
-0.4836218	amount be
-0.9556212	amuse <unk>
-0.9556212	amuse make
-0.9556212	amuse take
-0.7846518	anchor go
-1.08056	anchor manage
-1.08056	anchor set
-1.08056	announce be
-1.08056	announce cut
-1.08056	announce have
-1.08056	announce understand
-1.323598	answer arrive
-1.323598	answer be
-1.323598	answer concentrate
-1.323598	answer decide
-1.323598	answer have
-1.323598	answer point
-1.323598	answer wait
-1.432742	anticipate </s>
-1.136834	anticipate be
-1.136834	anticipate do
-1.136834	anticipate make
-1.432742	anticipate refuse
-1.432742	anticipate set
-0.4836218	appeal be
-1.77953	appear <unk>
-0.430181	appear be
-1.77953	appear begin
-1.77953	appear empty
-1.77953	appear hope
-1.77953	appear hurt
-1.77953	appear indicate
-1.77953	appear look
-1.77953	appear realize
-1.77953	appear roll
-1.77953	appear take
-1.77953	appear try
-0.7795299	appoint have
-0.7795299	appoint pack
-1.256651	appreciate be
-0.960743	appreciate have
-1.256651	appreciate leave
-1.256651	appreciate miss
-1.256651	appreciate weren
-1.296535	approach be
-1.592443	approach begin
-1.592443	approach check
-1.592443	approach feel
-1.592443	approach get
-1.592443	approach know
-1.592443	approach leave
-1.296535	approach make
-1.592443	approach name
-1.592443	approach round
-1.592443	approach stay
-1.08056	aren allow
-1.08056	aren be
-1.08056	aren have
-1.08056	aren spoil
-0.9556212	arise arise
-0.9556212	arise get
-0.9556212	arise have
-1.136834	arrange be
-1.432742	arrange desire
-1.432742	arrange go
-1.432742	arrange help
-1.136834	arrange meet
-1.432742	arrange scramble
-1.432742	arrange start
-2.615221	arrive </s>
-2.615221	arrive <unk>
-2.615221	arrive allow
-0.5635285	arrive be
-2.615221	arrive begin
-2.615221	arrive book
-2.615221	arrive call
-2.319312	arrive campground
-2.615221	arrive cant
-1.751542	arrive check
-2.319312	arrive come
-2.615221	arrive decide
-2.615221	arrive designate
-1.982111	arrive do
-2.319312	arrive drive
-2.615221	arrive feed
-2.615221	arrive fill
-1.490551	arrive find
-2.615221	arrive fly
-2.615221	arrive follow
-2.615221	arrive form
-1.982111	arrive get
-1.982111	arrive go
-1.118536	arrive have
-2.615221	arrive help
-2.615221	arrive jet
-2.615221	arrive jump
-2.615221	arrive leave
-2.615221	arrive manage
-2.615221	arrive need
-2.319312	arrive open
-2.615221	arrive pass
-2.615221	arrive pile
-2.615221	arrive read
-2.615221	arrive realize
-2.615221	arrive rest
-2.615221	arrive roll
-2.615221	arrive say
-2.615221	arrive schedule
-2.615221	arrive score
-2.319312	arrive see
-1.601729	arrive set
-2.319312	arrive settle
-2.615221	arrive sleep
-2.319312	arrive spend
-2.319312	arrive stare
-1.601729	arrive start
-2.615221	arrive stop
-1.982111	arrive take
-2.615221	arrive tell
-2.615221	arrive that
-2.615221	arrive wasn
-2.615221	arrive watch
-2.615221	arrive we
-2.319312	arrive would
-0.4836218	arrived leave
-0.8453909	ascend be
-1.4785	ascend come
-1.4785	ascend hike
-1.182592	ascend ride
-1.4785	ascend scream
-1.4785	ascend tackle
-1.4785	ascend take
-2.523823	ask </s>
-2.523823	ask <unk>
-2.227915	ask arrive
-2.523823	ask ask
-0.675595	ask be
-2.523823	ask begin
-2.523823	ask bring
-1.890714	ask check
-2.523823	ask come
-1.890714	ask do
-2.523823	ask feel
-2.523823	ask find
-2.227915	ask get
-2.523823	ask give
-1.510332	ask go
-2.523823	ask hang
-1.510332	ask have
-2.523823	ask head
-2.523823	ask help
-2.523823	ask imagine
-2.523823	ask inform
-1.510332	ask know
-2.523823	ask laugh
-1.660144	ask leave
-2.227915	ask look
-2.523823	ask make
-2.523823	ask meet
-2.523823	ask need
-2.523823	ask pay
-2.523823	ask please
-2.523823	ask pull
-2.523823	ask recommend
-2.523823	ask reply
-2.523823	ask run
-1.890714	ask say
-1.890714	ask see
-2.523823	ask show
-2.523823	ask sing
-2.523823	ask sleep
-2.523823	ask start
-2.523823	ask stop
-2.227915	ask sure?
-2.227915	ask take
-2.227915	ask tell
-2.523823	ask that
-2.523823	ask they
-1.890714	ask think
-2.523823	ask threaten
-1.660144	ask want
-2.523823	ask wipe
-2.523823	ask work
-2.227915	ask yet?
-0.4836218	assateague bike
-0.4836218	assese decide
-0.659713	associate be
-0.9556212	associate come
-0.2711318	assume be
-1.557681	assume do
-1.557681	assume go
-1.557681	assume mean
-1.557681	assume need
-0.2569208	assure be
-1.38159	assure feel
-1.38159	assure have
-0.8815618	attach <unk>
-1.17747	attach attach
-1.17747	attach have
-1.17747	attach huddle
-1.432742	attack be
-1.136834	attack calm
-1.432742	attack hope
-1.432742	attack it
-1.432742	attack love
-1.432742	attack notice
-1.432742	attack swim
-1.432742	attack understand
-1.624628	attempt amuse
-1.32872	attempt be
-1.624628	attempt camp
-1.624628	attempt catch
-1.624628	attempt chew
-1.624628	attempt climb
-1.32872	attempt prepare
-1.624628	attempt see
-1.624628	attempt set
-1.32872	attempt stake
-1.624628	attempt stop
-0.7795299	attend be
-0.7795299	attend hang
-1.08056	attract arrive
-1.08056	attract bang
-1.08056	attract stop
-1.08056	attract visit
-1.256651	average be
-1.256651	average climb
-1.256651	average develop
-1.256651	average manage
-1.256651	average reach
-1.256651	average seem
-1.654591	avoid call
-1.654591	avoid come
-1.654591	avoid get
-1.654591	avoid go
-1.021482	avoid have
-1.654591	avoid hike
-1.654591	avoid reach
-1.654591	avoid reply
-1.654591	avoid send
-1.654591	avoid set
-1.654591	avoid tackle
-1.358683	avoid try
-0.4474509	await be
-1.08056	await do
-1.557681	awake be
-1.557681	awake believe
-0.6940026	awake do
-1.557681	awake eat
-1.261773	awake make
-1.557681	awake sit
-1.261773	awake take
-1.757254	back <unk>
-1.461345	back be
-1.461345	back carry
-1.757254	back continue
-1.757254	back do
-1.757254	back it
-1.757254	back leave
-1.757254	back make
-1.461345	back move
-1.757254	back pull
-1.757254	back rack
-1.757254	back remind
-1.757254	back see
-1.461345	back set
-1.757254	back turn
-1.256651	backpack be
-1.256651	backpack do
-1.256651	backpack kayake
-1.256651	backpack remember
-1.256651	backpack see
-1.256651	backpack weren
-1.256651	backtrack deliver
-1.256651	backtrack do
-1.256651	backtrack find
-1.256651	backtrack have
-1.256651	backtrack pick
-1.256651	backtrack take
-0.9556212	balance be
-0.659713	balance take
-0.4836218	balk seem
-0.7795299	bandage be
-0.7795299	bandage feel
-0.5443609	bang be
-1.17747	bang greet
-1.17747	bang promise
-0.4836218	barbeque relax
-1.08056	bark go
-1.08056	bark hear
-1.08056	bark separate
-1.08056	bark think
-0.7795299	barrel be
-0.7795299	barrel hit
-1.323598	base be
-1.02769	base camp
-1.323598	base have
-1.323598	base live
-1.323598	base make
-1.323598	base see
-0.7795299	bath begin
-0.7795299	bath hover
-2.050475	be </s>
-1.591465	be <unk>
-4.43438	be abandon
-4.138472	be accept
-4.138472	be access
-4.43438	be accomodate
-4.43438	be accompany
-4.138472	be accomplish
-3.801271	be accord
-4.43438	be account
-4.43438	be ache
-4.43438	be achieve
-4.43438	be acquire
-3.801271	be act
-3.147831	be add
-4.43438	be adjust
-4.43438	be admit
-4.43438	be adore
-4.138472	be advise
-4.43438	be affect
-3.570701	be agree
-4.43438	be aim
-4.43438	be all.
-4.138472	be allocate
-2.981478	be allow
-4.138472	be alter
-4.138472	be alternate
-4.43438	be am.
-3.030176	be amaze
-4.43438	be amount
-4.43438	be anchor
-3.801271	be answer
-3.420889	be anticipate
-3.309711	be appear
-4.138472	be appreciate
-3.570701	be approach
-4.43438	be aren
-4.43438	be arrange
-2.605097	be arrive
-4.43438	be ascend
-2.690411	be ask
-4.43438	be associate
-3.570701	be assume
-3.801271	be assure
-4.138472	be attack
-4.43438	be attempt
-4.43438	be attract
-4.138472	be average
-3.570701	be avoid
-4.138472	be awake
-3.420889	be back
-4.138472	be backpack
-4.43438	be bang
-4.138472	be bark
-4.43438	be barrel
-4.43438	be bath
-0.7048682	be be
-4.43438	be beam
-3.085031	be bear
-3.801271	be beat
-3.147831	be become
-4.43438	be beg
-2.690411	be begin
-3.801271	be behave
-4.138472	be behold
-3.801271	be believe
-4.43438	be belong
-4.138472	be bend
-4.43438	be bind
-4.43438	be bird
-4.138472	be bite
-3.420889	be blaze
-4.43438	be bleed
-3.420889	be bless
-4.138472	be block
-3.030176	be blow
-4.43438	be bob
-4.43438	be boil
-3.309711	be book
-4.43438	be border
-3.309711	be bore
-3.801271	be borrow
-3.309711	be bother
-4.43438	be bowl
-3.420889	be brave
-2.796686	be break
-3.801271	be breathe
-4.43438	be brew
-2.740306	be bring
-2.714642	be build
-4.43438	be bundle
-3.309711	be burn
-4.138472	be bury
-4.43438	be bushwack
-3.085031	be buy
-4.43438	be buzz
-4.43438	be bypass
-2.36008	be call
-2.220061	be camp
-3.147831	be can
-4.138472	be cancel
-4.43438	be canoe
-4.43438	be cant
-3.570701	be care
-2.827881	be carry
-2.897925	be catch
-3.570701	be cause
-4.43438	be cease
-4.138472	be celebrate
-4.43438	be certify
-3.147831	be change
-4.138472	be charge
-3.801271	be chase
-3.570701	be chat
-2.767581	be check
-4.43438	be cherish
-4.138472	be chill
-4.138472	be chillin
-3.570701	be choose
-4.43438	be circle
-4.138472	be clamber
-4.138472	be clap
-3.147831	be clean
-3.570701	be clear
-2.740306	be climb
-2.624906	be close
-4.43438	be cloud
-3.801271	be coat
-3.420889	be collapse
-4.43438	be collect
-4.43438	be collide
-2.127042	be come
-4.43438	be comment
-4.43438	be commit
-4.138472	be commune
-4.138472	be communicate
-3.147831	be compare
-4.43438	be compel
-3.801271	be complain
-3.801271	be complete
-3.801271	be comprise
-4.43438	be concentrate
-3.570701	be concern
-4.43438	be confess
-3.801271	be confirm
-4.138472	be confuse
-4.138472	be connect
-3.085031	be consider
-3.801271	be consist
-3.801271	be construct
-4.138472	be consume
-4.138472	be contain
-3.801271	be contemplate
-3.420889	be continue
-4.43438	be convert
-3.570701	be convince
-2.937695	be cook
-3.570701	be cool
-4.138472	be cooperate
-4.43438	be cost
-3.309711	be couldn
-3.147831	be count
-2.714642	be cover
-4.43438	be crackle
-3.801271	be cram
-4.43438	be cramp
-4.43438	be crash
-4.43438	be crawl
-4.138472	be create
-4.138472	be creep
-4.43438	be cringe
-2.981478	be cross
-3.570701	be crowd
-4.138472	be cruise
-4.43438	be crush
-4.43438	be cry
-4.43438	be curl
-3.221272	be cut
-4.43438	be date
-3.309711	be deal
-2.26191	be decide
-4.138472	be dehydrate
-4.43438	be deliver
-3.309711	be descend
-3.221272	be describe
-4.138472	be design
-4.43438	be designate
-4.138472	be destroy
-3.030176	be determine
-4.43438	be devise
-2.690411	be didn
-4.43438	be didnt
-3.030176	be die
-4.138472	be dig
-4.43438	be dine
-4.43438	be dip
-4.43438	be disappear
-3.309711	be disappoint
-3.309711	be discover
-4.43438	be discuss
-4.138472	be distract
-3.147831	be dive
-1.483961	be do
-4.43438	be do.
-4.43438	be doesn
-4.138472	be dominate
-3.221272	be don
-3.801271	be dot
-4.43438	be down
-3.570701	be drag
-4.43438	be drain
-3.221272	be draw
-4.43438	be dread
-4.138472	be dream
-3.309711	be dress
-4.138472	be drift
-3.801271	be drink
-3.801271	be drip
-2.066984	be drive
-2.861493	be drop
-4.138472	be drown
-4.43438	be drum
-4.138472	be dry
-4.43438	be duck
-4.138472	be dump
-4.43438	be earn
-2.472612	be eat
-4.43438	be echo
-4.43438	be edge
-4.43438	be edit
-4.43438	be elect
-3.801271	be embark
-4.43438	be emerge
-4.138472	be emphasize
-4.138472	be empty
-4.138472	be encounter
-4.43438	be encourage
-2.458569	be end
-2.605097	be enjoy
-3.147831	be enter
-3.801271	be entertain
-4.43438	be escape
-3.801271	be estimate
-4.43438	be everyone
-4.43438	be exaggerate
-4.138472	be examine
-2.861493	be excite
-4.43438	be excuse
-2.690411	be exhaust
-4.43438	be exist
-4.43438	be exit
-4.43438	be expand
-2.667461	be expect
-3.570701	be experience
-4.43438	be explain
-3.801271	be explore
-4.138472	be expose
-4.138472	be face
-3.801271	be fade
-2.690411	be fall
-4.138472	be family
-4.43438	be fascinate
-4.138472	be fashion
-4.43438	be feast
-3.570701	be feature
-3.147831	be feed
-2.167516	be feel
-3.801271	be fight
-3.030176	be figure
-2.605097	be fill
-3.420889	be film
-4.43438	be filter
-2.050475	be find
-3.801271	be finish
-4.138472	be fish
-4.138472	be fit
-3.801271	be fix
-4.43438	be flip
-3.570701	be float
-4.43438	be flood
-3.309711	be flow
-2.796686	be fly
-4.138472	be focus
-2.740306	be follow
-4.138472	be forbid
-3.309711	be force
-3.570701	be forget
-4.138472	be form
-3.309711	be freak
-4.138472	be freeze
-4.43438	be frustrate
-4.43438	be fry
-3.801271	be fuck
-3.801271	be fuel
-4.43438	be gas
-4.138472	be gather
-4.138472	be gear
-1.431578	be get
-4.43438	be giggle
-2.586152	be give
-4.138472	be glare
-4.43438	be glaze
-1.32198	be go
-3.030176	be gon
-3.570701	be grab
-3.309711	be greet
-2.897925	be grow
-3.147831	be guess
-4.138472	be had.
-4.43438	be haha
-4.43438	be hail
-4.138472	be hand
-3.570701	be handle
-2.645663	be hang
-2.937695	be happen
-4.43438	be hasn
-3.570701	be hate
-1.219143	be have
-2.228114	be head
-2.667461	be hear
-2.981478	be help
-4.43438	be herd
-4.138472	be here
-3.801271	be hide
-3.570701	be highlight
-2.33859	be hike
-2.645663	be hit
-2.714642	be hold
-3.801271	be hook
-4.43438	be hop
-2.714642	be hope
-4.43438	be host
-4.43438	be hover
-4.43438	be howl
-4.43438	be huddle
-4.138472	be hug
-4.43438	be huh
-3.030176	be hurt
-4.138472	be i
-4.43438	be identify
-4.138472	be ignore
-3.085031	be imagine
-3.570701	be impress
-4.138472	be improve
-2.796686	be include
-4.43438	be incorporate
-4.43438	be inflate
-3.570701	be inform
-4.138472	be ingrain
-4.138472	be inhabit
-4.138472	be injure
-4.43438	be inquire
-4.138472	be inspire
-4.43438	be insulate
-4.138472	be intend
-3.420889	be invite
-3.420889	be involve
-4.138472	be isolate
-2.937695	be it
-4.43438	be jet
-3.309711	be join
-4.43438	be joke
-4.43438	be judge
-4.138472	be jumble
-3.420889	be jump
-4.43438	be kayake
-2.406538	be keep
-4.138472	be kick
-3.420889	be kid
-3.570701	be kill
-4.43438	be kinda
-4.43438	be kit
-4.43438	be knock
-2.279849	be know
-3.801271	be land
-4.138472	be lash
-3.801271	be last
-3.801271	be laugh
-3.801271	be launch
-3.801271	be lay
-3.420889	be lead
-3.570701	be leak
-3.030176	be learn
-2.024282	be leave
-4.43438	be lend
-2.472612	be let
-3.801271	be lie
-4.43438	be lift
-4.138472	be light
-4.43438	be lighten
-2.586152	be like
-3.309711	be limit
-4.43438	be line
-3.570701	be listen
-2.937695	be live
-2.981478	be load
-3.420889	be lodge
-4.43438	be log
-2.019228	be look
-3.801271	be loom
-3.085031	be lose
-2.714642	be love
-4.43438	be lower
-4.43438	be maintain
-1.871563	be make
-2.937695	be manage
-3.801271	be mark
-3.570701	be marry
-4.138472	be mash
-4.43438	be match
-2.827881	be mean
-3.801271	be meander
-3.801271	be measure
-2.740306	be meet
-3.801271	be melt
-3.801271	be mention
-4.43438	be mind
-2.897925	be miss
-4.138472	be mob
-3.085031	be move
-4.138472	be mow
-4.43438	be murder
-3.570701	be name
-3.801271	be nap
-4.138472	be navigate
-3.570701	be near
-2.533822	be need
-4.43438	be neglect
-3.801271	be nestle
-3.309711	be note
-3.570701	be notice
-3.801271	be observe
-4.43438	be obsess
-4.43438	be occupy
-3.420889	be offer
-3.085031	be open
-3.420889	be operate
-4.138472	be opt
-4.43438	be order
-3.420889	be organize
-4.43438	be originate
-4.138472	be overcome
-4.43438	be overtake
-3.801271	be own
-2.487125	be pack
-3.309711	be paddle
-4.138472	be pant
-3.801271	be parallel
-3.570701	be park
-4.43438	be participate
-2.714642	be pass
-4.43438	be paste
-3.570701	be pave
-3.221272	be pay
-3.801271	be pee
-4.138472	be peg
-4.43438	be perceive
-4.43438	be perch
-4.43438	be perk
-4.138472	be permit
-4.43438	be persist
-3.030176	be pick
-3.801271	be pile
-4.43438	be pill
-4.43438	be pine
-3.420889	be piss
-4.138472	be pitch
-3.420889	be place
-4.43438	be plague
-2.605097	be plan
-2.667461	be play
-3.309711	be please
-4.43438	be plunge
-4.43438	be point
-4.138472	be poke
-4.43438	be pop
-2.937695	be post
-3.570701	be pour
-4.43438	be practice
-3.570701	be pray
-4.43438	be prefer
-2.714642	be prepare
-4.43438	be pretend
-4.138472	be proceed
-4.138472	be process
-4.43438	be progress
-4.43438	be promise
-4.138472	be prompt
-4.43438	be prop
-4.138472	be protect
-4.138472	be prove
-3.570701	be provide
-4.43438	be psych
-4.43438	be publish
-2.740306	be pull
-3.801271	be pump
-4.138472	be punch
-4.43438	be punctuate
-4.138472	be purchase
-4.43438	be pursue
-3.085031	be push
-2.517692	be put
-4.43438	be qualify
-4.138472	be question
-4.43438	be quiet
-4.43438	be quit
-3.309711	be race
-4.43438	be rack
-2.50214	be rain
-3.570701	be raise
-3.801271	be rate
-4.138472	be re-do
-2.897925	be reach
-2.897925	be read
-4.43438	be realise
-2.861493	be realize
-4.43438	be recall
-4.43438	be recharge
-4.43438	be recognize
-4.138472	be recommend
-4.43438	be record
-3.801271	be recover
-3.420889	be reflect
-4.43438	be refresh
-3.801271	be refuse
-2.861493	be relax
-4.43438	be release
-3.420889	be relieve
-4.43438	be remain
-3.030176	be remember
-3.420889	be remind
-4.138472	be remove
-3.801271	be rent
-4.138472	be replace
-4.138472	be report
-4.138472	be repusle
-4.43438	be require
-4.138472	be research
-4.43438	be reserve
-4.43438	be resist
-4.43438	be respond
-3.570701	be rest
-4.43438	be resume
-3.801271	be retire
-4.138472	be retreat
-3.147831	be return
-3.801271	be reward
-2.550575	be ride
-4.43438	be rinse
-3.801271	be rip
-3.570701	be rise
-4.43438	be risk
-4.43438	be rob
-4.43438	be rock
-2.981478	be roll
-3.801271	be rough
-3.801271	be rub
-4.138472	be ruin
-2.382688	be run
-3.570701	be rush
-4.138472	be s'more
-4.138472	be sail
-4.43438	be salvage
-3.801271	be satisfy
-3.420889	be save
-4.43438	be saw
-2.108137	be say
-4.43438	be scan
-3.030176	be scare
-3.801271	be scatter
-4.138472	be schedule
-4.43438	be scoop
-4.43438	be scorch
-4.43438	be scramble
-3.420889	be scream
-4.138472	be search
-4.138472	be seat
-1.799247	be see
-4.138472	be seek
-2.605097	be seem
-4.43438	be seep
-3.570701	be sell
-3.420889	be send
-4.138472	be separate
-4.138472	be serve
-2.253212	be set
-3.085031	be settle
-3.570701	be shake
-3.085031	be share
-3.420889	be shine
-3.801271	be shock
-3.801271	be shoot
-4.138472	be shoulder
-4.43438	be shout
-2.981478	be show
-3.801271	be shower
-4.43438	be shroud
-4.43438	be shut
-4.43438	be sift
-3.801271	be sign
-4.43438	be signal
-3.801271	be sing
-4.43438	be sink
-2.279849	be sit
-4.43438	be size
-3.801271	be skip
-3.801271	be slant
-2.174645	be sleep
-4.43438	be slide
-4.43438	be slip
-4.43438	be slog
-4.138472	be slow
-4.43438	be smell
-3.570701	be smile
-4.138472	be snap
-4.43438	be snatch
-4.43438	be snore
-3.801271	be snorkel
-3.309711	be snorkele
-4.138472	be snow
-4.43438	be snuff
-4.43438	be snuggle
-3.221272	be soak
-4.43438	be sort
-3.147831	be sound
-4.43438	be space
-3.420889	be speak
-4.43438	be speed
-4.43438	be spell
-2.318114	be spend
-4.43438	be splash
-4.43438	be splatter
-4.43438	be split
-4.43438	be spoil
-4.138472	be spook
-3.085031	be spot
-3.801271	be spread
-4.43438	be sprinkle
-4.43438	be squat
-4.138472	be staff
-4.43438	be stake
-4.43438	be stall
-2.767581	be stand
-3.801271	be stare
-2.055909	be start
-4.43438	be startle
-4.43438	be state
-2.382688	be stay
-4.43438	be steal
-4.138472	be step
-2.740306	be stick
-4.138472	be sting
-3.570701	be stink
-4.43438	be stone
-2.406538	be stop
-4.43438	be strangle
-4.43438	be strap
-3.420889	be stress
-3.801271	be stretch
-4.43438	be strew
-4.138472	be strike
-4.43438	be string
-4.138472	be stroll
-3.801271	be struggle
-4.138472	be stuff
-3.801271	be stumble
-3.801271	be submerge
-4.43438	be submit
-4.43438	be suck
-4.138472	be suggest
-3.801271	be suit
-4.43438	be supply
-4.138472	be support
-2.431775	be suppose
-2.827881	be surprise
-3.309711	be surround
-4.43438	be survive
-4.43438	be suspend
-4.43438	be swap
-4.43438	be swarm
-4.43438	be swat
-4.43438	be swear
-4.43438	be sweep
-2.667461	be swim
-4.138472	be swing
-4.43438	be tackle
-1.843853	be take
-2.645663	be talk
-4.43438	be tan
-4.43438	be tangle
-4.138472	be taste
-4.138472	be teach
-4.43438	be tear
-4.43438	be teem
-2.244684	be tell
-4.138472	be tend
-3.801271	be terrify
-4.138472	be test
-4.138472	be test-drive
-3.570701	be thank
-3.801271	be that
-4.43438	be they
-2.114348	be think
-4.43438	be threaten
-3.309711	be thrill
-3.085031	be throw
-4.138472	be tick
-3.420889	be tie
-4.43438	be tighten
-4.43438	be tip
-2.714642	be tire
-4.138472	be toast
-3.801271	be top
-4.43438	be torment
-4.138472	be toss
-4.43438	be touch
-3.801271	be tow
-2.937695	be trail
-3.801271	be train
-4.138472	be trap
-2.981478	be travel
-4.43438	be traverse
-3.420889	be treat
-4.138472	be trek
-3.801271	be trust
-2.26191	be try
-4.43438	be tuck
-4.43438	be tumble
-2.444965	be turn
-4.138472	be twist
-3.570701	be understand
-4.43438	be unhook
-4.138472	be unload
-3.801271	be unplug
-3.570701	be update
-3.570701	be upload
-4.138472	be upset
-2.533822	be use
-4.43438	be venture
-4.43438	be view
-3.085031	be visit
-4.43438	be vomit
-2.444965	be wait
-2.487125	be wake
-4.43438	be waken
-2.328232	be walk
-3.420889	be wander
-2.212154	be want
-4.43438	be warm
-3.570701	be warn
-4.138472	be was
-4.43438	be was.
-3.309711	be wash
-2.861493	be wasn
-4.138472	be waste
-2.714642	be watch
-3.147831	be we
-2.861493	be wear
-4.138472	be welcome
-3.570701	be weren
-4.138472	be werent
-4.43438	be whisper
-4.43438	be who
-3.147831	be win
-4.138472	be win.
-4.43438	be wind
-3.801271	be wipe
-3.030176	be wish
-4.43438	be witness
-4.43438	be won
-2.981478	be wonder
-2.533822	be work
-2.714642	be worry
-3.801271	be wouldn
-3.570701	be wrap
-4.43438	be wreck
-3.570701	be write
-4.43438	be yeah
-4.138472	be yell
-3.420889	be you
-4.43438	be zip
-4.43438	be zoom
-0.7795299	beach give
-0.7795299	beach start
-0.9556212	beam be
-0.9556212	beam beat
-0.9556212	beam run
-1.557681	bear <unk>
-0.6940026	bear be
-1.261773	bear do
-1.261773	bear have
-1.557681	bear raise
-1.557681	bear strap
-1.557681	bear wake
-1.4785	beat </s>
-1.182592	beat be
-1.4785	beat do
-1.182592	beat go
-1.182592	beat have
-1.4785	beat leave
-1.4785	beat push
-1.286919	become <unk>
-0.7463935	become be
-2.150598	become become
-2.150598	become decide
-2.150598	become do
-1.85469	become drive
-2.150598	become eat
-2.150598	become enjoy
-2.150598	become find
-2.150598	become go
-1.85469	become handle
-1.286919	become have
-2.150598	become it
-2.150598	become keep
-2.150598	become look
-2.150598	become make
-2.150598	become move
-2.150598	become obsess
-2.150598	become pick
-2.150598	become run
-2.150598	become say
-1.85469	become see
-2.150598	become slip
-1.286919	become take
-2.150598	become think
-2.150598	become wear
-0.7795299	befriend become
-0.7795299	befriend join
-0.5443609	beg go
-1.17747	beg realize
-1.17747	beg rise
-2.347732	begin <unk>
-0.9983827	begin be
-2.347732	begin build
-2.347732	begin change
-2.347732	begin clear
-2.347732	begin cloud
-2.051824	begin come
-2.347732	begin complain
-2.347732	begin cry
-2.347732	begin do
-2.347732	begin don
-2.347732	begin drop
-2.347732	begin explore
-2.347732	begin feel
-2.347732	begin follow
-2.051824	begin get
-2.347732	begin give
-2.347732	begin go
-2.347732	begin have
-2.347732	begin help
-2.347732	begin hike
-2.347732	begin hurt
-2.347732	begin identify
-2.347732	begin imagine
-2.347732	begin know
-2.051824	begin look
-2.347732	begin lose
-2.051824	begin make
-2.347732	begin mention
-2.347732	begin pack
-2.051824	begin pound
-1.714623	begin pour
-2.051824	begin prep
-2.347732	begin put
-1.334241	begin rain
-2.347732	begin recognize
-2.347732	begin rumble
-2.051824	begin see
-1.714623	begin set
-2.347732	begin sleep
-2.347732	begin start
-2.347732	begin stop
-2.347732	begin take
-1.714623	begin think
-2.347732	begin unload
-2.347732	begin wonder
-1.714623	begin worry
-1.256651	behave </s>
-0.960743	behave be
-1.256651	behave do
-1.256651	behave expect
-1.256651	behave let
-0.960743	behold build
-0.960743	behold rain
-0.960743	behold take
-2.022568	believe afford
-0.4861127	believe be
-2.022568	believe do
-2.022568	believe enter
-2.022568	believe get
-2.022568	believe greet
-2.022568	believe happen
-0.8094596	believe have
-2.022568	believe i
-2.022568	believe kick
-2.022568	believe know
-2.022568	believe look
-2.022568	believe see
-2.022568	believe seem
-2.022568	believe sound
-2.022568	believe think
-2.022568	believe turn
-1.17747	belong arrive
-0.5443609	belong be
-1.17747	belong have
-1.08056	bend camp
-1.08056	bend gain
-1.08056	bend get
-1.08056	bend have
-0.9556212	bet be
-0.9556212	bet do
-0.9556212	bet tell
-0.4836218	bike see
-0.7795299	bind do
-0.7795299	bind get
-0.7795299	bird be
-0.7795299	bird drive
-0.893575	bite be
-1.757254	bite bite
-1.757254	bite chew
-1.757254	bite get
-1.757254	bite gobble
-1.461345	bite hang
-0.893575	bite have
-1.757254	bite kick
-1.757254	bite pack
-1.757254	bite promise
-1.757254	bite skip
-1.757254	bite take
-0.7795299	blag be
-0.7795299	blag work
-0.4836218	blame be
-0.4836218	blare be
-1.08056	blast <unk>
-1.08056	blast bark
-1.08056	blast dive
-1.08056	blast hurt
-1.323598	blaze <unk>
-1.323598	blaze be
-1.02769	blaze have
-1.323598	blaze ride
-1.02769	blaze speak
-0.7795299	bleed cook
-0.7795299	bleed hike
-1.17747	blend be
-1.17747	blend blend
-1.17747	blend do
-0.8815618	blend finish
-1.4785	bless </s>
-0.8453909	bless be
-1.4785	bless get
-1.4785	bless have
-1.4785	bless keep
-1.4785	bless look
-1.4785	bless stop
-1.4785	bless that
-0.8815618	block be
-1.17747	block go
-1.17747	block have
-1.17747	block join
-0.9556212	blogg fly
-0.9556212	blogg ride
-0.9556212	blogg think
-0.4836218	bloom be
-0.6606299	blow be
-2.009979	blow bury
-2.009979	blow carry
-2.009979	blow crash
-2.009979	blow descend
-2.009979	blow do
-2.009979	blow get
-1.1463	blow have
-2.009979	blow help
-2.009979	blow keep
-2.009979	blow move
-2.009979	blow pop
-2.009979	blow rain
-2.009979	blow record
-2.009979	blow see
-1.714071	blow spread
-2.009979	blow start
-2.009979	blow stop
-2.009979	blow wake
-1.37687	blow whistle
-0.6904889	board be
-1.323598	board buzz
-1.323598	board head
-1.323598	board love
-1.323598	board spare
-0.4836218	boast be
-0.7795299	boat eat
-0.7795299	boat get
-0.7795299	bob <unk>
-0.7795299	bob be
-1.256651	boil hoist
-1.256651	boil joke
-1.256651	boil pick
-1.256651	boil use
-1.256651	boil wash
-1.256651	boil we
-1.54432	book <unk>
-0.7155586	book be
-1.840228	book buy
-1.840228	book drive
-1.840228	book follow
-1.840228	book have
-1.840228	book keep
-1.840228	book know
-1.840228	book order
-1.840228	book remind
-1.840228	book search
-1.840228	book sleep
-1.54432	book spend
-1.840228	book start
-1.840228	book stay
-1.840228	book work
-1.08056	border buy
-0.7846518	border come
-1.08056	border find
-1.432742	bore <unk>
-0.7996334	bore be
-1.432742	bore do
-1.432742	bore figure
-1.136834	bore need
-1.432742	bore read
-0.6235422	borrow be
-0.960743	borrow have
-1.256651	borrow spend
-1.654591	bother arrive
-1.358683	bother be
-1.654591	bother didn
-1.654591	bother freak
-1.021482	bother get
-1.358683	bother hadn
-1.654591	bother know
-1.654591	bother leave
-1.654591	bother sit
-1.654591	bother walk
-1.654591	bother we
-1.02769	bounce be
-1.02769	bounce drive
-1.323598	bounce drown
-1.323598	bounce end
-1.323598	bounce kick
-0.9556212	bowl be
-0.9556212	bowl share
-0.9556212	bowl want
-1.432742	brave brave
-1.432742	brave float
-0.7996334	brave go
-1.432742	brave love
-1.432742	brave make
-1.432742	brave pack
-1.432742	brave stand
-1.863833	break <unk>
-0.4656669	break be
-2.159741	break bite
-2.159741	break board
-1.863833	break camp
-2.159741	break cut
-2.159741	break do
-2.159741	break drive
-1.863833	break get
-1.863833	break go
-1.296063	break have
-2.159741	break know
-2.159741	break pause
-2.159741	break pour
-1.863833	break receive
-1.863833	break recover
-2.159741	break ride
-2.159741	break scatter
-2.159741	break soar
-2.159741	break take
-2.159741	break think
-2.159741	break walk
-0.4836218	breakfast have
-1.124145	breathe be
-1.757254	breathe believe
-1.461345	breathe can
-1.757254	breathe check
-1.461345	breathe hammer
-1.461345	breathe have
-1.757254	breathe manage
-1.757254	breathe mention
-1.757254	breathe spot
-1.757254	breathe start
-1.757254	breathe stay
-1.757254	breathe stop
-1.757254	breathe take
-1.757254	breathe tell
-0.7846518	brew drive
-1.08056	brew hit
-1.08056	brew make
-1.858228	bring <unk>
-2.491337	bring accompany
-2.491337	bring accord
-2.491337	bring add
-2.491337	bring along.
-0.7972629	bring be
-2.491337	bring bowl
-2.195429	bring bring
-2.491337	bring brush
-2.491337	bring camp
-2.491337	bring come
-2.195429	bring cook
-2.491337	bring crack
-2.491337	bring didn
-2.491337	bring discover
-1.858228	bring do
-2.491337	bring doesn
-2.491337	bring drive
-2.491337	bring eat
-2.491337	bring enjoy
-2.195429	bring fill
-2.491337	bring find
-1.627659	bring get
-1.858228	bring go
-2.491337	bring hand
-1.038436	bring have
-2.491337	bring head
-2.195429	bring hike
-2.491337	bring it
-2.491337	bring leave
-2.491337	bring lend
-2.491337	bring like
-2.491337	bring look
-2.491337	bring love
-1.627659	bring make
-2.491337	bring need
-2.491337	bring persist
-2.491337	bring plan
-2.491337	bring produce
-2.491337	bring remain
-2.491337	bring search
-2.491337	bring see
-2.195429	bring set
-2.195429	bring settle
-2.491337	bring sleep
-2.195429	bring start
-2.491337	bring stir
-2.491337	bring tell
-2.195429	bring think
-2.491337	bring use
-2.491337	bring wake
-2.491337	bring wash
-2.195429	bring we
-2.491337	bring wonder
-2.491337	bring work
-1.08056	brush get
-1.08056	brush head
-1.08056	brush leave
-1.08056	brush take
-0.7795299	buck <unk>
-0.7795299	buck do
-1.863833	build <unk>
-0.5532426	build be
-2.159741	build blend
-2.159741	build build
-2.159741	build chase
-2.159741	build didn
-1.863833	build eat
-2.159741	build feel
-2.159741	build find
-2.159741	build haul
-1.035072	build have
-1.863833	build make
-2.159741	build need
-2.159741	build prepare
-2.159741	build say
-2.159741	build shine
-1.526632	build sit
-2.159741	build spend
-2.159741	build start
-2.159741	build trail
-1.863833	build use
-1.863833	build wait
-0.7795299	bump kick
-0.7795299	bump note
-0.9556212	bundle break
-0.659713	bundle sleep
-0.7795299	bunk !!
-0.7795299	bunk have
-0.4836218	burly drive
-0.7660388	burn be
-1.77953	burn burn
-1.77953	burn do
-1.146421	burn get
-1.77953	burn have
-1.77953	burn luck
-1.77953	burn need
-1.77953	burn pack
-1.77953	burn plan
-1.77953	burn provide
-1.77953	burn seem
-1.77953	burn start
-1.77953	burn stop
-1.77953	burn warm
-1.17747	bury be
-1.17747	bury have
-1.17747	bury let
-1.17747	bury shout
-1.17747	bury tear
-0.659713	bushwack enjoy
-0.9556212	bushwack smoke
-2.347732	buy </s>
-2.051824	buy <unk>
-0.6809331	buy be
-2.347732	buy call
-1.714623	buy come
-2.347732	buy contain
-2.347732	buy cross
-2.051824	buy do
-2.347732	buy don
-2.051824	buy drive
-2.347732	buy eat
-2.347732	buy end
-2.347732	buy enjoy
-2.347732	buy feed
-1.334241	buy get
-2.051824	buy go
-2.347732	buy hadn
-1.223063	buy have
-2.347732	buy havent
-2.051824	buy head
-2.347732	buy hike
-2.347732	buy listen
-2.347732	buy live
-2.347732	buy love
-2.051824	buy make
-2.347732	buy pack
-2.347732	buy replace
-2.347732	buy resume
-2.347732	buy rough
-2.347732	buy sleep
-2.347732	buy start
-2.347732	buy stay
-2.051824	buy take
-2.347732	buy tie
-2.347732	buy try
-2.051824	buy use
-2.051824	buy want
-2.347732	buy wish
-0.9556212	buzz be
-0.659713	buzz get
-0.7795299	bypass <unk>
-0.7795299	bypass work
-2.633836	call </s>
-2.633836	call <unk>
-2.633836	call arrange
-2.633836	call arrive
-2.000727	call ask
-0.6312307	call be
-2.633836	call begin
-2.633836	call bring
-1.770157	call call
-2.633836	call carry
-2.633836	call change
-2.633836	call check
-1.770157	call come
-2.633836	call consist
-2.633836	call cross
-2.000727	call decide
-1.770157	call do
-2.337928	call drive
-2.633836	call end
-2.633836	call fall
-2.633836	call find
-2.633836	call flow
-2.633836	call fly
-2.633836	call follow
-1.620345	call get
-2.000727	call go
-1.097381	call have
-2.633836	call head
-2.633836	call hike
-2.633836	call inquire
-2.633836	call it
-2.633836	call leave
-2.633836	call live
-2.337928	call look
-2.633836	call love
-2.633836	call make
-2.633836	call need
-2.633836	call negotiate
-2.633836	call offer
-2.633836	call order
-2.337928	call pull
-2.633836	call punctuate
-2.337928	call quit
-2.633836	call recommend
-2.633836	call reply
-2.337928	call satisfy
-1.620345	call say
-2.337928	call scream
-2.337928	call see
-2.633836	call sell
-2.633836	call shoot
-2.633836	call sit
-2.337928	call sleep
-2.633836	call start
-2.633836	call swirl
-2.633836	call tease
-2.000727	call tell
-2.633836	call trash
-2.633836	call turn
-2.633836	call twist
-2.633836	call wait
-2.633836	call wake
-2.633836	call work
-2.633836	call write
-1.432742	calm be
-1.136834	calm fall
-1.432742	calm figure
-1.432742	calm get
-1.432742	calm sleep
-1.432742	calm spend
-1.136834	calm tell
-0.4836218	came find
-2.375716	camp </s>
-2.671624	camp <unk>
-2.375716	camp arrive
-2.038516	camp ask
-2.671624	camp backpack
-0.5170934	camp be
-2.671624	camp become
-2.671624	camp bird
-2.671624	camp call
-2.671624	camp choose
-2.375716	camp clean
-2.671624	camp consider
-2.671624	camp count
-2.671624	camp cross
-2.671624	camp decide
-2.671624	camp declare
-2.375716	camp didn
-1.658133	camp do
-2.375716	camp do.
-2.671624	camp don
-2.671624	camp drive
-2.671624	camp end
-1.385075	camp get
-1.385075	camp go
-2.375716	camp guess
-2.671624	camp hate
-1.17494	camp have
-2.671624	camp head
-1.807946	camp hike
-2.671624	camp imagine
-2.671624	camp invite
-2.375716	camp knit
-1.807946	camp make
-2.671624	camp mean
-2.671624	camp own
-2.375716	camp pack
-2.671624	camp pass
-2.671624	camp plan
-2.671624	camp practice
-2.375716	camp present
-2.038516	camp rent
-2.671624	camp say
-2.375716	camp see
-2.671624	camp start
-2.671624	camp stay
-2.038516	camp stop
-2.671624	camp strike
-2.671624	camp suggest
-2.671624	camp take
-2.375716	camp think
-2.375716	camp try
-2.375716	camp turn
-2.671624	camp wake
-2.671624	camp wish
-0.9556212	campground have
-0.9556212	campground load
-0.9556212	campground notice
-1.820923	can </s>
-1.525015	can be
-1.525015	can breathe
-1.820923	can can
-1.820923	can continue
-1.525015	can get
-1.820923	can go
-1.525015	can insist
-1.820923	can mention
-1.820923	can roast
-1.525015	can say
-1.525015	can see
-1.525015	can tell
-1.820923	can think
-1.820923	can wash
-0.7484809	cancel be
-1.38159	cancel dive
-1.085682	cancel have
-1.38159	cancel let
-1.38159	cancel visit
-1.17747	canoe go
-1.17747	canoe pull
-1.17747	canoe reach
-1.17747	canoe recover
-1.17747	canoe stop
-0.9556212	cant find
-0.659713	cant have
-1.08056	capture </s>
-1.08056	capture be
-1.08056	capture continue
-1.08056	capture get
-0.5579508	care be
-1.68262	care do
-1.68262	care fill
-1.68262	care go
-1.68262	care hear
-1.68262	care keep
-1.386712	care say
-1.68262	care take
-1.386712	care travel
-2.194503	carry <unk>
-1.898595	carry balk
-0.6978186	carry be
-2.194503	carry board
-1.898595	carry catch
-2.194503	carry couldn
-2.194503	carry crack
-2.194503	carry decide
-1.330825	carry do
-2.194503	carry explore
-2.194503	carry go
-1.069834	carry have
-2.194503	carry learn
-2.194503	carry like
-1.898595	carry make
-2.194503	carry realize
-2.194503	carry round
-2.194503	carry run
-2.194503	carry seem
-1.330825	carry sleep
-1.898595	carry start
-2.194503	carry thank
-2.194503	carry think
-2.194503	carry turn
-1.898595	carry we
-0.7795299	cart be
-0.7795299	cart start
-0.7795299	cast know
-0.7795299	cast return
-2.412998	catch <unk>
-2.412998	catch arrive
-0.6242809	catch be
-2.412998	catch believe
-2.412998	catch blow
-2.412998	catch buy
-2.412998	catch capture
-2.412998	catch continue
-2.412998	catch cook
-2.412998	catch didn
-2.412998	catch disappear
-1.399507	catch do
-2.412998	catch drive
-2.412998	catch end
-2.412998	catch feel
-2.412998	catch find
-2.412998	catch fly
-1.19989	catch get
-1.779889	catch go
-2.412998	catch grab
-1.54932	catch have
-2.412998	catch head
-2.11709	catch hike
-2.412998	catch hit
-2.11709	catch look
-2.412998	catch make
-2.412998	catch manage
-2.412998	catch miss
-2.412998	catch part
-2.412998	catch practise
-2.412998	catch purchase
-2.412998	catch reach
-2.412998	catch recover
-2.11709	catch return
-2.412998	catch say
-1.779889	catch see
-2.412998	catch stay
-2.11709	catch sting
-2.11709	catch stop
-2.412998	catch tell
-2.11709	catch tube
-2.412998	catch wake
-0.4715737	cause be
-1.820923	cause decide
-1.820923	cause fail
-1.820923	cause find
-0.8074315	cause have
-1.820923	cause miss
-1.820923	cause push
-1.820923	cause seem
-1.820923	cause step
-1.820923	cause stop
-0.659713	cease amaze
-0.9556212	cease be
-0.5179114	celebrate be
-1.38159	celebrate feel
-1.38159	celebrate have
-1.38159	celebrate head
-1.38159	celebrate take
-0.9556212	certify do
-0.9556212	certify have
-0.9556212	certify snorkele
-0.7795299	challenge be
-0.7795299	challenge swim
-1.835804	change <unk>
-2.131712	change add
-2.131712	change appear
-0.918604	change be
-2.131712	change breathe
-2.131712	change change
-2.131712	change create
-2.131712	change decide
-1.268034	change do
-2.131712	change drop
-2.131712	change dry
-2.131712	change end
-1.498603	change get
-1.835804	change go
-2.131712	change grab
-1.835804	change have
-1.835804	change head
-2.131712	change hit
-1.498603	change make
-2.131712	change miss
-2.131712	change put
-2.131712	change quiet
-2.131712	change sound
-1.835804	change start
-2.131712	change take
-2.131712	change try
-2.131712	change want
-0.7795299	char recommend
-0.7795299	char wasn
-0.8815618	charge be
-1.17747	charge rent
-1.17747	charge think
-1.17747	charge throw
-1.323598	chase </s>
-1.323598	chase imagine
-1.323598	chase listen
-1.323598	chase make
-1.323598	chase prepare
-1.323598	chase show
-1.323598	chase start
-1.68262	chat appreciate
-1.68262	chat assume
-1.386712	chat be
-1.68262	chat begin
-1.68262	chat catch
-1.68262	chat chill
-1.68262	chat drink
-1.68262	chat get
-1.68262	chat look
-1.68262	chat make
-1.68262	chat remember
-1.68262	chat sing
-1.68262	chat take
-1.68262	chat talk
-1.68262	chat tell
-2.503806	check </s>
-1.870697	check ask
-0.603248	check be
-2.503806	check break
-2.207898	check came
-2.503806	check catch
-2.503806	check check
-2.503806	check click
-1.870697	check come
-2.503806	check cruise
-2.207898	check decide
-2.503806	check descend
-2.207898	check desert
-2.503806	check didn
-1.870697	check do
-2.503806	check drag
-2.207898	check drive
-2.503806	check find
-2.503806	check flip
-1.217256	check get
-2.207898	check go
-1.640127	check have
-1.870697	check head
-2.503806	check inform
-2.503806	check know
-2.503806	check leave
-2.503806	check load
-2.503806	check lodge
-2.503806	check look
-2.207898	check make
-2.503806	check meet
-2.503806	check miss
-2.503806	check own
-2.503806	check press
-2.503806	check pull
-2.503806	check read
-2.503806	check rent
-2.503806	check rest
-2.503806	check return
-2.503806	check run
-1.870697	check say
-1.870697	check see
-2.503806	check set
-2.503806	check stare
-2.503806	check start
-2.503806	check step
-2.207898	check take
-1.870697	check tell
-0.7795299	cherish feel
-0.7795299	cherish have
-1.256651	chew be
-1.256651	chew make
-0.960743	chew pine
-1.256651	chew run
-1.256651	chew take
-1.519893	chill </s>
-1.223984	chill be
-1.519893	chill camp
-1.519893	chill find
-1.519893	chill get
-0.8867836	chill go
-1.519893	chill make
-1.519893	chill start
-0.4836218	chillin relaxin
-1.733772	choose appear
-1.733772	choose base
-1.100663	choose be
-1.733772	choose bunk
-1.733772	choose cross
-1.733772	choose end
-1.437864	choose have
-1.437864	choose hike
-1.733772	choose ignore
-1.733772	choose look
-1.733772	choose make
-1.733772	choose run
-1.437864	choose scream
-1.08056	chop <unk>
-1.08056	chop go
-0.7846518	chop have
-0.7795299	chuckle call
-0.7795299	chuckle do
-0.7795299	circle land
-0.7795299	circle make
-1.17747	claim <unk>
-0.8815618	claim be
-1.17747	claim face
-1.17747	claim go
-1.08056	clamber be
-1.08056	clamber have
-1.08056	clamber look
-1.08056	clamber touch
-0.4836218	clap drive
-1.401693	clean <unk>
-0.821694	clean be
-2.034802	clean climb
-2.034802	clean eat
-1.738894	clean everyone
-2.034802	clean fill
-2.034802	clean follow
-2.034802	clean forget
-2.034802	clean get
-2.034802	clean go
-1.021311	clean have
-1.738894	clean head
-2.034802	clean kick
-2.034802	clean make
-1.738894	clean poke
-2.034802	clean remove
-2.034802	clean run
-2.034802	clean splatter
-2.034802	clean take
-2.034802	clean use
-2.034802	clean walk
-0.7795299	cleanse be
-0.7795299	cleanse sleep
-1.925658	clear <unk>
-1.62975	clear arrive
-0.9121668	clear be
-1.925658	clear couldnt
-1.925658	clear do
-1.925658	clear doesn
-1.925658	clear go
-1.292549	clear have
-1.925658	clear hide
-1.925658	clear impose
-1.925658	clear lead
-1.62975	clear leave
-1.925658	clear let
-1.62975	clear see
-1.925658	clear spend
-1.925658	clear stay
-1.925658	clear take
-1.925658	clear turn
-1.925658	clear walk
-0.6904889	click </s>
-1.323598	click <unk>
-1.323598	click see
-1.323598	click shut
-1.323598	click view
-2.311009	climb <unk>
-2.311009	climb average
-0.5912711	climb be
-2.311009	climb believe
-2.311009	climb clamber
-2.311009	climb come
-2.311009	climb didn
-2.311009	climb drive
-2.311009	climb emerge
-2.311009	climb fall
-2.015101	climb feel
-2.311009	climb follow
-1.6779	climb get
-2.311009	climb give
-1.6779	climb go
-2.015101	climb have
-1.6779	climb look
-2.311009	climb lower
-2.015101	climb make
-2.311009	climb mount
-2.015101	climb play
-2.311009	climb promote
-2.311009	climb prop
-2.311009	climb pull
-2.311009	climb reach
-2.311009	climb rent
-2.311009	climb result
-2.311009	climb see
-2.311009	climb seem
-2.311009	climb show
-2.311009	climb sit
-2.311009	climb sleep
-2.311009	climb slide
-2.311009	climb slip
-2.015101	climb wake
-2.311009	climb warn
-2.311009	climb wasn
-2.015101	climb watch
-0.9556212	cling be
-0.9556212	cling keep
-0.9556212	cling want
-0.7795299	clock be
-0.7795299	clock work
-2.101749	close <unk>
-1.805841	close allow
-0.4952506	close be
-2.101749	close consult
-2.101749	close continue
-2.101749	close decide
-2.101749	close do
-2.101749	close doesn
-1.805841	close get
-2.101749	close give
-2.101749	close go
-1.088258	close have
-2.101749	close hear
-2.101749	close help
-2.101749	close hit
-2.101749	close make
-2.101749	close poke
-2.101749	close run
-1.805841	close seem
-2.101749	close take
-2.101749	close turn
-0.659713	cloud be
-0.9556212	cloud clear
-0.9556212	coat be
-0.9556212	coat make
-0.9556212	coat take
-0.7795299	coax eat
-0.7795299	coax sleep
-1.323598	collapse be
-1.323598	collapse climb
-1.323598	collapse go
-1.323598	collapse load
-1.323598	collapse look
-1.323598	collapse support
-1.323598	collapse unhook
-0.5443609	collect be
-1.17747	collect drop
-1.17747	collect let
-0.7795299	collide throw
-0.7795299	collide watch
-1.849723	come </s>
-1.658627	come <unk>
-3.062831	come admit
-3.062831	come announce
-3.062831	come appreciate
-2.04934	come ask
-3.062831	come assure
-3.062831	come avoid
-2.766923	come barbeque
-0.6630214	come be
-3.062831	come border
-2.766923	come bring
-3.062831	come buy
-3.062831	come care
-3.062831	come change
-2.199153	come check
-3.062831	come clean
-2.199153	come come
-2.766923	come continue
-3.062831	come cool
-3.062831	come crackle
-3.062831	come cross
-3.062831	come cut
-2.766923	come deal
-3.062831	come desert
-3.062831	come didn
-3.062831	come dine
-3.062831	come disappear
-3.062831	come dive
-1.658627	come do
-2.766923	come drive
-3.062831	come duck
-3.062831	come encourage
-3.062831	come enjoy
-3.062831	come expect
-3.062831	come fall
-3.062831	come feel
-1.938162	come find
-2.766923	come finish
-3.062831	come fire
-3.062831	come fly
-1.425137	come get
-2.429722	come give
-1.776282	come go
-3.062831	come goto
-2.766923	come guess
-3.062831	come hate
-1.115576	come have
-2.429722	come head
-3.062831	come hear
-3.062831	come help
-3.062831	come here
-2.766923	come hold
-2.429722	come include
-3.062831	come it
-2.766923	come join
-3.062831	come jump
-2.766923	come keep
-3.062831	come know
-3.062831	come land
-3.062831	come lead
-3.062831	come lean
-3.062831	come learn
-2.429722	come leave
-2.766923	come let
-3.062831	come like
-3.062831	come live
-2.766923	come load
-2.04934	come look
-2.199153	come make
-3.062831	come manage
-3.062831	come mean
-2.766923	come meet
-3.062831	come mention
-3.062831	come mind
-2.766923	come move
-2.766923	come need
-3.062831	come order
-2.766923	come pick
-3.062831	come pill
-3.062831	come play
-3.062831	come point
-3.062831	come pour
-3.062831	come pray
-3.062831	come prepare
-3.062831	come provide
-3.062831	come pull
-2.429722	come put
-3.062831	come rain
-2.766923	come read
-3.062831	come return
-3.062831	come rip
-2.766923	come roll
-2.04934	come run
-2.199153	come say
-1.938162	come see
-3.062831	come seem
-3.062831	come serve
-2.766923	come set
-3.062831	come snuck
-3.062831	come sort
-3.062831	come spin
-3.062831	come split
-2.04934	come start
-3.062831	come stay
-1.938162	come stop
-2.766923	come strike
-2.766923	come stumble
-2.766923	come suffer
-3.062831	come suggest
-2.766923	come swear
-3.062831	come swirl
-3.062831	come switch
-2.429722	come take
-2.766923	come talk
-3.062831	come tear
-3.062831	come throw
-3.062831	come total
-3.062831	come touch
-3.062831	come turn
-3.062831	come undo
-3.062831	come unload
-3.062831	come upload
-2.199153	come visit
-2.766923	come wait
-2.766923	come wake
-3.062831	come walk
-2.429722	come want
-3.062831	come wasn
-3.062831	come watch
-2.766923	come we
-2.766923	come wear
-3.062831	come whip
-3.062831	come win
-2.766923	come work
-0.3225122	comment be
-0.7795299	commit don
-0.7795299	commit go
-0.659713	commune be
-0.9556212	commune want
-1.256651	communicate be
-1.256651	communicate discover
-0.960743	communicate do
-0.960743	communicate wake
-1.624628	compare <unk>
-0.991519	compare be
-1.624628	compare bring
-1.624628	compare do
-1.32872	compare go
-1.624628	compare occur
-1.624628	compare remember
-1.624628	compare take
-1.624628	compare touch
-1.624628	compare turn
-1.624628	compare want
-0.7795299	compel explain
-0.7795299	compel sit
-0.7795299	compensate be
-0.7795299	compensate lose
-0.7909126	complain be
-1.654591	complain do
-1.654591	complain don
-1.654591	complain fall
-1.654591	complain get
-1.654591	complain have
-1.358683	complain say
-1.654591	complain start
-1.654591	complain tell
-1.358683	complain whine
-1.733772	complete </s>
-0.520664	complete be
-1.733772	complete decide
-1.437864	complete do
-1.733772	complete eat
-1.733772	complete get
-1.733772	complete have
-1.437864	complete learn
-1.733772	complete meet
-1.733772	complete start
-0.659713	comprise find
-0.9556212	comprise run
-0.7846518	concentrate have
-1.08056	concentrate know
-1.08056	concentrate make
-1.02769	concern be
-1.02769	concern get
-1.323598	concern need
-1.323598	concern paddle
-1.323598	concern pass
-0.7795299	conclude be
-0.7795299	conclude begin
-0.7795299	confess ask
-0.7795299	confess have
-0.4474509	confirm be
-1.08056	confirm see
-1.08056	confuse educate
-1.08056	confuse tell
-1.08056	confuse try
-1.08056	confuse wonder
-1.136834	connect <unk>
-0.5690639	connect be
-1.432742	connect end
-1.432742	connect look
-1.432742	connect put
-1.800719	consider attempt
-1.16761	consider be
-1.800719	consider cover
-1.504811	consider do
-1.504811	consider go
-1.16761	consider have
-1.800719	consider like
-1.504811	consider pack
-1.504811	consider start
-1.800719	consider stay
-1.800719	consider take
-1.800719	consider welcome
-1.800719	consider weren
-1.38159	consist cross
-1.38159	consist have
-1.38159	consist hug
-1.38159	consist know
-1.38159	consist make
-1.38159	consist replace
-1.38159	consist serve
-1.38159	consist sit
-0.9556212	construct be
-0.9556212	construct eat
-0.9556212	construct see
-0.9556212	consult be
-0.659713	consult find
-0.659713	consume chew
-0.9556212	consume go
-0.7996334	contain be
-0.7996334	contain have
-1.432742	contain reveal
-1.432742	contain support
-1.432742	contain think
-0.7846518	contemplate cancel
-1.08056	contemplate contain
-1.08056	contemplate question
-0.7795299	contend camp
-0.7795299	contend take
-2.249352	continue </s>
-2.249352	continue arrive
-0.900003	continue be
-2.249352	continue camp
-2.249352	continue check
-2.249352	continue come
-2.249352	continue cross
-2.249352	continue direct
-1.953444	continue do
-1.953444	continue drive
-2.249352	continue end
-2.249352	continue feel
-1.616243	continue find
-2.249352	continue get
-2.249352	continue go
-1.124683	continue have
-1.616243	continue head
-1.953444	continue hit
-2.249352	continue hope
-2.249352	continue inspire
-2.249352	continue make
-2.249352	continue paddle
-2.249352	continue post
-2.249352	continue push
-1.616243	continue reach
-2.249352	continue ride
-2.249352	continue rise
-2.249352	continue run
-2.249352	continue set
-2.249352	continue sleep
-2.249352	continue stop
-2.249352	continue take
-2.249352	continue think
-2.249352	continue travel
-2.249352	continue try
-1.953444	continue turn
-0.7795299	convert draw
-0.7795299	convert have
-1.38159	convince be
-1.085682	convince go
-1.38159	convince join
-1.38159	convince live
-1.38159	convince mention
-1.38159	convince want
-1.38159	convince wear
-1.644732	cook <unk>
-0.7811558	cook be
-2.27784	cook begin
-2.27784	cook bunk
-2.27784	cook come
-1.981932	cook do
-2.27784	cook drive
-2.27784	cook enjoy
-2.27784	cook feel
-2.27784	cook find
-1.981932	cook finish
-2.27784	cook get
-1.644732	cook go
-0.8736362	cook have
-2.27784	cook head
-2.27784	cook hike
-2.27784	cook make
-2.27784	cook need
-2.27784	cook offer
-2.27784	cook poke
-1.981932	cook read
-2.27784	cook relax
-2.27784	cook run
-2.27784	cook scramble
-1.414162	cook see
-2.27784	cook set
-2.27784	cook skip
-2.27784	cook take
-2.27784	cook talk
-2.27784	cook want
-2.27784	cook work
-1.981932	cook worry
-0.8867836	cool be
-1.223984	cool go
-1.519893	cool grab
-1.519893	cool hope
-1.519893	cool make
-1.519893	cool see
-1.519893	cool stay
-1.519893	cool want
-1.17747	cooperate be
-0.5443609	cooperate get
-1.17747	cooperate try
-1.17747	cost be
-1.17747	cost get
-1.17747	cost go
-0.8815618	cost reckon
-0.7795299	could be
-0.7795299	could have
-1.687742	couldn be
-1.687742	couldn believe
-1.98365	couldn bring
-1.98365	couldn deal
-1.119971	couldn do
-1.98365	couldn find
-1.119971	couldn get
-1.98365	couldn hang
-0.9701588	couldn have
-1.687742	couldn hear
-1.98365	couldn keep
-1.98365	couldn make
-1.98365	couldn place
-1.98365	couldn resist
-1.98365	couldn see
-1.98365	couldn take
-1.98365	couldn think
-1.98365	couldn want
-1.98365	couldn wonder
-0.9556212	couldnt build
-0.9556212	couldnt get
-0.9556212	couldnt resist
-0.4958404	count be
-1.708949	count complete
-1.708949	count forget
-1.708949	count gain
-1.708949	count give
-1.708949	count include
-1.413041	count keep
-1.708949	count make
-1.708949	count see
-1.708949	count want
-0.4836218	counter get
-2.111968	cover <unk>
-1.81606	cover absolve
-2.111968	cover arrive
-1.098477	cover be
-2.111968	cover bite
-2.111968	cover bring
-2.111968	cover clean
-2.111968	cover consult
-2.111968	cover cover
-2.111968	cover crawl
-2.111968	cover didn
-2.111968	cover fall
-2.111968	cover figure
-2.111968	cover gain
-2.111968	cover get
-0.9872993	cover have
-2.111968	cover head
-2.111968	cover look
-2.111968	cover make
-2.111968	cover pump
-2.111968	cover put
-1.81606	cover say
-2.111968	cover scorch
-2.111968	cover seem
-1.81606	cover sleep
-2.111968	cover snorkel
-2.111968	cover start
-1.81606	cover stop
-1.81606	cover take
-0.7795299	crack come
-0.7795299	crack open
-0.7795299	crackle play
-0.7795299	crackle see
-1.08056	cram be
-1.08056	cram dump
-1.08056	cram get
-1.08056	cram read
-0.7795299	cramp be
-0.7795299	cramp have
-0.7795299	crap do
-0.7795299	crap have
-1.519893	crash </s>
-1.519893	crash go
-1.223984	crash have
-1.223984	crash head
-1.519893	crash love
-1.519893	crash meet
-1.519893	crash relax
-1.519893	crash send
-1.519893	crash tent
-1.557681	crawl be
-1.557681	crawl decide
-1.557681	crawl feel
-1.261773	crawl get
-1.557681	crawl give
-1.261773	crawl go
-1.557681	crawl move
-1.557681	crawl pose
-1.557681	crawl remove
-1.557681	crawl sleep
-0.9556212	creak get
-0.9556212	creak know
-0.9556212	creak see
-1.32872	create <unk>
-0.7609494	create be
-1.624628	create develop
-1.624628	create hover
-1.624628	create live
-1.624628	create look
-1.624628	create serve
-1.624628	create stir
-1.624628	create think
-1.624628	create visit
-0.9556212	creep be
-0.9556212	creep keep
-0.9556212	creep leave
-0.9556212	crest bring
-0.9556212	crest have
-0.9556212	crest see
-0.7795299	cringe ask
-0.7795299	cringe drive
-2.002136	cross </s>
-2.298044	cross <unk>
-2.298044	cross appear
-0.5783061	cross be
-2.002136	cross camp
-2.298044	cross care
-2.002136	cross continue
-2.298044	cross cross
-2.298044	cross end
-2.002136	cross fall
-2.298044	cross flow
-2.298044	cross follow
-2.002136	cross get
-2.298044	cross give
-2.298044	cross go
-1.011495	cross have
-2.002136	cross head
-2.298044	cross hop
-2.298044	cross know
-2.298044	cross lead
-2.298044	cross meet
-2.298044	cross poke
-2.298044	cross put
-2.298044	cross reach
-2.298044	cross roll
-2.298044	cross see
-2.298044	cross send
-2.298044	cross show
-2.002136	cross start
-2.298044	cross stop
-2.298044	cross take
-2.002136	cross turn
-2.298044	cross visit
-0.5443609	crowd be
-1.17747	crowd expect
-1.17747	crowd like
-1.02769	cruise be
-1.02769	cruise hit
-1.323598	cruise hope
-1.323598	cruise keep
-1.323598	cruise take
-0.9556212	crush be
-0.9556212	crush get
-0.9556212	crush hope
-1.68262	cry arrive
-0.6691288	cry be
-1.386712	cry fall
-1.68262	cry get
-1.386712	cry hate
-1.68262	cry leave
-1.68262	cry love
-1.386712	cry realize
-1.68262	cry tell
-0.9556212	cuddle be
-0.9556212	cuddle hold
-0.9556212	cuddle pack
-0.7795299	curl <unk>
-0.7795299	curl go
-1.893473	cut <unk>
-1.893473	cut accomodate
-1.893473	cut arrive
-0.7688041	cut be
-1.893473	cut depart
-1.893473	cut get
-1.597565	cut go
-1.893473	cut have
-1.893473	cut head
-1.260364	cut make
-1.597565	cut pack
-1.893473	cut plan
-1.893473	cut realize
-1.893473	cut secure
-1.893473	cut stick
-1.893473	cut think
-1.893473	cut toss
-1.08056	dance call
-1.08056	dance celebrate
-1.08056	dance get
-1.08056	dance seem
-0.7795299	dangle ask
-0.7795299	dangle have
-0.7795299	dare be
-0.7795299	dare play
-0.9556212	dart <unk>
-0.9556212	dart quiver
-0.9556212	dart stop
-0.7795299	date be
-0.7795299	date write
-0.7795299	dawn have
-0.7795299	dawn keep
-1.386712	deal <unk>
-1.386712	deal be
-1.68262	deal do
-1.386712	deal dread
-1.386712	deal happen
-1.68262	deal have
-1.68262	deal see
-1.68262	deal sleep
-1.386712	deal stuff/cleaned
-1.386712	deal yell
-0.7795299	debate set
-0.7795299	debate try
-1.819214	decide <unk>
-2.943883	decide ask
-2.647975	decide attempt
-0.9966279	decide be
-2.943883	decide beat
-2.943883	decide bend
-2.080204	decide break
-2.943883	decide build
-2.310774	decide call
-2.647975	decide camp
-2.943883	decide catch
-2.943883	decide change
-2.943883	decide choose
-2.943883	decide clean
-2.080204	decide come
-2.647975	decide cut
-2.943883	decide deserve
-2.080204	decide didn
-1.407428	decide do
-1.730774	decide drive
-1.930392	decide eat
-2.647975	decide find
-2.943883	decide fly
-2.647975	decide follow
-2.080204	decide get
-1.730774	decide give
-0.916041	decide go
-2.943883	decide hang
-1.249809	decide have
-1.490981	decide head
-2.310774	decide hike
-2.310774	decide hit
-2.647975	decide isn
-2.943883	decide jump
-2.943883	decide kayak
-2.310774	decide keep
-2.943883	decide know
-2.943883	decide learn
-2.943883	decide leave
-2.647975	decide let
-2.943883	decide like
-2.943883	decide look
-2.943883	decide love
-2.310774	decide make
-2.943883	decide move
-2.647975	decide need
-2.943883	decide order
-2.647975	decide pack
-2.943883	decide pick
-2.943883	decide play
-2.943883	decide post
-2.943883	decide proceed
-2.943883	decide pull
-2.943883	decide push
-2.943883	decide put
-2.943883	decide quit
-2.943883	decide risk
-2.647975	decide save
-2.943883	decide see
-2.647975	decide set
-2.310774	decide skip
-2.647975	decide sleep
-2.943883	decide spend
-1.730774	decide stay
-1.930392	decide stop
-2.943883	decide swim
-1.306188	decide take
-2.943883	decide talk
-2.647975	decide test
-1.730774	decide try
-2.310774	decide turn
-2.943883	decide undertake
-2.647975	decide undo
-2.943883	decide visit
-2.310774	decide wait
-1.819214	decide walk
-1.730774	decide want
-2.647975	decide wasn
-2.943883	decide watch
-2.647975	decide write
-0.3101068	declare be
-1.323598	declare have
-1.323598	declare like
-0.7795299	deepen highlight
-0.7795299	deepen see
-1.256651	dehydrate be
-1.256651	dehydrate drink
-1.256651	dehydrate have
-1.256651	dehydrate order
-1.256651	dehydrate think
-1.256651	dehydrate work
-1.08056	deliver direct
-0.7846518	deliver go
-1.08056	deliver it
-1.256651	depart feel
-0.960743	depart get
-1.256651	depart have
-1.256651	depart hit
-1.256651	depart ride
-0.7795299	depend do
-0.7795299	depend look
-0.7795299	depress give
-0.7795299	depress spend
-1.413041	descend be
-1.708949	descend do
-1.708949	descend etch
-1.413041	descend have
-1.708949	descend head
-1.708949	descend make
-1.708949	descend meet
-1.413041	descend put
-1.708949	descend race
-1.708949	descend side
-1.708949	descend snorkele
-1.708949	descend swim
-1.708949	descend take
-1.708949	descend wake
-0.4677742	describe be
-1.296535	describe describe
-1.592443	describe do
-1.592443	describe find
-1.592443	describe go
-1.592443	describe have
-1.592443	describe see
-1.17747	desert be
-1.17747	desert decide
-0.8815618	desert see
-1.17747	desert think
-1.17747	deserve decide
-0.8815618	deserve have
-1.17747	deserve head
-1.17747	deserve pull
-0.9556212	design <unk>
-0.9556212	design build
-0.9556212	design provide
-1.256651	designate grumble
-0.6235422	designate have
-1.256651	designate look
-1.256651	designate say
-0.9556212	desire arrange
-0.659713	desire seem
-1.08056	destroy be
-1.08056	destroy help
-1.08056	destroy rage
-1.08056	destroy take
-1.624628	determine be
-1.32872	determine do
-1.32872	determine get
-1.624628	determine go
-0.991519	determine have
-1.624628	determine make
-1.624628	determine note
-1.624628	determine reach
-1.624628	determine win
-1.624628	determine work
-1.38159	develop be
-1.38159	develop bring
-1.085682	develop come
-1.38159	develop contain
-1.38159	develop enjoy
-1.38159	develop get
-1.38159	develop organize
-0.7795299	devise ride
-0.7795299	devise tackle
-0.659713	did. be
-0.9556212	did. offer
-2.309697	didn <unk>
-2.605605	didn back
-1.032717	didn be
-1.741926	didn bother
-2.605605	didn brave
-2.605605	didn bring
-2.605605	didn come
-2.605605	didn couldn
