
\data\
ngram 1=1159
ngram 2=15576

\1-grams:
-3.639349	!!	-0.145207
-3.44632	!!!	-0.1369694
-1.744409	</s>
-99	<s>	0.03778014
-1.690611	<unk>	0.1928915
-3.7965	=d	-0.1552255
-3.639349	abandon	-0.1506794
-3.7965	absolve	-0.1491769
-3.532197	accept	-0.1451334
-3.7965	access	-0.1492561
-3.781914	accompany	-0.1465379
-3.532197	accomplish	-0.1416396
-3.21138	accord	-0.1344475
-3.7965	account	-0.1544698
-3.7965	ache	-0.1539933
-3.532197	achieve	-0.1436425
-3.7965	acquire	-0.1533759
-3.7965	act	-0.1498227
-2.736491	add	-0.08901858
-3.639349	adjust	-0.1487128
-3.44632	admire	-0.1392672
-3.168233	admit	-0.1402069
-3.7965	adore	-0.1553653
-3.639349	advise	-0.1384126
-3.781914	affect	-0.1482747
-3.7965	afford	-0.1560939
-2.92356	agree	-0.1147506
-3.781914	aim	-0.1525188
-3.7965	all.	-0.1557007
-3.7965	allocate	-0.1508974
-2.751962	allow	-0.1006075
-3.781914	alternate	-0.1484107
-3.7965	am.	-0.1548058
-3.059761	amaze	-0.1235908
-3.7965	amount	-0.1495962
-3.7965	amuse	-0.1492561
-3.639349	anchor	-0.1505824
-3.639349	announce	-0.1550256
-3.313154	answer	-0.1380136
-3.374652	anticipate	-0.1301725
-3.7965	appeal	-0.1510668
-2.973039	appear	-0.1278307
-3.7965	apply	-0.1474947
-3.7965	appoint	-0.1504169
-3.44632	appreciate	-0.1347469
-3.168233	approach	-0.1254659
-3.532197	aren	-0.1447349
-3.781914	arise	-0.1443354
-3.313154	arrange	-0.1192245
-2.275615	arrive	-0.05408676
-3.7965	arrived	-0.1533478
-3.532197	ascend	-0.144249
-2.302742	ask	0.003299519
-3.688423	assateague	-0.1482686
-3.688423	assese	-0.1470882
-3.7965	associate	-0.1506714
-3.21138	assume	-0.1391819
-3.313154	assure	-0.1328086
-3.44632	attach	-0.1393542
-3.44632	attack	-0.1247494
-3.259293	attempt	-0.135137
-3.7965	attend	-0.1493694
-3.639349	attract	-0.1426814
-3.44632	average	-0.135245
-3.092996	avoid	-0.1250613
-3.781914	await	-0.1518134
-3.21138	awake	-0.1368452
-3.7965	award	-0.1442372
-3.000067	back	-0.1216143
-3.44632	backpack	-0.1421587
-3.44632	backtrack	-0.1434824
-3.7965	balance	-0.1525044
-3.688423	balk	-0.1503965
-3.7965	bandage	-0.1547218
-3.532197	bang	-0.1374554
-3.688423	barbeque	-0.1487175
-3.781914	bark	-0.1438764
-3.7965	barrel	-0.1505018
-3.44632	base	-0.1409616
-3.7965	bath	-0.1553094
-3.7965	batter	-0.1514619
-3.7965	beach	-0.1516311
-3.781914	beam	-0.1530788
-3.313154	bear	-0.1483353
-3.313154	beat	-0.1282468
-2.606166	become	-0.05439065
-3.688423	bed.	-0.1507036
-3.7965	befriend	-0.1550017
-3.44632	beg	-0.1410044
-2.447587	begin	-0.05372867
-3.781914	behave	-0.1434169
-3.781914	behold	-0.1471082
-2.736491	believe	-0.09756056
-3.44632	belong	-0.1454889
-3.639349	bend	-0.1457589
-3.7965	bet	-0.1547218
-3.688423	bias	-0.1500892
-3.688423	bike	-0.147735
-3.7965	bind	-0.1438642
-2.879146	bite	-0.1028482
-3.7965	blag	-0.1542176
-3.7965	blame	-0.1516341
-3.639349	blast	-0.1418458
-3.44632	blaze	-0.1383331
-3.7965	bleed	-0.1525607
-3.532197	blend	-0.1376853
-3.259293	bless	-0.1642388
-3.532197	block	-0.1398346
-3.7965	blogg	-0.1448391
-3.7965	bloom	-0.1544698
-2.67959	blow	-0.10495
-3.532197	board	-0.1458484
-3.7965	boat	-0.1514901
-3.7965	bob	-0.1544978
-3.259293	boil	-0.132015
-3.639349	bonk	-0.1413569
-2.973039	book	-0.1375617
-3.639349	border	-0.1419611
-3.313154	bore	-0.1273715
-3.639349	borrow	-0.1538501
-3.059761	bother	-0.122633
-3.532197	bounce	-0.1351289
-3.781914	bowl	-0.1519814
-3.259293	brave	-0.1330854
-2.573638	break	-0.06928284
-3.688423	breakfast	-0.1492779
-3.7965	breakfast.	-0.1534882
-2.973039	breathe	-0.123926
-3.781914	brew	-0.1506954
-2.314086	bring	0.001272619
-3.781914	bruise	-0.1527133
-3.44632	brush	-0.1338136
-3.7965	buck	-0.1422536
-3.7965	buffet	-0.1446672
-2.533742	build	-0.08554445
-3.7965	bump	-0.1461261
-3.781914	bundle	-0.1465434
-2.92356	burn	-0.09716742
-3.44632	bury	-0.1419569
-3.7965	bushwack	-0.1506822
-3.7965	bust	-0.1511797
-2.488532	buy	-0.06854074
-3.639349	buzz	-0.1530908
-3.7965	bypass	-0.1536005
-2.245152	call	0.01377028
-3.374652	calm	-0.1367974
-3.688423	came	-0.1486614
-2.337703	camp	-0.04743819
-3.781914	campground	-0.1500613
-3.000067	can	-0.1419498
-3.44632	cancel	-0.1409584
-3.532197	canoe	-0.1437286
-3.7965	cant	-0.1549458
-3.639349	capture	-0.1353981
-3.059761	care	-0.1291247
-2.563316	carry	-0.0879034
-3.7965	cart	-0.1537128
-3.532197	cast	-0.1427947
-2.432232	catch	-0.02775776
-2.92356	cause	-0.1359998
-3.781914	cease	-0.1490129
-3.44632	celebrate	-0.137169
-3.532197	certify	-0.1397451
-3.7965	challenge	-0.1536847
-2.59505	change	-0.06535164
-3.7965	char	-0.1559799
-3.639349	charge	-0.1419734
-3.374652	chase	-0.1455607
-3.000067	chat	-0.116212
-2.331677	check	0.0003068596
-3.7965	cheer	-0.1543857
-3.781914	cherish	-0.1526313
-3.532197	chew	-0.1344303
-3.21138	chill	-0.1165328
-3.688423	chillin	-0.1504244
-2.900785	choose	-0.1094729
-3.781914	chop	-0.1478767
-3.7965	chuckle	-0.1535724
-3.7965	circle	-0.1536847
-3.44632	claim	-0.1455175
-3.639349	clamber	-0.1474905
-3.688423	clap	-0.1510687
-2.736491	clean	-0.1026786
-3.7965	cleanse	-0.1523637
-2.900785	clear	-0.128886
-3.374652	click	-0.2157327
-2.410172	climb	-0.08728903
-3.781914	cling	-0.1465664
-3.7965	clock	-0.1461546
-2.59505	close	-0.08169939
-3.781914	cloud	-0.1468269
-3.7965	co	-0.1524762
-3.781914	coat	-0.1538931
-3.7965	coax	-0.1514055
-3.374652	collapse	-0.1448653
-3.374652	collect	-0.1416808
-3.7965	collide	-0.155952
-3.7965	color	-0.1410471
-3.7965	combine	-0.1530106
-3.7965	commence	-0.1559241
-3.7965	comment	-0.1448701
-3.781914	commit	-0.1453379
-3.781914	commune	-0.1473075
-3.7965	communicate	-0.1482525
-3.128987	compare	-0.1273252
-3.7965	compel	-0.1532354
-3.7965	compensate	-0.1497661
-3.059761	complain	-0.1391821
-2.947595	complete	-0.1253416
-3.7965	comprise	-0.1500731
-3.639349	concentrate	-0.1456361
-3.639349	concern	-0.1446752
-3.639349	confess	-0.148031
-3.781914	confirm	-0.147222
-3.639349	confuse	-0.1452357
-3.374652	connect	-0.1396841
-2.838855	consider	-0.09209024
-3.374652	consist	-0.1323615
-3.7965	construct	-0.1528419
-3.781914	consult	-0.1476776
-3.781914	consume	-0.1503544
-3.313154	contain	-0.1280389
-3.7965	contemplate	-0.1452392
-3.7965	contend	-0.1551416
-2.524316	continue	-0.04683979
-3.7965	contribute	-0.1561195
-3.7965	control	-0.1551975
-3.7965	convert	-0.1497661
-3.259293	convince	-0.1298613
-2.432232	cook	-0.07789605
-3.259293	cool	-0.1341075
-3.781914	cooperate	-0.1484954
-3.688423	cope	-0.1476507
-3.639349	cost	-0.1418737
-3.7965	cough	-0.1537151
-3.7965	could	-0.1489157
-2.721552	couldn	-0.08929176
-3.059761	count	-0.1319519
-3.688423	counter	-0.1510384
-2.606166	cover	-0.08900308
-3.688423	cozy	-0.1484089
-3.639349	crack	-0.1510344
-3.7965	crackle	-0.1562032
-3.781914	cram	-0.1470818
-3.7965	crap	-0.1489157
-3.168233	crash	-0.1230174
-3.092996	crawl	-0.1326609
-3.781914	creak	-0.1482653
-3.092996	create	-0.1216675
-3.639349	creep	-0.153037
-3.781914	crest	-0.1508271
-3.7965	cringe	-0.1474092
-2.455473	cross	-0.05116697
-3.44632	crowd	-0.1430224
-3.374652	cruise	-0.1397267
-3.781914	crush	-0.1516714
-3.128987	cry	-0.1588748
-3.639349	cuddle	-0.1436015
-3.781914	curl	-0.1504007
-3.688423	curse	-0.1468348
-2.801987	cut	-0.1007259
-3.639349	dance	-0.1480594
-3.7965	dangle	-0.1527576
-3.7965	dare	-0.1527295
-3.7965	dawn	-0.1530106
-3.128987	deal	-0.1230865
-2.006139	decide	0.04711238
-3.639349	declare	-0.1448478
-3.7965	decorate	-0.1548898
-3.7965	deepen	-0.1459547
-3.44632	dehydrate	-0.1397793
-3.781914	deliver	-0.1487776
-3.532197	depart	-0.1351281
-3.7965	depend	-0.2208021
-3.7965	depress	-0.1530668
-3.092996	descend	-0.120095
-3.128987	describe	-0.1437146
-3.532197	desert	-0.1450786
-3.781914	deserve	-0.1545378
-3.781914	design	-0.1482179
-3.532197	designate	-0.1465564
-3.781914	desire	-0.1477044
-3.781914	destroy	-0.1539354
-3.059761	determine	-0.1667152
-3.44632	develop	-0.142418
-3.7965	devise	-0.1502473
-3.781914	did.	-0.1547898
-2.207597	didn	-0.07341188
-3.7965	didnt	-0.1536847
-2.947595	die	-0.1004493
-3.092996	dig	-0.1069469
-3.7965	digress	-0.153123
-3.781914	dine	-0.1503159
-3.44632	dip	-0.1420544
-3.313154	direct	-0.1305597
-3.688423	disapoint	-0.1510663
-3.313154	disappear	-0.1392462
-3.313154	disappoint	-0.1385091
-2.768006	discover	-0.1025606
-3.374652	discuss	-0.1415076
-3.7965	distract	-0.1530106
-3.7965	disturb	-0.15169
-3.688423	disway	-0.1493899
-2.653711	dive	-0.09165772
-3.781914	divide	-0.1495799
-3.639349	do.	-0.1418458
-3.781914	dock	-0.1527696
-3.7965	document	-0.1542176
-3.688423	dodge	-0.1497536
-3.092996	doesn	-0.1376872
-3.688423	dominate	-0.1510491
-2.584212	don	-0.08186086
-3.7965	dont	-0.1502755
-3.781914	dot	-0.1536967
-3.374652	down	-0.1382144
-3.781914	doze	-0.1481326
-3.313154	drag	-0.1359843
-3.532197	drain	-0.1448471
-3.21138	draw	-0.1311815
-3.781914	dread	-0.1460328
-3.532197	dream	-0.1471091
-3.781914	drench	-0.1486603
-2.973039	dress	-0.1097054
-3.374652	drift	-0.1302906
-2.801987	drink	-0.1012302
-3.688423	drinkin	-0.1459328
-3.44632	drip	-0.1265575
-1.963098	drive	0.01258978
-3.7965	drizzle	-0.1542456
-2.553232	drop	-0.07987921
-3.44632	drown	-0.1453745
-3.7965	drum	-0.1554771
-2.768006	dry	-0.08468133
-3.532197	duck	-0.1411654
-3.639349	dump	-0.1487348
-3.7965	earn	-0.1492505
-3.7965	ease	-0.1465828
-2.18142	eat	0.01541099
-3.7965	echo	-0.1497095
-3.7965	edge	-0.1479783
-3.7965	edit	-0.1432437
-3.7965	educate	-0.1518567
-3.7965	edward	-0.143778
-3.7965	elect	-0.1517566
-3.7965	email	-0.1544698
-3.639349	embark	-0.1402638
-3.532197	emerge	-0.1400953
-3.44632	empty	-0.1450625
-3.374652	encounter	-0.1482143
-3.781914	encourage	-0.1508812
-2.270387	end	0.01581863
-3.44632	endure	-0.1444582
-3.7965	engage	-0.1520558
-3.688423	engeneer	-0.1464686
-2.141019	enjoy	-0.03443934
-3.688423	enlarge	-0.1498935
-3.7965	ensue	-0.1546378
-3.781914	ensure	-0.149469
-2.736491	enter	-0.09740657
-3.532197	entertain	-0.1467969
-3.44632	equalize	-0.146244
-3.781914	equate	-0.1426428
-3.7965	erode	-0.1519412
-3.532197	escape	-0.147588
-3.44632	estimate	-0.1402525
-3.7965	etc	-0.1479215
-3.7965	evaporate	-0.1478361
-3.688423	everyht	-0.1473695
-3.7965	everyone	-0.1470517
-3.7965	exaggerate	-0.1470674
-3.639349	examine	-0.153484
-3.7965	exceed	-0.1449269
-3.168233	excite	-0.1178849
-3.7965	exclude	-0.1541055
-3.639349	excuse	-0.1491101
-3.7965	exercise	-0.1484047
-3.7965	exert	-0.1540237
-2.768006	exhaust	-0.1151094
-3.688423	exict	-0.1474539
-3.781914	exist	-0.1503724
-3.532197	exit	-0.1356715
-2.666458	expect	-0.08990769
-3.128987	experience	-0.1213029
-3.313154	explain	-0.1278577
-3.7965	explode	-0.1501058
-2.59505	explore	-0.07864397
-3.7965	expose	-0.1543297
-3.7965	express	-0.152251
-3.028889	face	-0.115901
-3.781914	fade	-0.1511095
-3.259293	fail	-0.1380108
-2.337703	fall	-0.03968993
-3.7965	fascinate	-0.1490859
-3.781914	fashion	-0.1475912
-3.7965	fear	-0.1557286
-3.44632	feast	-0.1439065
-3.532197	feature	-0.1505379
-2.784664	feed	-0.08835619
-2.050775	feel	0.01665764
-3.7965	fetch	-0.1509539
-3.168233	fight	-0.1326495
-2.573638	figure	-0.08230892
-2.524316	fill	-0.02176853
-3.44632	film	-0.1465744
-3.639349	filter	-0.1455313
-1.92394	find	0.08978158
-2.606166	finish	-0.08310831
-3.532197	fire	-0.1440731
-3.7965	fish	-0.1458347
-3.688423	fish.	-0.1507036
-3.259293	fit	-0.1330585
-3.128987	fix	-0.1218667
-3.688423	flare	-0.1464686
-3.7965	flash	-0.1504452
-3.44632	flip	-0.1444606
-2.947595	float	-0.1224494
-3.374652	flood	-0.1351428
-3.781914	flounder	-0.1340933
-3.259293	flow	-0.1415877
-3.639349	flush	-0.142595
-2.629288	fly	-0.07491821
-3.639349	focus	-0.1384293
-3.7965	fold	-0.1474971
-2.331677	follow	-0.03671047
-3.781914	forage	-0.1521774
-3.781914	forbid	-0.1485872
-3.259293	force	-0.1470135
-2.629288	forget	-0.08841943
-3.44632	form	-0.179081
-3.374652	freak	-0.142221
-3.374652	freeze	-0.1457998
-3.688423	frequent	-0.1491098
-3.7965	frustrate	-0.1551696
-3.639349	fry	-0.1537367
-3.44632	fuck	-0.1435111
-3.313154	fuel	-0.1398976
-3.7965	fulfil	-0.152251
-3.688423	fussed	-0.150173
-3.374652	gain	-0.1374068
-3.7965	gas	-0.1542176
-3.028889	gather	-0.1150489
-3.44632	gaze	-0.1437146
-3.639349	gear	-0.1474053
-3.532197	giggle	-0.1384696
-2.212118	give	0.04426192
-3.7965	glance	-0.1536005
-3.781914	glare	-0.1413523
-3.7965	glaze	-0.1395077
-3.7965	glide	-0.1541055
-3.7965	glisten	-0.1537408
-3.688423	gloat	-0.1510687
-3.639349	gobble	-0.1427701
-3.259293	gon	-0.1326249
-2.92356	grab	-0.1464884
-3.688423	grant	-0.148044
-3.688423	grate	-0.1509547
-3.781914	graze	-0.1427842
-3.059761	greet	-0.1296548
-2.784664	grow	-0.1531436
-3.7965	grumble	-0.1484061
-2.641328	guess	-0.08424906
-3.639349	guide	-0.1412109
-3.688423	had.	-0.1473695
-3.21138	hadn	-0.1207802
-3.7965	hail	-0.1562032
-3.7965	hammer	-0.1480397
-3.128987	hand	-0.1227361
-3.000067	handle	-0.1164449
-2.369154	hang	-0.03969656
-2.396065	happen	-0.04693393
-3.7965	harvest	-0.1526732
-3.781914	hasn	-0.1526008
-2.947595	hate	-0.1042904
-3.168233	haul	-0.1296938
-3.639349	haven	-0.1442043
-3.7965	havent	-0.149171
-3.374652	he	-0.1393774
-1.976096	head	0.09195676
-2.343814	hear	-0.008864075
-3.639349	heat	-0.1486561
-3.7965	heed	-0.152734
-2.403061	help	-0.01949254
-3.781914	herd	-0.1384459
-3.532197	here	-0.1332919
-3.639349	hesitate	-0.1514037
-3.259293	hide	-0.1387237
-3.168233	highlight	-0.1469228
-2.09703	hike	0.006265223
-3.7965	hire	-0.1461546
-3.7965	hiss	-0.149171
-2.302742	hit	-0.008825973
-3.7965	hoist	-0.1537408
-2.543378	hold	-0.05125206
-3.688423	holler	-0.1510687
-3.781914	hoof	-0.1551559
-3.313154	hook	-0.1260371
-3.21138	hop	-0.1286029
-2.543378	hope	-0.09645403
-3.7965	host	-0.1515183
-3.532197	hover	-0.1513005
-3.781914	howl	-0.1489278
-3.781914	huddle	-0.1536967
-3.639349	hug	-0.1431992
-3.7965	huh	-0.1543577
-3.7965	hunt	-0.1540774
-3.688423	hurl	-0.1498935
-3.44632	hurry	-0.149205
-2.751962	hurt	-0.08307305
-3.7965	hydrate	-0.1515747
-3.7965	hypermile	-0.1514901
-3.374652	i	-0.1424015
-3.313154	identify	-0.1372811
-3.374652	ignore	-0.1446423
-2.879146	imagine	-0.1031081
-3.7965	impose	-0.1550297
-3.639349	impress	-0.1427677
-3.313154	improve	-0.1295818
-3.781914	improvise	-0.1526313
-2.506056	include	-0.03910682
-3.7965	incorporate	-0.1506996
-3.532197	increase	-0.1463859
-3.7965	indicate	-0.1525325
-3.7965	inflate	-0.1525631
-3.44632	inform	-0.1416685
-3.688423	ingrain	-0.1510491
-3.7965	inhabit	-0.1467539
-3.7965	inhale	-0.1516593
-3.639349	injure	-0.1477466
-3.374652	insist	-0.1395509
-3.44632	inspire	-0.1458916
-3.781914	install	-0.1531069
-3.639349	insulate	-0.1354834
-3.21138	intend	-0.1273625
-3.688423	intersperse	-0.1491658
-3.781914	introduce	-0.1498763
-3.7965	invade	-0.1530411
-3.21138	invite	-0.1212733
-3.028889	involve	-0.1297396
-3.313154	isn	-0.1300986
-3.44632	isolate	-0.1285466
-2.543378	it	-0.05889295
-3.688423	itch	-0.1491378
-3.781914	jet	-0.1537528
-3.781914	jog	-0.1519814
-2.653711	join	-0.09304262
-3.781914	joke	-0.1487008
-3.7965	jumble	-0.1505018
-2.721552	jump	-0.08710801
-3.781914	kayake	-0.1469941
-2.148804	keep	0.05399807
-2.973039	kick	-0.1197584
-3.44632	kid	-0.1344632
-3.128987	kill	-0.1294544
-3.781914	kinda	-0.1521222
-3.639349	kit	-0.153905
-3.639349	knit	-0.137432
-3.532197	knock	-0.1450789
-1.973465	know	0.098986
-3.7965	lace	-0.1532073
-3.7965	lack	-0.1492561
-3.21138	land	-0.1560532
-3.7965	lash	-0.1472212
-3.168233	last	-0.1277523
-3.092996	laugh	-0.1298555
-3.374652	launch	-0.1471851
-2.973039	lay	-0.1101432
-2.879146	lead	-0.1059559
-3.374652	leak	-0.1360459
-3.781914	lean	-0.1531862
-2.51509	learn	-0.07348601
-1.97085	leave	0.03024694
-3.7965	lend	-0.1467539
-2.286263	let	0.01831044
-3.7965	level	-0.1541896
-3.092996	lie	-0.1155407
-3.688423	lift	-0.1475664
-3.21138	light	-0.1206596
-3.21138	lighten	-0.1400727
-2.337703	like	-0.04789583
-3.313154	limit	-0.1384081
-3.639349	line	-0.1446752
-3.7965	linger	-0.1476448
-2.801987	listen	-0.1043604
-3.7965	litter	-0.1556448
-2.617573	live	-0.09038318
-2.666458	load	-0.06475802
-3.7965	loan	-0.1537689
-3.781914	locate	-0.1502593
-3.168233	lodge	-0.1105352
-3.639349	log	-0.1413264
-3.7965	london	-0.1530106
-1.965666	look	0.0542931
-3.781914	loom	-0.1457954
-3.688423	loop	-0.1491378
-2.506056	lose	-0.07142611
-2.343814	love	-0.05290124
-3.7965	lower	-0.1531792
-3.781914	luck	-0.1447367
-3.688423	lure	-0.1474539
-3.7965	maintain	-0.15242
-2.455473	manage	-0.03427458
-3.7965	march	-0.1508691
-3.313154	mark	-0.1304379
-3.44632	marry	-0.1254941
-3.688423	mash	-0.1484089
-3.7965	match	-0.1438068
-3.7965	me	-0.1556448
-2.497205	mean	-0.03971435
-3.781914	meander	-0.1434419
-3.7965	measure	-0.1484625
-2.356299	meet	0.003849849
-3.7965	mellow	-0.1465828
-3.128987	melt	-0.1410949
-2.736491	mention	-0.08007763
-3.21138	mind	-0.1321481
-2.553232	miss	-0.08297948
-3.688423	misspoke	-0.1501171
-3.7965	mix	-0.1508528
-3.688423	mob	-0.1522792
-3.781914	motor	-0.1489845
-3.781914	mount	-0.1459097
-2.439842	move	-0.03758442
-3.7965	mow	-0.1496811
-3.7965	mumble	-0.1491099
-3.7965	murder	-0.1432437
-3.059761	name	-0.1377245
-3.259293	nap	-0.115515
-3.44632	navigate	-0.1432837
-3.21138	near	-0.1402157
-2.212118	need	0.005484581
-3.7965	needn	-0.156066
-3.7965	neglect	-0.1547218
-3.781914	negotiate	-0.155016
-3.639349	nestle	-0.1409545
-3.7965	never	-0.1500091
-3.7965	nod	-0.1497661
-3.028889	note	-0.1188094
-2.653711	notice	-0.06582966
-3.688423	now.	-0.1510491
-3.7965	nuzzle	-0.1506148
-3.374652	observe	-0.1263258
-3.7965	obsess	-0.1514619
-3.781914	occupy	-0.1522349
-3.639349	occur	-0.1475493
-2.879146	offer	-0.1223049
-2.67959	open	-0.1312606
-3.639349	operate	-0.1403612
-3.44632	opt	-0.1392795
-3.168233	order	-0.1395345
-3.781914	organise	-0.151474
-3.21138	organize	-0.1171762
-3.7965	originate	-0.1537689
-3.688423	outta	-0.1493899
-3.7965	overcome	-0.1562335
-3.7965	overflow	-0.1511515
-3.7965	overhear	-0.1509821
-3.168233	overlook	-0.1217519
-3.7965	overtake	-0.1513773
-3.21138	own	-0.1303607
-3.688423	pace	-0.1482686
-2.203124	pack	-0.01197761
-3.092996	paddle	-0.1213355
-3.639349	paint	-0.1481731
-3.781914	panic	-0.1459219
-3.639349	pant	-0.1448375
-3.532197	parallel	-0.1475237
-2.82003	park	-0.09818022
-3.781914	part	-0.1472517
-3.688423	partake	-0.1500612
-3.639349	participate	-0.1425619
-2.375727	pass	-0.03393354
-3.7965	paste	-0.1472099
-3.7965	pat	-0.153853
-3.7965	pause	-0.1544418
-3.44632	pave	-0.1446874
-2.751962	pay	-0.09635014
-3.688423	pedal	-0.147257
-3.128987	pee	-0.1411614
-3.7965	peek	-0.1559265
-3.7965	peel	-0.1539652
-3.781914	peer	-0.1430133
-3.781914	peg	-0.1542856
-3.7965	pelt	-0.1506714
-3.7965	perfect	-0.1556192
-3.7965	perk	-0.1516593
-3.7965	permit	-0.1537713
-3.7965	pet	-0.1509256
-2.308377	pick	0.00678812
-3.7965	picture	-0.1510103
-3.259293	pile	-0.1359761
-3.7965	pill	-0.1510386
-3.44632	pine	-0.1361669
-3.7965	pipe	-0.1521384
-3.313154	piss	-0.1306214
-2.900785	pitch	-0.1033928
-3.21138	place	-0.1319447
-3.7965	plague	-0.1523048
-2.396065	plan	-0.0240493
-3.688423	planned	-0.1489697
-3.639349	plant	-0.1425111
-2.245152	play	-0.03674296
-2.879146	please	-0.1276524
-3.7965	plod	-0.1548898
-3.781914	plow	-0.1513611
-3.781914	plug	-0.1467986
-3.781914	plummet	-0.1549297
-3.532197	plunge	-0.1550119
-3.21138	point	-0.1294841
-3.313154	poke	-0.1445424
-3.688423	pool	-0.1482967
-3.639349	poop	-0.1413008
-3.21138	pop	-0.1338145
-3.639349	pose	-0.1459505
-3.688423	possess	-0.1464968
-2.879146	post	-0.1033174
-3.44632	pound	-0.1459487
-2.92356	pour	-0.1189383
-3.7965	power	-0.151095
-3.374652	practice	-0.1389369
-3.781914	practise	-0.1465949
-3.128987	pray	-0.1425949
-3.781914	predict	-0.1437927
-3.532197	prefer	-0.1444615
-3.688423	prep	-0.1503406
-2.67959	prepare	-0.125352
-3.374652	press	-0.1460727
-3.374652	pretend	-0.1384374
-3.781914	prevent	-0.1535002
-3.21138	proceed	-0.1275875
-3.781914	process	-0.1475637
-3.688423	procure	-0.1482967
-3.7965	produce	-0.1471529
-3.7965	progress	-0.1531792
-3.21138	promise	-0.1246075
-3.7965	prompt	-0.1516593
-3.7965	prop	-0.1482626
-3.7965	propose	-0.1482934
-3.44632	protect	-0.1486543
-3.168233	prove	-0.1299414
-2.973039	provide	-0.124983
-3.688423	provoke	-0.1507873
-3.7965	psych	-0.1548898
-3.7965	publish	-0.1448133
-2.337703	pull	-0.04367925
-3.44632	pump	-0.1472609
-3.7965	punctuate	-0.154276
-3.313154	purchase	-0.1408268
-3.7965	pursue	-0.1518027
-2.82003	push	-0.1058743
-2.240276	put	0.04410444
-3.7965	question	-0.1500209
-3.688423	quick-cook	-0.1459892
-3.639349	quiet	-0.1430157
-3.532197	quit	-0.1335895
-3.313154	race	-0.1369594
-3.781914	rack	-0.1448799
-3.639349	raft	-0.1423646
-3.7965	rage	-0.1543857
-2.410172	rain	-0.0258819
-3.688423	rain.	-0.1489697
-3.374652	raise	-0.1395998
-3.781914	ramble	-0.1540357
-3.781914	rate	-0.1427554
-3.688423	re-do	-0.1464686
-3.688423	re-organize	-0.1510491
-2.424754	reach	-0.07470538
-2.497205	read	-0.009102866
-3.7965	realise	-0.1395077
-2.463505	realize	-0.04794376
-3.7965	recall	-0.1508409
-3.781914	receive	-0.1451804
-3.7965	recharge	-0.1496528
-3.781914	recognize	-0.1461954
-3.028889	recommend	-0.1130764
-3.688423	reconcile	-0.1510663
-3.688423	record	-0.1543857
-3.21138	recover	-0.1807912
-3.7965	reduce	-0.1534601
-3.7965	reel	-0.1508504
-3.168233	reflect	-0.1259516
-3.532197	refresh	-0.1447628
-3.313154	refuse	-0.1354004
-3.639349	register	-0.1518807
-2.666458	relax	-0.0740189
-3.688423	relaxin	-0.1484651
-3.639349	release	-0.1461
-3.639349	relieve	-0.1438492
-3.259293	remain	-0.1417078
-2.497205	remember	-0.08612256
-3.059761	remind	-0.1247617
-3.168233	remove	-0.155048
-3.7965	rename	-0.1530387
-2.973039	rent	-0.1034097
-3.781914	repair	-0.1400879
-3.688423	repeat	-0.1503887
-3.374652	replace	-0.139606
-3.7965	replicate	-0.1541896
-3.44632	reply	-0.1369619
-3.781914	report	-0.1492005
-3.7965	represent	-0.1546098
-3.688423	repusle	-0.1482967
-3.028889	require	-0.116691
-3.7965	rescue	-0.1509344
-3.532197	research	-0.1501802
-3.259293	reserve	-0.1266112
-3.44632	resist	-0.1407443
-3.781914	respond	-0.152772
-2.879146	rest	-0.102549
-3.639349	result	-0.1442775
-3.781914	resume	-0.1508247
-3.7965	retch	-0.148044
-3.532197	retire	-0.1453615
-3.532197	retreat	-0.146448
-3.781914	retrieve	-0.1426428
-2.51509	return	-0.11714
-3.781914	reveal	-0.1465093
-3.781914	reward	-0.1443354
-2.362679	ride	-0.06747435
-3.639349	rinse	-0.1471202
-3.259293	rip	-0.1277215
-3.059761	rise	-0.1276613
-3.639349	risk	-0.1410375
-3.7965	roadwalk	-0.1520257
-3.781914	roam	-0.148871
-3.7965	roar	-0.1429913
-3.781914	roast	-0.1506072
-3.7965	rob	-0.1486878
-3.313154	rock	-0.1367315
-2.617573	roll	-0.1111039
-3.374652	rough	-0.1363979
-3.313154	round	-0.1350649
-3.374652	rub	-0.1355209
-3.688423	ruff	-0.1485212
-3.532197	ruin	-0.1726823
-3.781914	rumble	-0.1507399
-2.185675	run	0.04861742
-3.059761	rush	-0.1229924
-3.7965	s'more	-0.1419345
-3.7965	saddle	-0.1534882
-3.532197	sail	-0.1458171
-3.7965	salute	-0.155144
-3.7965	salvage	-0.1545538
-3.7965	sap	-0.1501624
-3.532197	satisfy	-0.1755613
-2.973039	save	-0.1037407
-3.781914	saw	-0.1516432
-3.374652	scan	-0.1352812
-2.973039	scare	-0.1431642
-3.781914	scarf	-0.1470511
-3.532197	scatter	-0.1455625
-3.532197	schedule	-0.1442452
-3.781914	scoop	-0.1547338
-3.7965	scop	-0.1513209
-3.7965	scorch	-0.1538811
-3.639349	score	-0.1436589
-3.688423	scout	-0.1493059
-3.259293	scramble	-0.1519171
-3.7965	scrape	-0.1522792
-3.781914	scratch	-0.1508812
-2.838855	scream	-0.1096813
-3.781914	scurry	-0.1473669
-3.168233	search	-0.1482524
-3.781914	seat	-0.1464237
-3.7965	secure	-0.1465257
-3.639349	seek	-0.1412109
-2.302742	seem	-0.004770964
-3.781914	seep	-0.1527414
-3.7965	seize	-0.1516593
-3.374652	sell	-0.129302
-2.721552	send	-0.1060964
-3.532197	separate	-0.1405584
-3.128987	serve	-0.1273227
-2.073287	set	0.03700042
-2.736491	settle	-0.1006802
-3.374652	shake	-0.1443249
-2.784664	share	-0.08645397
-3.7965	shed	-0.1550857
-3.44632	shift	-0.1463461
-3.259293	shine	-0.1307202
-3.639349	shiver	-0.1541574
-3.781914	shock	-0.1559081
-3.21138	shoot	-0.1463554
-3.7965	shoulder	-0.143778
-3.781914	shout	-0.1521504
-2.506056	show	-0.05448909
-3.092996	shower	-0.1565017
-3.7965	shroud	-0.1563753
-3.639349	shrug	-0.1494244
-3.374652	shut	-0.1326682
-3.7965	side	-0.1542456
-3.532197	sift	-0.1387032
-3.168233	sign	-0.1222965
-3.7965	signal	-0.1554795
-3.313154	sing	-0.1365239
-3.532197	sink	-0.1490087
-2.18142	sit	-0.02748254
-3.7965	situate	-0.1511797
-3.44632	size	-0.14723
-2.973039	skip	-0.1660836
-3.7965	slam	-0.1530949
-3.688423	slant	-0.147257
-2.041474	sleep	-0.01461461
-3.7965	slice	-0.1488022
-3.374652	slide	-0.1401107
-3.313154	slip	-0.1420416
-3.781914	slither	-0.1408229
-3.781914	slog	-0.1488994
-3.168233	slow	-0.1213873
-3.688423	slumber	-0.1498375
-3.688423	smash	-0.1486614
-3.059761	smell	-0.1087103
-3.374652	smile	-0.1387698
-3.781914	smoke	-0.1397353
-3.7965	smooth	-0.1542456
-3.374652	snap	-0.1392486
-3.781914	snatch	-0.1549041
-3.781914	snore	-0.1514457
-3.21138	snorkel	-0.1332983
-3.059761	snorkele	-0.1130122
-3.781914	snorkle	-0.154316
-3.781914	snow	-0.1502593
-3.7965	snuck	-0.1485051
-3.7965	snuff	-0.1448964
-3.7965	snuggle	-0.1505701
-2.947595	soak	-0.1079891
-3.639349	soar	-0.1553636
-3.7965	sop	-0.1545818
-3.374652	sort	-0.1279344
-2.721552	sound	-0.1209243
-3.7965	source	-0.1509539
-3.781914	space	-0.1545961
-3.781914	spare	-0.1491547
-3.000067	speak	-0.1122901
-3.781914	speed	-0.1499197
-3.781914	spell	-0.1441347
-2.185675	spend	0.02454816
-3.7965	spin	-0.1451827
-3.532197	splash	-0.1379825
-3.7965	splatter	-0.1510386
-3.259293	split	-0.1206407
-3.532197	spoil	-0.1380404
-3.781914	spook	-0.1473649
-2.784664	spot	-0.08371153
-3.532197	spray	-0.1510223
-3.44632	spread	-0.1407573
-3.21138	sprinkle	-0.1351705
-3.7965	squash	-0.1488994
-3.7965	squat	-0.1532354
-3.639349	squeeze	-0.1502172
-3.7965	squirm	-0.1543577
-3.7965	squirt	-0.1532354
-3.639349	stack	-0.1407485
-3.7965	staff	-0.1534601
-3.7965	stake	-0.1481525
-3.639349	stall	-0.1807024
-2.67959	stand	-0.08771034
-3.7965	star	-0.1523637
-3.168233	stare	-0.15317
-3.7965	stargaze	-0.1465542
-1.928646	start	0.1031363
-3.7965	startle	-0.1554492
-3.639349	state	-0.1518525
-2.107617	stay	0.07691522
-3.532197	steal	-0.1402894
-3.781914	stealth	-0.1500355
-3.259293	step	-0.1485746
-3.688423	stew	-0.1475664
-2.693132	stick	-0.09239724
-3.374652	sting	-0.1398966
-3.532197	stink	-0.1503966
-3.532197	stir	-0.1361769
-3.7965	stock	-0.1505421
-3.7965	stoke	-0.153825
-3.7965	stone	-0.1496811
-2.063496	stop	-0.009633571
-3.688423	stopped	-0.1489697
-3.7965	strangle	-0.1508974
-3.374652	strap	-0.1410224
-3.44632	stress	-0.1444295
-3.128987	stretch	-0.1215132
-3.7965	strew	-0.1432437
-3.259293	strike	-0.1451274
-3.781914	string	-0.148326
-3.781914	strip	-0.1523499
-3.374652	stroll	-0.1393196
-3.168233	struggle	-0.1579464
-3.7965	stub	-0.1552838
-3.781914	study	-0.1469941
-3.168233	stuff	-0.1245902
-3.688423	stuff/cleaned	-0.1508152
-3.168233	stumble	-0.1319581
-3.7965	subject	-0.1551136
-3.781914	submerge	-0.1494949
-3.7965	submit	-0.1554236
-3.7965	subside	-0.1465542
-3.374652	suck	-0.1183168
-3.639349	suffer	-0.148876
-3.688423	suffice	-0.1489697
-3.092996	suggest	-0.1148564
-3.313154	suit	-0.1347719
-3.7965	sunbathe	-0.1517157
-3.781914	supply	-0.1429856
-3.532197	support	-0.1429263
-2.666458	suppose	-0.08527298
-3.688423	sure?	-0.1489697
-3.374652	surface	-0.1482947
-3.7965	surge	-0.1559799
-2.973039	surprise	-0.1187126
-3.313154	surround	-0.1406296
-3.092996	survive	-0.1199454
-3.7965	suspend	-0.1427432
-3.781914	swallow	-0.1471366
-3.7965	swamp	-0.1480679
-3.781914	swap	-0.1487212
-3.781914	swarm	-0.1436467
-3.7965	swat	-0.1559823
-3.313154	swear	-0.1406694
-3.532197	sweep	-0.1464195
-3.688423	swell	-0.1510105
-3.7965	swerve	-0.1498794
-2.410172	swim	-0.02822788
-3.781914	swing	-0.1505138
-3.7965	swirl	-0.1554212
-3.781914	switch	-0.1520779
-3.7965	t-bone	-0.1527839
-3.259293	tackle	-0.1380309
-3.7965	tail	-0.1554492
-2.432232	talk	-0.04379092
-3.7965	tan	-0.1560637
-3.7965	tangle	-0.1550577
-3.7965	tape	-0.1517721
-3.092996	taste	-0.1258368
-3.374652	teach	-0.1442939
-3.259293	tear	-0.1213286
-3.639349	tease	-0.1499318
-3.7965	teem	-0.1530387
-2.076601	tell	0.0445244
-3.781914	tempt	-0.1421819
-3.259293	tend	-0.13331
-3.7965	tent	-0.1511515
-3.7965	terrify	-0.1549737
-3.313154	test	-0.1360419
-3.688423	test-drive	-0.1478755
-2.92356	thank	-0.1084176
-3.028889	that	-0.1101678
-3.639349	there	-0.1478583
-3.313154	they	-0.1354773
-1.963098	think	0.06173739
-3.313154	threaten	-0.141972
-3.44632	thrill	-0.1294801
-2.617573	throw	-0.0866679
-3.7965	thunder	-0.1513491
-3.259293	tie	-0.1432423
-3.7965	tighten	-0.143778
-3.639349	tip	-0.1539611
-2.900785	tire	-0.1035936
-3.781914	toast	-0.1445075
-3.781914	tolerate	-0.142899
-3.21138	top	-0.1381595
-3.313154	toss	-0.1436546
-3.7965	total	-0.1402154
-3.059761	touch	-0.1127431
-3.532197	tour	-0.1425318
-3.639349	tow	-0.1373883
-3.7965	track	-0.1512644
-3.781914	trade	-0.1477938
-2.693132	trail	-0.07012168
-3.639349	train	-0.1436015
-3.7965	trap	-0.1523942
-2.736491	travel	-0.0936836
-3.639349	tread	-0.1510909
-3.059761	treat	-0.1289181
-3.374652	trek	-0.1380453
-3.7965	trickle	-0.1417629
-3.7965	trip	-0.1427144
-3.313154	trust	-0.1296708
-2.086695	try	0.01036477
-3.688423	tube	-0.1486333
-3.7965	tuck	-0.1560637
-3.781914	tumble	-0.1521238
-3.7965	tune	-0.1469534
-3.688423	tuned	-0.1432437
-2.125856	turn	0.0445507
-3.781914	twist	-0.1425086
-3.059761	understand	-0.1204357
-3.781914	undo	-0.1487575
-3.7965	unhook	-0.1539372
-3.532197	unload	-0.1432768
-3.639349	unpack	-0.1353033
-3.688423	unplug	-0.1488296
-3.7965	unzip	-0.1469952
-3.21138	update	-0.1817575
-3.781914	upgrade	-0.1492114
-3.44632	upload	-0.2625576
-3.7965	upset	-0.1527295
-2.189972	use	-0.003586963
-3.688423	utilize	-0.1510491
-3.7965	vacate	-0.1520821
-3.7965	vacation	-0.1532635
-3.781914	vanish	-0.1545098
-3.781914	vary	-0.1524601
-3.313154	venture	-0.133718
-3.688423	verb	-0.1495298
-3.532197	view	-0.1454195
-2.553232	visit	-0.06531696
-3.781914	volunteer	-0.146766
-3.7965	vomit	-0.1448391
-3.313154	wade	-0.1468839
-3.688423	wail	-0.147735
-2.250083	wait	-0.01655793
-2.221303	wake	0.01998094
-3.7965	waken	-0.1518298
-2.173034	walk	0.05079348
-3.028889	wander	-0.1133227
-2.032367	want	0.06456754
-3.028889	warm	-0.1186722
-3.259293	warn	-0.1299355
-3.781914	was	-0.1480189
-3.7965	was.	-0.1531511
-2.721552	wash	-0.09380331
-2.606166	wasn	-0.06333525
-3.781914	waste	-0.1508904
-2.25507	watch	-0.0199932
-3.781914	water	-0.1515052
-3.639349	wave	-0.1408063
-2.736491	we	-0.08185569
-2.707109	wear	-0.09346099
-3.781914	wedge	-0.1413552
-3.688423	week	-0.1510687
-3.374652	welcome	-0.1423727
-3.028889	weren	-0.1296776
-3.639349	whine	-0.1443346
-3.7965	whisper	-0.1492561
-3.44632	whistle	-0.1440279
-3.7965	whittle	-0.1491099
-3.781914	who	-0.1511635
-3.7965	wiggle	-0.1539933
-3.059761	win	-0.1167351
-3.168233	wind	-0.1220647
-3.374652	wipe	-0.1448032
-2.838855	wish	-0.1057617
-3.532197	witness	-0.1482989
-3.44632	won	-0.1464032
-2.768006	wonder	-0.08700044
-2.250083	work	0.01176046
-2.707109	worry	-0.09901782
-3.7965	would	-0.1455496
-3.059761	wouldn	-0.1258254
-3.092996	wrap	-0.1207932
-3.532197	wreck	-0.1516148
-3.7965	wrestle	-0.1472495
-2.801987	write	-0.06572734
-3.7965	yack	-0.1515747
-3.028889	yell	-0.09257516
-3.7965	yep	-0.1506996
-3.7965	yet?	-0.1500652
-3.44632	you	-0.140241
-3.532197	zip	-0.1420246
-3.7965	zoom	-0.1549178

\2-grams:
-1.1212	!! <unk>
-1.1212	!! depart
-1.1212	!! light
-1.1212	!! meet
-1.364238	!!! <unk>
-1.364238	!!! put
-1.364238	!!! spread
-1.075858	!!! turn
-1.364238	!!! use
-1.364238	!!! was
-3.387785	<s> !!
-3.387785	<s> !!!
-1.484727	<s> <unk>
-3.099405	<s> accomplish
-3.387785	<s> amaze
-3.387785	<s> anticipate
-3.387785	<s> arrange
-2.244808	<s> arrive
-3.387785	<s> arrived
-2.78741	<s> ask
-3.387785	<s> back
-3.387785	<s> backpack
-3.387785	<s> become
-2.525101	<s> begin
-2.78741	<s> believe
-3.387785	<s> blogg
-3.387785	<s> board
-3.387785	<s> bonk
-2.525101	<s> book
-3.387785	<s> bore
-3.387785	<s> break
-3.099405	<s> bring
-2.525101	<s> buy
-2.78741	<s> call
-1.585215	<s> camp
-3.099405	<s> cancel
-3.387785	<s> canoe
-3.387785	<s> catch
-2.78741	<s> celebrate
-3.387785	<s> certify
-3.387785	<s> change
-3.099405	<s> check
-3.387785	<s> cheer
-3.387785	<s> choose
-3.387785	<s> claim
-3.099405	<s> clear
-3.099405	<s> climb
-3.387785	<s> close
-3.387785	<s> commit
-3.387785	<s> compare
-3.387785	<s> complain
-3.387785	<s> complete
-3.387785	<s> confess
-3.387785	<s> consider
-3.387785	<s> continue
-3.387785	<s> convince
-3.099405	<s> cook
-3.099405	<s> couldn
-3.387785	<s> crawl
-2.78741	<s> cross
-3.387785	<s> cruise
-3.387785	<s> cut
-3.387785	<s> deal
-1.686638	<s> decide
-3.099405	<s> declare
-3.387785	<s> depart
-2.78741	<s> describe
-3.099405	<s> destroy
-2.78741	<s> didn
-3.387785	<s> didnt
-3.387785	<s> disappoint
-3.099405	<s> discover
-2.010969	<s> dive
-3.387785	<s> do.
-3.387785	<s> don
-3.387785	<s> dot
-3.387785	<s> drag
-1.632972	<s> drive
-2.075855	<s> eat
-2.525101	<s> end
-3.387785	<s> enjoy
-3.099405	<s> enter
-2.78741	<s> excite
-3.387785	<s> exercise
-3.387785	<s> explain
-3.099405	<s> explore
-2.78741	<s> face
-1.904588	<s> feel
-3.387785	<s> fight
-3.099405	<s> figure
-3.387785	<s> fill
-1.819206	<s> find
-2.78741	<s> finish
-3.387785	<s> fit
-2.78741	<s> fly
-3.099405	<s> follow
-3.099405	<s> forget
-3.387785	<s> frustrate
-3.387785	<s> gaze
-2.362724	<s> give
-3.387785	<s> gon
-2.78741	<s> grab
-3.387785	<s> greet
-3.099405	<s> guess
-3.099405	<s> hang
-2.244808	<s> head
-2.075855	<s> hear
-2.525101	<s> help
-2.525101	<s> here
-3.387785	<s> highlight
-1.747883	<s> hike
-3.387785	<s> hit
-3.387785	<s> hold
-2.525101	<s> hope
-3.387785	<s> hover
-3.387785	<s> hurt
-3.099405	<s> imagine
-3.387785	<s> improve
-2.78741	<s> include
-3.099405	<s> intend
-3.099405	<s> introduce
-3.099405	<s> invite
-2.362724	<s> it
-2.78741	<s> join
-3.387785	<s> jump
-1.904588	<s> know
-3.387785	<s> learn
-1.563171	<s> leave
-2.78741	<s> let
-2.525101	<s> like
-2.78741	<s> live
-3.099405	<s> load
-1.859802	<s> look
-3.387785	<s> lose
-2.010969	<s> love
-3.099405	<s> marry
-2.78741	<s> mean
-2.78741	<s> meet
-3.387785	<s> melt
-3.099405	<s> mention
-3.099405	<s> mind
-3.099405	<s> move
-3.099405	<s> mumble
-2.244808	<s> need
-3.387785	<s> nestle
-3.099405	<s> offer
-3.387785	<s> open
-3.387785	<s> organise
-3.099405	<s> organize
-3.387785	<s> overflow
-3.387785	<s> own
-2.075855	<s> pack
-3.099405	<s> pay
-2.362724	<s> pick
-3.387785	<s> plague
-2.244808	<s> plan
-2.78741	<s> play
-2.78741	<s> please
-3.387785	<s> pop
-2.525101	<s> post
-3.387785	<s> pour
-3.387785	<s> practice
-2.78741	<s> prepare
-3.387785	<s> provide
-3.387785	<s> psych
-3.099405	<s> publish
-3.387785	<s> pull
-2.78741	<s> purchase
-3.387785	<s> push
-3.099405	<s> put
-2.244808	<s> rain
-3.387785	<s> rate
-3.099405	<s> reach
-3.387785	<s> read
-3.387785	<s> realize
-3.387785	<s> receive
-2.78741	<s> recover
-3.099405	<s> relax
-3.387785	<s> remember
-3.387785	<s> remind
-3.387785	<s> rent
-3.099405	<s> repeat
-3.099405	<s> report
-3.099405	<s> rest
-2.244808	<s> return
-3.387785	<s> ride
-3.387785	<s> risk
-3.387785	<s> rock
-2.362724	<s> run
-3.387785	<s> scan
-3.387785	<s> scop
-2.010969	<s> seem
-3.387785	<s> send
-2.075855	<s> set
-2.362724	<s> share
-3.387785	<s> shift
-3.387785	<s> shine
-2.78741	<s> sign
-3.387785	<s> sink
-3.099405	<s> sit
-2.152167	<s> sleep
-3.387785	<s> smile
-3.099405	<s> snap
-3.099405	<s> snorkele
-3.387785	<s> soak
-3.387785	<s> space
-3.099405	<s> speak
-1.747883	<s> spend
-1.608437	<s> start
-3.387785	<s> state
-2.78741	<s> stay
-3.099405	<s> stop
-3.387785	<s> strap
-3.099405	<s> stroll
-3.387785	<s> suit
-2.525101	<s> suppose
-3.387785	<s> surprise
-3.099405	<s> survive
-3.387785	<s> swap
-2.244808	<s> swim
-3.387785	<s> swing
-3.387785	<s> talk
-2.244808	<s> tell
-3.387785	<s> that
-1.819206	<s> think
-3.387785	<s> threaten
-3.099405	<s> tire
-3.387785	<s> top
-3.387785	<s> tow
-3.099405	<s> trail
-3.387785	<s> train
-3.387785	<s> trip
-2.525101	<s> try
-2.78741	<s> turn
-2.362724	<s> update
-2.78741	<s> upload
-2.362724	<s> use
-3.387785	<s> vary
-2.525101	<s> visit
-2.78741	<s> wait
-2.78741	<s> wake
-2.362724	<s> walk
-2.244808	<s> want
-3.387785	<s> warm
-3.387785	<s> warn
-3.099405	<s> wasn
-2.525101	<s> watch
-2.78741	<s> we
-3.387785	<s> weren
-2.244808	<s> work
-3.387785	<s> wrap
-2.152167	<s> write
-3.099405	<s> yell
-1.391406	<unk> </s>
-1.282826	<unk> <unk>
-3.457159	<unk> absolve
-3.457159	<unk> accomplish
-3.457159	<unk> accord
-3.457159	<unk> achieve
-3.457159	<unk> agree
-3.457159	<unk> aim
-3.457159	<unk> all.
-3.168779	<unk> allow
-3.457159	<unk> alternate
-3.457159	<unk> answer
-3.457159	<unk> appear
-3.457159	<unk> appreciate
-3.168779	<unk> approach
-2.594476	<unk> arrive
-3.168779	<unk> ask
-3.457159	<unk> attach
-2.856785	<unk> avoid
-3.457159	<unk> award
-3.457159	<unk> backtrack
-3.457159	<unk> base
-3.457159	<unk> beam
-3.457159	<unk> become
-3.457159	<unk> begin
-3.457159	<unk> bite
-3.168779	<unk> blow
-3.457159	<unk> boat
-3.457159	<unk> bob
-3.457159	<unk> boil
-3.457159	<unk> border
-3.457159	<unk> bother
-3.457159	<unk> breakfast.
-3.168779	<unk> breathe
-2.080344	<unk> bring
-3.457159	<unk> build
-3.457159	<unk> bump
-3.457159	<unk> bury
-2.432098	<unk> buy
-3.457159	<unk> bypass
-2.432098	<unk> call
-3.457159	<unk> camp
-3.457159	<unk> can
-3.168779	<unk> care
-3.168779	<unk> cast
-3.457159	<unk> cause
-3.457159	<unk> celebrate
-2.856785	<unk> change
-3.168779	<unk> chat
-2.314182	<unk> check
-3.457159	<unk> chop
-3.457159	<unk> chuckle
-3.457159	<unk> clamber
-3.457159	<unk> climb
-3.457159	<unk> clock
-3.457159	<unk> co
-3.457159	<unk> coat
-3.457159	<unk> collapse
-3.457159	<unk> collect
-3.457159	<unk> comment
-3.457159	<unk> compel
-3.168779	<unk> complain
-3.457159	<unk> complete
-3.168779	<unk> concern
-3.457159	<unk> consider
-3.457159	<unk> construct
-2.856785	<unk> continue
-3.457159	<unk> convince
-3.457159	<unk> cover
-3.457159	<unk> create
-2.856785	<unk> cross
-3.457159	<unk> crowd
-3.457159	<unk> cruise
-3.457159	<unk> cuddle
-3.168779	<unk> deal
-2.023904	<unk> decide
-3.457159	<unk> declare
-3.457159	<unk> deepen
-2.856785	<unk> descend
-3.457159	<unk> describe
-3.457159	<unk> desert
-3.457159	<unk> design
-3.457159	<unk> develop
-2.432098	<unk> didn
-3.457159	<unk> didnt
-3.457159	<unk> die
-3.457159	<unk> dip
-3.457159	<unk> discover
-3.457159	<unk> discuss
-3.457159	<unk> divide
-3.457159	<unk> do.
-3.168779	<unk> doesn
-2.594476	<unk> don
-3.457159	<unk> drag
-3.457159	<unk> draw
-3.457159	<unk> dream
-3.457159	<unk> drink
-1.973963	<unk> drive
-3.168779	<unk> drop
-3.457159	<unk> drum
-2.856785	<unk> dry
-2.145229	<unk> eat
-3.457159	<unk> edward
-2.080344	<unk> end
-3.457159	<unk> endure
-2.594476	<unk> enjoy
-3.168779	<unk> exhaust
-2.594476	<unk> expect
-3.457159	<unk> experience
-3.457159	<unk> explore
-3.457159	<unk> face
-3.457159	<unk> fail
-2.856785	<unk> fall
-3.457159	<unk> feature
-3.457159	<unk> feed
-2.314182	<unk> feel
-2.594476	<unk> figure
-3.457159	<unk> fill
-3.457159	<unk> filter
-1.817258	<unk> find
-2.856785	<unk> finish
-3.457159	<unk> fix
-3.457159	<unk> float
-2.856785	<unk> fly
-3.457159	<unk> follow
-3.457159	<unk> forget
-3.168779	<unk> freeze
-3.168779	<unk> gather
-3.457159	<unk> gaze
-2.145229	<unk> give
-3.457159	<unk> glaze
-2.594476	<unk> grab
-3.457159	<unk> graze
-3.457159	<unk> greet
-3.168779	<unk> hang
-3.457159	<unk> hate
-1.888581	<unk> head
-3.168779	<unk> hear
-3.457159	<unk> heat
-2.432098	<unk> help
-3.457159	<unk> herd
-2.856785	<unk> hike
-2.594476	<unk> hit
-3.457159	<unk> hold
-3.457159	<unk> hook
-3.457159	<unk> hope
-2.856785	<unk> hurt
-3.168779	<unk> imagine
-2.856785	<unk> include
-3.457159	<unk> indicate
-3.457159	<unk> insist
-3.457159	<unk> install
-3.457159	<unk> involve
-3.457159	<unk> isn
-3.457159	<unk> it
-3.457159	<unk> join
-3.457159	<unk> kayake
-1.973963	<unk> keep
-3.457159	<unk> kick
-3.457159	<unk> kid
-3.457159	<unk> kinda
-1.973963	<unk> know
-3.457159	<unk> land
-3.457159	<unk> launch
-3.457159	<unk> lead
-3.457159	<unk> learn
-1.888581	<unk> leave
-2.856785	<unk> let
-3.168779	<unk> light
-3.168779	<unk> like
-3.168779	<unk> line
-3.457159	<unk> listen
-3.457159	<unk> load
-3.457159	<unk> lodge
-2.023904	<unk> look
-3.457159	<unk> lose
-2.221541	<unk> love
-3.457159	<unk> luck
-2.594476	<unk> manage
-3.457159	<unk> mean
-2.432098	<unk> meet
-2.856785	<unk> mention
-3.457159	<unk> mind
-3.168779	<unk> miss
-2.856785	<unk> move
-3.457159	<unk> murder
-3.457159	<unk> name
-3.457159	<unk> nap
-2.432098	<unk> need
-3.457159	<unk> negotiate
-3.168779	<unk> notice
-3.457159	<unk> obsess
-3.457159	<unk> occupy
-3.457159	<unk> offer
-3.168779	<unk> overlook
-3.457159	<unk> own
-2.594476	<unk> pack
-2.856785	<unk> paddle
-3.457159	<unk> panic
-3.457159	<unk> pass
-3.168779	<unk> pick
-3.457159	<unk> pine
-3.457159	<unk> plan
-2.432098	<unk> play
-3.457159	<unk> plow
-3.168779	<unk> point
-3.457159	<unk> post
-3.457159	<unk> pound
-3.457159	<unk> pour
-3.457159	<unk> prepare
-3.457159	<unk> proceed
-3.457159	<unk> provide
-3.457159	<unk> pump
-3.457159	<unk> purchase
-3.457159	<unk> push
-2.314182	<unk> put
-2.432098	<unk> rain
-3.457159	<unk> ramble
-2.856785	<unk> reach
-2.432098	<unk> read
-3.168779	<unk> realize
-3.457159	<unk> recommend
-3.168779	<unk> record
-3.168779	<unk> recover
-3.457159	<unk> refresh
-2.856785	<unk> relax
-3.168779	<unk> remember
-3.457159	<unk> rent
-3.457159	<unk> replicate
-3.457159	<unk> reply
-3.168779	<unk> rest
-3.168779	<unk> return
-2.856785	<unk> ride
-3.457159	<unk> rise
-3.457159	<unk> roadwalk
-3.457159	<unk> rock
-3.457159	<unk> roll
-3.457159	<unk> round
-3.457159	<unk> run
-3.457159	<unk> scan
-3.457159	<unk> scarf
-3.457159	<unk> scratch
-3.457159	<unk> scream
-2.145229	<unk> seem
-3.457159	<unk> seep
-3.457159	<unk> seize
-3.457159	<unk> send
-3.457159	<unk> separate
-3.457159	<unk> serve
-1.888581	<unk> set
-3.457159	<unk> settle
-3.457159	<unk> shake
-3.168779	<unk> share
-3.457159	<unk> shine
-3.168779	<unk> show
-3.457159	<unk> shower
-3.457159	<unk> sing
-2.856785	<unk> sit
-3.457159	<unk> skip
-2.080344	<unk> sleep
-3.457159	<unk> slog
-3.457159	<unk> slow
-3.168779	<unk> smoke
-3.457159	<unk> snap
-3.168779	<unk> soak
-3.457159	<unk> soar
-3.457159	<unk> sort
-3.168779	<unk> sound
-3.457159	<unk> speak
-2.856785	<unk> spend
-3.457159	<unk> spoil
-2.856785	<unk> spot
-3.457159	<unk> sprinkle
-3.168779	<unk> squash
-3.457159	<unk> stack
-1.851457	<unk> start
-2.432098	<unk> stay
-3.457159	<unk> steal
-2.594476	<unk> stick
-3.457159	<unk> stink
-1.851457	<unk> stop
-3.457159	<unk> stress
-3.457159	<unk> strike
-3.457159	<unk> stroll
-3.457159	<unk> study
-3.168779	<unk> stuff
-3.457159	<unk> submit
-3.457159	<unk> suck
-3.457159	<unk> suit
-3.457159	<unk> sunbathe
-3.457159	<unk> surprise
-3.457159	<unk> survive
-2.856785	<unk> swim
-3.168779	<unk> switch
-3.457159	<unk> tackle
-2.856785	<unk> talk
-3.168779	<unk> taste
-3.457159	<unk> teach
-3.457159	<unk> tear
-2.594476	<unk> tell
-3.457159	<unk> terrify
-3.457159	<unk> thank
-2.856785	<unk> that
-3.457159	<unk> there
-2.023904	<unk> think
-3.457159	<unk> threaten
-2.856785	<unk> throw
-3.457159	<unk> tie
-3.457159	<unk> tighten
-3.168779	<unk> tire
-3.457159	<unk> top
-3.457159	<unk> toss
-3.457159	<unk> touch
-3.457159	<unk> tour
-3.457159	<unk> trail
-3.457159	<unk> train
-3.168779	<unk> travel
-3.457159	<unk> treat
-3.457159	<unk> trust
-2.080344	<unk> try
-3.457159	<unk> tuck
-3.168779	<unk> turn
-3.457159	<unk> understand
-3.457159	<unk> unzip
-3.457159	<unk> upload
-2.080344	<unk> use
-3.457159	<unk> vacate
-2.314182	<unk> visit
-2.314182	<unk> wait
-2.314182	<unk> wake
-2.221541	<unk> walk
-2.594476	<unk> wander
-1.929177	<unk> want
-3.168779	<unk> warm
-3.168779	<unk> warn
-3.457159	<unk> was.
-3.168779	<unk> wash
-2.856785	<unk> watch
-3.457159	<unk> we
-3.457159	<unk> welcome
-3.457159	<unk> weren
-3.457159	<unk> wiggle
-3.457159	<unk> win
-3.168779	<unk> wind
-3.168779	<unk> wish
-3.457159	<unk> wonder
-2.594476	<unk> work
-2.594476	<unk> worry
-3.457159	<unk> wouldn
-3.168779	<unk> write
-3.457159	<unk> you
-0.8201702	=d chill
-0.8201702	=d forget
-1.21811	abandon explore
-0.9297301	abandon insist
-1.21811	abandon ride
-1.21811	abandon soak
-0.7078814	absolve dodge
-0.9962614	absolve tell
-1.21811	accept decide
-1.21811	accept fail
-1.21811	accept keep
-1.21811	accept run
-1.21811	accept settle
-0.8201702	access look
-0.8201702	access put
-0.9962614	accompany feel
-0.9962614	accompany keep
-0.9962614	accompany walk
-1.297291	accomplish break
-1.297291	accomplish feel
-1.297291	accomplish pick
-1.297291	accomplish rest
-1.297291	accomplish sit
-1.297291	accomplish want
-1.51914	accord amuse
-1.51914	accord call
-1.51914	accord drive
-1.51914	accord feed
-1.51914	accord find
-1.51914	accord pitch
-1.51914	accord reserve
-1.51914	accord sleep
-1.51914	accord spot
-1.51914	accord walk
-0.8201702	account break
-0.8201702	account trail
-0.8201702	ache capture
-0.8201702	ache watch
-1.21811	achieve </s>
-1.21811	achieve cherish
-1.21811	achieve don
-1.21811	achieve drop
-1.21811	achieve work
-0.8201702	acquire appear
-0.8201702	acquire give
-0.8201702	act cross
-0.8201702	act start
-2.02429	add </s>
-1.73591	add <unk>
-2.02429	add climb
-1.73591	add decide
-2.02429	add disappoint
-2.02429	add eat
-2.02429	add fall
-2.02429	add guess
-1.73591	add head
-2.02429	add hike
-2.02429	add install
-1.73591	add leave
-2.02429	add manage
-2.02429	add near
-2.02429	add prepare
-1.73591	add rain
-2.02429	add rough
-2.02429	add sleep
-2.02429	add sound
-2.02429	add stay
-2.02429	add toss
-1.73591	add use
-1.73591	add wake
-2.02429	add warn
-2.02429	add weren
-1.1212	adjust breathe
-1.1212	adjust navigate
-1.1212	adjust pull
-1.1212	adjust start
-1.297291	admire decide
-1.297291	admire desert
-1.297291	admire hike
-1.297291	admire live
-1.297291	admire sit
-1.297291	admire start
-1.376888	admit </s>
-1.665268	admit am.
-1.064894	admit decide
-1.665268	admit fall
-1.665268	admit it
-1.665268	admit jet
-1.665268	admit keep
-1.665268	admit know
-1.665268	admit look
-1.665268	admit teem
-1.665268	admit tighten
-0.8201702	adore identify
-0.8201702	adore relax
-1.21811	advise </s>
-1.21811	advise buy
-1.21811	advise look
-1.21811	advise tire
-1.21811	advise turn
-0.9962614	affect hike
-0.9962614	affect ride
-0.9962614	affect use
-0.8201702	afford bloom
-0.8201702	afford paddle
-1.841359	agree act
-1.841359	agree ask
-1.841359	agree build
-1.841359	agree compare
-1.841359	agree decide
-1.841359	agree doesn
-1.841359	agree enjoy
-1.552979	agree exceed
-1.841359	agree exhaust
-1.841359	agree give
-1.841359	agree leave
-1.841359	agree plan
-1.841359	agree rain
-1.841359	agree reach
-1.841359	agree release
-1.841359	agree set
-1.841359	agree sleep
-1.841359	agree stick
-1.841359	agree try
-1.841359	agree watch
-0.9962614	aim attach
-0.9962614	aim explode
-0.9962614	aim stop
-0.8201702	all. burn
-0.8201702	all. crash
-0.8201702	allocate give
-0.8201702	allocate walk
-2.063208	allow </s>
-1.462834	allow <unk>
-1.774828	allow carry
-2.063208	allow connect
-2.063208	allow doesn
-2.063208	allow dry
-1.774828	allow end
-1.774828	allow enjoy
-2.063208	allow give
-2.063208	allow grab
-2.063208	allow learn
-2.063208	allow limit
-2.063208	allow live
-2.063208	allow manage
-2.063208	allow need
-2.063208	allow originate
-2.063208	allow pass
-1.774828	allow prepare
-2.063208	allow put
-2.063208	allow reach
-2.063208	allow research
-2.063208	allow run
-2.063208	allow scramble
-2.063208	allow set
-2.063208	allow spend
-2.063208	allow stay
-2.063208	allow stress
-2.063208	allow throw
-2.063208	allow warn
-1.1212	alternate feast
-0.8328201	alternate occur
-1.1212	alternate start
-0.8201702	am. realize
-0.8201702	am. toss
-1.665268	amaze ask
-1.665268	amaze bring
-1.665268	amaze continue
-1.665268	amaze dive
-1.665268	amaze don
-1.665268	amaze drive
-1.665268	amaze jump
-1.665268	amaze leave
-1.665268	amaze order
-1.665268	amaze roll
-1.665268	amaze start
-1.665268	amaze stop
-1.376888	amaze walk
-0.8201702	amount find
-0.8201702	amount rain
-0.8201702	amuse drive
-0.8201702	amuse play
-1.1212	anchor remove
-1.1212	anchor shock
-1.1212	anchor wake
-1.1212	anchor walk
-1.1212	announce brush
-1.1212	announce change
-1.1212	announce estimate
-1.1212	announce jog
-1.42223	answer </s>
-1.42223	answer call
-1.42223	answer concentrate
-1.42223	answer drive
-1.42223	answer laugh
-1.42223	answer park
-1.42223	answer pass
-1.42223	answer thrill
-1.42223	anticipate </s>
-1.42223	anticipate call
-1.13385	anticipate continue
-1.42223	anticipate equalize
-1.42223	anticipate find
-1.42223	anticipate leave
-1.42223	anticipate pack
-0.8201702	appeal find
-0.8201702	appeal flow
-1.749589	appear cleanse
-1.749589	appear don
-1.749589	appear draw
-1.749589	appear feel
-1.749589	appear follow
-1.749589	appear freeze
-1.749589	appear glisten
-1.749589	appear greet
-1.749589	appear hike
-1.749589	appear learn
-1.749589	appear lower
-1.749589	appear own
-1.749589	appear ride
-1.749589	appear roll
-1.749589	appear spend
-1.749589	appear start
-1.749589	appear stop
-0.8201702	apply </s>
-0.8201702	apply close
-0.8201702	appoint turn
-0.8201702	appoint use
-1.297291	appreciate <unk>
-1.297291	appreciate catch
-1.297291	appreciate drive
-1.297291	appreciate head
-1.297291	appreciate hesitate
-1.297291	appreciate lose
-1.633084	approach become
-1.633084	approach feel
-1.633084	approach find
-1.344703	approach flow
-1.633084	approach happen
-1.633084	approach hit
-1.633084	approach leave
-1.633084	approach meet
-1.633084	approach pull
-1.633084	approach roll
-1.633084	approach round
-1.633084	approach start
-1.21811	aren <unk>
-1.21811	aren discover
-1.21811	aren educate
-1.21811	aren happen
-1.21811	aren they
-0.9962614	arise sit
-0.9962614	arise start
-0.9962614	arise want
-1.42223	arrange </s>
-1.42223	arrange <unk>
-1.42223	arrange decide
-1.42223	arrange ensure
-1.42223	arrange find
-1.42223	arrange meet
-1.42223	arrange put
-1.42223	arrange start
-2.370639	arrive </s>
-1.175823	arrive <unk>
-2.058645	arrive arrive
-2.370639	arrive avoid
-2.659019	arrive begin
-2.659019	arrive border
-2.370639	arrive bring
-2.659019	arrive call
-2.659019	arrive carry
-2.370639	arrive catch
-2.659019	arrive celebrate
-2.659019	arrive clear
-2.659019	arrive close
-2.659019	arrive collapse
-2.659019	arrive complain
-2.659019	arrive continue
-2.659019	arrive cook
-2.659019	arrive cover
-2.659019	arrive describe
-2.659019	arrive deserve
-2.659019	arrive didn
-2.659019	arrive drag
-2.659019	arrive drive
-2.659019	arrive dry
-2.659019	arrive enjoy
-2.370639	arrive fill
-2.659019	arrive filter
-2.058645	arrive find
-2.659019	arrive forage
-2.370639	arrive greet
-2.659019	arrive handle
-2.659019	arrive hang
-1.633958	arrive head
-2.659019	arrive help
-2.370639	arrive hike
-2.659019	arrive hurry
-2.659019	arrive increase
-2.659019	arrive inhabit
-2.659019	arrive leave
-2.058645	arrive load
-2.058645	arrive look
-2.370639	arrive meet
-2.659019	arrive nap
-2.659019	arrive notice
-2.659019	arrive opt
-2.659019	arrive organize
-2.659019	arrive overlook
-2.659019	arrive pack
-2.659019	arrive park
-2.370639	arrive pass
-2.659019	arrive pay
-2.659019	arrive peel
-2.659019	arrive pick
-2.659019	arrive pile
-2.659019	arrive pitch
-2.659019	arrive play
-2.370639	arrive put
-2.659019	arrive realize
-2.659019	arrive rest
-2.659019	arrive roam
-2.659019	arrive run
-2.659019	arrive send
-1.282204	arrive set
-2.370639	arrive settle
-2.659019	arrive sit
-1.796335	arrive sleep
-2.659019	arrive smoke
-2.659019	arrive snow
-2.058645	arrive spend
-2.659019	arrive start
-2.370639	arrive stay
-2.659019	arrive stop
-2.659019	arrive talk
-2.058645	arrive tell
-2.058645	arrive try
-1.796335	arrive turn
-2.659019	arrive understand
-2.370639	arrive update
-2.659019	arrive volunteer
-2.659019	arrive wait
-2.659019	arrive wake
-2.659019	arrive walk
-2.659019	arrive we
-0.8201702	arrived eat
-0.8201702	arrived excite
-1.297291	ascend arrive
-1.008911	ascend ascend
-1.297291	ascend return
-1.297291	ascend spend
-1.297291	ascend stop
-2.609045	ask </s>
-1.746361	ask <unk>
-1.746361	ask ask
-2.609045	ask bear
-2.609045	ask begin
-2.609045	ask boil
-2.609045	ask border
-2.609045	ask call
-2.320665	ask camp
-2.609045	ask cause
-2.320665	ask check
-2.609045	ask consult
-2.320665	ask continue
-2.609045	ask cover
-2.609045	ask cringe
-2.609045	ask decide
-2.609045	ask didn
-2.609045	ask dive
-2.008671	ask don
-2.609045	ask drive
-2.609045	ask eat
-2.609045	ask echo
-2.609045	ask end
-2.609045	ask estimate
-2.609045	ask feel
-2.609045	ask fill
-2.320665	ask find
-2.609045	ask finish
-2.609045	ask forbid
-2.609045	ask form
-2.320665	ask give
-2.609045	ask glaze
-2.609045	ask happen
-2.609045	ask hear
-2.609045	ask help
-2.609045	ask hurt
-2.609045	ask keep
-1.746361	ask know
-2.008671	ask leave
-2.609045	ask listen
-2.320665	ask look
-2.609045	ask march
-2.320665	ask mean
-2.609045	ask meet
-2.609045	ask need
-2.008671	ask pack
-2.008671	ask put
-2.320665	ask race
-2.609045	ask realize
-2.320665	ask relax
-2.609045	ask remove
-2.609045	ask reply
-2.609045	ask respond
-2.609045	ask risk
-1.746361	ask run
-2.609045	ask seem
-2.609045	ask send
-2.008671	ask set
-2.609045	ask show
-2.320665	ask shut
-2.609045	ask sink
-2.609045	ask spend
-2.609045	ask stand
-1.746361	ask start
-2.320665	ask stay
-2.609045	ask stick
-2.609045	ask suggest
-2.609045	ask suppose
-2.320665	ask talk
-2.320665	ask tell
-2.320665	ask think
-2.609045	ask tour
-2.320665	ask try
-2.609045	ask use
-2.609045	ask wait
-2.609045	ask walk
-2.609045	ask wasn
-2.008671	ask watch
-2.609045	ask wish
-2.320665	ask work
-0.5317901	assateague eat
-0.5317901	assese want
-0.8201702	associate cross
-0.8201702	associate decide
-1.598321	assume allow
-1.598321	assume book
-1.598321	assume cause
-1.598321	assume cook
-1.598321	assume miss
-1.598321	assume pick
-1.598321	assume please
-1.598321	assume seem
-1.598321	assume sign
-1.309941	assume sleep
-1.598321	assume work
-1.185003	assure </s>
-1.473383	assure agree
-1.473383	assure ask
-1.473383	assure carry
-1.473383	assure film
-1.473383	assure head
-1.473383	assure need
-1.473383	assure run
-1.297291	attach <unk>
-1.297291	attach haul
-1.297291	attach speed
-1.297291	attach stop
-1.297291	attach throw
-1.297291	attach use
-1.473383	attack <unk>
-1.473383	attack decide
-1.473383	attack drive
-1.473383	attack start
-1.473383	attack swat
-1.185003	attack tell
-1.473383	attack understand
-1.473383	attack wait
-1.598321	attempt decide
-1.598321	attempt fall
-1.309941	attempt find
-1.598321	attempt follow
-1.598321	attempt forget
-1.309941	attempt join
-1.598321	attempt mount
-1.598321	attempt need
-1.309941	attempt procure
-0.8201702	attend head
-0.8201702	attend put
-1.1212	attract <unk>
-1.1212	attract decide
-1.1212	attract dream
-1.1212	attract laugh
-1.297291	average <unk>
-1.297291	average can
-1.297291	average clean
-1.297291	average feel
-1.297291	average leave
-1.297291	average seem
-1.72326	avoid </s>
-1.72326	avoid climb
-1.72326	avoid flip
-1.72326	avoid follow
-1.72326	avoid give
-1.72326	avoid help
-1.72326	avoid rain
-1.72326	avoid reach
-1.72326	avoid return
-1.72326	avoid scream
-1.72326	avoid scurry
-1.72326	avoid set
-1.72326	avoid skip
-1.72326	avoid stay
-1.72326	avoid surface
-1.72326	avoid visit
-1.1212	await aren
-1.1212	await guess
-0.8328201	await stick
-1.376888	awake agree
-1.376888	awake breathe
-1.376888	awake describe
-1.665268	awake greet
-1.665268	awake pack
-1.376888	awake proceed
-1.665268	awake sleep
-1.665268	awake switch
-1.665268	awake try
-1.665268	awake want
-0.8201702	award </s>
-0.8201702	award decide
-1.797894	back beg
-1.797894	back check
-1.509514	back entertain
-1.797894	back find
-1.797894	back head
-1.797894	back last
-1.797894	back lose
-1.797894	back love
-1.797894	back pack
-1.797894	back plunge
-1.509514	back prepare
-1.797894	back pull
-1.797894	back sail
-1.509514	back sleep
-1.797894	back tell
-1.797894	back use
-1.297291	backpack inspire
-1.297291	backpack involve
-1.297291	backpack leave
-1.297291	backpack love
-1.297291	backpack walk
-1.297291	backpack want
-1.297291	backtrack catch
-1.297291	backtrack direct
-1.297291	backtrack head
-1.297291	backtrack hit
-1.297291	backtrack pass
-1.297291	backtrack work
-0.8201702	balance manage
-0.8201702	balance play
-0.5317901	balk dry
-0.8201702	bandage expect
-0.8201702	bandage wear
-1.297291	bang learn
-1.297291	bang put
-1.297291	bang start
-1.008911	bang think
-1.297291	bang turn
-0.5317901	barbeque watch
-0.9962614	bark ask
-0.9962614	bark find
-0.9962614	bark start
-0.8201702	barrel hold
-0.8201702	barrel think
-1.364238	base <unk>
-1.075858	base fly
-1.364238	base pack
-1.364238	base prepare
-1.364238	base trust
-1.364238	base twist
-0.8201702	bath abandon
-0.8201702	bath explore
-0.8201702	batter set
-0.8201702	batter show
-0.8201702	beach fill
-0.8201702	beach try
-0.9962614	beam become
-0.9962614	beam climb
-0.9962614	beam push
-1.42223	bear choose
-1.42223	bear decide
-1.42223	bear dig
-1.42223	bear film
-1.42223	bear fire
-1.42223	bear love
-1.42223	bear rent
-1.42223	bear they
-1.51914	beat </s>
-1.51914	beat brush
-1.51914	beat cover
-1.23076	beat lose
-1.51914	beat post
-1.51914	beat sit
-1.51914	beat start
-1.51914	beat stop
-1.51914	beat tell
-2.21811	become </s>
-1.617736	become <unk>
-2.21811	become attach
-2.21811	become become
-2.21811	become bend
-2.21811	become call
-2.21811	become cook
-2.21811	become didn
-2.21811	become doze
-2.21811	become drive
-2.21811	become fall
-2.21811	become feel
-2.21811	become find
-1.92973	become float
-2.21811	become flow
-2.21811	become hang
-2.21811	become hike
-2.21811	become hurt
-1.92973	become it
-1.92973	become itch
-2.21811	become know
-2.21811	become lay
-2.21811	become leave
-2.21811	become lose
-1.92973	become move
-2.21811	become notice
-2.21811	become own
-1.92973	become read
-2.21811	become relax
-1.92973	become remember
-2.21811	become rest
-2.21811	become run
-2.21811	become sit
-1.92973	become sleep
-2.21811	become snorkele
-2.21811	become stink
-2.21811	become think
-2.21811	become try
-2.21811	become wake
-2.21811	become want
-2.21811	become wonder
-0.5317901	bed. can
-0.8201702	befriend fill
-0.8201702	befriend suit
-1.297291	beg camp
-1.297291	beg pass
-1.297291	beg pretend
-1.297291	beg set
-1.297291	beg start
-1.297291	beg wait
-2.370399	begin accompany
-2.370399	begin amount
-2.370399	begin ask
-2.370399	begin begin
-2.370399	begin believe
-2.370399	begin blow
-2.370399	begin book
-2.370399	begin check
-2.370399	begin climb
-2.370399	begin confirm
-2.370399	begin contain
-2.082018	begin decide
-2.370399	begin didn
-2.370399	begin direct
-2.370399	begin drain
-2.370399	begin drive
-2.370399	begin end
-2.370399	begin feed
-2.082018	begin figure
-2.370399	begin give
-2.370399	begin gon
-2.370399	begin help
-2.082018	begin hike
-2.370399	begin keep
-2.370399	begin know
-2.370399	begin learn
-2.082018	begin look
-2.082018	begin mean
-2.370399	begin meander
-2.370399	begin meet
-2.370399	begin move
-2.082018	begin open
-2.370399	begin pick
-2.370399	begin plan
-2.370399	begin play
-2.370399	begin post
-2.370399	begin press
-1.507715	begin put
-2.082018	begin rain
-2.370399	begin run
-2.370399	begin set
-2.370399	begin spend
-2.370399	begin spot
-1.507715	begin start
-2.082018	begin stop
-2.082018	begin suggest
-2.370399	begin survive
-2.370399	begin think
-2.370399	begin travel
-2.370399	begin turn
-2.370399	begin visit
-2.370399	begin wait
-2.370399	begin walk
-2.370399	begin wonder
-2.370399	begin work
-2.370399	begin worry
-0.9962614	behave </s>
-0.9962614	behave complain
-0.9962614	behave look
-0.9962614	behold sit
-0.7078814	behold walk
-2.075443	believe </s>
-1.475068	believe <unk>
-2.075443	believe amaze
-2.075443	believe ask
-2.075443	believe begin
-1.475068	believe believe
-2.075443	believe commence
-1.787063	believe continue
-2.075443	believe enjoy
-2.075443	believe explore
-2.075443	believe fuck
-2.075443	believe guess
-2.075443	believe hang
-2.075443	believe happen
-2.075443	believe hike
-2.075443	believe involve
-2.075443	believe leave
-2.075443	believe lie
-2.075443	believe limit
-2.075443	believe remember
-2.075443	believe save
-2.075443	believe sink
-2.075443	believe stay
-2.075443	believe stick
-2.075443	believe swirl
-2.075443	believe tell
-2.075443	believe think
-2.075443	believe use
-1.787063	believe want
-2.075443	believe wasn
-1.297291	belong belong
-1.297291	belong enter
-1.297291	belong feel
-1.297291	belong imagine
-1.297291	belong pay
-1.297291	belong think
-1.21811	bend affect
-0.9297301	bend look
-1.21811	bend suppose
-1.21811	bend use
-0.8201702	bet suppose
-0.8201702	bet worry
-0.5317901	bias live
-0.5317901	bike stay
-0.8201702	bind </s>
-0.8201702	bind leave
-1.861563	bite begin
-1.861563	bite build
-1.861563	bite call
-1.861563	bite enter
-1.861563	bite find
-1.861563	bite head
-1.861563	bite help
-1.861563	bite like
-1.861563	bite look
-1.861563	bite pick
-1.861563	bite plan
-1.861563	bite replicate
-1.861563	bite serve
-1.861563	bite set
-1.861563	bite start
-1.861563	bite tell
-1.573183	bite think
-1.861563	bite wish
-1.573183	bite work
-1.861563	bite worry
-0.8201702	blag include
-0.8201702	blag relax
-0.7078814	blame carry
-0.9962614	blame focus
-1.1212	blast <unk>
-1.1212	blast separate
-1.1212	blast stop
-1.1212	blast swim
-1.364238	blaze <unk>
-1.075858	blaze arrive
-1.364238	blaze begin
-1.364238	blaze consist
-1.364238	blaze enjoy
-1.364238	blaze reflect
-0.8201702	bleed cover
-0.8201702	bleed eat
-1.21811	blend <unk>
-1.21811	blend fill
-1.21811	blend leave
-1.21811	blend turn
-1.21811	blend wouldn
-0.8730084	bless </s>
-1.473383	bless celebrate
-1.473383	bless enter
-1.473383	bless exist
-1.473383	bless lose
-1.473383	bless read
-1.473383	bless talk
-1.21811	block <unk>
-1.21811	block clear
-1.21811	block hike
-1.21811	block rip
-1.21811	block turn
-0.8201702	blogg <unk>
-0.8201702	blogg need
-0.8201702	bloom hear
-0.8201702	bloom recognize
-2.1212	blow <unk>
-2.1212	blow avoid
-2.1212	blow become
-2.1212	blow blow
-2.1212	blow change
-2.1212	blow create
-2.1212	blow eat
-2.1212	blow flow
-2.1212	blow giggle
-2.1212	blow hate
-1.83282	blow hit
-1.83282	blow hold
-2.1212	blow know
-2.1212	blow peg
-2.1212	blow race
-2.1212	blow represent
-2.1212	blow ride
-2.1212	blow scare
-2.1212	blow shiver
-2.1212	blow stand
-1.258516	blow start
-1.83282	blow suggest
-2.1212	blow swim
-2.1212	blow tear
-2.1212	blow tell
-1.83282	blow think
-2.1212	blow top
-2.1212	blow try
-2.1212	blow turn
-2.1212	blow use
-2.1212	blow walk
-2.1212	blow want
-2.1212	blow wonder
-1.21811	board arrive
-1.21811	board know
-1.21811	board live
-1.21811	board protect
-1.21811	board watch
-0.8201702	boat head
-0.8201702	boat that
-0.8201702	bob dive
-0.8201702	bob throw
-1.473383	boil <unk>
-1.473383	boil boil
-1.473383	boil buy
-1.473383	boil drink
-1.473383	boil find
-1.473383	boil hang
-1.185003	boil turn
-1.473383	boil visit
-0.9297301	bonk ride
-1.21811	bonk stop
-1.21811	bonk think
-1.21811	bonk work
-1.280494	book <unk>
-1.880868	book arrive
-1.880868	book assume
-1.880868	book chill
-1.880868	book end
-1.880868	book face
-1.880868	book fill
-1.280494	book find
-1.880868	book ignore
-1.880868	book include
-1.880868	book join
-1.592488	book pack
-1.880868	book part
-1.880868	book plan
-1.880868	book rain
-1.880868	book source
-1.592488	book stay
-1.1212	border know
-1.1212	border leave
-1.1212	border let
-1.1212	border use
-1.473383	bore <unk>
-1.473383	bore bear
-1.473383	bore build
-1.473383	bore decide
-1.185003	bore find
-1.473383	bore knit
-1.473383	bore think
-1.473383	bore wait
-1.21811	borrow accord
-1.21811	borrow fascinate
-1.21811	borrow insulate
-0.9297301	borrow propose
-1.695231	bother </s>
-1.695231	bother begin
-1.695231	bother couldn
-1.695231	bother crest
-1.695231	bother feel
-1.695231	bother find
-1.695231	bother hike
-1.695231	bother jump
-1.695231	bother lose
-1.695231	bother pack
-1.695231	bother post
-1.695231	bother scare
-1.406851	bother shower
-1.695231	bother sit
-1.364238	bounce <unk>
-1.075858	bounce hike
-1.075858	bounce please
-1.364238	bounce stuff
-1.364238	bounce think
-0.9962614	bowl kill
-0.9962614	bowl manage
-0.9962614	bowl need
-1.598321	brave attempt
-1.598321	brave dry
-1.598321	brave enjoy
-1.598321	brave find
-1.598321	brave float
-1.598321	brave love
-1.309941	brave pack
-1.309941	brave slide
-1.598321	brave want
-1.598321	brave watch
-2.275015	break <unk>
-2.275015	break arrive
-2.275015	break attach
-1.986635	break become
-2.275015	break bite
-2.275015	break bore
-1.674641	break break
-1.986635	break camp
-2.275015	break check
-2.275015	break crack
-2.275015	break down
-1.674641	break dry
-2.275015	break find
-1.986635	break finish
-2.275015	break giggle
-2.275015	break give
-2.275015	break grow
-2.275015	break happen
-2.275015	break hike
-2.275015	break hit
-2.275015	break jump
-1.986635	break know
-2.275015	break learn
-1.986635	break leave
-2.275015	break lose
-2.275015	break pack
-2.275015	break paint
-1.986635	break put
-2.275015	break rate
-2.275015	break roll
-1.986635	break run
-1.986635	break set
-2.275015	break slide
-2.275015	break spend
-2.275015	break start
-2.275015	break strap
-2.275015	break think
-2.275015	break trust
-1.986635	break use
-1.986635	break walk
-2.275015	break wash
-2.275015	break weren
-2.275015	break win
-0.5317901	breakfast hang
-0.8201702	breakfast. pack
-0.8201702	breakfast. remove
-1.797894	breathe </s>
-1.509514	breathe <unk>
-1.797894	breathe dive
-1.797894	breathe drive
-1.797894	breathe insist
-1.509514	breathe lodge
-1.797894	breathe look
-1.509514	breathe panic
-1.797894	breathe set
-1.797894	breathe shut
-1.19752	breathe stay
-1.797894	breathe touch
-1.797894	breathe turn
-1.797894	breathe win
-1.1212	brew arrive
-1.1212	brew build
-1.1212	brew check
-1.1212	brew scan
-2.306307	bring </s>
-2.306307	bring <unk>
-2.594687	bring add
-2.306307	bring bang
-2.594687	bring bore
-2.594687	bring break
-2.306307	bring bring
-2.594687	bring call
-2.594687	bring carry
-2.306307	bring check
-2.306307	bring climb
-2.594687	bring cook
-2.594687	bring couldn
-2.594687	bring cover
-2.594687	bring document
-2.594687	bring doesn
-2.306307	bring drive
-2.594687	bring edward
-2.594687	bring end
-2.594687	bring ensure
-2.594687	bring fall
-2.594687	bring feed
-1.732003	bring feel
-1.45171	bring find
-2.594687	bring finish
-2.594687	bring freeze
-2.594687	bring give
-2.306307	bring grumble
-2.594687	bring guess
-2.594687	bring head
-2.594687	bring hear
-2.306307	bring help
-2.594687	bring hike
-2.594687	bring hold
-2.594687	bring hydrate
-2.594687	bring imagine
-2.594687	bring invite
-2.306307	bring leave
-2.594687	bring let
-1.994313	bring look
-2.594687	bring love
-2.594687	bring manage
-2.306307	bring miss
-2.306307	bring pack
-2.594687	bring plan
-2.594687	bring play
-2.594687	bring pose
-2.594687	bring produce
-2.306307	bring put
-2.594687	bring reach
-2.594687	bring relax
-2.594687	bring replace
-2.594687	bring report
-2.594687	bring rough
-2.594687	bring run
-2.594687	bring rush
-2.594687	bring search
-2.594687	bring seem
-2.306307	bring send
-2.594687	bring set
-2.594687	bring share
-2.306307	bring show
-2.306307	bring sit
-2.594687	bring sleep
-2.594687	bring speak
-1.732003	bring start
-1.994313	bring stop
-2.594687	bring suppose
-2.306307	bring swap
-1.732003	bring think
-2.594687	bring toss
-2.306307	bring try
-2.306307	bring turn
-2.594687	bring use
-2.594687	bring walk
-2.594687	bring want
-1.994313	bring watch
-2.306307	bring wear
-2.594687	bring wish
-0.9962614	bruise sit
-0.9962614	bruise sting
-0.9962614	bruise wonder
-1.008911	brush <unk>
-1.297291	brush decide
-1.297291	brush leave
-1.297291	brush plunge
-1.297291	brush put
-0.8201702	buck <unk>
-0.8201702	buck find
-0.8201702	buffet </s>
-0.8201702	buffet feel
-2.21811	build </s>
-2.21811	build <unk>
-2.21811	build accept
-2.21811	build admire
-2.21811	build arrange
-2.21811	build blend
-2.21811	build bring
-2.21811	build burn
-2.21811	build bury
-1.92973	build chew
-2.21811	build continue
-2.21811	build die
-2.21811	build discuss
-2.21811	build doesn
-1.92973	build eat
-1.92973	build find
-2.21811	build give
-2.21811	build hang
-2.21811	build head
-2.21811	build help
-2.21811	build hike
-1.92973	build hit
-1.92973	build it
-2.21811	build join
-2.21811	build line
-2.21811	build look
-2.21811	build plan
-2.21811	build prepare
-2.21811	build refuse
-2.21811	build ride
-2.21811	build run
-2.21811	build saw
-1.617736	build sit
-2.21811	build struggle
-2.21811	build tell
-2.21811	build tend
-2.21811	build tune
-1.355426	build use
-2.21811	build wake
-2.21811	build want
-0.8201702	bump <unk>
-0.8201702	bump buy
-0.8328201	bundle change
-1.1212	bundle read
-1.1212	bundle think
-1.880868	burn </s>
-1.880868	burn <unk>
-1.880868	burn choose
-1.880868	burn decide
-1.880868	burn enjoy
-1.880868	burn head
-1.880868	burn hurt
-1.880868	burn i
-1.880868	burn know
-1.880868	burn pack
-1.880868	burn peel
-1.880868	burn scorch
-1.880868	burn sit
-1.592488	burn start
-1.880868	burn sweep
-1.880868	burn tell
-1.880868	burn thank
-1.592488	burn throw
-1.880868	burn wash
-1.592488	burn work
-1.297291	bury <unk>
-1.297291	bury begin
-1.297291	bury don
-1.297291	bury injure
-1.297291	bury play
-1.297291	bury rock
-0.9962614	bushwack camp
-0.7078814	bushwack scramble
-0.8201702	bust sit
-0.8201702	bust work
-1.810861	buy </s>
-1.548551	buy <unk>
-2.122855	buy abandon
-2.411235	buy allow
-2.411235	buy bring
-2.411235	buy build
-2.411235	buy bundle
-1.386174	buy buy
-2.411235	buy close
-2.411235	buy cost
-2.411235	buy develop
-1.810861	buy drive
-1.548551	buy eat
-2.411235	buy feel
-2.411235	buy fill
-2.122855	buy find
-2.122855	buy finish
-2.411235	buy forget
-2.411235	buy grow
-2.411235	buy guide
-2.122855	buy head
-2.411235	buy highlight
-2.122855	buy know
-2.411235	buy let
-2.411235	buy look
-2.411235	buy lose
-2.411235	buy pack
-2.411235	buy pick
-2.411235	buy pile
-2.411235	buy play
-2.411235	buy pose
-2.411235	buy protect
-2.122855	buy put
-2.411235	buy realise
-2.411235	buy replace
-2.411235	buy sell
-2.411235	buy send
-2.411235	buy shine
-2.411235	buy sit
-2.411235	buy sleep
-2.411235	buy start
-1.810861	buy stay
-2.411235	buy strike
-2.411235	buy study
-2.122855	buy think
-2.411235	buy travel
-2.411235	buy treat
-2.122855	buy try
-2.411235	buy use
-2.411235	buy wait
-2.411235	buy watch
-2.411235	buy wind
-2.411235	buy wish
-2.411235	buy write
-1.1212	buzz fly
-1.1212	buzz lie
-1.1212	buzz send
-1.1212	buzz visit
-0.8201702	bypass dread
-0.8201702	bypass spend
-2.386096	call </s>
-1.649415	call <unk>
-2.386096	call arrive
-2.674476	call ask
-2.386096	call begin
-2.674476	call break
-2.386096	call bring
-2.674476	call build
-2.674476	call buy
-1.531499	call call
-2.674476	call camp
-2.674476	call catch
-2.674476	call check
-2.674476	call concentrate
-2.674476	call concern
-2.386096	call cook
-1.297661	call decide
-2.674476	call deliver
-2.674476	call deserve
-2.386096	call didn
-2.674476	call dig
-2.674476	call dine
-2.674476	call direct
-2.674476	call disturb
-2.674476	call eat
-2.674476	call end
-2.674476	call enjoy
-2.674476	call explore
-2.674476	call face
-2.674476	call feature
-2.674476	call feel
-2.674476	call fill
-1.811792	call find
-2.674476	call fly
-2.674476	call forget
-2.674476	call fry
-2.674476	call give
-2.674476	call glide
-2.674476	call guess
-2.386096	call had.
-2.674476	call hang
-2.674476	call happen
-1.811792	call head
-2.674476	call hear
-2.674476	call hold
-2.674476	call hoof
-2.674476	call inform
-2.674476	call keep
-2.674476	call kick
-2.386096	call know
-2.674476	call learn
-2.674476	call lie
-2.386096	call like
-2.074102	call look
-2.674476	call meet
-2.674476	call miss
-2.386096	call need
-2.674476	call note
-2.674476	call pass
-2.674476	call pick
-2.386096	call play
-2.674476	call pray
-2.674476	call put
-2.674476	call rain
-2.674476	call read
-2.674476	call realize
-2.674476	call resist
-2.674476	call rest
-2.674476	call roll
-1.649415	call run
-2.674476	call send
-2.386096	call set
-2.674476	call settle
-2.674476	call share
-2.674476	call show
-2.674476	call sit
-2.386096	call sleep
-2.674476	call snuff
-2.674476	call soak
-2.386096	call sound
-2.674476	call spend
-2.386096	call start
-2.386096	call stay
-2.386096	call stop
-2.674476	call surprise
-2.674476	call taste
-2.674476	call tease
-2.674476	call tell
-2.674476	call throw
-2.674476	call try
-2.674476	call turn
-2.674476	call twist
-2.674476	call unload
-2.674476	call wait
-2.674476	call wake
-2.674476	call walk
-2.674476	call wind
-1.473383	calm <unk>
-1.473383	calm awake
-1.185003	calm head
-1.473383	calm hear
-1.473383	calm load
-1.473383	calm reflect
-1.185003	calm wrestle
-0.5317901	came call
-1.453784	camp </s>
-1.826718	camp <unk>
-2.401022	camp assateague
-2.689402	camp avoid
-2.689402	camp bear
-2.689402	camp break
-2.689402	camp build
-1.546425	camp camp
-2.401022	camp carry
-2.689402	camp choose
-2.689402	camp claim
-2.689402	camp crawl
-2.689402	camp crowd
-2.401022	camp cry
-2.689402	camp dawn
-1.664341	camp decide
-2.401022	camp determine
-2.401022	camp didn
-2.689402	camp doesn
-2.689402	camp drive
-2.689402	camp dry
-2.689402	camp eat
-2.401022	camp end
-2.089028	camp fall
-2.689402	camp feel
-2.689402	camp figure
-2.689402	camp find
-2.689402	camp help
-2.401022	camp hike
-2.689402	camp hold
-2.401022	camp hope
-2.689402	camp huh
-2.689402	camp hurt
-2.689402	camp join
-2.689402	camp keep
-2.689402	camp kid
-1.664341	camp know
-2.089028	camp leave
-2.689402	camp let
-1.546425	camp like
-2.401022	camp load
-2.689402	camp look
-2.689402	camp maintain
-2.689402	camp miss
-2.401022	camp need
-2.689402	camp pick
-2.689402	camp play
-2.689402	camp poke
-2.401022	camp post
-2.401022	camp pull
-2.689402	camp purchase
-2.689402	camp raft
-2.089028	camp rain
-2.689402	camp reach
-2.689402	camp recall
-2.401022	camp refresh
-2.689402	camp relax
-2.089028	camp remember
-2.401022	camp run
-2.689402	camp scream
-2.689402	camp serve
-2.401022	camp set
-2.689402	camp sit
-2.401022	camp sleep
-2.401022	camp spend
-1.826718	camp start
-2.689402	camp stay
-2.689402	camp stop
-2.401022	camp sure?
-2.689402	camp surprise
-2.689402	camp talk
-2.401022	camp tell
-2.401022	camp think
-2.689402	camp throw
-2.689402	camp trek
-2.689402	camp use
-2.689402	camp visit
-1.312586	camp want
-2.401022	camp wash
-2.689402	camp watch
-2.689402	camp wrap
-0.9962614	campground park
-0.9962614	campground put
-0.9962614	campground turn
-1.19752	can </s>
-1.797894	can <unk>
-1.797894	can can
-1.797894	can check
-1.797894	can intend
-1.19752	can marry
-1.797894	can pack
-1.797894	can parallel
-1.509514	can pull
-1.509514	can realize
-1.797894	can seem
-1.797894	can tell
-1.797894	can wander
-1.13385	cancel deal
-1.42223	cancel decide
-1.42223	cancel guess
-1.42223	cancel know
-1.42223	cancel reach
-1.13385	cancel wash
-1.21811	canoe decide
-1.21811	canoe let
-1.21811	canoe pour
-1.21811	canoe ride
-1.21811	canoe set
-0.8201702	cant fly
-0.8201702	cant pitch
-1.1212	capture </s>
-1.1212	capture <unk>
-1.1212	capture feel
-1.1212	capture hunt
-1.774413	care blast
-1.774413	care brave
-1.486033	care camp
-1.774413	care cross
-1.774413	care crush
-1.774413	care dress
-1.774413	care drive
-1.774413	care face
-1.774413	care keep
-1.774413	care look
-1.774413	care risk
-1.774413	care seek
-1.774413	care seem
-1.774413	care show
-1.774413	care think
-1.774413	care tread
-1.774413	care witness
-2.001612	carry <unk>
-2.289992	carry allocate
-2.289992	carry anticipate
-2.289992	carry board
-2.289992	carry build
-2.289992	carry camp
-2.289992	carry canoe
-1.689618	carry carry
-2.289992	carry contend
-2.289992	carry cook
-2.289992	carry drink
-2.289992	carry drive
-2.289992	carry endure
-2.289992	carry find
-2.289992	carry finish
-2.289992	carry hang
-2.289992	carry happen
-2.289992	carry hike
-2.289992	carry kit
-2.001612	carry knit
-2.289992	carry lack
-2.289992	carry leave
-2.289992	carry look
-2.001612	carry open
-2.001612	carry pack
-2.001612	carry park
-2.289992	carry prepare
-2.289992	carry put
-2.289992	carry reach
-2.289992	carry reduce
-2.289992	carry require
-1.427308	carry return
-2.289992	carry scream
-2.001612	carry seem
-2.289992	carry set
-2.001612	carry stop
-2.001612	carry talk
-2.289992	carry tell
-2.001612	carry test-drive
-2.289992	carry think
-2.289992	carry turn
-1.427308	carry want
-0.8201702	cart help
-0.8201702	cart wasn
-1.297291	cast break
-1.297291	cast cringe
-1.297291	cast help
-1.297291	cast rain
-1.297291	cast start
-1.297291	cast stop
-1.877807	catch </s>
-2.189801	catch <unk>
-2.189801	catch arrive
-2.478182	catch attempt
-2.478182	catch boil
-2.189801	catch bring
-2.478182	catch bury
-2.189801	catch buy
-2.478182	catch call
-2.189801	catch catch
-2.189801	catch check
-2.478182	catch continue
-2.478182	catch cover
-2.478182	catch decide
-1.877807	catch drive
-2.478182	catch drown
-2.189801	catch eat
-2.478182	catch end
-2.478182	catch excuse
-2.478182	catch find
-2.478182	catch grow
-2.478182	catch guess
-2.189801	catch happen
-2.189801	catch hate
-1.877807	catch head
-2.478182	catch hike
-2.478182	catch hit
-2.189801	catch hold
-2.478182	catch injure
-1.877807	catch keep
-2.189801	catch learn
-2.189801	catch like
-2.189801	catch love
-2.478182	catch mean
-2.189801	catch measure
-2.478182	catch note
-2.478182	catch offer
-2.478182	catch pass
-2.478182	catch plan
-2.478182	catch rush
-2.478182	catch serve
-1.877807	catch set
-2.478182	catch shift
-1.877807	catch sit
-2.478182	catch sleep
-2.478182	catch spend
-2.478182	catch stay
-2.478182	catch stop
-2.189801	catch swim
-2.478182	catch talk
-2.189801	catch toss
-2.478182	catch touch
-2.478182	catch try
-1.877807	catch walk
-2.189801	catch want
-2.478182	catch wiggle
-2.478182	catch win
-2.478182	catch wonder
-2.189801	catch work
-1.298977	cause ask
-1.899351	cause boil
-1.899351	cause carry
-1.899351	cause climb
-1.899351	cause find
-1.899351	cause fly
-1.899351	cause forget
-1.899351	cause motor
-1.899351	cause open
-1.899351	cause power
-1.899351	cause prove
-1.899351	cause remember
-1.899351	cause ride
-1.610971	cause run
-1.610971	cause smile
-1.899351	cause snap
-1.899351	cause stir
-1.610971	cause turn
-1.899351	cause wait
-0.9962614	cease cross
-0.9962614	cease drop
-0.9962614	cease look
-1.42223	celebrate ask
-1.42223	celebrate find
-1.42223	celebrate look
-1.42223	celebrate move
-1.42223	celebrate order
-1.42223	celebrate refuse
-1.42223	celebrate ride
-1.42223	celebrate walk
-0.9297301	certify </s>
-1.21811	certify dive
-1.21811	certify find
-1.21811	certify require
-0.8201702	challenge admire
-0.8201702	challenge need
-2.22671	change <unk>
-2.22671	change add
-2.22671	change agree
-1.93833	change change
-2.22671	change check
-2.22671	change cherish
-1.93833	change collapse
-2.22671	change crush
-2.22671	change decide
-2.22671	change don
-2.22671	change eat
-2.22671	change fall
-2.22671	change fix
-2.22671	change fly
-2.22671	change give
-2.22671	change help
-2.22671	change it
-1.626336	change leave
-2.22671	change love
-2.22671	change meet
-2.22671	change move
-1.93833	change pack
-2.22671	change purchase
-1.93833	change realize
-2.22671	change recommend
-2.22671	change ride
-1.626336	change set
-2.22671	change start
-2.22671	change stop
-2.22671	change suppose
-1.93833	change talk
-2.22671	change tell
-2.22671	change think
-2.22671	change use
-1.93833	change wake
-1.93833	change walk
-1.93833	change want
-2.22671	change watch
-2.22671	change wear
-0.8201702	char fuel
-0.8201702	char kill
-1.21811	charge couldn
-1.21811	charge feel
-1.21811	charge head
-1.21811	charge remove
-1.21811	charge think
-1.364238	chase </s>
-1.364238	chase beg
-1.364238	chase cook
-1.364238	chase decorate
-1.364238	chase gon
-1.364238	chase jump
-1.364238	chase plant
-1.774413	chat </s>
-1.774413	chat <unk>
-1.774413	chat awake
-1.774413	chat burn
-1.774413	chat camp
-1.774413	chat he
-1.774413	chat hurt
-1.774413	chat mention
-1.774413	chat mind
-1.774413	chat pass
-1.774413	chat plunge
-1.486033	chat set
-1.774413	chat sleep
-1.774413	chat tell
-1.774413	chat that
-1.774413	chat wander
-1.774413	chat work
-1.550984	check </s>
-1.433068	check <unk>
-2.576045	check accept
-2.576045	check announce
-2.576045	check ask
-2.576045	check assure
-2.576045	check base
-2.576045	check beg
-2.576045	check buy
-2.576045	check cause
-2.576045	check climb
-2.287665	check consist
-2.576045	check cruise
-2.576045	check decide
-2.576045	check develop
-2.576045	check dip
-2.576045	check discover
-2.576045	check drive
-2.576045	check drop
-2.576045	check end
-2.287665	check enjoy
-2.576045	check fall
-2.576045	check feel
-2.576045	check figure
-1.975671	check find
-2.576045	check flush
-2.576045	check hand
-2.576045	check happen
-2.576045	check head
-2.287665	check hike
-2.287665	check hit
-2.576045	check imagine
-2.576045	check injure
-2.576045	check keep
-2.576045	check know
-2.576045	check last
-2.576045	check learn
-2.576045	check leave
-2.576045	check let
-2.576045	check like
-2.287665	check live
-2.576045	check load
-2.576045	check lodge
-2.287665	check look
-2.576045	check mark
-2.576045	check meet
-2.576045	check order
-2.287665	check pack
-2.576045	check pee
-2.576045	check plan
-2.576045	check play
-2.576045	check pour
-2.576045	check process
-2.576045	check push
-2.576045	check rent
-2.576045	check research
-2.576045	check ride
-2.576045	check rise
-1.975671	check run
-1.975671	check seem
-2.576045	check set
-2.576045	check shake
-2.576045	check show
-2.287665	check sleep
-2.576045	check snorkele
-2.576045	check sound
-2.576045	check stay
-2.576045	check sting
-2.576045	check struggle
-2.576045	check suppose
-2.576045	check surprise
-2.576045	check swim
-2.576045	check taste
-2.287665	check tell
-2.576045	check turn
-2.576045	check upgrade
-2.576045	check wait
-2.287665	check wake
-2.287665	check walk
-1.975671	check want
-2.576045	check wasn
-2.576045	check we
-2.287665	check win
-2.287665	check work
-0.8201702	cheer pass
-0.8201702	cheer slow
-0.9962614	cherish exclude
-0.9962614	cherish expect
-0.9962614	cherish sit
-1.364238	chew know
-1.075858	chew leave
-1.075858	chew look
-1.364238	chew play
-1.364238	chew seem
-1.560533	chill </s>
-1.560533	chill <unk>
-1.272153	chill clean
-1.560533	chill decide
-1.560533	chill pull
-1.560533	chill start
-1.560533	chill stop
-1.560533	chill tie
-1.560533	chill want
-1.560533	chill warm
-0.5317901	chillin grow
-1.552979	choose </s>
-1.841359	choose burn
-1.841359	choose cling
-1.841359	choose convince
-1.552979	choose decide
-1.841359	choose dive
-1.841359	choose drive
-1.841359	choose feel
-1.841359	choose follow
-1.841359	choose gear
-1.841359	choose play
-1.841359	choose set
-1.841359	choose sit
-1.841359	choose stay
-1.841359	choose stop
-1.841359	choose talk
-1.841359	choose teach
-1.841359	choose throw
-1.841359	choose trap
-0.9962614	chop didn
-0.9962614	chop don
-0.9962614	chop think
-0.8201702	chuckle didn
-0.8201702	chuckle flow
-0.8201702	circle let
-0.8201702	circle offer
-1.297291	claim decide
-1.297291	claim explore
-1.297291	claim imagine
-1.297291	claim lean
-1.297291	claim want
-1.297291	claim we
-1.1212	clamber hope
-1.1212	clamber keep
-1.1212	clamber miss
-1.1212	clamber stay
-0.5317901	clap comment
-1.450245	clean <unk>
-2.050619	clean arrive
-2.050619	clean bring
-2.050619	clean camp
-2.050619	clean check
-1.762239	clean deal
-1.762239	clean eat
-2.050619	clean exhaust
-2.050619	clean forget
-2.050619	clean gather
-1.762239	clean head
-2.050619	clean leave
-1.762239	clean like
-2.050619	clean mention
-2.050619	clean need
-2.050619	clean point
-2.050619	clean prove
-2.050619	clean smell
-2.050619	clean spend
-2.050619	clean stock
-2.050619	clean stuff
-2.050619	clean suggest
-2.050619	clean swear
-2.050619	clean think
-2.050619	clean wait
-1.762239	clean watch
-2.050619	clean work
-0.8201702	cleanse greet
-0.8201702	cleanse stop
-1.880868	clear </s>
-1.880868	clear awake
-1.880868	clear bath
-1.880868	clear close
-1.592488	clear dump
-1.880868	clear eat
-1.592488	clear fall
-1.880868	clear feed
-1.280494	clear finish
-1.880868	clear head
-1.880868	clear hide
-1.880868	clear hope
-1.880868	clear let
-1.880868	clear love
-1.880868	clear mark
-1.880868	clear play
-1.880868	clear swallow
-1.880868	clear try
-1.880868	clear wear
-0.6106989	click </s>
-1.473383	click buzz
-1.185003	click ride
-1.473383	click roll
-1.473383	click turn
-1.164336	climb <unk>
-2.399954	climb acquire
-2.399954	climb ask
-2.399954	climb backpack
-2.399954	climb begin
-2.399954	climb call
-2.399954	climb camp
-2.399954	climb carry
-2.399954	climb catch
-1.79958	climb cause
-2.399954	climb climb
-2.399954	climb cross
-2.399954	climb decide
-2.399954	climb didn
-2.111574	climb drive
-2.111574	climb eat
-2.399954	climb end
-2.111574	climb exhaust
-2.111574	climb explore
-2.399954	climb feel
-2.399954	climb follow
-2.399954	climb form
-2.399954	climb give
-2.399954	climb head
-2.399954	climb hope
-2.399954	climb hurt
-2.399954	climb imagine
-2.399954	climb improve
-2.111574	climb jump
-2.399954	climb keep
-1.164336	climb look
-2.399954	climb meet
-2.399954	climb nap
-2.399954	climb notice
-2.399954	climb piss
-2.399954	climb play
-2.399954	climb poke
-2.399954	climb reach
-2.399954	climb remember
-2.399954	climb result
-2.399954	climb seem
-2.399954	climb separate
-2.399954	climb set
-2.399954	climb speak
-2.111574	climb start
-2.399954	climb tell
-2.399954	climb thrill
-2.399954	climb throw
-2.111574	climb try
-2.399954	climb wait
-2.399954	climb want
-2.399954	climb warm
-2.399954	climb watch
-2.399954	climb work
-2.399954	climb wouldn
-0.9962614	cling <unk>
-0.9962614	cling wash
-0.9962614	cling won
-0.8201702	clock <unk>
-0.8201702	clock remember
-1.562219	close <unk>
-2.162593	close add
-2.162593	close adjust
-2.162593	close buy
-2.162593	close camp
-2.162593	close close
-1.562219	close cover
-2.162593	close decide
-2.162593	close feed
-2.162593	close find
-1.874213	close fly
-2.162593	close head
-2.162593	close hope
-2.162593	close join
-2.162593	close keep
-2.162593	close know
-2.162593	close pass
-2.162593	close pet
-2.162593	close pine
-2.162593	close play
-2.162593	close plow
-2.162593	close provide
-2.162593	close pull
-2.162593	close read
-2.162593	close scream
-2.162593	close set
-2.162593	close spread
-2.162593	close stick
-2.162593	close suggest
-2.162593	close tell
-2.162593	close think
-1.874213	close use
-2.162593	close walk
-2.162593	close wander
-1.874213	close want
-2.162593	close we
-2.162593	close wonder
-1.1212	cloud drive
-0.8328201	cloud like
-1.1212	cloud slip
-0.8201702	co lose
-0.8201702	co need
-0.9962614	coat coat
-0.9962614	coat insulate
-0.9962614	coat work
-0.8201702	coax fall
-0.8201702	coax keep
-1.42223	collapse allow
-1.13385	collapse fall
-1.42223	collapse highlight
-1.42223	collapse remember
-1.42223	collapse spend
-1.42223	collapse surprise
-1.42223	collapse work
-1.364238	collect arrange
-1.364238	collect assume
-1.364238	collect decide
-1.364238	collect guess
-1.364238	collect know
-1.364238	collect rest
-1.364238	collect tell
-0.8201702	collide pound
-0.8201702	collide require
-0.9962614	color <unk>
-0.7078814	color eat
-0.8201702	combine meet
-0.8201702	combine move
-0.8201702	commence smell
-0.8201702	commence threaten
-0.7078814	comment head
-0.9962614	comment stay
-0.9962614	commit give
-0.9962614	commit know
-0.9962614	commit stop
-0.9962614	commune feel
-0.9962614	commune look
-0.9962614	commune tire
-0.8328201	communicate assume
-0.8328201	communicate wake
-1.633084	compare </s>
-1.633084	compare bring
-1.633084	compare burn
-1.633084	compare claim
-1.633084	compare follow
-1.633084	compare hover
-1.633084	compare love
-1.633084	compare pose
-1.633084	compare seem
-1.633084	compare sit
-1.633084	compare think
-1.633084	compare visit
-1.633084	compare wait
-0.8201702	compel wash
-0.8201702	compel work
-0.8201702	compensate fall
-0.8201702	compensate look
-1.122886	complain <unk>
-1.72326	complain change
-1.72326	complain feel
-1.72326	complain figure
-1.72326	complain hurt
-1.72326	complain it
-1.72326	complain keep
-1.72326	complain learn
-1.72326	complain pay
-1.72326	complain post
-1.72326	complain power
-1.72326	complain sell
-1.72326	complain think
-1.72326	complain warm
-1.797894	complete </s>
-1.797894	complete <unk>
-1.797894	complete call
-1.797894	complete determine
-1.797894	complete don
-1.797894	complete encourage
-1.797894	complete finish
-1.797894	complete learn
-1.797894	complete leave
-1.797894	complete let
-1.19752	complete meet
-1.797894	complete practise
-1.797894	complete prove
-1.797894	complete run
-1.797894	complete sting
-1.797894	complete tell
-1.797894	complete wade
-0.8328201	comprise deal
-0.8328201	comprise exhaust
-1.1212	concentrate feel
-1.1212	concentrate focus
-1.1212	concentrate know
-1.1212	concentrate seem
-1.21811	concern give
-1.21811	concern hike
-1.21811	concern inform
-1.21811	concern plan
-1.21811	concern tell
-1.1212	confess check
-1.1212	confess decide
-1.1212	confess plan
-1.1212	confess taste
-0.9962614	confirm know
-0.9962614	confirm open
-0.9962614	confirm set
-1.1212	confuse drive
-1.1212	confuse stretch
-1.1212	confuse tell
-1.1212	confuse work
-1.473383	connect creak
-1.473383	connect drive
-1.473383	connect enjoy
-1.473383	connect hit
-1.473383	connect need
-1.473383	connect pass
-1.473383	connect push
-1.185003	connect there
-1.981538	consider </s>
-1.981538	consider check
-1.981538	consider climb
-1.693158	consider dig
-1.981538	consider eat
-1.981538	consider head
-1.981538	consider help
-1.981538	consider hike
-1.693158	consider knock
-1.693158	consider light
-1.981538	consider look
-1.693158	consider need
-1.981538	consider pay
-1.981538	consider put
-1.981538	consider rise
-1.981538	consider send
-1.981538	consider situate
-1.981538	consider snorkel
-1.981538	consider start
-1.981538	consider stay
-1.981538	consider taste
-1.981538	consider think
-1.693158	consider try
-1.981538	consider want
-1.42223	consist <unk>
-1.42223	consist become
-1.42223	consist play
-1.42223	consist reach
-1.42223	consist remember
-1.42223	consist speak
-1.42223	consist think
-1.42223	consist walk
-0.8201702	construct live
-0.8201702	construct wake
-0.9962614	consult end
-0.9962614	consult head
-0.9962614	consult pass
-1.1212	consume climb
-1.1212	consume cook
-0.8328201	consume pine
-1.42223	contain </s>
-1.42223	contain <unk>
-1.42223	contain dehydrate
-1.42223	contain eat
-1.42223	contain explore
-1.42223	contain look
-1.42223	contain pull
-1.42223	contain represent
-0.9962614	contemplate find
-0.7078814	contemplate work
-0.8201702	contend add
-0.8201702	contend imagine
-2.332053	continue </s>
-2.043674	continue <unk>
-2.332053	continue anchor
-2.332053	continue anticipate
-2.332053	continue appoint
-2.043674	continue ask
-2.043674	continue check
-2.332053	continue click
-2.332053	continue climb
-2.332053	continue couldn
-2.332053	continue decide
-2.332053	continue didn
-2.332053	continue doesn
-2.043674	continue dominate
-2.332053	continue don
-2.332053	continue drive
-2.332053	continue eat
-2.332053	continue echo
-2.332053	continue enjoy
-1.731679	continue feel
-2.043674	continue fill
-2.332053	continue hit
-2.332053	continue impress
-2.332053	continue join
-2.332053	continue learn
-2.332053	continue let
-1.731679	continue look
-2.043674	continue move
-2.332053	continue notice
-2.332053	continue pay
-2.043674	continue prepare
-2.332053	continue put
-2.332053	continue read
-2.043674	continue realize
-2.332053	continue require
-2.043674	continue ride
-2.332053	continue scoop
-2.332053	continue settle
-2.332053	continue show
-2.332053	continue sift
-2.332053	continue spend
-2.043674	continue start
-2.043674	continue stop
-2.332053	continue think
-2.332053	continue wait
-2.332053	continue wake
-2.332053	continue walk
-2.332053	continue wasn
-2.332053	continue wipe
-2.332053	continue witness
-0.8201702	contribute cry
-0.8201702	contribute occupy
-0.8201702	control cause
-0.8201702	control enter
-0.8201702	convert bring
-0.8201702	convert head
-1.473383	convince catch
-1.473383	convince climb
-1.473383	convince explore
-1.473383	convince head
-1.473383	convince hike
-1.473383	convince leave
-1.473383	convince pack
-1.473383	convince pull
-1.473383	convince want
-2.405631	cook !!
-2.405631	cook </s>
-1.805257	cook <unk>
-2.405631	cook arrive
-2.405631	cook ask
-2.405631	cook bend
-2.405631	cook burn
-2.117251	cook came
-2.405631	cook chat
-2.405631	cook check
-2.405631	cook climb
-2.405631	cook close
-2.405631	cook consist
-1.542947	cook decide
-2.405631	cook didn
-2.405631	cook die
-2.405631	cook dip
-2.405631	cook drop
-1.38057	cook eat
-1.542947	cook enjoy
-2.117251	cook exhaust
-2.405631	cook float
-2.405631	cook fuck
-2.117251	cook gear
-2.405631	cook grow
-2.405631	cook help
-2.405631	cook hike
-2.405631	cook improvise
-2.405631	cook it
-2.405631	cook join
-2.405631	cook know
-2.117251	cook pack
-2.405631	cook pour
-2.405631	cook rain
-2.405631	cook recommend
-2.405631	cook remove
-2.405631	cook run
-2.117251	cook set
-2.405631	cook sit
-2.117251	cook sleep
-1.805257	cook start
-2.117251	cook stop
-2.405631	cook strip
-2.405631	cook swim
-2.117251	cook talk
-2.405631	cook turn
-2.405631	cook wake
-1.805257	cook want
-2.117251	cook wash
-2.117251	cook we
-2.405631	cook work
-1.560533	cool buy
-1.560533	cool eat
-1.272153	cool limit
-1.560533	cool manage
-1.560533	cool roll
-1.560533	cool seem
-1.560533	cool start
-1.560533	cool step
-1.560533	cool talk
-1.560533	cool think
-0.8328201	cooperate end
-1.1212	cooperate happen
-1.1212	cooperate visit
-0.5317901	cope hike
-0.9297301	cost decide
-1.21811	cost need
-1.21811	cost return
-1.21811	cost want
-0.8201702	cough flash
-0.8201702	cough pack
-0.8201702	could drive
-0.8201702	could use
-2.063208	couldn </s>
-1.774828	couldn <unk>
-2.063208	couldn cool
-2.063208	couldn decide
-2.063208	couldn equalize
-2.063208	couldn express
-2.063208	couldn fight
-2.063208	couldn find
-2.063208	couldn give
-2.063208	couldn hang
-2.063208	couldn hit
-2.063208	couldn indicate
-2.063208	couldn involve
-1.462834	couldn know
-2.063208	couldn move
-2.063208	couldn need
-2.063208	couldn order
-2.063208	couldn plan
-2.063208	couldn race
-2.063208	couldn rip
-1.774828	couldn sit
-2.063208	couldn slow
-1.774828	couldn sound
-2.063208	couldn stay
-2.063208	couldn swim
-2.063208	couldn thank
-2.063208	couldn think
-2.063208	couldn turn
-1.774828	couldn use
-1.695231	count <unk>
-1.695231	count build
-1.695231	count call
-1.695231	count didn
-1.695231	count dump
-1.695231	count face
-1.695231	count head
-1.695231	count lose
-1.695231	count pitch
-1.406851	count pray
-1.695231	count raft
-1.695231	count replace
-1.695231	count tip
-1.695231	count venture
-0.5317901	counter result
-1.883973	cover </s>
-1.571978	cover <unk>
-2.172353	cover become
-2.172353	cover breathe
-2.172353	cover capture
-2.172353	cover check
-2.172353	cover clean
-2.172353	cover continue
-2.172353	cover count
-2.172353	cover drop
-2.172353	cover dry
-2.172353	cover enjoy
-2.172353	cover find
-2.172353	cover form
-2.172353	cover harvest
-1.883973	cover head
-1.883973	cover include
-2.172353	cover join
-1.883973	cover let
-2.172353	cover lose
-2.172353	cover melt
-2.172353	cover miss
-2.172353	cover move
-2.172353	cover pull
-2.172353	cover relax
-2.172353	cover remove
-2.172353	cover run
-2.172353	cover scare
-2.172353	cover show
-1.883973	cover sleep
-2.172353	cover spot
-2.172353	cover sprinkle
-2.172353	cover stand
-2.172353	cover turn
-1.883973	cover utilize
-2.172353	cover wade
-2.172353	cover wish
-0.5317901	cozy pack
-1.1212	crack bring
-1.1212	crack cover
-1.1212	crack heat
-1.1212	crack hit
-0.8201702	crackle howl
-0.8201702	crackle strike
-1.1212	cram couldn
-1.1212	cram don
-0.8328201	cram drive
-0.8201702	crap drive
-0.8201702	crap use
-1.665268	crash </s>
-1.665268	crash brush
-1.665268	crash curl
-1.665268	crash decide
-1.665268	crash excite
-1.665268	crash head
-1.665268	crash hear
-1.665268	crash keep
-1.376888	crash pee
-1.376888	crash stay
-1.665268	crash travel
-1.665268	crash want
-1.406851	crawl awake
-1.695231	crawl cook
-1.695231	crawl couldn
-1.695231	crawl curl
-1.695231	crawl dry
-1.695231	crawl enjoy
-1.695231	crawl hear
-1.695231	crawl include
-1.406851	crawl lose
-1.695231	crawl pass
-1.695231	crawl set
-1.695231	crawl wake
-1.695231	crawl watch
-0.9962614	creak follow
-0.7078814	creak wake
-1.665268	create <unk>
-1.665268	create begin
-1.665268	create blast
-1.665268	create buck
-1.665268	create create
-1.665268	create feel
-1.665268	create head
-1.665268	create hold
-1.665268	create pull
-1.376888	create realize
-1.665268	create start
-1.665268	create stay
-1.665268	create whistle
-1.1212	creep glisten
-1.1212	creep injure
-1.1212	creep keep
-1.1212	creep piss
-0.9962614	crest lay
-0.9962614	crest start
-0.9962614	crest tuck
-0.8201702	cringe <unk>
-0.8201702	cringe reply
-2.094083	cross </s>
-1.782089	cross <unk>
-2.382463	cross avoid
-2.382463	cross become
-2.382463	cross call
-2.382463	cross catch
-2.382463	cross change
-2.382463	cross climb
-2.382463	cross coat
-2.382463	cross compare
-1.782089	cross cross
-2.382463	cross drive
-2.382463	cross end
-2.382463	cross engage
-2.382463	cross fall
-2.382463	cross force
-2.382463	cross grow
-2.382463	cross head
-2.382463	cross herd
-2.094083	cross hike
-2.094083	cross hit
-2.382463	cross hold
-2.382463	cross it
-1.782089	cross keep
-2.094083	cross know
-1.519779	cross leave
-1.782089	cross look
-2.382463	cross lose
-2.382463	cross miss
-2.382463	cross paddle
-2.382463	cross pick
-2.382463	cross reach
-1.782089	cross ride
-2.382463	cross rock
-2.382463	cross run
-2.382463	cross sap
-2.382463	cross scatter
-2.382463	cross start
-2.382463	cross stay
-2.382463	cross stick
-2.382463	cross surface
-2.382463	cross switch
-2.382463	cross tackle
-2.382463	cross talk
-2.382463	cross tell
-2.094083	cross travel
-2.382463	cross try
-2.094083	cross tumble
-2.382463	cross turn
-2.382463	cross walk
-2.094083	cross want
-2.382463	cross wear
-2.382463	cross won
-1.297291	crowd catch
-1.297291	crowd fall
-1.297291	crowd head
-1.297291	crowd include
-1.297291	crowd relax
-1.297291	crowd use
-1.42223	cruise buffet
-1.42223	cruise find
-1.42223	cruise hike
-1.42223	cruise look
-1.42223	cruise mean
-1.42223	cruise sprinkle
-1.13385	cruise suffer
-0.9962614	crush drop
-0.9962614	crush fall
-0.9962614	crush talk
-1.486033	cry cry
-1.774413	cry depart
-1.486033	cry didn
-1.774413	cry help
-1.774413	cry leave
-1.774413	cry like
-1.774413	cry protect
-1.774413	cry ride
-0.9117289	cry sleep
-1.774413	cry start
-1.774413	cry try
-1.774413	cry want
-1.774413	cry wear
-1.1212	cuddle </s>
-1.1212	cuddle hesitate
-1.1212	cuddle look
-1.1212	cuddle stall
-0.9962614	curl didn
-0.9962614	curl enjoy
-0.9962614	curl remain
-0.5317901	curse decide
-1.35013	cut <unk>
-1.950504	cut add
-1.950504	cut aim
-1.950504	cut anchor
-1.950504	cut call
-1.950504	cut carry
-1.950504	cut color
-1.950504	cut drive
-1.950504	cut end
-1.950504	cut follow
-1.950504	cut handle
-1.950504	cut head
-1.950504	cut imagine
-1.950504	cut leave
-1.950504	cut listen
-1.950504	cut look
-1.662124	cut ride
-1.950504	cut shout
-1.662124	cut start
-1.950504	cut stop
-1.950504	cut try
-1.950504	cut wait
-1.950504	cut wake
-1.1212	dance cross
-1.1212	dance feel
-1.1212	dance quit
-1.1212	dance sit
-0.8201702	dangle stay
-0.8201702	dangle survive
-0.8201702	dare ask
-0.8201702	dare talk
-0.8201702	dawn give
-0.8201702	dawn sound
-1.461209	deal admit
-1.749589	deal call
-1.461209	deal close
-1.749589	deal combine
-1.749589	deal feel
-1.749589	deal happen
-1.749589	deal head
-1.749589	deal look
-1.749589	deal prepare
-1.749589	deal ride
-1.461209	deal scream
-1.749589	deal start
-1.461209	deal work
-1.451621	decide <unk>
-3.0202	decide add
-3.0202	decide agree
-2.731819	decide allow
-2.419825	decide arrive
-3.0202	decide associate
-3.0202	decide attract
-3.0202	decide become
-3.0202	decide begin
-2.419825	decide bring
-3.0202	decide build
-3.0202	decide bust
-3.0202	decide buy
-2.157516	decide call
-2.731819	decide calm
-3.0202	decide camp
-3.0202	decide carry
-2.731819	decide catch
-2.731819	decide change
-2.731819	decide chat
-2.731819	decide check
-3.0202	decide choose
-2.419825	decide clean
-3.0202	decide collect
