
\data\
ngram 1=2565
ngram 2=15685

\1-grams:
-3.958197	!!!|PERSON	8.210412e-05
-1.566087	</s>
-99	<s>	0.1370066
-0.7454773	<unk>	-0.01648563
-3.958197	=d|	-0.0002150449
-3.958197	abandon|	0.0002000135
-3.958197	abandon|he	-0.0004602257
-3.958197	absolve|I	-0.0004602257
-3.958197	accomplish|	0.08540251
-3.958197	accomplish|I	0.08618054
-3.393926	accord|	0.09332594
-3.958197	accumulate|bike	0.08633631
-3.958197	achieve|	0.08551369
-3.958197	acquire|we	0.0009513191
-3.020345	add|	0.1042592
-3.736349	add|I	0.08509437
-3.958197	add|it	0.002168952
-3.958197	add|view	0.08600536
-3.736349	add|we	0.0005874203
-3.958197	adjust|I	-0.0005818813
-3.590221	admire|	0.0887563
-3.590221	admit|	0.1045261
-3.833259	admit|I	-0.0003942176
-3.958197	admit|both	0.00172919
-3.958197	adore|I	-7.141568e-05
-3.958197	afford|it	0.0005515266
-3.657167	agree|I	0.08671224
-3.736349	agree|PERSON	0.001564785
-3.958197	agree|she	0.0002639038
-3.532229	agree|we	0.002526157
-3.958197	agree|what	-0.0003107712
-3.134289	allow|	0.1013753
-3.958197	allow|alcohol	-0.0005021606
-3.958197	allow|campground	-0.0003107712
-3.958197	allow|car	-0.0003805138
-3.833259	allow|we	0.001910416
-3.958197	alternate|they	-0.0004442845
-3.958197	alternate|we	-0.0003645697
-3.958197	am.|I	-0.0001990884
-3.833259	amaze|	-7.485977e-05
-3.590221	amaze|I	-3.56026e-05
-3.958197	amount|rain	0.001944395
-3.958197	amuse|	0.002201043
-3.958197	anchor|we	0.001239397
-3.958197	answer|he	0.0004875938
-3.736349	anticipate|	0.0002834438
-3.958197	anticipate|I	0.0113789
-3.958197	anticipate|we	0.08793621
-3.958197	appeal|that	-0.0002629105
-3.958197	appear|DATE	0.08803395
-3.736349	appear|it	0.08595101
-3.958197	appear|what	0.08787757
-3.958197	appear|which	0.08540251
-3.958197	appoint|	0.0002479301
-3.736349	appreciate|	0.08819795
-3.736349	appreciate|I	0.08503602
-3.833259	approach|	-9.083346e-05
-3.958197	approach|CAUSE_OF_DEATH	-0.0004124003
-3.833259	approach|I	0.08755835
-3.736349	approach|we	-0.0001899331
-3.958197	aren|they	0.08561633
-3.958197	are|you	0.08540251
-3.958197	arise|need	0.0857719
-3.833259	arrange|	0.08863467
-3.958197	arrange|PERSON	0.01134613
-3.833259	arrange|we	0.08648469
-3.037379	arrive|	0.1119069
-3.435319	arrive|I	0.08802783
-3.736349	arrive|PERSON	0.000497837
-3.958197	arrive|boat	0.0002639037
-3.958197	arrive|gain	-3.949174e-05
-3.958197	arrive|p	0.003567026
-3.958197	arrive|people	0.002803959
-3.736349	arrive|they	0.0006034253
-2.526834	arrive|we	0.1100969
-3.657167	ascend|	0.08669884
-2.988161	ask|	0.08720229
-2.855535	ask|I	0.09720632
-3.590221	ask|PERSON	0.09012605
-3.958197	ask|camper	-0.0004602257
-3.393926	ask|he	0.08617242
-3.958197	ask|i	0.0005675112
-3.590221	ask|she	0.08717476
-3.958197	ask|that	-6.151971e-05
-3.356138	ask|we	0.0954729
-3.590221	ask|you	0.1020488
-3.958197	assateague|	0.0008808799
-3.958197	assese|we	0.0005132607
-3.736349	assume|I	0.08579513
-3.657167	assume|we	0.0854897
-3.958197	assure|I	-0.0001512155
-3.958197	assure|PERSON	0.002217088
-3.958197	assure|you	0.01145007
-3.736349	attach|	0.086458
-3.833259	attack|	0.08529159
-3.958197	attack|bear	0.0004653332
-3.736349	attempt|	0.0007569665
-3.833259	attempt|I	0.08527216
-3.736349	attempt|we	0.08595101
-3.958197	attend|we	0.001912326
-3.958197	attract|	0.08540251
-3.958197	average|I	0.08540251
-3.20487	avoid|	0.1026963
-3.833259	await|	0.08533047
-3.958197	awake|	-0.0003805138
-3.532229	awake|I	0.08781515
-3.736349	awake|we	0.08637404
-3.736349	backpack|	0.08843309
-3.833259	backtrack|	-0.0001547213
-3.833259	backtrack|we	0.002986895
-3.590221	back|	0.08678377
-3.958197	back|I	0.0006634314
-3.736349	back|it	-0.0002501394
-3.958197	back|traffic	-0.0004602257
-3.958197	balance|	0.0007913576
-3.958197	balk|we	-0.0003326796
-3.657167	bang|	-0.0005667342
-3.958197	bang|PERSON	0.08551369
-3.958197	barbeque|we	-0.0004602257
-3.958197	bark|	0.08832733
-3.532229	base|	0.08472894
-3.958197	batter|	0.001511647
-3.958197	beach|some	-0.0002050961
-3.833259	beam|	-0.0004740203
-3.833259	beat|	0.08685529
-3.958197	beat|salad	-0.0003007873
-3.590221	become|	0.09942454
-3.393926	become|I	0.002744805
-3.833259	become|he	-0.0001288877
-3.590221	become|it	0.09089501
-3.958197	become|rock	-0.0001831313
-3.958197	become|sky	0.0002000135
-3.833259	become|they	-0.0005278429
-3.833259	become|we	0.08591399
-3.958197	bed.|	-0.0004124003
-3.435319	begin|	0.09355441
-3.393926	begin|I	0.08580067
-3.958197	begin|cloud	0.0004236706
-3.393926	begin|it	0.08694953
-3.958197	begin|sun	0.000823345
-3.180046	begin|we	0.09435228
-3.958197	beg|	-0.0005021606
-3.833259	behold|	0.0009421229
-3.590221	believe|	0.08669845
-3.20487	believe|I	0.1069357
-3.736349	believe|t	0.08510841
-3.833259	believe|you	0.0859586
-3.657167	bend|	0.08632793
-3.958197	bias|m	-0.0001891456
-3.958197	bike|we	-0.0004124003
-3.590221	bite|	0.09226728
-3.736349	bite|mosquito	0.08915889
-3.833259	bite|they	0.08630926
-3.958197	bite|we	-0.0004602257
-3.958197	blag|	0.08588861
-3.958197	blame|	-0.0004602257
-3.958197	blast|	0.08787757
-3.657167	blaze|	0.08630247
-3.736349	blend|	0.08634095
-3.958197	bless|	0.01141168
-3.958197	bless|God	0.09996631
-3.958197	blogg|	0.08553856
-3.393926	blow|	0.0918778
-3.958197	blow|CAUSE_OF_DEATH	0.08697946
-3.736349	blow|I	0.08576997
-3.958197	blow|it	-0.0002629107
-3.958197	blow|sand	-0.0004602257
-3.736349	blow|they	0.08553637
-3.435319	blow|wind	0.09075981
-3.833259	board|we	0.00106076
-3.657167	boil|	0.0884865
-3.833259	bonk|I	-0.0004799876
-3.532229	book|	0.08607402
-3.736349	book|I	0.001523515
-3.958197	book|it	0.0009928262
-3.481076	book|we	0.0876922
-3.736349	bore|	0.0866606
-3.958197	bore|I	0.08637526
-3.958197	bore|they	0.001937519
-3.736349	borrow|	0.08506414
-3.657167	bother|t	0.08478381
-3.736349	bounce|	-0.000665091
-3.532229	brave|	0.08706449
-3.958197	brave|PERSON	0.08540251
-3.958197	brave|other	-0.0004602257
-3.958197	brave|soul	-0.0004602257
-3.958197	breakfast|	-9.342982e-05
-3.055107	break|	0.09194095
-3.590221	break|I	0.08582732
-3.958197	break|PERSON	0.0006570751
-3.958197	break|Tanner	-0.0004442845
-3.958197	break|camp	-0.0002050961
-3.958197	break|people	0.08629736
-3.590221	break|we	0.08953547
-3.393926	breathe|	0.1035449
-3.958197	breathe|DURATION	-2.35287e-05
-3.958197	breathe|I	0.08540251
-3.958197	breathe|t	0.08540251
-3.833259	breathe|you	0.08573885
-3.958197	brew|sun	0.0002000133
-2.879016	bring|	0.1089465
-3.073591	bring|I	0.08712634
-3.958197	bring|LOCATION	0.001591753
-3.958197	bring|MONEY	0.08571355
-3.393926	bring|PERSON	0.08738098
-3.958197	bring|everyone	-0.0004383735
-3.657167	bring|he	0.08617777
-3.958197	bring|i	-0.0002150449
-3.833259	bring|it	0.0007501058
-3.958197	bring|man	-0.0005499948
-3.657167	bring|people	0.0111282
-3.958197	bring|that	0.001655848
-3.657167	bring|they	0.09371653
-3.020345	bring|we	0.09260745
-3.958197	bring|what	0.0003917124
-3.736349	bring|you	0.08565878
-3.958197	brush|	0.08699897
-3.113099	build|	0.10114
-3.958197	build|CAUSE_OF_DEATH	0.0009928262
-3.833259	build|PERSON	0.0005165716
-3.958197	build|th	0.08703798
-3.958197	build|that	0.08544137
-3.958197	build|they	0.08610267
-3.590221	build|we	0.003074385
-3.958197	build|which	-0.0002310006
-3.833259	bundle|we	0.002722316
-3.481076	burn|	-0.0005272429
-3.958197	burn|eye	0.0006954091
-3.958197	burn|it	0.01267548
-3.958197	burn|retire	-0.0004283427
-3.833259	bury|	0.08671872
-3.958197	bushwack|we	0.0004813087
-3.958197	bus|capital	-0.000390527
-2.916805	buy|	0.1037787
-3.134289	buy|I	0.1023687
-3.958197	buy|PERSON	-0.0004862147
-3.958197	buy|guy	0.08567466
-3.958197	buy|he	0.003921277
-3.736349	buy|i	0.08641898
-3.958197	buy|sale	0.085733
-3.156565	buy|we	0.09369305
-3.833259	buy|wife	0.002408157
-3.736349	buy|you	0.0004914044
-3.833259	buzz|	0.08547203
-3.958197	bypass|	0.08672599
-2.590221	call|	0.100226
-3.958197	call|Close	0.0004875938
-3.958197	call|DATE	-0.0004283427
-3.113099	call|I	0.09364737
-3.393926	call|PERSON	0.08880333
-3.958197	call|forecast	0.0872526
-3.736349	call|he	0.08848511
-3.532229	call|it	0.08957072
-3.833259	call|she	-0.0004799877
-3.590221	call|they	0.01387563
-3.259228	call|we	0.1054128
-3.833259	call|you	0.08521924
-3.736349	calm|	0.002560432
-3.833259	calm|I	0.08523329
-3.958197	came|	-0.0003805138
-3.958197	campground|	-0.0004862147
-2.476277	camp|	0.1213623
-3.532229	camp|I	0.08654905
-3.958197	camp|backwoods	-7.747498e-05
-3.958197	camp|it	-0.0004124003
-3.833259	camp|they	0.08597807
-3.958197	camp|thing	0.01145007
-2.972921	camp|we	0.1006327
-3.657167	cancel|	0.08490045
-3.958197	canoe|	0.00114335
-3.833259	canoe|we	0.002649203
-3.958197	cant|we	-8.737692e-05
-3.958197	can|	0.08542194
-3.481076	can|I	0.09872459
-3.958197	can|that	-0.0001412902
-3.657167	can|we	0.01094779
-3.958197	capture|PERSON	0.01145007
-3.657167	care|I	0.08807472
-3.833259	care|we	0.0862508
-3.736349	care|you	0.0007474931
-3.003955	carry|	0.09267033
-3.958197	carry|Husband	-0.0004602257
-3.393926	carry|I	0.0008037544
-3.736349	carry|PERSON	0.08755199
-3.736349	carry|d	-5.848985e-05
-3.958197	carry|it	0.002907604
-3.532229	carry|we	0.08487073
-3.736349	cast|	0.08634095
-3.958197	cast|she	-0.0002150449
-2.763221	catch|	0.1114666
-3.958197	catch|Gran	-6.151971e-05
-3.20487	catch|I	0.09943591
-3.958197	catch|PERSON	0.0005132607
-3.833259	catch|guy	9.468733e-05
-3.736349	catch|he	0.01110048
-3.958197	catch|it	0.08540251
-3.958197	catch|they	0.001095335
-3.590221	catch|we	0.005061857
-3.833259	cause|	0.08591399
-3.958197	cause|PERSON	-0.0002848403
-3.958197	cause|it	0.08551369
-3.958197	cause|she	-0.0004602257
-3.958197	cause|switch	-0.0003267234
-3.833259	cause|that	0.08558323
-3.532229	celebrate|	0.0898343
-3.958197	certify|	0.09996631
-3.156565	change|	0.08950637
-3.833259	change|I	0.001589597
-3.958197	change|etiquette	-0.0004124003
-3.657167	change|that	0.003162804
-3.958197	change|they	-0.0003267236
-3.958197	change|thing	0.0005515266
-3.958197	change|this	0.001335466
-3.532229	change|we	0.08979954
-3.958197	charge|	0.08602482
-3.833259	charge|they	0.0008526079
-3.532229	charter|we	0.08454303
-3.958197	chase|we	0.08544137
-3.532229	chat|	0.0911766
-3.657167	chat|we	0.08591256
-2.649989	check|	0.1089026
-3.156565	check|I	0.1008174
-3.958197	check|bullray	-5.545403e-05
-3.958197	check|camp	-0.0004602257
-3.958197	check|he	-0.0001512155
-3.958197	check|kid	0.0004396506
-2.958197	check|we	0.09791108
-3.958197	check|world	0.01145007
-3.833259	check|you	0.0111933
-3.958197	cheer|	0.08542194
-3.736349	chew|	1.164502e-05
-3.958197	chew|we	0.001617055
-3.958197	chillin|you	-0.0004602257
-3.958197	chill|	0.01136251
-3.481076	chill|we	0.08622377
-3.736349	choose|	0.00120273
-3.657167	choose|I	0.08734378
-3.958197	choose|d	0.01145007
-3.532229	choose|we	0.09153593
-3.833259	chop|	0.003051247
-3.958197	chuckle|	0.001239398
-3.958197	claim|	0.0002958525
-3.958197	clamber|we	0.0001840423
-3.958197	clap|that	-0.0004602257
-3.958197	cleanse|	0.00279512
-3.134289	clean|	0.09338468
-3.958197	clean|that	-0.0003007873
-3.481076	clean|we	0.09067174
-3.833259	clear|	0.08699191
-3.958197	clear|cloud	0.001447573
-3.657167	clear|it	0.01135246
-3.958197	clear|rain	-0.0004442845
-3.958197	clear|sky	0.08551369
-3.958197	clear|we	-0.0005499948
-3.736349	click|	0.01122084
-2.833259	climb|	0.09509733
-3.435319	climb|I	0.08831009
-3.833259	climb|PERSON	-0.0007510977
-3.958197	climb|people	0.08551369
-3.958197	climb|sound	0.0004653332
-3.20487	climb|we	0.08873756
-3.958197	cling|I	0.08567466
-3.657167	close|	0.08691992
-3.958197	close|NUMBER	-0.0004602257
-3.958197	close|cause	-0.0001731943
-3.356138	close|it	0.08985733
-3.958197	close|office	0.0005035762
-3.958197	close|that	0.08807306
-3.833259	close|they	0.08549149
-3.958197	cloud|	0.08567466
-3.958197	cloud|it	0.0002417419
-3.958197	coax|	0.0006954093
-3.958197	collapse|	-0.0004442845
-3.958197	collapse|3/4ths	-0.0003107712
-3.958197	collapse|I	-0.000374577
-3.833259	collect|	-7.485977e-05
-3.833259	color|	0.08554433
-3.958197	comment|we	0.002306347
-3.958197	commune|	0.08625841
-3.958197	communicate|NUMBER	-0.0004602257
-3.958197	communicate|who	-0.0004124003
-3.321375	compare|	0.1003284
-3.958197	compensate|	0.0004396505
-3.590221	complain|	0.08977161
-3.958197	complain|I	0.08551369
-3.736349	complain|we	0.000898204
-3.356138	complete|	0.1004161
-3.958197	complete|I	0.0006154685
-3.958197	complete|i	0.085733
-3.958197	complete|we	0.08544137
-3.958197	comprise|DATE	-0.0003326796
-3.958197	comprise|share	-0.0003645697
-3.958197	concentrate|	0.08542194
-3.958197	concern|	-5.545415e-05
-3.736349	confess|I	0.0001458181
-3.958197	confuse|I	-0.0004224252
-3.590221	connect|	-0.001390208
-3.231199	consider|	0.1069705
-3.657167	consider|I	0.08550354
-3.958197	consider|people	-0.0003645697
-3.958197	consider|thing	0.0002896447
-3.833259	consider|we	-0.0006554312
-3.958197	consist|	0.08964013
-3.958197	consist|PERSON	-2.352882e-05
-3.958197	consist|which	0.08542194
-3.958197	consult|we	0.002618417
-3.958197	consume|PERSON	-0.0004602257
-3.958197	consume|which	-0.0004283427
-3.958197	contain|it	0.0005994819
-3.736349	contain|property	0.08510301
-3.958197	contemplate|	0.0004493587
-3.958197	contend|	-0.0004224252
-3.113099	continue|	0.1070684
-3.289191	continue|I	0.09106596
-3.833259	continue|PERSON	0.08642034
-3.958197	continue|White	-0.0001093839
-3.958197	continue|he	9.80653e-05
-3.958197	continue|trail	0.001031322
-3.180046	continue|we	0.08952761
-3.958197	continue|wind	0.08781894
-3.958197	control|	-0.0004224252
-3.657167	convince|	0.0003832327
-3.736349	convince|I	0.002905597
-2.833259	cook|	0.09596894
-3.590221	cook|I	0.08864412
-3.736349	cook|PERSON	0.004372836
-3.003955	cook|we	0.1077683
-3.657167	cool|	0.0906301
-3.958197	cool|it	0.08703798
-3.958197	cool|temperature	-0.0004442845
-3.958197	cooperate|	-0.0002848403
-3.958197	cooperate|weather	0.08664802
-3.958197	cope|the	0.0005611934
-3.736349	cost|DATE	0.0003890228
-3.20487	couldn|I	0.09863466
-3.833259	couldn|MONEY	-6.50211e-05
-3.958197	couldn|he	0.08807306
-3.958197	couldn|she	-0.0001093839
-3.435319	couldn|we	0.08736023
-3.958197	counter|	-0.0004602257
-3.590221	count|	0.08587217
-3.958197	count|it	-0.0003107711
-3.833259	count|we	0.08538879
-3.113099	cover|	0.1070783
-3.958197	cover|she	0.08664802
-3.736349	cover|that	0.08680324
-3.958197	cover|wall	0.08548025
-3.958197	cover|we	0.0865311
-3.958197	cozy|breakfast	0.0005611934
-3.736349	cram|	0.08844593
-3.590221	crash|	0.08714838
-3.833259	crash|I	-0.0002087083
-3.833259	crawl|	0.0875779
-3.833259	crawl|I	0.08551094
-3.958197	crawl|PERSON	0.000711399
-3.958197	crawl|meal	-0.0004602257
-3.736349	crawl|we	9.15681e-05
-3.958197	creak|	-3.949163e-05
-3.590221	create|	0.08703787
-3.958197	create|kid	-4.556385e-05
-3.833259	creep|	-0.0008568694
-3.958197	cringe|I	0.08551369
-2.844254	cross|	0.114786
-3.321375	cross|I	0.08496106
-3.958197	cross|bridge	0.08551369
-3.481076	cross|it	0.08908691
-3.958197	cross|trail	0.08553856
-3.321375	cross|we	0.01001164
-3.958197	cross|you	0.08540251
-3.833259	crowd|	0.000916644
-3.736349	cruise|we	0.08508357
-3.532229	cry|	0.003235736
-3.833259	cry|I	0.002424222
-3.958197	cry|PERSON	0.0875845
-3.736349	cry|girl	-0.0004895829
-3.958197	cry|you	0.0001299893
-3.736349	cuddle|	0.100686
-3.958197	curl|PERSON	0.085558
-3.958197	curse|we	0.00172919
-3.231199	cut|	0.08764026
-3.958197	cut|I	0.0004076915
-3.736349	cut|we	0.08811298
-3.958197	dawn|it	0.08561633
-3.481076	deal|	0.08657574
-3.736349	deal|I	0.08588682
-3.958197	deal|we	-0.0003964574
-3.20487	decide|	0.09067131
-3.736349	decide|DATE	0.08879874
-2.5059	decide|I	0.1115886
-2.916805	decide|PERSON	0.09648666
-3.958197	decide|guy	-0.0004283427
-3.736349	decide|he	0.08499713
-3.833259	decide|i	0.001910416
-3.958197	decide|people	-0.0004064764
-3.958197	decide|se	-0.0003645697
-3.657167	decide|she	0.08632793
-3.481076	decide|they	0.08556557
-2.289191	decide|we	0.1256461
-3.958197	decide|who	0.0003917125
-3.833259	declare|PERSON	-0.0001608176
-3.958197	deepen|	0.08561633
-3.958197	defuse|	0.08551369
-3.958197	dehydrate|	-9.342982e-05
-3.833259	dehydrate|I	0.08689433
-3.958197	dehydrate|grain	-0.0003964574
-3.958197	delay|we	0.08551369
-3.833259	deliver|	-0.0007510977
-3.958197	depart|	0.00152096
-3.958197	depart|we	0.08551369
-3.958197	depend|that	0.0006890399
-3.958197	descend|	0.001784067
-3.958197	descend|mosquito	8.210412e-05
-3.657167	descend|we	0.004551203
-3.657167	describe|	0.0002871496
-3.736349	describe|I	0.0007955267
-3.958197	describe|book	0.0002159851
-3.958197	describe|hike	-0.0005659383
-3.958197	describe|they	-0.0004602257
-3.958197	describe|you	-0.0004442845
-3.736349	desert|	0.001860594
-3.958197	deserve|	0.0001361325
-3.590221	designate|	5.408691e-05
-3.736349	desire|	0.08664712
-3.657167	determine|	-0.0010457
-3.958197	determine|I	0.08610267
-3.736349	determine|he	-0.0009043057
-3.833259	determine|we	0.08767564
-3.833259	develop|	0.01256689
-3.958197	did.|we	-0.0003267236
-3.532229	didn|	0.002325447
-2.736349	didn|I	0.1149178
-3.590221	didn|PERSON	0.09228709
-3.833259	didn|he	0.00110881
-3.180046	didn|it	0.08885814
-3.958197	didn|that	0.08807306
-3.481076	didn|they	0.08921233
-2.833259	didn|we	0.1197846
-3.590221	didn|you	-0.001214719
-3.532229	die|	0.003817164
-3.833259	die|CAUSE_OF_DEATH	0.08580284
-3.833259	die|I	0.01227097
-3.833259	die|we	-0.0006713771
-3.958197	digress|I	0.08542194
-3.481076	dig|	0.08852927
-3.958197	dig|I	-3.949186e-05
-3.833259	dig|they	-0.0003523477
-3.958197	dig|you	0.09996631
-3.958197	dine|	0.08567466
-3.736349	dip|	-0.0004995154
-3.958197	dip|PERSON	0.0006634312
-3.833259	direct|	0.08551094
-3.958197	direct|it	-0.0001512155
-3.958197	disapoint|it	-0.0004602257
-3.958197	disappear|	0.08625841
-3.958197	disappoint|we	0.08586916
-3.833259	discover|	0.09156399
-3.393926	discover|I	0.08743984
-3.435319	discover|PERSON	-0.00104453
-3.321375	discover|we	0.08962533
-3.736349	discuss|	0.08497234
-3.958197	discuss|we	-0.0004224252
-3.958197	disturb|	-0.0003964574
-3.958197	disway|we	-7.747498e-05
-3.393926	dive|	0.1012816
-3.958197	dive|I	0.08540251
-3.736349	dive|NUMBER	0.08503602
-3.958197	dive|TIME	-0.0002469559
-3.958197	dive|he	-0.0001831313
-3.958197	dive|i	-0.0004862147
-3.289191	dive|we	0.103576
-3.958197	divide|	0.08551912
-3.833259	do.|	0.08648469
-3.958197	dodge|	-0.0002529444
-3.481076	doesn|it	0.08506641
-3.958197	doesn|which	0.0003375525
-3.958197	doesn|who	5.629438e-05
-3.958197	dominate|group	-0.0004602257
-3.958197	dominate|it	0.0006091314
-3.590221	don|	0.08518995
-2.833259	don|I	0.09016398
-3.590221	don|we	0.08844209
-3.958197	don|who	0.085558
-3.590221	don|you	0.08575514
-3.736349	down|PERSON	-0.0003299687
-3.958197	doze|	0.0001521019
-3.736349	drag|	0.001420445
-3.958197	drag|I	0.0001840424
-3.958197	drag|we	0.08563577
-3.958197	drain|I	-0.0005659383
-3.736349	draw|	0.08933562
-3.958197	draw|I	0.08637526
-3.833259	dread|	-1.144886e-06
-3.958197	dream|	-0.0004602257
-3.958197	dream|I	0.0004396503
-3.833259	drench|	4.676869e-05
-3.958197	drench|sky	-0.000348625
-3.321375	dress|	0.08461744
-3.833259	dress|I	0.01454485
-3.958197	drinkin|Al	0.001937519
-3.20487	drink|	0.08987782
-3.736349	drink|I	0.08633504
-3.393926	drink|we	0.08593867
-3.736349	drip|	0.002769487
-2.279983	drive|	0.1326187
-2.763221	drive|I	0.116748
-3.736349	drive|PERSON	0.01240906
-3.736349	drive|he	0.08721333
-3.958197	drive|i	0.08651162
-3.958197	drive|then	-0.0004602257
-2.210009	drive|we	0.1486205
-3.958197	drive|wheel	-0.0001033375
-3.481076	drive|you	0.09221537
-3.231199	drop|	0.1026878
-3.481076	drop|I	0.01164055
-3.958197	drop|NUMBER	0.01145007
-3.958197	drop|PERSON	-0.0004602257
-3.833259	drop|group	0.08608919
-3.833259	drop|temp	0.001695008
-3.736349	drop|temperature	-0.0007489427
-3.958197	drop|traffic	-0.0004602257
-3.321375	drop|we	0.00143665
-3.958197	drown|	0.08544137
-3.156565	dry|	0.1038395
-3.958197	dry|I	0.08551369
-3.958197	dry|Soups	-3.949186e-05
-3.393926	dry|freeze	-0.002139595
-3.958197	dry|thing	0.002586297
-3.833259	duck|	0.08642621
-3.833259	dump|we	0.0853499
-3.736349	earn|pad	0.002665675
-2.4958	eat|	0.1227209
-3.156565	eat|I	0.09401364
-3.958197	eat|PERSON	-0.0005499948
-3.833259	eat|fish	0.0004685874
-3.958197	eat|guitar	0.000359757
-3.833259	eat|he	0.08562213
-3.958197	eat|hike	0.001543688
-3.833259	eat|kid	3.697071e-05
-3.833259	eat|mosquito	-0.0006394847
-3.657167	eat|she	0.002414704
-3.833259	eat|t	0.08523329
-3.958197	eat|that	0.08602482
-3.736349	eat|they	0.0001075545
-2.615775	eat|we	0.1180057
-3.958197	eat|which	0.001367494
-3.958197	eat|you	-0.0004442845
-3.958197	edge|	0.0001521019
-3.958197	edward|	0.01362986
-3.958197	elect|	-0.0004602257
-3.958197	embark|	-0.0004602257
-3.833259	embark|we	0.08617286
-3.958197	emerge|we	0.08590807
-3.958197	emphasize|I	0.0004396503
-3.657167	empty|	0.001258169
-3.590221	encounter|we	0.08610632
-3.958197	encourage|I	0.08544137
-3.958197	endure|	0.0005834961
-3.958197	endure|NUMBER	0.08631683
-3.289191	end|	0.09096965
-3.113099	end|I	0.09605145
-3.958197	end|Road	-9.342982e-05
-3.590221	end|he	0.08703787
-3.435319	end|it	0.01395194
-3.657167	end|that	0.08691992
-3.958197	end|this	-0.000246956
-3.958197	end|trail	0.0004813087
-3.833259	end|trip	0.01120969
-2.772561	end|we	0.1104253
-3.833259	end|which	0.0004845817
-3.958197	engage|we	-0.0001412902
-3.958197	engeneer|that	0.0002736763
-2.58406	enjoy|	0.1132945
-3.958197	enjoy|Girly	-0.0004602257
-2.891251	enjoy|I	0.1068699
-3.393926	enjoy|PERSON	0.1031987
-3.958197	enjoy|citizen	-0.0004224252
-3.736349	enjoy|he	0.0007059814
-3.833259	enjoy|i	0.0001807952
-3.958197	enjoy|it	0.001399523
-3.958197	enjoy|kid	-7.565191e-06
-3.958197	enjoy|ll	0.01198568
-3.958197	enjoy|she	-0.0003964574
-3.657167	enjoy|they	-0.0009877699
-2.642927	enjoy|we	0.1076789
-3.958197	enjoy|you	0.01145007
-3.958197	enlarge|	8.210412e-05
-3.833259	ensure|	0.0864652
-3.958197	entertain|	0.0001680718
-3.958197	entertain|you	-0.0004602257
-3.321375	enter|	0.09316643
-3.958197	enter|I	0.08542194
-3.958197	enter|he	-0.000246956
-3.180046	enter|we	0.08983669
-3.657167	equalize|	0.08561224
-3.958197	erode|	0.08563577
-3.833259	escape|	0.002279653
-3.833259	estimate|I	0.08630926
-3.958197	everyht|	8.210412e-05
-3.958197	everyone|MONEY	0.002306347
-3.958197	examine|	0.08559688
-3.958197	exceed|	0.01145007
-3.590221	excite|I	0.1012397
-3.736349	excite|we	0.001042427
-3.958197	exclude|	0.08551369
-3.958197	excuse|	-0.0001671737
-3.958197	exercise|	0.01132974
-3.393926	exhaust|	0.1044423
-3.393926	exhaust|I	0.002736421
-3.833259	exhaust|it	0.08687481
-3.958197	exhaust|time	0.0009673182
-3.435319	exhaust|we	0.02127478
-3.736349	exict|we	0.001198607
-3.736349	exit|	0.08941419
-3.321375	expect|	0.08811886
-3.156565	expect|I	0.08657283
-3.481076	expect|we	0.09013869
-3.833259	expect|you	0.08525812
-3.532229	experience|	0.001842719
-3.736349	experience|I	0.08680934
-3.833259	experience|we	0.08587506
-3.958197	experience|who	0.0003757343
-3.736349	explain|	0.08672518
-3.833259	explain|I	0.08590018
-2.855535	explore|	0.119471
-3.833259	explore|I	0.0860365
-3.289191	explore|we	0.08752446
-3.356138	face|	0.1034239
-3.958197	face|I	9.80653e-05
-3.958197	face|we	0.01192004
-3.833259	fail|	0.0006701232
-3.833259	fail|I	0.08525272
-3.958197	fail|idea	-2.960736e-05
-2.988161	fall|	0.09528244
-3.20487	fall|I	0.0887496
-3.833259	fall|NUMBER	0.08523329
-3.833259	fall|PERSON	-8.098845e-05
-3.833259	fall|Tristan	0.08591965
-3.833259	fall|he	0.08525272
-3.958197	fall|it	0.08727212
-3.736349	fall|rain	0.08506414
-3.736349	fall|that	0.005116408
-3.481076	fall|the	0.08742434
-3.590221	fall|they	0.001690151
-3.958197	fall|water	0.001703926
-3.532229	fall|we	0.08558619
-3.736349	fall|you	-0.000377859
-3.958197	family|	0.001527667
-3.958197	fashion|	-0.0001891456
-3.833259	fear|I	-0.0007611888
-3.736349	feast|	0.0849529
-3.833259	feast|we	9.468722e-05
-3.657167	feature|	0.0003351881
-3.20487	feed|	0.1056859
-3.833259	feed|I	0.08543313
-3.958197	feed|they	0.08571355
-3.736349	feed|we	0.01380978
-3.092896	feel|	0.09234033
-2.448547	feel|I	0.1217918
-3.657167	feel|PERSON	0.0003607675
-3.833259	feel|he	0.001990658
-3.958197	feel|i	-0.0003426752
-2.80185	feel|it	0.1165546
-3.958197	feel|place	0.0005515266
-3.958197	feel|ride	-0.0004442845
-3.657167	feel|she	0.0882052
-3.958197	feel|tent	-0.0001731943
-3.958197	feel|that	0.08540251
-3.833259	feel|they	0.0893995
-3.958197	feel|this	0.002393627
-3.037379	feel|we	0.09594728
-3.590221	feel|you	0.08754001
-3.435319	fight|	0.08502023
-3.958197	fight|I	0.0007433812
-3.134289	figure|	0.09294432
-3.003955	figure|I	0.1031156
-3.958197	figure|PERSON	-0.0002948183
-3.958197	figure|i	-0.0002150449
-3.958197	figure|they	0.002714791
-3.321375	figure|we	0.004489685
-2.916805	fill|	0.1020801
-3.833259	fill|DURATION	-9.695569e-05
-3.833259	fill|I	-0.0002665026
-3.736349	fill|it	0.08755199
-3.958197	fill|site	0.08768217
-3.958197	fill|sky	-0.0004602257
-3.736349	fill|we	0.08839389
-3.958197	film|part	0.0002639038
-3.958197	filter|	0.0003917126
-3.958197	filter|we	-7.747498e-05
-2.250627	find|	0.1476508
-3.958197	find|DATE	-0.0001192973
-2.462191	find|I	0.1294093
-3.958197	find|MONEY	-0.0005818813
-3.156565	find|PERSON	0.1023327
-3.958197	find|diamond	0.08563577
-3.958197	find|food	-0.0004283427
-3.833259	find|i	0.01177822
-3.958197	find|she	-0.0001891456
-3.958197	find|suggestion	0.0008073512
-3.833259	find|t	0.002681354
-3.958197	find|tent	0.08551369
-3.435319	find|they	0.08836202
-2.401895	find|we	0.1339784
-3.958197	find|which	0.0003278033
-3.393926	find|you	0.1033068
-3.156565	finish|	0.1013468
-3.259228	finish|I	0.1027274
-3.958197	finish|they	-0.0005659383
-3.321375	finish|we	0.08936851
-3.958197	fire|	0.08540251
-3.958197	fire|I	0.002377575
-3.958197	fish.|PERSON	-0.0003805138
-3.958197	fish|they	-0.0004602257
-3.958197	fit|	0.002891533
-3.958197	fit|they	0.08657007
-3.590221	fix|	0.01230775
-3.958197	fix|I	0.002971893
-3.958197	fix|guy	0.08551369
-3.958197	fix|we	-0.0003805138
-3.958197	flare|	0.001617055
-3.958197	flip|someone	0.0001299893
-3.393926	float|	0.08835776
-3.736349	float|I	0.08569773
-3.958197	float|we	0.001223388
-3.958197	flood|that	0.08629736
-3.958197	floor|My	0.0003917128
-3.958197	flounder|	0.08832733
-3.657167	flow|	-0.0003332192
-3.958197	flow|it	0.08551369
-3.958197	flow|river	0.08540251
-3.833259	flow|that	0.08708952
-3.833259	flush|	0.08523329
-3.020345	fly|	0.1020166
-3.833259	fly|DATE	0.100251
-3.958197	fly|be	-0.0002848403
-3.958197	fly|birdie	-0.0004283427
-3.958197	fly|it	0.08551369
-3.481076	fly|we	0.003615766
-3.958197	focus|	0.003004043
-3.958197	fold|she	0.08551369
-2.772561	follow|	0.1112843
-3.481076	follow|I	0.08749612
-3.958197	follow|PERSON	-0.0004862147
-3.833259	follow|that	0.0003246674
-3.958197	follow|this	0.08546081
-3.833259	follow|trail	0.08593345
-3.156565	follow|we	0.08879671
-3.958197	forage|	0.08540251
-3.958197	forage|we	-0.0004283427
-3.833259	force|	-0.000144853
-3.833259	force|I	0.001477365
-3.532229	forget|	0.1017833
-3.958197	forget|!!	0.001056809
-3.134289	forget|I	0.09688579
-3.958197	forget|PERSON	0.001447573
-3.590221	forget|we	0.09012605
-3.833259	form|	0.001445304
-3.958197	freak|	8.398609e-06
-3.833259	freak|I	-0.0007510977
-3.958197	freak|PERSON	0.08551369
-3.833259	freeze|	0.08544711
-3.833259	freeze|I	0.0859586
-3.958197	frequent|none	-0.0004602257
-3.833259	fry|	-0.0005697643
-3.833259	fry|country	0.08853672
-3.833259	fuck|	0.08973331
-3.736349	fuel|	-7.804495e-05
-3.958197	fuel|we	0.08662853
-3.958197	fussed|you	-0.0004602257
-3.736349	gain|	-0.0007389148
-3.958197	gain|we	0.001223388
-3.321375	gather|	0.08798823
-3.958197	gather|one	-0.0003805138
-3.736349	gather|we	0.01229391
-3.833259	gaze|	0.08566103
-3.958197	gaze|we	0.08553856
-3.958197	gear|girl	-0.0004602257
-3.958197	gear|we	0.08787757
-3.481076	giggle|	0.08771121
-2.439683	give|	0.1387803
-3.958197	give|CAUSE_OF_DEATH	0.08565521
-3.180046	give|I	0.1169803
-3.833259	give|MONEY	0.08547203
-3.657167	give|PERSON	0.002309367
-3.958197	give|askedffriend	0.08542194
-3.958197	give|bbq	-0.0003964574
-3.958197	give|doctor	0.001079331
-3.481076	give|he	0.08438163
-3.435319	give|it	0.08762215
-3.958197	give|k	-0.000221046
-3.736349	give|lady	0.08868111
-3.958197	give|mascot	-0.0004602257
-3.833259	give|master	0.08514149
-3.736349	give|s	-0.0008245821
-3.833259	give|she	0.08527216
-3.833259	give|store	0.08541369
-3.736349	give|that	0.08780634
-3.289191	give|they	0.0932359
-3.958197	give|trip	0.0002639036
-3.156565	give|we	0.09032343
-3.289191	give|which	0.08809537
-3.833259	give|while	0.0851998
-3.958197	glare|we	0.001328837
-3.958197	glaze|	0.09996631
-3.958197	glisten|	-3.949163e-05
-3.958197	gloat|	-0.0004602257
-3.833259	gon|	0.0001168676
-3.958197	gon|I	0.0005515263
-3.958197	gon|that	0.08567466
-3.356138	grab|	0.08674819
-3.435319	grab|I	0.002122776
-3.833259	grab|PERSON	0.0003663262
-3.958197	grab|blog	0.0893851
-3.958197	grab|i	-0.0004383735
-3.481076	grab|we	0.08787476
-3.958197	grab|you	0.08546081
-3.736349	grant|God	0.0003570418
-3.958197	grate|site	-0.0004602257
-3.435319	greet|	0.09032516
-3.657167	greet|we	0.08668542
-3.532229	grow|	0.08981171
-3.532229	grow|I	0.08589834
-3.590221	grow|it	0.08707698
-3.958197	grow|space	0.0006730569
-3.958197	grow|we	0.0858497
-3.958197	grumble|kid	-0.0003964574
-3.532229	guess|	0.09904305
-2.930169	guess|I	0.1279085
-3.958197	guess|i	0.002803959
-3.833259	guess|you	0.08518036
-3.736349	guide|	0.01331489
-3.958197	had.|I	-0.0003805138
-3.736349	hadn|I	0.001949927
-3.481076	hadn|we	0.08552848
-3.833259	hammer|	0.0004142797
-3.532229	handle|	-0.0008925544
-3.958197	handle|I	-0.0004602257
-3.833259	handle|car	0.08681025
-3.958197	handle|kid	0.001617055
-3.833259	handle|we	0.01104014
-3.736349	hand|	0.08543353
-3.833259	hand|I	0.01128603
-3.958197	hand|leader	0.08600536
-3.833259	hand|they	-0.000330365
-3.958197	hand|we	0.0003278032
-2.891251	hang|	0.1141423
-3.532229	hang|I	0.0002505723
-3.958197	hang|PERSON	0.001303441
-3.958197	hang|kid	-0.0005181059
-3.833259	hang|that	0.08802769
-3.833259	hang|the	0.0001168674
-3.958197	hang|they	0.001703926
-3.020345	hang|we	0.09107593
-3.231199	happen|	0.1009511
-3.958197	happen|DATE	0.001495628
-3.833259	happen|I	-0.0005059374
-3.958197	happen|anything	0.01145007
-3.958197	happen|he	-9.342982e-05
-3.435319	happen|it	0.08654387
-3.833259	happen|nothing	-0.0005857195
-3.435319	happen|that	0.0003595003
-3.833259	happen|thing	0.08785163
-3.736349	happen|this	0.08700465
-3.736349	happen|we	0.1000934
-3.289191	happen|what	0.09579719
-3.833259	happen|which	0.0004462521
-3.958197	happen|who	0.08544137
-3.958197	hardly|I	0.08647265
-3.180046	hate|I	0.08886599
-3.958197	hate|PERSON	0.003020118
-3.736349	hate|girl	0.002376424
-3.958197	hate|we	0.0003278033
-3.532229	haul|	0.09490941
-3.736349	haven|I	0.001443296
-2.444093	head|	0.1334544
-3.958197	head|&	0.01208415
-3.958197	head|DATE	0.09996631
-2.833259	head|I	0.1051631
-3.590221	head|PERSON	-0.0007357533
-3.958197	head|cabin	-0.0004602257
-3.958197	head|he	0.0009513192
-3.958197	head|kid	0.00067942
-3.958197	head|m	-0.0003107712
-3.958197	head|they	-0.0004543212
-2.189806	head|we	0.1464359
-3.020345	hear|	0.1107
-3.055107	hear|I	0.1054185
-3.736349	hear|PERSON	-0.0008245821
-3.958197	hear|WI	0.003012804
-3.958197	hear|all	0.01145007
-3.958197	hear|d	0.08540251
-3.958197	hear|he	5.629455e-05
-3.958197	hear|she	-5.545397e-05
-3.736349	hear|t	0.08934814
-3.833259	hear|they	0.08525272
-3.958197	hear|ve	-0.0001512155
-2.943957	hear|we	0.08650529
-3.736349	hear|you	0.002246148
-3.833259	heat|	0.001076776
-3.833259	heed|	-0.0007510977
-3.003955	help|	0.1015758
-3.532229	help|I	0.08463164
-3.958197	help|LOCATION	-0.0004124003
-3.833259	help|PERSON	-0.0006554312
-3.833259	help|he	0.08770835
-3.393926	help|it	0.08850803
-3.958197	help|jacket	-0.0004283427
-3.532229	help|that	0.1031313
-3.958197	help|they	-8.737686e-05
-3.657167	help|we	0.0004728407
-3.958197	help|which	0.08623894
-3.958197	here|	0.000647443
-3.833259	here|Well	3.079697e-05
-3.958197	here|ear	0.08551369
-3.958197	hesitate|I	0.0005515267
-3.833259	he|	0.08525272
-3.833259	he|I	0.08516093
-3.958197	he|poem	0.08567466
-3.958197	hide|	0.08548025
-3.833259	hide|PERSON	0.08605597
-3.833259	hide|he	0.08560821
-3.657167	highlight|	0.08510584
-3.958197	highlight|the	0.0856941
-2.29544	hike|	0.1476107
-3.958197	hike|DATE	0.0860832
-3.958197	hike|DURATION	0.0009353202
-3.156565	hike|I	0.09707416
-3.833259	hike|PERSON	0.08570552
-3.958197	hike|mile	0.001569005
-3.958197	hike|t	-0.0005659383
-3.958197	hike|that	-0.0004124003
-2.609244	hike|we	0.1169948
-3.590221	hike|you	0.09914287
-3.833259	hire|	-0.0002665026
-2.867117	hit|	0.08903967
-3.231199	hit|I	0.08630978
-3.958197	hit|PERSON	0.0008073512
-3.958197	hit|head	0.01173958
-3.736349	hit|it	0.08541961
-3.958197	hit|that	7.226079e-05
-3.833259	hit|they	0.08543313
-2.763221	hit|we	0.102895
-3.092896	hold|	0.0873584
-3.590221	hold|I	0.08692686
-3.958197	hold|PERSON	-0.0001990884
-3.958197	hold|it	0.01229759
-3.958197	hold|luck	0.08567466
-3.958197	hold|tent	-0.0003805138
-3.958197	hold|they	0.001896291
-3.958197	hold|we	-0.0004383735
-3.958197	holler|you	-0.0004602257
-3.833259	hoof|we	0.08926213
-3.958197	hook|I	-0.0005659383
-3.259228	hope|	0.1017497
-2.867117	hope|I	0.1091216
-3.958197	hope|tent	-0.0004442845
-3.321375	hope|we	0.01923399
-3.958197	hop|	-0.0002948182
-3.833259	hop|I	0.003775863
-3.590221	hop|we	0.08874927
-3.958197	hover|	0.001175364
-3.958197	huddle|	-0.0002788648
-3.833259	hug|	0.0864457
-3.958197	hurl|old	0.0002098096
-3.590221	hurry|	0.08584098
-3.481076	hurt|	0.08745028
-3.736349	hurt|it	0.08553637
-3.958197	hurt|they	0.0006314556
-3.435319	identify|	0.08582045
-3.958197	ignore|	0.0004716122
-3.833259	ignore|I	0.001172884
-3.958197	illustrate|	-2.35287e-05
-3.321375	imagine|	0.09014744
-3.481076	imagine|I	0.08839321
-3.590221	imagine|you	0.1006943
-3.958197	impose|	0.08645318
-3.833259	impress|I	0.09968784
-3.958197	improve|	0.002168952
-3.958197	improve|weather	0.0005675112
-3.958197	improvise|	0.0001521018
-2.679444	include|	0.1142504
-3.590221	include|MONEY	0.01071882
-3.833259	include|few	0.08514149
-3.958197	include|price	0.08637526
-3.958197	include|stats	0.001617055
-3.958197	increase|heart	-0.0003805138
-3.958197	ingrain|it	-0.0004602257
-3.958197	injure|	-0.0002629106
-3.958197	insist|girl	-0.0004602257
-3.833259	intend|	-0.0006495347
-3.833259	intend|I	0.001220946
-3.657167	intend|we	0.003896995
-3.958197	internett|PERSON	0.08625841
-3.958197	intersperse|	-0.0004602257
-3.958197	introduce|	0.001536974
-3.958197	introduce|I	0.08546081
-3.833259	invite|I	0.09979709
-3.958197	invite|PERSON	8.398783e-06
-3.958197	invite|people	0.0003535231
-3.590221	invite|we	0.08727256
-3.736349	involve|	0.08508897
-3.833259	involve|it	0.08934062
-3.833259	isn|it	0.08614761
-3.657167	isolate|	0.08626346
-3.958197	itch|	-0.0001412902
-2.782106	it|	0.1136988
-3.833259	it|I	0.08553039
-3.958197	it|s	0.08551369
-3.958197	i|	0.00093532
-3.958197	jet|we	-0.0004224252
-3.134289	join|	0.09643942
-3.736349	join|I	0.08643848
-3.958197	join|PERSON	0.01316886
-3.958197	join|rest	-0.0004124003
-3.958197	join|some	-0.0004283427
-3.958197	join|ve	-0.0001572426
-3.532229	join|we	0.08457866
-3.958197	judge|	0.08551369
-3.20487	jump|	0.09018672
-3.833259	jump|I	0.01128603
-3.958197	jump|PERSON	0.001159356
-3.833259	jump|kid	0.0003503427
-3.532229	jump|we	0.0871752
-2.521505	keep|	0.1200809
-3.958197	keep|DURATION	-0.0004283427
-2.943957	keep|I	0.1028657
-3.958197	keep|NUMBER	0.0875845
-3.532229	keep|PERSON	0.08556669
-3.958197	keep|girl	0.08546081
-3.435319	keep|he	0.09126253
-3.958197	keep|i	0.08553856
-3.481076	keep|it	0.01510751
-3.958197	keep|that	8.398725e-06
-3.736349	keep|they	0.08868796
-3.156565	keep|we	0.09116733
-3.833259	keep|what	-0.0003782553
-3.435319	kick|	0.001752086
-3.833259	kick|we	0.002359963
-3.736349	kid|	0.01285351
-3.958197	kid|we	-0.0004602257
-3.657167	kill|	0.08512531
-3.958197	kill|I	0.08571355
-3.958197	knit|I	0.0005611934
-3.958197	knit|it	0.01145007
-3.736349	knock|I	0.08940704
-2.736349	know|	0.1138247
-2.439683	know|I	0.1233467
-3.393926	know|PERSON	0.08868304
-3.958197	know|any	-0.0003964574
-3.958197	know|cyclist	-0.0004602257
-3.590221	know|he	0.09952518
-3.657167	know|it	0.1002868
-3.435319	know|she	0.000625845
-3.055107	know|t	0.08467673
-3.657167	know|that	0.0865756
-3.590221	know|they	0.08846172
-3.958197	know|this	0.08803395
-3.003955	know|we	0.08875247
-3.289191	know|who	0.0913156
-2.80185	know|you	0.09274392
-3.958197	lack|	0.002072699
-3.958197	land|	-0.0004442845
-3.958197	land|DURATION	0.09996631
-3.958197	land|I	0.01134613
-3.958197	lash|nothing	0.0001299893
-3.657167	last|it	0.01162059
-3.958197	last|which	-0.0004602257
-3.736349	laugh|	0.08578945
-3.958197	laugh|I	0.085733
-3.833259	laugh|they	0.0006701236
-3.833259	laugh|we	0.0853499
-3.833259	launch|	0.0856666
-3.833259	launch|we	0.08529159
-3.657167	lay|	0.01370215
-3.657167	lay|I	-0.0009120959
-3.833259	lay|we	0.00102873
-3.736349	lead|	0.0876238
-3.833259	lead|I	0.002818751
-3.481076	lead|that	0.09067174
-3.958197	lead|which	5.629438e-05
-3.590221	leak|	0.08460069
-3.958197	leak|mask	0.0009193217
-3.958197	leak|tent	0.0003597569
-3.736349	lean|you	0.0011893
-3.20487	learn|	0.09379983
-3.958197	learn|'d	-0.0004602257
-3.134289	learn|I	0.1032951
-3.958197	learn|LOCATION	-0.0002688926
-3.958197	learn|Sander	-0.0003167338
-3.958197	learn|TITLE	-0.0001891456
-3.736349	learn|she	0.08557529
-3.958197	learn|son	-0.0004602257
-3.259228	learn|we	0.1038977
-3.958197	learn|you	0.08540251
-2.356138	leave|	0.150335
-2.745123	leave|I	0.1127726
-3.958197	leave|ORDINAL	0.08561633
-3.590221	leave|PERSON	0.08905108
-3.958197	leave|group	0.00215291
-3.736349	leave|he	0.0849529
-3.958197	leave|i	0.09996631
-3.657167	leave|it	0.087246
-3.736349	leave|that	0.002149727
-3.481076	leave|they	0.08992935
-2.311467	leave|we	0.1278364
-3.958197	leave|what	-0.0004383734
-3.736349	leave|who	0.0002994369
-3.833259	leave|you	0.08845168
-3.958197	lend|k	4.032848e-05
-2.635978	let|	0.1111767
-3.180046	let|I	0.1023377
-3.958197	let|MONEY	-0.0004283427
-3.736349	let|PERSON	0.003510027
-3.958197	let|TIME	0.0007849492
-3.958197	let|friend	0.003012804
-3.590221	let|it	0.003905544
-3.958197	let|kid	-4.556385e-05
-3.833259	let|rain	0.001134224
-3.736349	let|she	0.0008530041
-3.958197	let|that	-0.000374577
-3.736349	let|they	0.08508897
-3.435319	let|we	0.08542991
-3.657167	lie|	0.0877547
-3.958197	lie|what	0.08672599
-3.958197	lie|which	-0.0004064765
-3.958197	lift|	-0.0004124003
-3.393926	lighten|	0.0873681
-3.736349	light|	0.08858991
-3.958197	light|CAUSE_OF_DEATH	0.001328837
-3.657167	like|	0.08911472
-2.763221	like|I	0.09284289
-3.481076	like|PERSON	0.003826092
-3.321375	like|he	0.0891209
-3.958197	like|it	0.001944395
-3.958197	like|other	-0.0004442845
-3.736349	like|she	0.01455316
-3.657167	like|they	-0.000256919
-3.958197	like|thing	-0.0004442845
-3.958197	like|wasp	0.00183216
-3.289191	like|we	0.08873372
-3.958197	like|who	0.08727212
-3.481076	like|you	0.006608909
-3.833259	limit|	-0.0005437935
-3.833259	limit|I	0.08550544
-3.833259	line|	0.001156864
-3.958197	linger|we	0.0001299893
-3.092896	listen|	0.08885149
-3.833259	listen|I	0.08521924
-3.833259	listen|we	0.08541369
-3.134289	live|	0.09503853
-3.833259	live|I	0.08547203
-3.958197	live|child	0.01145007
-3.958197	live|family	-0.0004602257
-3.833259	live|he	6.892777e-05
-3.590221	live|that	0.08524278
-3.833259	live|they	-0.0005218948
-3.657167	live|we	0.08591836
-3.736349	live|who	0.08612062
-3.736349	live|you	-0.0002280363
-3.113099	load|	0.1070882
-3.833259	load|I	0.08765609
-3.958197	load|all	-0.0004602257
-3.958197	load|mile	0.001056809
-3.259228	load|we	0.005848274
-3.958197	loan|grandparent	-0.0004602257
-3.958197	loan|they	7.226085e-05
-3.833259	locate|	0.08537479
-3.590221	lodge|	0.001658013
-3.958197	lodge|park	-0.0003007873
-3.958197	log|	0.0016879
-3.958197	london|	0.08727212
-2.331515	look|	0.1256006
-3.736349	look|Husband	-0.0008086356
-2.649989	look|I	0.116918
-3.833259	look|LOCATION	0.08534447
-3.481076	look|PERSON	0.1043309
-3.958197	look|all	-0.0002788647
-3.958197	look|he	0.003824634
-2.763221	look|it	0.1128951
-3.958197	look|lake	-0.0001033374
-3.958197	look|myself	-0.0004602257
-3.736349	look|she	0.0870828
-3.356138	look|that	0.08763144
-3.657167	look|they	0.08803553
-2.90384	look|we	0.1076928
-3.736349	look|what	0.08786506
-3.736349	look|which	0.0004338119
-3.393926	look|you	0.08607456
-3.958197	loooooove|	0.08559688
-3.958197	loop|we	-0.0004442845
-3.073591	lose|	0.1021103
-3.321375	lose|I	0.1003972
-3.958197	lose|PERSON	0.08768217
-3.958197	lose|food	-0.0004602257
-3.393926	lose|we	0.08888947
-3.958197	lose|who	0.08727212
-3.958197	lose|you	0.001536974
-3.532229	love|	0.002001989
-3.958197	love|All	-0.0004124003
-2.615775	love|I	0.1118797
-3.289191	love|PERSON	0.09302982
-3.958197	love|camper	0.0001778795
-3.958197	love|he	0.0003437798
-3.833259	love|i	0.001397218
-3.590221	love|kid	0.08601643
-3.833259	love|she	0.01131882
-3.736349	love|they	0.08625706
-3.20487	love|we	0.09359016
-3.833259	luck|we	0.01335699
-3.958197	lure|	0.001536974
-3.393926	manage|	0.08740671
-3.180046	manage|I	0.0917557
-3.833259	manage|PERSON	0.0856666
-3.833259	manage|he	0.01154846
-3.020345	manage|we	0.08879241
-3.736349	mark|DATE	0.08932851
-3.657167	marry|	0.08471671
-3.833259	marry|I	0.01138999
-3.958197	marry|hubby	-0.0001891456
-3.958197	mash|	0.0005611934
-3.958197	meander|we	0.0001778795
-3.590221	mean|	0.0882194
-3.231199	mean|I	0.0929999
-3.833259	mean|My	-0.0007351548
-3.289191	mean|that	0.09001043
-3.590221	mean|this	0.1025477
-3.393926	mean|which	0.0904885
-3.833259	mean|word	0.08525272
-3.958197	measure|you	-0.0004602257
-2.833259	meet|	0.09836841
-3.134289	meet|I	0.09218349
-3.833259	meet|PERSON	0.09979709
-3.958197	meet|he	0.003985717
-3.958197	meet|it	-0.0004383734
-3.958197	meet|they	0.00224918
-2.90384	meet|we	0.09335539
-3.958197	meet|who	-0.000348625
-3.958197	mellow|	0.002040619
-3.657167	melt|	0.08510037
-3.958197	melt|I	-0.0004602257
-3.958197	melt|ember	-0.0004702682
-3.481076	mention|	0.1032179
-3.134289	mention|I	0.1031054
-3.481076	mind|	0.1046773
-3.958197	mind|I	0.08727212
-3.958197	misspoke|I	-9.342982e-05
-3.259228	miss|	0.09174336
-3.113099	miss|I	0.1032176
-3.958197	miss|he	0.0007849492
-3.20487	miss|we	0.1106466
-3.958197	miss|which	0.0003854659
-3.958197	mix|camping	0.0004972841
-3.958197	mix|old	-0.0003645697
-3.958197	mob|	-0.0005818813
-3.958197	motor|we	0.00067942
-2.844254	move|	0.1096825
-3.590221	move|I	-0.001304608
-3.958197	move|it	0.002329423
-3.958197	move|that	0.08540251
-3.958197	move|they	0.000951319
-3.289191	move|we	0.08784474
-3.958197	mumble|	0.000545215
-3.435319	name|	0.08690272
-3.958197	name|he	0.08542194
-3.958197	name|you	0.08602482
-3.736349	nap|	0.01286998
-3.958197	nap|we	0.08877754
-3.833259	navigate|	0.003357049
-3.736349	near|it	0.08832839
-3.657167	near|we	0.0005594394
-3.958197	needn|we	-0.0003426752
-3.156565	need|	0.106955
-2.791866	need|I	0.1077134
-3.958197	need|NUMBER	0.08548025
-3.958197	need|PERSON	0.08551369
-3.958197	need|fish	0.08551369
-3.736349	need|he	0.08934814
-3.958197	need|i	0.09996631
-3.958197	need|it	0.08540251
-3.958197	need|t	0.08540251
-3.481076	need|they	0.08714341
-2.736349	need|we	0.1192136
-3.435319	need|you	0.09931202
-3.958197	negotiate|we	0.08551369
-3.958197	nestle|	0.0115756
-3.958197	nestle|tent	0.0006251117
-3.958197	never|I	-0.000348625
-3.958197	nod|I	0.001992506
-3.435319	note|	0.0884729
-3.657167	note|I	-0.001083475
-3.958197	note|sister	-0.0003964574
-3.833259	note|we	0.09979709
-3.590221	notice|	0.01185193
-3.259228	notice|I	0.09118684
-3.958197	notice|he	0.0004396503
-3.180046	notice|we	0.08902432
-3.958197	now.|	-0.0004602257
-3.958197	nurse|	0.08662853
-3.958197	obey|everyone	0.08542194
-3.736349	observe|	0.1036383
-3.958197	observe|they	0.0008329119
-3.833259	occur|it	0.001118212
-3.481076	offer|	0.1050036
-3.736349	offer|DATE	0.000293088
-3.833259	offer|I	0.0856666
-3.958197	offer|he	0.0004396506
-3.833259	offer|she	0.08814511
-3.958197	offer|they	0.08551369
-3.833259	offer|we	-0.0006495347
-3.657167	open|	0.1010854
-3.958197	open|I	0.08549969
-3.833259	open|it	0.08533047
-3.833259	open|road	0.003115607
-3.958197	open|she	-0.0005021606
-3.657167	open|sky	0.08605485
-3.958197	open|station	-0.0001412902
-3.231199	open|we	0.1020172
-3.958197	open|you	0.0007273898
-3.736349	operate|PERSON	-0.0001543254
-3.833259	opt|	0.000500576
-3.958197	opt|we	0.08664802
-3.958197	oranges|	0.001784067
-3.736349	order|	0.08581461
-3.657167	order|I	0.08897722
-3.833259	order|we	0.08527756
-3.958197	organise|	-8.73768e-05
-3.481076	organize|	0.004465443
-3.833259	organize|PERSON	0.001156864
-3.958197	outta|stuff	-0.0002848403
-3.958197	overchlorinate|	-0.0005818813
-3.958197	overflow|	0.085558
-3.435319	overlook|	0.1032861
-3.958197	own|	0.002377574
-3.833259	own|who	0.08553039
-3.958197	pace|	0.000417411
-2.609244	pack|	0.1041579
-3.958197	pack|Everything	-0.0003645697
-3.134289	pack|I	0.08669316
-3.958197	pack|all	0.08548025
-3.958197	pack|do	-0.0004442845
-3.958197	pack|horse	0.0001041956
-3.958197	pack|i	-0.0002310007
-3.958197	pack|they	0.000567511
-2.609244	pack|we	0.134037
-3.833259	pack|you	0.002722316
-3.321375	paddle|	0.08618797
-3.833259	paddle|I	0.08576391
-3.736349	paddle|we	0.0004658228
-3.833259	panic|	0.0001008869
-3.958197	pant|	-0.0004702682
-3.958197	pant|I	0.0006251117
-3.958197	pant|kid	-0.0004602257
-3.958197	parallel|I	-0.0004602257
-3.532229	park|	0.08719479
-3.833259	park|I	0.0135053
-3.356138	park|we	0.09235067
-3.958197	park|you	0.08623894
-3.958197	partake|kid	-0.0004442845
-3.958197	participate|	0.01237971
-3.958197	participate|we	-0.0004602257
-3.958197	part|everyone	0.0004493587
-3.958197	part|we	-0.0004702682
-3.003955	pass|	0.1051667
-3.958197	pass|DATE	0.08676497
-3.393926	pass|I	0.08423888
-3.833259	pass|PERSON	0.0866407
-3.958197	pass|all	-0.0002788647
-3.736349	pass|it	0.0003537947
-3.958197	pass|lot	0.08862089
-3.958197	pass|man	-1.365051e-05
-3.958197	pass|mile	0.002795119
-3.958197	pass|vehicle	0.0008329119
-3.003955	pass|we	0.09142806
-3.958197	pave|	8.3989e-06
-3.20487	pay|	0.1056892
-3.833259	pay|I	0.08605026
-3.435319	pay|we	0.1032046
-3.958197	pedal|I	0.0001778795
-3.958197	peddle|	0.0002798777
-3.958197	peel|	0.0004396506
-3.958197	peer|	-0.0003964574
-3.958197	peer|we	0.08571355
-3.393926	pee|	0.1023039
-3.958197	pee|child	-0.0004442845
-2.80185	pick|	0.1130339
-3.231199	pick|I	0.09443842
-3.321375	pick|PERSON	0.08651421
-3.958197	pick|she	0.0005355423
-3.958197	pick|skewer	0.0006890399
-3.958197	pick|they	-0.0004064764
-2.972921	pick|we	0.09646577
-3.657167	pick|wind	0.08548407
-3.958197	picture|	0.08551912
-3.958197	pile|site	-0.000221046
-3.393926	pile|we	0.08909138
-3.958197	pill|	0.0001840423
-3.736349	pine|	0.002512203
-3.958197	pine|half	-0.0004442845
-3.833259	piss|	0.08812553
-3.833259	piss|I	0.08712242
-3.393926	pitch|	0.002212076
-3.481076	pitch|we	0.09226625
-3.481076	place|	0.0843071
-3.833259	place|I	0.001662943
-3.958197	plague|Plus	-0.0004602257
-3.958197	planned|we	-0.0003964574
-3.958197	plant|	0.0009833184
-3.134289	plan|	0.1036177
-3.020345	plan|I	0.1057379
-3.736349	plan|PERSON	0.001523514
-3.958197	plan|home	0.0006730569
-3.958197	plan|trip	-0.0004442845
-3.003955	plan|we	0.09646473
-2.526834	play|	0.1239507
-3.532229	play|I	0.01123904
-3.481076	play|PERSON	0.1069082
-3.958197	play|he	-0.0005181059
-3.481076	play|kid	0.0915929
-3.481076	play|they	0.08662746
-2.867117	play|we	0.09712298
-3.958197	play|who	0.000647443
-3.958197	play|you	0.0001778795
-3.156565	please|	0.1063573
-3.958197	please|I	0.0016879
-3.657167	plug|I	-0.0007803363
-3.833259	plummet|	-0.0008409241
-3.958197	plunge|	0.08540251
-3.958197	plunge|I	0.08579135
-3.736349	point|	0.08943383
-3.833259	point|PERSON	0.08562768
-3.736349	point|she	0.08510301
-3.833259	poke|I	0.08564714
-3.958197	poke|we	-5.545397e-05
-3.958197	pool|	-0.0003007873
-3.736349	poop|you	-0.0005055411
-3.590221	pop|	0.001625877
-3.958197	pose|	0.001752009
-3.958197	pose|PERSON	0.08832733
-3.736349	possess|I	0.001253386
-3.289191	post|	0.1038282
-3.590221	post|I	0.1022513
-3.958197	post|it	0.08551369
-3.736349	post|we	0.1021721
-3.657167	pound|	0.08673789
-3.321375	pour|	0.09903409
-3.736349	pour|it	0.000994347
-3.958197	pour|we	0.08551912
-3.590221	practice|	0.0861394
-3.958197	practise|I	0.0003437799
-3.393926	pray|	0.08658368
-3.958197	pray|I	0.08551369
-3.590221	prefer|I	0.08549599
-3.092896	prepare|	0.1059606
-3.657167	prepare|I	0.08764376
-3.736349	prepare|PERSON	-0.0006710471
-3.736349	prepare|she	0.08602319
-3.736349	prepare|we	0.08888412
-3.958197	prep|	-9.342982e-05
-3.958197	press|	-2.35287e-05
-3.736349	press|we	0.08574484
-3.958197	pretend|	-0.0005181059
-3.958197	pretend|I	0.085733
-3.958197	pretend|PERSON	-0.0003586265
-3.958197	prevent|	0.08618054
-3.958197	proceed|	0.002008542
-3.356138	proceed|we	0.002681383
-3.736349	procure|I	0.002794293
-3.833259	promise|	0.08847795
-3.833259	promise|I	0.001044745
-3.958197	promise|it	0.001768039
-3.958197	prompt|	0.08551369
-3.958197	propose|Husband	-0.0004442845
-3.958197	prop|	0.01151002
-3.736349	protect|	0.08534729
-3.657167	prove|	-0.0003749998
-3.958197	prove|it	-0.0003267236
-3.958197	prove|which	0.01145007
-3.590221	provide|	0.08612584
-3.958197	provide|direction	-0.0004124003
-3.736349	provide|they	-0.0004736243
-3.958197	provoke|	-0.0004602257
-3.833259	publish|	0.08751296
-2.988161	pull|	0.1106738
-3.073591	pull|I	0.1085771
-3.958197	pull|boat	0.08549969
-3.958197	pull|d	0.08542194
-3.736349	pull|friend	-0.0006810427
-3.833259	pull|he	0.0001648125
-3.958197	pull|she	0.08606374
-3.958197	pull|that	0.002136866
-2.891251	pull|we	0.09867286
-3.958197	pump|	0.0002798777
-3.590221	purchase|	0.08749431
-3.20487	push|	0.08943024
-3.736349	push|I	0.0007219971
-3.958197	push|he	0.0004396506
-3.590221	push|we	0.001458264
-3.958197	push|wind	-1.365051e-05
-2.629139	put|	0.1171239
-3.958197	put|Daddy	-0.0004283427
-3.020345	put|I	0.08481375
-3.736349	put|PERSON	0.08615959
-3.532229	put|he	0.08878385
-3.958197	put|i	-0.0005818813
-3.958197	put|most	-0.0004283427
-3.958197	put|ranger	0.0004653332
-3.958197	put|spot	-0.0004602257
-3.736349	put|that	0.08954451
-2.916805	put|we	0.109032
-3.958197	put|who	0.002779053
-3.657167	put|you	0.09940113
-3.958197	question|	0.0008713313
-3.958197	quick-cook|it	0.0008329119
-3.958197	quiet|	-0.0004442845
-3.958197	quiet|baby	0.001328837
-3.958197	quit|	0.08717454
-3.833259	quit|it	0.08553039
-3.958197	race|	-0.0004862147
-3.958197	race|he	-9.342982e-05
-3.958197	race|we	-0.0004602257
-3.958197	rack|I	0.01187082
-3.736349	raft|	4.986289e-05
-3.958197	rain.|it	-0.0004602257
-2.90384	rain|	0.09075474
-2.687131	rain|it	0.1114812
-3.736349	rain|we	0.002239007
-3.958197	raise|AND	-0.0004602257
-3.736349	raise|I	0.001523515
-3.958197	ramble|I	0.08546081
-3.958197	rave|friend	0.0002319574
-3.958197	re-arrange|we	0.08544137
-3.958197	re-do|	0.0002736763
-3.958197	re-organize|	0.0004653332
-2.988161	reach|	0.1038539
-3.590221	reach|I	0.08940507
-3.833259	reach|he	0.0005005761
-3.958197	reach|temp	0.0004556312
-2.844254	reach|we	0.1062894
-3.833259	reach|you	0.01227097
-3.003955	read|	0.104151
-3.180046	read|I	0.08666807
-3.833259	read|PERSON	-0.0005538084
-3.958197	read|he	0.0856941
-3.958197	read|trip	-0.0004602257
-3.435319	read|we	0.08810645
-3.833259	read|who	0.08614761
-3.958197	read|you	0.08544137
-3.259228	realize|	0.09523746
-2.972921	realize|I	0.1084073
-3.833259	realize|PERSON	0.08572498
-3.958197	realize|he	0.0001041956
-3.958197	realize|t	0.0007273898
-3.020345	realize|we	0.1012723
-3.833259	receive|I	0.08589453
-3.833259	recieve|DATE	0.08671872
-3.958197	recognize|I	0.08586916
-3.736349	recommend|	0.08580892
-3.532229	recommend|I	0.1063043
-3.833259	recommend|he	0.002809977
-3.958197	recommend|they	0.0001201637
-3.958197	reconcile|Daddy	-0.0002050961
-3.958197	reconcile|I	-0.0004283427
-3.958197	record|I	0.08594698
-3.532229	recover|	0.1019686
-3.958197	recover|PERSON	-9.342982e-05
-3.833259	reel|	-0.0002725539
-3.481076	reflect|	0.0877842
-3.833259	refresh|	0.09979709
-3.958197	refuse|	0.001319453
-3.958197	refuse|I	-0.0005499948
-3.958197	regard|	0.00313266
-3.958197	register|	-5.545397e-05
-3.958197	relaxin|PERSON	-0.000348625
-2.988161	relax|	0.1173967
-3.958197	relax|PERSON	-0.0001352569
-3.321375	relax|we	0.08608278
-3.958197	release|	0.08551912
-3.958197	release|he	-0.0004602257
-3.958197	relieve|Daddy	0.003012804
-3.958197	relieve|we	0.00204062
-3.590221	remain|	0.0896806
-3.289191	remember|	0.09909613
-2.855535	remember|I	0.1092152
-3.958197	remember|t	0.0009513191
-3.958197	remember|then	-0.0004124003
-3.657167	remember|we	0.01110624
-3.958197	remember|you	-0.0005181059
-3.657167	remind|	0.08857772
-3.833259	remind|that	0.01216122
-3.833259	removee|I	0.08521924
-3.435319	remove|	0.08736024
-3.958197	remove|I	-0.0004124003
-3.958197	rename|	0.08551369
-3.657167	rent|	0.1026838
-3.736349	rent|she	-0.0009043057
-3.833259	rent|they	0.0864457
-3.590221	rent|we	0.0007524071
-3.958197	repair|co-pilot	-0.0001572426
-3.833259	replace|	0.08677725
-3.833259	replicate|	0.08586124
-3.833259	reply|she	0.09979709
-3.833259	report|	-0.0001608176
-3.958197	repusle|cross	0.0002736763
-3.736349	require|	-0.0002440104
-3.833259	require|LOCATION	0.09968784
-3.958197	require|this	0.08664802
-3.958197	rescue|myself	-0.0004602257
-3.958197	research|	0.0009193223
-3.958197	research|I	0.08542194
-3.958197	research|this	-0.0004124003
-3.833259	reserve|I	0.09979709
-3.958197	reserve|she	0.001072805
-3.958197	reserve|you	-0.0002629106
-3.833259	resist|	0.001733936
-3.134289	rest|	0.08491696
-3.958197	rest|I	0.0006154686
-3.833259	rest|we	0.08556931
-3.833259	result|	0.08525272
-3.958197	result|that	-0.0004283427
-3.958197	retire|	-0.0004702682
-3.958197	retire|burn	0.0006570751
-3.833259	retreat|we	0.000420609
-3.958197	retrieve|	0.08540251
-3.020345	return|	0.1085059
-3.356138	return|I	0.1023921
-3.833259	return|PERSON	0.08550544
-3.958197	return|he	0.09996631
-3.958197	return|jury	0.0002417419
-3.958197	return|myself	3.422413e-05
-3.958197	return|none	0.01145007
-3.958197	return|rain	0.002939748
-3.958197	return|she	0.001040812
-3.833259	return|they	0.08675174
-3.231199	return|we	0.1027833
-3.833259	reward|we	0.01259978
-2.727749	ride|	0.108414
-3.20487	ride|I	0.09075349
-3.958197	ride|PERSON	0.08602482
-3.958197	ride|different	0.01145007
-3.958197	ride|they	0.08540251
-3.113099	ride|we	0.1039891
-3.833259	ride|you	0.002408157
-3.958197	ring|phone	0.001479609
-3.736349	rip|	0.100033
-3.833259	rise|	0.08606973
-3.958197	rise|mountain	0.000695409
-3.657167	rise|sun	0.09089836
-3.833259	risk|	0.08636773
-3.958197	roadwalk|	0.001223388
-3.833259	roar|	0.08523329
-3.657167	roast|	0.08606848
-3.958197	rob|it	-0.0004442845
-3.958197	rob|nice-nurse	0.0002479303
-3.958197	rock|	0.002714791
-3.958197	rock|we	0.0002798777
-3.180046	roll|	0.08831678
-3.833259	roll|I	0.0001328484
-3.958197	roll|fog	0.0005675112
-3.958197	roll|it	0.08664802
-3.958197	roll|she	-5.545403e-05
-3.657167	roll|we	0.08513929
-3.657167	rough|	0.0009922513
-3.736349	round|	0.08755199
-3.833259	round|we	0.0008365999
-3.958197	rub|I	0.08551369
-3.958197	ruff|	-0.0004442845
-3.958197	ruin|	0.09996631
-3.958197	ruin|I	-0.0004124003
-3.958197	ruin|that	0.01145007
-3.958197	rumble|	0.08783849
-2.609244	run|	0.09863752
-3.231199	run|I	0.09365863
-3.833259	run|PERSON	0.08877185
-3.958197	run|bike	-0.0005818813
-3.958197	run|chipmunk	-0.0005340506
-3.958197	run|couple	0.00157573
-3.958197	run|dog	0.0005675112
-3.958197	run|everyone	0.0008713307
-3.657167	run|he	0.08634745
-3.958197	run|herd	0.08625841
-3.657167	run|it	0.08531446
-3.481076	run|kid	0.08811115
-3.958197	run|man	-0.0004602257
-3.736349	run|rain	0.08787811
-3.958197	run|tank	0.0003917125
-3.590221	run|that	0.08726583
-3.958197	run|they	0.08623894
-3.113099	run|we	0.09130734
-3.435319	rush|	0.08881457
-3.958197	rush|I	0.08540251
-3.833259	s'more|	0.08542766
-3.657167	sail|we	0.0008092365
-3.833259	satisfy|I	-0.0005597435
-3.435319	save|	0.08769391
-3.736349	save|I	-0.0006371983
-3.833259	save|he	-0.0002026312
-3.736349	save|we	0.0859063
-3.833259	scan|I	-0.0002087081
-3.481076	scare|	0.08752239
-3.736349	scare|I	0.1020709
-3.958197	scare|it	-0.0004543211
-3.958197	scare|who	-0.0004442845
-3.958197	scarf|I	0.08781894
-3.958197	scatter|	0.08540251
-3.833259	schedule|	0.0007245633
-3.958197	scop|brother	-0.0004602257
-3.958197	scop|sister	0.08540251
-3.958197	scout|	-0.0003326796
-3.590221	scramble|	0.08825181
-3.833259	scramble|we	0.0003982945
-3.180046	scream|	0.08770004
-3.736349	scream|I	0.08503065
-3.833259	scream|he	0.0002224959
-3.958197	scream|some	-0.0002050961
-3.657167	search|	0.08656821
-3.833259	search|I	7.871387e-05
-3.657167	search|we	0.0009922509
-3.958197	seat|	0.001431556
-3.532229	seem|	0.004237569
-3.958197	seem|I	-0.0003267236
-3.736349	seem|PERSON	0.003365038
-3.958197	seem|camp	-0.0004602257
-3.958197	seem|cloud	-0.0005499948
-3.958197	seem|diver	0.08618054
-3.657167	seem|drive	0.08636098
-3.833259	seem|he	0.002103023
-2.90384	seem|it	0.1022315
-3.833259	seem|she	0.08726528
-3.958197	seem|site	-0.0004602257
-3.958197	seem|some	0.001303441
-3.590221	seem|t	0.01091526
-3.590221	seem|that	0.08488388
-3.958197	seem|they	0.0860832
-3.833259	seem|we	0.08601132
-3.833259	seem|what	0.08534447
-3.736349	seem|which	0.002046265
-3.958197	sell|that	0.01305369
-3.958197	sell|who	-0.0004224252
-3.134289	send|	0.08540773
-3.736349	send|PERSON	0.08882526
-3.833259	send|he	0.08947092
-3.958197	send|mis-step	-0.0004602257
-3.958197	send|she	0.0003118276
-3.958197	send|that	0.003012804
-3.833259	send|they	0.00138119
-3.958197	send|work	0.002907604
-3.958197	separate|	0.000599482
-3.736349	serve|	0.08593152
-3.481076	settle|	0.09059273
-3.958197	settle|I	-0.0002150448
-3.833259	settle|PERSON	-5.888578e-05
-3.736349	settle|they	-0.0008665405
-3.321375	settle|we	0.1018854
-3.958197	settle|you	0.0007529773
-2.328109	set|	0.1367127
-3.259228	set|I	0.09499742
-3.958197	set|NUMBER	0.01145007
-3.833259	set|PERSON	-0.0006554312
-3.958197	set|all	0.01145007
-3.958197	set|camp	0.08542194
-3.958197	set|few	0.000114027
-3.958197	set|group	-6.151971e-05
-3.833259	set|it	0.08675773
-3.958197	set|panic	-0.0004602257
-3.958197	set|room	0.08546081
-3.958197	set|spot	0.0009448457
-3.958197	set|sun	7.226079e-05
-3.736349	set|tent	0.08604267
-3.356138	set|they	0.09050144
-2.511039	set|we	0.1074001
-3.958197	set|work	-0.0004602257
-3.958197	set|you	0.0004076911
-3.833259	shake|	0.08623131
-3.833259	shake|I	-7.485982e-05
-3.958197	shake|PERSON	-0.0003964574
-3.156565	share|	0.1094821
-3.590221	share|I	0.1011912
-3.958197	share|PERSON	0.002987968
-3.481076	share|we	0.08501359
-3.833259	shift|	0.001878323
-3.958197	shimmer|	0.08542194
-3.833259	shine|	0.08514149
-3.657167	shine|sun	0.09145891
-3.833259	shiver|	0.0859586
-3.958197	shock|I	0.08551369
-3.481076	shoot|	0.08719564
-3.958197	shoot|we	0.08602482
-3.736349	shower|	0.0004594042
-3.736349	shower|I	0.08506414
-3.958197	shower|everyone	0.0005611934
-3.958197	shower|t	0.002803959
-3.657167	shower|we	0.001418616
-3.958197	shower|you	-0.0004283427
-3.231199	show|	0.08948751
-3.590221	show|I	0.08757919
-3.481076	show|PERSON	0.08831458
-3.958197	show|friend	-0.0003805138
-3.481076	show|he	-0.0004728786
-3.833259	show|it	0.0005421826
-3.958197	show|mom	-0.0004602257
-3.736349	show|picture	-0.0007607926
-3.958197	show|she	5.629449e-05
-3.958197	show|they	0.001527667
-3.590221	show|we	0.1031842
-3.958197	show|which	0.0001680718
-3.958197	shrug|we	0.0001041956
-3.833259	shut|	0.08873265
-3.958197	shut|people	0.00172919
-3.833259	side|	-0.00074524
-3.833259	sift|	0.08792987
-3.657167	sign|	0.100569
-3.833259	sign|I	0.08560268
-3.958197	sign|PERSON	0.08551369
-3.958197	sign|they	0.08540251
-3.833259	sing|	0.001717896
-3.958197	sing|PERSON	-0.0004602257
-3.958197	sing|man	-0.0004602257
-3.958197	sing|we	0.001063327
-3.958197	sink|	0.0856941
-2.671891	sit|	0.1108464
-2.943957	sit|I	0.1128047
-3.958197	sit|PERSON	0.002088741
-3.833259	sit|it	0.08543313
-3.958197	sit|she	-0.0002788647
-3.958197	sit|some	0.08567466
-3.958197	sit|they	0.08631683
-2.844254	sit|we	0.09614822
-3.833259	size|	0.08578337
-3.156565	skip|	0.1018965
-3.958197	skip|I	0.0006954094
-3.958197	skip|PERSON	0.08540251
-3.958197	slam|I	0.0003757343
-3.958197	slant|it	0.0001778795
-2.119348	sleep|	0.1546668
-2.867117	sleep|I	0.1139963
-3.321375	sleep|PERSON	0.09675955
-3.958197	sleep|behold	-0.0004442845
-3.958197	sleep|cabin	0.0893851
-3.958197	sleep|compact	0.08571355
-3.958197	sleep|great	-0.0004602257
-3.736349	sleep|he	0.08690698
-3.833259	sleep|i	0.08518036
-3.736349	sleep|kid	0.08826963
-3.958197	sleep|lo	0.0004014383
-3.958197	sleep|place	-9.342982e-05
-3.590221	sleep|they	0.08760526
-2.988161	sleep|we	0.1122751
-3.833259	sleep|who	0.08894829
-3.736349	sleep|you	0.001349532
-3.958197	slice|I	0.003921277
-3.833259	slide|	0.001814146
-3.958197	slide|caravan	-0.0004602257
-3.833259	slip|	-0.0003782552
-3.958197	slither|	0.01198568
-3.958197	slog|	0.001223388
-3.833259	slow|	0.1006939
-3.833259	slow|I	0.08771474
-3.958197	slumber|	-0.0004602257
-3.958197	smash|	-0.0004442845
-3.958197	smell|	0.000999319
-3.657167	smell|I	0.08606848
-3.958197	smell|that	0.002666601
-3.657167	smell|we	0.0007611642
-3.833259	smile|	0.08671872
-3.958197	smile|we	-0.0003964574
-3.958197	smoke|	8.398783e-06
-3.833259	snap|	0.0002704341
-3.833259	snap|I	0.08671872
-3.958197	snap|line	-0.000348625
-3.958197	snatch|I	-0.0001033375
-3.833259	snore|	0.0006765566
-3.532229	snorkele|	0.08721437
-3.958197	snorkele|PERSON	0.08565521
-3.736349	snorkele|we	0.09967078
-3.532229	snorkel|	0.1002547
-3.833259	snorkle|we	0.08534447
-3.958197	snow|it	0.002104781
-3.736349	snuck|we	0.0001012832
-3.958197	snuff|	0.08559688
-3.958197	snuggle|	-0.0004124003
-3.435319	soak|	0.1013287
-3.958197	soak|I	0.001463591
-3.958197	soak|PERSON	0.08540251
-3.736349	soak|we	0.0876238
-3.958197	soar|they	0.08546081
-3.958197	sort|we	0.001511648
-3.435319	sound|	0.1010609
-3.481076	sound|it	0.08434063
-3.532229	sound|that	-0.0004669367
-3.958197	sound|they	-7.747498e-05
-3.958197	source|PERSON	0.002152909
-3.833259	space|	0.08564158
-3.958197	spare|	-0.0002310006
-3.289191	speak|	0.1025636
-3.958197	speed|	5.629455e-05
-2.745123	spend|	0.1199115
-3.321375	spend|DATE	0.08750211
-3.958197	spend|DURATION	0.0006794197
-2.943957	spend|I	0.09074646
-3.481076	spend|PERSON	0.08819548
-3.958197	spend|TIME	0.0009353198
-3.958197	spend|camping	0.0007913576
-3.736349	spend|he	0.08639354
-3.958197	spend|i	0.08549969
-3.958197	spend|pull	-0.000221046
-3.958197	spend|remainder	0.0009448457
-3.736349	spend|she	0.08561984
-2.58406	spend|we	0.1357306
-3.590221	splash|	0.08759223
-3.958197	split|	0.0006474431
-3.958197	split|i	-0.0004602257
-3.958197	split|josh	-0.0004602257
-3.958197	split|kid	-6.151971e-05
-3.958197	split|we	0.001671874
-3.958197	spook|eerieness	1.826533e-05
-3.833259	spot|	0.01123684
-3.481076	spot|I	0.09104725
-3.958197	spot|MISC	0.08542194
-3.289191	spot|we	0.08539873
-3.833259	spray|	-0.0006554312
-3.532229	spread|	0.08761917
-3.657167	sprinkle|	-0.0007164904
-3.958197	sprinkle|a	0.08793621
-3.958197	sprinkle|the	-0.0004442845
-3.958197	squeeze|	0.08561633
-3.833259	squirt|	-0.0005059374
-3.833259	stake|we	0.0001905403
-3.736349	stall|	-0.0006272114
-3.321375	stand|	0.08776467
-3.532229	stand|I	0.08699263
-3.958197	stand|NUMBER	0.08542194
-3.532229	stand|we	0.08647701
-3.657167	stand|you	0.09988402
-3.590221	stare|	0.08637966
-3.958197	stare|NUMBER	-0.0002688926
-3.833259	stare|we	0.0003086795
-3.958197	stargaze|	0.01177239
-2.511039	start|	0.1282523
-3.532229	start|CAUSE_OF_DEATH	0.08541071
-3.356138	start|DATE	0.08846986
-2.772561	start|I	0.1029691
-3.833259	start|MONEY	0.001646912
-3.958197	start|Our	0.08588861
-3.532229	start|PERSON	0.08658816
-3.958197	start|bit	0.08579135
-3.833259	start|cloud	0.0007821025
-3.958197	start|guy	-6.151971e-05
-3.657167	start|he	0.003872592
-3.958197	start|hike	0.0005355425
-3.833259	start|i	0.08534447
-2.80185	start|it	0.1063041
-3.590221	start|kid	0.0004865634
-3.958197	start|knee	0.001191371
-3.958197	start|moi	0.0001778795
-3.958197	start|noise	-0.0004602257
-3.657167	start|people	-0.0008920435
-3.532229	start|rain	0.08744287
-3.657167	start|she	0.01636913
-3.958197	start|sky	-0.0005340506
-3.958197	start|something	0.00101532
-3.833259	start|sun	0.08622552
-3.833259	start|that	0.003051247
-3.833259	start|then	0.01168519
-3.590221	start|they	0.0007751207
-3.736349	start|thing	0.08497234
-3.958197	start|tree	0.0008233455
-2.526834	start|we	0.1165565
-3.833259	start|you	0.0001328487
-3.958197	star|TIME	0.08551369
-3.736349	state|	0.08532783
-2.566087	stay|	0.1229639
-3.958197	stay|DATE	0.002746921
-3.958197	stay|Easy	-0.0001412902
-2.972921	stay|I	0.09395511
-3.657167	stay|NUMBER	0.005133116
-3.321375	stay|PERSON	0.08917867
-3.833259	stay|TIME	0.0007661036
-3.958197	stay|he	-0.0005499948
-3.833259	stay|i	-0.0006814388
-3.833259	stay|it	0.0004942145
-3.833259	stay|kid	0.08582231
-3.833259	stay|leg	0.08523329
-3.958197	stay|m	0.000114027
-3.958197	stay|quiet	-0.0004602257
-3.736349	stay|they	0.0849388
-2.702925	stay|we	0.1011755
-3.958197	stay|who	0.0003597569
-3.736349	stay|you	0.08606795
-3.833259	stealth|	-0.0005278429
-3.958197	stealth|I	-0.0003964574
-3.736349	steal|	0.08671171
-3.958197	steal|raiding	0.0008329119
-3.958197	step|	0.08546081
-3.958197	step|I	-0.000374577
-3.958197	step|we	-7.141568e-05
-3.958197	stew|stew	-0.0002529444
-3.289191	stick|	0.1005979
-3.532229	stick|I	0.08602899
-3.958197	stick|gill	-0.0002369955
-3.736349	stick|they	0.01131369
-3.393926	stick|we	0.1031987
-3.958197	stick|who	0.08768217
-3.532229	sting|	-0.001208114
-3.958197	sting|PERSON	-0.0003964574
-3.958197	stink|it	0.0006154686
-3.958197	stink|they	0.08588861
-3.736349	stir|	0.08654957
-3.833259	stock|	-6.502098e-05
-3.958197	stoke|	0.0004076911
-3.958197	stopped|we	-0.0002529444
-2.537692	stop|	0.1221777
-3.833259	stop|DURATION	0.002440289
-2.943957	stop|I	0.09379522
-3.958197	stop|ORGANIZATION	-0.0003426752
-3.958197	stop|TIME	0.001303441
-3.736349	stop|he	0.08604846
-3.532229	stop|it	0.09106971
-3.958197	stop|police	0.09996631
-3.532229	stop|rain	0.004835908
-3.958197	stop|she	-5.545403e-05
-3.958197	stop|that	0.08559688
-2.321375	stop|we	0.1301495
-3.958197	stop|wind	-0.0004602257
-3.958197	strangle|	0.001287429
-3.958197	strap|	0.08551369
-3.833259	strap|we	0.0008621052
-3.833259	stress|I	3.697071e-05
-3.958197	stress|it	-0.0003426752
-3.481076	stretch|	0.1026212
-3.958197	strike|I	0.08551369
-3.958197	strike|bolt	0.08664802
-3.958197	strike|we	-0.000390527
-3.958197	string|that	0.000114027
-3.958197	strip|	0.08544137
-3.833259	stroll|	0.003920932
-3.958197	stroll|another	-0.0004283427
-3.958197	stroll|leisurely	0.08542194
-3.736349	struggle|	0.08845269
-3.736349	struggle|I	0.08537518
-3.833259	struggle|we	0.002368905
-3.958197	study|	0.08544137
-3.958197	study|she	0.08803395
-3.958197	stuff/cleaned|camping	-0.0003645697
-3.657167	stuff|	0.08925226
-3.958197	stuff|I	0.08553856
-3.590221	stumble|I	0.08827824
-3.833259	stumble|PERSON	0.002256515
-3.833259	stumble|we	0.002722316
-3.833259	suffer|we	-3.30839e-05
-3.958197	suffice|i	-0.0004602257
-3.736349	suggest|I	0.01199795
-3.958197	suggest|PERSON	-0.0004702682
-3.958197	suggest|he	-0.0004283427
-3.958197	suit|	-0.0002150448
-3.958197	suit|Got	-0.0004862147
-3.958197	suit|we	0.08544137
-3.958197	sunbathe|	0.08551369
-3.833259	supply|	0.08742156
-3.958197	suppose|	-0.0002150447
-3.958197	suppose|DATE	0.0001201637
-3.321375	suppose|I	0.08828881
-3.833259	suppose|it	-0.0002505356
-3.958197	suppose|that	0.08548025
-3.532229	suppose|we	0.09980247
-3.958197	suppose|you	0.08548025
-3.958197	sure?|you	-0.0003964574
-3.958197	surface|	0.08548025
-3.833259	surface|we	0.08994944
-3.321375	surprise|I	0.09227464
-3.958197	surprise|t	-7.565366e-06
-3.833259	surprise|we	0.08765609
-3.958197	surround|	0.0009673187
-3.958197	surround|area	-0.0004283427
-3.958197	surround|oak	0.0002417419
-3.958197	surround|small	-0.0001891456
-3.958197	surround|we	0.08549969
-3.833259	survive|I	0.08619234
-3.958197	survive|he	0.0009513187
-3.657167	survive|we	0.0993006
-3.958197	swallow|I	2.436351e-05
-3.958197	swallow|MONEY	0.01132974
-3.958197	swamp|	-0.0004602257
-3.833259	swap|	0.0006701233
-3.958197	swarm|	0.0006634315
-3.833259	swear|	9.46871e-05
-3.736349	swear|I	-0.0008984411
-3.958197	sweep|CAUSE_OF_DEATH	0.08579135
-3.958197	sweep|that	0.001303441
-3.958197	swell|it	-0.0003964574
-3.958197	swerve|bicyclist	0.08579135
-2.972921	swim|	0.1046875
-3.435319	swim|I	0.08736651
-3.393926	swim|a	0.08888211
-3.958197	swim|he	0.08623894
-3.833259	swim|shark	0.01115487
-3.590221	swim|they	0.08497576
-3.356138	swim|we	0.1037023
-3.958197	switch|	-0.0005659383
-3.958197	t-bone|	-0.0004602257
-3.532229	tackle|	0.08663436
-3.958197	tackle|we	0.08727212
-3.958197	tail|	-0.0003426752
-2.943957	talk|	0.1119198
-3.481076	talk|I	0.001711529
-3.736349	talk|PERSON	0.08540016
-3.958197	talk|forcast	-4.556385e-05
-3.833259	talk|they	0.001711041
-3.020345	talk|we	0.09362045
-3.833259	tape|	0.0862508
-3.833259	taste|	0.08865426
-3.736349	taste|I	0.08606795
-3.958197	taste|egg	-0.0004602257
-3.958197	taste|it	-0.0005659383
-3.958197	taste|pancake	-0.0003964574
-3.958197	taste|we	-0.0004862147
-3.958197	teach|	0.001768039
-3.958197	teach|PERSON	-0.0004602257
-3.958197	teach|ll	0.08563577
-3.736349	tear|	0.08555583
-2.649989	tell|	0.1123818
-2.615775	tell|I	0.1214091
-3.958197	tell|MONEY	8.822797e-05
-3.833259	tell|NUMBER	0.002279653
-3.435319	tell|PERSON	0.08699413
-3.958197	tell|center	-0.0004602257
-3.958197	tell|guy	0.08540251
-3.393926	tell|he	0.0918778
-3.736349	tell|i	0.0865946
-3.958197	tell|ll	-0.0004283427
-3.833259	tell|people	0.001942512
-3.590221	tell|ranger	0.0002142135
-3.289191	tell|she	0.003209508
-3.833259	tell|t	-0.0005059373
-3.958197	tell|they	-0.000390527
-3.134289	tell|we	0.09487965
-3.833259	tell|who	0.0866212
-3.833259	tell|you	0.08675174
-3.958197	tempt|I	0.001816128
-3.833259	tend|I	0.08523329
-3.958197	tense|	0.0006794202
-3.958197	tent|	0.08657007
-3.958197	test-drive|	8.210412e-05
-3.657167	test|	0.08802221
-3.231199	thank|	0.1066357
-3.958197	thank|I	0.08557744
-3.259228	that|	0.1031626
-3.958197	there|	-0.0004543211
-3.958197	there|seaweed	-0.0003645697
-3.958197	they|	0.08540251
-2.80185	think|	0.10766
-3.958197	think|DATE	-0.0003964574
-2.092896	think|I	0.140234
-3.958197	think|NUMBER	0.00172919
-3.958197	think|Odd	-0.0004124003
-3.657167	think|PERSON	0.08617777
-3.958197	think|friend	0.001399523
-3.657167	think|he	0.08570398
-3.657167	think|i	0.08742203
-3.958197	think|it	0.0008329119
-3.958197	think|kid	-5.545391e-05
-3.958197	think|t	0.00183216
-3.657167	think|they	0.08636696
-2.891251	think|we	0.09887628
-3.435319	think|you	0.09008826
-3.958197	thought|he	-0.0001990884
-3.736349	threaten|	-0.0007329811
-3.958197	threaten|it	2.43634e-05
-3.833259	thrill|PERSON	0.08904634
-3.958197	thrill|kid	-0.0001033375
-3.073591	throw|	0.08928756
-3.532229	throw|I	0.08733188
-3.736349	throw|PERSON	0.08617909
-3.958197	throw|he	0.001495629
-3.958197	tie|	0.0007273896
-3.958197	tie|it	0.0004716119
-3.958197	tie|side	0.08803395
-3.958197	tie|we	0.08549969
-3.833259	tip|we	-0.0007351548
-3.958197	tire|	0.002698727
-3.590221	tire|I	0.09948492
-3.958197	tire|foot	-0.0004283427
-3.958197	tire|leg	-0.0002848403
-3.532229	tire|we	0.08622284
-3.958197	toast|	0.001559709
-3.958197	tolerate|PERSON	0.001752009
-3.958197	tolerate|you	0.001617055
-3.321375	top|	0.08739112
-3.657167	toss|	-0.0009659093
-3.833259	toss|I	0.001413246
-3.958197	total|Alyssa	0.00152096
-3.590221	touch|	0.003267884
-3.958197	touch|I	0.08557744
-3.958197	touch|we	0.08877754
-3.958197	touch|you	-0.0004224252
-3.736349	tour|	0.08678372
-3.958197	tour|we	0.002217087
-3.657167	tow|	-0.0005887708
-3.958197	tow|we	0.002178024
-3.958197	trade|I	0.08618054
-3.180046	trail|	0.0904718
-3.321375	trail|&	-0.000555312
-3.958197	trail|hike	-0.0004602257
-3.321375	trail|sidewalk	-0.001952117
-3.958197	trail|some	0.0003056132
-3.590221	trail|the	0.08920117
-3.958197	trail|time	-0.0002050961
-3.958197	trail|trail	0.08551369
-3.958197	train|	0.08620001
-3.958197	train|I	0.08542194
-3.113099	travel|	0.0913997
-3.958197	travel|I	0.01160839
-3.393926	travel|we	0.08765482
-3.958197	treat|	0.001383508
-3.958197	treat|I	0.004001829
-3.657167	treat|we	0.08526998
-3.657167	trek|	-0.0003590181
-3.833259	trickle|	0.08589453
-3.958197	trip|	0.08813173
-3.657167	trust|	0.08761769
-3.833259	trust|I	0.0008205932
-2.374621	try|	0.1196271
-3.958197	try|Dad	-0.0003964574
-2.812069	try|I	0.1044684
-3.590221	try|PERSON	0.08810782
-3.958197	try|he	0.0003757342
-3.958197	try|i	0.00414686
-3.590221	try|they	0.08458125
-2.916805	try|we	0.1133319
-3.657167	try|you	-0.001211049
-3.958197	tube|people	0.0005132607
-3.958197	tumble|you	-0.000221046
-3.958197	tuned|Stay	0.01145007
-2.745123	turn|	0.1141635
-3.736349	turn|DATE	0.0001971748
-3.259228	turn|I	0.08979059
-3.590221	turn|PERSON	0.0865164
-3.958197	turn|he	0.08548025
-2.867117	turn|it	0.1048425
-3.590221	turn|that	0.08672515
-3.833259	turn|they	-0.0001547213
-3.958197	turn|trailer	0.000114027
-3.657167	turn|trip	0.08791796
-2.916805	turn|we	0.08689347
-3.833259	turn|weather	0.08638137
-3.833259	turn|which	0.08654319
-3.833259	turn|you	0.08601702
-3.958197	twist|I	0.002730855
-3.657167	understand|	0.08609384
-3.736349	understand|I	0.09014163
-3.833259	understand|we	-0.0006873223
-3.833259	undo|	0.002793897
-3.958197	unleash|I	0.08688195
-3.736349	unload|	-0.0009303393
-3.657167	unpack|	0.0111282
-3.958197	unplug|I	-0.0001093839
-3.958197	unzip|	0.003012804
-3.481076	update|	0.1010433
-3.958197	update|I	0.01151002
-3.958197	upload|	0.08647265
-3.833259	upload|I	0.09979709
-3.958197	upload|photo	0.01145007
-2.642927	use|	0.1280208
-2.879016	use|I	0.09504869
-3.958197	use|PERSON	0.0003757343
-3.736349	use|he	-0.0007070025
-3.958197	use|people	-0.0004442845
-3.958197	use|she	-0.0002788647
-3.958197	use|that	0.08645318
-3.833259	use|they	0.08677725
-3.958197	use|this	0.09996631
-3.037379	use|we	0.1005546
-3.833259	use|who	0.0002926918
-3.736349	use|you	0.08647751
-3.958197	utilize|	-0.0004602257
-3.833259	vacuum|husband	0.08525272
-3.958197	venture|	-0.0002310006
-3.657167	venture|we	0.08846004
-3.958197	verb|	-0.0004442845
-3.833259	view|	0.08525272
-2.867117	visit|	0.1025178
-3.532229	visit|I	0.0856252
-3.958197	visit|creature	0.08551369
-3.958197	visit|that	0.00245784
-3.113099	visit|we	0.09538624
-3.833259	volunteer|	-0.0002984351
-3.736349	wade|	0.08610113
-3.958197	wade|I	0.08542194
-3.958197	wade|we	0.0008873274
-3.958197	wail|DURATION	-4.556385e-05
-2.711043	wait|	0.1149569
-3.003955	wait|I	0.1049752
-3.958197	wait|NUMBER	0.08807306
-3.958197	wait|PERSON	0.00359922
-3.958197	wait|customer	-0.0003267236
-3.958197	wait|dinner	-0.0002848403
-3.833259	wait|he	-0.0006335819
-3.958197	wait|kid	0.0858497
-3.958197	wait|she	-0.0004862147
-3.833259	wait|they	0.08888946
-3.20487	wait|we	0.09800569
-3.657167	wait|you	0.08486156
-3.958197	waken|	-0.000348625
-2.855535	wake|	0.09773489
-3.958197	wake|DATE	0.08727212
-2.879016	wake|I	0.1029088
-3.321375	wake|PERSON	0.09065413
-3.958197	wake|child	-0.0004283427
-3.833259	wake|he	-0.0006713771
-3.958197	wake|i	0.0875845
-3.958197	wake|moring	0.0008329119
-3.958197	wake|she	0.00295582
-3.958197	wake|they	0.0004396506
-2.711043	wake|we	0.1158163
-3.833259	wake|you	0.08523329
-2.571996	walk|	0.1222698
-3.073591	walk|I	0.09203736
-3.657167	walk|PERSON	0.01142913
-3.736349	walk|he	0.08790421
-3.833259	walk|i	-0.0005059372
-3.958197	walk|it	-0.0001192975
-3.833259	walk|people	0.08712242
-3.958197	walk|she	-0.0002948182
-3.833259	walk|they	0.08647881
-2.609244	walk|we	0.1142192
-3.590221	walk|you	0.004503598
-3.356138	wander|	0.1047165
-3.657167	wander|I	0.08701766
-3.958197	wander|cousin	-0.0004442845
-3.958197	wander|we	0.0865311
-3.092896	want|	0.09112661
-3.958197	want|Harry	0.0004972841
-2.435319	want|I	0.1292898
-3.958197	want|K	0.00114335
-3.156565	want|PERSON	0.1067639
-3.958197	want|boy	0.001040812
-3.958197	want|coffee	0.002306347
-3.958197	want|everyone	0.08964013
-3.113099	want|he	0.1056229
-3.958197	want|i	0.08542194
-3.481076	want|kid	0.005535854
-3.958197	want|people	0.08604428
-3.958197	want|rest	0.08544137
-3.435319	want|she	0.08743872
-3.134289	want|t	0.09269473
-3.958197	want|that	0.08544137
-3.180046	want|they	0.1131393
-2.629139	want|we	0.1233275
-3.590221	want|who	0.08806252
-3.958197	want|wife	0.00120738
-3.289191	want|you	0.1038818
-3.481076	warm|	0.1020604
-3.736349	warn|	0.08553637
-3.958197	warn|they	0.08551369
-3.20487	wash|	0.1091544
-3.590221	wash|I	0.0905005
-3.958197	wash|t	-0.0002688926
-3.833259	wash|we	0.08595292
-3.481076	wasn|	0.002662603
-3.435319	wasn|I	0.09165866
-3.958197	wasn|he	0.08542194
-3.259228	wasn|it	0.08628196
-3.958197	wasn|she	-9.342982e-05
-3.736349	wasn|that	0.000177808
-3.958197	wasn|we	-0.0004602257
-3.958197	wasn|weather	0.000519559
-3.833259	waste|	0.08531103
-2.560257	watch|	0.1240026
-3.259228	watch|I	0.09146748
-3.590221	watch|PERSON	0.101535
-3.958197	watch|josh	0.002306347
-3.958197	watch|tent	-0.0003964574
-3.958197	watch|they	2.436346e-05
-3.156565	watch|we	0.08701184
-3.736349	water|	-0.0005154794
-3.958197	wave|	0.08544137
-3.289191	wear|	0.08854869
-3.259228	wear|I	0.08974681
-3.958197	wear|PERSON	-0.0001352569
-3.958197	wear|i	0.0865311
-3.958197	wear|they	-0.0005499948
-3.958197	wear|trip	-0.0004602257
-3.958197	wedge|	0.001752009
-3.958197	week|some	-0.0004602257
-3.736349	welcome|	-0.0003177704
-3.958197	welcome|breathtaking	0.08787757
-3.958197	welcome|great	-0.000390527
-3.958197	welcome|who	0.0006154685
-3.532229	weren|we	0.094013
-3.958197	weren|which	-0.0003326796
-3.958197	were|thot	0.08565521
-3.073591	we|	0.09663562
-3.958197	we|PERSON	-0.0004283427
-3.958197	we|calorie	0.000545215
-3.958197	we|freeze	-0.0004602257
-3.958197	we|t	-5.545391e-05
-3.657167	we|that	-0.001115372
-3.958197	whine|I	-0.000221046
-3.958197	whine|we	0.002730856
-3.958197	whisper|	0.003180902
-3.958197	whistle|the	0.001479609
-3.958197	whittle|I	-0.0004602257
-3.532229	wind|	0.0902604
-3.958197	wind|we	0.08625841
-3.833259	win|	0.0004046174
-3.657167	win|I	0.1012349
-3.958197	win|PERSON	0.08540251
-3.958197	win|female	-0.0003645697
-3.736349	wipe|	0.08630194
-3.833259	wish|	0.08628396
-3.156565	wish|I	0.1090919
-3.833259	wish|you	0.0853499
-3.833259	witness|I	-0.0003303647
-3.958197	witness|we	0.001639824
-3.435319	wonder|	0.08750377
-3.156565	wonder|I	0.09071835
-3.958197	wonder|you	0.01338284
-3.958197	won|PERSON	0.0004236706
-3.958197	won|nature	-0.0003267235
-2.657167	work|	0.1140769
-3.435319	work|I	0.08945716
-3.590221	work|PERSON	0.08557393
-3.958197	work|body	0.0005611934
-3.590221	work|he	0.004285106
-3.156565	work|it	0.1012319
-3.958197	work|t	0.08551369
-3.833259	work|that	0.08572498
-3.590221	work|they	0.08528734
-3.736349	work|we	-0.0008127838
-3.590221	work|which	0.08919396
-3.833259	work|who	0.08523329
-3.113099	worry|	0.1082904
-3.435319	worry|I	0.004361946
-3.736349	worry|PERSON	0.08505009
-3.958197	worry|t	-7.141568e-05
-3.736349	worry|we	0.08551133
-3.657167	wouldn|I	0.08575096
-3.958197	wouldn|they	-0.0005181059
-3.833259	wouldn|we	0.001006147
-3.833259	wouldn|you	0.08802769
-3.958197	would|it	-0.0004283427
-3.958197	would|we	1.826533e-05
-3.657167	wrap|	0.002421989
-3.833259	wrap|that	0.01122044
-3.736349	wreck|	0.08573103
-3.958197	wreck|I	-0.0001253372
-3.958197	wrestle|I	0.001536974
-3.20487	write|	0.09033082
-3.393926	write|I	0.1043948
-3.958197	write|she	0.01145007
-3.590221	yell|	0.100464
-3.833259	yell|I	0.004049922
-3.958197	yell|PERSON	0.08548025
-3.958197	yell|some	0.0001619156
-3.958197	yell|we	0.08542194
-3.958197	yep|	0.08862089
-3.833259	yet?|we	-9.695563e-05
-3.958197	you|	0.0002479301
-3.958197	you|it	-0.0004283427
-3.833259	zip|	0.001038163
-3.958197	zip|we	-0.000221046
-3.958197	zoom|	-0.0002150449
-3.180046	|	0.1074739
-3.958197	|meaning	-0.0004442845
-3.958197	|photo	0.003132659
-3.958197	|who	0.08544137

\2-grams:
-2.932135	!!!|PERSON turn|it
-1.345722	<s> <unk>
-3.217879	<s> accomplish|
-3.217879	<s> amaze|I
-3.217879	<s> anticipate|I
-3.217879	<s> arrange|PERSON
-3.217879	<s> arrive|
-2.819939	<s> arrive|we
-3.041787	<s> ask|he
-3.217879	<s> ask|you
-3.217879	<s> backpack|
-3.217879	<s> become|I
-3.041787	<s> believe|I
-3.217879	<s> believe|you
-3.217879	<s> blogg|
-3.217879	<s> book|I
-3.041787	<s> book|we
-3.217879	<s> bore|
-3.217879	<s> break|
-3.041787	<s> bring|
-2.916849	<s> buy|I
-3.217879	<s> buy|we
-3.041787	<s> call|DATE
-2.314789	<s> camp|
-3.217879	<s> camp|I
-2.740757	<s> camp|we
-3.041787	<s> cancel|
-3.217879	<s> canoe|
-2.916849	<s> celebrate|
-3.217879	<s> change|thing
-3.217879	<s> check|
-3.217879	<s> check|I
-3.217879	<s> cheer|
-3.217879	<s> choose|we
-3.217879	<s> clear|we
-3.041787	<s> climb|
-3.217879	<s> close|office
-3.217879	<s> compare|
-3.217879	<s> complain|
-3.217879	<s> complete|
-3.217879	<s> confess|I
-3.217879	<s> continue|I
-3.217879	<s> convince|I
-3.217879	<s> cook|
-3.217879	<s> cook|we
-3.041787	<s> couldn|I
-3.217879	<s> crawl|
-2.916849	<s> cross|I
-3.217879	<s> cut|we
-3.217879	<s> deal|I
-3.217879	<s> decide|DATE
-2.564666	<s> decide|I
-2.67381	<s> decide|PERSON
-3.041787	<s> decide|we
-3.217879	<s> describe|
-3.217879	<s> didn|we
-3.041787	<s> didn|you
-3.041787	<s> discover|I
-3.041787	<s> dive|
-3.217879	<s> dive|I
-3.041787	<s> dive|NUMBER
-3.041787	<s> dive|we
-3.217879	<s> drag|
-2.564666	<s> drive|
-2.740757	<s> drive|I
-3.217879	<s> drive|PERSON
-2.819939	<s> drive|we
-2.916849	<s> eat|
-3.041787	<s> eat|I
-3.217879	<s> eat|hike
-3.217879	<s> eat|we
-3.217879	<s> end|it
-3.217879	<s> end|we
-3.217879	<s> enjoy|we
-3.217879	<s> enter|
-3.217879	<s> enter|we
-2.916849	<s> excite|I
-3.217879	<s> exercise|
-3.217879	<s> explain|
-3.217879	<s> explore|we
-3.041787	<s> face|
-3.041787	<s> feel|
-2.819939	<s> feel|I
-3.217879	<s> feel|i
-2.916849	<s> feel|it
-3.217879	<s> figure|
-3.217879	<s> figure|I
-2.916849	<s> find|
-3.217879	<s> find|DATE
-2.67381	<s> find|I
-2.916849	<s> find|we
-3.217879	<s> finish|
-3.041787	<s> finish|I
-3.217879	<s> fly|
-3.217879	<s> fly|DATE
-3.217879	<s> fly|we
-3.217879	<s> follow|
-3.217879	<s> follow|we
-3.217879	<s> forget|I
-3.217879	<s> forget|we
-3.217879	<s> gaze|we
-2.916849	<s> give|
-2.916849	<s> give|I
-3.217879	<s> give|we
-3.041787	<s> grab|
-3.041787	<s> grab|I
-3.217879	<s> greet|
-3.217879	<s> guess|
-3.217879	<s> guess|I
-3.217879	<s> hang|the
-3.217879	<s> head|
-3.217879	<s> head|I
-2.819939	<s> head|we
-3.217879	<s> hear|
-2.819939	<s> hear|I
-3.041787	<s> hear|PERSON
-2.916849	<s> help|
-3.217879	<s> help|they
-3.217879	<s> here|
-2.916849	<s> here|Well
-3.217879	<s> highlight|the
-2.615819	<s> hike|
-3.217879	<s> hike|DURATION
-2.916849	<s> hike|I
-3.041787	<s> hike|we
-3.217879	<s> hit|we
-3.217879	<s> hope|
-3.217879	<s> hope|I
-3.217879	<s> hope|we
-3.217879	<s> imagine|
-3.217879	<s> imagine|I
-3.217879	<s> include|
-3.217879	<s> intend|
-3.041787	<s> introduce|
-3.217879	<s> invite|I
-3.217879	<s> invite|PERSON
-2.740757	<s> it|
-3.217879	<s> join|
-3.041787	<s> join|rest
-3.041787	<s> join|we
-3.217879	<s> jump|we
-2.67381	<s> know|I
-3.041787	<s> know|t
-3.217879	<s> know|you
-3.217879	<s> learn|
-3.041787	<s> leave|
-2.67381	<s> leave|I
-3.041787	<s> leave|PERSON
-2.518909	<s> leave|we
-3.041787	<s> let|
-2.916849	<s> like|I
-3.041787	<s> live|
-3.217879	<s> load|
-2.916849	<s> look|
-3.217879	<s> look|I
-2.916849	<s> look|it
-3.217879	<s> look|which
-3.217879	<s> love|
-2.67381	<s> love|I
-3.041787	<s> marry|I
-3.041787	<s> marry|hubby
-3.217879	<s> mean|I
-3.217879	<s> meet|
-3.041787	<s> meet|I
-3.217879	<s> meet|PERSON
-3.041787	<s> melt|ember
-3.041787	<s> mention|I
-3.041787	<s> mind|
-3.217879	<s> move|
-3.041787	<s> mumble|
-3.217879	<s> need|
-3.041787	<s> need|I
-3.217879	<s> need|NUMBER
-3.217879	<s> need|i
-3.041787	<s> need|we
-3.217879	<s> offer|
-3.217879	<s> offer|I
-3.217879	<s> open|we
-3.217879	<s> organize|
-3.217879	<s> overflow|
-3.217879	<s> own|
-2.916849	<s> pack|
-3.041787	<s> pack|I
-2.916849	<s> pack|we
-3.041787	<s> pay|
-3.041787	<s> pick|
-3.217879	<s> pick|I
-2.819939	<s> pick|PERSON
-3.217879	<s> pick|we
-3.041787	<s> plan|I
-2.916849	<s> plan|PERSON
-3.041787	<s> plan|home
-2.916849	<s> play|
-3.217879	<s> play|we
-3.041787	<s> please|
-3.217879	<s> post|
-3.217879	<s> post|I
-3.041787	<s> post|we
-3.217879	<s> pour|it
-3.217879	<s> practice|
-3.217879	<s> prepare|
-3.041787	<s> prepare|I
-3.041787	<s> publish|
-3.217879	<s> pull|
-3.217879	<s> push|
-2.819939	<s> rain|it
-3.217879	<s> rain|we
-3.041787	<s> reach|we
-3.217879	<s> realize|we
-2.916849	<s> recover|
-3.041787	<s> relax|PERSON
-3.217879	<s> remember|I
-3.217879	<s> remind|
-3.217879	<s> rent|
-3.041787	<s> report|
-3.217879	<s> rest|
-3.217879	<s> return|
-2.819939	<s> return|I
-3.041787	<s> return|PERSON
-3.041787	<s> return|we
-3.041787	<s> run|
-3.041787	<s> scop|brother
-3.217879	<s> seem|diver
-3.041787	<s> seem|it
-3.217879	<s> seem|they
-3.041787	<s> seem|which
-2.740757	<s> set|
-3.217879	<s> set|I
-3.041787	<s> set|we
-2.740757	<s> share|
-3.217879	<s> shine|
-3.041787	<s> sign|
-3.217879	<s> sign|I
-3.217879	<s> sink|
-3.217879	<s> sit|
-3.217879	<s> sit|I
-2.740757	<s> sleep|
-3.041787	<s> sleep|I
-3.217879	<s> smile|
-3.041787	<s> snap|line
-3.041787	<s> snorkele|we
-3.217879	<s> space|
-3.041787	<s> speak|
-2.615819	<s> spend|
-3.217879	<s> spend|I
-2.819939	<s> spend|we
-2.740757	<s> start|
-3.041787	<s> start|DATE
-3.217879	<s> start|I
-3.217879	<s> start|Our
-3.217879	<s> start|PERSON
-3.041787	<s> start|it
-3.217879	<s> start|kid
-3.217879	<s> start|sky
-2.916849	<s> start|we
-3.217879	<s> stay|I
-3.217879	<s> stay|we
-3.041787	<s> stop|we
-3.041787	<s> stroll|another
-2.819939	<s> suppose|I
-3.217879	<s> surprise|I
-3.217879	<s> survive|I
-3.217879	<s> survive|we
-3.217879	<s> swap|
-2.916849	<s> swim|I
-3.217879	<s> swim|we
-3.217879	<s> talk|I
-3.217879	<s> tell|
-3.217879	<s> tell|I
-3.217879	<s> tell|we
-3.217879	<s> that|
-2.439727	<s> think|I
-3.217879	<s> think|we
-3.217879	<s> threaten|
-3.041787	<s> tire|foot
-3.041787	<s> tire|leg
-3.217879	<s> top|
-3.217879	<s> trail|
-3.217879	<s> trail|the
-3.217879	<s> train|
-3.041787	<s> try|
-3.217879	<s> try|I
-3.217879	<s> try|we
-3.041787	<s> turn|it
-3.217879	<s> turn|trip
-3.217879	<s> update|
-3.217879	<s> update|I
-3.217879	<s> upload|
-2.916849	<s> use|
-3.041787	<s> use|I
-3.217879	<s> use|PERSON
-3.041787	<s> visit|
-2.916849	<s> wait|I
-3.217879	<s> wake|I
-3.217879	<s> wake|PERSON
-3.217879	<s> wake|we
-3.041787	<s> walk|I
-3.217879	<s> walk|PERSON
-3.217879	<s> walk|i
-3.217879	<s> walk|we
-3.217879	<s> want|
-2.819939	<s> want|I
-3.217879	<s> want|PERSON
-3.217879	<s> want|we
-2.916849	<s> watch|
-3.217879	<s> watch|we
-2.916849	<s> we|
-2.916849	<s> work|
-3.217879	<s> work|we
-3.217879	<s> wrap|
-3.041787	<s> write|
-2.819939	<s> write|I
-3.217879	<s> yell|we
-3.041787	<s> |meaning
-1.671283	<unk> </s>
-0.7654706	<unk> <unk>
-3.571651	<unk> accomplish|
-3.173711	<unk> accord|
-3.571651	<unk> achieve|
-3.094529	<unk> add|
-3.395559	<unk> add|I
-3.571651	<unk> add|it
-3.395559	<unk> admire|
-3.571651	<unk> agree|I
-3.571651	<unk> agree|we
-2.918438	<unk> allow|
-3.571651	<unk> allow|campground
-3.571651	<unk> alternate|we
-3.571651	<unk> amaze|
-3.395559	<unk> amaze|I
-3.571651	<unk> amount|rain
-3.571651	<unk> anchor|we
-3.571651	<unk> answer|he
-3.571651	<unk> anticipate|
-3.571651	<unk> anticipate|I
-3.571651	<unk> anticipate|we
-3.395559	<unk> appear|it
-3.571651	<unk> appear|what
-3.395559	<unk> appear|which
-3.571651	<unk> appreciate|
-3.270621	<unk> appreciate|I
-3.395559	<unk> approach|we
-3.571651	<unk> arise|need
-3.571651	<unk> arrange|
-3.571651	<unk> arrange|we
-3.094529	<unk> arrive|
-3.395559	<unk> arrive|I
-3.571651	<unk> arrive|boat
-2.758737	<unk> arrive|we
-3.094529	<unk> ask|
-3.395559	<unk> ask|I
-3.571651	<unk> ask|he
-3.395559	<unk> ask|she
-3.571651	<unk> ask|we
-3.571651	<unk> assume|we
-3.571651	<unk> assure|I
-3.270621	<unk> attach|
-3.571651	<unk> attack|
-3.571651	<unk> attempt|I
-3.571651	<unk> attempt|we
-3.173711	<unk> avoid|
-3.395559	<unk> awake|I
-3.571651	<unk> awake|we
-3.571651	<unk> backpack|
-3.571651	<unk> backtrack|we
-3.571651	<unk> back|
-3.571651	<unk> back|I
-3.571651	<unk> bang|PERSON
-3.395559	<unk> bark|
-3.270621	<unk> base|
-3.571651	<unk> batter|
-3.395559	<unk> beam|
-3.571651	<unk> become|
-3.571651	<unk> become|I
-3.571651	<unk> become|rock
-3.571651	<unk> become|sky
-3.173711	<unk> begin|
-3.571651	<unk> begin|I
-3.571651	<unk> begin|cloud
-3.571651	<unk> begin|it
-3.571651	<unk> begin|we
-3.395559	<unk> believe|
-3.571651	<unk> believe|I
-3.571651	<unk> believe|t
-3.571651	<unk> bend|
-3.270621	<unk> bite|
-3.571651	<unk> bite|mosquito
-3.571651	<unk> bite|they
-3.571651	<unk> blaze|
-3.571651	<unk> blend|
-3.571651	<unk> bless|
-3.395559	<unk> blow|
-3.395559	<unk> blow|I
-3.395559	<unk> blow|wind
-3.270621	<unk> boil|
-3.571651	<unk> book|I
-3.571651	<unk> bore|
-3.395559	<unk> borrow|
-3.571651	<unk> bother|t
-3.173711	<unk> brave|
-3.094529	<unk> break|
-3.571651	<unk> break|I
-3.571651	<unk> break|we
-3.094529	<unk> breathe|
-3.571651	<unk> breathe|t
-2.969591	<unk> bring|
-2.969591	<unk> bring|I
-3.571651	<unk> bring|LOCATION
-3.571651	<unk> bring|PERSON
-3.571651	<unk> bring|he
-3.571651	<unk> bring|i
-3.571651	<unk> bring|that
-3.173711	<unk> bring|we
-3.094529	<unk> build|
-3.571651	<unk> build|they
-3.571651	<unk> build|we
-3.173711	<unk> burn|
-3.571651	<unk> burn|eye
-3.571651	<unk> burn|it
-3.571651	<unk> bury|
-3.027583	<unk> buy|
-3.027583	<unk> buy|I
-3.571651	<unk> buy|PERSON
-3.571651	<unk> buy|i
-2.969591	<unk> buy|we
-3.395559	<unk> buy|you
-3.571651	<unk> bypass|
-2.872681	<unk> call|
-3.571651	<unk> call|Close
-3.270621	<unk> call|I
-3.270621	<unk> call|PERSON
-3.395559	<unk> call|he
-3.571651	<unk> call|it
-3.571651	<unk> call|she
-3.173711	<unk> call|we
-3.571651	<unk> call|you
-3.571651	<unk> calm|I
-3.094529	<unk> camp|
-3.395559	<unk> camp|I
-3.094529	<unk> camp|we
-3.571651	<unk> cant|we
-3.571651	<unk> can|
-3.270621	<unk> can|I
-3.571651	<unk> capture|PERSON
-3.395559	<unk> care|I
-3.571651	<unk> care|we
-3.571651	<unk> care|you
-2.969591	<unk> carry|
-3.395559	<unk> carry|I
-3.395559	<unk> carry|PERSON
-3.395559	<unk> cast|
-3.571651	<unk> cast|she
-3.027583	<unk> catch|
-3.270621	<unk> catch|I
-3.571651	<unk> cause|switch
-3.571651	<unk> cause|that
-3.571651	<unk> celebrate|
-3.571651	<unk> certify|
-3.395559	<unk> change|
-3.571651	<unk> change|I
-3.571651	<unk> change|that
-3.571651	<unk> change|this
-3.395559	<unk> change|we
-3.571651	<unk> charge|
-3.571651	<unk> charge|they
-3.571651	<unk> charter|we
-3.571651	<unk> chat|
-3.571651	<unk> chat|we
-2.793499	<unk> check|
-3.270621	<unk> check|I
-3.571651	<unk> check|bullray
-2.918438	<unk> check|we
-3.571651	<unk> cheer|
-3.270621	<unk> chill|we
-3.571651	<unk> choose|
-3.571651	<unk> choose|I
-3.395559	<unk> choose|we
-3.571651	<unk> chop|
-3.571651	<unk> chuckle|
-3.395559	<unk> clamber|we
-3.571651	<unk> cleanse|
-2.969591	<unk> clean|
-3.571651	<unk> clean|we
-3.571651	<unk> clear|it
-3.571651	<unk> clear|we
-3.571651	<unk> click|
-2.969591	<unk> climb|
-3.270621	<unk> climb|I
-3.571651	<unk> climb|PERSON
-3.571651	<unk> climb|people
-3.571651	<unk> climb|we
-3.571651	<unk> close|
-3.395559	<unk> close|it
-3.571651	<unk> close|office
-3.571651	<unk> collapse|3/4ths
-3.571651	<unk> collapse|I
-3.571651	<unk> collect|
-3.571651	<unk> color|
-3.571651	<unk> commune|
-3.395559	<unk> compare|
-3.571651	<unk> complain|
-3.571651	<unk> complain|I
-3.571651	<unk> complain|we
-3.571651	<unk> complete|
-3.571651	<unk> complete|I
-3.571651	<unk> concern|
-3.270621	<unk> consider|
-3.395559	<unk> consider|I
-3.571651	<unk> consider|we
-3.571651	<unk> contain|it
-3.395559	<unk> contain|property
-3.571651	<unk> contend|
-3.270621	<unk> continue|
-2.969591	<unk> continue|I
-3.571651	<unk> continue|we
-3.571651	<unk> continue|wind
-3.571651	<unk> control|
-3.571651	<unk> convince|
-3.571651	<unk> convince|I
-2.831288	<unk> cook|
-3.094529	<unk> cook|we
-3.395559	<unk> cool|
-3.571651	<unk> cool|it
-3.571651	<unk> couldn|I
-3.571651	<unk> couldn|we
-3.270621	<unk> count|
-3.173711	<unk> cover|
-3.571651	<unk> cover|that
-3.173711	<unk> crash|
-3.571651	<unk> creak|
-3.395559	<unk> create|
-3.571651	<unk> creep|
-2.872681	<unk> cross|
-3.395559	<unk> cross|it
-3.094529	<unk> cross|we
-3.571651	<unk> cross|you
-3.395559	<unk> cry|I
-3.571651	<unk> cry|PERSON
-3.571651	<unk> cuddle|
-3.571651	<unk> curl|PERSON
-3.173711	<unk> cut|
-3.395559	<unk> cut|we
-3.571651	<unk> deal|
-3.571651	<unk> deal|I
-3.173711	<unk> decide|
-2.617408	<unk> decide|I
-3.173711	<unk> decide|PERSON
-3.571651	<unk> decide|i
-3.571651	<unk> decide|she
-2.571651	<unk> decide|we
-3.571651	<unk> deepen|
-3.571651	<unk> dehydrate|I
-3.395559	<unk> delay|we
-3.395559	<unk> depart|we
-3.571651	<unk> descend|
-3.395559	<unk> descend|we
-3.395559	<unk> describe|
-3.571651	<unk> desert|
-3.571651	<unk> deserve|
-3.571651	<unk> determine|we
-3.571651	<unk> develop|
-2.831288	<unk> didn|I
-3.395559	<unk> didn|PERSON
-3.571651	<unk> didn|he
-3.027583	<unk> didn|it
-3.395559	<unk> didn|they
-3.094529	<unk> didn|we
-3.571651	<unk> didn|you
-3.395559	<unk> die|
-3.571651	<unk> die|CAUSE_OF_DEATH
-3.395559	<unk> die|I
-3.395559	<unk> dig|
-3.571651	<unk> dig|I
-3.571651	<unk> dip|
-3.571651	<unk> direct|
-3.571651	<unk> discover|I
-3.270621	<unk> discover|we
-3.571651	<unk> discuss|
-3.571651	<unk> discuss|we
-3.395559	<unk> dive|
-3.571651	<unk> dive|TIME
-3.571651	<unk> dive|i
-3.173711	<unk> dive|we
-3.571651	<unk> do.|
-3.395559	<unk> doesn|it
-3.571651	<unk> doesn|who
-3.395559	<unk> don|
-3.027583	<unk> don|I
-3.571651	<unk> don|we
-3.571651	<unk> don|who
-3.395559	<unk> don|you
-3.571651	<unk> doze|
-3.571651	<unk> drag|I
-3.270621	<unk> dress|
-3.571651	<unk> dress|I
-3.027583	<unk> drink|
-3.395559	<unk> drink|we
-2.441317	<unk> drive|
-3.027583	<unk> drive|I
-3.571651	<unk> drive|PERSON
-3.395559	<unk> drive|he
-3.571651	<unk> drive|i
-2.425523	<unk> drive|we
-3.173711	<unk> drive|you
-3.094529	<unk> drop|
-3.395559	<unk> drop|I
-3.571651	<unk> drop|group
-3.571651	<unk> drop|temperature
-3.094529	<unk> drop|we
-3.027583	<unk> dry|
-3.571651	<unk> dry|I
-3.571651	<unk> dry|Soups
-2.758737	<unk> eat|
-3.173711	<unk> eat|I
-3.395559	<unk> eat|kid
-3.571651	<unk> eat|they
-2.831288	<unk> eat|we
-3.571651	<unk> edge|
-3.571651	<unk> edward|
-3.571651	<unk> encounter|we
-3.571651	<unk> endure|
-3.571651	<unk> endure|NUMBER
-3.270621	<unk> end|
-3.173711	<unk> end|I
-3.571651	<unk> end|he
-3.395559	<unk> end|it
-2.918438	<unk> end|we
-2.642232	<unk> enjoy|
-2.831288	<unk> enjoy|I
-3.395559	<unk> enjoy|PERSON
-3.571651	<unk> enjoy|he
-3.571651	<unk> enjoy|i
-3.571651	<unk> enjoy|kid
-2.918438	<unk> enjoy|we
-3.571651	<unk> ensure|
-3.395559	<unk> enter|
-3.571651	<unk> enter|I
-3.571651	<unk> enter|he
-3.173711	<unk> enter|we
-3.571651	<unk> erode|
-3.395559	<unk> excite|I
-3.571651	<unk> excite|we
-3.571651	<unk> exclude|
-3.571651	<unk> excuse|
-3.571651	<unk> exhaust|it
-3.270621	<unk> exhaust|we
-3.571651	<unk> expect|
-2.969591	<unk> expect|I
-3.173711	<unk> expect|we
-3.571651	<unk> expect|you
-3.571651	<unk> experience|
-3.395559	<unk> experience|I
-3.571651	<unk> experience|we
-3.571651	<unk> experience|who
-3.571651	<unk> explain|I
-3.173711	<unk> explore|
-3.571651	<unk> explore|I
-3.270621	<unk> explore|we
-3.571651	<unk> face|
-3.571651	<unk> face|we
-3.571651	<unk> fail|
-3.173711	<unk> fall|
-3.270621	<unk> fall|I
-3.571651	<unk> fall|it
-3.395559	<unk> fall|rain
-3.571651	<unk> fall|that
-3.395559	<unk> fall|the
-3.571651	<unk> fall|they
-3.571651	<unk> fear|I
-3.571651	<unk> feature|
-3.270621	<unk> feed|
-3.571651	<unk> feed|we
-2.918438	<unk> feel|
-2.550461	<unk> feel|I
-3.395559	<unk> feel|PERSON
-3.571651	<unk> feel|he
-2.918438	<unk> feel|it
-3.395559	<unk> feel|she
-3.571651	<unk> feel|that
-3.571651	<unk> feel|this
-3.027583	<unk> feel|we
-3.571651	<unk> fight|
-3.395559	<unk> figure|
-3.027583	<unk> figure|I
-3.571651	<unk> figure|PERSON
-3.571651	<unk> figure|i
-3.395559	<unk> figure|we
-2.872681	<unk> fill|
-3.395559	<unk> fill|it
-3.571651	<unk> film|part
-3.395559	<unk> filter|
-2.492469	<unk> find|
-2.571651	<unk> find|I
-3.571651	<unk> find|PERSON
-3.571651	<unk> find|i
-3.571651	<unk> find|suggestion
-3.173711	<unk> find|they
-2.441317	<unk> find|we
-3.571651	<unk> find|which
-3.395559	<unk> find|you
-3.270621	<unk> finish|
-3.270621	<unk> finish|I
-3.571651	<unk> finish|we
-3.571651	<unk> fire|
-3.571651	<unk> fire|I
-3.395559	<unk> fix|
-3.571651	<unk> fix|I
-3.395559	<unk> float|
-3.571651	<unk> float|I
-3.571651	<unk> flounder|
-3.571651	<unk> flow|that
-3.571651	<unk> flush|
-3.094529	<unk> fly|
-3.571651	<unk> fly|it
-3.270621	<unk> fly|we
-3.571651	<unk> focus|
-3.571651	<unk> fold|she
-2.726552	<unk> follow|
-3.571651	<unk> follow|I
-3.571651	<unk> follow|that
-3.571651	<unk> follow|trail
-3.094529	<unk> follow|we
-3.571651	<unk> force|I
-3.571651	<unk> forget|
-3.173711	<unk> forget|I
-3.395559	<unk> form|
-3.571651	<unk> freeze|
-3.571651	<unk> fry|country
-3.395559	<unk> fuck|
-3.571651	<unk> fuel|we
-3.571651	<unk> gather|
-3.395559	<unk> gather|we
-3.571651	<unk> gear|we
-3.270621	<unk> giggle|
-2.492469	<unk> give|
-3.395559	<unk> give|I
-3.571651	<unk> give|MONEY
-3.571651	<unk> give|doctor
-3.094529	<unk> give|he
-3.571651	<unk> give|it
-3.571651	<unk> give|lady
-3.571651	<unk> give|master
-3.395559	<unk> give|she
-3.571651	<unk> give|store
-3.094529	<unk> give|they
-3.571651	<unk> give|trip
-3.270621	<unk> give|we
-3.027583	<unk> give|which
-3.571651	<unk> glaze|
-3.571651	<unk> glisten|
-3.571651	<unk> gon|
-3.395559	<unk> gon|that
-3.395559	<unk> grab|I
-3.571651	<unk> grab|i
-3.395559	<unk> grab|we
-3.395559	<unk> grab|you
-3.270621	<unk> greet|
-3.395559	<unk> greet|we
-3.571651	<unk> grow|I
-3.395559	<unk> grow|it
-3.571651	<unk> grow|we
-3.571651	<unk> guess|
-3.173711	<unk> guess|I
-3.395559	<unk> guess|you
-3.571651	<unk> guide|
-3.395559	<unk> hadn|we
-3.571651	<unk> handle|
-3.395559	<unk> handle|we
-2.831288	<unk> hang|
-3.571651	<unk> hang|I
-3.395559	<unk> hang|that
-3.270621	<unk> hang|we
-3.571651	<unk> happen|
-3.571651	<unk> happen|DATE
-3.571651	<unk> happen|it
-3.395559	<unk> happen|nothing
-3.395559	<unk> happen|that
-3.571651	<unk> happen|thing
-3.395559	<unk> happen|this
-3.571651	<unk> happen|we
-3.571651	<unk> happen|what
-3.571651	<unk> hardly|I
-3.270621	<unk> hate|I
-3.571651	<unk> hate|PERSON
-3.571651	<unk> hate|we
-3.571651	<unk> haul|
-3.571651	<unk> haven|I
-2.571651	<unk> head|
-3.571651	<unk> head|&
-2.831288	<unk> head|I
-3.395559	<unk> head|kid
-2.410283	<unk> head|we
-2.872681	<unk> hear|
-2.969591	<unk> hear|I
-3.571651	<unk> hear|he
-3.571651	<unk> hear|she
-3.571651	<unk> hear|t
-3.094529	<unk> hear|we
-3.270621	<unk> hear|you
-3.395559	<unk> heat|
-3.571651	<unk> heed|
-3.094529	<unk> help|
-3.395559	<unk> help|I
-3.270621	<unk> help|it
-3.395559	<unk> help|we
-3.571651	<unk> help|which
-3.571651	<unk> here|ear
-3.571651	<unk> he|I
-3.571651	<unk> highlight|
-2.593927	<unk> hike|
-3.571651	<unk> hike|DATE
-3.571651	<unk> hike|DURATION
-3.173711	<unk> hike|I
-3.395559	<unk> hike|PERSON
-3.571651	<unk> hike|t
-2.831288	<unk> hike|we
-3.571651	<unk> hike|you
-2.969591	<unk> hit|
-3.395559	<unk> hit|I
-3.571651	<unk> hit|it
-3.571651	<unk> hit|that
-2.969591	<unk> hit|we
-3.173711	<unk> hold|
-3.571651	<unk> hold|I
-3.571651	<unk> hold|luck
-3.571651	<unk> hold|they
-3.395559	<unk> hoof|we
-3.270621	<unk> hope|
-3.173711	<unk> hope|I
-3.173711	<unk> hope|we
-3.571651	<unk> hop|
-3.395559	<unk> hurt|
-3.395559	<unk> hurt|it
-3.571651	<unk> identify|
-3.395559	<unk> ignore|
-3.270621	<unk> imagine|
-3.270621	<unk> imagine|I
-3.173711	<unk> imagine|you
-3.571651	<unk> impose|
-3.571651	<unk> improve|
-2.758737	<unk> include|
-3.571651	<unk> intend|
