
\data\
ngram 1=2274
ngram 2=13846

\1-grams:
-3.527565	!!!|	0.09880307
-3.652504	!!|	0.09475427
-1.561424	</s>
-99	<s>	0.1971846
-0.7038468	<unk>	-0.006713629
-3.953534	abandon|	0.0004619164
-3.953534	abandon|I	-0.0004280486
-3.953534	abate|	0.09511586
-3.953534	abound|	0.09529671
-3.953534	absolve|myself	-0.0005247375
-3.953534	accept|	0.003542607
-3.953534	access|	0.009324877
-3.953534	accompany|	0.003591425
-3.731685	accomplish|	0.102914
-3.389263	accord|	0.1083158
-3.953534	account|	9.761658e-06
-3.953534	ache|	0.09503549
-3.953534	achieve|	0.001302883
-3.953534	act|	0.004846306
-3.953534	addict|	0.09499532
-3.389263	add|	0.1141085
-3.953534	add|MONEY	0.01190495
-3.953534	add|half	-0.0002000072
-3.953534	add|mile	0.006628918
-3.731685	add|tarp	0.001277538
-3.828595	add|water	0.09523629
-3.828595	adjust|	0.09514605
-3.953534	admire|star	0.09884875
-3.351474	admit|	0.0211521
-3.585557	advise|	0.1216375
-3.828595	affect|	0.09962325
-3.050444	agree|	0.1207157
-3.953534	aim|	0.09503549
-3.226536	allow|	0.1113216
-3.731685	allow|I	0.09838856
-3.953534	allow|sleep	-0.0001539795
-3.652504	allow|we	0.09441254
-3.828595	alternate|	0.004671771
-3.953534	am.|	0.0005103894
-3.430655	amaze|	0.0128279
-3.731685	amaze|I	0.0997577
-3.953534	amount|	0.0008660238
-3.953534	anchor|	0.001707775
-3.731685	announce|	0.09512599
-3.828595	answer|	0.1008237
-3.953534	answer|phone	0.0001227564
-3.585557	anticipate|	0.001262858
-3.953534	appeal|	0.001821212
-3.226536	appear|	0.1092956
-3.828595	apply|	0.01165554
-3.953534	appoint|	0.09824123
-3.953534	appreciate|	0.004520014
-3.585557	approach|	0.003231935
-3.731685	aren|t	0.09469404
-3.828595	arise|	0.01114146
-3.731685	arrange|	0.1013467
-3.953534	arrange|trip	0.01137445
-2.290776	arrive|	0.1729056
-3.953534	arrive|NUMBER	0.002291481
-3.828595	arrive|home	0.0144598
-3.652504	ascend|	0.1021427
-2.631315	ask|	0.1740085
-3.351474	ask|I	0.1018952
-3.585557	ask|PERSON	0.105606
-3.953534	ask|daddy	0.0001041256
-3.953534	ask|favor	0.09650438
-3.953534	ask|he	0.0005103894
-3.953534	ask|kid	0.001740182
-3.953534	ask|name	0.003652448
-3.828595	ask|people	-0.0004876462
-3.953534	ask|question	-0.0006192415
-3.731685	ask|she	0.09445205
-3.953534	ask|we	0.09555808
-3.953534	assateague|	-0.0005086242
-3.953534	assese|space	-0.0005247375
-3.953534	associate|	0.1016135
-3.389263	assume|	0.1043283
-3.953534	assure|	0.01151594
-3.953534	assure|I	0.09620214
-3.953534	attach|	0.09512626
-3.953534	attack|	0.005336204
-3.731685	attack|we	0.1014079
-3.585557	attempt|	0.09627735
-3.731685	attempt|camping	-0.0007751796
-3.953534	average|	0.001383831
-3.953534	average|mpg	0.0001227562
-3.652504	avoid|	0.09456291
-3.953534	await|	-0.0006353579
-3.953534	await|arrival	2.345134e-05
-3.284527	awake|	0.1091237
-3.953534	award|	0.009506303
-3.652504	backpack|	0.008129008
-3.585557	backtrack|	0.09671269
-3.254564	back|	0.0944141
-3.953534	back|MONEY	-0.0005247375
-3.953534	back|all	0.00438516
-3.953534	balk|	-0.000218482
-3.731685	bang|	0.003767752
-3.953534	barbeque|	-0.0005247375
-3.828595	bark|	0.004660066
-3.585557	base|	0.09555017
-3.953534	bath|	0.09512626
-3.828595	beam|	0.09579987
-3.828595	bear|	0.1014354
-3.953534	bear|what	0.09525651
-3.953534	bear|you	-0.000538651
-3.731685	beat|	0.01124022
-3.953534	beat|stuff	-0.0005086242
-2.70638	become|	0.1476549
-3.953534	bed.|TIME	-0.0004763957
-2.631315	begin|	0.126878
-3.828595	begin|descent	0.09561864
-3.953534	begin|down.	-0.0001862319
-3.731685	beg|	0.008296851
-3.828595	behave|	0.01651121
-3.953534	behold|	0.09785691
-2.999292	believe|	0.1144678
-3.828595	believe|I	0.09994847
-3.828595	believe|it	0.0143186
-3.585557	belong|	0.1036687
-3.953534	bend|	0.0004780738
-3.828595	bend|rule	0.004818688
-3.953534	bet|	0.0004780737
-3.953534	bias|	0.0002655195
-3.953534	bike|	-0.0005247375
-3.828595	bind|	0.110049
-3.151902	bite|	0.1145767
-3.953534	blame|parenting	2.345134e-05
-3.953534	blast|	0.0005265483
-3.527565	blaze|	0.09782813
-3.953534	bleed|	0.09733155
-3.652504	blend|	0.0977003
-3.476413	bless|	0.1101481
-3.953534	bless|you	0.09499532
-3.828595	block|	0.0949354
-3.953534	blogg|	0.09512626
-3.953534	bloom|	0.09512626
-2.999292	blow|	0.1188977
-3.953534	blow|it	0.09824123
-3.953534	board|boat	0.001561971
-3.953534	bob|	0.0003326814
-3.828595	boil|	0.1005386
-3.953534	boil|water	0.09660517
-3.652504	bonk|	0.007019849
-3.953534	bookend|	0.09858538
-3.389263	book|	0.100145
-3.953534	book|it	0.09533691
-3.828595	book|room	0.09467345
-3.953534	book|site	0.0006531093
-3.731685	border|	0.007753355
-3.476413	bore|	0.11155
-3.828595	borrow|	0.09482455
-3.731685	bother|	0.1099167
-3.476413	bother|I	0.09716222
-3.527565	bounce|	0.09812103
-3.953534	bowl|	0.0003003786
-3.527565	brave|	0.1006983
-3.953534	breakfast.|	0.09646406
-3.953534	breakfast|MONEY	0.0007662216
-3.068928	break|	0.109221
-3.953534	break|bone	0.002596265
-3.316712	break|camp	0.1014926
-3.953534	break|free.	0.000281662
-3.953534	break|it	-0.0003451725
-3.731685	break|rule	0.09466352
-3.129626	breathe|	0.1301996
-3.953534	brew|	0.09541733
-3.828595	brew|tea	0.006771513
-2.817872	bring|	0.1525292
-3.731685	bring|I	-0.001093313
-3.953534	bring|blast	-0.0004925103
-3.828595	bring|bottle	-0.0006972672
-3.953534	bring|camera	0.00438516
-3.828595	bring|car	-0.0008423303
-3.953534	bring|cowrie	0.09499532
-3.953534	bring|friend	0.006596144
-3.953534	bring|in.	8.798967e-05
-3.953534	bring|it	0.09622229
-3.953534	bring|player	-0.0003796961
-3.828595	bring|rear	-0.0009691406
-3.953534	bring|set	-0.0005247375
-3.953534	bring|some	0.0002170949
-3.953534	bring|stereo	0.0006854241
-3.953534	bring|stuff	0.004972221
-3.953534	bring|veggy	-0.0005247375
-3.953534	bring|water	0.004112494
-3.430655	bring|we	0.09993432
-3.953534	bring|wheeler	-0.0005247375
-3.953534	bruise|	0.002096826
-3.731685	brush|tooth	0.1050564
-3.953534	buck|MONEY	0.09499532
-3.050444	build|	0.1159538
-3.284527	build|CAUSE_OF_DEATH	0.09970784
-3.953534	build|DATE	0.09499532
-3.953534	build|campfire	0.006481453
-3.953534	bump|	0.09512626
-3.828595	bundle|	0.004557536
-3.316712	burn|	0.1066146
-3.953534	burn|it	-0.0001378525
-3.828595	bury|	0.1000381
-3.953534	bushwack|way	-0.0005247375
-3.284527	buy|	0.1126537
-3.828595	buy|MONEY	0.1037061
-3.731685	buy|NUMBER	0.1009591
-3.953534	buy|backpack	0.1011244
-3.953534	buy|book	0.09539723
-3.731685	buy|bottle	0.09710208
-3.953534	buy|camera	0.09512626
-3.953534	buy|chicken	-0.0005064106
-3.828595	buy|couple	0.01238626
-3.953534	buy|donut	-0.0005247375
-3.953534	buy|food	0.1010225
-3.953534	buy|pair	0.00104395
-3.652504	buy|tent	0.1043594
-3.953534	buy|ticket	0.09525651
-3.953534	buy|trucker	0.0001202622
-3.828595	buzz|	0.09586029
-2.731685	call|	0.1265835
-3.430655	call|I	0.1074742
-3.527565	call|LOCATION	0.1132521
-3.953534	call|MISC	0.09793779
-3.953534	call|Mushrooms	0.0007500608
-3.953534	call|NUMBER	0.09592025
-3.527565	call|PERSON	0.1023212
-3.953534	call|hat	-0.0005247375
-3.731685	call|he	0.09877403
-3.731685	call|hotel	0.00842871
-3.284527	call|it	0.1219046
-3.828595	call|they	0.0002090565
-3.953534	call|trip	0.09513594
-3.828595	call|we	0.1016395
-3.953534	call|what	-0.000248401
-3.953534	call|word	-0.0005247375
-3.652504	calm|	0.1001898
-3.953534	calm|fear	-0.0005247375
-3.953534	came|	-0.0005247375
-3.953534	campground|	-0.0004257991
-2.337234	camp|	0.1758718
-3.652504	camp|DATE	0.01071782
-3.953534	camp|better	2.590194e-05
-3.953534	camp|camper	-0.0003958141
-3.953534	camp|gear	0.001141032
-3.953534	camp|time	0.01151594
-3.731685	camp|trip	0.1095462
-3.953534	cancel|	-0.0001516079
-3.953534	cancel|reservation	-0.0003152177
-3.953534	cancel|trip	-0.0005086242
-3.731685	canoe|	0.007950909
-3.389263	can|MONEY	0.09501087
-3.652504	can|wait	0.01080972
-3.953534	capture|heart	0.01151594
-3.226536	care|	0.109278
-3.226536	carry|	0.09738553
-3.953534	carry|I	0.0008821966
-3.953534	carry|PERSON	0.0003462388
-3.953534	carry|dog	0.003591425
-3.828595	carry|everything	0.0007398595
-3.953534	carry|grudge	-0.0005247375
-3.527565	carry|it	0.1049672
-3.953534	carry|tent	-0.0004441649
-3.828595	carry|toy	0.09492499
-3.953534	carry|water	0.09521632
-3.953534	carry|what	0.09541733
-3.953534	carry|you	-0.0004763957
-3.953534	cast|	0.003526336
-2.912142	catch|	0.1303552
-3.731685	catch|NUMBER	0.003193523
-3.953534	catch|anything	0.001238135
-3.953534	catch|bus	0.09600078
-3.284527	catch|fish	0.1011863
-3.953534	catch|fishing	0.0002170949
-3.953534	catch|frog	-0.0005247375
-3.953534	catch|it	-0.0004763957
-3.953534	catch|many	-0.0005247375
-3.953534	catch|train	0.01380013
-3.953534	catch|view	0.09606118
-3.953534	catch|ya	-0.0005086242
-3.351474	cause|	0.09857853
-3.953534	cause|plan	0.002080609
-3.953534	cause|trouble	-0.0004441649
-3.828595	cease|	0.004545785
-3.731685	celebrate|	0.1019724
-3.652504	certify|	0.1101219
-2.899177	change|	0.1253635
-3.953534	change|clothes	-0.0003290455
-3.953534	change|plan	0.002794748
-3.953534	change|spot	0.0002170949
-3.953534	change|thing	0.002518691
-3.953534	change|trip	0.09598064
-3.953534	charge|	0.1011244
-3.828595	charter|PERSON	0.09729285
-3.953534	char|	-0.0005225311
-3.828595	chase|	0.004611084
-3.953534	chase|PERSON	0.09545754
-3.953534	chase|bravado	0.0002357801
-3.200207	chat|	0.1127044
-2.740459	check|	0.154292
-3.953534	check|LOCATION	0.1002086
-3.953534	check|PERSON	0.1010225
-3.953534	check|bag	0.0009954181
-3.953534	check|forest	0.09501541
-3.953534	check|gage	0.00438516
-3.953534	check|geyser	-0.0004763957
-3.585557	check|it	0.001847767
-3.953534	check|kid	0.004601564
-3.953534	check|lht	-0.0005247375
-3.953534	check|picture	0.01151594
-3.953534	check|place	0.000655841
-3.953534	check|time	0.09503549
-3.953534	check|we	0.09507567
-3.953534	check|wood	0.09787713
-3.828595	cherish|	0.001714693
-3.731685	chew|	0.007231676
-3.953534	chillin|MONEY	-0.0001539795
-3.389263	chill|	0.1293311
-3.226536	choose|	0.1342122
-3.953534	circle|	0.09512626
-3.953534	clamber|	0.09897035
-3.953534	clap|	-0.0005086242
-3.108436	clean|	0.1084944
-3.953534	clean|house/do	0.001348407
-3.731685	clean|it	0.09616359
-3.175383	clear|	0.1110563
-3.828595	clear|it	0.09515584
-3.731685	click|	0.109567
-3.953534	click|picture	-0.0005247375
-2.740459	climb|	0.1384092
-3.731685	climb|it	0.1004212
-3.828595	climb|mountain	0.1037472
-3.828595	climb|rock	-0.0005360292
-3.953534	climb|tower	0.09515604
-3.828595	climb|tree	0.006175936
-3.731685	cling|	0.09463296
-2.850872	close|	0.1305601
-3.953534	close|it	0.09513594
-3.828595	cloud|	-0.0007617457
-3.953534	coat|	0.09499532
-3.652504	collapse|	0.09912319
-3.953534	collapse|tent	0.0009763652
-3.953534	collect|	0.1016135
-3.828595	color|	0.09500536
-3.953534	commence|	0.09499532
-3.828595	comment|	0.007192558
-3.828595	commune|	0.004562108
-3.731685	communicate|	0.001050778
-3.351474	compare|	0.1197678
-3.953534	compel|I	0.09512626
-3.953534	compensate|	0.005973899
-3.254564	complain|	0.09938478
-3.585557	complete|	0.09769417
-3.953534	complete|course	0.09499532
-3.953534	complete|dive	0.09505558
-3.953534	complete|hike	-0.0002806606
-3.953534	complete|journey	-0.0001193389
-3.953534	compliment|	0.0005750287
-3.731685	comprise|	-0.0002750168
-3.731685	concentrate|	0.007868586
-3.828595	concern|	0.09883153
-3.828595	confess|	0.09467345
-3.828595	confirm|	0.09736288
-3.731685	confuse|	0.005995773
-3.652504	connect|	0.09622478
-3.953534	connect|MONEY	0.0002655195
-3.953534	connect|lifestyle	-0.0004763957
-3.151902	consider|	0.132077
-3.953534	consider|ourselves	-0.0004441649
-3.430655	consist|	0.1098879
-3.953534	construct|	0.0002519291
-3.953534	consult|GPS	0.001092488
-3.585557	consume|	-0.001571361
-3.652504	contain|	0.11714
-3.953534	contemplate|	0.00136459
-3.953534	contemplate|horror	0.001464795
-3.953534	contend|	0.09529671
-2.682467	continue|	0.1387053
-3.953534	continue|haul	0.003575152
-3.953534	contribute|	0.09499532
-3.953534	control|	0.09512626
-3.652504	convince|	0.09958734
-3.731685	convince|PERSON	0.1057717
-2.939294	cook|	0.1280887
-3.585557	cook|breakfast	0.01323899
-3.953534	cook|can	0.09640361
-3.430655	cook|dinner	0.09796946
-3.585557	cook|meal	0.1177972
-3.953534	cook|sun	0.001526453
-3.828595	cook|they	0.09480446
-3.953534	cook|we	0.0006235144
-3.430655	cool|	0.1025702
-3.585557	cooperate|	0.09933941
-3.953534	cope|course	0.002563807
-3.828595	cost|MONEY	0.005325115
-3.953534	cost|we	-0.0004925103
-3.050444	couldn|MONEY	0.1219522
-3.953534	couldn|drive	0.09602091
-3.731685	couldn|t	0.001264513
-3.953534	couldn|use	-0.0004119317
-3.953534	counter|	-0.0004763957
-3.476413	count|	0.1004593
-2.925505	cover|	0.1313452
-3.953534	cover|all	-0.0005247375
-3.953534	cover|hand	0.00438516
-3.953534	cover|mile	0.0001227564
-3.953534	cover|myself	0.01642377
-3.953534	cozy|	-0.0004119317
-3.953534	co|	0.001254322
-3.953534	crackle|	0.09501541
-3.953534	cram|	0.004287393
-3.953534	crap|	0.005287189
-3.316712	crash|	0.1341831
-3.953534	crash|wave	0.002534924
-3.226536	crawl|	0.09995643
-3.828595	creak|	0.001112026
-3.652504	create|	0.1026138
-3.953534	create|couple	0.0006531093
-3.731685	creep|	0.09447215
-2.999292	cross|	0.1386796
-3.652504	cross|LOCATION	0.1003811
-3.953534	cross|border	0.004732076
-3.828595	cross|bridge	0.09767701
-3.828595	cross|creek	0.006503618
-3.953534	cross|everything	0.09517613
-3.953534	cross|face	-0.0005247375
-3.953534	cross|highway	0.09512626
-3.476413	cross|river	0.09833977
-3.828595	cross|water	0.09586029
-3.585557	crowd|	0.1026557
-3.585557	cruise|	0.004620528
-3.953534	crush|	0.001060129
-3.254564	cry|	0.1155929
-3.828595	cry|little	0.001516917
-3.828595	cuddle|	0.016377
-3.828595	curl|	0.09475381
-3.953534	curse|	0.004776445
-3.200207	cut|	0.1071174
-3.953534	cut|meat	0.001526453
-3.953534	cut|veggy	0.004972221
-3.731685	dance|	0.09798317
-3.953534	dare|	0.09512626
-3.953534	dawn|	0.0003326812
-3.226536	deal|	0.1155512
-3.953534	deal|m	-0.0003796961
-1.912142	decide|	0.2095611
-3.953534	decide|campsite	0.09512626
-3.652504	declare|	0.006921228
-3.953534	deepen|	0.09602091
-3.652504	dehydrate|	0.002896924
-3.953534	dehydrate|it	-0.0005247375
-3.828595	delay|	-0.000888544
-3.953534	deliver|litter	-0.0005247375
-3.652504	depart|	0.101516
-3.828595	depend|	0.09552815
-3.953534	depress|	0.001642967
-3.284527	descend|	0.1150813
-3.476413	describe|	0.0005637044
-3.731685	describe|it	0.008620071
-3.953534	describe|part	-0.0004441649
-3.828595	desert|	0.004480494
-3.953534	deserve|	-0.0001838748
-3.953534	deserve|break	0.09622229
-3.652504	designate|	0.09422117
-3.953534	design|	0.01147387
-3.731685	desire|	0.09450277
-3.953534	destroy|	0.09512626
-3.151902	determine|	0.09820601
-3.828595	did.|	0.09558851
-3.953534	didnt|	-0.0006192415
-3.527565	didn|	0.103972
-2.448384	didn|MONEY	0.1765144
-3.953534	didn|anything	0.001429328
-3.953534	didn|care	0.00068817
-3.953534	didn|grab	-0.0005247375
-3.828595	didn|look	0.09487438
-3.953534	didn|show	0.1010021
-3.828595	didn|sleep	0.09656589
-3.652504	didn|t	0.1033318
-3.828595	didn|take	0.09805037
-3.953534	didn|think	0.01151594
-3.953534	didn|wake	0.09512626
-3.828595	didn|whatever	0.004296542
-3.953534	didn|work	0.004748392
-3.129626	die|	0.1182968
-3.953534	die|PERSON	0.001510264
-3.953534	digress|	0.0002680782
-3.430655	dig|	0.02509503
-3.953534	dig|latrine	-0.0004925103
-3.953534	dig|pit	-0.0005247375
-3.828595	dine|	0.005199227
-3.731685	dip|	0.003165006
-3.953534	direct|I	0.001886046
-3.953534	direct|she	0.005712167
-3.953534	disapoint|	-0.0004925103
-3.430655	disappear|	0.004839815
-3.527565	disappoint|	0.1070296
-3.050444	discover|	0.09425788
-3.953534	discover|badmitton	-0.0005247375
-3.953534	discover|practiced	0.0002655195
-3.953534	discuss|plan	0.09533691
-3.828595	distract|	0.09721202
-3.953534	disturb|something	0.0002655195
-3.953534	disway|	0.0004592712
-2.817872	dive|	0.1408864
-3.731685	do.|	0.0978596
-3.828595	dock|	-0.0004692008
-3.953534	document|	-0.0001838748
-3.953534	dodge|	-0.0004763957
-3.430655	doesn|MONEY	0.0964357
-3.953534	doesn|work	-5.479337e-05
-3.731685	dominate|	-0.001049218
-3.953534	dont|	0.003510065
-3.652504	don|	0.09520691
-2.807406	don|MONEY	0.1343599
-3.953534	don|definition	-0.0004925103
-3.527565	don|t	0.09588479
-3.828595	don|think	0.1014227
-3.585557	dot|	0.09786534
-3.953534	douse|ourselves	0.0003811401
-3.652504	down|	-0.0009152038
-3.953534	doze|	0.001869837
-3.828595	drag|	0.09690902
-3.953534	drag|tent	-0.0003474579
-3.953534	drain|	0.004650501
-3.953534	drain|lot	0.004813665
-3.527565	draw|	0.09918126
-3.953534	dread|work	-0.0005247375
-3.652504	dream|	0.09777222
-3.953534	dream|DURATION	-0.000361299
-3.828595	drench|	0.0004326577
-3.953534	drench|grounds	-5.7208e-05
-3.151902	dress|	0.1339412
-3.527565	drift|	0.1002649
-3.953534	drinkin|smithwick	0.001558834
-3.284527	drink|	0.1024332
-3.953534	drink|Light	0.0006207969
-3.652504	drink|beer	0.001203507
-3.828595	drink|wine	-8.424412e-05
-3.527565	drip|	0.1156563
-1.953534	drive|	0.2352811
-3.731685	drive|DURATION	0.09609275
-3.953534	drive|Hwy	0.1011244
-3.953534	drive|NUMBER	0.09717002
-3.953534	drive|Shore	-0.0005086242
-3.953534	drive|butte	-0.0004741678
-3.953534	drive|car	0.00136459
-3.953534	drive|drive	0.09499532
-3.953534	drive|excavator	-0.0005247375
-3.953534	drive|grab	0.09547765
-3.953534	drive|half	0.000155046
-3.527565	drive|home	0.1096821
-3.953534	drive|hundred	0.09499532
-3.953534	drive|interest	-0.0002668526
-3.953534	drive|it	0.1002899
-3.476413	drive|mile	0.1073114
-3.953534	drive|mountain	0.001659168
-3.953534	drive|north	0.09501541
-3.828595	drive|road	0.00442702
-3.953534	drive|route	0.003623973
-3.953534	drive|solo	-0.0001539795
-3.953534	drive|south	0.09512626
-3.953534	drive|total	0.004960565
-3.652504	drive|way	0.1069859
-3.731685	drive|we	0.01097483
-2.886587	drop|	0.1370432
-3.953534	drop|ORGANIZATION	-0.0005247375
-3.731685	drop|PERSON	0.09461369
-3.953534	drop|pack	0.09888928
-3.953534	drop|parent	0.09512626
-3.731685	drown|	0.09724357
-3.953534	drum|	0.09545754
-3.088233	dry|	0.1368004
-3.953534	dry|egg	-2.494623e-05
-3.953534	dry|everything	0.0007339005
-3.953534	dry|food	-0.0004925103
-3.953534	dry|meal	-0.0002829747
-3.953534	dry|most	-0.0005086242
-3.652504	duck|	0.1041948
-3.953534	dump|	-0.0004419226
-3.953534	dump|thing	-0.0005247375
-3.953534	earn|moniker	0.00438516
-3.953534	earn|pad	-0.0005247375
-2.355108	eat|	0.1701384
-3.953534	eat|PERSON	0.001477888
-3.953534	eat|anything	0.1002899
-3.284527	eat|breakfast	0.1150176
-3.953534	eat|chicken	-0.0005064106
-3.953534	eat|crust	-0.0004602806
-3.316712	eat|dinner	0.1086071
-3.828595	eat|food	0.004872383
-3.953534	eat|grass	0.09824123
-3.953534	eat|it	0.00902816
-3.953534	eat|j	0.0007339005
-3.953534	eat|lot	0.09517613
-3.200207	eat|lunch	0.1092625
-3.953534	eat|mores	0.0002170949
-3.953534	eat|non-stop	-0.0004763957
-3.953534	eat|package	-0.0003474579
-3.953534	eat|pb	-0.0005247375
-3.828595	eat|pizza	0.09480446
-3.953534	eat|supper	0.0006396773
-3.953534	eat|they	0.1010021
-3.953534	eat|ton	-0.0005247375
-3.953534	echo|	0.005140178
-3.953534	edge|	0.008698713
-3.953534	edit|	0.01151594
-3.953534	edward|	0.1100567
-3.953534	elect|driver	-0.0005247375
-3.953534	email|I	0.09547765
-3.652504	embark|	0.09722557
-3.652504	emerge|	0.01020417
-3.828595	empty|	0.006552792
-3.953534	encourage|	0.09501541
-3.953534	endure|moment	0.003510065
-3.953534	endure|trekking	0.09749313
-2.385333	end|	0.1831275
-3.828595	end|trip	0.09558851
-3.731685	engage|	0.09625408
-3.953534	engeneer|	-0.0004763957
-2.714652	enjoy|	0.1517334
-3.953534	enjoy|LOCATION	-0.0004096749
-3.731685	enjoy|beach	0.0004035431
-3.953534	enjoy|beer	-0.0005247375
-3.953534	enjoy|boat	-0.0003635773
-3.953534	enjoy|burrito	-0.0005247375
-3.953534	enjoy|campsite	0.0001041256
-3.953534	enjoy|chance	0.1100567
-3.953534	enjoy|dinner	0.1100567
-3.828595	enjoy|diving	0.09471363
-3.953534	enjoy|drive	0.09501541
-3.953534	enjoy|eruption	-0.0005247375
-3.953534	enjoy|feel	-7.333833e-05
-3.585557	enjoy|hike	0.001965256
-3.226536	enjoy|it	0.01596173
-3.828595	enjoy|lot	0.01219541
-3.585557	enjoy|ourselves	0.01257127
-3.953534	enjoy|picture	0.01151594
-3.828595	enjoy|quiet	0.004394397
-3.953534	enjoy|rest	0.1100567
-3.953534	enjoy|ride	0.003396185
-3.953534	enjoy|road	-0.0006353579
-3.953534	enjoy|s'more	-0.0003958141
-3.652504	enjoy|scenery	0.1074206
-3.828595	enjoy|swimming	0.0949049
-3.953534	enjoy|time	0.09753353
-3.652504	enjoy|trip	0.01463154
-3.389263	enjoy|view	0.01164365
-3.953534	enjoy|visibility	0.0003488336
-3.953534	enjoy|walking	0.00438516
-3.731685	enjoy|water	0.09448268
-3.828595	enjoy|weather	0.001471494
-3.953534	enlarge|	0.0004592712
-3.953534	ensue|	0.0006235144
-3.953534	ensure|	0.003510065
-3.828595	entertain|	0.09480446
-3.953534	entertain|cop	0.000542708
-3.476413	enter|	0.1040431
-3.731685	enter|LOCATION	-1.403852e-05
-3.953534	enter|ORGANIZATION	0.004503706
-3.953534	enter|area	-0.0004902895
-3.585557	enter|water	0.1044302
-3.953534	envelop|we	0.09888928
-3.731685	equalize|	0.005373294
-3.953534	equalize|pressure	0.09521632
-3.828595	equate|	0.09492499
-3.953534	erode|	0.09515604
-3.828595	escape|	0.09469354
-3.731685	estimate|	0.009352846
-3.953534	etc|MONEY	0.09505558
-3.953534	evaporate|	0.1011244
-3.953534	everyht|	-0.0004441649
-3.953534	everyone|laundry	0.004303687
-3.953534	examine|	-0.0004419226
-3.953534	exceed|mile	0.01151594
-3.226536	excite|	0.1315698
-3.953534	exclude|	0.0009307162
-2.850872	exhaust|	0.1619093
-3.731685	exict|	0.001144824
-3.828595	exist|	0.0978591
-3.953534	exit|water	0.008451791
-2.968257	expect|	0.1280331
-3.953534	expect|animal	0.09501541
-3.953534	expect|it	0.003217294
-3.953534	expect|they	0.09608131
-3.652504	experience|	0.004136229
-3.953534	experience|bush	-0.0004763957
-3.953534	experience|what	0.1018583
-3.953534	experience|wreck	-0.0004280486
-3.585557	explain|	0.1118262
-3.953534	explode|	0.1018583
-3.151902	explore|	0.1282438
-3.828595	explore|LOCATION	0.02131998
-3.585557	explore|area	0.09720787
-3.953534	explore|island	-0.0006192415
-3.953534	explore|trail	0.09512626
-3.953534	expose|	0.00183742
-3.585557	face|	0.09666146
-3.953534	face|TIME	0.001445514
-3.953534	face|beach	0.09569889
-3.953534	face|lake	0.09787713
-3.828595	fade|	0.0005324086
-3.351474	fail|	0.09556931
-2.448384	fall|	0.1556225
-3.731685	fall|time	0.004828659
-3.953534	fascinate|	0.005009544
-3.731685	fashion|	0.09572995
-3.476413	feast|	0.1007045
-3.389263	feed|	0.0963248
-3.828595	feed|duck	0.09828427
-3.953534	feed|fish	0.01213725
-3.953534	feed|she	-0.0004763957
-3.953534	feed|they	0.00615393
-3.953534	feed|wood	0.00438516
-2.170584	feel|	0.2092507
-3.953534	feel|better	0.00435696
-3.953534	feel|cold	0.0007205019
-3.731685	feel|it	0.0076217
-3.953534	feel|kind	0.003672801
-3.828595	feel|load	0.001095838
-3.953534	feel|lot	0.002469994
-3.953534	feel|need	0.0007205019
-3.953534	feel|tingling	-4.10775e-05
-3.828595	feel|way	0.09542757
-3.476413	fight|	0.1036375
-3.953534	fight|intruder	-0.0005247375
-3.953534	fight|it	-0.0005247375
-3.953534	fight|way	0.004781027
-2.70638	figure|	0.1335847
-3.953534	figure|situations	0.00207724
-2.828595	fill|	0.1331957
-3.652504	fill|tank	0.1002996
-3.953534	fill|thing	0.001429328
-3.652504	film|	0.1034139
-3.828595	filter|water	0.001209165
-2.310081	find|	0.1915276
-3.731685	find|DATE	0.001523919
-3.828595	find|MISC	0.09875041
-3.953534	find|Motel	0.09499532
-3.351474	find|NUMBER	0.01237267
-3.430655	find|PERSON	0.09950132
-3.953534	find|all	0.001526453
-3.953534	find|bunch	0.002369115
-3.731685	find|campground	0.09979837
-3.476413	find|campsite	0.002569816
-3.953534	find|car	0.0002196323
-3.828595	find|flight	0.09469354
-3.953534	find|gallon	0.0004592712
-3.953534	find|he	0.0955782
-3.828595	find|hotel	0.1053295
-3.175383	find|it	0.142657
-3.953534	find|log	0.002924719
-3.828595	find|myself	0.09763655
-3.953534	find|nemo	0.00133526
-3.129626	find|place	0.1347012
-3.953534	find|quarry	0.005074856
-3.828595	find|quartz	0.09482455
-3.828595	find|restaurant	-0.0008584454
-3.953534	find|she	0.001302884
-3.284527	find|site	0.111741
-3.953534	find|solution	0.003526336
-3.953534	find|something	0.09622229
-3.151902	find|spot	0.1042133
-3.953534	find|tell	0.09622229
-3.652504	find|tent	0.001560338
-3.731685	find|they	0.1135344
-3.953534	find|trail	0.09567878
-3.953534	find|trailhead	0.09505558
-3.953534	find|tree	0.09517613
-3.476413	find|way	0.1048328
-3.652504	find|we	0.110765
-2.999292	finish|	0.1242972
-3.953534	finish|DATE	-0.0005247375
-3.953534	finish|dinner	0.09755374
-3.828595	finish|dive	0.1021092
-3.953534	finish|float	0.0006854241
-3.953534	finish|job	0.00178556
-3.953534	fish.|	-0.0005247375
-3.828595	fish|	0.09877949
-3.585557	fit|	0.1204817
-3.953534	fit|I	0.09614173
-3.828595	fix|	0.0964852
-3.953534	fix|it	0.09512626
-3.953534	fix|situation	0.0009763652
-3.953534	flare|CAUSE_OF_DEATH	0.002596265
-3.731685	flash|CAUSE_OF_DEATH	0.006810508
-3.652504	flip|	0.001145079
-3.953534	flip|switch	0.004303687
-3.226536	float|	0.1133846
-3.953534	float|MONEY	-0.0005247375
-3.828595	flood|	0.1023545
-3.828595	flounder|	0.1124282
-3.389263	flow|	0.1008073
-3.953534	flush|	0.09658501
-2.714652	fly|	0.1338062
-3.731685	focus|	0.1011018
-3.953534	fold|it	0.09512626
-2.714652	follow|	0.1707538
-3.731685	follow|LOCATION	0.004490248
-3.953534	follow|he	-0.000538651
-3.828595	follow|it	0.001341845
-3.953534	follow|sign	0.09499532
-3.731685	follow|track	0.09452286
-3.953534	follow|trail	0.1002086
-3.731685	follow|we	0.09687982
-3.731685	forage|	0.09546813
-3.953534	forbid|	0.1010021
-3.652504	force|	0.003781515
-3.953534	force|myself	-0.0003474579
-2.968257	forget|	0.1300646
-3.953534	forget|it	0.01573708
-3.828595	forget|name	0.005215576
-3.953534	forget|tent	-0.0003152177
-3.953534	form|	-0.0006353579
-3.652504	freak|	0.1092265
-3.953534	freak|time	0.09512626
-3.585557	freeze|	0.09380838
-3.953534	frequent|	0.0002170949
-3.953534	frustrate|	0.09547765
-3.828595	fry|steak	0.1008317
-3.828595	fuck|	0.09630368
-3.476413	fuel|	0.1062071
-3.953534	fussed|	-0.0005247375
-3.731685	gain|	0.09656728
-3.953534	gain|elevation	-0.0005247375
-3.953534	gasp|	0.001383831
-3.585557	gather|	0.09460337
-3.953534	gather|gear	0.09512626
-3.585557	gaze|	0.09538914
-3.731685	gear|	0.005090204
-3.731685	giggle|	0.09806422
-3.953534	giggle|flashlight	-0.0004925103
-3.953534	giggle|kid	-0.0004925103
-2.899177	give|	0.1309172
-3.953534	give|!!	0.09551787
-3.953534	give|DURATION	0.002534925
-3.129626	give|I	0.1141968
-3.652504	give|NUMBER	0.1053895
-3.731685	give|PERSON	0.005962988
-3.953534	give|break	0.001967103
-3.828595	give|chance	0.09516615
-3.953534	give|direction	0.00263234
-3.828595	give|go	0.00431285
-3.731685	give|he	0.1030985
-3.953534	give|hug	0.003623974
-3.476413	give|it	0.09446403
-3.953534	give|result	0.004972221
-3.828595	give|she	0.01245275
-3.953534	give|some	0.09499532
-3.731685	give|they	0.09453245
-3.731685	give|time	0.006504247
-3.953534	give|tour	-0.0006031246
-3.953534	give|trouble	0.09793779
-3.828595	give|try	-0.0006466647
-3.585557	give|view	0.09625714
-3.108436	give|we	0.1237347
-3.476413	give|you	0.008072173
-3.953534	glance|	0.09686733
-3.731685	glare|	0.01446186
-3.953534	glaze|	0.1100567
-3.953534	glisten|	0.09547765
-3.953534	gloat|husband	-0.0005247375
-3.953534	gobble|they	-0.0006675887
-3.351474	gon|	0.1118998
-3.527565	grab|	0.1026428
-3.953534	grab|PERSON	-0.0005086242
-3.953534	grab|geocache	0.09512626
-3.953534	grab|guide	0.001834159
-3.953534	grab|thing	-0.0005086242
-3.953534	grant|water	0.00136459
-3.953534	grant|we	-0.0003313382
-3.953534	grate|	-0.0004925103
-3.953534	graze|	0.09512626
-3.389263	greet|	0.108733
-3.953534	greet|DATE	-0.0004763957
-3.015682	grow|	0.100961
-3.953534	grow|tomboy	-0.0005086242
-3.828595	grumble|	0.004329158
-3.953534	guard|campsite	-0.0001838749
-2.886587	guess|	0.1545759
-3.953534	guess|cost	0.00438516
-3.731685	guess|it	0.1078807
-3.953534	guide|	0.01139102
-3.953534	had.|	0.003668718
-3.476413	hadn|MONEY	0.09907228
-3.585557	hadn|t	0.1047866
-3.953534	hail|	-0.000570889
-3.828595	hammer|	0.0002549033
-3.527565	handle|	0.1006574
-3.953534	handle|LOCATION	0.000281662
-3.585557	handle|it	0.002205599
-3.953534	handle|trip	-0.000151608
-3.731685	hand|	0.1010125
-3.953534	hand|we	0.09620214
-2.511577	hang|	0.1784467
-3.953534	hang|tarp	0.01163962
-2.486173	happen|	0.1778575
-3.953534	hasn|MONEY	0.09884875
-3.430655	hate|	0.1015374
-3.527565	hate|it	0.004670542
-3.953534	haul|	0.001918467
-3.953534	haul|everything	0.1018583
-3.828595	haven|MONEY	0.1039318
-1.952089	head|	0.2203876
-3.953534	head|MONEY	0.00104395
-3.953534	head|NUMBER	0.09509576
-3.953534	head|PERSON	0.004242859
-3.953534	head|direction	0.002113044
-3.226536	head|home	0.02018334
-3.731685	head|north	0.1000628
-3.953534	head|way	0.008402424
-2.828595	hear|	0.1285407
-3.953534	hear|I	0.001837419
-3.828595	hear|comment	0.00400311
-3.953534	hear|loon	0.00136764
-3.953534	hear|lot	0.01137445
-3.953534	hear|name	-0.0005247375
-3.585557	hear|noise	0.103579
-3.953534	hear|peep	0.00438516
-3.953534	hear|raccoon	0.01151594
-3.953534	hear|rustling	0.00438516
-3.953534	hear|siren	0.0002170949
-3.828595	hear|sound	0.0949354
-3.828595	hear|thunder	0.09787934
-3.953534	heed|instruction	-0.0005247375
-2.624475	help|	0.1527299
-3.585557	help|I	0.09479482
-3.953534	help|float	-0.0005247375
-3.953534	help|lot	0.09512626
-3.731685	help|too.	0.004595262
-3.953534	help|we	0.003201034
-3.828595	here|MONEY	-0.0003747315
-3.953534	here|fact	0.1002086
-3.731685	hesitate|	0.09948501
-3.585557	he|MONEY	0.09666146
-3.527565	hide|	0.1074859
-3.476413	highlight|	0.001738223
-2.142854	hike|	0.2164544
-3.953534	hike|LOCATION	0.09533691
-3.828595	hike|NUMBER	0.1004368
-3.828595	hike|PERSON	0.09865788
-3.731685	hike|it	0.01335253
-3.226536	hike|mile	0.1334952
-3.527565	hike|trail	0.1007595
-3.953534	hike|we	0.09521632
-3.953534	hiss|	0.003607699
-3.175383	hit|	0.110869
-3.652504	hit|LOCATION	0.09592222
-3.953534	hit|Lucky	-0.0005247375
-3.953534	hit|ORGANIZATION	-0.0005086242
-3.953534	hit|PERSON	0.00122195
-3.953534	hit|beach	0.003444987
-3.953534	hit|border	0.0004592712
-3.953534	hit|it	0.1018583
-3.953534	hit|mountain	0.005074856
-3.953534	hit|pillow	0.01291801
-3.088233	hit|road	0.1004374
-3.953534	hit|sand	-0.0005247375
-3.953534	hit|stopwatch	7.185421e-05
-3.731685	hit|tent	0.0003739841
-3.828595	hit|town	0.00203573
-3.828595	hit|traffic	0.1038497
-3.731685	hit|trail	0.002566858
-3.953534	hit|trunk	0.0002655195
-3.953534	hit|water	0.0004619164
-3.953534	hit|waterslide	0.004303687
-3.953534	hit|you	0.007366999
-3.068928	hold|	0.1187443
-3.731685	hold|it	-0.0009363996
-3.953534	hold|snake	-0.0004741677
-3.731685	hold|tent	0.09971703
-3.953534	hold|they	0.000281662
-3.953534	holler|$	-0.0004925103
-3.953534	hoof|it	-0.0001032032
-3.585557	hook|	0.1119787
-2.624475	hope|	0.1318844
-3.284527	hop|	0.1139821
-3.828595	host|	0.004300996
-3.652504	hover|	0.09528747
-3.828595	howl|	0.005150185
-3.953534	huddle|	-0.0002967896
-3.953534	hug|side	0.004781028
-3.953534	huh|	0.09513594
-3.953534	hunt|	0.09499532
-3.953534	hurl|cliff	-0.0005086242
-3.527565	hurry|	0.09628894
-3.175383	hurt|	0.1292017
-3.953534	hurt|I	0.09555808
-3.953534	hydrate|	0.002291481
-3.953534	hypermile|	0.003689078
-3.585557	identify|	0.003880309
-3.953534	identify|they	-0.0005086242
-3.828595	ignore|it	0.09554827
-3.175383	imagine|	0.1317953
-3.953534	imagine|search	0.09517613
-3.731685	impress|	0.01467913
-3.731685	improve|	0.1038165
-3.953534	improvise|	0.09577937
-2.659803	include|	0.1509097
-3.953534	include|driving	0.002596265
-3.953534	include|ride	0.001772592
-3.953534	increase|pace	-0.0003474579
-3.828595	inform|	0.1008113
-3.953534	inform|I	0.009803348
-3.953534	ingrain|	-0.0005247375
-3.828595	inhabit|	0.09483419
-3.828595	injure|	0.002737613
-3.476413	insist|	0.003627408
-3.953534	inspire|I	0.1100567
-3.351474	intend|	0.01549578
-3.953534	internett|	0.000429604
-3.953534	interrupt|	0.09505558
-3.953534	intersperse|	-0.0005247375
-3.953534	introduce|camping	0.001526453
-3.953534	inundate|	0.001400023
-3.430655	invite|	0.00323635
-3.953534	invite|I	0.006219415
-3.953534	invite|family	0.01139102
-3.953534	invite|we	0.09735174
-3.430655	involve|	0.0995997
-3.953534	involve|ride	0.09759415
-3.953534	isn|MONEY	0.09512626
-3.585557	isn|t	0.005833047
-3.652504	isolate|	0.0003669775
-3.953534	itch|	-0.0005247375
-3.828595	it|	0.09580991
-2.899177	it|MONEY	0.1232784
-3.316712	it|s	0.1130757
-3.652504	i|MONEY	0.0993469
-3.953534	i|m	0.09759415
-3.828595	jog|	0.001520123
-3.129626	join|	0.1194158
-3.828595	join|I	0.003893323
-3.731685	join|group	0.0955084
-3.652504	join|they	0.09488479
-3.527565	join|we	0.1071332
-3.953534	join|you	-0.0004925103
-3.828595	joke|	0.006656676
-3.953534	journey|	0.01140759
-3.731685	jumble|	0.103242
-2.939294	jump|	0.1192273
-3.828595	kayake|	0.09501509
-2.351474	keep|	0.1858756
-3.953534	keep|PERSON	0.00038114
-3.953534	keep|cool	0.09897035
-3.731685	keep|eye	-0.0007706456
-3.828595	keep|fluid	-0.0002432325
-3.828595	keep|he	0.09510585
-3.953534	keep|head	0.09547765
-3.953534	keep|journal	0.09622229
-3.828595	keep|pace	-0.0005014723
-3.953534	keep|safe	0.01465065
-3.953534	keep|she	0.09535702
-3.953534	keep|some	-0.0002829747
-3.953534	keep|stuff	-0.0001539795
-3.953534	keep|they	-0.0005086242
-3.953534	keep|thing	-0.0004602806
-3.953534	keep|we	0.09512626
-3.953534	keep|you	0.09499532
-3.652504	kick|	0.1069031
-3.953534	kick|I	-0.0004119317
-3.828595	kick|it	0.01026394
-3.527565	kid|	0.1094868
-3.652504	kill|	0.1032702
-3.953534	kill|I	0.004699444
-3.828595	kinda|	0.09840582
-3.828595	kit|	0.09531676
-3.527565	knit|	0.1190103
-3.953534	knock|	0.1010021
-3.953534	knock|mile	0.001429328
-2.014015	know|	0.2264501
-3.652504	know|I	0.1068824
-3.953534	know|MONEY	0.09512626
-3.953534	know|NUMBER	0.004829986
-3.953534	know|anyone	0.0001873377
-3.953534	know|guy	7.185421e-05
-3.476413	know|it	0.09747778
-3.828595	know|name	0.002591334
-3.953534	know|s	0.000281662
-3.953534	know|we	0.003717529
-3.731685	know|what	-0.001176031
-3.953534	lack|	-0.0003935503
-3.953534	lament|fact	-0.0006031246
-3.430655	land|	0.01215891
-3.953534	land|NUMBER	-0.0005247375
-3.828595	lash|	0.004786035
-3.351474	last|	0.003552302
-3.316712	laugh|	0.1155278
-3.585557	launch|	0.09831432
-3.151902	lay|	0.1159822
-3.254564	lead|	0.0995408
-3.731685	lead|we	0.009154653
-3.430655	leak|	0.001019892
-3.953534	lean|MONEY	-0.0004925103
-3.953534	lean|which	0.002596265
-2.807406	learn|	0.1428427
-3.953534	learn|NUMBER	0.003575152
-3.828595	learn|all	0.0949354
-3.652504	learn|lesson	0.09602305
-3.953534	learn|something	0.0955782
-3.828595	learn|technique	0.09841478
-3.828595	learn|thing	0.01167213
-3.953534	learn|this	0.09513594
-3.953534	learn|what	0.09787713
-2.138399	leave|	0.2151334
-3.731685	leave|DATE	0.003951493
-3.953534	leave|I	0.1002086
-3.175383	leave|LOCATION	0.1118018
-3.828595	leave|MISC	0.002262906
-3.953534	leave|MONEY	0.1016135
-3.731685	leave|PERSON	0.004212624
-3.828595	leave|Rock	0.004562108
-3.828595	leave|TIME	0.004856047
-3.953534	leave|baby	0.001319072
-3.828595	leave|backpack	0.0080532
-3.953534	leave|bag	0.004617876
-3.953534	leave|bit	0.09860564
-3.953534	leave|cabin	0.001024875
-3.953534	leave|camp	0.09521632
-3.828595	leave|campground	0.004333626
-3.953534	leave|car	0.09606118
-3.953534	leave|comment	0.002661186
-3.953534	leave|everything	-0.0005247375
-3.953534	leave|firework	0.003652448
-3.527565	leave|home	0.007144345
-3.652504	leave|house	0.006581892
-3.476413	leave|it	0.1198229
-3.953534	leave|little	0.0004431217
-3.828595	leave|park	0.09994847
-3.953534	leave|site	0.002616103
-3.828595	leave|they	0.003860726
-3.953534	leave|town	0.09549776
-3.953534	leave|trash	-0.0004902895
-3.953534	leave|watch	0.01151594
-3.731685	leave|we	0.09682988
-3.731685	leave|work	0.1001972
-3.652504	leave|you	0.09429199
-2.393229	let|	0.2006421
-3.828595	let|MONEY	0.1009335
-3.953534	let|cabin	0.001186611
-3.953534	let|space	0.003652448
-3.953534	level|	0.09541733
-3.316712	lie|	0.1126266
-3.953534	lie|recumbent	-0.0005247375
-3.953534	lift|bike	0.002352894
-3.476413	lighten|	0.1052343
-3.527565	light|	0.006085774
-3.953534	light|lantern	0.09512626
-2.70638	like|	0.1291921
-3.953534	like|I	0.004487398
-3.953534	like|MONEY	0.0006073516
-3.953534	like|NUMBER	0.009605296
-3.953534	like|Plus	0.004242859
-3.953534	like|camping	0.007153647
-3.389263	like|it	0.1127231
-3.953534	like|s'more	0.00438516
-3.953534	like|town	0.001510264
-3.953534	like|weather	-0.0005247375
-3.953534	like|what	0.1100567
-3.953534	like|which	0.002661186
-3.476413	limit|	0.09433334
-3.953534	limit|number	-0.0005247375
-3.953534	limit|yourself	-0.0005086242
-3.953534	line|	0.09503549
-3.828595	linger|	-0.0002779239
-2.939294	listen|	0.1088325
-3.953534	litter|trail	0.09512626
-2.714652	live|	0.1501515
-3.175383	load|	0.1341214
-3.953534	load|all	-0.0004925103
-3.953534	load|canoe	0.0008660241
-3.731685	load|car	0.005962989
-3.953534	load|gear	-0.0004925103
-3.828595	load|stuff	-0.0001003876
-3.953534	load|ton	0.001429328
-3.953534	loan|we	-0.0006514736
-3.316712	lodge|	0.1172496
-3.828595	log|	0.09978583
-3.953534	london|	0.09511586
-1.926865	look|	0.2229469
-3.953534	look|foward	0.002599866
-3.828595	look|it	0.09601128
-3.953534	look|little	0.003526336
-3.953534	look|lot	0.0001389009
-3.828595	look|what	0.005330034
-3.828595	loom|	0.09642468
-3.953534	loop|	-0.0004925103
-3.015682	lose|	0.1205828
-3.953534	lose|MONEY	0.09499532
-3.953534	lose|NUMBER	-0.0005247375
-3.953534	lose|calorie	-0.0005247375
-3.953534	lose|communication	-0.0005247375
-3.953534	lose|coverage	-0.0005247375
-3.953534	lose|it	0.0001202622
-3.828595	lose|life	0.1024568
-3.953534	lose|lunch	0.002518691
-3.953534	lose|rest	0.004972221
-3.828595	lose|trail	0.004758046
-3.828595	lose|weight	0.004508588
-2.698262	love|	0.1633606
-3.953534	love|Ganges	0.001092488
-3.953534	love|I	-0.0002000072
-3.953534	love|MONEY	0.003347389
-3.953534	love|Park	0.001186611
-3.652504	love|SET	0.01080831
-3.828595	love|area	0.09480446
-3.828595	love|camping	0.01328473
-3.953534	love|campsite	-0.0005086242
-3.953534	love|d	0.00438516
-3.953534	love|diving	0.09519622
-3.316712	love|it	0.1139983
-3.953534	love|landscape	0.09512626
-3.953534	love|mushroom	0.003652448
-3.953534	love|photography	0.003607699
-3.828595	love|they	0.09554827
-3.828595	luck|	0.014352
-3.953534	lure|they	0.001526453
-3.953534	magnify|	0.09512626
-3.953534	maintain|	0.001205765
-2.652504	manage|	0.1705577
-3.953534	manage|experience	-0.0004925103
-3.828595	manage|it	0.09553812
-3.953534	manage|success	0.09571901
-3.652504	mark|	0.09705435
-3.953534	mark|NUMBER	0.09858538
-3.953534	mark|time	0.00438516
-3.430655	marry|	0.1094187
-3.953534	mash|	-0.0004763957
-3.953534	match|	0.1013893
-3.731685	meander|	0.008175207
-2.862454	mean|	0.1485285
-3.652504	mean|what	0.006724053
-3.953534	measure|they	-0.0005247375
-2.787203	meet|	0.1315534
-3.953534	meet|I	0.09858538
-3.953534	meet|LOCATION	0.09743252
-3.226536	meet|PERSON	0.1051096
-3.953534	meet|family	0.0957995
-3.828595	meet|he	0.00399113
-3.953534	meet|objective	0.09549776
-3.731685	meet|people	0.005831876
-3.828595	meet|she	0.005079996
-3.731685	meet|they	0.003295258
-3.828595	meet|we	0.1010275
-3.953534	meet|yellow-jacket	-0.0005247375
-3.316712	melt|	0.09474252
-3.953534	melt|chocolate	0.0002196322
-3.953534	mend|	0.09512626
-2.925505	mention|	0.129299
-3.953534	me|MONEY	0.09523642
-3.316712	mind|	0.1179104
-3.953534	mis-spell|it	0.09512626
-3.953534	misspoke|	0.0002655195
-3.226536	miss|	0.1108221
-3.953534	miss|CAUSE_OF_DEATH	0.00136459
-3.953534	miss|I	0.01218704
-3.953534	miss|NUMBER	0.09513594
-3.731685	miss|PERSON	0.1104585
-3.953534	miss|fly	0.0008308701
-3.953534	miss|it	0.004471092
-3.953534	miss|relaxing	0.005074856
-3.953534	miss|s'mores	0.0007500608
-3.953534	miss|you	0.1100567
-3.731685	mix|	0.001471998
-3.953534	mob|	0.1002899
-3.828595	motor|	0.1036856
-3.731685	mount|	-0.000643837
-3.953534	mount|expedition	0.09884875
-2.698262	move|	0.1722003
-3.953534	move|bag	-0.0004925103
-3.953534	move|inch	0.004536323
-3.731685	move|tent	0.001653681
-3.953534	move|thing	-0.0005247375
-3.953534	mow|	0.0006396775
-3.828595	mumble|	-0.0004392577
-3.953534	murder|PERSON	0.01151594
-3.953534	mystify|	0.1002899
-3.527565	name|	0.09705967
-3.953534	name|PERSON	-0.0005870071
-3.731685	name|it	0.006553486
-3.476413	nap|	0.1266335
-3.731685	navigate|	0.005520642
-3.953534	near|degree	0.000219632
-3.828595	near|time	-0.0006972672
-3.953534	needn|MONEY	0.09499532
-2.43502	need|	0.19456
-3.953534	need|MONEY	0.0977154
-3.953534	need|blanket	0.09888928
-3.828595	need|it	0.09596103
-3.953534	need|lunch	0.09512626
-3.953534	need|mattress	-0.0002507297
-3.953534	need|space	0.001626767
-3.953534	need|they	9.761949e-06
-3.953534	need|towel	0.002661186
-3.953534	need|vacation	0.01151594
-3.953534	need|water	-0.0005086242
-3.828595	need|what	0.09844635
-3.953534	need|wood	0.0001202622
-3.953534	negotiate|tunnel	0.09512626
-3.652504	nestle|	0.01241221
-3.953534	never|	0.0008470344
-3.953534	nod|	0.09573913
-3.316712	note|	0.1178469
-3.953534	note|camping	-0.0005247375
-3.953534	note|marker	0.00207724
-3.953534	note|snuggle	0.0002655195
-3.088233	notice|	0.1275158
-3.953534	notice|flower	0.0006235144
-3.953534	notice|vegetation	-0.0006192415
-3.953534	now.|scenery.	-0.0005247375
-3.731685	observe|	0.01657221
-3.953534	obsess|	0.1010021
-3.953534	obtain|	0.004259157
-3.953534	occupy|	0.09509576
-3.731685	occur|	0.002140631
-3.430655	offer|	0.1172258
-3.953534	offer|I	0.002661186
-3.953534	offer|opportunity	-0.0005247375
-3.953534	offer|which	0.0001550458
-3.050444	open|	0.1305978
-3.953534	open|bag	-0.0005247375
-3.953534	open|bottle	0.0005911899
-3.953534	open|chair	-0.0005086242
-3.828595	open|door	0.0009045617
-3.953534	open|pack	0.00438516
-3.953534	open|tarp	-0.0005247375
-3.828595	open|tent	0.01312638
-3.953534	operate|	0.004585253
-3.953534	operate|bucket	0.0003462388
-3.953534	operate|swivel	0.0001202622
-3.527565	opt|	0.1046107
-3.731685	order|	0.09883492
-3.953534	organise|	0.09897035
-3.585557	organize|	0.01543193
-3.953534	organize|box	0.0007339005
-3.953534	originate|	0.09499532
-3.953534	outta|car	0.0008470344
-3.953534	overcome|	0.09753353
-3.953534	overflow|	0.004797347
-3.585557	overlook|	0.1108216
-3.731685	overlook|lake	0.1032488
-3.731685	own|	0.1006941
-3.953534	pace|myself	0.001769362
-2.549842	pack|	0.1568674
-3.953534	pack|NUMBER	0.09620214
-3.652504	pack|all	-0.0003986094
-3.731685	pack|bag	0.1021024
-3.953534	pack|camera	-0.0006514736
-3.430655	pack|camp	0.1065451
-3.828595	pack|canoe	0.09480446
-3.351474	pack|car	0.1021483
-3.953534	pack|cheese	-0.0005247375
-3.953534	pack|early	-0.0004602806
-3.527565	pack|everything	0.1020412
-3.828595	pack|food	0.001306327
-3.652504	pack|gear	0.006641922
-3.652504	pack|it	0.1029556
-3.953534	pack|light	0.00438516
-3.953534	pack|sleep	-0.000218482
-3.953534	pack|snack	-0.0005247375
-3.953534	pack|spray	0.001400023
-3.652504	pack|stuff	0.09682108
-3.953534	pack|sunscreen	-0.0005247375
-3.652504	pack|tent	0.1117895
-3.828595	pack|thing	0.09755566
-3.828595	pack|truck	0.09735348
-3.828595	pack|water	-0.0005360292
-3.389263	paddle|	0.09846289
-3.953534	paddle|half	0.003717529
-3.953534	paddle|mile	-0.0004763957
-3.953534	paint|	0.005042199
-3.953534	pair|	0.001480989
-3.731685	panic|	-0.001270678
-3.652504	pant|	0.00294176
-3.953534	parallel|it	-0.0004925103
-3.200207	park|	0.1127291
-3.527565	park|car	0.1062064
-3.953534	partake|	0.000281662
-3.585557	participate|	0.01416584
-3.731685	part|way	0.001442838
-2.723085	pass|	0.1691367
-3.828595	pass|I	0.004781364
-3.731685	pass|LOCATION	0.1004089
-3.828595	pass|NUMBER	0.003893322
-3.953534	pass|PERSON	0.09512626
-3.828595	pass|coral	0.09480446
-3.953534	pass|it	0.004911595
-3.953534	pass|kiosk	-0.0005247375
-3.953534	pass|office	-0.0005086242
-3.828595	pass|we	0.1159582
-3.828595	paste|	0.1014227
-3.953534	pause|	0.09527662
-3.585557	pave|	0.106459
-3.226536	pay|	0.1149978
-3.953534	pay|MONEY	0.09525651
-3.953534	pay|attention	-0.0006514736
-3.828595	pay|fee	0.004545785
-3.953534	pay|park	0.002661186
-3.953534	pedal|weight	0.002369115
-3.953534	peek|	0.09512626
-3.828595	peer|	0.09560864
-3.284527	pee|	0.1193243
-3.953534	pee|all	-0.0005247375
-3.953534	perfect|	0.09512626
-3.953534	persevere|	0.005172844
-2.953534	pick|	0.1335407
-3.585557	pick|I	0.002706319
-3.828595	pick|NUMBER	0.001358049
-3.389263	pick|PERSON	0.1165887
-3.828595	pick|apple	0.1098658
-3.953534	pick|berry	0.0001550459
-3.953534	pick|cappuccino	0.1010021
-3.731685	pick|car	0.09755792
-3.953534	pick|combo	0.002352894
-3.953534	pick|everything	0.002113044
-3.731685	pick|it	0.1042891
-3.953534	pick|mile	0.004303687
-3.953534	pick|pace	0.09824123
-3.731685	pick|pack	0.0007299763
-3.953534	pick|some	-8.706719e-05
-3.828595	pick|spot	0.001309438
-3.953534	pick|stick	-0.0002507297
-3.953534	pick|they	0.09512626
-3.953534	pick|thing	0.0008498526
-3.953534	pick|we	0.09499532
-3.527565	pile|	0.096006
-3.953534	pile|work	0.0006854241
-3.828595	pine|cone	-0.0003747313
-3.953534	pine|tree	-0.0002668526
-3.953534	pipe|	0.002973467
-3.527565	piss|	0.1055187
-3.129626	pitch|tent	0.1115684
-3.389263	place|	0.1036357
-3.731685	plague|	-0.0001594576
-3.953534	plague|beach	-0.0005247375
-3.953534	planned|MONEY	-0.0005247375
-2.624475	plan|	0.15936
-3.953534	plan|camping	-0.0003958141
-3.953534	plan|route	0.00435696
-3.316712	plan|trip	0.1121839
-3.828595	plan|what	0.09469354
-2.516842	play|	0.1428924
-3.953534	play|NUMBER	-7.093052e-05
-3.585557	play|card	0.106459
-3.731685	play|chicken	0.09611291
-3.953534	play|flute	0.004259157
-3.129626	play|game	0.1115875
-3.953534	play|golf	0.09785691
-3.652504	play|guitar	0.0960536
-3.828595	play|it	0.001876899
-3.828595	play|music	0.00356746
-3.828595	play|tag	0.003372058
-3.108436	please|	0.1241086
-3.953534	please|pray	-0.0004580455
-3.953534	plod|	0.0002842281
-3.828595	plow|	0.004088958
-3.953534	plug|ear	-0.0005247375
-3.953534	plug|shout	7.185421e-05
-3.953534	plummet|	0.09539723
-3.828595	plunge|	0.09467345
-3.476413	point|	0.09832256
-3.476413	poke|	0.1033571
-3.953534	pool|water	0.0007339005
-3.652504	poop|	0.09433217
-3.389263	pop|	0.1116042
-3.953534	pop|can	0.0002655195
-3.731685	pose|	0.09846711
-3.953534	possess|camping	0.002369115
-3.953534	possess|skill	-0.0005247375
-3.254564	post|	0.1249136
-3.953534	post|picture	0.09529671
-3.652504	pound|	0.002363661
-3.953534	pound|lot	0.1013893
-3.316712	pour|	0.1015474
-3.953534	pour|bucket	0.001186611
-3.585557	pour|rain	0.111533
-3.953534	power|	0.004960566
-3.731685	practice|	0.09573995
-3.828595	practice|skill	0.001371113
-3.953534	practise|	0.0036728
-3.254564	pray|	0.09791404
-3.953534	predict|	0.09499532
-3.731685	prefer|	0.0003739846
-3.828595	prefer|MISC	-0.0001786488
-3.953534	prefer|solitude	-0.0005247375
-3.015682	prepare|	0.1273468
-3.953534	prepare|PERSON	0.09513594
-3.828595	prepare|dinner	0.008870262
-3.953534	prepare|supper	0.003652448
-3.953534	prep|	-0.0004925103
-3.652504	press|	0.09978252
-3.585557	pretend|	0.1002561
-3.284527	proceed|	0.109626
-3.953534	procure|combo	-0.0002990965
-3.953534	procure|pad	0.00438516
-3.953534	progress|	-0.0001838748
-3.527565	promise|	0.1071698
-3.828595	propose|	0.002815113
-3.953534	prop|plane	0.01202108
-3.828595	protect|	0.005657223
-3.953534	protect|we	-0.0001838746
-3.316712	prove|	0.112905
-3.430655	provide|	0.09930979
-3.953534	provide|limitation	0.09622229
-3.953534	provide|s'more	7.185421e-05
-3.953534	provide|song	-0.0004602806
-3.953534	provide|we	0.09512626
-3.953534	provoke|wonder	-0.0002507297
-3.828595	publish|	0.002327834
-2.624475	pull|	0.1396123
-3.953534	pull|PERSON	0.1002289
-3.953534	pull|TIME	0.001186611
-3.953534	pull|arrow	0.0001202622
-3.953534	pull|bow	0.004972221
-3.828595	pull|camera	0.0020844
-3.953534	pull|chest	0.004303687
-3.828595	pull|it	0.09737369
-3.953534	pull|pants	0.09787713
-3.953534	pump|gas	0.1002289
-3.953534	pump|mattress	0.002275257
-3.585557	purchase|	0.09426212
-3.476413	push|	0.1149994
-3.953534	push|I	0.003668718
-3.953534	push|NUMBER	0.09541733
-3.953534	push|bike	0.0001202622
-3.953534	push|calf	0.0006531093
-3.953534	push|himself	0.1016135
-3.731685	push|it	0.0003092899
-2.797187	put|	0.1288403
-3.828595	put|I	-0.0008100983
-3.731685	put|PERSON	0.09528697
-3.953534	put|bunch	-0.0003474579
-3.953534	put|everything	0.004846307
-3.953534	put|face	0.0008175112
-3.953534	put|food	0.004846307
-3.953534	put|foot	0.004536322
-3.953534	put|he	0.09535702
-3.953534	put|headlight	0.004597063
-3.476413	put|it	0.0996182
-3.953534	put|kid	0.006661694
-3.828595	put|mattress	0.005423202
-3.953534	put|pack-n-play	0.001526453
-3.953534	put|pet	-0.0005086242
-3.953534	put|root	-0.0001354736
-3.953534	put|rule	0.0001202622
-3.953534	put|smile	0.09860564
-3.652504	put|stuff	0.006362798
-3.953534	put|team	0.09507567
-3.175383	put|tent	0.1081197
-3.953534	put|the	-0.0005247375
-3.828595	put|they	0.000157977
-3.953534	put|top	0.09511586
-3.731685	put|we	0.1007427
-3.828595	put|you	0.0007560338
-3.953534	quick-cook|	0.004972221
-3.652504	quiet|	0.009684043
-3.828595	quit|	0.003388339
-3.828595	race|	0.09494508
-3.953534	race|TDF	-0.0005247375
-3.953534	race|sun	0.0001202622
-3.953534	raft|	0.09733155
-3.953534	rage|	-0.0004257991
-3.953534	rain.|walk	0.0004431217
-2.491136	rain|	0.1717086
-3.828595	rain|most	0.09517595
-3.953534	rain|time	0.004972221
-3.476413	raise|	0.1003698
-3.953534	ramble|	0.09499532
-3.953534	rate|	0.004748392
-3.953534	rave|horn	0.001076309
-3.953534	re-do|operation	-0.0005247375
-3.953534	re-organize|stuff	0.004597063
-3.316712	reach|	0.1227541
-3.828595	reach|LOCATION	0.09595086
-3.953534	reach|NUMBER	0.09793779
-3.585557	reach|PERSON	0.0965092
-3.953534	reach|end	0.00136764
-3.828595	reach|goal	0.09590059
-3.953534	reach|path	0.001186611
-3.953534	reach|point	0.002275257
-3.828595	reach|summit	0.001176783
-3.731685	reach|top	-0.0007222246
-3.828595	reach|town	0.1082628
-3.953534	reach|vista	0.00438516
-2.983497	read|	0.0389953
-3.953534	read|Bible	0.09545754
-3.953534	read|LOCATION	-0.0005386509
-3.652504	read|PERSON	0.09435226
-3.828595	read|blog	0.09604163
-3.389263	read|book	0.01018582
-3.828595	read|it	0.09522647
-3.828595	read|this	0.006459879
-3.953534	realise|	0.1100567
-2.549842	realize|	0.1895057
-3.828595	receive|	-0.0008584454
-3.953534	recharge|	0.002502458
-3.953534	recognise|	0.09622229
-3.430655	recommend|	0.1101144
-3.953534	recommend|LOCATION	0.09512626
-3.731685	reconcile|difference	-0.0005816364
-3.316712	recover|	0.1128458
-3.953534	reduce|	-0.0004419225
-3.953534	reel|it	-4.10775e-05
-3.527565	reflect|	0.100568
-3.585557	refresh|	0.01108248
-3.527565	refuse|	0.09893353
-3.953534	relaxin|MONEY	0.001024875
-2.828595	relax|	0.1465062
-3.953534	relax|bit	0.00615393
-3.953534	relax|scenery	-0.0005247375
-3.828595	release|they	0.09693879
-3.731685	relieve|	0.09458313
-3.430655	remain|	0.1007036
-2.807406	remember|	0.1486476
-3.731685	remember|it	-0.0006922453
-3.953534	remember|name	0.1002086
-3.953534	remember|said.	-0.0004441649
-3.828595	remember|what	0.09575959
-3.731685	remind|	0.1000953
-3.430655	remind|I	0.1197394
-3.953534	remove|hook	-0.0005247375
-3.953534	remove|stinger	-0.0005247375
-3.953534	remove|they	-0.000570889
-3.527565	rent|	0.1154237
-3.953534	rent|NUMBER	-7.333833e-05
-3.953534	rent|boat	-0.0004441649
-3.652504	rent|cabin	0.09443263
-3.953534	rent|equipment	0.09512626
-3.731685	repair|	0.1001849
-3.731685	replace|	0.09511573
-3.953534	replicate|they	-0.0002806606
-3.585557	reply|	0.0170018
-3.731685	report|	-0.0003209774
-3.953534	repusle|	-0.0005247375
-3.527565	require|	0.1111813
-3.953534	require|equipment	0.001510264
-3.953534	rescue|equipment	-0.0003796961
-3.953534	research|	-0.0003958141
-3.828595	reserve|	0.1008113
-3.828595	reserve|it	0.008195112
-3.953534	resist|	0.00489527
-3.953534	resist|opportunity	0.003803034
-3.953534	resist|urge	0.09535702
-3.828595	respond|	0.09624319
-3.108436	rest|	0.1165646
-3.953534	rest|Stop	-0.0005086242
-3.652504	result|	0.09466347
-3.953534	resume|	0.002307707
-3.953534	retch|	-0.0005086242
-3.585557	retire|	0.0971159
-3.652504	retreat|	0.003373612
-2.674781	return|	0.1516192
-3.953534	return|car	-0.0004257991
-3.527565	return|home	0.1127921
-3.953534	return|van	0.01172252
-3.953534	return|verdict	-0.0003474579
-3.953534	reveal|	0.09501541
-3.953534	reward|	0.01331724
-2.674781	ride|	0.1468846
-3.828595	ride|NUMBER	0.1014227
-3.953534	ride|another	-0.0002507297
-3.953534	ride|asphalt	-0.0003313382
-3.731685	ride|bike	0.09746601
-3.731685	ride|mile	0.09529714
-3.953534	ride|time	-0.0005247375
-3.953534	ride|train	-0.0005247375
-3.953534	ride|walk	0.008879878
-3.953534	ride|way	0.09608131
-3.953534	ride|wheeler	-0.0001354737
-3.953534	rinse|	0.004960566
-3.731685	rip|	0.1096461
-3.953534	rip|tag	0.1002086
-3.284527	rise|	0.1198376
-3.953534	rise|TIME	8.798967e-05
-3.953534	risk|life	0.0143336
-3.953534	roadwalk|	0.0977154
-3.828595	roar|	0.09494508
-3.953534	roast|stick	-0.0005247375
-3.828595	rob|I	-8.424424e-05
-3.652504	rock|	0.007766422
-2.999292	roll|	0.09963032
-3.828595	roll|hill	0.006525467
-3.953534	roll|tent	0.004597063
-3.953534	roll|window	0.09503549
-3.527565	rough|it	0.1081713
-3.953534	round|	0.1002289
-3.953534	round|curve	0.001513379
-3.953534	ruff|it	-0.0005247375
-3.731685	ruin|experience	0.01099282
-3.953534	rumble|	0.002015744
-2.266303	run|	0.2064228
-3.953534	run|MONEY	0.09503549
-3.953534	run|electricity	-0.0005247375
-3.953534	run|trail	0.004308057
-3.652504	run|water	0.005149867
-3.316712	rush|	0.1067696
-3.828595	s'more|	0.09480446
-3.953534	saddle|	0.09640361
-3.585557	sail|	0.1010114
-3.953534	salute|you	0.09499532
-3.828595	satisfy|	0.09723222
-3.953534	satisfy|hobby	-0.0005247375
-3.585557	save|	0.09423155
-3.953534	save|it	0.007744724
-3.828595	save|money	0.002721356
-3.953534	save|remainder	-0.0005247375
-3.953534	save|time	0.003803034
-3.585557	scan|	0.09737907
-3.254564	scare|	0.1215637
-3.828595	scare|it	0.09488481
-3.953534	scarf|handful	0.1013893
-3.652504	scatter|	0.004647539
-3.652504	schedule|	0.009053321
-3.953534	scop|site	-0.0006192415
-3.953534	scop|view	0.0004780734
-3.953534	scorch|	0.0008660241
-3.953534	scout|	-0.0005247375
-3.389263	scramble|	0.01857081
-3.953534	scramble|egg	-0.0003935502
-3.953534	scratch|	0.09897035
-3.050444	scream|	0.1043736
-3.828595	scream|CRIMINAL_CHARGE	0.09693879
-3.953534	scurry|	-0.0006353579
-3.430655	search|	0.1039413
-3.953534	search|area	0.004597063
-3.828595	seat|	0.1011984
-3.953534	seek|	0.09512626
-2.320066	seem|	0.1932218
-3.828595	seep|	-0.000323949
-3.953534	sell|	-0.000570889
-3.476413	send|	0.1066526
-3.476413	send|I	0.1041668
-3.828595	send|MONEY	0.09498527
-3.953534	send|child	-0.0005247375
-3.953534	send|we	0.09505558
-3.652504	separate|	0.004663895
-3.351474	serve|	0.1007956
-2.912142	settle|	0.132329
-2.316712	set|	0.1960169
-3.953534	set|CAUSE_OF_DEATH	-0.0005247375
-3.953534	set|awning	0.1018583
-3.953534	set|b	-0.0004763957
-2.797187	set|camp	0.1466581
-3.953534	set|campground	-0.0004925103
-3.953534	set|it	0.006465071
-3.953534	set|ours	0.1011244
-3.953534	set|pop	0.00438516
-3.828595	set|site	0.09860849
-2.740459	set|tent	0.1382004
-3.828595	set|they	-0.0004069957
-3.953534	set|trip	0.001429328
-3.953534	set|we	-0.0005247375
-3.953534	set|wood	0.004063617
-3.652504	shake|	0.005428213
-3.828595	share|	0.0111836
-3.953534	share|beer	0.09646406
-3.953534	share|habitation	-0.0004925103
-3.828595	share|it	0.006295952
-3.953534	share|love	0.09658501
-3.953534	share|path	0.002291483
-3.953534	share|portion	0.005630409
-3.828595	share|story	0.09624319
-3.953534	share|thing	-0.0003635773
-3.585557	shift|	0.1007585
-3.476413	shine|	0.1083344
-3.731685	shiver|	0.09512599
-3.828595	shock|	0.09487438
-3.731685	shoot|	0.09734467
-3.953534	shoot|time	0.002596265
-3.953534	shout|	0.0006073519
-3.129626	shower|	0.006781355
-2.839591	show|	0.1418724
-3.652504	show|I	0.09431208
-3.953534	show|field	-0.0001378525
-3.953534	show|he	0.0006235141
-3.953534	show|line	-0.0005247375
-3.953534	show|sign	0.09686733
-3.953534	show|skill	0.0002519289
-3.953534	show|we	0.09511586
-3.953534	shroud|	0.09499532
-3.828595	shrug|	0.09542757
-3.527565	shut|	0.1133783
-3.828595	sift|	0.0949354
-3.828595	signal|	-0.0007756837
-3.430655	sign|	0.1145117
-3.953534	sign|I	0.002661186
-3.731685	sing|	0.001232099
-3.828595	sing|song	0.002181757
-3.731685	sink|	0.09987972
-2.269287	sit|	0.2016029
-3.953534	sit|magazine	-0.0005086242
-3.953534	sit|there	0.0001389007
-3.828595	size|	-0.0006466647
-3.527565	skip|	0.1039657
-3.953534	skip|PERSON	0.09512626
-3.953534	skip|it	0.005417907
-3.828595	skip|rock	0.0949354
-3.953534	slant|	0.002369115
-1.944934	sleep|	0.2356296
-3.828595	sleep|NUMBER	0.1008033
-3.953534	sleep|ORGANIZATION	0.09897035
-3.652504	sleep|bag	0.1060088
-3.953534	sleep|bit	0.0008308701
-3.953534	sleep|little	-0.0001032033
-3.953534	sleep|pad	0.004193967
-3.953534	sleep|people	0.0007662216
-3.731685	slide|	0.09604255
-3.953534	slide|mountain	0.003542607
-3.953534	slide|side	-0.0005247375
-3.476413	slip|	0.1021923
-3.953534	slither|	0.01702761
-3.828595	slog|	0.006246785
-3.585557	slow|	0.1169691
-3.953534	slow|car	-0.0005547703
-3.953534	slumber|	7.185421e-05
-3.953534	smash|borderline	0.000233236
-3.430655	smell|	0.1100307
-3.953534	smell|it	-0.0004763957
-3.527565	smile|	0.0132823
-3.828595	snap|	0.09480446
-3.828595	snap|picture	0.09870986
-3.953534	snap|times.	-0.0005247375
-3.953534	snore|	0.1016135
-3.284527	snorkele|	0.1055776
-3.430655	snorkel|	0.1146837
-3.953534	snorkle|	-0.000425799
-3.828595	snow|	0.0971716
-3.731685	snuck|	-0.0003395865
-3.953534	snuff|	0.09515604
-3.828595	snuggle|	6.107218e-05
-3.129626	soak|	0.124719
-3.953534	soak|tho	0.1011244
-3.731685	soar|	0.09469327
-3.953534	sop|	0.0001389007
-3.585557	sort|	0.1200324
-2.899177	sound|	0.1315424
-3.953534	sound|fun	-0.0005247375
-3.953534	sound|lot	-0.0005247375
-3.953534	space|	-0.0002161392
-3.953534	spare|	0.09787713
-3.175383	speak|	0.1374273
-3.953534	speed|	0.004161376
-2.522171	spend|	0.1817728
-3.527565	spend|DATE	0.09485605
-3.015682	spend|DURATION	0.1163251
-3.953534	spend|MONEY	0.09499532
-3.828595	spend|NUMBER	0.09545761
-3.351474	spend|TIME	0.1067822
-3.953534	spend|all	-0.0003635773
-3.953534	spend|alot	-0.0005247375
-3.828595	spend|camping	0.00167898
-3.731685	spend|half	0.1005922
-3.953534	spend|hiking	-0.0003152177
-3.585557	spend|lot	-0.0008750919
-3.652504	spend|most	0.09811676
-3.652504	spend|part	0.005466128
-3.953534	spend|refining	0.0002655195
-3.585557	spend|rest	0.1128777
-3.200207	spend|time	0.1201479
-3.953534	spend|while	0.004161376
-3.953534	spin|	0.09717002
-3.828595	splash|	0.09467345
-3.351474	split|	0.1047932
-3.585557	spoil|	0.1135943
-3.731685	spook|	0.09807324
-3.476413	spot|	0.1300348
-3.953534	spot|PERSON	0.0001066127
-3.953534	spot|hanging	0.00438516
-3.953534	spot|they	0.09499532
-3.953534	spray|tent	-0.0005247375
-3.652504	spread|	0.005887055
-3.953534	spread|tablecloth	-0.0005247375
-3.389263	sprinkle|	0.1022566
-3.953534	sprinkle|rain	-2.494623e-05
-3.953534	squash|	0.003933306
-3.953534	squat|	0.09512626
-3.953534	squeeze|	0.003575152
-3.953534	squirm|	0.0007528361
-3.731685	stack|	0.09553859
-3.953534	staff|	0.004764711
-3.953534	stake|tent	0.001218965
-3.585557	stall|	0.09483508
-2.807406	stand|	0.1376494
-3.316712	stare|	0.004389499
-3.953534	stargaze|	0.1100567
-3.953534	startle|	-0.0003935503
-1.896629	start|	0.2405898
-3.585557	start|CAUSE_OF_DEATH	0.09588379
-3.953534	start|I	0.09512626
-3.953534	start|adventure	0.004960567
-3.828595	start|cooking	0.001079651
-3.953534	start|course	-0.0002806606
-3.953534	start|descent	0.09567878
-3.828595	start|dinner	0.00680433
-3.953534	start|drive	0.1002289
-3.652504	start|hike	0.1058849
-3.953534	start|routine	0.004972221
-3.828595	start|trek	0.009487252
-3.652504	start|trip	0.09649777
-3.953534	start|what	0.00396588
-3.828595	star|	0.1008645
-3.828595	state|	0.09753543
-2.129626	stay|	0.2344175
-3.953534	stay|NUMBER	-0.0005247375
-3.953534	stay|couple	0.0001202622
-3.953534	stay|everything	-0.0005086242
-3.953534	stay|home	0.00068817
-3.953534	stay|most	-0.0003152177
-3.953534	stealth|	-0.0004925103
-3.828595	stealth|camp	0.09544768
-3.828595	steal|food	0.0065364
-3.389263	step|	0.0970792
-3.953534	stew|	-0.0004925103
-2.862454	stick|	0.1353729
-3.828595	stick|it	0.01158141
-3.652504	sting|	0.09462325
-3.953534	sting|PERSON	0.001526453
-3.953534	sting|himself	0.004303687
-3.953534	sting|mouth	-0.0005247375
-3.731685	stink|	0.09798317
-3.953534	stir|	0.09512626
-3.828595	stir|fry	0.09488481
-3.828595	stock|	-0.0002456499
-3.953534	stoke|	0.09547765
-3.953534	stone|	0.09525651
-3.953534	stopped|	-0.0005247375
-2.012354	stop|	0.237137
-3.953534	stop|myself	0.09884875
-3.953534	stop|swimming	-0.0001193387
-3.953534	stop|there	0.09512626
-3.731685	stop|time	0.005160544
-3.731685	stop|we	0.002014238
-3.953534	store|	-0.0001193389
-3.585557	strap|	0.1003502
-3.953534	strap|he	0.0009763652
-3.652504	stress|	0.01295372
-3.389263	stretch|	0.1231128
-3.953534	strew|	0.01151594
-3.585557	strike|	0.09741043
-3.828595	string|	0.002019507
-3.953534	strip|	-0.0006675887
-3.430655	stroll|	0.1131404
-3.389263	struggle|	0.1120925
-3.953534	struggle|hill	-0.0001055966
-3.953534	study|	0.09512626
-3.953534	stuff/cleaned|house	-0.0005247375
-3.476413	stuff|	0.1112925
-3.254564	stumble|	0.1084701
-3.828595	submerge|	0.09897353
-3.953534	subside|	0.00970431
-3.476413	suck|	0.1278864
-3.828595	suffer|	0.09654572
-3.953534	suffer|rest	3.958505e-05
-3.953534	suffice|	-0.0005086242
-3.351474	suggest|	0.09749019
-3.527565	suit|	0.09611762
-3.828595	support|	0.09480446
-2.862454	suppose|	0.1310329
-3.953534	suppose|what	0.09577937
-3.953534	suprise|	-0.0003290455
-3.953534	sure?|MONEY	0.004972221
-3.652504	surface|	0.100679
-3.953534	surge|	-0.0004419226
-3.108436	surprise|	0.1252449
-3.254564	surround|	0.09945894
-3.284527	survive|	0.1228468
-3.953534	suspend|	0.1013893
-3.953534	swallow|	0.09577937
-3.953534	swamp|park	-0.0004925103
-3.953534	swap|empty	0.001429328
-3.828595	swarm|	0.09549786
-3.527565	swear|	0.1053948
-3.953534	swear|word	0.0004592712
-3.527565	sweep|	0.1017953
-3.953534	swell|	-0.0004925103
-3.828595	swerve|	0.1019458
-2.561424	swim|	0.1508619
-3.953534	swim|suit	0.1010225
-3.828595	swing|	0.000791264
-3.953534	swirl|	-0.0001032035
-3.953534	switch|place	-3.865547e-05
-3.953534	t-bone|Ash	-0.0005086242
-3.731685	tackle|	0.09445205
-3.953534	tail|	0.09512626
-2.538561	talk|	0.1671782
-3.953534	talk|some	0.0004431217
-3.953534	tangle|	0.09596051
-3.953534	tan|	0.09511586
-3.953534	tape|	0.09600078
-3.200207	taste|	0.1061186
-3.953534	taste|wine	0.001108669
-3.731685	teach|	-0.0009019519
-3.953534	teach|they	0.09499532
-3.731685	tear|	0.01759138
-3.953534	tear|zebra	0.09512626
-3.953534	teem|	0.002534924
-2.777443	tell|	0.1355812
-2.886587	tell|I	0.1374733
-3.953534	tell|MONEY	0.09533691
-3.731685	tell|PERSON	0.005777508
-3.953534	tell|boy	-0.000570889
-3.828595	tell|everyone	0.001322523
-3.108436	tell|he	0.1154965
-3.175383	tell|she	0.1009822
-3.527565	tell|story	0.1001597
-3.476413	tell|they	0.1025139
-3.828595	tell|this	0.09484463
-2.925505	tell|we	0.1343034
-3.731685	tell|what	0.09946468
-3.953534	tell|ya	0.000281662
-3.032715	tell|you	0.1192003
-3.828595	tempt|	0.09501509
-3.430655	tend|	0.1069342
-3.953534	tent|	0.002940967
-3.953534	terrify|	0.09573913
-3.953534	test-drive|	0.00207724
-3.828595	test|	0.094794
-3.828595	thank|	0.01380136
-3.953534	thank|PERSON	0.001675369
-3.953534	thank|god	0.09512626
-3.953534	thank|goodness	0.004259157
-3.731685	thank|you	0.09630418
-3.652504	that|	0.0967105
-3.476413	that|MONEY	0.1089798
-3.953534	that|s	0.0002196322
-3.652504	there|MONEY	0.09714464
-3.585557	they|MONEY	0.1011952
-1.944934	think|	0.2402323
-3.953534	think|DURATION	-0.0004441649
-3.585557	think|MONEY	0.02148635
-3.953534	think|i	0.002599866
-3.953534	think|nothing	0.002194143
-3.953534	think|we	0.001934679
-3.476413	think|what	0.09552302
-3.585557	think|which	0.09680305
-3.585557	threaten|	0.002498589
-3.953534	threaten|rain	0.003705356
-3.430655	thrill|	0.1059911
-2.999292	throw|	0.1015386
-3.953534	throw|he	0.0008308701
-3.585557	tie|	0.09832309
-3.953534	tinge|rest	0.002291482
-3.953534	tip|	-0.0006031246
-2.968257	tire|	0.1364181
-3.828595	toast|	0.09826402
-3.953534	tolerate|	0.002596265
-3.828595	top|	0.1011091
-3.953534	top|bottle	-0.0005086242
-3.585557	top|it	-0.0007967287
-3.953534	toss|	0.09733155
-3.953534	toss|lure	-0.0004925103
-3.828595	total|	0.01645087
-3.652504	touch|	0.01297848
-3.828595	touch|it	0.09852742
-3.953534	touch|you	0.001141032
-3.953534	tour|mile	0.004776445
-3.953534	tow|boat	0.0007339005
-3.953534	tow|people	0.004776445
-3.953534	tow|sawmill	0.004287393
-3.953534	tow|trailer	0.00644869
-3.953534	track|	0.004471092
-2.797187	trail|	0.1276052
-3.476413	trail|area	0.002288813
-3.731685	trail|bridge	-0.0008741397
-3.731685	trail|everywhere	-0.0008741397
-3.731685	trail|part	0.004546288
-3.731685	trail|trail	-0.000809678
-3.731685	train|	0.09457265
-3.828595	tramatize|little	-0.0008423303
-3.953534	trap|	0.003575152
-2.983497	travel|	0.1217582
-3.828595	tread|	0.09551799
-3.430655	treat|	0.1082186
-3.652504	trek|	0.101373
-3.828595	trickle|	0.09480446
-3.953534	trip|	0.1010021
-3.953534	trust|	0.1002899
-2.172977	try|	0.2009795
-3.953534	try|Waters	0.01151594
-3.476413	try|camping	0.1102352
-3.953534	try|diving	-0.0003935503
-3.652504	try|it	0.1012837
-3.953534	try|pool	-0.0005247375
-3.953534	tube|	-0.0002829747
-3.953534	tumble|pretty	-0.0005247375
-3.953534	tuned|MONEY	0.01151594
-2.215811	turn|	0.1968925
-3.953534	turn|I	0.0001389007
-3.953534	turn|NUMBER	0.09499532
-3.953534	turn|bee	-0.0004763957
-3.953534	turn|road	0.001400023
-3.953534	twist|ankle	0.007022405
-3.389263	understand|	0.10488
-3.953534	understand|LOCATION	-0.0004280486
-3.953534	understand|what	0.1010021
-3.953534	undo|tent	0.005336203
-3.828595	unload|	0.004508588
-3.527565	unpack|	0.1183505
-3.953534	unplug|	0.001655988
-3.953534	unzip|tent	0.00438516
-3.476413	update|	0.108834
-3.953534	update|folk	0.00438516
-3.585557	upload|	0.01028603
-3.953534	upload|lot	0.01151594
-3.828595	upset|	0.09543749
-2.567333	use|	0.1591347
-3.953534	use|NUMBER	0.004145082
-3.953534	use|bag	-0.0005086242
-3.828595	use|bathroom	0.006230398
-3.953534	use|camera	0.1100567
-3.953534	use|equipment	0.09503549
-3.953534	use|facility	0.1011244
-3.430655	use|it	0.09875141
-3.953534	use|restroom	0.09512626
-3.953534	use|rice	-0.0005247375
-3.953534	use|saddlebag	0.0006531093
-3.953534	use|shower	0.09512626
-3.585557	use|they	0.09942082
-3.953534	use|time	0.00136764
-3.953534	use|toilet	0.09503549
-3.953534	use|wood	0.001157214
-3.953534	utilize|ubiquitous	-0.0005247375
-3.953534	vacation|	-0.0004419226
-3.828595	vanish|	9.593985e-05
-3.828595	vary|	0.09492499
-3.430655	venture|	0.101046
-3.953534	verb|	-0.0005247375
-3.585557	view|	0.1108459
-3.175383	visit|	0.1078723
-3.476413	visit|LOCATION	0.1018231
-3.527565	visit|PERSON	0.09927101
-3.953534	visit|he	0.09525651
-3.953534	visit|light	-0.0006514736
-3.953534	visit|lighthouse	0.00151338
-3.828595	visit|site	0.1000381
-3.953534	visit|they	-0.0003474579
-3.953534	visit|waterfall	0.09512626
-3.953534	visit|we	0.006121192
-3.828595	volunteer|	0.09822351
-3.953534	vomit|	0.09507567
-3.527565	wade|	0.09395012
-3.953534	wade|lot	-0.0001354737
-3.953534	wail|	0.002661186
-2.326852	wait|	0.1901721
-3.953534	wait|DURATION	0.002015744
-3.953534	wait|I	2.345134e-05
-3.828595	waken|	-0.0005682816
-2.333745	wake|	0.215268
-3.953534	wake|DURATION	7.185421e-05
-3.389263	wake|I	0.1181201
-3.953534	wake|MONEY	0.003591425
-3.828595	wake|NUMBER	0.005608127
-3.953534	wake|PERSON	0.005614058
-3.731685	wake|TIME	0.09904659
-3.953534	wake|cold	-0.0005086242
-3.953534	wake|gear	0.1010225
-3.828595	wake|he	0.09550803
-3.953534	wake|we	0.09735174
-2.257469	walk|	0.2294247
-3.731685	walk|beach	0.1096751
-3.953534	walk|distance	0.09712965
-3.828595	walk|hill	0.00662387
-3.953534	walk|loop	-0.000170106
-3.828595	walk|mile	0.1007015
-3.731685	walk|path	0.00155305
-3.953534	walk|rain.	0.00207724
-3.731685	walk|road	0.09842912
-3.585557	walk|trail	0.09505647
-3.151902	wander|	0.127433
-3.953534	wander|all	-0.0005247375
-2.00741	want|	0.2410151
-3.953534	want|I	0.0003649865
-3.953534	want|NUMBER	0.004303687
-3.828595	want|PERSON	0.09716088
-3.731685	want|cocoa	0.003975331
-3.953534	want|hiking	-0.0005247375
-3.652504	want|it	0.1030923
-3.953534	want|marshmallow	-0.0003152177
-3.953534	want|money	0.1100567
-3.652504	want|nothing	0.006472097
-3.953534	want|photo	0.1013893
-3.953534	want|time	0.09660517
-3.652504	want|we	0.1062415
-3.731685	want|what	0.009759022
-3.953534	want|you	0.001626767
-3.226536	warm|	0.1208122
-3.585557	warn|	0.1092689
-3.953534	warn|I	0.09499532
-3.953534	warn|we	0.09545754
-3.389263	wash|	0.1043933
-3.828595	wash|clothes	0.003791312
-3.828595	wash|dish	0.1008441
-3.953534	wash|floor	5.571934e-05
-3.953534	wash|hair	0.09503549
-3.953534	wash|hand	0.09535702
-3.828595	wasn|	0.09482455
-3.389263	wasn|MONEY	0.1130112
-3.953534	wasn|home	0.0007662216
-2.912142	wasn|t	0.1135918
-3.953534	waste|	0.0957995
-3.953534	waste|banana	-0.0005086242
-2.839591	watch|	0.1627998
-3.953534	watch|MONEY	0.09745272
-3.828595	watch|boy	0.09725243
-3.731685	watch|episode	0.1034061
-3.953534	watch|experience	0.09499532
-3.953534	watch|half	0.004303687
-3.828595	watch|it	-0.0004069957
-3.351474	watch|movie	0.1081257
-3.953534	watch|playing	0.09571901
-3.828595	watch|rise	0.1005182
-3.953534	watch|roll	-0.0002645311
-3.953534	watch|sun	0.1002086
-3.652504	watch|sunrise	0.008277426
-3.652504	watch|sunset	0.01365452
-3.731685	watch|they	0.09845827
-3.828595	watch|tv	0.1017007
-3.953534	water|weed	-0.0005247375
-3.828595	wave|	0.005248274
-3.284527	wear|	0.1194324
-3.953534	wear|FiveFingers	-0.0004902894
-3.953534	wear|boot	0.09512626
-3.953534	wear|hat	0.09656484
-3.953534	wear|it	0.00224281
-3.953534	wear|pair	0.09686733
-3.953534	wear|you	-0.0004925103
-3.828595	wedge|	0.09628352
-3.953534	week|	-0.0005247375
-3.731685	welcome|	0.007062615
-3.953534	welcome|what	0.004096201
-3.828595	weren|MONEY	0.09740329
-3.351474	weren|t	0.1010063
-3.731685	we|	0.001981752
-2.953534	we|MONEY	0.1136656
-3.828595	we|d	0.1019049
-3.953534	we|need	-0.0003474579
-3.828595	we|re	0.1015374
-3.652504	whine|	0.009195199
-3.953534	whisper|	0.1011244
-3.585557	whistle|	0.1002074
-3.828595	whittle|	0.00247396
-3.953534	who|MONEY	0.0005103894
-3.585557	wind|	0.1001418
-3.953534	wind|road	0.001400022
-3.430655	win|	0.005798425
-3.953534	win|award	0.09505558
-3.953534	win|game	0.09600078
-3.828595	wipe|	0.095357
-3.068928	wish|	0.1299432
-3.828595	wish|I	-0.0008100983
-3.828595	witness|	0.09529664
-2.925505	wonder|	0.138085
-3.652504	won|MONEY	0.09865583
-2.351474	work|	0.1922233
-3.953534	work|MONEY	0.1002086
-3.953534	work|cabin	0.001445514
-3.953534	work|way	0.09531681
-3.953534	work|what	0.00438516
-2.828595	worry|	0.142757
-3.389263	wouldn|MONEY	0.1050247
-3.731685	would|MONEY	0.003340004
-3.389263	wrap|	0.1102834
-3.652504	wreck|	0.09418099
-3.953534	wrestle|bear	0.0001202622
-3.068928	write|	0.145355
-3.953534	write|post	0.09512626
-3.953534	write|this	-0.0001193388
-3.151902	yell|	0.1512301
-3.953534	yep|	0.004145081
-3.953534	yet?|MONEY	-0.0004763957
-3.953534	yet?|crap	0.1002289
-3.828595	you|MONEY	0.008234256
-3.953534	you|front	-0.0005247375
-3.585557	zip|	0.09452344
-3.351474	|	0.1055741
-3.316712	|MONEY	0.1056482
-3.953534	|we	0.09505558

\2-grams:
-2.880814	!!!| <unk>
-3.056905	!!!| put|tent
-3.056905	!!!| serve|
-2.880814	!!!| turn|
-3.056905	!!!| use|
-2.755494	!!| <unk>
-3.056524	!!| depart|
-3.056524	!!| wish|
-3.177825	<s> !!!|
-3.177825	<s> !!|
-1.320493	<s> <unk>
-3.177825	<s> accomplish|
-3.177825	<s> amaze|
-3.177825	<s> anticipate|
-3.177825	<s> arrange|trip
-2.700704	<s> arrive|
-3.001734	<s> ask|name
-3.177825	<s> backpack|
-3.177825	<s> back|
-3.177825	<s> become|
-2.876795	<s> begin|
-3.001734	<s> believe|
-3.177825	<s> believe|it
-3.177825	<s> blogg|
-3.177825	<s> bonk|
-3.001734	<s> book|
-3.177825	<s> bore|
-3.177825	<s> break|camp
-3.001734	<s> bring|in.
-3.177825	<s> buy|
-3.177825	<s> buy|tent
-3.001734	<s> buy|trucker
-3.001734	<s> call|
-2.302764	<s> camp|
-2.779885	<s> camp|DATE
-3.001734	<s> cancel|trip
-3.177825	<s> certify|
-3.177825	<s> change|
-3.177825	<s> check|
-3.177825	<s> clear|
-3.177825	<s> climb|it
-3.177825	<s> close|
-3.177825	<s> compare|
-3.177825	<s> complete|journey
-3.177825	<s> confess|
-3.177825	<s> convince|PERSON
-3.001734	<s> cook|
-3.177825	<s> couldn|MONEY
-3.177825	<s> crawl|
-3.177825	<s> cross|
-3.177825	<s> cross|LOCATION
-3.177825	<s> cross|highway
-3.177825	<s> cruise|
-3.177825	<s> cut|
-3.177825	<s> deal|
-2.177825	<s> decide|
-3.177825	<s> depart|
-3.177825	<s> describe|it
-3.177825	<s> didnt|
-2.876795	<s> didn|MONEY
-3.177825	<s> discover|
-2.478855	<s> dive|
-3.177825	<s> do.|
-3.001734	<s> don|
-3.001734	<s> dot|
-3.177825	<s> drag|
-2.248406	<s> drive|
-3.177825	<s> drive|mile
-2.876795	<s> eat|
-3.001734	<s> eat|PERSON
-3.001734	<s> eat|ton
-2.876795	<s> end|
-3.177825	<s> enjoy|it
-3.177825	<s> enter|
-3.177825	<s> envelop|we
-2.779885	<s> excite|
-3.177825	<s> explain|
-3.177825	<s> explore|area
-3.177825	<s> face|
-3.177825	<s> face|beach
-2.633757	<s> feel|
-3.177825	<s> feel|it
-3.177825	<s> feel|kind
-3.177825	<s> feel|need
-3.001734	<s> fight|
-3.001734	<s> figure|
-3.177825	<s> fill|
-2.779885	<s> find|
-3.001734	<s> find|campground
-3.177825	<s> find|we
-3.001734	<s> finish|
-2.876795	<s> fly|
-3.177825	<s> follow|
-3.177825	<s> follow|trail
-3.177825	<s> forget|
-3.177825	<s> frustrate|
-3.177825	<s> gaze|
-3.001734	<s> give|
-3.177825	<s> give|NUMBER
-3.177825	<s> give|PERSON
-3.177825	<s> give|it
-3.177825	<s> gon|
-3.001734	<s> grab|
-3.177825	<s> greet|
-3.001734	<s> guess|
-2.876795	<s> hang|
-2.700704	<s> head|
-2.779885	<s> hear|
-3.001734	<s> hear|name
-2.779885	<s> help|
-3.001734	<s> here|MONEY
-3.001734	<s> here|fact
-3.177825	<s> highlight|
-2.437462	<s> hike|
-3.177825	<s> hike|LOCATION
-3.177825	<s> hike|NUMBER
-3.177825	<s> hit|mountain
-3.177825	<s> hold|
-2.876795	<s> hope|
-3.177825	<s> hover|
-3.177825	<s> imagine|
-3.177825	<s> improve|
-3.177825	<s> include|
-3.001734	<s> intend|
-3.001734	<s> introduce|camping
-3.177825	<s> invite|
-3.177825	<s> invite|I
-2.876795	<s> it|MONEY
-3.177825	<s> it|s
-2.779885	<s> join|
-3.177825	<s> jump|
-2.478855	<s> know|
-3.177825	<s> learn|
-2.478855	<s> leave|
-3.001734	<s> leave|DATE
-3.001734	<s> leave|LOCATION
-3.177825	<s> leave|MISC
-3.177825	<s> leave|PERSON
-3.001734	<s> leave|TIME
-3.177825	<s> leave|house
-2.876795	<s> let|
-3.001734	<s> like|
-2.876795	<s> live|
-2.437462	<s> look|
-3.177825	<s> lose|
-3.177825	<s> love|
-3.177825	<s> love|Ganges
-3.001734	<s> love|Park
-3.177825	<s> love|it
-2.779885	<s> marry|
-3.177825	<s> mean|
-2.779885	<s> meet|
-3.001734	<s> melt|chocolate
-3.001734	<s> mention|
-3.001734	<s> mind|
-3.177825	<s> mis-spell|it
-3.001734	<s> move|
-3.001734	<s> mumble|
-2.779885	<s> need|
-3.001734	<s> need|blanket
-3.001734	<s> offer|
-3.177825	<s> organise|
-3.177825	<s> organize|
-3.177825	<s> overflow|
-3.001734	<s> pack|
-3.001734	<s> pack|all
-3.177825	<s> pack|bag
-3.001734	<s> pack|gear
-3.001734	<s> pay|
-3.001734	<s> pick|I
-2.876795	<s> pick|PERSON
-3.001734	<s> plague|
-3.001734	<s> plan|
-2.700704	<s> plan|trip
-3.177825	<s> plan|what
-3.177825	<s> play|
-3.001734	<s> play|card
-3.001734	<s> please|
-3.177825	<s> pop|
-2.876795	<s> post|
-3.177825	<s> pour|
-3.177825	<s> practice|skill
-2.876795	<s> prepare|
-3.001734	<s> publish|
-3.177825	<s> pull|
-3.177825	<s> put|root
-2.633757	<s> rain|
-3.177825	<s> rate|
-3.177825	<s> read|this
-3.177825	<s> realize|
-2.876795	<s> recover|
-3.001734	<s> relax|
-3.177825	<s> remember|
-3.177825	<s> remind|I
-3.001734	<s> report|
-3.001734	<s> rest|
-2.478855	<s> return|
-3.177825	<s> rock|
-3.001734	<s> run|
-3.177825	<s> scan|
-3.177825	<s> scop|site
-3.177825	<s> scop|view
-2.524612	<s> seem|
-3.001734	<s> set|
-3.001734	<s> set|b
-3.177825	<s> set|camp
-3.177825	<s> set|site
-3.001734	<s> set|trip
-3.001734	<s> share|thing
-3.177825	<s> shift|
-3.177825	<s> shine|
-3.001734	<s> sign|
-3.001734	<s> sign|I
-3.177825	<s> sink|
-3.001734	<s> sit|
-2.700704	<s> sleep|
-3.177825	<s> smile|
-3.001734	<s> snap|times.
-3.177825	<s> snorkele|
-3.001734	<s> speak|
-2.700704	<s> spend|
-3.001734	<s> spend|DURATION
-3.177825	<s> spend|MONEY
-3.177825	<s> spend|TIME
-3.177825	<s> spend|camping
-3.177825	<s> spend|most
-3.001734	<s> spend|time
-2.332727	<s> start|
-3.177825	<s> start|I
-2.876795	<s> start|trip
-3.177825	<s> state|
-2.876795	<s> stay|
-3.001734	<s> stop|
-3.177825	<s> strap|
-3.001734	<s> stroll|
-3.177825	<s> suit|
-2.779885	<s> suppose|
-3.177825	<s> surprise|
-3.177825	<s> survive|
-2.876795	<s> swim|
-3.177825	<s> swing|
-3.177825	<s> talk|
-3.001734	<s> tell|
-3.177825	<s> tell|I
-3.177825	<s> tell|you
-3.177825	<s> that|MONEY
-2.364912	<s> think|
-3.177825	<s> think|which
-3.177825	<s> threaten|
-2.779885	<s> tire|
-3.177825	<s> top|
-3.177825	<s> tow|trailer
-3.001734	<s> trail|
-3.177825	<s> train|
-2.876795	<s> try|
-3.177825	<s> try|diving
-2.876795	<s> turn|
-2.876795	<s> update|
-2.779885	<s> upload|
-2.876795	<s> use|
-3.001734	<s> use|it
-3.177825	<s> use|time
-3.177825	<s> vary|
-3.177825	<s> visit|LOCATION
-2.876795	<s> wait|
-2.876795	<s> wake|
-2.779885	<s> walk|
-3.177825	<s> walk|trail
-2.575765	<s> want|
-3.177825	<s> warm|
-3.177825	<s> warn|
-3.177825	<s> watch|tv
-3.177825	<s> weren|t
-3.177825	<s> we|
-3.001734	<s> we|MONEY
-2.700704	<s> work|
-2.700704	<s> write|
-3.177825	<s> write|post
-3.177825	<s> write|this
-3.001734	<s> yell|
-3.001734	<s> |MONEY
-3.579955	<unk> !!|
-1.623306	<unk> </s>
-0.7020081	<unk> <unk>
-3.579955	<unk> abandon|
-3.403864	<unk> abound|
-3.579955	<unk> accept|
-3.403864	<unk> accomplish|
-3.278925	<unk> accord|
-3.579955	<unk> account|
-3.403864	<unk> achieve|
-3.403864	<unk> add|
-3.403864	<unk> add|half
-3.403864	<unk> add|water
-3.403864	<unk> adjust|
-3.579955	<unk> admire|star
-3.579955	<unk> admit|
-3.579955	<unk> advise|
-2.926743	<unk> agree|
-3.403864	<unk> aim|
-3.278925	<unk> allow|
-3.403864	<unk> allow|I
-3.403864	<unk> allow|we
-3.579955	<unk> alternate|
-3.403864	<unk> amaze|
-3.579955	<unk> announce|
-3.579955	<unk> anticipate|
-3.403864	<unk> appeal|
-3.102834	<unk> appear|
-3.579955	<unk> appoint|
-3.403864	<unk> appreciate|
-3.403864	<unk> approach|
-3.403864	<unk> aren|t
-3.403864	<unk> arise|
-3.403864	<unk> arrange|
-2.466012	<unk> arrive|
-3.403864	<unk> ascend|
-3.035887	<unk> ask|
-3.182015	<unk> ask|I
-3.579955	<unk> ask|PERSON
-3.579955	<unk> ask|kid
-3.579955	<unk> ask|question
-3.403864	<unk> ask|we
-3.579955	<unk> associate|
-3.278925	<unk> assume|
-3.579955	<unk> attack|we
-3.579955	<unk> attempt|
-3.579955	<unk> avoid|
-3.403864	<unk> backtrack|
-3.403864	<unk> back|
-3.579955	<unk> bark|
-3.278925	<unk> base|
-3.403864	<unk> beam|
-3.403864	<unk> bear|
-3.403864	<unk> bear|you
-3.035887	<unk> become|
-2.801804	<unk> begin|
-3.579955	<unk> beg|
-3.579955	<unk> behave|
-3.278925	<unk> believe|
-3.579955	<unk> believe|it
-3.403864	<unk> belong|
-3.403864	<unk> bet|
-3.403864	<unk> bind|
-3.102834	<unk> bite|
-3.579955	<unk> blast|
-3.403864	<unk> bleed|
-3.403864	<unk> blend|
-3.579955	<unk> bless|
-3.403864	<unk> bless|you
-3.579955	<unk> bloom|
-2.977895	<unk> blow|
-3.579955	<unk> blow|it
-3.403864	<unk> bob|
-3.579955	<unk> boil|
-3.579955	<unk> boil|water
-3.403864	<unk> book|
-3.579955	<unk> book|room
-3.403864	<unk> border|
-3.278925	<unk> bore|
-3.579955	<unk> borrow|
-3.403864	<unk> bother|I
-3.579955	<unk> bounce|
-3.579955	<unk> breakfast.|
-3.182015	<unk> break|
-3.403864	<unk> break|camp
-3.579955	<unk> break|it
-3.579955	<unk> break|rule
-3.278925	<unk> breathe|
-2.767042	<unk> bring|
-3.579955	<unk> bring|I
-3.579955	<unk> bring|car
-3.579955	<unk> bring|water
-3.403864	<unk> bring|we
-3.579955	<unk> buck|MONEY
-2.977895	<unk> build|
-3.182015	<unk> build|CAUSE_OF_DEATH
-3.579955	<unk> build|campfire
-3.403864	<unk> bump|
-3.579955	<unk> bundle|
-3.278925	<unk> burn|
-3.579955	<unk> bury|
-3.102834	<unk> buy|
-3.579955	<unk> buy|backpack
-3.403864	<unk> buy|bottle
-3.579955	<unk> buy|camera
-3.579955	<unk> buy|couple
-3.579955	<unk> buy|food
-3.579955	<unk> buy|tent
-3.579955	<unk> buy|ticket
-3.579955	<unk> buzz|
-2.704894	<unk> call|
-3.579955	<unk> call|I
-3.278925	<unk> call|LOCATION
-3.403864	<unk> call|MISC
-3.579955	<unk> call|NUMBER
-3.579955	<unk> call|PERSON
-3.403864	<unk> call|he
-3.403864	<unk> call|it
-3.579955	<unk> call|trip
-3.403864	<unk> call|we
-3.579955	<unk> call|what
-3.579955	<unk> calm|
-2.767042	<unk> camp|
-3.579955	<unk> camp|gear
-3.579955	<unk> canoe|
-3.579955	<unk> can|MONEY
-3.182015	<unk> care|
-3.278925	<unk> carry|
-3.579955	<unk> carry|I
-3.579955	<unk> carry|it
-3.579955	<unk> carry|toy
-3.579955	<unk> carry|water
-3.403864	<unk> cast|
-3.579955	<unk> catch|
-3.403864	<unk> catch|fish
-3.579955	<unk> catch|view
-3.102834	<unk> cause|
-3.579955	<unk> cause|plan
-3.579955	<unk> cease|
-3.403864	<unk> celebrate|
-3.579955	<unk> certify|
-2.926743	<unk> change|
-3.579955	<unk> change|plan
-3.579955	<unk> change|thing
-3.403864	<unk> charter|PERSON
-3.278925	<unk> chat|
-2.801804	<unk> check|
-3.579955	<unk> check|LOCATION
-3.579955	<unk> check|PERSON
-3.579955	<unk> check|bag
-3.579955	<unk> check|it
-3.579955	<unk> check|kid
-3.579955	<unk> check|place
-3.579955	<unk> check|time
-3.278925	<unk> cherish|
-3.579955	<unk> chill|
-3.278925	<unk> choose|
-3.403864	<unk> circle|
-3.035887	<unk> clean|
-3.403864	<unk> clean|it
-3.182015	<unk> clear|
-3.579955	<unk> clear|it
-3.579955	<unk> click|
-2.704894	<unk> climb|
-3.579955	<unk> climb|mountain
-3.579955	<unk> climb|rock
-3.579955	<unk> climb|tower
-3.579955	<unk> climb|tree
-2.839592	<unk> close|
-3.579955	<unk> close|it
-3.579955	<unk> cloud|
-3.403864	<unk> coat|
-3.278925	<unk> collapse|
-3.579955	<unk> comment|
-3.579955	<unk> compare|
-3.579955	<unk> compel|I
-3.278925	<unk> complain|
-3.403864	<unk> complete|hike
-3.579955	<unk> complete|journey
-3.579955	<unk> compliment|
-3.579955	<unk> concentrate|
-3.579955	<unk> concern|
-3.579955	<unk> confess|
-3.579955	<unk> connect|
-3.182015	<unk> consider|
-3.403864	<unk> consist|
-3.403864	<unk> construct|
-3.403864	<unk> contain|
-3.579955	<unk> contemplate|horror
-3.403864	<unk> contend|
-2.734857	<unk> continue|
-3.579955	<unk> control|
-3.579955	<unk> convince|
-3.579955	<unk> convince|PERSON
-3.182015	<unk> cook|
-3.403864	<unk> cook|dinner
-3.182015	<unk> couldn|MONEY
-3.403864	<unk> couldn|drive
-3.403864	<unk> count|
-3.102834	<unk> cover|
-3.403864	<unk> cover|myself
-3.579955	<unk> co|
-3.403864	<unk> crap|
-3.278925	<unk> crash|
-3.278925	<unk> crawl|
-3.403864	<unk> creak|
-3.278925	<unk> create|
-3.579955	<unk> creep|
-3.278925	<unk> cross|
-3.579955	<unk> cross|LOCATION
-3.579955	<unk> cross|border
-3.579955	<unk> cross|bridge
-3.403864	<unk> cross|river
-3.403864	<unk> crowd|
-3.278925	<unk> cry|
-3.579955	<unk> cuddle|
-3.102834	<unk> cut|
-3.579955	<unk> dance|
-3.102834	<unk> deal|
-2.095655	<unk> decide|
-3.579955	<unk> decide|campsite
-3.403864	<unk> declare|
-3.579955	<unk> deepen|
-3.403864	<unk> delay|
-3.579955	<unk> depress|
-3.278925	<unk> descend|
-3.579955	<unk> describe|
-3.403864	<unk> desert|
-3.579955	<unk> design|
-3.579955	<unk> desire|
-3.278925	<unk> determine|
-3.403864	<unk> did.|
-3.579955	<unk> didnt|
-2.538562	<unk> didn|MONEY
-3.579955	<unk> didn|look
-3.579955	<unk> didn|show
-3.579955	<unk> didn|sleep
-3.579955	<unk> didn|t
-3.403864	<unk> didn|take
-3.579955	<unk> didn|wake
-3.278925	<unk> die|
-3.403864	<unk> digress|
-3.579955	<unk> direct|I
-3.579955	<unk> direct|she
-3.579955	<unk> disappear|
-3.182015	<unk> discover|
-3.403864	<unk> distract|
-2.977895	<unk> dive|
-3.278925	<unk> do.|
-3.579955	<unk> document|
-3.403864	<unk> doesn|MONEY
-3.579955	<unk> doesn|work
-2.801804	<unk> don|MONEY
-3.403864	<unk> don|t
-3.579955	<unk> don|think
-3.579955	<unk> drag|
-3.579955	<unk> drain|lot
-3.403864	<unk> draw|
-3.403864	<unk> dream|
-3.579955	<unk> dream|DURATION
-3.102834	<unk> dress|
-3.403864	<unk> drift|
-3.278925	<unk> drink|
-3.579955	<unk> drink|beer
-3.579955	<unk> drip|
-2.132797	<unk> drive|
-3.579955	<unk> drive|DURATION
-3.579955	<unk> drive|Hwy
-3.579955	<unk> drive|NUMBER
-3.579955	<unk> drive|butte
-3.403864	<unk> drive|grab
-3.403864	<unk> drive|home
-3.579955	<unk> drive|mile
-3.403864	<unk> drive|solo
-3.403864	<unk> drive|we
-2.977895	<unk> drop|
-3.579955	<unk> drop|pack
-3.579955	<unk> drop|parent
-3.579955	<unk> drown|
-3.403864	<unk> drum|
-3.035887	<unk> dry|
-3.403864	<unk> duck|
-3.403864	<unk> dump|
-2.483045	<unk> eat|
-3.403864	<unk> eat|breakfast
-3.403864	<unk> eat|chicken
-3.579955	<unk> eat|food
-3.579955	<unk> eat|it
-3.278925	<unk> eat|lunch
-3.579955	<unk> eat|supper
-3.579955	<unk> edit|
-3.579955	<unk> edward|
-3.579955	<unk> embark|
-2.538562	<unk> end|
-3.579955	<unk> end|trip
-2.767042	<unk> enjoy|
-3.579955	<unk> enjoy|dinner
-3.579955	<unk> enjoy|diving
-3.579955	<unk> enjoy|drive
-3.579955	<unk> enjoy|it
-3.579955	<unk> enjoy|lot
-3.403864	<unk> enjoy|ourselves
-3.403864	<unk> enjoy|road
-3.579955	<unk> enjoy|scenery
-3.579955	<unk> enjoy|trip
-3.579955	<unk> enjoy|view
-3.403864	<unk> enjoy|visibility
-3.579955	<unk> enjoy|water
-3.579955	<unk> enjoy|weather
-3.579955	<unk> ensue|
-3.579955	<unk> entertain|cop
-3.182015	<unk> enter|
-3.579955	<unk> equalize|
-3.579955	<unk> erode|
-3.579955	<unk> escape|
-3.403864	<unk> estimate|
-3.278925	<unk> excite|
-2.839592	<unk> exhaust|
-3.278925	<unk> expect|
-3.579955	<unk> expect|it
-3.579955	<unk> expect|they
-3.403864	<unk> experience|
-3.403864	<unk> experience|what
-3.579955	<unk> explain|
-3.579955	<unk> explode|
-3.278925	<unk> explore|
-3.403864	<unk> explore|LOCATION
-3.579955	<unk> explore|area
-3.579955	<unk> explore|trail
-3.579955	<unk> face|
-3.403864	<unk> fail|
-2.650536	<unk> fall|
-3.579955	<unk> fascinate|
-3.579955	<unk> feast|
-3.579955	<unk> feed|
-3.579955	<unk> feed|duck
-2.190789	<unk> feel|
-3.403864	<unk> feel|it
-3.579955	<unk> feel|kind
-3.579955	<unk> feel|lot
-3.579955	<unk> fight|
-3.102834	<unk> figure|
-2.926743	<unk> fill|
-3.403864	<unk> fill|tank
-3.579955	<unk> film|
-3.579955	<unk> filter|water
-2.418587	<unk> find|
-3.579955	<unk> find|DATE
-3.403864	<unk> find|MISC
-3.579955	<unk> find|Motel
-3.278925	<unk> find|NUMBER
-3.579955	<unk> find|PERSON
-3.579955	<unk> find|campsite
-3.579955	<unk> find|he
-3.579955	<unk> find|hotel
-3.403864	<unk> find|it
-3.278925	<unk> find|myself
-3.579955	<unk> find|nemo
-3.182015	<unk> find|place
-3.579955	<unk> find|quartz
-3.579955	<unk> find|site
-3.403864	<unk> find|spot
-3.579955	<unk> find|tell
-3.579955	<unk> find|they
-3.579955	<unk> find|trailhead
-3.579955	<unk> find|tree
-3.403864	<unk> find|way
-3.579955	<unk> find|we
-2.926743	<unk> finish|
-3.579955	<unk> finish|dive
-3.579955	<unk> fish|
-3.579955	<unk> fit|
-3.579955	<unk> fit|I
-3.102834	<unk> float|
-3.579955	<unk> flounder|
-3.579955	<unk> flow|
-3.403864	<unk> flush|
-2.977895	<unk> fly|
-3.579955	<unk> focus|
-3.579955	<unk> fold|it
-2.767042	<unk> follow|
-3.579955	<unk> forage|
-3.403864	<unk> forbid|
-3.403864	<unk> force|
-2.977895	<unk> forget|
-3.403864	<unk> forget|name
-3.403864	<unk> freeze|
-3.579955	<unk> fry|steak
-3.579955	<unk> fuck|
-3.579955	<unk> fuel|
-3.403864	<unk> gasp|
-3.579955	<unk> gather|
-3.579955	<unk> gaze|
-3.579955	<unk> gear|
-3.403864	<unk> giggle|
-2.880985	<unk> give|
-3.579955	<unk> give|DURATION
-3.035887	<unk> give|I
-3.579955	<unk> give|NUMBER
-3.403864	<unk> give|PERSON
-3.579955	<unk> give|he
-3.403864	<unk> give|it
-3.579955	<unk> give|she
-3.579955	<unk> give|time
-3.579955	<unk> give|tour
-3.403864	<unk> give|view
-3.035887	<unk> give|we
-3.403864	<unk> give|you
-3.579955	<unk> glare|
-3.403864	<unk> glaze|
-3.579955	<unk> gobble|they
-3.278925	<unk> gon|
-3.403864	<unk> graze|
-3.403864	<unk> greet|
-3.102834	<unk> grow|
-3.579955	<unk> guard|campsite
-3.035887	<unk> guess|
-3.579955	<unk> guess|it
-3.579955	<unk> guide|
-3.579955	<unk> hadn|MONEY
-3.403864	<unk> hadn|t
-3.579955	<unk> hail|
-3.579955	<unk> handle|
-3.579955	<unk> handle|it
-3.579955	<unk> handle|trip
-3.579955	<unk> hand|
-3.579955	<unk> hand|we
-2.676865	<unk> hang|
-3.403864	<unk> hang|tarp
-2.579955	<unk> happen|
-3.278925	<unk> hate|
-3.579955	<unk> haul|
-3.579955	<unk> haven|MONEY
-2.035887	<unk> head|
-3.579955	<unk> head|NUMBER
-3.579955	<unk> head|PERSON
-3.403864	<unk> head|home
-2.880985	<unk> hear|
-3.579955	<unk> hear|comment
-3.579955	<unk> hear|lot
-3.403864	<unk> hear|thunder
-2.650536	<unk> help|
-3.278925	<unk> help|I
-3.579955	<unk> hesitate|
-3.403864	<unk> he|MONEY
-3.579955	<unk> hide|
-3.579955	<unk> highlight|
-2.182015	<unk> hike|
-3.579955	<unk> hike|PERSON
-3.579955	<unk> hike|it
-3.403864	<unk> hike|mile
-3.182015	<unk> hike|trail
-3.403864	<unk> hit|
-3.403864	<unk> hit|PERSON
-3.403864	<unk> hit|road
-3.579955	<unk> hit|tent
-3.579955	<unk> hit|town
-3.579955	<unk> hit|traffic
-3.579955	<unk> hit|trail
-3.579955	<unk> hit|water
-3.579955	<unk> hit|you
-2.880985	<unk> hold|
-3.579955	<unk> hold|tent
-3.403864	<unk> hook|
-2.676865	<unk> hope|
-3.403864	<unk> hop|
-3.579955	<unk> hover|
-3.579955	<unk> huh|
-3.579955	<unk> hunt|
-3.278925	<unk> hurt|
-3.403864	<unk> hydrate|
-3.579955	<unk> hypermile|
-3.403864	<unk> identify|
-3.102834	<unk> imagine|
-3.579955	<unk> impress|
-2.734857	<unk> include|
-3.403864	<unk> include|ride
-3.579955	<unk> inform|
-3.579955	<unk> injure|
-3.182015	<unk> insist|
-3.579955	<unk> intend|
-3.579955	<unk> internett|
-3.579955	<unk> invite|
-3.579955	<unk> invite|I
-3.579955	<unk> invite|family
-3.403864	<unk> involve|
-3.403864	<unk> isn|t
-3.579955	<unk> isolate|
-2.801804	<unk> it|MONEY
-3.403864	<unk> it|s
-3.579955	<unk> i|MONEY
-3.579955	<unk> jog|
-3.102834	<unk> join|
-3.579955	<unk> join|I
-3.579955	<unk> join|they
-3.403864	<unk> join|we
-3.579955	<unk> joke|
-3.579955	<unk> journey|
-3.579955	<unk> jumble|
-3.035887	<unk> jump|
-3.403864	<unk> kayake|
-2.483045	<unk> keep|
-3.403864	<unk> keep|PERSON
-3.579955	<unk> keep|cool
-3.579955	<unk> keep|eye
-3.579955	<unk> keep|he
-3.579955	<unk> keep|head
-3.579955	<unk> keep|journal
-3.579955	<unk> keep|pace
-3.579955	<unk> keep|she
-3.579955	<unk> keep|thing
-3.403864	<unk> keep|we
-3.278925	<unk> kick|
-3.579955	<unk> kid|
-3.579955	<unk> kill|I
-3.403864	<unk> kinda|
-3.579955	<unk> kit|
-3.278925	<unk> knit|
-3.579955	<unk> knock|
-2.173415	<unk> know|
-3.579955	<unk> know|anyone
-3.278925	<unk> know|it
-3.579955	<unk> lack|
-3.579955	<unk> lament|fact
-3.278925	<unk> land|
-3.579955	<unk> lash|
-3.403864	<unk> laugh|
-3.403864	<unk> launch|
-3.035887	<unk> lay|
-3.182015	<unk> lead|
-3.278925	<unk> lead|we
-3.278925	<unk> leak|
-3.278925	<unk> learn|
-3.403864	<unk> learn|all
-3.403864	<unk> learn|technique
-3.579955	<unk> learn|thing
-3.579955	<unk> learn|what
-2.324682	<unk> leave|
-3.278925	<unk> leave|LOCATION
-3.579955	<unk> leave|MONEY
-3.579955	<unk> leave|PERSON
-3.403864	<unk> leave|backpack
-3.579955	<unk> leave|camp
-3.579955	<unk> leave|campground
-3.278925	<unk> leave|it
-3.579955	<unk> leave|park
-3.579955	<unk> leave|work
-3.579955	<unk> leave|you
-2.676865	<unk> let|
-3.579955	<unk> let|MONEY
-3.403864	<unk> lie|
-3.403864	<unk> light|
-3.403864	<unk> light|lantern
-2.767042	<unk> like|
-3.579955	<unk> like|MONEY
-3.579955	<unk> like|camping
-3.579955	<unk> limit|
-3.579955	<unk> line|
-3.403864	<unk> listen|
-2.880985	<unk> live|
-3.182015	<unk> load|
-3.579955	<unk> load|car
-3.579955	<unk> lodge|
-3.579955	<unk> log|
-3.579955	<unk> london|
-2.074805	<unk> look|
-3.579955	<unk> look|foward
-3.579955	<unk> look|it
-3.579955	<unk> loom|
-3.102834	<unk> lose|
-3.579955	<unk> lose|MONEY
-3.403864	<unk> lose|life
-3.579955	<unk> lose|lunch
-3.579955	<unk> lose|weight
-2.650536	<unk> love|
-3.403864	<unk> love|MONEY
-3.403864	<unk> love|SET
-3.579955	<unk> love|camping
-3.403864	<unk> love|diving
-3.403864	<unk> love|it
-3.579955	<unk> luck|
-2.734857	<unk> manage|
-3.579955	<unk> manage|success
-3.579955	<unk> mark|
-3.579955	<unk> marry|
-3.579955	<unk> match|
-3.035887	<unk> mean|
-3.579955	<unk> mean|what
-2.926743	<unk> meet|
-3.579955	<unk> meet|I
-3.579955	<unk> meet|LOCATION
-3.278925	<unk> meet|PERSON
-3.579955	<unk> meet|objective
-3.579955	<unk> meet|people
-3.579955	<unk> meet|they
-3.579955	<unk> meet|we
-3.278925	<unk> melt|
-3.579955	<unk> mend|
-2.880985	<unk> mention|
-3.579955	<unk> mind|
-3.182015	<unk> miss|
-3.579955	<unk> miss|PERSON
-3.579955	<unk> motor|
-3.579955	<unk> mount|
-3.579955	<unk> mount|expedition
-2.734857	<unk> move|
-3.403864	<unk> move|tent
-3.579955	<unk> mow|
-3.579955	<unk> mumble|
-3.403864	<unk> murder|PERSON
-3.579955	<unk> mystify|
-3.278925	<unk> name|
-3.579955	<unk> nap|
-3.579955	<unk> navigate|
-2.500774	<unk> need|
-3.579955	<unk> need|MONEY
-3.579955	<unk> need|it
-3.403864	<unk> need|they
-3.403864	<unk> nestle|
-3.278925	<unk> note|
-3.035887	<unk> notice|
-3.579955	<unk> obsess|
-3.403864	<unk> obtain|
-3.579955	<unk> occur|
-3.403864	<unk> offer|
-3.579955	<unk> offer|which
-3.278925	<unk> open|
-3.579955	<unk> open|tent
-3.403864	<unk> operate|
-3.278925	<unk> opt|
-3.278925	<unk> organize|
-3.579955	<unk> originate|
-3.579955	<unk> overcome|
-3.403864	<unk> overlook|
-3.403864	<unk> overlook|lake
-3.579955	<unk> own|
-2.734857	<unk> pack|
-3.278925	<unk> pack|camp
-3.579955	<unk> pack|car
-3.403864	<unk> pack|everything
-3.403864	<unk> pack|gear
-3.579955	<unk> pack|it
-3.579955	<unk> pack|tent
-3.579955	<unk> pack|thing
-3.403864	<unk> paddle|
-3.579955	<unk> panic|
-3.579955	<unk> pant|
-3.278925	<unk> park|
-3.403864	<unk> park|car
-3.579955	<unk> participate|
-3.403864	<unk> part|way
-2.676865	<unk> pass|
-3.579955	<unk> pass|it
-3.579955	<unk> pave|
-3.278925	<unk> pay|
-3.579955	<unk> pay|attention
-3.579955	<unk> peer|
-3.278925	<unk> pee|
-3.579955	<unk> persevere|
-3.102834	<unk> pick|
-3.579955	<unk> pick|I
-3.579955	<unk> pick|NUMBER
-3.579955	<unk> pick|berry
-3.403864	<unk> pick|it
-3.579955	<unk> pick|some
-3.579955	<unk> pick|spot
-3.579955	<unk> pick|they
-3.579955	<unk> pick|thing
-3.579955	<unk> pile|
-3.579955	<unk> pipe|
-3.403864	<unk> piss|
-3.278925	<unk> pitch|tent
-3.278925	<unk> place|
-2.767042	<unk> plan|
-3.579955	<unk> plan|trip
-2.676865	<unk> play|
-3.579955	<unk> play|NUMBER
-3.579955	<unk> play|card
-3.579955	<unk> play|chicken
-3.182015	<unk> play|game
-3.579955	<unk> play|guitar
-3.579955	<unk> play|it
-3.579955	<unk> play|music
-3.579955	<unk> play|tag
-3.102834	<unk> please|
-3.579955	<unk> plow|
-3.182015	<unk> point|
-3.403864	<unk> poke|
-3.403864	<unk> pop|
-3.278925	<unk> post|
-3.579955	<unk> pound|
-3.579955	<unk> pound|lot
-3.102834	<unk> pour|
-3.278925	<unk> pour|rain
-3.579955	<unk> practice|
-3.579955	<unk> pray|
-3.579955	<unk> predict|
-3.579955	<unk> prefer|MISC
-3.278925	<unk> prepare|
-3.579955	<unk> prepare|PERSON
-3.579955	<unk> press|
-3.278925	<unk> pretend|
-3.579955	<unk> promise|
-3.579955	<unk> prop|plane
-3.579955	<unk> protect|
-3.579955	<unk> protect|we
-3.278925	<unk> prove|
-3.579955	<unk> provide|
-3.579955	<unk> provide|we
-2.579955	<unk> pull|
-3.579955	<unk> pull|PERSON
-3.579955	<unk> pull|it
-3.403864	<unk> pump|gas
-3.579955	<unk> purchase|
-3.579955	<unk> push|
-3.403864	<unk> push|NUMBER
-2.880985	<unk> put|
-3.579955	<unk> put|I
-3.579955	<unk> put|foot
-3.579955	<unk> put|he
-3.278925	<unk> put|it
-3.579955	<unk> put|kid
-3.579955	<unk> put|smile
-3.579955	<unk> put|team
-3.278925	<unk> put|tent
-3.579955	<unk> put|top
-3.403864	<unk> put|we
-3.579955	<unk> put|you
-3.579955	<unk> raft|
-3.579955	<unk> rage|
-2.676865	<unk> rain|
-3.579955	<unk> raise|
-3.579955	<unk> ramble|
-3.579955	<unk> rave|horn
-3.182015	<unk> reach|
-3.278925	<unk> reach|LOCATION
-3.579955	<unk> reach|NUMBER
-3.403864	<unk> reach|PERSON
-3.579955	<unk> reach|goal
-3.579955	<unk> reach|top
-3.278925	<unk> read|
-3.579955	<unk> read|Bible
-3.579955	<unk> read|blog
-3.579955	<unk> read|this
-2.801804	<unk> realize|
-3.579955	<unk> receive|
-3.579955	<unk> recognise|
-3.278925	<unk> recommend|
-3.579955	<unk> recommend|LOCATION
-3.278925	<unk> recover|
-3.579955	<unk> reduce|
-3.579955	<unk> reflect|
-3.579955	<unk> refresh|
-3.579955	<unk> refuse|
-3.035887	<unk> relax|
-3.579955	<unk> relax|bit
-3.403864	<unk> remain|
-2.926743	<unk> remember|
-3.579955	<unk> remember|it
-3.403864	<unk> remember|name
-3.579955	<unk> remember|what
-3.579955	<unk> remind|I
-3.403864	<unk> remove|they
-3.403864	<unk> rent|
-3.579955	<unk> replicate|they
-3.403864	<unk> reply|
-3.579955	<unk> report|
-3.278925	<unk> require|
-3.579955	<unk> reserve|
-3.579955	<unk> resist|
-3.403864	<unk> resist|opportunity
-3.579955	<unk> respond|
-3.403864	<unk> rest|
-3.579955	<unk> resume|
-3.579955	<unk> retire|
-3.579955	<unk> retreat|
-2.704894	<unk> return|
-3.579955	<unk> return|car
-3.579955	<unk> return|home
-3.579955	<unk> reveal|
-2.767042	<unk> ride|
-3.579955	<unk> ride|walk
-3.579955	<unk> ride|wheeler
-3.278925	<unk> rip|
-3.035887	<unk> rise|
-3.579955	<unk> roadwalk|
-3.579955	<unk> rob|I
-3.579955	<unk> rock|
-3.102834	<unk> roll|
-3.403864	<unk> roll|hill
-3.403864	<unk> rough|it
-3.403864	<unk> round|curve
-3.579955	<unk> rumble|
-2.449621	<unk> run|
-3.579955	<unk> run|MONEY
-3.579955	<unk> run|water
-3.182015	<unk> rush|
-3.579955	<unk> s'more|
-3.403864	<unk> satisfy|
-3.579955	<unk> save|
-3.579955	<unk> save|money
-3.182015	<unk> scare|
-3.579955	<unk> scarf|handful
-3.579955	<unk> scatter|
-3.579955	<unk> schedule|
-3.403864	<unk> scratch|
-3.102834	<unk> scream|
-3.403864	<unk> scream|CRIMINAL_CHARGE
-3.403864	<unk> search|
-3.579955	<unk> seat|
-2.349506	<unk> seem|
-3.579955	<unk> seep|
-3.579955	<unk> sell|
-3.579955	<unk> send|
-3.403864	<unk> send|we
-3.579955	<unk> separate|
-3.182015	<unk> serve|
-2.926743	<unk> settle|
-2.602232	<unk> set|
-2.926743	<unk> set|camp
-3.579955	<unk> set|it
-3.579955	<unk> set|site
-3.182015	<unk> set|tent
-3.579955	<unk> shake|
-3.403864	<unk> share|
-3.579955	<unk> share|beer
-3.403864	<unk> share|it
-3.403864	<unk> shine|
-3.579955	<unk> shiver|
-3.579955	<unk> shock|
-3.579955	<unk> shout|
-3.278925	<unk> shower|
-2.839592	<unk> show|
-3.403864	<unk> show|I
-3.579955	<unk> show|sign
-3.579955	<unk> show|skill
-3.403864	<unk> show|we
-3.579955	<unk> shrug|
-3.403864	<unk> shut|
-3.579955	<unk> sing|
-3.579955	<unk> sing|song
-3.579955	<unk> sink|
-2.312783	<unk> sit|
-3.579955	<unk> size|
-3.403864	<unk> skip|
-3.579955	<unk> skip|it
-3.579955	<unk> skip|rock
-2.199744	<unk> sleep|
-3.403864	<unk> sleep|NUMBER
-3.403864	<unk> sleep|ORGANIZATION
-3.579955	<unk> sleep|bag
-3.403864	<unk> sleep|pad
-3.403864	<unk> slide|
-3.403864	<unk> slip|
-3.579955	<unk> slither|
-3.579955	<unk> slog|
-3.278925	<unk> slow|
-3.403864	<unk> smell|
-3.579955	<unk> smile|
-3.579955	<unk> snap|picture
-3.403864	<unk> snorkele|
-3.102834	<unk> snorkel|
-3.579955	<unk> snuggle|
-3.403864	<unk> soak|
-3.579955	<unk> soak|tho
-3.579955	<unk> soar|
-3.579955	<unk> sop|
-3.403864	<unk> sort|
-2.880985	<unk> sound|
-3.579955	<unk> space|
-3.579955	<unk> spare|
-3.102834	<unk> speak|
-2.839592	<unk> spend|
-3.403864	<unk> spend|DATE
-2.926743	<unk> spend|DURATION
-3.579955	<unk> spend|NUMBER
-3.403864	<unk> spend|TIME
-3.579955	<unk> spend|half
-3.579955	<unk> spend|lot
-3.579955	<unk> spend|part
-3.403864	<unk> spend|rest
-3.403864	<unk> spend|time
-3.579955	<unk> spend|while
-3.579955	<unk> spin|
-3.579955	<unk> split|
-3.278925	<unk> spoil|
-3.579955	<unk> spot|
-3.403864	<unk> sprinkle|
-3.403864	<unk> squash|
-3.278925	<unk> stack|
-3.403864	<unk> stall|
-2.926743	<unk> stand|
-3.403864	<unk> stare|
-3.579955	<unk> startle|
-2.061441	<unk> start|
-3.579955	<unk> start|CAUSE_OF_DEATH
-3.579955	<unk> start|I
-3.579955	<unk> start|adventure
