
\data\
ngram 1=3047
ngram 2=20093

\1-grams:
-4.328685	!!!|PERSON	-0.1129781
-2.059172	</s>
-99	<s>	-0.2702342
-0.8891158	<unk>	0.04253584
-4.152594	abandon|	-0.3671437
-4.328685	abandon|he	-0.1271123
-4.328685	absolve|I	-0.1271123
-4.328685	accomodate|	-0.3079485
-4.328685	accomplish|	-0.3482731
-4.328685	accomplish|I	-0.2704353
-3.629715	accord|	-0.2988072
-4.328685	accumulate|bike	-0.3079719
-4.328685	achieve|	-0.2704353
-4.328685	acquire|we	-0.3666432
-3.328685	add|	-0.4597089
-4.328685	add|I	-0.2141944
-4.328685	add|it	-0.3621334
-4.328685	add|view	-0.3601046
-4.152594	add|we	-0.3620921
-4.328685	adjust|	-0.1270511
-4.328685	adjust|I	-0.2141944
-3.851564	admire|	-0.2128276
-3.930745	admit|	-0.1638659
-4.152594	admit|I	-0.1128519
-4.328685	admit|both	-0.1269085
-4.328685	afford|it	-0.3639573
-3.930745	agree|I	-0.2751667
-4.027655	agree|PERSON	-0.4612926
-4.328685	agree|she	-0.284774
-4.027655	agree|we	-0.1483562
-3.629715	allow|	-0.1273378
-4.328685	allow|alcohol	-0.2875049
-4.328685	allow|campground	-0.2874559
-4.328685	allow|car	-0.1264496
-4.328685	allow|you	-0.1271123
-4.328685	alternate|they	-0.1270511
-4.328685	alter|trip	-0.1270308
-4.328685	amaze|	-0.2874681
-3.784617	amaze|I	-0.1298419
-4.328685	amaze|be	-0.1271123
-4.152594	amuse|	-0.1316526
-4.328685	anchor|we	-0.3633811
-4.328685	answer|he	-0.3077027
-4.027655	anticipate|	-0.2199615
-4.328685	anticipate|I	-0.3036218
-4.152594	anticipate|we	-0.192305
-4.328685	appear|DATE	-0.2862277
-4.027655	appear|it	-0.07692458
-4.328685	appear|what	-0.04664136
-4.027655	appear|which	-0.1504465
-4.328685	appoint|	-0.3531605
-4.027655	appreciate|	-0.3652921
-4.027655	appreciate|I	-0.112936
-4.328685	approach|	-0.3662956
-4.328685	approach|CAUSE_OF_DEATH	-0.124947
-4.328685	approach|I	-0.3077964
-4.152594	approach|we	-0.3668067
-4.328685	aren|they	-0.3079719
-4.328685	are|you	-0.3079719
-4.328685	arise|need	-0.3538451
-4.027655	arrange|	-0.3076207
-4.328685	arrange|PERSON	-0.2868054
-3.249504	arrive|	-0.1571021
-3.675473	arrive|I	-0.3130544
-4.328685	arrive|PERSON	-0.3657737
-4.328685	arrive|gain	-0.3590347
-4.328685	arrive|p	-0.3672356
-4.328685	arrive|people	-0.04664136
-4.152594	arrive|they	-0.1792146
-2.760484	arrive|we	-0.2094859
-3.784617	ascend|	-0.1536369
-3.182557	ask|	-0.2376379
-3.073413	ask|I	-0.1934574
-3.930745	ask|PERSON	-0.1698965
-4.328685	ask|camper	-0.1271021
-3.588323	ask|he	-0.1071807
-3.930745	ask|she	-0.08305266
-4.328685	ask|that	-0.04664136
-4.328685	ask|they	-0.3077495
-3.726625	ask|we	-0.3071054
-3.726625	ask|you	-0.1634959
-4.328685	assateague|	-0.1271123
-4.328685	assemble|	-0.2875049
-4.328685	assese|we	-0.1258063
-4.152594	assume|I	-0.2869773
-3.930745	assume|we	-0.08451691
-4.328685	assure|I	-0.04664136
-4.328685	assure|PERSON	-0.2874927
-4.328685	assure|you	-0.04664136
-4.027655	attach|	-0.07720055
-4.152594	attack|	-0.3070115
-4.328685	attack|bear	-0.1271021
-3.851564	attempt|	-0.2696916
-4.328685	attempt|I	-0.1268983
-4.027655	attempt|we	-0.1404708
-4.328685	attend|we	-0.2141944
-4.328685	attract|	-0.3668782
-4.328685	average|I	-0.06710718
-3.515772	avoid|	-0.2108798
-4.328685	await|	-0.04664136
-3.784617	awake|I	-0.2509267
-4.027655	awake|we	-0.2276894
-4.152594	backpack|	-0.3061314
-4.152594	backtrack|	-0.3654254
-4.152594	backtrack|we	-0.3654254
-4.027655	back|	-0.160426
-4.328685	back|I	-0.366091
-4.027655	back|it	-0.12699
-4.328685	back|traffic	-0.1267861
-4.328685	bail|PERSON	-0.3079719
-4.152594	balance|	-0.1921824
-4.328685	balk|we	-0.1268575
-3.930745	bang|	-0.01186796
-4.328685	barbeque|we	-0.1268779
-4.328685	bark|	-0.3077144
-3.851564	base|	-0.1927848
-4.328685	batter|	-0.2989174
-4.328685	beach|some	-0.3678781
-4.152594	beam|	-0.213337
-4.328685	bear|	-0.2141944
-4.328685	bear|he	-0.2141944
-4.027655	beat|	-0.3387228
-4.328685	beat|salad	-0.1270919
-3.726625	become|	-0.3351631
-3.629715	become|I	-0.1230818
-3.851564	become|it	-0.1899383
-4.328685	become|sky	-0.307492
-4.328685	become|they	-0.2875049
-4.152594	become|we	-0.1780969
-4.328685	bed.|	-0.1181674
-3.629715	begin|	-0.2545604
-3.588323	begin|I	-0.2592557
-4.328685	begin|cloud	-0.3668374
-3.675473	begin|it	-0.138203
-4.328685	begin|trip	-0.1261127
-3.328685	begin|we	-0.1812406
-3.851564	behold|	-0.1242502
-3.851564	believe|	-0.1142023
-3.374443	believe|I	-0.2641625
-4.027655	believe|t	-0.1530879
-4.152594	believe|you	-0.2873455
-3.930745	bend|	-0.2325121
-4.328685	bet|I	-0.2976853
-0.7716596	be|	0.1248434
-4.152594	be|!!	-0.2829439
-4.328685	be|BUT	-0.1264802
-3.675473	be|CAUSE_OF_DEATH	-0.1459842
-3.515772	be|DATE	-0.1432156
-4.027655	be|DURATION	-0.2871123
-4.328685	be|Everything	-0.3670518
-4.328685	be|Husband	-0.04664136
-2.456529	be|I	-0.2396176
-3.399266	be|LOCATION	-0.1164704
-4.027655	be|MISC	-0.07699722
-3.930745	be|MONEY	-0.3069763
-3.287293	be|NUMBER	-0.07331811
-4.328685	be|ORGANIZATION	-0.366449
-3.038651	be|PERSON	-0.1846206
-4.328685	be|Park	-0.366868
-4.152594	be|Plus	-0.1923254
-4.027655	be|TIME	-0.1320431
-4.328685	be|That	-0.1271123
-4.328685	be|Trust	-0.3079719
-4.328685	be|access	-0.1267352
-4.328685	be|activity	-0.3064015
-4.328685	be|adult	-0.1259697
-4.328685	be|advantage	-0.1181674
-4.328685	be|alcove	-0.1258676
-3.374443	be|all	-0.203384
-4.328685	be|amaze	-0.126225
-4.328685	be|anyone	-0.3678679
-4.328685	be|anything	-0.287051
-4.152594	be|area	-0.3077495
-4.328685	be|baby	-0.1269594
-4.328685	be|basin	-0.2875049
-3.629715	be|bathroom	-0.1212951
-4.328685	be|battle	-0.3672152
-4.328685	be|best	-0.04664136
-4.027655	be|bit	-0.2298607
-4.328685	be|booth	-0.3645431
-4.027655	be|boy	-0.1473567
-4.328685	be|breakfast	-0.1267963
-3.784617	be|bridge	-0.2867316
-4.152594	be|brother	-0.3058023
-4.328685	be|calculation	-0.1269187
-3.851564	be|camp	-0.108152
-4.328685	be|camper	-0.3535188
-4.328685	be|campground	-0.2849344
-3.851564	be|camping	-0.1913025
-4.152594	be|campsite	-0.3646766
-3.784617	be|car	-0.2701661
-4.328685	be|chair	-0.04664136
-4.328685	be|chance	-0.2704353
-4.027655	be|coral	-0.1501765
-4.027655	be|couple	-0.3585247
-4.328685	be|debate	-0.1264393
-4.328685	be|detour	-0.2872596
-4.328685	be|discussion	-0.1129781
-4.328685	be|dish	-0.1271123
-3.930745	be|dive	-0.2358911
-4.328685	be|diver	-0.3067418
-4.328685	be|doubt	-0.1266128
-4.328685	be|downside	-0.04664136
-4.328685	be|else	-0.1265312
-4.328685	be|entry	-0.1268473
-4.152594	be|everybody	-0.3666228
-3.930745	be|everyone	-0.2097438
-3.851564	be|everything	-0.1107734
-4.027655	be|experience	-0.2297074
-4.328685	be|fear	-0.04664136
-4.152594	be|fish	-0.3651998
-4.328685	be|fishing	-0.04664136
-4.027655	be|fly	-0.04658004
-4.328685	be|folk	-0.1271123
-4.152594	be|food	-0.1331891
-4.152594	be|friend	-0.2874191
-4.328685	be|fun	-0.367664
-3.930745	be|girl	-0.1729116
-4.328685	be|glacier	-0.2871123
-3.851564	be|goal	-0.1008729
-4.328685	be|grizzly	-0.1264496
-4.328685	be|group	-0.1268473
-4.328685	be|guy	-0.3634738
-3.328685	be|he	-0.06871878
-4.328685	be|head	-0.2866211
-4.152594	be|here	-0.3637311
-3.675473	be|hike	-0.2703715
-4.152594	be|home	-0.3593466
-4.152594	be|hotel	-0.3584623
-3.851564	be|house	-0.03875701
-3.930745	be|i	-0.2892427
-4.328685	be|idea	-0.3600839
-4.328685	be|issue	-0.04664136
-2.256803	be|it	-0.1569158
-3.726625	be|kid	-0.3095407
-4.152594	be|life	-0.03977443
-4.027655	be|line	-0.356615
-4.328685	be|load	-0.3079719
-4.328685	be|look	-0.3666637
-3.231775	be|lot	-0.1299134
-4.328685	be|man	-0.3071991
-4.027655	be|mile	-0.1617665
-4.027655	be|mine	-0.1488243
-3.930745	be|moment	-0.1008554
-4.328685	be|motorcycle	-0.1258267
-4.328685	be|mountain	-0.2874681
-4.328685	be|my	-0.3069764
-4.328685	be|need	-0.3622779
-4.328685	be|neighber	-0.04664136
-4.152594	be|news	-0.3047193
-3.930745	be|no	-0.1023503
-3.784617	be|nothing	-0.2085541
-4.328685	be|number	-0.3077261
-4.328685	be|on	-0.1247217
-4.328685	be|park	-0.04664136
-3.550534	be|part	-0.1312253
-4.152594	be|party	-0.1065864
-4.328685	be|path	-0.3538451
-3.483587	be|people	-0.1911197
-4.027655	be|picture	-0.2737007
-4.328685	be|pizza	-0.1271123
-3.930745	be|place	-0.2896578
-3.726625	be|plan	-0.3544552
-4.328685	be|plane	-0.1269085
-4.152594	be|planning	-0.1837819
-4.328685	be|plant	-0.3679698
-4.328685	be|plenty	-0.3669702
-4.328685	be|point	-0.04664136
-4.328685	be|policy	-0.126776
-4.152594	be|pool	-0.1122748
-4.152594	be|problem	-0.3585977
-4.152594	be|rain	-0.3654869
-4.328685	be|rasta	-0.1271123
-4.328685	be|rattlesnake	-0.04664136
-3.851564	be|reason	-0.11219
-4.328685	be|reply	-0.04664136
-4.328685	be|rest	-0.3675621
-4.152594	be|restaurant	-0.3641732
-4.152594	be|river	-0.1845939
-3.851564	be|road	-0.1891251
-4.328685	be|rock	-0.3676232
-4.152594	be|room	-0.2872841
-4.027655	be|rule	-0.3792088
-4.328685	be|scenery	-0.3646766
-4.328685	be|school	-0.04664136
-3.930745	be|section	-0.1741166
-3.675473	be|she	-0.2513968
-4.027655	be|shower	-0.2063571
-3.930745	be|sign	-0.1948455
-4.328685	be|silence	-0.3675927
-3.784617	be|site	-0.1322635
-4.328685	be|skepticism	-0.04664136
-4.328685	be|skiing	-0.1256121
-4.328685	be|soap	-0.2872228
-4.152594	be|some	-0.1330017
-4.152594	be|son	-0.1935294
-4.152594	be|space	-0.3032081
-3.930745	be|species	-0.09536209
-4.027655	be|spot	-0.1533804
-4.152594	be|star	-0.284169
-4.328685	be|station	-0.2857109
-3.726625	be|stop	-0.2254678
-4.328685	be|stream	-0.3676538
-4.328685	be|structure	-0.1269696
-4.152594	be|stuff	-0.03977443
-4.152594	be|table	-0.1335519
-4.152594	be|talk	-0.2863138
-4.152594	be|temperature	-0.3015491
-3.588323	be|tent	-0.1311276
-2.823535	be|that	-0.3289991
-4.328685	be|theme	-0.3661933
-4.328685	be|then	-0.124691
-3.111201	be|they	-0.1250291
-3.249504	be|thing	-0.04886873
-3.198352	be|this	-0.1427345
-4.328685	be|tide	-0.1269492
-3.483587	be|time	-0.05938976
-4.152594	be|toilet	-0.03977443
-4.152594	be|ton	-0.307164
-4.328685	be|tower	-0.3675927
-4.152594	be|town	-0.13347
-4.152594	be|track	-0.1938811
-4.027655	be|traffic	-0.1445558
-4.027655	be|trail	-0.3023556
-3.675473	be|tree	-0.08841293
-3.588323	be|trip	-0.2347717
-4.328685	be|truth	-0.1192373
-4.328685	be|vendor	-0.1270715
-4.152594	be|view	-0.3655483
-4.328685	be|wait	-0.1265006
-4.328685	be|walking	-0.285994
-3.550534	be|water	-0.2323063
-4.328685	be|waterfall	-0.3658556
-3.550534	be|way	-0.3136015
-2.305433	be|we	-0.1909579
-4.152594	be|weather	-0.2137005
-3.930745	be|what	-0.09697147
-3.328685	be|which	-0.2263996
-3.588323	be|who	-0.2405782
-4.328685	be|wildflower	-0.2874191
-4.328685	be|word	-0.3670825
-3.550534	be|you	-0.1374025
-4.328685	bias|m	-0.1269085
-4.328685	bike|we	-0.1251415
-4.328685	bird|	-0.2859571
-3.784617	bite|	-0.3442242
-4.328685	bite|fly	-0.1268779
-4.027655	bite|mosquito	-0.2871491
-4.328685	blag|	-0.2141944
-4.328685	blame|	-0.1271123
-4.328685	blare|	-0.04664136
-3.930745	blaze|	-0.1949742
-4.027655	blend|	-0.2307282
-4.328685	bless|	-0.3531605
-4.152594	bless|God	-0.11295
-4.152594	blogg|	-0.3049197
-3.629715	blow|	-0.1316708
-4.328685	blow|CAUSE_OF_DEATH	-0.3074334
-4.027655	blow|I	-0.2140927
-4.328685	blow|it	-0.06710718
-4.328685	blow|sand	-0.04664136
-4.027655	blow|they	-0.07722957
-3.784617	blow|wind	-0.2673634
-4.027655	board|we	-0.2032864
-4.027655	boil|	-0.367062
-4.152594	bonk|I	-0.1879096
-3.784617	book|	-0.2100223
-4.152594	book|I	-0.3671641
-4.328685	book|it	-0.1271021
-3.588323	book|we	-0.3222617
-4.027655	bore|	-0.2009878
-4.328685	bore|I	-0.04664136
-4.328685	bore|they	-0.1267352
-4.027655	borrow|	-0.07227968
-4.152594	borrow|we	-0.2866825
-4.328685	bother|it	-0.3079719
-3.930745	bother|t	-0.2537745
-4.152594	bounce|	-0.1125696
-3.930745	brave|	-0.1881681
-4.328685	brave|PERSON	-0.3079719
-4.328685	brave|other	-0.1271123
-4.328685	brave|soul	-0.1271123
-4.328685	breakfast|	-0.1271123
-3.350962	break|	-0.1393295
-3.784617	break|I	0.02137171
-4.328685	break|PERSON	-0.1271123
-4.328685	break|camp	-0.04664136
-4.328685	break|it	-0.2874804
-4.328685	break|she	-0.3585144
-4.027655	break|we	-0.2057507
-3.588323	breathe|	-0.178997
-4.328685	breathe|I	-0.2874559
-4.027655	breathe|t	-0.1270715
-4.328685	breathe|you	-0.04664136
-4.328685	brew|sun	-0.3661217
-3.167317	bring|	-0.1824065
-3.307496	bring|I	-0.1725623
-4.328685	bring|LOCATION	-0.3677252
-4.328685	bring|MONEY	-0.3079719
-3.726625	bring|PERSON	-0.2267541
-4.328685	bring|Redneck	-0.3076442
-3.930745	bring|he	-0.2911925
-4.328685	bring|i	-0.3509939
-4.027655	bring|it	-0.126939
-4.328685	bring|man	-0.3679698
-3.930745	bring|people	-0.1621497
-4.027655	bring|they	-0.3057435
-3.198352	bring|we	-0.1598432
-4.328685	bring|what	-0.3482412
-4.328685	bring|who	-0.124947
-4.027655	bring|you	-0.1709191
-4.328685	brush|	-0.3625875
-3.287293	build|	-0.2295273
-4.328685	build|CAUSE_OF_DEATH	-0.1271123
-4.152594	build|PERSON	-0.3668987
-4.328685	build|they	-0.301739
-3.629715	build|we	-0.04527187
-4.328685	build|which	-0.3072225
-4.328685	bundle|we	-0.1248651
-3.784617	burn|	-0.2167804
-4.328685	burn|eye	-0.3590243
-4.328685	burn|it	-0.2874436
-4.152594	bury|	-0.3451166
-4.328685	bus|capital	-0.2875049
-3.152594	buy|	-0.1519769
-3.350962	buy|I	-0.1459064
-4.328685	buy|PERSON	-0.2874927
-4.328685	buy|guy	-0.3678475
-4.328685	buy|he	-0.3639573
-4.328685	buy|sale	-0.2875049
-3.399266	buy|we	-0.2569514
-4.027655	buy|wife	-0.2287047
-3.930745	buy|you	0.0008775145
-4.328685	buzz|	-0.2989174
-4.328685	bypass|	-0.307773
-2.913712	call|	-0.2364421
-4.328685	call|Close	-0.3655586
-4.328685	call|DATE	-0.1270919
-3.425595	call|I	-0.1159865
-3.588323	call|PERSON	-0.1727837
-4.152594	call|forecast	-0.1919472
-4.027655	call|he	-0.2298709
-3.784617	call|it	-0.2020892
-4.152594	call|she	-0.12893
-4.152594	call|they	-0.3644404
-3.588323	call|we	-0.2222516
-4.328685	call|what	-0.1269696
-4.152594	call|you	-0.1335402
-4.027655	calm|	-0.2303916
-4.152594	calm|I	-0.1928972
-4.328685	came|	-0.1262454
-2.604409	camp|	-0.1682099
-3.675473	camp|I	-0.1362152
-4.328685	camp|MONEY	-0.3073983
-4.328685	camp|backwoods	-0.1258573
-4.328685	camp|it	-0.1270104
-4.328685	camp|parent	-0.3078432
-4.152594	camp|they	-0.3674907
-4.328685	camp|thing	-0.1233263
-3.098236	camp|we	-0.3297566
-4.027655	cancel|	-0.1334229
-4.328685	canoe|	-0.3633914
-4.152594	canoe|we	-0.3673887
-4.328685	cant|we	-0.3524852
-4.328685	can|	-0.1271123
-3.726625	can|I	-0.2232
-4.328685	can|that	-0.1271123
-3.930745	can|we	-0.07712084
-4.027655	can|you	-0.1709542
-4.328685	capture|PERSON	-0.3641938
-3.851564	care|I	-0.1175308
-4.328685	care|we	-0.284774
-4.027655	care|you	-0.227864
-3.287293	carry|	-0.2393259
-4.328685	carry|Husband	-0.1216891
-3.629715	carry|I	-0.09486537
-4.027655	carry|PERSON	-0.284774
-4.027655	carry|d	-0.1252848
-4.328685	carry|it	-0.301739
-3.851564	carry|we	-0.1884339
-4.328685	cast|she	-0.3677864
-2.966958	catch|	-0.1725007
-4.328685	catch|Gran	-0.04664136
-3.453624	catch|I	-0.1686291
-4.027655	catch|PERSON	-0.2134242
-4.152594	catch|guy	-0.19356
-4.027655	catch|he	-0.3754518
-4.328685	catch|it	-0.3075974
-4.328685	catch|they	-0.366357
-3.930745	catch|we	-0.354308
-4.027655	cause|	-0.1506059
-4.328685	cause|it	-0.3064602
-4.328685	cause|she	-0.04664136
-4.328685	cause|switch	-0.2875049
-4.152594	cause|that	-0.3537083
-3.784617	celebrate|	-0.3181245
-4.328685	certify|	-0.04664136
-3.515772	change|	-0.2704313
-4.328685	change|I	-0.2849344
-4.328685	change|etiquette	-0.1181674
-4.152594	change|that	-0.2704098
-4.328685	change|they	-0.3673784
-4.328685	change|thing	-0.3670927
-4.328685	change|this	-0.3079251
-3.784617	change|we	-0.2692489
-4.027655	charge|	-0.213715
-4.152594	charge|they	-0.2849098
-3.784617	charter|we	-0.4666817
-4.328685	chase|we	-0.3679698
-3.851564	chat|	-0.2750406
-3.930745	chat|we	-0.2862892
-2.837324	check|	-0.251773
-3.399266	check|I	-0.1303547
-4.328685	check|camp	-0.1271021
-4.328685	check|he	-0.3079719
-4.328685	check|kid	-0.3677762
-3.267987	check|we	-0.1158716
-4.328685	check|world	-0.3663263
-4.328685	check|you	-0.1270613
-4.152594	chew|	-0.1926319
-4.328685	chill|	-0.362866
-3.784617	chill|we	-0.1924483
-3.930745	choose|	-0.2110472
-3.930745	choose|I	-0.2457169
-4.328685	choose|d	-0.04664136
-3.930745	choose|we	-0.3434919
-4.328685	choose|you	-0.1269594
-3.851564	chop|	-0.1791725
-4.328685	chuckle|	-0.3585144
-4.328685	claim|	-0.2849344
-4.328685	claim|I	-0.1271123
-4.328685	clamber|we	-0.286117
-4.328685	clap|that	-0.1256836
-4.328685	cleanse|	-0.2847987
-3.425595	clean|	-0.1757441
-4.328685	clean|that	-0.1270817
-4.328685	clean|they	-0.2874681
-3.784617	clean|we	-0.1211576
-4.152594	clear|	-0.3650357
-4.328685	clear|cloud	-0.3074803
-4.328685	clear|island	-0.1263781
-3.930745	clear|it	-0.1012332
-4.328685	clear|rain	-0.2875049
-4.328685	clear|rest	-0.1259697
-4.328685	clear|we	-0.363412
-4.328685	click|	-0.1271123
-3.111201	climb|	-0.1844349
-3.726625	climb|I	-0.2367827
-4.328685	climb|PERSON	-0.3671744
-4.328685	climb|people	-0.30335
-4.328685	climb|sound	-0.04664136
-3.483587	climb|we	-0.1257317
-4.328685	cling|I	-0.2867071
-3.930745	close|	-0.1937319
-4.328685	close|NUMBER	-0.04664136
-4.328685	close|cause	-0.1192373
-3.629715	close|it	-0.1273841
-4.328685	close|office	-0.2141944
-4.328685	close|that	-0.3538241
-4.328685	close|they	-0.2141944
-4.328685	close|you	-0.1271123
-4.328685	cloud|	-0.3677558
-4.328685	cloud|it	-0.1270817
-4.328685	coax|	-0.3650255
-4.328685	collapse|	-0.1269492
-4.328685	collapse|3/4ths	-0.3625875
-4.328685	collapse|I	-0.2874313
-4.152594	collect|	-0.2133952
-4.152594	color|	-0.1860373
-2.656587	come|	-0.2551005
-4.328685	come|CAUSE_OF_DEATH	-0.3673581
-4.152594	come|DATE	-0.3662956
-3.182557	come|I	-0.1962954
-3.930745	come|NUMBER	-0.01087943
-4.328685	come|ORGANIZATION	-0.06710718
-3.287293	come|PERSON	-0.1928698
-3.930745	come|TIME	-0.09915133
-4.328685	come|bill	-0.1247217
-4.152594	come|boat	-0.03977443
-4.328685	come|car	-0.3535293
-4.328685	come|child	-0.1270919
-4.152594	come|everyone	-0.1934377
-4.328685	come|family	-0.2870264
-3.851564	come|friend	-0.1317466
-3.930745	come|group	-0.165598
-4.328685	come|guy	-0.1271123
-3.629715	come|he	-0.10714
-3.550534	come|it	-0.1350389
-4.152594	come|light	-0.3063897
-4.328685	come|mom	-0.2141944
-4.152594	come|parent	-0.3076091
-4.328685	come|part	-0.3678985
-4.328685	come|people	-0.286744
-3.930745	come|rain	-0.2854522
-3.930745	come|she	-0.3072928
-4.328685	come|someone	-0.06710718
-4.328685	come|son	-0.1267657
-3.726625	come|sun	-0.1173679
-4.328685	come|tent	-0.303988
-4.027655	come|that	-0.2947164
-3.588323	come|they	-0.07559995
-4.328685	come|thing	-0.127041
-4.328685	come|time	-0.3648716
-4.328685	come|traffic	-0.1271021
-4.152594	come|water	-0.1927135
-2.837324	come|we	-0.3099175
-4.328685	come|which	-0.1270206
-3.675473	come|who	-0.1535575
-3.784617	come|you	-0.05980796
-4.328685	comment|we	-0.1267352
-4.328685	commune|	-0.3668067
-4.328685	communicate|NUMBER	-0.1181674
-4.328685	communicate|who	-0.1271123
-3.675473	compare|	-0.1250405
-3.930745	complain|	-0.1007972
-3.851564	complain|we	-0.2568622
-3.629715	complete|	-0.1575008
-4.328685	complete|I	-0.2871123
-4.328685	complete|i	-0.2874927
-4.328685	complete|we	-0.04664136
-4.328685	comprise|share	-0.1262454
-4.328685	concentrate|	-0.3635046
-4.027655	concern|	0.02669367
-4.027655	confess|I	-0.2830429
-3.930745	connect|	-0.08520425
-3.453624	consider|	-0.01942076
-3.851564	consider|I	-0.1174145
-4.328685	consider|people	-0.1248446
-4.328685	consider|thing	-0.1264496
-4.152594	consider|we	-0.1330837
-4.328685	consist|	-0.3534661
-4.328685	consist|PERSON	-0.3677558
-4.328685	consult|we	-0.2875049
-4.328685	consume|PERSON	-0.1271021
-4.328685	consume|which	-0.1271123
-4.328685	contain|photo	-0.3036218
-4.027655	contain|property	-0.4066845
-4.152594	contemplate|	-0.1335285
-4.328685	contend|	-0.3652614
-3.453624	continue|	-0.1027992
-3.629715	continue|I	-0.1739905
-4.328685	continue|White	-0.04664136
-4.328685	continue|he	-0.1265006
-3.425595	continue|we	-0.1823668
-4.328685	control|	-0.2767158
-3.930745	convince|	-0.2404999
-4.328685	convince|I	-0.3078198
-3.111201	cook|	-0.07099162
-3.930745	cook|I	-0.004176974
-4.152594	cook|PERSON	-0.2806453
-3.287293	cook|we	-0.2415441
-3.930745	cool|	-0.1655349
-4.328685	cool|it	-0.3674805
-4.328685	cool|temperature	-0.1271123
-4.328685	cooperate|	-0.1230898
-4.328685	cope|the	-0.04664136
-4.027655	cost|DATE	-0.0465923
-4.328685	cost|campsite	-0.1271123
-4.328685	couldnt|we	-0.3598971
-3.374443	couldn|I	-0.06265561
-4.152594	couldn|MONEY	-0.1793725
-4.328685	couldn|she	-0.1129781
-3.726625	couldn|we	-0.1428865
-4.328685	counter|	-0.1192373
-3.784617	count|	-0.1298274
-4.328685	count|I	-0.3078198
-3.350962	cover|	-0.09240584
-4.328685	cover|she	-0.367715
-4.027655	cover|that	-0.1505323
-4.328685	cover|wall	-0.2704353
-4.328685	cozy|breakfast	-0.1270511
-3.930745	cram|	-0.1742517
-3.851564	crash|	-0.2895114
-4.152594	crash|I	-0.1909746
-4.328685	crawl|	-0.2859325
-4.152594	crawl|PERSON	-0.367817
-4.027655	crawl|we	-0.1553982
-3.930745	create|	-0.2845642
-4.328685	create|kid	-0.1259595
-4.152594	creep|	-0.2126528
-4.328685	cringe|I	-0.3662036
-3.049932	cross|	-0.2509409
-3.588323	cross|I	-0.2488421
-4.152594	cross|boat	-0.03977443
-4.328685	cross|bridge	-0.3079134
-3.784617	cross|it	-0.2472588
-4.328685	cross|trail	-0.3079719
-3.588323	cross|we	-0.1767343
-4.152594	crowd|	-0.2868054
-4.152594	cruise|we	-0.1930095
-4.328685	crush|I	-0.04664136
-3.726625	cry|	-0.1770594
-4.328685	cry|I	-0.3671641
-4.328685	cry|PERSON	-0.04664136
-4.027655	cry|girl	-0.4596594
-4.328685	cry|you	-0.1270919
-4.152594	cuddle|	-0.3670416
-4.328685	curl|PERSON	-0.3079719
-4.328685	curse|we	-0.04664136
-3.453624	cut|	-0.202087
-4.328685	cut|I	-0.2874191
-4.027655	cut|we	-0.3065658
-4.328685	dart|he	-0.3679494
-3.726625	deal|	-0.1302735
-3.930745	deal|I	-0.183218
-3.425595	decide|	-0.09115857
-4.027655	decide|DATE	-0.2152326
-2.715901	decide|I	-0.1111389
-4.328685	decide|LOCATION	-0.3668885
-3.167317	decide|PERSON	-0.4087603
-4.328685	decide|guy	-0.1248446
-4.328685	decide|he	-0.3670723
-4.328685	decide|i	-0.3672254
-4.328685	decide|it	-0.3017746
-4.328685	decide|people	-0.3446008
-3.930745	decide|she	-0.1727268
-3.629715	decide|they	-0.1202222
-2.515772	decide|we	-0.2672282
-4.328685	decide|who	-0.3679188
-4.328685	declare|PERSON	-0.04664136
-4.328685	deepen|	-0.3057082
-4.328685	defuse|	-0.3079719
-4.152594	dehydrate|I	-0.353603
-4.328685	dehydrate|grain	-0.04664136
-4.328685	delay|we	-0.3079719
-4.152594	deliver|	-0.1933766
-4.328685	depart|	-0.1192373
-4.328685	depart|we	-0.3643274
-4.328685	depend|that	-0.1181674
-3.851564	descend|	-0.3643788
-4.328685	descend|mosquito	-0.1267963
-4.328685	descend|we	-0.2833278
-3.930745	describe|	-0.3012284
-4.027655	describe|I	-0.2220573
-4.328685	describe|book	-0.3524113
-4.328685	describe|hike	-0.36798
-4.328685	describe|they	-0.04664136
-4.328685	describe|you	-0.1270919
-3.930745	desert|	-0.171987
-4.328685	deserve|Habanero	-0.1236447
-3.930745	designate|	-0.189853
-3.930745	desire|	-0.2461541
-3.930745	determine|	-0.2271874
-4.152594	determine|he	-0.1931931
-4.328685	determine|we	-0.3578995
-3.930745	develop|	-0.306777
-4.328685	didnt|we	-0.3535188
-3.784617	didn|	-0.1329403
-2.957618	didn|I	-0.2003295
-4.027655	didn|PERSON	-0.3673172
-4.027655	didn|he	-0.3673478
-3.550534	didn|it	-0.184695
-4.328685	didn|that	-0.3079719
-3.726625	didn|they	-0.2040887
-3.138354	didn|we	-0.2624695
-4.027655	didn|you	-0.2304121
-3.726625	die|	-0.07457916
-4.328685	die|CAUSE_OF_DEATH	-0.06710718
-4.152594	die|I	-0.3503578
-4.152594	die|we	-0.1130727
-4.328685	digress|I	-0.3079251
-3.784617	dig|	-0.4811394
-4.328685	dig|I	-0.3676844
-4.152594	dig|they	-0.1929279
-4.328685	dig|you	-0.2873577
-4.328685	dine|	-0.2989174
-4.152594	dip|	-0.1932441
-4.328685	dip|PERSON	-0.2875049
-4.152594	direct|	-0.2874436
-4.328685	direct|it	-0.3679698
-4.328685	disapoint|it	-0.04664136
-4.328685	disappear|	-0.3524113
-4.328685	disappoint|we	-0.2704353
-3.851564	discover|	-0.1127197
-3.629715	discover|I	-0.3054411
-3.784617	discover|PERSON	-0.2470131
-3.453624	discover|we	-0.1271282
-4.152594	discuss|	-0.2141654
-4.328685	discuss|we	-0.3017746
-4.328685	disturb|	-0.04664136
-4.328685	disway|we	-0.1129781
-3.629715	dive|	-0.2186687
-4.152594	dive|NUMBER	-0.3074686
-4.328685	dive|he	-0.3079719
-4.328685	dive|i	-0.367929
-3.629715	dive|we	-0.1824581
-4.152594	do.|	-0.3548859
-4.328685	do.|I	-0.1268677
-4.328685	dodge|	-0.1271123
-3.726625	doesn|it	-0.1598022
-4.328685	doesn|which	-0.1270613
-4.027655	doesn|who	-0.1270613
-4.328685	dominate|group	-0.1266026
-4.328685	dominate|it	-0.1271123
-3.784617	don|	-0.2230232
-3.027655	don|I	-0.2147033
-3.851564	don|we	-0.1108597
-4.027655	don|who	-0.1682194
-3.784617	don|you	-0.207488
-4.328685	download|I	-0.3074686
-4.027655	down|PERSON	-0.1264087
-4.328685	doze|	-0.3538346
-1.689697	do|	-0.1105529
-2.525912	do|I	-0.1760185
-4.027655	do|Little	-0.4654917
-4.328685	do|MONEY	-0.1270919
-4.027655	do|NUMBER	-0.3860815
-4.152594	do|ORGANIZATION	-0.1934683
-3.182557	do|PERSON	-0.1707132
-4.328685	do|TIME	-0.3666535
-4.328685	do|camp	-0.3544132
-4.152594	do|crew	-0.3035864
-4.328685	do|d	-0.3677354
-4.328685	do|dive	-0.04664136
-4.027655	do|everyone	-0.2269187
-4.328685	do|fishing	-0.12699
-4.328685	do|forcast	-0.1129781
-3.483587	do|he	-0.1705487
-4.027655	do|i	-0.2970979
-3.453624	do|it	-0.05375041
-4.152594	do|kind	-0.364502
-4.152594	do|neither	-0.1933052
-4.328685	do|no	-0.04664136
-4.152594	do|picture	-0.2829067
-4.328685	do|plenty	-0.1263169
-3.851564	do|she	-0.2647094
-4.152594	do|some	-0.3077495
-4.328685	do|something	-0.1270919
-3.629715	do|t	-0.272397
-3.930745	do|that	-0.1945527
-3.726625	do|they	-0.0627331
-4.328685	do|thing	-0.06710718
-4.328685	do|ve	-0.1269594
-2.445024	do|we	-0.2476933
-3.930745	do|what	-0.3830076
-4.328685	do|who	-0.2874927
-3.483587	do|you	-0.1899269
-4.027655	drag|	-0.1701695
-4.152594	drag|I	-0.3078315
-4.328685	drag|we	-0.3078198
-4.328685	drain|I	-0.3079719
-4.328685	dread|	-0.04664136
-4.328685	dream|	-0.1271123
-4.328685	dream|I	-0.3676538
-4.152594	drench|	-0.112545
-4.328685	drench|sky	-0.1267352
-3.629715	dress|	-0.1078979
-4.027655	dress|I	-0.3030779
-4.328685	drinkin|Al	-0.04664136
-3.453624	drink|	-0.017952
-4.027655	drink|I	-0.1475296
-3.726625	drink|we	-0.2285086
-4.027655	drip|	-0.2206404
-2.522505	drive|	-0.2073395
-2.986263	drive|I	-0.2071117
-4.027655	drive|PERSON	-0.224836
-4.152594	drive|he	-0.1902361
-4.328685	drive|then	-0.1269289
-2.477427	drive|we	-0.1936148
-4.328685	drive|wheel	-0.2875049
-3.851564	drive|you	-0.2849221
-3.453624	drop|	-0.3071732
-3.930745	drop|I	-0.2126674
-4.328685	drop|NUMBER	-0.04664136
-4.152594	drop|group	-0.2077003
-4.328685	drop|temp	-0.124691
-4.152594	drop|temperature	-0.2869896
-4.328685	drop|traffic	-0.1271123
-3.851564	drop|we	-0.3507714
-4.328685	drown|	-0.3655176
-3.425595	dry|	-0.1396086
-4.328685	dry|I	-0.2704353
-3.629715	dry|freeze	-0.1267454
-4.328685	dry|tent	-0.2875049
-4.328685	dry|thing	-0.3664184
-4.328685	duck|	-0.3677354
-4.152594	dump|we	-0.280209
-4.027655	earn|pad	-0.1249061
-2.778457	eat|	-0.100182
-3.350962	eat|I	-0.1826364
-4.328685	eat|PERSON	-0.126939
-4.328685	eat|fish	-0.04664136
-4.328685	eat|guitar	-0.3679392
-4.152594	eat|he	-0.2120405
-4.328685	eat|hike	-0.2875049
-4.328685	eat|kid	-0.3662649
-4.152594	eat|mosquito	-0.0960153
-3.851564	eat|she	-0.1779702
-4.152594	eat|t	-0.2138894
-3.930745	eat|they	-0.1732562
-2.851564	eat|we	-0.1856062
-4.328685	eat|which	-0.2875049
-4.328685	eat|you	-0.04664136
-4.328685	edge|	-0.3640499
-4.328685	edward|	-0.2989174
-4.328685	elbow|I	-0.1269696
-4.328685	elect|	-0.1270817
-4.328685	embark|	-0.1216891
-4.328685	embark|we	-0.2847987
-4.328685	emerge|we	-0.06710718
-4.027655	emphasize|I	-0.1264393
-4.027655	empty|	0.02669367
-4.027655	encounter|	-0.2162141
-3.930745	encounter|we	-0.2130896
-4.328685	encourage|I	-0.3675722
-4.328685	endure|	-0.3669702
-4.328685	endure|NUMBER	-0.3679698
-3.550534	end|	-0.2289853
-3.307496	end|I	-0.20697
-4.328685	end|Road	-0.12172
-4.328685	end|dive	-0.04664136
-3.851564	end|he	-0.2830678
-3.675473	end|it	-0.1795733
-4.152594	end|that	-0.1103541
-4.328685	end|this	-0.04664136
-4.328685	end|trip	-0.1266536
-2.966958	end|we	-0.1888587
-4.328685	end|which	-0.3079602
-4.328685	engage|we	-0.1269594
-4.328685	engeneer|that	-0.126776
-2.810171	enjoy|	-0.1372414
-4.328685	enjoy|Girly	-0.1271123
-3.098236	enjoy|I	-0.1890005
-3.675473	enjoy|PERSON	-0.2329606
-4.328685	enjoy|citizen	-0.3079134
-4.152594	enjoy|he	-0.2871492
-4.328685	enjoy|it	-0.363412
-4.328685	enjoy|kid	-0.3664899
-4.328685	enjoy|she	-0.1270002
-3.930745	enjoy|they	-0.1633295
-2.905439	enjoy|we	-0.2019662
-4.328685	enjoy|you	-0.1249777
-4.328685	enlarge|	-0.1269594
-4.027655	ensure|	-0.07661937
-4.328685	entertain|	-0.3079485
-4.328685	entertain|you	-0.1271123
-3.515772	enter|	-0.2937362
-4.328685	enter|I	-0.2141944
-3.515772	enter|we	-0.08243619
-3.930745	equalize|	-0.1668729
-4.328685	equip|	-0.367256
-4.328685	erode|	-0.2141944
-4.152594	escape|	-0.3665615
-4.152594	estimate|I	-0.2847
-4.328685	etch|	-0.3078432
-4.328685	examine|	-0.3657327
-3.930745	excite|I	-0.2423299
-4.152594	excite|we	-0.2838723
-4.328685	exclude|	-0.3079602
-4.328685	exercise|	-0.3079719
-3.726625	exhaust|	-0.1254657
-3.629715	exhaust|I	-0.1475581
-4.152594	exhaust|it	-0.03977443
-4.328685	exhaust|time	-0.3678373
-3.726625	exhaust|we	-0.138008
-4.027655	exict|we	-0.1230487
-4.328685	exit|	-0.280969
-4.328685	exit|we	-0.3598763
-4.328685	expand|	-0.04664136
-3.550534	expect|	-0.3019258
-3.399266	expect|I	-0.3786863
-3.784617	expect|we	-0.3310795
-4.152594	expect|you	-0.2778206
-3.784617	experience|	-0.1520042
-4.328685	experience|I	-0.2820507
-4.328685	experience|who	-0.3679698
-4.027655	explain|	-0.2830925
-4.152594	explain|I	-0.3663161
-4.328685	explain|chief	-0.3079719
-3.073413	explore|	-0.1327316
-4.328685	explore|I	-0.06710718
-3.588323	explore|we	-0.1773518
-3.726625	face|	-0.05027685
-4.328685	face|I	-0.1248651
-4.328685	face|we	-0.3587538
-4.152594	fail|	-0.1932338
-4.328685	fail|I	-0.2780086
-4.328685	fail|idea	-0.1263781
-3.267987	fall|	-0.2897534
-3.425595	fall|I	-0.2904648
-4.328685	fall|NUMBER	-0.2856493
-4.328685	fall|PERSON	-0.1261842
-4.152594	fall|Tristan	-0.3676029
-4.328685	fall|cooler	-0.1270919
-4.027655	fall|he	-0.07695363
-4.328685	fall|it	-0.367613
-4.152594	fall|rain	-0.2140637
-4.027655	fall|that	-0.2912411
-3.851564	fall|the	-0.5247704
-3.851564	fall|they	-0.2415153
-3.726625	fall|we	-0.02008407
-4.027655	fall|you	-0.04626106
-4.027655	family|	-0.12465
-4.328685	fashion|	-0.1181674
-4.152594	fear|I	-0.2141509
-4.152594	feast|	-0.1022958
-4.328685	feast|we	-0.1270919
-4.328685	feature|	-0.2874559
-3.453624	feed|	-0.2773849
-4.328685	feed|I	-0.2871123
-4.328685	feed|they	-0.303988
-4.152594	feed|we	-0.307164
-3.182557	feel|	-0.3415638
-2.665927	feel|I	-0.2855892
-3.930745	feel|PERSON	-0.2519717
-4.328685	feel|drink	-0.1271123
-4.328685	feel|each	-0.1268677
-4.027655	feel|he	-0.2304427
-3.038651	feel|it	-0.2683193
-4.328685	feel|ride	-0.1268881
-3.930745	feel|she	-0.2405948
-4.328685	feel|tent	-0.04664136
-4.328685	feel|that	-0.2141944
-4.027655	feel|they	-0.1474432
-4.328685	feel|this	-0.2874068
-3.214742	feel|we	-0.09996928
-3.930745	feel|you	-0.2911314
-4.328685	fiddle|	-0.1270817
-3.851564	fight|	-0.3471059
-4.152594	fight|I	-0.3672764
-3.350962	figure|	-0.1684479
-3.231775	figure|I	-0.07357818
-4.328685	figure|PERSON	-0.3679392
-4.328685	figure|they	-0.3678475
-3.784617	figure|we	-0.1540414
-3.214742	fill|	-0.1321888
-4.328685	fill|DURATION	-0.1271123
-4.152594	fill|I	-0.2123322
-4.328685	fill|it	-0.3678883
-4.328685	fill|site	-0.04664136
-4.328685	fill|sky	-0.1270715
-4.027655	fill|we	-0.3659272
-4.328685	film|part	-0.2867194
-4.328685	filter|we	-0.1271123
-2.512444	find|	-0.2218732
-4.328685	find|DATE	-0.3635252
-2.690196	find|I	-0.2686138
-3.374443	find|PERSON	-0.3493083
-4.328685	find|diamond	-0.3079719
-4.328685	find|food	-0.1236447
-4.328685	find|she	-0.04664136
-4.328685	find|suggestion	-0.3675009
-4.328685	find|t	-0.3663672
-4.328685	find|tent	-0.3075505
-3.588323	find|they	-0.2392384
-2.638489	find|we	-0.2156096
-4.328685	find|which	-0.30335
-3.629715	find|you	-0.1075512
-3.425595	finish|	-0.1504337
-3.425595	finish|I	-0.05542374
-3.550534	finish|we	-0.154975
-4.152594	fire|	-0.2874559
-4.328685	fire|I	-0.3590243
-4.328685	fish|they	-0.1269594
-4.027655	fit|	-0.1334612
-4.328685	fit|that	-0.2141944
-4.328685	fit|they	-0.3077495
-3.930745	fix|	-0.3645304
-4.328685	fix|guy	-0.3538451
-4.328685	fix|it	-0.1230898
-4.328685	fix|we	-0.127041
-4.328685	flap|	-0.3079368
-4.328685	flip|someone	-0.1271123
-3.726625	float|	-0.1389121
-4.328685	float|I	-0.2141944
-4.328685	float|we	-0.2141944
-4.328685	flood|that	-0.30335
-4.328685	floor|My	-0.3673887
-3.930745	flow|	-0.1046315
-4.328685	flow|it	-0.2875049
-4.328685	flow|river	-0.06710718
-4.328685	flow|that	-0.2141944
-4.152594	flush|	-0.307164
-3.287293	fly|	-0.1834555
-4.328685	fly|DATE	-0.2704353
-4.328685	fly|be	-0.1270919
-4.328685	fly|it	-0.3676538
-3.675473	fly|we	-0.1449182
-4.328685	focus|	-0.2874927
-4.328685	focus|he	-0.3676437
-4.328685	fold|she	-0.3079719
-3.085647	follow|	-0.1408474
-3.851564	follow|I	-0.2763511
-4.328685	follow|PERSON	-0.3679392
-4.328685	follow|that	-0.2874927
-4.328685	follow|this	-0.2141944
-4.152594	follow|trail	-0.1126433
-3.399266	follow|we	-0.1680786
-4.328685	forage|	-0.2865228
-4.328685	forage|we	-0.1269085
-4.152594	force|	-0.1923459
-4.152594	force|I	-0.3663161
-3.930745	forget|	-0.2090833
-4.328685	forget|!!	-0.04664136
-3.425595	forget|I	-0.1806932
-4.027655	forget|we	-0.3566568
-4.152594	forget|you	-0.2141509
-4.152594	form|	-0.1130849
-4.027655	freak|	-0.2094797
-4.152594	freak|I	-0.1130481
-4.328685	freak|PERSON	-0.3679698
-4.152594	freeze|	-0.03977443
-4.152594	freeze|I	-0.1934683
-4.328685	frequent|none	-0.1271123
-4.152594	fry|	-0.1933766
-4.152594	fry|country	-0.2141509
-4.152594	fuck|	-0.3566255
-4.152594	fuel|	-0.2843543
-4.328685	fuel|we	-0.2872964
-4.328685	fussed|you	-0.1271123
-4.027655	gain|	-0.1703453
-4.328685	gain|we	-0.2872596
-3.588323	gather|	-0.1765168
-4.328685	gather|one	-0.1270919
-4.152594	gather|we	-0.3659477
-4.152594	gaze|	-0.2832164
-4.328685	gaze|we	-0.3077613
-4.328685	gear|girl	-0.1270206
-4.027655	gear|we	-0.2297585
-1.744354	get|	-0.1299644
-3.726625	get|DATE	-0.2476434
-4.328685	get|DURATION	-0.36798
-4.328685	get|Finaly	-0.1271123
-4.328685	get|Girly	-0.12172
-2.251318	get|I	-0.1497947
-4.328685	get|LOCATION	-0.2845889
-4.152594	get|MISC	-0.1130727
-3.784617	get|NUMBER	-0.2998122
-4.328685	get|ORGANIZATION	-0.3079719
-3.016932	get|PERSON	-0.06848627
-4.328685	get|SO	-0.36798
-4.152594	get|boy	-0.2737008
-4.152594	get|camp	-0.1115863
-4.328685	get|car	-0.3533818
-4.027655	get|cloud	-0.1270002
-4.152594	get|everyone	-0.3495294
-4.328685	get|girl	-0.3678373
-3.515772	get|he	-0.2415475
-4.328685	get|hike	-0.06710718
-4.328685	get|housekeeper	-0.12172
-3.425595	get|i	-0.1451409
-3.098236	get|it	-0.2157576
-3.675473	get|kid	-0.06543805
-4.328685	get|part	-0.3079719
-4.328685	get|place	-0.1258063
-3.515772	get|she	0.001699388
-4.328685	get|squeeter	-0.3641938
-3.328685	get|t	-0.1656873
-4.152594	get|that	-0.2856986
-3.515772	get|they	-0.270131
-3.930745	get|thing	-0.160255
-3.851564	get|ve	-0.1103013
-4.328685	get|water	-0.3625565
-2.033118	get|we	-0.2291545
-4.152594	get|which	-0.3064837
-4.027655	get|who	-0.2864244
-3.038651	get|you	-0.0829825
-3.851564	giggle|	-0.3043656
-2.661232	give|	-0.596611
-4.328685	give|CAUSE_OF_DEATH	-0.2875049
-3.453624	give|I	-0.3148607
-4.152594	give|MONEY	-0.1933664
-3.930745	give|PERSON	-0.1785393
-4.328685	give|askedffriend	-0.3679596
-4.328685	give|doctor	-0.3670518
-3.851564	give|he	-0.4286449
-3.930745	give|it	-0.2446952
-4.328685	give|k	-0.3678475
-4.027655	give|lady	-0.1503483
-4.027655	give|s	-0.1269798
-4.152594	give|she	-0.3679087
-4.152594	give|store	-0.191282
-3.851564	give|that	-0.1102865
-3.784617	give|they	-0.242766
-4.328685	give|trip	-0.3675009
-3.550534	give|we	-0.3246477
-3.726625	give|which	-0.3290127
-4.152594	give|while	-0.1935091
-4.328685	glance|	-0.3079251
-4.328685	glare|we	-0.1269696
-4.328685	glaze|	-0.306378
-4.328685	gloat|	-0.1271123
-4.328685	go?|	-0.1260514
-3.930745	gon|	-0.2061354
-4.328685	gon|I	-0.3625772
-4.328685	gon|that	-0.3659887
-1.907081	go|	-0.1906573
-4.328685	go|A	-0.1271123
-4.328685	go|CAUSE_OF_DEATH	-0.3623915
-3.675473	go|DATE	-0.3193489
-3.851564	go|DURATION	-0.1927603
-4.328685	go|Finaly	-0.04664136
-2.381742	go|I	-0.2028232
-4.328685	go|LOCATION	-0.3668067
-4.027655	go|NUMBER	-0.2912411
-4.328685	go|ORDINAL	-0.06710718
-2.844385	go|PERSON	-0.193105
-3.851564	go|TIME	-0.1251896
-3.930745	go|all	-0.09809934
-4.328685	go|boat	-0.2141944
-4.027655	go|boy	-0.3618751
-4.152594	go|couple	-0.3077144
-4.328685	go|d	-0.3053671
-4.328685	go|dad	-0.3078666
-4.328685	go|daughter	-0.2862277
-4.328685	go|do	-0.1271123
-4.027655	go|everyone	-0.2855138
-3.930745	go|everything	-0.09947594
-4.328685	go|fam	-0.04664136
-3.930745	go|family	-0.1703922
-4.027655	go|girl	-0.1697004
-4.027655	go|group	-0.1479493
-4.152594	go|guy	-0.03977443
-3.307496	go|he	-0.1577496
-4.328685	go|helo	-0.1269085
-3.851564	go|i	-0.08920239
-3.152594	go|it	-0.1489061
-3.784617	go|kid	-0.1305236
-4.027655	go|lady	-0.1600542
-3.851564	go|light	-0.189167
-4.328685	go|moring	-0.1263781
-4.152594	go|most	-0.1879921
-4.328685	go|niece	-0.1270715
-4.328685	go|parent	-0.1192373
-4.027655	go|people	-0.1504833
-4.328685	go|rain	-0.3652511
-4.152594	go|rest	-0.1930197
-3.267987	go|she	-0.1114219
-4.152594	go|some	-0.3600735
-4.152594	go|son	-0.365917
-3.483587	go|sun	-0.1109763
-4.328685	go|tank	-0.1233263
-4.027655	go|tent	-0.169982
-3.515772	go|that	-0.14922
-4.027655	go|then	-0.2191665
-3.675473	go|they	-0.09051886
-3.930745	go|thing	-0.1690029
-4.328685	go|this	-0.2847987
-4.152594	go|time	-0.3625462
-4.027655	go|trail	-0.1493534
-4.328685	go|train	-0.2976853
-3.784617	go|trip	-0.2528706
-1.982332	go|we	-0.2363571
-4.328685	go|weather	-0.1271123
-4.152594	go|what	-0.3078432
-4.152594	go|which	-0.3053318
-3.851564	go|who	-0.2749317
-3.328685	go|you	-0.1101889
-3.588323	grab|	-0.1865935
-3.726625	grab|I	-0.1662723
-4.152594	grab|PERSON	-0.1929279
-4.328685	grab|blog	-0.2875049
-4.328685	grab|i	-0.2875049
-3.726625	grab|we	-0.2988218
-4.328685	grab|you	-0.3672458
-4.328685	grant|God	-0.3679698
-4.328685	grate|site	-0.04664136
-3.851564	greet|	-0.2468071
-4.152594	greet|we	-0.1172829
-3.784617	grow|	-0.1743485
-3.784617	grow|I	-0.1393843
-4.328685	grow|he	-0.3641013
-4.027655	grow|it	-0.07682286
-4.328685	grow|we	-0.2874559
-4.328685	grumble|kid	-0.1271123
-3.851564	guess|	-0.1832772
-3.182557	guess|I	-0.2969484
-4.328685	guess|i	-0.04664136
-4.328685	guess|you	-0.3679698
-4.152594	guide|	-0.3586185
-4.328685	had.|I	-0.124947
-3.930745	hadn|I	-0.1023503
-3.851564	hadn|we	-0.2088629
-4.328685	haha|	-0.3634532
-4.152594	hammer|	-0.1922539
-3.930745	handle|	-0.1007682
-4.328685	handle|I	-0.04664136
-4.152594	handle|car	-0.1130849
-4.328685	handle|kid	-0.04664136
-4.152594	handle|we	-0.1130481
-4.027655	hand|	-0.2132933
-4.152594	hand|I	-0.2013618
-4.328685	hand|leader	-0.3079719
-4.152594	hand|they	-0.3678883
-4.328685	hand|we	-0.367766
-3.167317	hang|	-0.1703188
-3.675473	hang|I	-0.2128539
-4.328685	hang|PERSON	-0.36798
-4.328685	hang|kid	-0.2870878
-4.152594	hang|that	-0.2850454
-4.152594	hang|the	-0.1122011
-4.328685	hang|they	-0.362474
-3.231775	hang|we	-0.04550339
-3.425595	happen|	-0.1154856
-4.328685	happen|DATE	-0.2874927
-4.152594	happen|I	-0.3532764
-4.328685	happen|anything	-0.04664136
-4.328685	happen|he	-0.04664136
-3.675473	happen|it	-0.156361
-4.152594	happen|nothing	-0.2849221
-3.784617	happen|that	-0.2279118
-4.152594	happen|thing	-0.2141654
-4.027655	happen|this	-0.3663978
-4.152594	happen|we	-0.1095636
-3.629715	happen|what	-0.2463531
-4.152594	happen|which	-0.4248866
-4.152594	happen|who	-0.1128519
-4.328685	hardly|I	-0.3650563
-4.328685	hate|	-0.2872105
-3.425595	hate|I	-0.1071917
-4.328685	hate|PERSON	-0.2872105
-4.027655	hate|girl	-0.1250289
-4.152594	hate|we	-0.2868668
-3.784617	haul|	-0.2626871
-4.027655	haven|I	-0.07721506
-1.493947	have|	-0.1459514
-4.328685	have|'d	-0.3672662
-4.328685	have|AND	-0.1216891
-3.629715	have|DATE	-0.2822398
-4.328685	have|DURATION	-0.3079368
-2.096961	have|I	-0.1618239
-3.930745	have|LOCATION	-0.2395398
-4.328685	have|MISC	-0.3644712
-3.726625	have|MONEY	-0.1474679
-4.328685	have|NATIONALITY	-0.1271123
-3.629715	have|NUMBER	-0.1609011
-4.152594	have|ORGANIZATION	-0.3669395
-2.715901	have|PERSON	-0.3006508
-3.930745	have|TIME	-0.1853054
-4.152594	have|TITLE	-0.2823735
-3.851564	have|all	-0.1009612
-4.328685	have|anyone	-0.2868913
-4.328685	have|area	-0.3657635
-4.328685	have|beach	-0.3623708
-4.152594	have|bedroom	-0.1934683
-4.328685	have|boat	-0.12172
-4.152594	have|boy	-0.3642246
-4.152594	have|car	-0.2777328
-4.328685	have|caye	-0.1270817
-3.726625	have|child	-0.04617515
-4.027655	have|cold	-0.1266332
-4.152594	have|dog	-0.3079485
-4.328685	have|driver	-0.2863261
-4.152594	have|everyone	-0.3564686
-3.930745	have|friend	-0.2456128
-4.027655	have|girl	-0.3645328
-4.152594	have|grandparent	-0.1935192
-4.328685	have|grill	-0.1271123
-4.328685	have|guy	-0.3079602
-3.167317	have|he	-0.1677793
-4.328685	have|home	-0.1268677
-4.328685	have|hotel	-0.1263679
-4.027655	have|husband	-0.4586189
-3.453624	have|i	-0.1085243
-2.930745	have|it	-0.5629694
-4.328685	have|jump	-0.3017746
-4.328685	have|k	-0.3642863
-3.629715	have|kid	-0.1813882
-4.152594	have|ll	-0.1065864
-4.328685	have|luck	-0.3672152
-4.152594	have|male	-0.1928462
-4.328685	have|man	-0.2704353
-4.328685	have|mattress	-0.3679596
-4.328685	have|mosquito	-0.04664136
-4.328685	have|most	-0.3597725
-4.328685	have|neither	-0.3625875
-4.328685	have|no-one	-0.3641938
-4.328685	have|other	-0.3079602
-4.328685	have|pannier	-0.1271021
-4.328685	have|panther	-0.1266026
-3.930745	have|part	-0.2912331
-4.328685	have|people	-0.3667352
-4.328685	have|person	-0.04664136
-4.328685	have|picture	-0.1266332
-4.152594	have|place	-0.28624
-4.328685	have|river	-0.04664136
-3.851564	have|room	-0.2457017
-4.328685	have|route	-0.1271123
-4.328685	have|scout	-0.3658147
-3.214742	have|she	-0.1471025
-4.152594	have|side	-0.270397
-4.328685	have|site	-0.3625359
-4.328685	have|sky	-0.3496888
-4.328685	have|spot	-0.3673275
-4.328685	have|story	-0.1271123
-3.231775	have|t	-0.0858756
-4.328685	have|team	-0.3672458
-4.328685	have|tent	-0.3587226
-3.287293	have|that	-0.1612544
-4.027655	have|the	-0.2231481
-4.027655	have|then	-0.1258063
-2.754654	have|they	-0.1621127
-4.328685	have|time	-0.3676844
-4.328685	have|timing	-0.1270308
-4.152594	have|trail	-0.2704098
-4.152594	have|tree	-0.03977443
-4.027655	have|trip	-0.2234178
-4.328685	have|truck	-0.3623811
-4.328685	have|ve	-0.2869282
-4.027655	have|water	-0.07715698
-1.904621	have|we	-0.2151047
-4.027655	have|which	-0.2010327
-3.588323	have|who	-0.2774065
-2.922145	have|you	-0.2543199
-2.685233	head|	-0.1969288
-4.328685	head|&	-0.3036218
-4.152594	head|DATE	-0.2713399
-3.111201	head|I	-0.2609293
-3.930745	head|PERSON	-0.08482389
-4.328685	head|boat	-0.2861293
-4.328685	head|he	-0.3036218
-4.328685	head|kid	-0.3076091
-4.328685	head|m	-0.3597829
-2.459454	head|we	-0.1808616
-3.167317	hear|	-0.1331024
-3.249504	hear|I	-0.2747388
-4.027655	hear|PERSON	-0.1259697
-4.328685	hear|WI	-0.1271123
-4.328685	hear|all	-0.1271123
-4.328685	hear|d	-0.2874559
-4.328685	hear|she	-0.2874681
-3.930745	hear|t	-0.01191151
-4.328685	hear|they	-0.2873087
-3.182557	hear|we	-0.2141279
-4.328685	hear|you	-0.3665717
-4.027655	heat|	-0.2291757
-4.152594	heed|	-0.1334583
-3.249504	help|	-0.186866
-3.851564	help|I	-0.1906025
-4.328685	help|LOCATION	-0.1230898
-4.027655	help|PERSON	-0.1547428
-4.152594	help|he	-0.192785
-3.588323	help|it	-0.2174912
-4.328685	help|jacket	-0.1268677
-4.328685	help|low	-0.1271021
-3.851564	help|that	-0.1850361
-4.328685	help|they	-0.3070585
-3.930745	help|we	-0.3848491
-4.328685	here|	-0.06710718
-4.152594	here|Well	-0.1130849
-4.328685	here|ear	-0.3679698
-4.328685	hesitate|I	-0.3673275
-4.027655	he|	-0.1268779
-4.152594	he|I	-0.2128276
-4.328685	he|poem	-0.3678373
-4.328685	hide|PERSON	-0.3538451
-4.152594	hide|he	-0.2141509
-3.930745	highlight|	-0.1738833
-2.532805	hike|	-0.3100712
-4.328685	hike|DATE	-0.30741
-4.328685	hike|DURATION	-0.04664136
-3.374443	hike|I	-0.1835084
-4.328685	hike|t	-0.3538451
-2.930745	hike|we	-0.1595489
-3.930745	hike|you	-0.3666432
-3.098236	hit|	-0.07668179
-4.328685	hit|DURATION	-0.3676742
-3.453624	hit|I	-0.0860672
-4.152594	hit|PERSON	-0.2139766
-4.328685	hit|all	-0.1129781
-4.328685	hit|head	-0.3606956
-4.152594	hit|it	-0.2140492
-4.328685	hit|that	-0.2874559
-4.152594	hit|they	-0.2141218
-3.006466	hit|we	-0.2702329
-3.374443	hold|	-0.1001851
-4.152594	hold|I	-0.3667046
-4.328685	hold|camp	-0.287051
-4.328685	hold|it	-0.3676538
-4.328685	hold|luck	-0.3675315
-4.328685	hold|they	-0.367715
-4.152594	hold|we	-0.3000506
-4.328685	holler|you	-0.1271123
-4.328685	hoof|we	-0.2875049
-4.328685	hook|he	-0.3079719
-3.588323	hope|	-0.1113708
-3.061514	hope|I	-0.2776908
-4.328685	hope|tent	-0.1270308
-3.483587	hope|we	-0.08234391
-4.328685	hop|	-0.366449
-4.152594	hop|I	-0.3672356
-3.930745	hop|we	-0.248747
-4.328685	hospital|	-0.04664136
-4.328685	hug|	-0.2141944
-4.328685	hurl|old	-0.126776
-3.930745	hurry|	-0.1552638
-3.784617	hurt|	-0.2529112
-4.328685	hurt|ground	-0.04664136
-4.152594	hurt|it	-0.1311118
-4.328685	hurt|leg	-0.2867808
-4.328685	hurt|they	-0.3654356
-3.726625	identify|	-0.1928557
-4.328685	identify|I	-0.3524113
-4.328685	ignore|	-0.365005
-4.027655	ignore|I	-0.2306161
-4.328685	illustrate|	-0.3601046
-3.588323	imagine|	-0.02321938
-3.550534	imagine|I	-0.2526658
-3.851564	imagine|you	-0.280558
-4.328685	imply|	-0.2856986
-4.328685	impose|	-0.04664136
-4.027655	impress|I	-0.1705328
-4.152594	improve|	-0.3532975
-4.328685	improve|weather	-0.3668169
-2.930745	include|	-0.2955282
-3.851564	include|MONEY	-0.6014182
-4.328685	include|myself	-0.126725
-3.784617	include|other	-0.4667122
-4.328685	include|price	-0.3079719
-4.328685	include|stats	-0.1258267
-4.328685	include|that	-0.3078783
-4.328685	increase|heart	-0.1267657
-4.328685	inflate|	-0.3675315
-4.328685	ingrain|it	-0.1271123
-4.328685	inhabit|camp	-0.1271123
-4.328685	inhabit|sex	-0.124947
-4.328685	injure|	-0.3079719
-4.328685	insist|girl	-0.1270715
-4.328685	insist|t	-0.1270919
-4.027655	intend|	-0.3656814
-4.152594	intend|I	-0.3638545
-4.027655	intend|we	-0.2214536
-4.328685	internett|PERSON	-0.3675315
-4.328685	intersperse|	-0.04664136
-4.328685	introduce|I	-0.06710718
-4.328685	investigate|	-0.3670518
-4.152594	invite|I	-0.2141509
-4.328685	invite|PERSON	-0.3672356
-4.328685	invite|people	-0.1269696
-3.851564	invite|we	-0.3212562
-4.027655	involve|	-0.3070936
-4.328685	involve|it	-0.3653434
-4.328685	isn|it	-0.3624843
-4.027655	isolate|	-0.07701175
-4.328685	itch|	-0.1268779
-2.957618	it|	-0.3388731
-4.328685	it|it	-0.3668578
-4.152594	it|s	-0.1130849
-4.328685	i|	-0.3601046
-4.328685	jet|we	-0.3670212
-3.425595	join|	-0.1942793
-4.027655	join|I	-0.344052
-4.152594	join|PERSON	-0.3035509
-4.328685	join|rest	-0.1270919
-4.152594	join|some	-0.03977443
-4.328685	join|ve	-0.1129781
-3.930745	join|we	-0.2452585
-4.328685	joke|we	-0.3675111
-4.328685	judge|	-0.3673275
-3.453624	jump|	-0.08049084
-4.328685	jump|PERSON	-0.3590347
-4.152594	jump|kid	-0.1335519
-3.851564	jump|we	-0.1142902
-2.803641	keep|	-0.231023
-4.328685	keep|DURATION	-0.1270715
-3.167317	keep|I	-0.1755104
-4.328685	keep|NUMBER	-0.3677762
-3.851564	keep|PERSON	-0.1218135
-4.328685	keep|girl	-0.3079368
-3.675473	keep|he	-0.1740713
-3.851564	keep|it	-0.185397
-4.328685	keep|that	-0.3046132
-3.453624	keep|we	-0.3976682
-4.152594	keep|what	-0.1856743
-3.726625	kick|	-0.1341964
-4.328685	kick|that	-0.2141944
-4.152594	kick|we	-0.1331657
-3.930745	kid|	-0.1573421
-4.328685	kid|we	-0.1268983
-3.851564	kill|	-0.201058
-4.328685	kill|I	-0.3678068
-4.328685	knit|I	-0.1270511
-4.328685	knit|it	-0.3641938
-4.027655	knock|I	-0.2292166
-2.948474	know|	-0.345582
-2.629715	know|I	-0.4014053
-3.629715	know|PERSON	-0.1838903
-4.328685	know|any	-0.04664136
-4.328685	know|cyclist	-0.1247217
-3.851564	know|he	-0.2411349
-4.152594	know|it	-0.1914254
-3.629715	know|she	-0.08028702
-3.307496	know|t	-0.3586448
-4.152594	know|that	-0.1935294
-3.930745	know|they	-0.0979384
-4.328685	know|this	-0.286117
-3.249504	know|we	-0.4836929
-3.515772	know|who	-0.2347595
-3.085647	know|you	-0.2925572
-4.152594	land|	-0.03977443
-4.328685	land|DURATION	-0.3538451
-4.328685	lash|nothing	-0.04664136
-3.851564	last|it	-0.174045
-4.328685	last|peace	-0.1265414
-4.328685	last|which	-0.1271123
-4.027655	laugh|	-0.1390124
-4.027655	laugh|I	-0.3526857
-4.152594	laugh|they	-0.1846043
-4.328685	laugh|we	-0.3077261
-4.152594	launch|	-0.3071757
-4.152594	launch|we	-0.3675009
-3.784617	lay|	-0.2755665
-3.851564	lay|I	-0.2899384
-4.328685	lay|we	-0.2141944
-4.152594	lead|	-0.2135697
-4.152594	lead|I	-0.3675927
-3.851564	lead|that	-0.2122447
-3.930745	leak|	-0.1647206
-4.328685	leak|mask	-0.2869773
-4.328685	leak|tent	-0.2871123
-4.027655	lean|you	-0.1259289
-3.483587	learn|	-0.1448191
-4.328685	learn|'d	-0.1258063
-3.350962	learn|I	-0.1886748
-4.328685	learn|LOCATION	-0.3678985
-4.328685	learn|PERSON	-0.30789
-4.328685	learn|Sander	-0.1181674
-4.328685	learn|TITLE	-0.1271123
-4.328685	learn|son	-0.126939
-3.629715	learn|we	-0.1909097
-4.152594	learn|you	-0.3648613
-2.57281	leave|	-0.2320301
-2.966958	leave|I	-0.1009917
-4.328685	leave|ORDINAL	-0.3079719
-4.027655	leave|PERSON	-0.2833897
-4.328685	leave|group	-0.3679494
-4.152594	leave|he	-0.2859694
-4.328685	leave|i	-0.286449
-4.027655	leave|it	-0.3063897
-4.027655	leave|that	-0.1422994
-3.851564	leave|they	-0.2859694
-2.57281	leave|we	-0.09976408
-4.328685	leave|what	-0.2141944
-3.930745	leave|who	-0.3497384
-4.152594	leave|you	-0.2141654
-4.328685	lecture|camp	-0.04664136
-4.152594	lend|	-0.1129991
-4.328685	lend|k	-0.3677354
-2.889353	let|	-0.1647839
-3.425595	let|I	-0.1931626
-4.328685	let|MONEY	-0.1270919
-4.027655	let|PERSON	-0.1708957
-4.328685	let|TIME	-0.127041
-4.328685	let|friend	-0.1261127
-3.851564	let|it	-0.1066611
-4.328685	let|kid	-0.1271123
-4.328685	let|rain	-0.1268371
-4.027655	let|she	-0.1260719
-4.328685	let|that	-0.3068239
-3.851564	let|they	-0.3670519
-3.726625	let|we	-0.2303917
-4.328685	let|you	-0.1266944
-3.930745	lie|	-0.1636521
-4.328685	lie|picture	-0.1248651
-4.328685	lie|what	-0.2141944
-4.328685	lift|	-0.04664136
-3.629715	lighten|	-0.2468781
-4.152594	light|	-0.2138023
-4.328685	light|CAUSE_OF_DEATH	-0.1249777
-3.930745	like|	-0.07914247
-3.006466	like|I	-0.06762415
-3.726625	like|PERSON	-0.06996803
-3.515772	like|he	-0.1056243
-4.328685	like|it	-0.3675009
-4.328685	like|other	-0.1271123
-4.152594	like|she	-0.2813672
-4.027655	like|they	-0.4052314
-4.328685	like|thing	-0.1270308
-3.550534	like|we	-0.2894845
-4.152594	like|who	-0.1112786
-3.629715	like|you	-0.1876922
-4.152594	limit|	-0.1928666
-4.328685	limit|I	-0.1270919
-3.930745	line|	-0.1938844
-4.328685	linger|we	-0.1269289
-3.328685	listen|	-0.2046755
-4.027655	listen|we	-0.2139475
-3.307496	live|	-0.1340352
-4.152594	live|I	-0.3040352
-4.328685	live|child	-0.2875049
-4.328685	live|family	-0.1271123
-4.152594	live|he	-0.1938811
-3.784617	live|that	-0.1536017
-4.328685	live|they	-0.2141944
-3.930745	live|we	-0.2521462
-4.152594	live|who	-0.3666432
-4.027655	live|you	-0.2304733
-3.374443	load|	-0.05415751
-4.152594	load|I	-0.3640602
-4.328685	load|all	-0.1271123
-4.328685	load|mile	-0.1270919
-3.550534	load|we	-0.0251888
-4.328685	loan|grandparent	-0.36798
-4.328685	loan|they	-0.3677252
-4.152594	locate|	-0.3073514
-4.027655	lodge|	-0.3059198
-4.328685	log|	-0.2767158
-4.328685	london|	-0.2839836
-4.328685	long|I	-0.1256121
-2.569017	look|	-0.1105868
-4.027655	look|Husband	-0.1265414
-2.881527	look|I	-0.1805078
-4.152594	look|LOCATION	-0.2866703
-3.930745	look|PERSON	-0.2912186
-4.328685	look|all	-0.06710718
-4.152594	look|he	-0.3432331
-3.061514	look|it	-0.2231374
-4.328685	look|lake	-0.2141944
-4.328685	look|myself	-0.1270715
-3.930745	look|she	-0.01191151
-3.629715	look|that	-0.2038626
-4.027655	look|they	-0.3030779
-3.214742	look|we	-0.2428893
-4.027655	look|what	-0.1501152
-4.152594	look|which	-0.2874681
-3.726625	look|you	-0.3307124
-4.328685	loooooove|	-0.2875049
-3.328685	lose|	-0.1808979
-3.726625	lose|I	-0.016407
-4.328685	lose|food	-0.1271123
-3.675473	lose|we	-0.07136498
-4.328685	lose|who	-0.3670212
-4.328685	lose|you	-0.126776
-3.675473	love|	-0.3260871
-4.328685	love|All	-0.04664136
-2.844385	love|I	-0.2381936
-3.726625	love|PERSON	-0.1471838
-4.328685	love|camper	-0.1129781
-4.328685	love|he	-0.2872719
-4.328685	love|i	-0.3594921
-3.784617	love|kid	-0.3394818
-4.152594	love|she	-0.2703843
-4.027655	love|they	-0.2860186
-3.399266	love|we	-0.1263425
-4.328685	lo|I	-0.1270715
-4.152594	luck|we	-0.1130481
-4.328685	lure|	-0.1253053
-2.299302	make|	-0.1671175
-4.328685	make|DATE	-0.1268677
-4.152594	make|DURATION	-0.3617821
-2.680325	make|I	-0.215363
-4.328685	make|LOCATION	-0.3057082
-4.328685	make|MONEY	-0.2141944
-3.182557	make|PERSON	-0.2259346
-4.328685	make|beach	-0.3679596
-4.328685	make|breakfast	-0.367307
-4.328685	make|camp	-0.1271123
-4.328685	make|car	-0.2141944
-4.328685	make|difference	-0.2874191
-4.328685	make|food	-0.1233263
-4.328685	make|foot	-0.2868422
-3.675473	make|he	-0.1446111
-4.027655	make|i	-0.2868544
-3.287293	make|it	-0.152523
-4.328685	make|jd	-0.1255712
-4.328685	make|josh	-0.1271123
-4.152594	make|kid	-0.132533
-4.328685	make|rain	-0.1270817
-3.784617	make|t	-0.3862023
-3.515772	make|that	-0.1528066
-3.515772	make|they	-0.0715024
-4.152594	make|this	-0.2141073
-4.328685	make|tree	-0.1181674
-2.376862	make|we	-0.1882131
-4.328685	make|weather	-0.3670416
-3.629715	make|which	-0.1492589
-4.328685	make|who	-0.367766
-4.328685	make|wind	-0.1271123
-3.851564	make|you	-0.09887556
-3.675473	manage|	-0.3150328
-3.399266	manage|I	-0.284803
-4.152594	manage|PERSON	-0.360032
-4.152594	manage|he	-0.3079134
-3.214742	manage|we	-0.1558065
-4.027655	mark|DATE	-0.4455456
-3.930745	marry|	-0.3647792
-4.027655	marry|I	-0.1179281
-4.328685	marry|hubby	-0.1270919
-4.328685	mash|	-0.1270002
-4.328685	meander|we	-0.1269696
-3.784617	mean|	-0.199113
-3.483587	mean|I	-0.1643566
-4.328685	mean|MONEY	-0.367011
-4.152594	mean|My	-0.1935498
-3.483587	mean|that	-0.5773056
-3.851564	mean|this	-0.3438039
-3.675473	mean|which	-0.2997458
-4.152594	mean|word	-0.1335402
-4.328685	measure|you	-0.126939
-3.098236	meet|	-0.1755549
-3.374443	meet|I	-0.07987195
-4.152594	meet|PERSON	-0.3677252
-4.328685	meet|it	-0.3620301
-4.328685	meet|they	-0.307492
-3.182557	meet|we	-0.1885806
-4.328685	meet|who	-0.1270919
-4.328685	meet|you	-0.2141944
-4.328685	mellow|	-0.2767158
-3.930745	melt|	-0.1052878
-4.328685	melt|I	-0.1253053
-4.328685	melt|ice	-0.1225857
-3.851564	mention|	-0.2123759
-3.453624	mention|I	-0.1725384
-3.675473	mind|	-0.2449567
-4.328685	mind|I	-0.2989174
-4.328685	misspoke|I	-0.12699
-3.629715	miss|	-0.1727924
-3.307496	miss|I	-0.200451
-4.328685	miss|Mommy	-0.1271123
-4.328685	miss|little	-0.1216891
-3.588323	miss|we	-0.1380966
-4.328685	miss|which	-0.04664136
-4.328685	mix|camping	-0.1271123
-4.328685	mix|old	-0.126572
-4.328685	mob|	-0.287186
-4.328685	motor|we	-0.3663672
-3.098236	move|	-0.2703349
-3.851564	move|I	-0.09363101
-4.328685	move|that	-0.2976853
-4.328685	move|they	-0.2874927
-3.550534	move|we	-0.1486317
-4.328685	mumble|	-0.1271123
-3.784617	name|	-0.1286765
-4.328685	name|he	-0.36798
-4.328685	name|you	-0.367929
-4.027655	nap|	-0.358108
-4.027655	navigate|	-0.2242775
-4.027655	near|it	-0.1453632
-3.930745	near|we	-0.01172273
-4.328685	needless|	-0.1260821
-3.328685	need|	-0.1770264
-3.038651	need|I	-0.1735567
-4.152594	need|NUMBER	-0.2984273
-4.328685	need|PERSON	-0.3078432
-4.027655	need|he	-0.2847123
-4.328685	need|i	-0.3588578
-4.328685	need|it	-0.3079368
-4.328685	need|t	-0.3584519
-4.328685	need|that	-0.2874927
-3.726625	need|they	-0.1382941
-3.016932	need|we	-0.1190139
-3.726625	need|you	-0.3157517
-4.328685	negotiate|we	-0.3660091
-4.328685	nestle|	-0.2859694
-4.328685	nestle|tent	-0.1267963
-4.328685	never|I	-0.1266944
-3.588323	note|	-0.1656211
-3.930745	note|I	-0.08393918
-4.328685	note|sister	-0.1271123
-3.784617	notice|	-0.1301328
-3.328685	notice|I	-0.1558343
-4.328685	notice|he	-0.2873945
-3.550534	notice|we	-0.1967035
-4.328685	nurse|	-0.3673887
-4.328685	obey|everyone	-0.2875049
-4.027655	observe|	-0.366633
-4.328685	observe|they	-0.12172
-4.152594	occur|it	-0.1129132
-3.784617	offer|	-0.271407
-4.027655	offer|DATE	-0.1264393
-4.328685	offer|I	-0.3635355
-4.152594	offer|she	-0.3012522
-4.328685	offer|they	-0.3538451
-4.152594	offer|we	-0.1928054
-3.930745	open|	-0.2329463
-4.328685	open|I	-0.367256
-3.930745	open|it	-0.08029538
-4.328685	open|she	-0.3679392
-4.027655	open|sky	-0.2227952
-4.328685	open|station	-0.1257449
-3.483587	open|we	-0.6374736
-4.027655	operate|PERSON	-0.04497052
-4.152594	opt|	-0.2867808
-4.152594	opt|we	-0.2860555
-4.328685	oranges|	-0.3668272
-4.328685	order|	-0.367664
-3.851564	order|I	-0.296918
-4.328685	order|we	-0.2874927
-4.328685	organise|	-0.04664136
-3.851564	organize|	-0.1817997
-4.328685	overchlorinate|	-0.3590347
-4.328685	overflow|	-0.3587746
-3.675473	overlook|	-0.2160677
-4.328685	own|	-0.307035
-4.152594	own|who	-0.03977443
-4.328685	pace|	-0.1247217
-2.858863	pack|	-0.2563818
-4.328685	pack|Everything	-0.124691
-3.328685	pack|I	-0.0884594
-4.328685	pack|all	-0.3651281
-4.328685	pack|do	-0.1271123
-4.328685	pack|horse	-0.3530234
-4.328685	pack|i	-0.3079251
-4.328685	pack|they	-0.1271123
-2.803641	pack|we	-0.2977356
-4.027655	pack|you	-0.1270715
-3.588323	paddle|	-0.1208035
-4.027655	paddle|we	-0.3668884
-4.328685	paint|	-0.3656918
-4.328685	paint|I	-0.1271123
-4.027655	panic|	-0.2860554
-4.328685	pant|	-0.3079368
-4.328685	pant|I	-0.1268779
-4.328685	pant|kid	-0.126725
-4.328685	parallel|I	-0.1269085
-3.930745	park|	-0.2005686
-3.588323	park|we	-0.1842973
-4.328685	park|you	-0.3669906
-4.328685	partake|kid	-0.1268473
-4.328685	participate|	-0.3672152
-4.328685	part|everyone	-0.1268677
-4.328685	part|we	-0.3074803
-3.328685	pass|	-0.1439397
-4.328685	pass|DATE	-0.3665206
-3.726625	pass|I	-0.3215332
-4.328685	pass|PERSON	-0.3538241
-4.328685	pass|all	-0.2875049
-4.152594	pass|it	-0.286744
-4.328685	pass|man	-0.1267148
-4.328685	pass|mile	-0.3065071
-4.328685	pass|that	-0.2141944
-4.328685	pass|vehicle	-0.1247217
-3.287293	pass|we	-0.2621458
-4.328685	pave|	-0.3587018
-3.550534	pay|	-0.1527068
-4.152594	pay|I	-0.3492742
-4.152594	pay|they	-0.0960153
-3.726625	pay|we	-0.291234
-4.328685	pedal|I	-0.1270817
-4.328685	peddle|	-0.3538451
-4.328685	peel|	-0.1264802
-4.328685	peer|	-0.1259595
-4.328685	peer|we	-0.2141944
-3.629715	pee|	-0.1787035
-4.328685	pee|child	-0.1271021
-4.328685	peg|	-0.3676742
-3.061514	pick|	-0.1486471
-3.453624	pick|I	-0.07329296
-3.550534	pick|PERSON	-0.3026263
-4.152594	pick|she	-0.183344
-4.328685	pick|skewer	-0.3672356
-4.328685	pick|they	-0.2141944
-3.198352	pick|we	-0.227769
-3.930745	pick|wind	-0.1787823
-4.328685	picture|	-0.04664136
-4.328685	pile|site	-0.04664136
-3.629715	pile|we	-0.120184
-4.328685	pill|	-0.2875049
-4.152594	pine|	-0.1307705
-4.328685	pine|half	-0.04664136
-4.152594	piss|	-0.3663059
-4.152594	piss|I	-0.2905111
-3.629715	pitch|	-0.09274158
-4.328685	pitch|rule	-0.126521
-3.784617	pitch|we	-0.1498927
-3.784617	place|	-0.1236735
-4.152594	place|I	-0.1913844
-4.328685	plague|Plus	-0.127041
-4.328685	planned|we	-0.1270613
-4.328685	plant|	-0.3671539
-3.328685	plan|	-0.1447575
-3.267987	plan|I	-0.1600897
-4.152594	plan|PERSON	-0.1933358
-4.328685	plan|home	-0.1258063
-4.152594	plan|trip	-0.4248866
-3.249504	plan|we	-0.2665187
-2.754654	play|	-0.251379
-3.784617	play|I	-0.05527365
-3.851564	play|PERSON	-0.2135552
-3.675473	play|kid	-0.1594686
-3.784617	play|they	-0.2469517
-3.085647	play|we	-0.08343484
-4.328685	play|who	-0.3671233
-4.328685	play|you	-0.1271123
-3.425595	please|	-0.0545586
-4.328685	please|I	-0.3079368
-3.930745	plug|I	-0.08517972
-4.328685	plummet|	-0.2141944
-4.328685	plunge|I	-0.3655586
-4.152594	point|	-0.1112786
-4.152594	point|PERSON	-0.3075857
-4.027655	point|she	-0.4577499
-4.152594	poke|I	-0.112766
-4.328685	poke|we	-0.3062606
-4.328685	pool|	-0.1129781
-4.027655	poop|you	-0.04658004
-3.930745	pop|	-0.09359975
-4.027655	possess|I	-0.1249061
-3.550534	post|	-0.04694268
-3.784617	post|I	-0.1475094
-4.328685	post|it	-0.04664136
-4.027655	post|we	-0.2083923
-4.027655	pound|	-0.3031134
-3.550534	pour|	-0.2659166
-3.930745	pour|it	-0.1738218
-4.328685	pour|we	-0.3674193
-3.851564	practice|	-0.1790145
-4.328685	practise|I	-0.3670314
-3.629715	pray|	-0.2158405
-4.328685	pray|I	-0.3058963
-4.328685	pray|we	-0.1270511
-3.930745	prefer|I	-0.09613466
-3.267987	prepare|	-0.1182516
-3.930745	prepare|I	-0.1668355
-4.027655	prepare|PERSON	-0.2219741
-4.027655	prepare|she	-0.2281512
-4.152594	prepare|we	-0.2764391
-4.328685	present|	-0.1270919
-4.152594	pretend|	-0.03977443
-4.328685	pretend|I	-0.2859694
-4.328685	pretend|PERSON	-0.2141944
-4.328685	prevent|	-0.3538451
-4.328685	proceed|	-0.3675009
-3.675473	proceed|we	-0.1604089
-4.027655	procure|I	-0.1248241
-4.328685	promise|	-0.3027703
-4.328685	promise|I	-0.366725
-4.328685	prompt|	-0.3676538
-4.328685	propose|Husband	-0.12699
-4.152594	protect|	-0.2128422
-3.851564	prove|	-0.03848043
-4.328685	prove|it	-0.04664136
-4.328685	prove|which	-0.04664136
-3.784617	provide|	-0.2438038
-4.328685	provide|direction	-0.1271123
-4.328685	provide|they	-0.3538451
-4.328685	provoke|	-0.04664136
-4.152594	publish|	-0.1932644
-3.198352	pull|	-0.08934529
-3.328685	pull|I	-0.09514867
-4.328685	pull|boat	-0.3635046
-4.328685	pull|d	-0.3679698
-4.152594	pull|friend	-0.1935192
-4.328685	pull|he	-0.3027703
-4.328685	pull|she	-0.06710718
-4.328685	pull|that	-0.3664797
-4.328685	pull|truck	-0.3538451
-3.124565	pull|we	-0.09907834
-4.328685	pump|	-0.2141944
-4.328685	punch|I	-0.126939
-4.027655	purchase|	-0.1499678
-4.328685	purchase|we	-0.2868791
-4.328685	purify|	-0.367715
-3.515772	push|	-0.2086612
-4.328685	push|I	-0.3679698
-4.328685	push|he	-0.3079719
-3.930745	push|we	-0.1669354
-4.328685	push|wind	-0.1269798
-2.797206	put|	-0.2396819
-4.328685	put|Daddy	-0.1271123
-3.231775	put|I	-0.09483138
-4.328685	put|NUMBER	-0.2865228
-4.027655	put|PERSON	-0.3673172
-3.851564	put|he	-0.03900431
-4.328685	put|i	-0.2917029
-4.328685	put|ranger	-0.1268779
-4.328685	put|she	-0.1270104
-4.328685	put|spot	-0.1260514
-4.027655	put|that	-0.2832535
-3.167317	put|we	-0.1729788
-3.930745	put|you	-0.2366254
-4.328685	question|	-0.3678985
-4.328685	quick-cook|it	-0.04664136
-4.328685	quiet|	-0.1225857
-4.328685	quiet|baby	-0.1271123
-4.328685	quit|	-0.3678883
-4.328685	quit|it	-0.3078666
-4.328685	quiver|he	-0.3079602
-4.328685	race|	-0.3668374
-4.328685	race|he	-0.04664136
-4.328685	race|we	-0.04664136
-4.328685	rack|I	-0.28737
-4.027655	raft|	-0.2871368
-4.152594	rain.|it	-0.1787299
-3.073413	rain|	-0.2236769
-2.948474	rain|it	-0.2571587
-3.930745	rain|we	-0.1474069
-4.328685	raise|AND	-0.1271123
-4.152594	raise|I	-0.3038463
-4.328685	ramble|I	-0.353761
-4.328685	rave|friend	-0.2875049
-4.328685	re-arrange|we	-0.36798
-4.328685	re-do|	-0.124691
-4.328685	re-organize|	-0.1270919
-3.267987	reach|	-0.1175274
-3.930745	reach|I	-0.305214
-4.328685	reach|ground	-0.1268473
-4.152594	reach|he	-0.3586913
-3.182557	reach|we	-0.1391056
-4.152594	reach|you	-0.1127046
-3.249504	read|	-0.1430365
-3.399266	read|I	-0.4927578
-4.152594	read|PERSON	-0.1130727
-4.328685	read|he	-0.2875049
-4.328685	read|trip	-0.36798
-3.784617	read|we	-0.05956052
-4.152594	read|who	-0.2863261
-4.152594	read|you	-0.03977443
-3.629715	realize|	-0.2755538
-3.182557	realize|I	-0.9250199
-4.328685	realize|he	-0.2856986
-4.152594	realize|t	-0.1244974
-3.267987	realize|we	-0.5436294
-4.152594	receive|I	-0.1130359
-4.152594	recieve|DATE	-0.1927544
-4.328685	reckon|I	-0.04664136
-4.152594	recognize|	-0.3658556
-4.328685	recognize|I	-0.04664136
-4.328685	recommend|	-0.2874068
-3.629715	recommend|I	-0.1978
-4.152594	recommend|we	-0.1933154
-4.328685	reconcile|Daddy	-0.1271123
-4.328685	reconcile|I	-0.04664136
-4.328685	record|I	-0.3679494
-3.726625	recover|	-0.1297206
-4.328685	recover|I	-0.127041
-4.328685	recover|PERSON	-0.04664136
-4.152594	reel|	-0.1933766
-3.851564	reflect|	-0.3059199
-4.328685	refresh|	-0.3036218
-4.328685	refuse|	-0.286117
-4.328685	refuse|I	-0.3600942
-4.328685	regard|	-0.3666739
-3.231775	relax|	-0.3291533
-4.328685	relax|I	-0.3644404
-4.328685	relax|PERSON	-0.3668067
-3.515772	relax|we	-0.1475521
-4.328685	release|	-0.2871123
-4.152594	release|he	-0.1929993
-4.328685	relieve|Daddy	-0.1216891
-3.851564	remain|	-0.2543542
-3.588323	remember|	-0.3120266
-3.073413	remember|I	-0.08260316
-4.328685	remember|t	-0.3078549
-4.328685	remember|then	-0.1216891
-3.930745	remember|we	-0.1678209
-4.328685	remember|you	-0.306331
-3.851564	remind|	-0.3329784
-4.328685	remind|that	-0.3615444
-4.152594	removee|I	-0.1856743
-3.784617	remove|	-0.1886151
-4.328685	remove|I	-0.1270817
-4.328685	rename|	-0.3077495
-4.328685	render|which	-0.1260821
-4.027655	rent|	-0.2827827
-4.328685	rent|I	-0.3673887
-4.027655	rent|she	-0.1267046
-3.675473	rent|we	-0.1430734
-4.328685	repair|co-pilot	-0.04664136
-4.152594	replace|	-0.3077964
-4.152594	replicate|	-0.3650255
-4.328685	reply|she	-0.2873823
-4.152594	report|	-0.1335402
-4.328685	repusle|cross	-0.1271123
-4.027655	require|	-0.2185063
-4.152594	require|LOCATION	-0.2871737
-4.328685	require|this	-0.2141944
-4.328685	rescue|myself	-0.1268677
-4.328685	research|	-0.06710718
-4.328685	research|I	-0.3671131
-4.328685	research|this	-0.1266536
-4.152594	reserve|	-0.1292019
-4.152594	reserve|I	-0.2823859
-4.328685	reserve|she	-0.1269085
-4.328685	reserve|you	-0.3590035
-4.328685	resist|	-0.3664695
-3.328685	rest|	-0.08966132
-4.328685	rest|I	-0.2874927
-4.152594	rest|we	-0.4248866
-4.328685	result|	-0.3079719
-4.328685	result|that	-0.1181674
-4.328685	retire|	-0.307246
-4.328685	retrieve|I	-0.1270715
-3.307496	return|	-0.1022417
-3.675473	return|I	-0.1429694
-4.328685	return|PERSON	-0.3670416
-4.328685	return|drink	-0.1266332
-4.328685	return|he	-0.3655893
-4.328685	return|jury	-0.04664136
-4.328685	return|myself	-0.1271123
-4.328685	return|none	-0.04664136
-4.328685	return|rain	-0.06710718
-4.328685	return|she	-0.1270817
-4.328685	return|they	-0.2917029
-3.515772	return|we	-0.07899788
-4.328685	re|we	-0.3078666
-2.913712	ride|	-0.1787661
-3.399266	ride|I	-0.291525
-4.328685	ride|PERSON	-0.307035
-4.328685	ride|different	-0.1269798
-4.328685	ride|they	-0.3075388
-3.328685	ride|we	-0.09682427
-4.152594	ride|you	-0.213904
-4.328685	ring|phone	-0.3669191
-4.152594	rinse|we	-0.1921824
-4.152594	rip|	-0.367011
-4.328685	rise|	-0.3069647
-4.328685	rise|mountain	-0.3079251
-4.027655	rise|sun	-0.3129305
-4.152594	risk|	-0.1332476
-4.328685	roadwalk|	-0.3677558
-4.152594	roar|	-0.1856328
-3.851564	roast|	-0.2109159
-4.328685	rob|it	-0.1181674
-4.328685	rob|nice-nurse	-0.3677048
-4.328685	rock|	-0.2780086
-4.328685	rock|we	-0.2847987
-3.453624	roll|	-0.1958102
-4.152594	roll|I	-0.3635355
-4.328685	roll|fog	-0.3672356
-4.328685	roll|it	-0.306331
-4.027655	roll|she	-0.1501274
-4.152594	roll|we	-0.307773
-4.328685	roll|you	-0.2874804
-3.726625	rough|	-0.1767054
-4.152594	round|	-0.2869527
-4.328685	round|we	-0.06710718
-4.328685	rub|I	-0.3666637
-4.328685	ruff|	-0.1261842
-4.328685	ruin|I	-0.1270817
-4.328685	ruin|that	-0.124947
-2.858863	run|	-0.2303236
-3.588323	run|I	-0.07663672
-4.328685	run|bike	-0.2871737
-4.328685	run|chipmunk	-0.2141944
-4.328685	run|dog	-0.307035
-3.930745	run|he	-0.1558206
-4.328685	run|herd	-0.3650563
-3.930745	run|it	-0.3590507
-3.784617	run|kid	-0.05405155
-4.027655	run|rain	-0.2306059
-4.328685	run|tank	-0.3679494
-4.027655	run|that	-0.07664844
-4.328685	run|they	-0.2874927
-3.425595	run|we	-0.1775591
-3.629715	rush|	-0.1381807
-4.328685	s'more|	-0.1268881
-4.027655	sail|we	-0.06575987
-4.152594	satisfy|I	-0.1786561
-3.675473	save|	-0.1331822
-4.027655	save|I	-0.2951865
-4.152594	save|he	-0.1933358
-3.930745	save|we	-0.1697849
-2.616878	say|	-0.4956056
-4.328685	say|&	-0.2874559
-4.328685	say|'s	-0.1181674
-3.851564	say|Husband	-0.0409639
-2.930745	say|I	-0.2673912
-4.328685	say|LOCATION	-0.3671131
-4.027655	say|MONEY	-0.2973737
-3.307496	say|PERSON	-0.167987
-4.152594	say|book	-0.2820259
-4.328685	say|everyone	-0.2875049
-4.328685	say|father	-0.1269289
-4.328685	say|girl	-0.3679188
-3.198352	say|he	-0.3921133
-4.328685	say|husband	-0.1266638
-4.027655	say|it	-0.2860062
-4.152594	say|lady	-0.366868
-4.328685	say|s	-0.2871737
-3.675473	say|she	-0.2274141
-4.328685	say|someone	-0.04664136
-4.152594	say|t	-0.2838228
-3.425595	say|that	-0.15558
-3.307496	say|they	-0.1967648
-3.425595	say|we	-0.2695863
-4.027655	say|who	-0.2140637
-4.152594	scan|I	-0.1130727
-3.851564	scare|	-0.3527914
-4.152594	scare|I	-0.2828323
-4.328685	scare|it	-0.3667046
-4.328685	scare|we	-0.3600216
-4.328685	scare|who	-0.1271123
-4.328685	scarf|I	-0.2141944
-4.152594	schedule|	-0.2699887
-4.328685	scop|brother	-0.36798
-4.328685	scop|sister	-0.2875049
-4.328685	scout|	-0.1270817
-3.784617	scramble|	-0.1277127
-4.328685	scramble|we	-0.1192373
-4.328685	scratch|	-0.2874436
-3.399266	scream|	-0.2585679
-4.328685	scream|I	-0.1270919
-4.152594	scream|he	-0.1922028
-4.328685	scream|some	-0.126674
-3.851564	search|	-0.188866
-4.152594	search|I	-0.5044907
-4.027655	search|we	-0.1486273
-4.328685	seat|	-0.3675213
-4.328685	seek|we	-0.36798
-3.930745	seem|	-0.3592347
-4.328685	seem|PERSON	-0.1266638
-4.328685	seem|camp	-0.04664136
-4.328685	seem|cloud	-0.3079719
-3.930745	seem|drive	-0.4407497
-4.328685	seem|fish	-0.3677864
-4.328685	seem|he	-0.2873945
-3.198352	seem|it	-0.3369179
-4.027655	seem|she	-0.359897
-4.328685	seem|site	-0.1267046
-4.328685	seem|swimming	-0.04664136
-3.930745	seem|t	-0.3759211
-3.851564	seem|that	-0.03971636
-4.152594	seem|they	-0.2701163
-4.152594	seem|this	-0.1130727
-4.152594	seem|we	-0.1712868
-4.328685	seem|what	-0.04664136
-4.027655	seem|which	-0.170884
-2.170323	see|	-0.3057418
-4.328685	see|DATE	-0.04664136
-2.489836	see|I	-0.3182308
-3.675473	see|PERSON	-0.2189374
-4.328685	see|actually	-0.1251415
-4.328685	see|d	-0.2780086
-4.328685	see|dinner	-0.287051
-4.328685	see|every	-0.3679087
-4.328685	see|gear	-0.3679494
-3.588323	see|he	-0.08800787
-3.784617	see|i	-0.1944587
-4.328685	see|most	-0.04664136
-4.328685	see|people	-0.2875049
-3.930745	see|she	-0.1942128
-3.930745	see|t	-0.1636395
-4.328685	see|that	-0.2976853
-3.851564	see|they	-0.3524536
-2.339681	see|we	-0.3351843
-4.027655	see|which	-0.1504342
-4.328685	see|who	-0.3570959
-2.986263	see|you	-0.256848
-3.851564	sell|	-0.3070845
-4.328685	sell|that	-0.3672458
-4.328685	sell|who	-0.3580768
-3.374443	send|	-0.3070875
-4.027655	send|PERSON	-0.2028396
-4.152594	send|he	-0.3653639
-4.328685	send|mis-step	-0.1271123
-4.328685	send|she	-0.04664136
-4.328685	send|that	-0.04664136
-4.152594	send|they	-0.2871737
-4.328685	send|work	-0.2875049
-4.328685	separate|	-0.2141944
-3.930745	serve|	-0.2867808
-3.784617	settle|	-0.2657467
-4.328685	settle|I	-0.2875049
-4.152594	settle|PERSON	-0.3671437
-4.027655	settle|they	-0.2295132
-3.588323	settle|we	-0.1333894
-4.328685	settle|you	-0.1271123
-2.536294	set|	-0.07050672
-3.550534	set|I	-0.09873302
-4.152594	set|PERSON	-0.1891361
-4.328685	set|all	-0.1129781
-4.328685	set|few	-0.1270511
-4.328685	set|group	-0.04664136
-4.328685	set|it	-0.04664136
-4.328685	set|panic	-0.1268983
-4.328685	set|room	-0.2833278
-4.328685	set|spot	-0.1271123
-4.328685	set|sun	-0.3652819
-4.027655	set|tent	-0.07722957
-3.588323	set|they	-0.07025611
-2.726625	set|we	-0.2008783
-4.328685	set|work	-0.1270613
-4.328685	set|you	-0.3673784
-4.152594	shake|I	-0.1130727
-4.328685	shake|PERSON	-0.1249777
-3.425595	share|	-0.08099243
-3.930745	share|I	-0.3007648
-4.328685	share|PERSON	-0.1270817
-3.726625	share|we	-0.05626023
-4.152594	shave|	-0.1123731
-4.328685	shift|	-0.3679392
-4.328685	shimmer|	-0.3079719
-4.328685	shine|	-0.2976853
-3.930745	shine|sun	-0.1695368
-4.152594	shiver|	-0.3068708
-4.328685	shock|I	-0.2874559
-3.784617	shoot|	0.004553959
-4.328685	shoot|we	-0.3079719
-3.851564	shower|	-0.1949926
-4.027655	shower|I	-0.1586241
-4.328685	shower|everyone	-0.1265414
-4.328685	shower|t	-0.1236447
-3.930745	shower|we	-0.1690401
-4.328685	shower|you	-0.1271123
-3.453624	show|	-0.05923024
-4.027655	show|I	-0.3629484
-3.930745	show|PERSON	-0.3593466
-3.851564	show|he	-0.3582436
-3.930745	show|it	-0.2327255
-4.328685	show|mom	-0.1271123
-4.027655	show|picture	-0.1269798
-4.328685	show|she	-0.2874804
-4.027655	show|they	-0.1334485
-3.784617	show|we	-0.4112031
-4.328685	shrug|we	-0.367715
-4.152594	shut|	-0.2141218
-4.328685	shut|people	-0.1181674
-3.930745	side|	-0.3443534
-4.152594	sift|	-0.3658966
-4.328685	signal|instructor	-0.3073397
-4.027655	sign|	-0.3665512
-4.152594	sign|I	-0.1836777
-4.152594	sing|	-0.2873455
-4.328685	sing|PERSON	-0.04664136
-4.328685	sing|man	-0.1271123
-4.328685	sink|	-0.3077613
-4.328685	site|I	-0.1270104
-2.939519	sit|	-0.1254048
-3.167317	sit|I	-0.2909239
-4.152594	sit|PERSON	-0.3075271
-4.027655	sit|it	-0.2911195
-4.328685	sit|she	-0.2874681
-4.328685	sit|some	-0.3672356
-4.328685	sit|they	-0.280969
-3.038651	sit|we	-0.1324686
-3.550534	skip|	-0.230123
-4.328685	slam|I	-0.3538451
-4.328685	slant|it	-0.1261331
-2.283362	sleep|	-0.2069108
-2.996247	sleep|I	-0.1965942
-3.588323	sleep|PERSON	-0.2436372
-4.328685	sleep|behold	-0.126623
-4.328685	sleep|compact	-0.3678271
-4.328685	sleep|great	-0.04664136
-3.930745	sleep|he	-0.3015966
-4.328685	sleep|i	-0.3079368
-3.851564	sleep|kid	-0.2672671
-4.328685	sleep|lo	-0.1271123
-4.328685	sleep|place	-0.1271021
-4.152594	sleep|she	-0.133072
-3.851564	sleep|they	-0.037387
-3.198352	sleep|we	-0.08743599
-4.328685	sleep|which	-0.3079602
-3.930745	sleep|who	-0.1008409
-4.027655	sleep|you	-0.1227606
-4.328685	slice|I	-0.2874927
-4.027655	slide|	-0.2870755
-4.328685	slide|caravan	-0.1271021
-4.328685	slip|	-0.3077964
-4.152594	slither|	-0.20876
-4.328685	slog|	-0.3590243
-4.328685	slow|I	-0.2141944
-4.328685	slumber|	-0.1271123
-4.328685	smell|	-0.2875049
-3.930745	smell|I	-0.4434989
-4.328685	smell|that	-0.2976853
-3.930745	smell|we	-0.1687791
-4.152594	smile|	-0.2874436
-4.328685	smile|we	-0.1269696
-4.328685	smoke|	-0.3675927
-4.152594	snap|	-0.1931625
-4.328685	snap|I	-0.3673478
-4.328685	snatch|I	-0.2871737
-3.784617	snorkele|	-0.02597368
-4.328685	snorkele|PERSON	-0.2846259
-4.152594	snorkele|we	-0.1130236
-3.784617	snorkel|	-0.3156634
-4.152594	snorkle|we	-0.3056729
-4.328685	snow|it	-0.3675213
-4.027655	snuck|we	-0.1270919
-4.328685	snuff|	-0.3656406
-4.152594	snuggle|	-0.1334349
-3.726625	soak|	-0.3410055
-4.328685	soak|I	-0.3670825
-4.328685	soak|PERSON	-0.2917029
-3.930745	soak|we	-0.08914769
-4.328685	soar|they	-0.3667352
-4.328685	sort|we	-0.2989174
-3.784617	sound|	-0.2091584
-3.675473	sound|it	-0.1802828
-3.851564	sound|that	-0.04105085
-4.152594	sound|they	-0.188085
-4.328685	source|PERSON	-0.2875049
-4.152594	space|	-0.1172829
-4.328685	spare|	-0.3646766
-3.483587	speak|	-0.1466305
-4.328685	speed|	-0.2780086
-3.016932	spend|	-0.1588455
-3.550534	spend|DATE	-0.2207447
-4.328685	spend|DURATION	-0.3593466
-3.167317	spend|I	-0.1584321
-3.726625	spend|PERSON	-0.2715197
-4.328685	spend|TIME	-0.2874927
-4.328685	spend|camping	-0.3673275
-4.027655	spend|he	-0.3644301
-4.328685	spend|i	-0.3672356
-4.328685	spend|pull	-0.1269696
-4.328685	spend|remainder	-0.1270715
-4.027655	spend|she	-0.3074919
-2.810171	spend|we	-0.1511023
-4.328685	spend|you	-0.3075739
-3.851564	splash|	-0.2654605
-4.328685	split|	-0.2873455
-4.328685	split|i	-0.1271123
-4.328685	split|josh	-0.1271123
-4.328685	split|kid	-0.1269594
-4.328685	split|who	-0.1181674
-4.328685	spook|eerieness	-0.04664136
-3.851564	spot|	-0.1334934
-3.851564	spot|I	-0.1876426
-3.588323	spot|we	-0.3157212
-4.152594	spray|	-0.1130727
-4.152594	spread|	-0.2028993
-4.027655	sprinkle|	-0.1270817
-4.328685	sprinkle|the	-0.1270002
-4.328685	squeeze|	-0.3672662
-4.152594	squirt|	-0.3675009
-4.328685	stake|we	-0.3664797
-4.027655	stall|	-0.3637927
-3.675473	stand|	-0.3085473
-3.851564	stand|I	-0.2760364
-3.930745	stand|we	-0.2845889
-4.027655	stand|you	-0.1504342
-3.930745	stare|	-0.1696981
-4.328685	stare|NUMBER	-0.1269594
-4.328685	stare|we	-0.367205
-4.328685	stargaze|	-0.3650563
-2.760484	start|	-0.1153152
-3.784617	start|CAUSE_OF_DEATH	-0.05289993
-3.629715	start|DATE	-0.04672234
-4.328685	start|DURATION	-0.3675213
-3.006466	start|I	-0.08801001
-4.328685	start|JS	-0.3671845
-4.152594	start|MONEY	-0.1922641
-3.726625	start|PERSON	-0.2267644
-4.328685	start|bit	-0.3073514
-4.328685	start|cloud	-0.1271021
-4.328685	start|guy	-0.1259595
-3.784617	start|he	-0.1282824
-4.328685	start|hike	-0.3676029
-4.152594	start|i	-0.3637413
-3.049932	start|it	-0.3901343
-4.328685	start|joy	-0.126572
-3.784617	start|kid	-0.05951685
-4.328685	start|knee	-0.3667863
-4.328685	start|moi	-0.1269187
-4.328685	start|noise	-0.1271123
-3.930745	start|people	-0.08324982
-3.851564	start|rain	-0.1835396
-3.930745	start|she	-0.2405842
-4.328685	start|something	-0.3071991
-4.152594	start|sun	-0.3622366
-4.152594	start|that	-0.3613065
-4.152594	start|then	-0.1920086
-3.851564	start|they	-0.1736591
-4.152594	start|thing	-0.3539083
-4.328685	start|trip	-0.1270919
-2.866287	start|we	-0.1834153
-4.328685	start|work	-0.1264393
-4.027655	start|you	-0.3575135
-4.328685	star|TIME	-0.2875049
-4.027655	state|	-0.2873822
-2.823535	stay|	-0.2549585
-4.328685	stay|DATE	-0.2874804
-4.328685	stay|Easy	-0.1271123
-3.214742	stay|I	-0.2293328
-3.930745	stay|NUMBER	-0.07316703
-3.629715	stay|PERSON	-0.1463074
-4.328685	stay|TIME	-0.1265312
-4.328685	stay|he	-0.3072811
-4.152594	stay|it	-0.1934683
-4.328685	stay|kid	-0.2874068
-4.152594	stay|leg	-0.4248866
-4.328685	stay|m	-0.1268677
-4.328685	stay|quiet	-0.1271021
-4.027655	stay|they	-0.2135406
-2.889353	stay|we	-0.3239783
-4.328685	stay|who	-0.3647792
-4.152594	stay|you	-0.3530023
-4.152594	stealth|	-0.1915278
-4.328685	stealth|I	-0.1260514
-4.027655	steal|	-0.3677965
-4.328685	steal|raiding	-0.124988
-4.328685	steer|	-0.3052258
-4.328685	step|	-0.2839836
-4.328685	step|I	-0.06710718
-4.328685	stew|stew	-0.1129781
-3.515772	stick|	-0.1940138
-3.784617	stick|I	-0.1498573
-4.328685	stick|gill	-0.04664136
-4.152594	stick|they	-0.1232653
-3.675473	stick|we	-0.3134719
-4.328685	stick|who	-0.30335
-3.851564	sting|	-0.1908619
-4.328685	sting|PERSON	-0.1271123
-4.152594	stink|it	-0.03977443
-4.328685	stink|they	-0.3679392
-3.930745	stir|	-0.01166461
-4.328685	stock|	-0.1262454
-4.328685	stoke|	-0.30335
-4.328685	stopped|we	-0.1264393
-2.797206	stop|	-0.1325186
-4.328685	stop|DURATION	-0.3677252
-3.152594	stop|I	-0.1463506
-4.328685	stop|ORGANIZATION	-0.366541
-3.930745	stop|he	-0.3633399
-3.675473	stop|it	-0.1495336
-4.328685	stop|police	-0.2917029
-3.726625	stop|rain	-0.1707274
-4.328685	stop|she	-0.3679392
-2.600332	stop|we	-0.2481537
-4.328685	stop|wind	-0.1271123
-4.328685	strap|	-0.3646663
-4.152594	strap|we	-0.1911386
-4.152594	stress|I	-0.112324
-4.328685	stress|it	-0.3616478
-3.726625	stretch|	-0.1212689
-4.152594	strike|I	-0.1794252
-4.328685	strike|bolt	-0.3079719
-4.328685	strike|muscle	-0.04664136
-4.328685	strike|we	-0.3616684
-4.328685	string|that	-0.1266128
-4.328685	strip|	-0.2871982
-4.152594	stroll|	-0.2871982
-4.328685	stroll|another	-0.1268779
-4.328685	stroll|leisurely	-0.3079017
-4.027655	struggle|	-0.3976534
-4.152594	struggle|I	-0.1921517
-4.328685	struggle|we	-0.3571272
-4.152594	study|	-0.2028993
-4.328685	study|she	-0.366725
-4.027655	stuff|	-0.07718602
-4.328685	stuff|I	-0.3079719
-3.851564	stumble|I	-0.3062606
-4.152594	stumble|PERSON	-0.2866703
-4.328685	stumble|we	-0.3623605
-4.152594	suffer|we	-0.1892287
-4.328685	suffice|i	-0.1260821
-3.930745	suggest|I	-0.1426087
-4.328685	suggest|he	-0.1267861
-4.328685	suit|Got	-0.3079719
-4.328685	sunbathe|	-0.3676742
-4.152594	supply|	-0.1920495
-4.328685	suppose|	-0.2810064
-3.550534	suppose|I	-0.09815273
-4.027655	suppose|it	-0.3858238
-4.328685	suppose|that	-0.3538136
-3.851564	suppose|we	-0.08465761
-4.328685	suppose|you	-0.358556
-4.328685	sure?|you	-0.1271021
-4.328685	surface|we	-0.3675927
-3.550534	surprise|I	-0.1310348
-4.328685	surprise|t	-0.3538451
-4.328685	surprise|we	-0.06710718
-4.328685	surrender|I	-0.1269696
-4.328685	surround|	-0.2875049
-4.328685	surround|area	-0.1271123
-4.328685	surround|oak	-0.1271123
-4.328685	surround|small	-0.1271123
-4.328685	surround|we	-0.06710718
-4.027655	survive|I	-0.2198152
-4.328685	survive|he	-0.3589931
-3.851564	survive|we	-0.265357
-4.328685	swallow|I	-0.3075739
-4.328685	swallow|MONEY	-0.3679698
-4.328685	swamp|	-0.1271123
-4.152594	swap|	-0.1335519
-4.328685	swarm|	-0.04664136
-4.152594	swear|	-0.1130727
-4.027655	swear|I	-0.1329635
-4.328685	sweep|CAUSE_OF_DEATH	-0.2869159
-4.328685	sweep|that	-0.2875049
-4.328685	swerve|bicyclist	-0.3538451
-3.267987	swim|	-0.2139109
-3.675473	swim|I	-0.08482412
-3.675473	swim|a	-0.1116028
-4.328685	swim|he	-0.3075154
-4.328685	swim|shark	-0.2873455
-4.328685	swim|she	-0.1271123
-3.930745	swim|they	-0.06140894
-3.453624	swim|we	-0.2418698
-3.930745	tackle|	-0.1738341
-4.328685	tail|	-0.04664136
-2.279467	take|	-0.1893057
-3.930745	take|DATE	-0.2099637
-4.328685	take|Dad	-0.1257449
-2.496176	take|I	-0.1720444
-4.152594	take|NUMBER	-0.3672254
-4.328685	take|ORGANIZATION	-0.3679087
-3.073413	take|PERSON	-0.1247794
-4.328685	take|TITLE	-0.06710718
-4.328685	take|da	-0.04664136
-4.328685	take|dad	-0.301739
-3.784617	take|drive	-0.2227649
-4.152594	take|girl	-0.1934785
-3.629715	take|he	-0.2230602
-4.328685	take|hike	-0.280969
-4.152594	take|i	-0.3663979
-2.661232	take|it	-0.4055971
-4.152594	take|kid	-0.1929687
-4.328685	take|nav	-0.2875049
-4.152594	take|picture	-0.2139621
-3.784617	take|she	-0.2824478
-4.152594	take|t	-0.3533291
-3.550534	take|that	-0.237181
-4.328685	take|then	-0.3660705
-3.726625	take|they	-0.1321004
-4.328685	take|this	-0.3638133
-4.152594	take|trip	-0.3037636
-4.328685	take|walk	-0.3634532
-2.414871	take|we	-0.1697755
-4.027655	take|who	-0.2255073
-4.328685	take|winery	-0.3669191
-3.515772	take|you	-0.2558148
-3.167317	talk|	-0.223506
-3.675473	talk|I	-0.1690868
-3.851564	talk|PERSON	-0.1063996
-4.328685	talk|forcast	-0.1271123
-4.152594	talk|they	-0.1127783
-3.287293	talk|we	-0.1859342
-4.152594	tape|	-0.3079368
-4.328685	taste|	-0.3568242
-4.027655	taste|I	-0.3658351
-4.328685	taste|egg	-0.12172
-4.328685	taste|it	-0.3667046
-4.328685	taste|pancake	-0.1271123
-4.328685	taste|we	-0.3073749
-3.784617	teach|	-0.1534963
-4.328685	teach|PERSON	-0.1258369
-4.328685	teach|ll	-0.3079719
-3.930745	tear|	-0.3075388
-4.328685	tease|	-0.2976853
-2.866287	tell|	-0.3177637
-2.823535	tell|I	-0.1804032
-4.328685	tell|MONEY	-0.3664797
-4.152594	tell|NUMBER	-0.2134388
-3.726625	tell|PERSON	-0.2662059
-4.328685	tell|center	-0.2875049
-4.328685	tell|clerk	-0.2874804
-4.027655	tell|guy	-0.07711342
-3.550534	tell|he	-0.09669329
-4.328685	tell|ll	-0.3679596
-4.152594	tell|people	-0.3678679
-3.851564	tell|ranger	-0.1104774
-3.550534	tell|she	-0.2127829
-4.152594	tell|t	-0.2681719
-4.328685	tell|they	-0.3639471
-3.267987	tell|we	-0.3854039
-4.328685	tell|who	-0.3491678
-4.328685	tempt|I	-0.3577223
-4.152594	tend|I	-0.3669191
-4.328685	tense|	-0.3660091
-4.328685	terrify|I	-0.3067535
-4.328685	test-drive|	-0.1271123
-3.851564	test|	-0.26147
-3.550534	thank|	-0.2472737
-4.328685	thank|I	-0.3671744
-3.515772	that|	-0.1319395
-4.152594	there|	-0.1929789
-4.328685	there|seaweed	-0.1271123
-4.328685	they|	-0.3079719
-2.996247	think|	-0.1530101
-2.307496	think|I	-0.3603399
-4.328685	think|NUMBER	-0.1271123
-4.328685	think|Odd	-0.124988
-3.930745	think|PERSON	-0.008895621
-4.328685	think|Redneck	-0.2875049
-3.930745	think|he	-0.0979384
-4.152594	think|i	-0.2825843
-4.328685	think|it	-0.1271123
-4.328685	think|kid	-0.2870755
-4.152594	think|they	-0.2870141
-3.111201	think|we	-0.2931095
-3.675473	think|you	-0.3376161
-4.328685	thought|he	-0.3678679
-4.328685	threaten|	-0.3638339
-4.152594	threaten|it	-0.1126678
-4.152594	thrill|PERSON	-0.2141654
-4.328685	thrill|kid	-0.04664136
-3.214742	throw|	-0.2893185
-3.930745	throw|I	-0.2904989
-4.328685	throw|PERSON	-0.3678883
-4.328685	throw|he	-0.2875049
-4.328685	throw|we	-0.3679392
-4.027655	tie|	-0.3624637
-4.328685	tie|I	-0.3678781
-4.328685	tie|side	-0.285994
-4.328685	tie|we	-0.3677456
-4.152594	tip|we	-0.1130727
-4.328685	tire|	-0.3672356
-4.152594	tire|I	-0.30789
-4.328685	tire|foot	-0.12699
-4.328685	tire|leg	-0.1271123
-3.784617	tire|we	-0.1233635
-4.328685	tolerate|PERSON	-0.3679188
-4.328685	tolerate|you	-0.1267963
-3.726625	top|	-0.1727256
-4.328685	torment|	-0.2874068
-4.152594	toss|	-0.1935396
-4.328685	toss|I	-0.3677252
-3.851564	touch|	-0.1127414
-4.328685	touch|you	-0.2872105
-4.027655	tour|	-0.05694529
-4.328685	tour|we	-0.2872473
-3.930745	tow|	-0.1578134
-4.328685	tow|we	-0.1181674
-4.328685	trade|I	-0.2873332
-3.453624	trail|	-0.05563357
-3.851564	trail|&	-0.6022807
-4.328685	trail|hike	-0.04664136
-3.851564	trail|sidewalk	-0.605164
-4.328685	trail|some	-0.1268065
-3.851564	trail|the	-0.2354597
-4.328685	trail|time	-0.04664136
-4.328685	trail|trail	-0.3665104
-4.152594	train|	-0.307492
-4.328685	train|I	-0.3624224
-3.328685	travel|	-0.231847
-3.675473	travel|we	-0.3229302
-4.328685	treat|	-0.2867194
-4.328685	treat|I	-0.3052258
-3.930745	treat|we	-0.1948221
-3.930745	trek|	-0.2544078
-4.328685	trickle|	-0.1271123
-4.328685	trip|	-0.2875049
-4.152594	trust|	-0.3064602
-4.328685	trust|I	-0.2780086
-2.604409	try|	-0.2947466
-4.328685	try|Dad	-0.1269289
-2.976503	try|I	-0.09255789
-4.027655	try|PERSON	-0.2769293
-4.328685	try|he	-0.367715
-4.328685	try|i	-0.3667863
-3.851564	try|they	-0.2054511
-3.111201	try|we	-0.1176217
-3.930745	try|you	-0.07445126
-4.328685	tube|people	-0.1268983
-4.328685	tumble|you	-0.1253053
-4.328685	tuned|Stay	-0.1233263
-2.976503	turn|	-0.1898482
-4.027655	turn|DATE	-0.3792088
-3.675473	turn|I	-0.320592
-3.851564	turn|PERSON	-0.264207
-4.152594	turn|he	-0.3679188
-3.111201	turn|it	-0.2750708
-3.851564	turn|that	-0.4514599
-4.328685	turn|they	-0.2864367
-4.328685	turn|trailer	-0.04664136
-3.930745	turn|trip	-0.3586088
-3.182557	turn|we	-0.1126209
-4.328685	turn|weather	-0.2141944
-4.152594	turn|which	-0.4248866
-4.152594	turn|you	-0.2126382
-4.328685	twist|I	-0.3638133
-4.027655	understand|	-0.1492181
-3.930745	understand|I	-0.3520887
-4.152594	understand|we	-0.1887757
-4.328685	undertake|	-0.06710718
-4.328685	undo|	-0.3677354
-4.328685	unleash|I	-0.3538451
-4.152594	unload|	-0.2860432
-3.930745	unpack|	-0.08520425
-4.328685	unplug|I	-0.124691
-4.328685	unzip|	-0.04664136
-3.784617	update|	-0.1121891
-4.152594	update|I	-0.1893317
-4.152594	upload|	-0.2138313
-4.328685	upload|I	-0.3036218
-2.851564	use|	-0.1814966
-3.124565	use|I	-0.3382574
-4.328685	use|PERSON	-0.2871369
-4.027655	use|he	-0.3670518
-4.328685	use|she	-0.04664136
-4.152594	use|that	-0.2843419
-3.287293	use|we	-0.001541212
-4.152594	use|who	-0.112631
-4.027655	use|you	-0.07711342
-4.328685	utilize|	-0.1271123
-4.152594	vacuum|husband	-0.1335402
-4.152594	venture|	-0.2123905
-3.930745	venture|we	-0.2532528
-4.328685	verb|	-0.1270919
-4.152594	view|	-0.2140637
-3.152594	visit|	-0.1257126
-3.851564	visit|I	-0.1152708
-4.328685	visit|creature	-0.1270511
-4.328685	visit|that	-0.3672356
-3.453624	visit|we	-0.107922
-4.152594	volunteer|	-0.36267
-4.328685	vow|	-0.04664136
-4.152594	wade|	-0.2870264
-4.328685	wade|I	-0.3079719
-4.328685	wail|DURATION	-0.1270715
-2.939519	wait|	-0.1466696
-3.231775	wait|I	-0.08858199
-4.328685	wait|NUMBER	-0.2820507
-4.328685	wait|PERSON	-0.3075974
-4.328685	wait|dinner	-0.1269696
-3.930745	wait|he	-0.09359975
-4.328685	wait|she	-0.2853536
-4.152594	wait|they	-0.3663161
-3.483587	wait|we	-0.2338879
-3.930745	wait|you	-0.1008118
-4.328685	waken|	-0.1267963
-3.111201	wake|	-0.1643128
-4.328685	wake|DATE	-0.2141944
-3.098236	wake|I	-0.1314998
-3.550534	wake|PERSON	-0.09982505
-4.328685	wake|child	-0.1260821
-4.152594	wake|he	-0.1929483
-4.328685	wake|i	-0.3076676
-4.328685	wake|moring	-0.1266536
-4.152594	wake|she	-0.366633
-4.328685	wake|sun	-0.3526647
-4.328685	wake|they	-0.3625565
-2.957618	wake|we	-0.1762509
-4.152594	wake|you	-0.1311118
-2.797206	walk|	-0.2317136
-3.350962	walk|I	-0.1703457
-3.930745	walk|PERSON	-0.3073045
-4.027655	walk|he	-0.07712793
-4.328685	walk|i	-0.2141944
-4.328685	walk|she	-0.3625565
-4.328685	walk|they	-0.3678883
-2.844385	walk|we	-0.2008633
-3.851564	walk|you	-0.133154
-3.550534	wander|	-0.206732
-4.152594	wander|I	-0.3674397
-4.328685	wander|cousin	-0.1267556
-4.027655	wander|we	-0.1482823
-3.350962	want|	-0.2028064
-2.656587	want|I	-0.2062029
-4.328685	want|K	-0.3655586
-3.453624	want|PERSON	-0.1386072
-4.328685	want|everyone	-0.2867071
-3.307496	want|he	-0.2251198
-4.152594	want|i	-0.3527808
-3.726625	want|kid	-0.2400335
-4.328685	want|people	-0.3676742
-3.726625	want|she	-0.2874804
-3.425595	want|t	-0.2110935
-4.328685	want|that	-0.3674703
-3.374443	want|they	-0.1838332
-2.858863	want|we	-0.3366766
-3.851564	want|who	-0.1866143
-4.152594	want|wife	-0.3016559
-3.399266	want|you	-0.08203686
-3.784617	warm|	-0.1918055
-4.152594	warn|	-0.2771681
-4.328685	warn|they	-0.2866088
-3.399266	wash|	-0.1713398
-3.930745	wash|I	-0.29197
-4.328685	wash|t	-0.04664136
-3.726625	wasn|	-0.0587519
-3.726625	wasn|I	-0.4414152
-4.328685	wasn|he	-0.362185
-3.483587	wasn|it	-0.3186731
-4.152594	wasn|that	-0.1130849
-4.328685	wasn|we	-0.04664136
-4.328685	wasn|weather	-0.3625875
-4.152594	waste|	-0.1843754
-2.754654	watch|	-0.1929029
-3.425595	watch|I	-0.09140977
-3.851564	watch|PERSON	-0.2076547
-4.328685	watch|josh	-0.1225857
-4.328685	watch|tent	-0.04664136
-4.328685	watch|they	-0.3679188
-3.328685	watch|we	-0.1084367
-4.027655	water|	-0.1503851
-4.328685	wave|	-0.2141944
-3.515772	wear|	-0.1855438
-3.453624	wear|I	-0.1697275
-4.328685	wear|PERSON	-0.2873455
-4.328685	wear|trip	-0.1270919
-4.328685	wedge|	-0.2976853
-4.328685	week|some	-0.1264802
-4.027655	welcome|	-0.2915085
-4.328685	welcome|breathtaking	-0.3669089
-4.328685	welcome|great	-0.2875049
-4.328685	welcome|who	-0.3674295
-4.328685	weren|PERSON	-0.36798
-3.851564	weren|we	-0.1081519
-4.328685	weren|which	-0.1271021
-3.399266	we|	-0.269294
-4.328685	we|PERSON	-0.1271021
-4.328685	we|freeze	-0.1270919
-4.328685	we|t	-0.3679698
-3.930745	we|that	-0.08524104
-4.328685	whine|	-0.124988
-4.328685	whine|I	-0.1181674
-4.328685	whine|we	-0.06710718
-4.328685	whisper|	-0.3538031
-4.328685	whistle|the	-0.3677354
-4.328685	whittle|I	-0.1253053
-4.328685	win.|	-0.1257449
-3.930745	wind|	-0.1743131
-4.328685	wind|we	-0.3673989
-3.851564	win|I	-0.1879096
-4.328685	win|ORGANIZATION	-0.2141944
-4.328685	win|female	-0.1270715
-4.328685	wipe|	-0.2874927
-4.328685	wipe|kid	-0.126225
-4.152594	wish|	-0.2702184
-3.287293	wish|I	-0.2318707
-4.328685	wish|you	-0.3046132
-4.152594	witness|I	-0.3073866
-4.328685	witness|we	-0.04664136
-3.675473	wonder|	-0.4118779
-3.515772	wonder|I	-0.1563541
-4.328685	wonder|PERSON	-0.286965
-4.328685	wonder|you	-0.3678068
-4.328685	won|PERSON	-0.06710718
-4.328685	won|nature	-0.3678985
-2.881527	work|	-0.1630186
-3.784617	work|I	-0.2016159
-4.027655	work|PERSON	-0.2305243
-4.328685	work|ac	-0.1271123
-3.930745	work|he	-0.1654655
-3.350962	work|it	-0.3068264
-4.152594	work|that	-0.2988935
-3.784617	work|they	-0.3570227
-4.027655	work|we	-0.2645283
-4.027655	work|which	-0.1709893
-4.152594	work|who	-0.2873945
-3.374443	worry|	-0.09700061
-3.784617	worry|I	-0.04028514
-4.027655	worry|PERSON	-0.0465923
-4.027655	worry|we	-0.07699722
-4.027655	wouldn|I	-0.2139039
-4.328685	wouldn|they	-0.1192373
-4.152594	wouldn|we	-0.1931829
-4.152594	wouldn|you	-0.3077027
-4.328685	would|it	-0.04664136
-4.328685	would|we	-0.1271123
-4.152594	wrap|	-0.2133807
-4.027655	wreck|	-0.1449038
-4.328685	wreck|I	-0.124988
-4.328685	wrestle|I	-0.04664136
-3.425595	write|	-0.1442606
-3.629715	write|I	-0.270327
-4.328685	write|she	-0.04664136
-3.930745	yell|	-0.2384717
-4.328685	yell|I	-0.3545813
-4.328685	yell|some	-0.1271123
-4.328685	yell|we	-0.2989174
-4.328685	yep|	-0.3673478
-4.152594	yet?|we	-0.1127414
-4.328685	you|it	-0.1270919
-4.328685	you|that	-0.3065306
-4.152594	zip|	-0.1934989
-4.328685	zip|we	-0.1271123
-4.328685	zoom|	-0.2867931
-3.483587	|	-0.2965102
-4.328685	|meaning	-0.1263169
-4.328685	|photo	-0.3670416
-4.027655	|who	-0.1248037

\2-grams:
-0.595544	!!!|PERSON have|
-0.9270903	<s> <unk>
-2.153554	<s> arrive|we
-2.813548	<s> become|I
-2.813548	<s> believe|I
-2.813548	<s> bet|I
-0.7013112	<s> be|
-2.813548	<s> be|DURATION
-1.975088	<s> be|I
-2.813548	<s> be|Park
-2.813548	<s> be|friend
-2.256045	<s> be|it
-2.813548	<s> be|no
-2.813548	<s> be|picture
-2.813548	<s> be|site
-2.813548	<s> be|theme
-2.153554	<s> be|we
-2.813548	<s> bring|
-2.865057	<s> buy|I
-2.813548	<s> buy|we
-2.813548	<s> buy|wife
-2.256045	<s> camp|
-2.813548	<s> camp|we
-2.813548	<s> canoe|
-2.813548	<s> clear|we
-2.865057	<s> come|thing
-2.865057	<s> come|we
-2.813548	<s> decide|I
-2.256045	<s> decide|PERSON
-1.6163	<s> do|
-2.256045	<s> do|I
-2.813548	<s> do|ORGANIZATION
-2.865057	<s> do|PERSON
-2.865057	<s> do|we
-2.813548	<s> drive|PERSON
-2.865057	<s> eat|
-2.813548	<s> face|
-2.813548	<s> feel|
-2.813548	<s> feel|it
-2.813548	<s> find|DATE
-2.813548	<s> find|we
-2.813548	<s> finish|I
-2.813548	<s> gaze|we
-1.667453	<s> get|I
-2.865057	<s> get|LOCATION
-2.865057	<s> get|PERSON
-2.813548	<s> get|kid
-1.725445	<s> get|we
-2.813548	<s> get|you
-2.865057	<s> give|I
-2.813548	<s> give|we
-2.813548	<s> go|
-2.865057	<s> go|DATE
-2.153554	<s> go|I
-2.813548	<s> go|ORDINAL
-2.865057	<s> go|PERSON
-2.865057	<s> go|fam
-2.813548	<s> go|thing
-1.667453	<s> go|we
-2.865057	<s> grab|I
-2.813548	<s> hate|we
-1.208815	<s> have|
-1.975088	<s> have|I
-2.813548	<s> have|PERSON
-2.865057	<s> have|jump
-1.6163	<s> have|we
-2.865057	<s> hear|I
-2.865057	<s> here|Well
-2.813548	<s> hike|
-2.865057	<s> hike|I
-2.813548	<s> intend|
-2.813548	<s> invite|PERSON
-2.256045	<s> it|
-2.153554	<s> know|I
-2.813548	<s> know|you
-2.813548	<s> leave|I
-2.813548	<s> leave|PERSON
-2.865057	<s> leave|we
-2.813548	<s> let|
-2.865057	<s> live|
-2.153554	<s> love|I
-2.813548	<s> make|I
-2.813548	<s> make|PERSON
-2.813548	<s> meet|PERSON
-2.865057	<s> mention|I
-2.813548	<s> need|I
-2.813548	<s> need|NUMBER
-2.813548	<s> need|we
-2.813548	<s> own|
-2.865057	<s> pack|I
-2.813548	<s> pack|we
-2.865057	<s> pick|PERSON
-2.865057	<s> play|
-2.865057	<s> publish|
-2.813548	<s> remember|I
-2.865057	<s> rest|
-2.813548	<s> return|I
-2.813548	<s> return|we
-2.865057	<s> seem|it
-2.813548	<s> see|
-2.865057	<s> see|we
-2.813548	<s> sleep|
-2.813548	<s> sleep|I
-2.813548	<s> spend|I
-2.813548	<s> spend|we
-2.813548	<s> start|DATE
-2.813548	<s> start|we
-2.813548	<s> suggest|I
-2.256045	<s> survive|I
-2.813548	<s> survive|we
-2.813548	<s> swim|I
-2.153554	<s> take|I
-2.865057	<s> take|drive
-2.813548	<s> take|you
-2.256045	<s> think|I
-2.813548	<s> think|we
-2.813548	<s> turn|it
-2.813548	<s> update|
-2.813548	<s> use|PERSON
-2.865057	<s> wake|I
-2.865057	<s> wake|we
-2.813548	<s> walk|i
-2.813548	<s> walk|we
-2.813548	<s> want|
-2.813548	<s> want|we
-2.813548	<s> we|
-2.865057	<s> work|
-2.813548	<s> write|
-2.016324	<unk> </s>
-0.6761415	<unk> <unk>
-3.983605	<unk> abandon|
-3.983605	<unk> accomplish|
-4.035113	<unk> accord|
-3.426102	<unk> add|
-3.983605	<unk> admire|
-3.983605	<unk> admit|I
-4.035113	<unk> agree|PERSON
-3.983605	<unk> agree|we
-4.035113	<unk> allow|
-3.983605	<unk> amaze|
-3.983605	<unk> anchor|we
-4.035113	<unk> appear|it
-3.983605	<unk> appear|what
-3.983605	<unk> appoint|
-3.983605	<unk> approach|I
-3.983605	<unk> arise|need
-3.426102	<unk> arrive|
-3.983605	<unk> arrive|p
-3.134315	<unk> arrive|we
-3.983605	<unk> ascend|
-3.426102	<unk> ask|
-2.83751	<unk> ask|I
-3.983605	<unk> ask|she
-4.035113	<unk> ask|they
-3.983605	<unk> ask|we
-3.983605	<unk> ask|you
-3.983605	<unk> assume|I
-3.983605	<unk> assume|we
-3.983605	<unk> assure|I
-4.035113	<unk> attach|
-3.983605	<unk> attempt|
-3.983605	<unk> attend|we
-3.983605	<unk> attract|
-4.035113	<unk> awake|we
-4.035113	<unk> backpack|
-4.035113	<unk> backtrack|we
-3.983605	<unk> balance|
-3.983605	<unk> bark|
-3.983605	<unk> batter|
-3.983605	<unk> beam|
-4.035113	<unk> become|
-3.983605	<unk> become|I
-4.035113	<unk> begin|I
-4.035113	<unk> begin|we
-3.983605	<unk> believe|
-3.983605	<unk> believe|I
-3.983605	<unk> believe|t
-3.983605	<unk> believe|you
-0.7277623	<unk> be|
-3.983605	<unk> be|!!
-3.983605	<unk> be|DATE
-2.41838	<unk> be|I
-3.323611	<unk> be|LOCATION
-3.983605	<unk> be|MISC
-3.983605	<unk> be|MONEY
-3.983605	<unk> be|NUMBER
-3.426102	<unk> be|PERSON
-3.983605	<unk> be|activity
-3.426102	<unk> be|all
-4.035113	<unk> be|area
-3.983605	<unk> be|bathroom
-3.983605	<unk> be|bit
-4.035113	<unk> be|boy
-3.983605	<unk> be|bridge
-3.983605	<unk> be|brother
-3.983605	<unk> be|camper
-3.983605	<unk> be|camping
-3.983605	<unk> be|coral
-3.983605	<unk> be|dive
-4.035113	<unk> be|diver
-3.983605	<unk> be|everyone
-3.983605	<unk> be|everything
-3.983605	<unk> be|fish
-3.983605	<unk> be|friend
-3.983605	<unk> be|glacier
-3.983605	<unk> be|guy
-3.145144	<unk> be|he
-4.035113	<unk> be|head
-4.035113	<unk> be|hotel
-3.983605	<unk> be|house
-3.983605	<unk> be|i
-2.360388	<unk> be|it
-4.035113	<unk> be|kid
-3.983605	<unk> be|life
-3.426102	<unk> be|lot
-3.983605	<unk> be|man
-3.983605	<unk> be|mile
-3.983605	<unk> be|moment
-3.983605	<unk> be|mountain
-3.983605	<unk> be|my
-3.983605	<unk> be|news
-4.035113	<unk> be|nothing
-3.983605	<unk> be|park
-4.035113	<unk> be|part
-3.983605	<unk> be|people
-3.983605	<unk> be|place
-4.035113	<unk> be|plan
-3.983605	<unk> be|plant
-3.983605	<unk> be|rain
-3.983605	<unk> be|reason
-3.983605	<unk> be|river
-3.983605	<unk> be|rock
-4.035113	<unk> be|room
-3.983605	<unk> be|school
-3.983605	<unk> be|she
-3.983605	<unk> be|shower
-4.035113	<unk> be|sign
-3.983605	<unk> be|silence
-3.983605	<unk> be|some
-3.983605	<unk> be|son
-3.983605	<unk> be|space
-3.983605	<unk> be|star
-3.983605	<unk> be|table
-3.983605	<unk> be|talk
-4.035113	<unk> be|temperature
-3.983605	<unk> be|tent
-2.661418	<unk> be|that
-3.983605	<unk> be|theme
-3.323611	<unk> be|they
-3.426102	<unk> be|thing
-3.134315	<unk> be|this
-3.983605	<unk> be|time
-3.983605	<unk> be|toilet
-3.983605	<unk> be|tower
-3.983605	<unk> be|track
-4.035113	<unk> be|traffic
-3.983605	<unk> be|trail
-3.983605	<unk> be|view
-3.983605	<unk> be|walking
-3.983605	<unk> be|water
-3.983605	<unk> be|way
-2.263478	<unk> be|we
-4.035113	<unk> be|what
-3.323611	<unk> be|which
-3.983605	<unk> be|who
-3.983605	<unk> be|you
-3.983605	<unk> bite|
-4.035113	<unk> bite|mosquito
-3.983605	<unk> blag|
-3.983605	<unk> blend|
-3.983605	<unk> bless|God
-4.035113	<unk> blow|
-3.983605	<unk> blow|CAUSE_OF_DEATH
-4.035113	<unk> blow|I
-3.983605	<unk> blow|wind
-3.983605	<unk> board|we
-3.983605	<unk> boil|
-4.035113	<unk> bore|
-3.983605	<unk> borrow|we
-3.983605	<unk> brave|
-4.035113	<unk> break|
-3.323611	<unk> break|I
-3.983605	<unk> breathe|
-3.983605	<unk> breathe|you
-3.983605	<unk> brew|sun
-3.323611	<unk> bring|
-3.983605	<unk> bring|I
-4.035113	<unk> bring|PERSON
-3.983605	<unk> bring|man
-3.426102	<unk> bring|we
-3.426102	<unk> build|
-4.035113	<unk> burn|
-3.983605	<unk> bury|
-3.983605	<unk> buy|I
-3.145144	<unk> buy|we
-3.983605	<unk> buy|wife
-3.134315	<unk> call|
-3.983605	<unk> call|PERSON
-4.035113	<unk> call|he
-4.035113	<unk> call|they
-3.983605	<unk> call|we
-3.983605	<unk> calm|I
-3.145144	<unk> camp|
-3.983605	<unk> camp|we
-3.983605	<unk> can|you
-3.983605	<unk> carry|
-3.983605	<unk> carry|I
-3.323611	<unk> catch|
-4.035113	<unk> catch|I
-3.983605	<unk> catch|PERSON
-4.035113	<unk> cause|
-3.983605	<unk> cause|that
-3.983605	<unk> celebrate|
-4.035113	<unk> change|
-4.035113	<unk> change|I
-3.983605	<unk> charge|
-3.983605	<unk> chat|
-3.145144	<unk> check|
-3.983605	<unk> check|I
-3.983605	<unk> check|we
-3.983605	<unk> chill|we
-4.035113	<unk> choose|I
